,security,conformity,tradition,benevolence,universalism,self-direction,stimulation,hedonism,achievement,power
0,0.016707496717572212,-0.01268099807202816,-0.024646006524562836,0.0041582947596907616,-0.006314583122730255,0.01042000949382782,-0.012526115402579308,0.005632613319903612,-0.025672463700175285,0.018616296350955963
1,0.011446529068052769,-0.030179385095834732,-0.01814119890332222,-0.0011516544036567211,-0.0038735501002520323,0.007522211410105228,0.019154373556375504,0.00526362843811512,0.003101007780060172,-0.012191158719360828
2,0.008521471172571182,-0.037677377462387085,-0.02352193184196949,0.0015825703740119934,-0.006598138250410557,0.012827621772885323,0.032347485423088074,0.012356149032711983,-0.027316011488437653,0.004668857902288437
3,0.017749540507793427,-0.055789366364479065,-0.03057243302464485,-0.001717710285447538,-0.01526031643152237,-8.5506122559309e-05,-0.023687150329351425,-0.00468780379742384,-0.03614940494298935,0.0149557925760746
4,0.011490422980888579,0.02255083910864954,0.04065842293548795,0.030094714971761895,0.020935020254518374,0.010233028713182655,0.0011670491317824715,0.008468717067745503,0.05311089218160276,0.009673254189856356
5,-0.011351354420185089,-0.0005504551809281111,-0.019232138991355896,-0.010874394327402115,-0.010675341822206974,-0.009074925445020199,-0.005339668598026037,-0.010277427732944489,-0.015414264053106308,-0.006418673787266016
6,0.008562244474887848,0.0025824818294495344,0.002034172648563981,-0.005362340714782476,-0.0068818554282188416,-0.003795296186581254,-0.013729644007980824,-0.009385932236909866,0.009742164053022861,-0.025394901633262634
7,0.03169040009379387,-0.013924007304012775,-0.007131421938538551,0.009541766718029976,0.000882715976331383,0.007890420965850353,-0.021873008459806442,0.005085359793156385,0.027194559574127197,-0.024052899330854416
8,0.0600733608007431,0.011584918014705181,0.04194517061114311,0.0064503950998187065,0.011468993499875069,0.016396647319197655,0.031973712146282196,0.014690874144434929,-0.028850438073277473,0.06248042732477188
9,0.01699378341436386,0.0012191578280180693,0.004901386797428131,0.006338884122669697,-0.0005696049774996936,0.010391575284302235,-0.014436834491789341,0.011276459321379662,-0.010875328443944454,0.01532789971679449
10,0.004458623938262463,-0.00784049928188324,-0.00859813205897808,-0.005246085114777088,-0.00879494845867157,-0.000614396994933486,0.006188798695802689,-0.0037291054613888264,-0.02144693210721016,0.007071389816701412
11,-0.003070541470485102,-0.04447257393255742,-0.005908991923075443,0.0007775631920230046,0.004460683062306305,-0.00031075412382829907,0.002408672587830353,-0.0012789294664123795,0.01694611319377682,-0.017172901766311303
12,0.03169040009379387,-0.013924007304012775,-0.007131421938538551,0.009541766718029976,0.000882715976331383,0.007890420965850353,-0.021873008459806442,0.005085359793156385,0.027194559574127197,-0.024052899330854416
13,0.06659473478794098,-0.050210993736982346,-0.016549257561564445,0.04353364557027817,0.008215431123971939,0.03623061627149582,-0.023625783622264862,0.03208561986684799,-0.023145990446209908,0.061857812106609344
14,0.0240008682012558,-0.02009853534400463,-0.011313430964946747,0.0054799215868115425,-0.0009239282226189971,0.007750558666884899,-0.006288951262831688,0.005153074860572815,0.01804273948073387,-0.01954728178679943
15,-0.009497907012701035,-0.012549437582492828,-0.01181420125067234,-0.013634491711854935,-0.003371216356754303,0.001896470203064382,0.04914264753460884,-0.001492552924901247,0.012277834117412567,-0.006711693946272135
16,0.0038685777690261602,0.023735035210847855,-0.0002791432198137045,-0.0008000917150638998,0.0032793907448649406,0.006724356673657894,0.006387854460626841,0.0018378144595772028,0.015165567398071289,0.005913170520216227
17,0.010517244227230549,-0.010866024531424046,-0.006904468405991793,0.010699629783630371,0.0010910436976701021,0.008693057112395763,-0.0338430292904377,0.0066819461062550545,-0.019986407831311226,0.004884915426373482
18,0.028765572234988213,-0.03834150359034538,-0.0055608139373362064,0.00721946032717824,-0.0006903525209054351,0.013514408841729164,-0.02210216410458088,0.0140380272641778,-0.014330792240798473,0.027118593454360962
19,0.032246582210063934,-0.010380678810179234,-0.01929556392133236,0.004429460037499666,-0.0038322159089148045,0.0032543314155191183,-0.02250169776380062,0.008079739287495613,-0.039565812796354294,0.030782783403992653
20,0.03169040009379387,-0.013924007304012775,-0.007131421938538551,0.009541766718029976,0.000882715976331383,0.007890420965850353,-0.021873008459806442,0.005085359793156385,0.027194559574127197,-0.024052899330854416
21,0.031422581523656845,-0.02403438091278076,-0.006624053232371807,0.005349889397621155,-0.002532205544412136,0.007876204326748848,-0.020379824563860893,0.001731813419610262,-0.020534424111247063,0.029213178902864456
22,0.002124323043972254,-0.020902086049318314,-0.025683904066681862,-0.004255317151546478,-0.00844566710293293,0.0033375448547303677,-0.017970265820622444,0.002152309287339449,0.01798597350716591,0.026721607893705368
23,0.03169040009379387,-0.013924007304012775,-0.007131421938538551,0.009541766718029976,0.000882715976331383,0.007890420965850353,-0.021873008459806442,0.005085359793156385,0.027194559574127197,-0.024052899330854416
24,-0.0021237663459032774,-0.0017728020902723074,-0.00024628941901028156,-0.006805509328842163,-0.0034988250117748976,-0.00837134663015604,0.02042754925787449,-0.013174675405025482,0.01553899422287941,0.004873855039477348
25,0.01618579402565956,-0.04875772073864937,-0.023108912631869316,0.0047701760195195675,-0.013864824548363686,0.0033654049038887024,-0.05957047641277313,-0.002187491860240698,-0.05253228917717934,0.041875291615724564
26,0.0038192234933376312,-0.015854721888899803,-0.0063612922094762325,-0.0011416268534958363,-0.00956520065665245,0.006194836460053921,-0.00989676732569933,-0.0030730091966688633,-0.040240153670310974,0.0017119882395491004
27,0.00396743044257164,-0.04880096763372421,-0.017967958003282547,0.0023542260751128197,-0.009720590896904469,0.0030592367984354496,-0.014193187467753887,0.0007309068460017443,-0.023209350183606148,0.018924620002508163
28,0.03169040009379387,-0.013924007304012775,-0.007131421938538551,0.009541766718029976,0.000882715976331383,0.007890420965850353,-0.021873008459806442,0.005085359793156385,0.027194559574127197,-0.024052899330854416
29,0.013246889226138592,-0.022882692515850067,-0.02143608033657074,0.003626575693488121,-0.0072317267768085,0.0024596925359219313,-0.027981044724583626,0.00363301788456738,-0.03349924832582474,0.01811009645462036
30,0.013434360735118389,0.009446177631616592,0.010735101997852325,0.004473911598324776,0.005465769208967686,0.010160578414797783,0.0030582924373447895,0.006576712243258953,0.006783090066164732,0.02049047313630581
31,0.023807145655155182,-0.028933119028806686,-0.01406821422278881,0.015798745676875114,0.000504609546624124,0.01909312978386879,-0.016508176922798157,0.01372114010155201,-0.005144931375980377,0.018075307831168175
32,0.009922333993017673,-0.013224272057414055,-0.010935533791780472,-0.0031280899420380592,-0.004196161404252052,0.00477115623652935,0.007391704246401787,-0.0016718972474336624,0.005604588892310858,0.021445438265800476
33,-0.01836477592587471,-0.006655416451394558,0.00031023588962852955,-0.005087833385914564,-0.005175125785171986,-0.009311608970165253,-0.010457251220941544,0.0010916045866906643,-0.008343897759914398,-0.013055466115474701
34,0.007984230294823647,-0.05226238816976547,-0.001902235671877861,0.0162031352519989,0.0020860335789620876,0.007534890901297331,-0.004229517187923193,0.01899413764476776,-0.035182397812604904,0.05564028024673462
35,-0.020341253453673564,-0.03574105682025278,0.04448274222991105,0.004716235076797825,0.006369382387496426,0.009626055719709497,-0.005517220831375198,0.003082652415634958,-0.045137775947450776,0.016814774486868196
36,0.011399137787520885,-0.03028171882033348,-0.009910344146192074,-0.005962325260043144,-0.014308701269328594,-0.004549526143819094,-0.019606605172157288,-0.001288754865527153,-0.02982046641409397,0.020348897203803062
37,0.037996888160705566,-0.04597827047109604,-0.0017811700236052275,0.018185416236519814,0.0009188796393573284,0.017893830314278603,-0.04205881059169769,0.013834692537784576,-0.037502482533454895,0.038398027420043945
38,0.006960362195968628,-0.03378168120980263,-0.020581038668751717,-0.003521385369822383,-0.0049275681376457214,0.007440616376698017,0.02824631705880165,0.005303134676069021,-0.0022382810711860657,-0.009562524035573006
39,-0.005328088067471981,-0.04099312052130699,-0.020701609551906586,-0.002025960711762309,-0.012551076710224152,-0.0012534643756225705,0.0015148965176194906,-0.0038335025310516357,-0.030041735619306564,-0.008780349977314472
40,-0.0006049631629139185,-0.03197634220123291,-0.01324080303311348,-0.0018355667125433683,-0.003645318793132901,0.010381773114204407,0.03347976505756378,0.007046048529446125,-0.026257546618580818,0.015199989080429077
41,-0.006372191943228245,-0.02750021032989025,-0.003790605813264847,-0.00702681764960289,-0.013750012032687664,-0.008946145884692669,-0.045414768159389496,-0.01790659874677658,-0.04410342499613762,-0.013847109861671925
42,-0.01272519025951624,-0.049588751047849655,-0.03128717839717865,-0.013919893652200699,-0.009552662260830402,0.007082562893629074,0.06814219057559967,0.005476487800478935,-0.02566736564040184,0.001972089521586895
43,0.035269077867269516,-0.06664104014635086,-0.0020329300314188004,0.013539801351726055,0.003090804908424616,0.018571142107248306,-0.044295500963926315,0.014429210685193539,-0.04998095706105232,0.05770038440823555
44,-0.016015948727726936,-0.009892994537949562,-0.008773652836680412,-0.0036965487524867058,-0.00619324017316103,-0.004339234437793493,-0.008539866656064987,-0.006985791493207216,-0.023846955969929695,-0.005361595656722784
45,0.01188646148853321,-0.008889444958742271,0.019404247796751314,0.029693885548636063,0.015758893843656186,0.013118183355979564,-0.0009707154886245332,0.02036521349535624,-0.01759345098533531,0.009442457453496093
46,-0.005817286670207977,-0.014632154256105423,-0.020550023764371872,-0.0029366216622292995,-0.009835328906774521,0.006777266971766949,0.00905523356050253,0.005305856466293335,-0.04048969969153404,0.013712402433156967
47,0.082193523645401,-0.028132928535342216,0.008342660963535309,0.059546202421188354,0.01717490702867508,0.05186218023300171,-0.0564102977514267,0.05119200795888901,-0.05333160609006882,0.08973826467990875
48,0.008282264694571495,-0.011562497355043888,-0.018962696194648743,0.004782107658684254,0.0005373568274080753,0.00843488983809948,0.014855611138045788,0.0070762550458312035,-0.006499390117824078,0.009471609257161617
49,-0.03453909978270531,0.007614918984472752,0.03316037729382515,0.001968559343367815,-0.0009090949315577745,-0.019703371450304985,0.010499740019440651,-0.013494370505213737,-0.0033672794234007597,-0.04647524654865265
50,0.0240008682012558,-0.02009853534400463,-0.011313430964946747,0.0054799215868115425,-0.0009239282226189971,0.007750558666884899,-0.006288951262831688,0.005153074860572815,0.01804273948073387,-0.01954728178679943
51,0.01631426438689232,0.08714509755373001,0.010527621023356915,0.02450426295399666,0.012906553223729134,0.020500123500823975,-0.050209589302539825,0.013395366258919239,0.006202449556440115,0.004066659137606621
52,0.050658516585826874,-0.0046095894649624825,0.005314424633979797,0.029133599251508713,0.010555688291788101,0.024191830307245255,-0.02752404846251011,0.022641798481345177,-0.03298185020685196,0.047452256083488464
53,0.030482348054647446,-0.04485427215695381,-0.02101867087185383,0.016149479895830154,0.00019453326240181923,0.020774703472852707,0.012711914256215096,0.01781698688864708,-0.017045773565769196,0.026202932000160217
54,0.018580934032797813,-0.024450620636343956,-0.014261104166507721,0.0026169500779360533,-0.0021973340772092342,0.007651977706700563,0.004695398733019829,0.005200801882892847,0.011592119932174683,-0.016371507197618484
55,0.023162655532360077,-0.01055680587887764,-0.01227748952805996,0.016803238540887833,0.0031193678732961416,0.020311087369918823,0.0003002266166731715,0.01617598906159401,-0.015018489211797714,0.022651083767414093
56,0.01420138031244278,0.008480116724967957,-0.01637839525938034,0.006253148429095745,0.015127435326576233,0.00844724103808403,0.02838800847530365,0.012260738760232925,0.001720542786642909,0.020146574825048447
57,-0.02890222892165184,0.0382453016936779,-0.007226763758808374,-0.01976032927632332,-0.0038167755119502544,-0.02309821918606758,0.027073480188846588,-0.02619873732328415,0.0187060683965683,-0.05874668061733246
58,0.004845252260565758,-0.04084668681025505,-0.009371482767164707,0.009345748461782932,0.0002200512681156397,0.0044823926873505116,-0.003628042759373784,0.02258938178420067,-0.04302643984556198,0.02931688167154789
59,0.03169040009379387,-0.013924007304012775,-0.007131421938538551,0.009541766718029976,0.000882715976331383,0.007890420965850353,-0.021873008459806442,0.005085359793156385,0.027194559574127197,-0.024052899330854416
60,-0.00021185865625739098,0.012524253688752651,0.01337356586009264,-0.014003954827785492,0.002264887560158968,-0.007204086519777775,0.025347165763378143,-0.008066842332482338,0.03712074086070061,0.0005383249372243881
61,0.018566809594631195,-0.02733096480369568,-0.01518071535974741,0.004914386663585901,-0.008776837028563023,0.00519566610455513,-0.013990746811032295,0.0017633960815146565,-0.03672244772315025,0.019914789125323296
62,0.04310816526412964,-0.06164301186800003,-0.0020668483339250088,0.017742067575454712,0.0008520348928868771,0.015661463141441345,-0.07878495007753372,0.010648147203028202,-0.04799234867095947,0.058044299483299255
63,0.01627962663769722,-0.05078502744436264,-0.017333947122097015,0.010132204741239548,-0.006712812464684248,0.013525037094950676,-0.05610070377588272,0.011243404820561409,-0.04640284553170204,0.03383222967386246
64,0.023840488865971565,-0.03137260675430298,-0.023194124922156334,0.001759211765602231,-0.01091854553669691,0.007827002555131912,-0.029661867767572403,0.0022303895093500614,-0.042712558060884476,0.024879073724150658
65,0.026560818776488304,-0.01349237747490406,-0.003306387923657894,0.010113407857716084,0.001444435678422451,0.009575026109814644,-0.017308952286839485,0.006098547950387001,0.012418576516211033,-0.009307405911386013
66,0.016429634764790535,-0.026178063824772835,-0.01543110329657793,0.001480568666011095,-0.0027027768082916737,0.007612846326082945,0.009055333212018013,0.005219746381044388,0.009031721390783787,-0.015110969543457031
67,-0.012725195847451687,-0.04958874732255936,-0.03128717467188835,-0.013919896446168423,-0.009552663192152977,0.0070825619623064995,0.06814219802618027,0.005476487800478935,-0.02566736564040184,0.0019720876589417458
68,0.002145162783563137,-0.008164521306753159,-0.018753552809357643,-0.010206053964793682,-0.005508975125849247,-0.006966186687350273,0.006022506393492222,-0.0017362013459205627,-0.016257721930742264,0.022933073341846466
69,0.01068094652146101,-0.023500114679336548,-0.013325192965567112,0.0029316756408661604,-0.001027144375257194,0.012125830166041851,0.006960586179047823,0.008790163323283195,-0.016498388722538948,0.010342421010136604
70,0.008644932880997658,-0.02182328887283802,0.0019504008814692497,-0.002344153355807066,-0.007797035854309797,0.0005241397302597761,-0.01784905232489109,0.0008907815208658576,-0.02484934963285923,0.01176408864557743
71,-0.020080816000699997,-0.010893965139985085,-0.010976538993418217,0.016238076612353325,0.004957214463502169,-0.0021024015732109547,-0.02341596595942974,-0.0036462394054979086,0.010497190058231354,-0.01703466661274433
72,0.010371064767241478,-0.07716603577136993,-0.023660635575652122,0.018897904083132744,-0.004447623156011105,0.00893700122833252,-0.010626183822751045,0.021721502766013145,-0.05378512293100357,0.053294647485017776
73,0.001537491101771593,-0.004468908533453941,-0.013698474504053593,0.002075697761029005,-0.007985226809978485,0.006963261868804693,-0.011936274357140064,0.0054342374205589294,-0.040269892662763596,0.01710795797407627
74,0.020815933123230934,-0.019016316160559654,-0.0064404988661408424,0.0037815263494849205,-0.005277356598526239,0.002396116266027093,-0.02815108373761177,-0.00040601869113743305,-0.024989450350403786,0.024019472301006317
75,-0.009974554181098938,-0.014541074633598328,-0.01087369117885828,-0.003837368916720152,-0.004533765371888876,0.0016271370695903897,0.016728099435567856,0.0017134398221969604,0.007935245521366596,0.0029375171288847923
76,-0.0034524640068411827,-0.03966749832034111,-0.012071258388459682,0.009192483499646187,-0.0008254494750872254,0.011485843919217587,0.004353955388069153,0.011068257503211498,-0.038505204021930695,0.04053487628698349
77,0.01290576159954071,-0.01234336569905281,0.006875928957015276,0.011635130271315575,0.0029397420585155487,0.014059484004974365,-0.005159309599548578,0.008795676752924919,-0.026915445923805237,0.02994546666741371
78,-0.0036311496514827013,-0.03737051039934158,-0.02107565477490425,-0.012384934350848198,-0.008317881263792515,0.007737529929727316,0.060832202434539795,0.005165684502571821,-0.03003360517323017,0.005288633517920971
79,-0.00437829177826643,-0.0012410584604367614,-0.015509923920035362,0.0011039815144613385,-0.00243273563683033,0.010252714157104492,0.015053950250148773,0.012895184569060802,-0.027140643447637558,0.011572248302400112
80,0.04739641398191452,-0.018586913123726845,-0.01130387932062149,0.03219433128833771,-0.002262019319459796,0.02615300565958023,-0.02933128923177719,0.028654417023062706,-0.04447579383850098,0.017555976286530495
81,0.0009838987627233554,0.023377765392912173,-0.04625803223163643,0.008208080833811046,-0.0021247525037332493,0.007256537472791377,0.015159566421156975,0.01260726425278766,0.0003478059650153598,-0.019353790475397033
82,0.022877929732203484,-0.024025017395615578,-0.007743007503449917,0.002992132445797324,-0.006861469242721796,0.0029272122774273157,-0.04615568742156029,0.0021550944074988365,-0.03226155415177345,0.017369452863931656
83,-0.04055636376142502,0.040716469287872314,-0.019506121054291725,-0.017744937911629677,-0.010671032592654228,-0.009946854785084724,-0.028209539130330086,-0.016310298815369606,-0.05056323856115341,-0.044483475387096405
84,0.0240008682012558,-0.02009853534400463,-0.011313430033624172,0.0054799215868115425,-0.0009239282226189971,0.007750558666884899,-0.006288951262831688,0.005153074860572815,0.01804273948073387,-0.01954728178679943
85,0.01619778946042061,-0.025122249498963356,-0.006702407728880644,-0.0017507984302937984,4.738091956824064e-05,0.005010941065847874,0.014514007605612278,0.0029790543485432863,-0.027347415685653687,0.004406288266181946
86,0.013748000375926495,0.0073127588257193565,0.007013832218945026,-0.0012090456439182162,-0.0021493500098586082,0.0064463019371032715,-0.013711904175579548,0.0030435221269726753,-0.013438460417091846,-0.0050062984228134155
87,0.021802805364131927,-0.004245812073349953,-0.0016365537885576487,0.014628205448389053,0.004436111077666283,0.01687096245586872,-0.018381603062152863,0.013044356368482113,-0.01216093823313713,0.016028258949518204
88,0.004421335645020008,0.04307877644896507,0.01525614783167839,0.016576439142227173,0.016515428200364113,0.0012068329378962517,0.03134099766612053,0.001914061140269041,0.0654546469449997,0.019781099632382393
89,-0.012725181877613068,-0.04958874732255936,-0.03128717467188835,-0.0139198899269104,-0.009552661329507828,0.007082563824951649,0.06814219802618027,0.0054764896631240845,-0.02566736750304699,0.0019720890559256077
90,0.011229906231164932,0.005606069695204496,-0.011580415070056915,-0.00397951016202569,-0.007580721750855446,0.005265792831778526,-0.028830965980887413,-0.0021505742333829403,-0.04274631664156914,0.03764181211590767
91,0.018000811338424683,0.0760592445731163,0.00859067402780056,0.02286309003829956,0.011587709188461304,0.019117021933197975,-0.0471014641225338,0.012483876198530197,0.008504984900355339,0.0009823398431763053
92,-0.03423604369163513,0.06341248005628586,0.01767471432685852,-0.0357985645532608,0.004343537613749504,-0.016810404136776924,0.07083336263895035,-0.023379476740956306,0.09726156294345856,-0.029868774116039276
93,0.01631426438689232,0.08714509755373001,0.010527621023356915,0.02450426295399666,0.012906553223729134,0.020500123500823975,-0.050209589302539825,0.013395366258919239,0.006202449556440115,0.004066659137606621
94,0.03169040009379387,-0.013924007304012775,-0.007131421938538551,0.009541766718029976,0.000882715976331383,0.007890420965850353,-0.021873008459806442,0.005085359793156385,0.027194559574127197,-0.024052899330854416
95,0.03169040009379387,-0.013924007304012775,-0.007131421938538551,0.009541766718029976,0.000882715976331383,0.007890420965850353,-0.021873008459806442,0.005085359793156385,0.027194559574127197,-0.024052899330854416
96,0.018580934032797813,-0.024450620636343956,-0.014261104166507721,0.0026169500779360533,-0.0021973340772092342,0.007651977706700563,0.004695398733019829,0.005200801882892847,0.011592119932174683,-0.016371507197618484
97,0.0226582158356905,-0.013424061238765717,-0.006123187020421028,0.01226377859711647,0.00013141566887497902,0.019705355167388916,-0.008687872439622879,0.0113877784460783,-0.009676950983703136,0.024269189685583115
98,0.009825381450355053,-0.00940427090972662,-0.019246496260166168,0.007044375874102116,-0.008377975784242153,0.0016273673390969634,-0.04794221371412277,-0.00042570929508656263,-0.038910992443561554,0.02442198619246483
99,-0.0057008834555745125,-0.05303777754306793,0.0014202186139300466,0.002407331485301256,-0.005057877395302057,0.0046118092723190784,0.019648712128400803,0.0033271312713623047,-0.02974729798734188,0.05572916567325592
100,0.036404088139534,-0.058156490325927734,-0.01147430669516325,0.017692331224679947,-0.0077183120884001255,0.010598449036478996,-0.059585005044937134,0.009724246338009834,-0.04217096418142319,0.041151273995637894
101,0.017191141843795776,0.011241065338253975,0.018797174096107483,0.010172602720558643,0.004115934483706951,0.012673238292336464,-0.014145324006676674,0.014130396768450737,-0.0036182706244289875,0.022532543167471886
102,0.03573906049132347,-0.0023875415790826082,0.03346330672502518,0.021773910149931908,0.016748227179050446,0.021237550303339958,-0.005693504586815834,0.01801329106092453,-0.0017915284261107445,0.03523825481534004
103,0.02321058325469494,-0.02762528322637081,0.0003560474142432213,0.0068449582904577255,-0.008337008766829967,0.008466384373605251,-0.02748304046690464,0.0021765041165053844,-0.03342120349407196,0.03563752770423889
104,0.012543118558824062,-0.023204099386930466,-0.0074537284672260284,0.001169324852526188,-0.0040141511708498,0.005285840015858412,0.008436757139861584,0.0037397558335214853,-0.012254705652594566,-0.0021503984462469816
105,-0.008065960370004177,-0.05856705084443092,-0.05069706216454506,-0.027851566672325134,-0.03722508251667023,-0.029988903552293777,-0.0037935208529233932,-0.03827551752328873,-0.02130313590168953,-0.02969333902001381
106,0.006623322609812021,-0.011386007070541382,-0.014829167164862156,0.0012246923288330436,-0.0017314944416284561,0.010176734067499638,0.016584157943725586,0.007024225313216448,-0.004306819289922714,-0.004098561592400074
107,-0.005854492541402578,0.004697829484939575,-0.009683726355433464,-0.009019569493830204,-0.004812592640519142,-0.004728809930384159,-0.0037076142616569996,-0.008097517304122448,0.0014793279115110636,-0.006887682713568211
108,0.026321066543459892,-0.019869986921548843,0.01798911578953266,0.002111145993694663,0.0006994372233748436,0.011960325762629509,-0.011462531983852386,0.011577583849430084,0.0033773609902709723,0.02979782037436962
109,-0.00792512483894825,-0.0060073393397033215,-0.005155352409929037,-0.0021198277827352285,0.0005297029856592417,0.0020770812407135963,0.019223526120185852,-0.002103450708091259,-0.02376912720501423,-0.007441098801791668
110,0.0240008682012558,-0.02009853534400463,-0.011313430964946747,0.0054799215868115425,-0.0009239282226189971,0.007750558666884899,-0.006288951262831688,0.005153074860572815,0.01804273948073387,-0.01954728178679943
111,0.011446529068052769,-0.030179385095834732,-0.01814119890332222,-0.0011516544036567211,-0.0038735501002520323,0.007522211410105228,0.019154373556375504,0.00526362843811512,0.003101007780060172,-0.012191158719360828
112,0.002846319694072008,-0.007937316782772541,-0.036605458706617355,-0.005388040095567703,0.008591379970312119,0.007658013142645359,0.0500972718000412,0.003070598468184471,-0.022217262536287308,0.016931839287281036
113,-0.0053260778076946735,0.03146504610776901,-0.011529787443578243,0.0037187219131737947,0.004449142143130302,0.011393476277589798,0.014881936833262444,0.012339849025011063,-0.010058961808681488,0.004095500335097313
114,0.002309683710336685,-0.037516068667173386,-0.023110343143343925,-0.005978016648441553,-0.00602024095132947,0.0073560262098908424,0.03767165541648865,0.005344088189303875,-0.0077733611688017845,-0.006837490480393171
115,-0.020957905799150467,0.05677773803472519,0.012072449550032616,-0.028844811022281647,0.0032541179098188877,-0.011416631750762463,0.05990263447165489,-0.016961365938186646,0.08272736519575119,-0.02445298619568348
116,0.012674731202423573,-0.028905194252729416,-0.009544754400849342,0.005581845063716173,-0.00419839471578598,0.009009961038827896,-0.013093288987874985,0.004518445581197739,-0.02721414342522621,0.022265100851655006
117,-0.012725195847451687,-0.04958874732255936,-0.03128717467188835,-0.013919896446168423,-0.009552663192152977,0.0070825619623064995,0.06814219802618027,0.005476487800478935,-0.02566736564040184,0.0019720876589417458
118,0.007124973926693201,-0.015737038105726242,-0.011582215316593647,-0.006325819529592991,-0.009263701736927032,-0.0040406035259366035,-0.028748882934451103,-0.004147365689277649,-0.03898371756076813,0.006840614136308432
119,-0.012725195847451687,-0.04958874732255936,-0.03128717467188835,-0.013919896446168423,-0.009552663192152977,0.0070825619623064995,0.06814219802618027,0.005476487800478935,-0.02566736564040184,0.0019720876589417458
120,-0.011134091764688492,0.03631221130490303,0.008982142433524132,-0.019910400733351707,0.003130795434117317,-0.008154735900461674,0.03834717348217964,-0.013404825702309608,0.07270866632461548,-0.02783077210187912
121,0.025467632338404655,-0.04936092346906662,-0.027156706899404526,0.01763320527970791,-0.00643510464578867,0.011604046449065208,-0.03827165439724922,0.014586588367819786,-0.030015500262379646,0.03171886131167412
122,0.0025950120761990547,-0.026307817548513412,-0.002667817287147045,0.0030034719966351986,-0.0015025297179818153,0.006427393294870853,0.008844371885061264,0.00609479658305645,-0.015671825036406517,0.033931631594896317
123,-0.028724025934934616,0.04504077136516571,0.010253175161778927,-0.030887406319379807,0.0023705640342086554,-0.012483945116400719,0.06662832200527191,-0.018258579075336456,0.0772242397069931,-0.024740472435951233
124,-0.001978112617507577,-0.03725124150514603,0.0035555746871978045,0.005658850073814392,-0.0027926776092499495,0.006276702042669058,0.008950479328632355,0.004347394686192274,-0.02446582168340683,0.05028504505753517
125,0.009177223779261112,-0.036532580852508545,-0.01135292463004589,0.00032330164685845375,0.003938218113034964,0.008895335718989372,-0.011179030872881413,0.0016694124788045883,-0.006363227963447571,-0.006178722251206636
126,-0.01247880794107914,-0.03074559010565281,-0.021211985498666763,0.012260095216333866,0.0025645620189607143,0.014929326251149178,-0.0033228921238332987,0.013976966962218285,-0.014964691363275051,0.00903844740241766
127,0.008760065771639347,0.01660885661840439,-0.07253170013427734,-0.003185499692335725,-0.01607099547982216,0.00306052272208035,-0.02550973743200302,-0.005223238840699196,-0.054108403623104095,0.039177704602479935
128,0.031734906136989594,0.002116706920787692,-0.006294031161814928,0.025731965899467468,0.002555407118052244,0.024739878252148628,-0.014416886493563652,0.01884320005774498,-0.03799092769622803,0.029118813574314117
129,-0.012725195847451687,-0.04958874732255936,-0.03128717467188835,-0.013919896446168423,-0.009552663192152977,0.0070825619623064995,0.06814219802618027,0.005476487800478935,-0.02566736564040184,0.0019720876589417458
130,-0.008444758132100105,0.0005828074645251036,-0.012616731226444244,-0.010253449901938438,-0.0061349947936832905,-0.00866793654859066,-0.011644949205219746,-0.011011453345417976,-0.006720742676407099,-0.005810936912894249
131,0.006960362195968628,-0.03378168120980263,-0.020581038668751717,-0.003521385369822383,-0.0049275681376457214,0.007440616376698017,0.02824631705880165,0.005303134676069021,-0.0022382810711860657,-0.009562524035573006
132,-0.04413071214729487,-0.01521812474625803,0.024005992369986098,-0.001262762097519223,-0.011925105284736722,0.002994661596201532,0.02320532979049884,0.006551916655702964,0.00784161019290088,0.008035802167581492
133,-0.018414674326777458,-0.00029513356275856495,-0.018244192004203796,-0.011944815516471863,-0.008660371415317059,-0.010068866424262524,-0.003365057520568371,-0.012273384258151054,-0.0027381384279578924,-0.012284884229302406
134,0.007513156160712242,-0.047851067036390305,-0.011165846139192581,0.017215624451637268,0.003459860337898135,0.016181666404008865,-0.021540094166994095,0.010670186020433903,-0.011280814185738564,0.043483637273311615
135,0.028075847774744034,-0.0353790782392025,-0.02575276419520378,0.004204846452921629,-0.009798831306397915,0.0139265526086092,0.0033309527207165956,0.0166374109685421,-0.05372641608119011,0.020026160404086113
136,0.009225457906723022,0.0286360252648592,0.00037761544808745384,-0.008862249553203583,-0.005087290424853563,-0.0057502924464643,-0.044828448444604874,-0.013729801401495934,-0.008160912431776524,0.016839276999235153
137,0.002322332002222538,-0.03457899019122124,-0.030368704348802567,-0.00656027439981699,-0.014508727937936783,0.0016118091298267245,-0.000596561876591295,-0.0010347268544137478,-0.01179858110845089,-0.00032071967143565416
138,-0.0041631730273365974,-0.042713627219200134,-0.02663065306842327,-0.0093971723690629,-0.007541026454418898,0.007238293066620827,0.050789907574653625,0.005401089321821928,-0.015477128326892853,-0.0030447717290371656
139,0.04524625092744827,-0.008765106089413166,0.0005985328461974859,0.017344556748867035,0.00224517029710114,0.013986158184707165,-0.003707608673721552,0.010544570162892342,-0.014045985415577888,0.010279457084834576
140,-0.012508266266200423,0.0050447746289492825,-0.022237455442381746,0.001155377698054762,-0.010926309689550209,-0.004280890003439539,-0.03163976956242449,-0.005702544537696013,-0.03644315759343307,-0.011790974026254822
141,0.010414909571409225,-0.02667025290429592,-0.01412227377295494,-0.0008772945730015635,-0.0027858151588588953,0.00849627610296011,0.021592460572719574,0.006056806538254023,-0.005127431359142065,-0.0012803683057427406
142,0.02794634737074375,-0.008419123478233814,-1.9837403669953346e-05,0.026049038395285606,0.008182772435247898,0.020759403705596924,-0.005457674153149128,0.01703048124909401,-0.001335163600742817,0.025138288736343384
143,0.005541172809898853,0.0012340900721028447,-0.010774037800729275,0.004053384065628052,0.0001907850382849574,0.012040559202432632,0.010743153281509876,0.008183939382433891,-0.008295627310872078,0.0018591531552374363
144,0.03169040009379387,-0.013924007304012775,-0.007131421938538551,0.009541766718029976,0.000882715976331383,0.007890420965850353,-0.021873008459806442,0.005085359793156385,0.027194559574127197,-0.024052899330854416
145,0.013146530836820602,-0.06854964792728424,-0.024560099467635155,0.011169789358973503,-0.0068833911791443825,0.009818199090659618,-0.004103863146156073,0.01633601449429989,-0.04352561756968498,0.02869431860744953
146,0.028391903266310692,-0.04088318347930908,-0.02063937298953533,0.008757851086556911,-0.011612995527684689,0.002588181523606181,-0.07648468017578125,-0.00255988840945065,-0.028644561767578125,0.023479541763663292
147,0.009261565282940865,0.028713151812553406,-0.02585926093161106,0.0038514952175319195,-0.0014671431854367256,0.007071659900248051,-0.016459979116916656,0.000956130214035511,-0.025099866092205048,0.0051047177985310555
148,0.0180211178958416,-0.009371310472488403,-0.007740312721580267,0.008451400324702263,-0.005410301964730024,0.008346778340637684,-0.040914203971624374,0.004024740308523178,-0.04382634162902832,0.02675679884850979
149,-0.0009844359010457993,-0.004385614767670631,-0.004922720603644848,-0.007911124266684055,-0.0007740176515653729,0.0027616138104349375,0.029862679541110992,-0.0011389505816623569,0.018858810886740685,-0.007295009680092335
150,0.02107500471174717,-0.022447941824793816,-0.012904682196676731,0.003934391774237156,-0.001611356041394174,0.007697341963648796,-0.0003592346329241991,0.005178839899599552,0.014560485258698463,-0.017832890152931213
151,0.01601335220038891,0.01490684226155281,0.012115106917917728,0.003535014111548662,-0.00831874180585146,0.004270776174962521,-0.05729477480053902,-0.002626487286761403,-0.07686930894851685,0.05408279597759247
152,0.011821402236819267,-0.04843266308307648,-0.01226411759853363,0.017999963834881783,0.0024956315755844116,0.016693629324436188,-0.034086376428604126,0.01463325135409832,-0.0016231240006163716,0.01502637192606926
153,0.026864977553486824,-0.029069827869534492,-0.012842169031500816,0.016560738906264305,-0.003378599649295211,0.008976077660918236,-0.014538511633872986,0.014782467857003212,-0.050047051161527634,0.019808148965239525
154,0.006162847660044614,0.004513493293558515,0.002668670381371087,-0.012594689210664502,-0.005476390436251698,-0.00903197124298001,-0.013031523210370904,-0.017678788897515337,-0.029287216882922962,0.002710716083174148
155,0.0262460820376873,-0.04826729744672775,-0.006062158849090338,0.006731186527758837,-0.01117849163711071,0.0060069989413022995,-0.04244221746921539,0.00039831752656027675,-0.03893522545695305,0.02815074287354946
156,0.02819049544632435,-0.01399184949696064,-0.027892716228961945,0.007115453481674194,-0.01074039377272129,0.007436202839016914,-0.03172621876001358,0.0045698899775743484,-0.04977373033761978,0.0355147048830986
157,0.05699988082051277,0.02183021418750286,0.0056891655549407005,0.028196154162287712,0.018692169338464737,0.025141052901744843,-0.022959759458899498,0.018015587702393532,0.008682389743626118,0.03394613787531853
158,0.04491931200027466,-0.04663490504026413,-0.019195260480046272,0.026392709463834763,0.001977349864318967,0.024827562272548676,-0.013158788904547691,0.021111302077770233,-0.02112359181046486,0.040536727756261826
159,0.01353264506906271,-0.013498586602509022,-0.013481039553880692,0.0015768853481858969,-0.007639951538294554,0.01111743226647377,-0.016605915501713753,0.0012377940583974123,-0.020947197452187538,0.01808076910674572
160,0.007718387525528669,-0.017288479954004288,-0.014620492234826088,0.0017119863769039512,-0.005677453242242336,0.008054854348301888,0.000684158643707633,0.004108324181288481,-0.023480700328946114,0.007968177087605
161,-0.012725195847451687,-0.04958874732255936,-0.03128717467188835,-0.013919896446168423,-0.009552663192152977,0.0070825619623064995,0.06814219802618027,0.005476487800478935,-0.02566736564040184,0.0019720876589417458
162,0.042544886469841,-0.011159730143845081,-0.014720989391207695,0.017983146011829376,0.001819845987483859,0.025594141334295273,-0.014226512983441353,0.02142597734928131,-0.07541347295045853,0.058532290160655975
163,-0.015857471153140068,0.05239683389663696,-0.023282183334231377,-0.005625871941447258,0.004926105961203575,0.005516448523849249,0.04453146830201149,0.00946352630853653,0.004573908168822527,0.004544538911432028
164,-0.021485155448317528,0.014971405267715454,-0.009381648153066635,-0.021393094211816788,-0.004723624791949987,-0.009272078983485699,0.04096219688653946,-0.010571962222456932,0.01903703063726425,-0.013545328751206398
165,0.05849010869860649,-0.04178531467914581,-0.014362477697432041,0.03564087674021721,0.006512805819511414,0.029650144279003143,-0.023218801245093346,0.02581627666950226,-0.011457128450274467,0.04190972447395325
166,0.042349617928266525,-0.044745638966560364,-0.0019274188671261072,0.028526263311505318,0.004728357773274183,0.02488388866186142,-0.03636179491877556,0.02389659360051155,-0.02841631881892681,0.05158127844333649
167,0.013905136846005917,-0.012096247635781765,0.00659297127276659,-0.002067848574370146,0.0019210504833608866,0.00514628691598773,0.005096083506941795,0.0013201237889006734,0.016973143443465233,0.010666180402040482
168,0.01197630725800991,-0.011395053938031197,-0.0392225943505764,0.007181309163570404,-0.011463589034974575,0.005528382025659084,-0.036531705409288406,0.0007710170466452837,-0.04664674028754234,0.02612612210214138
169,-0.009327176958322525,0.01373465359210968,-0.02043026126921177,-0.00849173590540886,-0.0015340897953137755,-0.005847528576850891,-0.003064430318772793,-0.002327639376744628,-0.006805431097745895,-0.016940824687480927
170,0.03169040009379387,-0.013924007304012775,-0.007131421938538551,0.009541766718029976,0.000882715976331383,0.007890420965850353,-0.021873008459806442,0.005085359793156385,0.027194559574127197,-0.024052899330854416
171,0.0013991809682920575,-0.0035416351165622473,0.0002183979086112231,0.004500421695411205,0.0004143023397773504,0.00797242484986782,-0.008717718534171581,0.004708728287369013,-0.018713613972067833,0.022511105984449387
172,0.018580934032797813,-0.024450620636343956,-0.014261104166507721,0.0026169500779360533,-0.0021973340772092342,0.007651977706700563,0.004695398733019829,0.005200801882892847,0.011592119932174683,-0.016371507197618484
173,0.017484942451119423,-0.04611506313085556,-0.011996552348136902,0.006449941545724869,-0.006974090356379747,0.010111832991242409,-0.03096754662692547,0.008022471331059933,-0.042425524443387985,0.029978496953845024
174,-0.012725195847451687,-0.04958874732255936,-0.03128717467188835,-0.013919896446168423,-0.009552663192152977,0.0070825619623064995,0.06814219802618027,0.005476487800478935,-0.02566736564040184,0.0019720876589417458
175,0.03923802822828293,-0.03181382268667221,0.006054257974028587,0.009195245802402496,-0.009313022717833519,0.010652652941644192,-0.03907841071486473,0.007038487587124109,-0.03855109587311745,0.030898038297891617
176,0.017398465424776077,-0.04998172074556351,-0.01391912903636694,0.009643521159887314,-0.0044371746480464935,0.00849987007677555,-0.014229306019842625,0.012569449841976166,-0.040806252509355545,0.04243895784020424
177,0.008683417923748493,-0.02198042906820774,-0.0009402100695297122,0.0056920889765024185,0.0045466348528862,0.01824425719678402,0.043897923082113266,0.01915094442665577,-0.00838625617325306,0.01043147873133421
178,0.0030503629241138697,0.025211432948708534,-0.0688161626458168,-0.006553491577506065,-0.014726344496011734,0.00809936597943306,-0.0035725205671042204,-0.006493757013231516,-0.04552445188164711,0.03190746158361435
179,-0.03423604369163513,0.06341248750686646,0.017674708738923073,-0.0357985645532608,0.004343536216765642,-0.016810404136776924,0.07083335518836975,-0.023379478603601456,0.09726155549287796,-0.029868775978684425
180,-0.045145198702812195,-0.010137317702174187,-0.035975128412246704,0.0013051149435341358,-0.006861580070108175,0.00014575733803212643,0.032897062599658966,-0.0008145254105329514,0.025641586631536484,-0.015311717987060547
181,0.02120639570057392,-0.0161045640707016,-0.028698064386844635,-0.0029145763255655766,-0.0035868301056325436,0.010886243544518948,0.0013927592663094401,0.006440207362174988,-0.030457405373454094,0.017820870503783226
182,0.011389560997486115,0.023478761315345764,-0.005850671790540218,0.00974913127720356,0.0035171257331967354,0.013624467886984348,-0.008903608657419682,0.009134914726018906,0.001758515601977706,-0.00310892378911376
183,-0.010942384600639343,-0.046998076140880585,-0.028632663190364838,-0.01214236207306385,-0.00868372805416584,0.007567856460809708,0.06304357945919037,0.0057073598727583885,-0.025754176080226898,0.0039178249426186085
184,0.017423657700419426,-0.04023171216249466,0.0011462343391031027,0.0030266884714365005,-0.006314805708825588,0.005247427150607109,-0.0055864118039608,0.0044670565985143185,-0.03443915396928787,0.012381630018353462
185,0.016730284318327904,0.013780325651168823,0.020469721406698227,0.019614286720752716,0.01233550813049078,0.01214626058936119,0.01947948709130287,0.010813714936375618,-0.0014080617111176252,0.026456980034708977
186,0.03891567140817642,-0.0466102659702301,-0.011236430145800114,0.01266813836991787,-0.0014030463062226772,0.015779467299580574,-0.00902580562978983,0.015918448567390442,-0.012992328964173794,0.035780418664216995
187,0.0203290656208992,-0.06097054481506348,-0.011326109059154987,0.02606075629591942,0.013601817190647125,0.027743011713027954,-0.015439562499523163,0.018688971176743507,-0.048116255551576614,0.02180316671729088
188,0.007012993562966585,-0.026259731501340866,0.0014536533271893859,0.0028417855501174927,-0.00017912621842697263,0.005887969397008419,-0.007698622066527605,0.00435208436101675,-0.015476994216442108,0.028893258422613144
189,0.015905538573861122,0.0064643071964383125,-0.006712549366056919,0.015285261906683445,0.0070341723039746284,0.009414175525307655,-0.020840154960751534,0.0073847235180437565,-0.005770852789282799,0.03329620510339737
190,0.02096601016819477,-0.035928696393966675,-0.00019510113634169102,0.021769782528281212,0.008412076160311699,0.035554736852645874,-0.03132905438542366,0.02047375775873661,-0.016037514433264732,0.06378915905952454
191,0.005858080927282572,0.0005108760669827461,-0.02464490756392479,-0.0026478697545826435,-0.008242182433605194,0.0037722005508840084,-0.010702503845095634,-0.004070318304002285,-0.016935458406805992,0.00040027289651334286
192,-0.003906975965946913,-0.046845804899930954,-0.016309786587953568,0.0031350275967270136,-0.003824498737230897,-0.00011442613322287798,0.003979933448135853,0.008314060047268867,-0.020494434982538223,0.03128933534026146
193,-0.03584073483943939,0.041773103177547455,0.007200658321380615,-0.025216782465577126,-0.0017667474457994103,-0.010146237909793854,0.042206160724163055,-0.00893500167876482,0.026229573413729668,-0.011003443039953709
194,-0.018897728994488716,0.002706096274778247,-0.02059493586421013,-0.018391761928796768,-0.011044774204492569,-0.012510817497968674,-0.0036544897593557835,-0.01306985691189766,-0.0045177992433309555,-0.018684038892388344
195,-0.012725181877613068,-0.04958874732255936,-0.03128717467188835,-0.0139198899269104,-0.009552661329507828,0.007082563824951649,0.06814219802618027,0.0054764896631240845,-0.02566736750304699,0.0019720890559256077
196,-0.008755311369895935,0.021093180403113365,-0.004596861079335213,-0.008971300907433033,0.0009762438712641597,0.0035642897710204124,0.032754749059677124,-0.0009923881152644753,0.022027524188160896,-0.00849970430135727
197,0.014900838024914265,-0.01842487044632435,-0.016527224332094193,-0.002470681443810463,-0.004273166414350271,0.003809171263128519,-0.00930780079215765,0.0014332304708659649,0.00757178058847785,-0.006381247658282518
198,0.009536487981677055,0.0075061265379190445,0.019985085353255272,0.011959829367697239,0.009539677761495113,0.013674676418304443,0.007448778487741947,0.015429804101586342,-0.020205680280923843,0.02166055142879486
199,0.0008498758543282747,0.015562562271952629,-0.013585523702204227,-0.005678716115653515,0.0011794846504926682,0.0011408338323235512,0.0052706520073115826,-0.004813529551029205,0.037238266319036484,0.00305472151376307
200,0.010135214775800705,-0.027250953018665314,0.008068916387856007,0.0201755128800869,0.003709957003593445,0.024385157972574234,-0.009434673935174942,0.017374904826283455,-0.014929303899407387,0.03863978758454323
201,0.0015440948773175478,-0.028853461146354675,-0.010040969587862492,0.00030712573789060116,-0.002597878687083721,0.010966761037707329,0.027333710342645645,0.007324348669499159,-0.026362188160419464,0.01754545047879219
202,0.005467119626700878,-0.03446043282747269,-0.018571101129055023,-0.005176023114472628,-0.008130215108394623,0.005228277295827866,-0.026803141459822655,0.00631885789334774,-0.03306125849485397,0.018689602613449097
203,0.006960362195968628,-0.03378168120980263,-0.020581038668751717,-0.003521385369822383,-0.0049275681376457214,0.007440616376698017,0.02824631705880165,0.005303134676069021,-0.0022382810711860657,-0.009562524035573006
204,0.0023883162066340446,-0.04241890460252762,-0.02830074168741703,-0.005836532451212406,-0.00787514541298151,0.0032955606002360582,0.028568066656589508,0.006584287155419588,-0.029555581510066986,0.013761887326836586
205,0.03668014332652092,-0.034318577498197556,-0.017563899978995323,0.007946692407131195,-0.0061722369864583015,0.01146723609417677,-0.0183769091963768,0.010081675834953785,-0.02526562474668026,0.04105981066823006
206,0.006224414799362421,-0.030042408034205437,-0.014686794951558113,-0.0007877784664742649,-0.0034191289450973272,0.009119046851992607,0.024188373237848282,0.006230758968740702,-0.011365247890353203,0.002040091436356306
207,-0.0073227002285420895,0.013335606083273888,-0.0129240108653903,-0.004686926491558552,0.004287255462259054,-0.004326533060520887,0.014188204891979694,-0.0023894240148365498,0.010080906562507153,-0.014866885729134083
208,-0.0055962346053045516,0.05492658136691846,0.011965845672076682,-0.011679016680994216,0.001671659617007216,-0.005479082388018775,0.012652108355033281,-0.003479002614072535,-0.0015320976205212126,-0.012848680540797883
209,-0.03974193334579468,0.01611689105629921,0.006452484056353569,-0.036642543971538544,-0.010536713525652885,-0.02456025779247284,0.03667322173714638,-0.029385272413492203,0.05862398073077202,-0.07147141546010971
210,0.018718138337135315,0.08158144354820251,0.009245733730494976,0.026845615357160568,0.011324601247906685,0.020021595060825348,-0.02767070010304451,0.013825800269842148,0.012893643230199814,0.003714232239872217
211,0.02925129421055317,-0.03906582295894623,0.0017636267002671957,0.022428259253501892,7.310649380087852e-05,0.010400915518403053,-0.04446859285235405,0.010585017502307892,-0.035187091678380966,0.03397152200341225
212,-0.012725181877613068,-0.04958874732255936,-0.03128717467188835,-0.0139198899269104,-0.009552661329507828,0.007082563824951649,0.06814219802618027,0.0054764896631240845,-0.02566736750304699,0.0019720890559256077
213,0.043680522590875626,-0.035922400653362274,0.01874689757823944,0.018728984519839287,0.005571409128606319,0.024752959609031677,-0.047433651983737946,0.027635226026177406,-0.038893695920705795,0.04163779690861702
214,0.029572390019893646,-0.049444377422332764,-0.007692090701311827,0.011496019549667835,-0.0023918324150145054,0.01200067438185215,-0.050752390176057816,0.007327399682253599,-0.038815032690763474,0.04108989238739014
215,0.009420877322554588,-0.07548695802688599,-0.027198776602745056,0.01930823363363743,-0.004564381670206785,0.007682924158871174,-0.01684045046567917,0.02197154238820076,-0.05592946708202362,0.05133143812417984
216,0.0021033179946243763,-0.0037798788398504257,-0.0035607910249382257,0.005118928849697113,0.003651662264019251,0.007860091514885426,0.004770759493112564,0.011234269477427006,-0.0057904659770429134,0.010190565139055252
217,0.003816938493400812,-0.018084675073623657,0.020823383703827858,0.011169465258717537,0.0005931425839662552,0.006025827489793301,-0.008903423324227333,0.0046352194622159,-0.004319948144257069,0.017248934134840965
218,0.012354359962046146,-0.06621351838111877,-0.0272574070841074,0.0171322301030159,-0.0070940000005066395,0.005759449675679207,-0.02537311427295208,0.015240883454680443,-0.03815358877182007,0.03669896721839905
219,-0.027998527511954308,0.05407867580652237,0.014172261580824852,-0.028379853814840317,0.0051118964329361916,-0.010179974138736725,0.06543789803981781,-0.014681713655591011,0.08219750225543976,-0.02075977250933647
220,0.023783041164278984,-0.02764725312590599,0.001760163577273488,0.01222764328122139,0.0004751109518110752,0.013848545029759407,-0.043556954711675644,0.008684203028678894,-0.02611331269145012,0.03660625219345093
221,-0.0006103774067014456,0.0025889137759804726,-0.00752017367631197,-0.0048713418655097485,-0.005014845635741949,0.0015014525270089507,-0.0012840661220252514,-0.0007811603718437254,-0.009693286381661892,0.001792841125279665
222,-0.009798349812626839,-0.036408014595508575,-0.03302150219678879,-0.013164564967155457,-0.013980519957840443,-0.004577036015689373,-0.0030091400258243084,0.002501348266378045,-0.008752990514039993,0.007887694984674454
223,0.04621603339910507,-0.03304755687713623,-0.015200352296233177,0.006842046044766903,-0.009743847884237766,0.007267124019563198,-0.04642138257622719,0.006409980356693268,-0.03133998066186905,0.053617410361766815
224,0.006163627840578556,-0.0033641066402196884,-0.015812208876013756,0.0007110364967957139,-0.003293863032013178,0.0066959448158741,0.0035171285271644592,0.0025804927572607994,0.007257659919559956,-0.011617155745625496
225,0.006960362195968628,-0.03378168120980263,-0.020581038668751717,-0.003521385369822383,-0.0049275681376457214,0.007440616376698017,0.02824631705880165,0.005303134676069021,-0.0022382810711860657,-0.009562524035573006
226,0.007888512685894966,-0.019065532833337784,0.01645141839981079,0.00859928224235773,-0.0035255588591098785,0.008933339267969131,-0.05106763914227486,0.0017882749671116471,-0.004782628268003464,0.011035238392651081
227,0.0015405217418447137,-0.038738034665584564,-0.012049759738147259,-0.006114582996815443,-0.007577849086374044,-0.0017001447267830372,-0.02221706137061119,0.002165453974157572,-0.023795904591679573,0.020434893667697906
228,0.011446529068052769,-0.030179385095834732,-0.01814119890332222,-0.0011516544036567211,-0.0038735501002520323,0.007522211410105228,0.019154373556375504,0.00526362843811512,0.003101007780060172,-0.012191158719360828
229,-0.007523545529693365,-0.008355739526450634,-0.015023073181509972,-0.009838173165917397,-0.010263441130518913,-0.00950220413506031,-0.022435851395130157,-0.009632641449570656,-0.01865229941904545,0.003485831432044506
230,0.0007951557636260986,-0.017961831763386726,-0.017314806580543518,-7.198815001174808e-05,-0.004551555961370468,0.009891072288155556,0.01317900512367487,0.006027360912412405,-0.02526368573307991,0.01351865567266941
231,0.008974000811576843,-0.03216477483510971,-0.019485903903841972,-0.002457719761878252,-0.004454468376934528,0.007477240636944771,0.024165350943803787,0.00528540275990963,0.00015828385949134827,-0.010742399841547012
232,0.03787107393145561,-0.056176699697971344,-0.02584865503013134,0.014649821445345879,-0.002548742573708296,0.022588059306144714,-0.01779433898627758,0.03818577155470848,-0.015931472182273865,0.027659915387630463
233,0.022351335734128952,-0.0020370404236018658,0.01112670823931694,0.0010988495778292418,0.0009269978618249297,0.005740155465900898,-0.010679565370082855,0.0038068844005465508,-0.0150144649669528,0.004052227828651667
234,0.031052686274051666,-0.023185105994343758,0.012040136381983757,0.01472717709839344,-1.7983198631554842e-05,0.02049190364778042,-0.021857155486941338,0.012768182903528214,0.0035559379030019045,0.021271221339702606
235,0.01631426438689232,0.08714509755373001,0.010527621023356915,0.02450426295399666,0.012906553223729134,0.020500123500823975,-0.050209589302539825,0.013395366258919239,0.006202449556440115,0.004066659137606621
236,0.049654871225357056,-0.027107924222946167,0.010352591052651405,0.03476914018392563,0.010782970115542412,0.03669445216655731,-0.01720910333096981,0.032994937151670456,-0.04447469860315323,0.054446153342723846
237,0.010311601683497429,0.0003501855826471001,-0.008297942578792572,0.0061291903257369995,0.0012841362040489912,0.0062254853546619415,0.010862537659704685,0.0027721868827939034,-0.0034296424128115177,0.010232902131974697
238,0.03169040009379387,-0.013924007304012775,-0.007131421938538551,0.009541766718029976,0.000882715976331383,0.007890420965850353,-0.021873008459806442,0.005085359793156385,0.027194559574127197,-0.024052899330854416
239,0.01227631326764822,-0.02043827809393406,0.001621406408958137,0.0021017936524003744,-0.005963158793747425,0.002784261479973793,-0.011664403602480888,-0.000762757146731019,-0.031319938600063324,0.03229409083724022
240,-0.009608317166566849,0.005089600570499897,-0.004507765173912048,-0.002680814126506448,-0.0009319651871919632,-0.00736380647867918,0.01756861060857773,-0.011294940486550331,-0.005562903825193644,-0.004399122204631567
241,-0.004929739981889725,-0.024198634549975395,-0.026529349386692047,-0.009125958196818829,-0.001118762418627739,0.006411433685570955,0.04070346802473068,0.007859376259148121,-0.0008529140613973141,0.007644777651876211
242,0.011626845300989027,0.025333643964922135,0.006375660491277999,0.0009373854212907958,0.005259928017703442,0.001652205966272891,-0.01059706435066536,-0.008062691727281116,0.003610610734404664,-0.008108613777850979
243,-0.015206675976514816,0.004025310277938843,-0.03479854390025139,-0.010709283873438835,-0.010587232187390327,-0.012024279683828354,-0.013908658176660538,-0.010896319523453712,-0.022277751937508583,-0.024050572887063026
244,0.03169040009379387,-0.013924007304012775,-0.007131421938538551,0.009541766718029976,0.000882715976331383,0.007890420965850353,-0.021873008459806442,0.005085359793156385,0.027194559574127197,-0.024052899330854416
245,0.03604389727115631,-0.01966395415365696,-0.016276216134428978,0.014584963209927082,-0.0055388193577528,0.013071004301309586,-0.03911341726779938,0.009638037532567978,-0.039824437350034714,0.03058711439371109
246,0.008750198408961296,-0.030581431463360786,-0.017044810578227043,-0.001304670237004757,-0.00382248661480844,0.008161995559930801,0.022359468042850494,0.005662417039275169,-0.0034675165079534054,-0.006062810309231281
247,0.018851395696401596,-0.0008060208056122065,-0.0006402120925486088,0.009258382022380829,0.004174976143985987,0.01772250607609749,0.0338670089840889,0.01507388986647129,0.004352985881268978,0.010404793545603752
248,0.017392849549651146,-0.021916000172495842,-0.009836118668317795,0.004504881799221039,-0.0011218995787203312,0.008993372321128845,0.0026323406491428614,0.0059533799067139626,0.003530660877004266,-0.006675168871879578
249,0.012848831713199615,0.03326923027634621,-0.0013082764344289899,0.009007732383906841,0.004661711864173412,0.009923303499817848,-0.026365090161561966,0.0051369089633226395,0.016784343868494034,-0.010854124091565609
250,0.04859474301338196,-0.04718476161360741,-0.01779613271355629,0.028284845873713493,0.003985155373811722,0.02583412081003189,-0.019448693841695786,0.02313484624028206,-0.020922664552927017,0.04200732707977295
251,-0.010892731137573719,-0.011187339201569557,-0.01677972450852394,-0.010721172206103802,-0.009832682088017464,-0.011200051754713058,-0.013350661844015121,-0.010813137516379356,-0.008300626650452614,-0.01606350764632225
252,0.01809626817703247,-0.0024181362241506577,-0.006007945165038109,0.02314000390470028,0.0025567738339304924,0.013583172112703323,-0.015129145234823227,0.02412499114871025,-0.005738302133977413,0.04091808572411537
253,-0.009980915114283562,-0.05995366349816322,-0.039103422313928604,-0.002566903829574585,-0.01474645733833313,0.002439588773995638,-0.045748449862003326,-0.0036687038373202085,-0.04553450644016266,0.025655008852481842
254,0.0018579124007374048,0.019017294049263,0.0062566096894443035,-0.002459285780787468,0.002709360793232918,0.005256903823465109,0.012582136318087578,0.0006704165134578943,0.03617037087678909,-0.00376581447198987
255,0.019994430243968964,-0.06334425508975983,-0.021992888301610947,0.004911478143185377,-0.011014407500624657,0.007190219592303038,-0.05405956506729126,0.0022533282171934843,-0.05877310037612915,0.05052432045340538
256,-0.0011101900599896908,0.016440311446785927,-0.029553623870015144,0.002434635069221258,-0.004338937345892191,0.011356700211763382,0.00858111958950758,0.003588919062167406,0.004546551499515772,0.005304493475705385
257,0.023564523085951805,0.018209025263786316,0.003290965687483549,0.019595813006162643,0.010670997202396393,0.019732754677534103,-0.01850183494389057,0.011423269286751747,0.03288663923740387,0.027728941291570663
258,-0.011834053322672844,0.008253764361143112,0.009007490240037441,-0.017901115119457245,-0.015102088451385498,-0.02101023867726326,-0.03642070293426514,-0.018958676606416702,-0.0011110545601695776,-0.012000672519207
259,0.02201460674405098,-0.0030798139050602913,-0.014987010508775711,0.012524589896202087,0.00048080901615321636,0.013005553744733334,-0.018859874457120895,0.010410843417048454,-0.01723392680287361,0.02786734513938427
260,0.014554996974766254,-0.027683354914188385,-0.01645064167678356,0.0004903277149423957,-0.003143221838399768,0.007578752003610134,0.012854589149355888,0.005236255470663309,0.006800590083003044,-0.014012541621923447
261,0.04129352048039436,-0.03313294053077698,0.00100564188323915,0.018216827884316444,0.000829832861199975,0.01550428569316864,-0.02834644354879856,0.012478002347052097,-0.03429346904158592,0.035710565745830536
262,-0.012362240813672543,-0.028911158442497253,-0.03226270526647568,-0.008575010113418102,-0.009204095229506493,0.0033782918471843004,-0.01001266110688448,0.001514970324933529,-0.029193606227636337,-0.006229917518794537
263,-0.00921653863042593,0.028968585655093193,0.0005655249115079641,-0.011774387210607529,0.002117942553013563,0.00010930630378425121,0.03250369057059288,-0.004792362917214632,0.038633957505226135,-0.014438125304877758
264,0.005775640718638897,-0.07031932473182678,-0.030017219483852386,0.013169851154088974,-0.008199263364076614,0.002663079649209976,-0.01501094363629818,0.014812260866165161,-0.042248934507369995,0.032453350722789764
265,0.016879823058843613,0.025278499349951744,0.004025048576295376,0.015283947810530663,0.0059791686944663525,0.015122578479349613,-0.023292195051908493,0.009758876636624336,-0.0031557914335280657,0.007984922267496586
266,0.006049592979252338,-0.05386072024703026,-0.020313583314418793,-0.002847741823643446,-0.01012592576444149,-0.00012539769522845745,0.02594844624400139,0.007263949606567621,-0.031395189464092255,0.015603216364979744
267,0.019720174372196198,-0.04411155730485916,-0.01451055146753788,0.002091455738991499,-0.0031169604044407606,0.008263561874628067,-0.020013121888041496,0.010270478203892708,-0.045239489525556564,0.04082556813955307
268,-0.013438614085316658,0.005828384775668383,-0.007436763495206833,-0.013065038248896599,-0.006471248809248209,-0.0072895800694823265,-0.003326281439512968,-0.010345066897571087,-0.0007905099773779511,-0.01047732587903738
269,-0.02170797809958458,-0.004683652892708778,-0.005382956936955452,-0.017323290929198265,-0.006843420211225748,-0.006188127677887678,0.033395685255527496,-0.011960454285144806,0.027233915403485298,-0.0063858916983008385
270,0.006461473181843758,0.01705791801214218,-0.0302056223154068,-0.016900960355997086,-0.007898288778960705,-0.005306093022227287,0.02067137323319912,-0.008245928213000298,-0.03424287214875221,-0.005879133008420467
271,0.027442580088973045,-0.036712247878313065,-0.011396057903766632,0.010802483186125755,-0.0016361158341169357,0.014748288318514824,-0.019362319260835648,0.01752226985991001,-0.018300669267773628,0.027383912354707718
272,0.033103115731821287,0.028395156219479644,0.05183662658222118,0.022217359089406596,0.023549975282466978,0.008780240419866117,0.0062175934066522965,0.0132192147024169,-0.005390601117445579,0.013123884022934162
273,0.015448875725269318,-0.04631226509809494,-0.026868371292948723,0.012273484840989113,0.0012162161292508245,0.013203009963035583,-0.03940011188387871,0.015841541811823845,-0.004411728587001562,0.02524307742714882
274,0.02107500471174717,-0.022447941824793816,-0.012904682196676731,0.003934391774237156,-0.001611356041394174,0.007697341963648796,-0.0003592346329241991,0.005178839899599552,0.014560486190021038,-0.017832890152931213
275,0.041564956307411194,0.051959019154310226,0.015165445394814014,0.03991454094648361,0.017721956595778465,0.03438696265220642,-0.05372506007552147,0.02907593920826912,-0.012323323637247086,0.03164946287870407
276,0.006960362195968628,-0.03378168120980263,-0.020581038668751717,-0.003521385369822383,-0.0049275681376457214,0.007440616376698017,0.02824631705880165,0.005303134676069021,-0.0022382810711860657,-0.009562524035573006
277,0.03716391324996948,-0.04334896057844162,-0.01444594282656908,0.018014388158917427,0.0005835216725245118,0.01820235699415207,-0.0210279393941164,0.014586856588721275,-0.017207607626914978,0.027985818684101105
278,0.021473096683621407,-0.044772934168577194,0.0029032411985099316,0.0031015723943710327,-0.009118488058447838,0.006472622975707054,-0.027854720130562782,0.012075843289494514,-0.03832100331783295,0.00046977284364402294
279,0.007040618918836117,-0.056694865226745605,-0.004129332490265369,-0.004942252300679684,-0.004695284646004438,-0.0026310032699257135,0.024693118408322334,-0.009732898324728012,-0.004317684564739466,-0.0033838304225355387
280,0.008409176953136921,-0.002949706045910716,-0.003592645050957799,0.0073526520282030106,-0.004248873330652714,0.003250003792345524,-0.03600335493683815,0.00048271770356222987,-0.017761031165719032,0.008263231255114079
281,0.03257003799080849,0.012557579204440117,0.007371585816144943,0.01993604376912117,0.0037917650770395994,0.02223888784646988,-0.045913755893707275,0.01847001351416111,0.011173965409398079,0.01694493368268013
282,-0.009076079353690147,-0.003571945708245039,-0.0224870927631855,-0.016479507088661194,-0.009398708119988441,-0.007579029072076082,0.005699704401195049,-0.009574202820658684,-0.0169033445417881,-0.0019690925255417824
283,0.015531102195382118,0.03602759912610054,-0.0014821330551058054,0.01381411962211132,0.005761772394180298,0.014747995883226395,-0.02213568612933159,0.009763224050402641,0.006468717474490404,-0.003981554415076971
284,0.03169040009379387,-0.013924007304012775,-0.007131421938538551,0.009541766718029976,0.000882715976331383,0.007890420965850353,-0.021873008459806442,0.005085359793156385,0.027194559574127197,-0.024052899330854416
285,0.018580934032797813,-0.024450620636343956,-0.014261104166507721,0.0026169500779360533,-0.0021973340772092342,0.007651977706700563,0.004695398733019829,0.005200801882892847,0.011592119932174683,-0.016371507197618484
286,-0.012725195847451687,-0.04958874732255936,-0.03128717467188835,-0.013919896446168423,-0.009552663192152977,0.0070825619623064995,0.06814219802618027,0.005476487800478935,-0.02566736564040184,0.0019720876589417458
287,-0.01912430115044117,0.03577905520796776,0.004548987373709679,-0.02051836997270584,-0.0004943360108882189,-0.007308933883905411,0.03759808838367462,-0.011931516230106354,0.04608594998717308,-0.014284124597907066
288,-0.007254458032548428,-0.045195870101451874,-0.028311876580119133,-0.011030087247490883,-0.008267322555184364,0.0071820663288235664,0.05705489218235016,0.005428308621048927,-0.019156284630298615,-0.0012334550265222788
289,-0.010972128249704838,0.005315324291586876,-0.004284827969968319,-0.010892031714320183,0.0001256442628800869,-0.009860659018158913,0.02925616130232811,-0.007316901348531246,0.017238587141036987,-0.013263886794447899
290,-0.009634235873818398,0.016670599579811096,-0.0052715204656124115,-0.016522638499736786,-0.00871228612959385,-0.01564411073923111,-0.005081638693809509,-0.013076340779662132,-0.027389168739318848,-0.017587780952453613
291,0.01761290617287159,0.06932879984378815,0.008460117504000664,0.0220082588493824,0.010929306037724018,0.018731970340013504,-0.0439082533121109,0.012203078716993332,0.005808290559798479,0.0031874175183475018
292,0.010844480246305466,-0.011116132140159607,-0.009931462816894054,-0.002468966180458665,0.00451301597058773,-0.0002864618436433375,-0.0014544185250997543,0.005154079757630825,-0.02935631014406681,0.022037766873836517
293,0.020148884505033493,-0.008299761451780796,-0.006189015693962574,0.009387071244418621,-0.002579876920208335,0.011338382959365845,-0.01492873765528202,0.007030058186501265,-0.029071081429719925,0.02337314747273922
294,0.04402751475572586,-0.042476218193769455,0.0017589647322893143,0.01751672849059105,0.004727217368781567,0.015458907000720501,-0.05737084522843361,0.011462771333754063,-0.014460316859185696,0.026727398857474327
295,0.007889032363891602,-0.009424977004528046,-0.013243437744677067,-0.007243453990668058,-0.007032419554889202,-0.0055323634296655655,-0.012140202336013317,-0.004124538041651249,-0.00996454432606697,-0.00310143968090415
296,0.026778845116496086,-0.014910362660884857,-0.00016399798914790154,0.0020796076860278845,-0.0057882401160895824,0.006220347248017788,-0.03060690127313137,0.0022173014003783464,-0.027277573943138123,0.03338948264718056
297,-0.0029817307367920876,-0.04404079541563988,-0.022212833166122437,-0.0020268443040549755,-0.010295361280441284,0.003465122077614069,-0.033837784081697464,-0.00152609683573246,-0.046518370509147644,0.03571036830544472
298,-0.050217456847977404,-0.043688955300416735,0.006962285262528751,0.0008960200216419443,-0.014588823433721414,0.0010768800146638707,0.011508265005576725,-0.003936853064867421,-0.0077881311464004475,0.015207977230523514
299,-0.03974193334579468,0.01611689105629921,0.006452484056353569,-0.036642543971538544,-0.010536713525652885,-0.02456025779247284,0.03667322173714638,-0.029385272413492203,0.05862398073077202,-0.07147141546010971
300,0.01187001820653677,-0.02500312402844429,-0.010880887508392334,0.002559245564043522,-0.0018962384201586246,0.00941941887140274,0.012098210863769054,0.006288678385317326,-0.005610178224742413,3.746489528566599e-05
301,0.020064949989318848,-0.04186567664146423,-0.009516436606645584,0.00430612126365304,0.001331547275185585,0.012476203963160515,-0.013299928978085518,0.012466911226511002,-0.039882101118564606,0.03823447227478027
302,0.03169040009379387,-0.013924007304012775,-0.007131421938538551,0.009541766718029976,0.000882715976331383,0.007890420965850353,-0.021873008459806442,0.005085359793156385,0.027194559574127197,-0.024052899330854416
303,0.007755327969789505,0.011108527891337872,-0.009932263754308224,0.00627376651391387,-0.0002676369622349739,0.011453690007328987,-0.004679400473833084,0.007876759395003319,-0.008445139974355698,0.0003862820740323514
304,0.03169040009379387,-0.013924007304012775,-0.007131421938538551,0.009541766718029976,0.000882715976331383,0.007890420965850353,-0.021873008459806442,0.005085359793156385,0.027194559574127197,-0.024052899330854416
305,-0.00015030428767204285,-0.03312598913908005,-0.007515069097280502,0.008935404941439629,-0.0039115543477237225,0.004121134057641029,-0.007923112250864506,0.004670356400310993,-0.020762979984283447,0.0398087278008461
306,0.017565809190273285,0.03690292686223984,0.009799635037779808,0.0268558282405138,0.012969238683581352,0.024662252515554428,-0.030878234654664993,0.015417711809277534,-0.011808136478066444,0.02149593085050583
307,0.0018579124007374048,0.019017294049263,0.0062566096894443035,-0.002459285780787468,0.002709360793232918,0.005256903823465109,0.012582136318087578,0.0006704165134578943,0.03617037087678909,-0.00376581447198987
308,0.00876648910343647,-0.05756305530667305,-0.045145776122808456,-0.012429770082235336,-0.02694706618785858,-0.015023749321699142,0.011220631189644337,-0.022468198090791702,-0.015267345122992992,-0.01569070667028427
309,-0.02800547145307064,-0.006501984782516956,-0.03594006597995758,-0.022940445691347122,-0.021375855430960655,-0.02016691491007805,-0.01657138019800186,-0.022309698164463043,-0.01522970013320446,-0.02556566894054413
310,0.0240008682012558,-0.02009853534400463,-0.011313430964946747,0.0054799215868115425,-0.0009239282226189971,0.007750558666884899,-0.006288951262831688,0.005153074860572815,0.01804273948073387,-0.01954728178679943
311,0.03673671931028366,-0.0017501336988061666,-0.007386927027255297,0.023100484162569046,0.007573260925710201,0.026022378355264664,-0.014274366199970245,0.015184077434241772,0.0029838045593351126,0.030129484832286835
312,-0.014850897714495659,-0.007750962395220995,0.0004506171098910272,-0.009612027555704117,-0.0010826900834217668,0.001648237113840878,0.038774602115154266,0.0010922024957835674,0.022096414119005203,-0.0070488350465893745
313,-0.019251812249422073,0.027440961450338364,-0.011735638603568077,-0.015251553617417812,-0.013094000518321991,-0.01784278079867363,-0.011936253868043423,-0.0183719415217638,-0.0018417981918901205,-0.02346271649003029
314,0.047329872846603394,-0.06453016400337219,0.0030370254535228014,0.018136920407414436,-0.006913972552865744,0.019299611449241638,-0.050362613052129745,0.012408677488565445,-0.03430076315999031,0.056136637926101685
315,0.004389981739223003,0.032196950167417526,-0.023612098768353462,0.0064935702830553055,0.012084517627954483,0.004626445006579161,0.01136869378387928,0.011911733075976372,0.001997789368033409,0.0019584721885621548
316,0.03169040009379387,-0.013924007304012775,-0.007131421938538551,0.009541766718029976,0.000882715976331383,0.007890420965850353,-0.021873008459806442,0.005085359793156385,0.027194559574127197,-0.024052899330854416
317,0.007533401250839233,0.015647297725081444,-0.005941404029726982,0.008055921643972397,0.0025909780524671078,0.013716170564293861,-0.0005168793722987175,0.009182929061353207,-0.007472674362361431,0.0044449735432863235
318,0.0600733608007431,0.011584918014705181,0.04194517061114311,0.0064503950998187065,0.011468993499875069,0.016396647319197655,0.031973712146282196,0.014690874144434929,-0.028850438073277473,0.06248042732477188
319,0.029082991182804108,-0.042455222457647324,-0.02022412233054638,0.014558333903551102,-8.670077659189701e-05,0.01923174038529396,0.01176933478564024,0.01633358560502529,-0.013678550720214844,0.021197063848376274
320,-0.011879323981702328,0.03101879172027111,-0.022710410878062248,-0.0028011822141706944,-0.003921910189092159,0.0035120281390845776,0.006027727387845516,0.00020030263112857938,-0.02857324667274952,-0.003948867321014404
321,-0.02383112721145153,-0.019777541980147362,-0.03268439322710037,-0.019912663847208023,-0.018119703978300095,-0.013902692124247551,-0.008722350932657719,-0.01695321872830391,-0.02239615097641945,-0.031360697001218796
322,0.03169040009379387,-0.013924007304012775,-0.007131421938538551,0.009541766718029976,0.000882715976331383,0.007890420965850353,-0.021873008459806442,0.005085359793156385,0.027194559574127197,-0.024052899330854416
323,-0.006081618368625641,-0.009124725125730038,-0.00029973662458360195,0.004612062592059374,0.0004504185635596514,0.00755289476364851,0.005500527564436197,0.004006233066320419,-0.011429283767938614,0.0076844291761517525
324,-0.03535125459836104,-0.0034004595511689796,-0.04866992073420396,-0.01438017596960321,-0.012708154422620568,-0.018624391673516684,-0.024063196681457448,-0.009598984541665374,0.034573278981435085,-0.05004144891037794
325,0.01905660517513752,-0.03160582110285759,-0.004023750312626362,0.012081974186003208,-0.004174381494522095,0.010308375582098961,-0.0050243353471159935,0.009235883131623268,-0.030405201017856598,0.028150489553809166
326,-0.0018458066042512655,-0.00221589719876647,-0.021664559841156006,-0.004251117818057537,-0.0024639770854264498,0.006774771958589554,0.009799358434975147,0.006572867278009653,-0.01386934518814087,0.001161085325293243
327,0.03169040009379387,-0.013924007304012775,-0.007131421938538551,0.009541766718029976,0.000882715976331383,0.007890420965850353,-0.021873008459806442,0.005085359793156385,0.027194559574127197,-0.024052899330854416
328,0.031690407544374466,-0.0139240063726902,-0.007131421472877264,0.0095417695119977,0.0008827171404846013,0.007890421897172928,-0.02187301218509674,0.00508536072447896,0.027194557711482048,-0.024052901193499565
329,0.03169040009379387,-0.013924007304012775,-0.007131421938538551,0.009541766718029976,0.000882715976331383,0.007890420965850353,-0.021873008459806442,0.005085359793156385,0.027194559574127197,-0.024052899330854416
330,0.03455594182014465,-0.02861829474568367,0.007298535201698542,0.013200487941503525,-0.0016598228830844164,0.014184031635522842,-0.04172659292817116,0.013964162208139896,-0.04068322852253914,0.045998282730579376
331,0.01629665493965149,0.006654767319560051,-0.00952857919037342,0.006710761226713657,0.003615180030465126,0.009147755801677704,-0.0011295697186142206,0.009095721878111362,0.019936680793762207,-0.01987641118466854
332,0.0011744368821382523,-0.036817628890275955,-0.021387409418821335,-0.005416766740381718,-0.005661822855472565,0.00796441175043583,0.03790906444191933,0.00569657888263464,-0.012192328460514545,-0.002018666360527277
333,0.0024912171065807343,-0.025621190667152405,-0.010773630812764168,0.0059551456943154335,-0.0034867217764258385,0.011578531935811043,0.010991275310516357,0.011744987219572067,-0.014270585030317307,0.03953041136264801
334,0.012438948266208172,0.022501491010189056,-0.03534555435180664,0.005382970906794071,-0.014407733455300331,0.012342693284153938,-0.059662770479917526,0.0005347328260540962,-0.03538062795996666,0.02055533230304718
335,0.019137712195515633,-0.022446095943450928,-0.011694365181028843,0.004034068901091814,-0.0014617906417697668,0.008270599879324436,0.0015710316365584731,0.005527205765247345,0.009287123568356037,-0.012679745443165302
336,-0.015646666288375854,-0.008290035650134087,-0.014798957854509354,-0.01122375763952732,-0.020524365827441216,-0.013604518957436085,-0.04771771281957626,-0.020064856857061386,-0.0224124938249588,0.01392783597111702
337,0.023171745240688324,-0.04828377813100815,-0.01847240701317787,0.004000782035291195,-0.010983308777213097,0.004959687124937773,-0.03233976289629936,0.00344564625993371,-0.0357535257935524,0.04353484883904457
338,-0.014899377711117268,0.011689495295286179,-0.004342569969594479,-0.0175401009619236,-0.001343754236586392,-0.002351079834625125,0.04597656801342964,-0.00688704801723361,0.03116649016737938,-0.010049053467810154
339,-0.008826134726405144,-0.04392286390066147,-0.0254816897213459,-0.010032383725047112,-0.0076522803865373135,0.008143913000822067,0.056991349905729294,0.005981413181871176,-0.025857221335172653,0.006227482110261917
340,0.008249539881944656,-0.00701319333165884,-0.013772241771221161,0.003577069379389286,-0.006292129401117563,0.007086992263793945,-0.013817265629768372,0.005195708014070988,-0.020867232233285904,0.0034964708611369133
341,0.0025937664322555065,0.02422826550900936,0.004599608015269041,0.005831640213727951,0.005163967609405518,0.00942578911781311,-0.008639213629066944,0.005577545613050461,-0.0019289958290755749,0.000669615576043725
342,0.0032602588180452585,-0.004220900125801563,-0.009914540685713291,-0.019201291725039482,-0.008030313067138195,-0.012406610883772373,-0.0050920299254357815,-0.01348293200135231,-0.03599384054541588,0.01823514513671398
343,0.0018579124007374048,0.019017294049263,0.0062566096894443035,-0.002459285780787468,0.002709360793232918,0.005256903823465109,0.012582136318087578,0.0006704165134578943,0.03617037087678909,-0.00376581447198987
344,0.007809261791408062,-0.009739513508975506,-0.013741614297032356,0.0002687930827960372,-0.00611668499186635,-5.9486483223736286e-05,-0.01702149212360382,-0.005263613536953926,-0.007531884592026472,0.015061412006616592
345,0.01825243979692459,-0.01531544141471386,0.012665974907577038,0.007476029451936483,0.002535517793148756,0.01088772714138031,-0.0023020850494503975,0.010410147719085217,0.0030693630687892437,0.011157006025314331
346,0.016094405204057693,-0.04585258662700653,0.004746332764625549,0.01626061648130417,-0.0011278712190687656,0.01926814764738083,-0.03221096843481064,0.013705928809940815,-0.006501765921711922,0.025782020762562752
347,0.0008188282372429967,-0.023321857675909996,-0.008208814077079296,0.00219201622530818,-0.002427540021017194,0.0010083504021167755,-0.024532267823815346,0.002098912838846445,-0.03525405377149582,0.019953444600105286
348,0.005116021726280451,0.008302773348987103,-0.005203871987760067,0.007070849649608135,0.0019514482701197267,0.013803141191601753,0.005181468557566404,0.009192975237965584,-0.015281690284609795,0.01143542118370533
349,0.024860505014657974,-0.05426938831806183,-0.010486584156751633,0.015967151150107384,0.0031400208827108145,0.02344413474202156,0.01894719898700714,0.018974917009472847,-0.022916279733181,0.031228050589561462
350,-0.00862913765013218,-0.05669574439525604,-0.019386455416679382,0.00644398108124733,-0.016865836456418037,0.0005459259264171124,-0.06472232937812805,-0.0020993612706661224,-0.01938026025891304,0.030247263610363007
351,0.004794593900442123,-0.0038159964606165886,0.008383354172110558,0.00244272593408823,0.0057541849091649055,0.008050964213907719,0.0013335613766685128,0.004272670019418001,0.0029688216745853424,0.02906130626797676
352,0.005815379787236452,-0.004773038439452648,-0.01086935494095087,0.004215345252305269,-0.0011086298618465662,0.0033412266056984663,-0.024343907833099365,-0.004068284761160612,-0.006403157487511635,0.010873016901314259
353,0.035415858030319214,-0.03843522444367409,0.02519010193645954,0.01817576214671135,0.021540828049182892,0.021653741598129272,-0.0010213213972747326,0.029540006071329117,-0.034944478422403336,0.06865797936916351
354,0.025486314669251442,0.026856154203414917,-6.211805157363415e-06,0.015578951686620712,0.005734189413487911,0.012978284619748592,-0.033306486904621124,0.008438347838819027,0.01872449927031994,-0.012706998735666275
355,0.00986982136964798,0.01135377585887909,-0.01110881194472313,0.009364682249724865,-0.001781770959496498,0.014571551233530045,-0.003452468663454056,0.011844933032989502,-0.02111201360821724,0.02464696206152439
356,0.003594118170440197,-0.011065969243645668,-0.016579870134592056,-0.00012581382179632783,-0.002214026404544711,0.010268153622746468,0.021733686327934265,0.007164868526160717,-0.0068479920737445354,-0.003307160222902894
357,0.008912953548133373,-0.01730763353407383,0.0003396697575226426,0.007069237530231476,0.0013693131040781736,0.008258898742496967,-0.0100595373660326,0.009019657969474792,-0.02371038869023323,0.02692904882133007
358,-0.004009845666587353,-0.03237020596861839,0.06636496633291245,0.01690177619457245,-0.005241261795163155,0.0016100297216325998,-0.03137452155351639,0.004378866404294968,-0.024122202768921852,0.02401777356863022
359,-0.011463161196326552,-0.01864331977047326,0.013790140498926393,-0.003994197871456169,-0.011894499658793398,-0.008157936069785064,0.023913158343432894,-0.007298522507168732,0.03239055071309063,-0.028628969877924588
360,0.021879998967051506,-0.027495114132761955,-0.013362438417971134,0.010201412253081799,0.0017038219375535846,0.01636248454451561,0.019937066361308098,0.012553997337818146,-0.0023758597671985626,0.02352401800453663
361,-0.0015181578928604722,-0.03046891652047634,-0.018887247890233994,-0.005507657304406166,-0.007864050567150116,0.0011869778390973806,-0.013632566668093204,-0.002395955380052328,-0.030796421691775322,0.02121056616306305
362,-0.0125955855473876,-0.012800246477127075,-0.017590085044503212,-0.013585909269750118,-0.008110186085104942,-0.007070519961416721,0.0175032839179039,-0.007777385413646698,-0.005095224361866713,-0.012701733969151974
363,0.01842436104171035,-0.0008230574523886494,-0.01892820349967618,0.006141260261332406,0.0214146502800226,0.012510285043453915,-0.01821236262073921,0.007048564896436009,0.013874744379795613,0.04601010823571509
364,0.03169040009379387,-0.013924007304012775,-0.007131421938538551,0.009541766718029976,0.000882715976331383,0.007890420965850353,-0.021873008459806442,0.005085359793156385,0.027194559574127197,-0.024052899330854416
365,0.031690407544374466,-0.0139240063726902,-0.007131421472877264,0.0095417695119977,0.0008827171404846013,0.007890421897172928,-0.02187301218509674,0.00508536072447896,0.027194557711482048,-0.024052901193499565
366,-0.016075989231467247,-0.004991304129362106,-0.017604796215891838,-0.01567224971950054,-0.012330002151429653,-0.015825647860765457,-0.006623986177146435,-0.014675007201731205,-0.014907119795680046,-0.006234114058315754
367,-0.010737032629549503,-0.020603572949767113,-0.0045997933484613895,0.007659478113055229,0.006002594716846943,0.013989582657814026,-0.002770089078694582,0.011402786709368229,-0.01541089452803135,0.015091046690940857
368,-0.00895124301314354,-0.006652022711932659,-0.030158456414937973,-0.007623895071446896,-0.01706109195947647,-0.010405492037534714,-0.02127300202846527,-0.005519656930118799,-0.0370093435049057,0.0003784424625337124
369,-0.008230229839682579,-0.020577948540449142,0.011611102148890495,-0.011894820258021355,-0.006007387302815914,-0.011080946773290634,0.0010495035676285625,-0.008024748414754868,-0.043167222291231155,0.008752716705203056
370,0.018451590090990067,-0.030680004507303238,-0.003061671508476138,0.009578844532370567,-0.0023140946868807077,0.013639713637530804,-0.03501265496015549,0.010356892831623554,-0.04072809964418411,0.03758704662322998
371,0.0018579124007374048,0.019017294049263,0.0062566096894443035,-0.002459285780787468,0.002709360793232918,0.005256903823465109,0.012582136318087578,0.0006704165134578943,0.03617037087678909,-0.00376581447198987
372,0.008195475675165653,-0.010481871664524078,-0.015409968793392181,0.00576599920168519,-0.001382244168780744,0.005562043748795986,-0.013040293008089066,0.0042060790583491325,-0.009727372787892818,0.013782864436507225
373,-0.00227444083429873,-0.01155268494039774,-0.018802035599946976,-0.002365685533732176,-0.00301026226952672,0.010641640052199364,0.03141046315431595,0.007521114777773619,-0.013932856731116772,0.0008434716146439314
374,0.031690407544374466,-0.0139240063726902,-0.007131421472877264,0.0095417695119977,0.0008827171404846013,0.007890421897172928,-0.02187301218509674,0.00508536072447896,0.027194557711482048,-0.024052901193499565
375,0.0049903178587555885,-0.033311568200588226,-0.018669605255126953,-0.0030823913402855396,-0.004593665711581707,0.008206506259739399,0.029609130695462227,0.005756997037678957,-0.008493009954690933,-0.003114251187071204
376,-0.013447272591292858,0.002345877466723323,-0.04873199015855789,-0.01715976744890213,-0.013839168474078178,-0.01580796204507351,-0.009308164939284325,-0.011867509223520756,-0.012162575498223305,-0.021928932517766953
377,-0.0028184831608086824,-0.0026158331893384457,-0.05485457181930542,-0.009293952956795692,-0.012801623903214931,0.007721095345914364,0.023106900975108147,-0.0020405687391757965,-0.03813718631863594,0.020770862698554993
378,-0.004134796094149351,0.022165007889270782,-0.0022968715056777,0.0023312820121645927,-0.00042995018884539604,0.00687585212290287,-0.0022798855789005756,0.002881922060623765,-0.0028667952865362167,0.009570587426424026
379,-0.004905383102595806,-0.0025104903616011143,-0.012892751023173332,-0.006279351189732552,-0.00473200436681509,0.006057077553123236,0.03579039126634598,0.0023299853783100843,0.006180710159242153,0.010057074017822742
380,-0.03196548670530319,0.012076986953616142,-0.01917513832449913,-0.03214690089225769,-0.019837036728858948,-0.020745612680912018,0.0038617029786109924,-0.028110705316066742,0.011204717680811882,-0.04200248047709465
381,-0.0009188215481117368,-0.008961469866335392,-0.017723139375448227,-0.016477476805448532,-0.01761753484606743,-0.008471917361021042,-0.01499621570110321,-0.012368271127343178,-0.029328834265470505,-0.005342090968042612
382,0.04672713577747345,-0.05394269526004791,-0.00419938750565052,0.016459081321954727,-0.002277454361319542,0.020213210955262184,-0.026723915711045265,0.010369263589382172,0.004330386407673359,0.025915268808603287
383,0.01731896586716175,0.003105118405073881,-0.015248910523951054,0.00018955394625663757,-0.004355099052190781,0.004240331239998341,-0.015935510396957397,0.0021041398867964745,-0.053660474717617035,0.03546064719557762
384,0.008193410001695156,-0.015440735034644604,-0.010966094210743904,0.0012834088411182165,-0.004500058479607105,0.0012137676822021604,-0.02207665890455246,-0.0008058201055973768,-0.013202057220041752,0.009752274490892887
385,-0.012725181877613068,-0.04958874732255936,-0.03128717467188835,-0.0139198899269104,-0.009552661329507828,0.007082563824951649,0.06814219802618027,0.0054764896631240845,-0.02566736750304699,0.0019720890559256077
386,0.010556286200881004,0.006462497636675835,-0.00273987278342247,0.009073898196220398,0.0025638355873525143,0.013406913727521896,-0.003161862026900053,0.008804388344287872,-0.010088659822940826,0.0090330196544528
387,0.03641146048903465,-0.08644558489322662,-0.022997025400400162,0.003999620210379362,-0.00123652967158705,0.014316599816083908,-0.05091018229722977,0.01730331778526306,-0.053609080612659454,0.049758799374103546
388,-0.0018641864880919456,-0.004451962187886238,-0.014583677053451538,0.0017338742036372423,-0.008558273315429688,0.00746424775570631,-0.009251588955521584,0.005628160201013088,-0.043260879814624786,0.01877463050186634
389,0.022548053413629532,-0.020183097571134567,0.0030054845847189426,0.012107202783226967,0.011677093803882599,0.02421301230788231,0.03430040180683136,0.022533107548952103,-0.004528339486569166,0.0461847260594368
390,0.008638261817395687,-0.004119320772588253,-0.006483894772827625,-0.004920721519738436,-0.00041453680023550987,0.002363037783652544,0.015955308452248573,-0.0010246559977531433,0.032041773200035095,-0.020205790176987648
391,0.027440600097179413,-0.054812826216220856,-0.006692617200314999,0.011700747534632683,-0.005308415275067091,0.017605258151888847,-0.02144359052181244,0.006069590803235769,-0.012155239470303059,0.033733949065208435
392,0.012263684533536434,-0.050663866102695465,-0.019525252282619476,-0.0008102355059236288,-0.010214531794190407,0.008584056049585342,0.0005051285261288285,0.00481584295630455,-0.0335063673555851,0.03444420546293259
393,-0.0039878301322460175,-0.028111083433032036,-0.004552776459604502,-0.0015095468843355775,-0.00996343418955803,-0.0007532838499173522,-0.018716253340244293,0.001743093365803361,-0.02134281024336815,0.0007315156981348991
394,0.004859373439103365,-0.0222124382853508,-0.017597563564777374,-0.004709926899522543,-0.008241504430770874,0.003757212311029434,-0.012784536927938461,0.005722002126276493,-0.033960189670324326,0.004732165019959211
395,-0.005735646467655897,-0.04126982018351555,-0.02085438184440136,-0.014113364741206169,-0.011520091444253922,0.0013642404228448868,0.032156579196453094,-0.002524081151932478,-0.017372358590364456,0.0075042517855763435
396,-0.04909124970436096,-0.01710926927626133,-0.06498944759368896,-0.05518060177564621,-0.03174237161874771,-0.02739325724542141,-0.0006321100518107414,-0.0317685604095459,0.009171493351459503,-0.023151975125074387
397,5.630659870803356e-05,-0.0015253507299348712,-0.012143217027187347,0.0011961604468524456,-0.0005988968187011778,0.007193941622972488,0.008824829012155533,0.00430450402200222,-0.014951031655073166,-0.0009032581001520157
398,0.0018579124007374048,0.019017294049263,0.0062566096894443035,-0.002459285780787468,0.002709360793232918,0.005256903823465109,0.012582136318087578,0.0006704165134578943,0.03617037087678909,-0.00376581447198987
399,0.01704438030719757,-0.02449909783899784,0.0008112124633044004,0.009266317822039127,-0.0014308956451714039,0.018215013667941093,-0.004417767748236656,0.01980322040617466,-0.025520073249936104,0.021880902349948883
400,-0.0007908493280410767,-0.03456791862845421,-0.042017482221126556,0.0011539577972143888,-0.001888276543468237,0.010739833116531372,-0.031047480180859566,-0.00028613986796699464,-0.046968866139650345,0.004037788137793541
401,0.018580934032797813,-0.024450620636343956,-0.014261104166507721,0.0026169500779360533,-0.0021973340772092342,0.007651977706700563,0.004695398733019829,0.005200801882892847,0.011592119932174683,-0.016371507197618484
402,-0.0037566544488072395,-0.036556195467710495,-0.01793350651860237,-0.00497792474925518,-0.005181440152227879,0.00952385924756527,0.04249323904514313,0.006637905724346638,-0.026104077696800232,0.011760261841118336
403,0.01805010251700878,-0.03825542330741882,-0.010448772460222244,0.011612210422754288,-0.006157488562166691,0.0050956918857991695,-0.03595157712697983,0.004444306716322899,-0.035728007555007935,0.0227908194065094
404,0.03400769084692001,-0.04805751144886017,-0.010728901252150536,0.017132170498371124,-0.0030217147432267666,0.013734139502048492,-0.011463898234069347,0.014834250323474407,-0.03879045695066452,0.030768444761633873
405,-0.019528014585375786,-0.015804734081029892,-0.007629224564880133,-0.013398878276348114,-0.01343353558331728,-0.01026429608464241,-0.023300249129533768,-0.01407680008560419,-0.012534331530332565,-0.029145020991563797
406,0.018580934032797813,-0.024450620636343956,-0.014261104166507721,0.0026169500779360533,-0.0021973340772092342,0.007651977706700563,0.004695398733019829,0.005200801882892847,0.011592119932174683,-0.016371507197618484
407,-0.013470996171236038,-0.039918676018714905,-0.038840893656015396,-0.019554924219846725,-0.026444485411047935,-0.01757624000310898,-0.025382492691278458,-0.02281830459833145,-0.04775797575712204,-0.012825626879930496
408,-0.0032968600280582905,-0.0026692841202020645,-0.004967146087437868,0.00111685530282557,-0.0041839443147182465,0.004477427341043949,-0.003771937917917967,0.0016015153378248215,-0.0029510436579585075,0.006455639842897654
409,0.011928420513868332,0.005060054827481508,0.005922598764300346,0.016125276684761047,0.002570801880210638,0.015487413853406906,-0.008985821157693863,0.009304116480052471,-0.02180458791553974,0.01867428421974182
410,0.002661280333995819,-0.006778704468160868,-0.014008168131113052,0.0012196924071758986,-0.0013453783467411995,0.011258875019848347,0.01979275420308113,0.007757078856229782,-0.011034475639462471,0.001876958180218935
411,-0.0067272428423166275,-0.05783830210566521,-0.011828840710222721,0.0012112031690776348,-0.008960580453276634,0.0022194485645741224,0.011709703132510185,0.0022276579402387142,-0.01871706172823906,0.03110506199300289
412,0.043064575642347336,-0.04547818377614021,-0.015216969884932041,0.023772750049829483,0.0018625605152919888,0.024967066943645477,-0.02219546213746071,0.017823947593569756,-0.011160175316035748,0.03510220721364021
413,0.025486312806606293,0.026856154203414917,-6.211805157363415e-06,0.015578951686620712,0.005734189413487911,0.012978284619748592,-0.033306486904621124,0.008438347838819027,0.01872449927031994,-0.012706998735666275
414,0.06772545725107193,-0.03144058957695961,0.03261794149875641,0.03642559051513672,0.029515661299228668,0.043733395636081696,0.0097243906930089,0.04450079798698425,-0.019296053797006607,0.07551553100347519
415,0.03169040009379387,-0.013924007304012775,-0.007131421938538551,0.009541766718029976,0.000882715976331383,0.007890420965850353,-0.021873008459806442,0.005085359793156385,0.027194559574127197,-0.024052899330854416
416,0.03029012680053711,-0.07932731509208679,-0.039386097341775894,0.025680821388959885,-0.017819060012698174,0.012885908596217632,-0.06016426160931587,0.018681218847632408,-0.07325685024261475,0.034270334988832474
417,0.03169040009379387,-0.013924007304012775,-0.007131421938538551,0.009541766718029976,0.000882715976331383,0.007890420965850353,-0.021873008459806442,0.005085359793156385,0.027194559574127197,-0.024052899330854416
418,0.03169040009379387,-0.013924007304012775,-0.007131421938538551,0.009541766718029976,0.000882715976331383,0.007890420965850353,-0.021873008459806442,0.005085359793156385,0.027194559574127197,-0.024052899330854416
419,0.009963039308786392,0.032986272126436234,-0.004182338248938322,0.011163905262947083,0.004650674760341644,0.014809200540184975,-0.011601172387599945,0.00991530530154705,-0.00019212812185287476,-0.0004780902527272701
420,0.005288715474307537,-0.03512398153543472,-0.021490179002285004,-0.004404404200613499,-0.005320322699844837,0.007410210557281971,0.03163417428731918,0.005317855626344681,-0.004227823112159967,-0.00858303066343069
421,0.03169040009379387,-0.013924007304012775,-0.007131421938538551,0.009541766718029976,0.000882715976331383,0.007890420965850353,-0.021873008459806442,0.005085359793156385,0.027194559574127197,-0.024052899330854416
422,-0.009545143693685532,-0.04496768116950989,-0.02655225433409214,-0.010749263688921928,-0.008002722635865211,0.0079481927677989,0.0590476430952549,0.0058883014135062695,-0.025822214782238007,0.005442754831165075
423,0.01864900439977646,-0.01635773293673992,-0.002539561130106449,0.008448965847492218,0.0009397639660164714,0.010793749243021011,-0.005744054913520813,0.0069101303815841675,-0.0036434130743145943,0.004326177760958672
424,0.010452799499034882,0.023312563076615334,-0.0023505904246121645,0.013415737077593803,0.0039807274006307125,0.012905415147542953,-0.020622536540031433,0.012949679046869278,-0.0159751083701849,0.007365648169070482
425,0.022624872624874115,-0.01324637234210968,-0.007070275954902172,0.011687485501170158,2.4674925953149796e-05,0.011174649931490421,-0.013493348844349384,0.005300002172589302,-0.019448162987828255,0.024546818807721138
426,-0.004718510899692774,-0.0027740136720240116,-0.006817325484007597,-0.005740286782383919,-0.004461368545889854,-0.003615433117374778,-0.008179385215044022,-0.004867010749876499,-0.005368928425014019,0.0012564160861074924
427,0.02072124183177948,0.009030674584209919,-0.0016269708285108209,0.013741988688707352,0.005059435963630676,0.01575329899787903,-0.02796265296638012,0.01099015399813652,-0.008374836295843124,0.012237833812832832
428,0.0193185992538929,-0.053149208426475525,-0.006880102679133415,0.016258148476481438,0.0006566185038536787,0.017968811094760895,0.0037042233161628246,0.018222130835056305,-0.018794991075992584,0.0391780249774456
429,0.0016313393134623766,-0.03806076943874359,-0.023479271680116653,-0.006336337886750698,-0.006179616786539555,0.007343686651438475,0.03904642537236214,0.005350062623620033,-0.00858070608228445,-0.006440022960305214
430,0.02762916497886181,-0.027404487133026123,-0.007263151928782463,0.006895961239933968,0.0033439307007938623,0.010978242382407188,-0.02158578485250473,0.011886818334460258,-0.02105705253779888,0.027373630553483963
431,0.02684086561203003,-0.01334396842867136,0.006690078414976597,0.025829635560512543,0.007097892463207245,0.023203367367386818,-0.02129065804183483,0.01805967092514038,-0.01957058347761631,0.03630239889025688
432,-0.0015664235688745975,-0.020028304308652878,-0.01081827376037836,-0.0035369624383747578,-0.006246051751077175,-0.002954052062705159,-0.008176658302545547,-0.002562182955443859,-0.008327934890985489,-0.0011226678034290671
433,0.017398465424776077,-0.04998172074556351,-0.01391912903636694,0.009643521159887314,-0.0044371746480464935,0.00849987007677555,-0.014229306019842625,0.012569449841976166,-0.040806252509355545,0.04243895784020424
434,-0.012725195847451687,-0.04958874732255936,-0.03128717467188835,-0.013919896446168423,-0.009552663192152977,0.0070825619623064995,0.06814219802618027,0.005476487800478935,-0.02566736564040184,0.0019720876589417458
435,0.03830709308385849,-0.04362650215625763,-0.012036843225359917,0.017634686082601547,-0.0010679732076823711,0.015059791505336761,-0.043994318693876266,0.013996832072734833,-0.033051997423172,0.04661165922880173
436,0.040094174444675446,-0.04781201854348183,-0.005721463821828365,0.01553691178560257,-0.0012850738130509853,0.011677410453557968,-0.07280924916267395,0.006950145587325096,-0.029135163873434067,0.036044079810380936
437,-0.02023128792643547,0.04698388651013374,0.012405134737491608,-0.026166917756199837,0.003608355764299631,-0.01156320795416832,0.05113975703716278,-0.017332695424556732,0.08237722516059875,-0.02863331139087677
438,0.02977742999792099,-0.021416936069726944,-0.0060462336987257,0.02119304984807968,0.013445843011140823,0.0258682519197464,-0.006150900386273861,0.03000195324420929,0.02861063741147518,0.037547409534454346
439,-0.004142611753195524,-0.05868837237358093,-0.03134109824895859,-0.015954220667481422,-0.02220073528587818,-0.01109823863953352,0.018045146018266678,-0.013003317639231682,-0.02290118858218193,-0.01590101420879364
440,0.013065592385828495,0.0419209860265255,0.004738034214824438,0.007188775110989809,0.006453009322285652,0.008433971554040909,-0.016137832775712013,0.0031645093113183975,0.03170299530029297,-0.013627205975353718
441,-0.019179072231054306,0.012545336037874222,-0.012666001915931702,-0.016649261116981506,-0.008924213238060474,-0.011596007272601128,-0.001634879969060421,-0.007520636077970266,-0.0029426803812384605,-0.016084767878055573
442,0.019978981465101242,-0.004706045612692833,-0.006218223832547665,0.007460259832441807,0.0007240046979859471,0.013736449182033539,-0.024640101939439774,0.010596904903650284,-0.04595136269927025,0.05336474999785423
443,0.01884610950946808,0.07050298154354095,0.007619865238666534,0.02204052545130253,0.010926701128482819,0.01842380128800869,-0.045543670654296875,0.012027034536004066,0.009659028612077236,-0.0005635262932628393
444,0.014428000897169113,0.0046402933076024055,0.016404680907726288,0.0114228380843997,0.00726515194401145,0.008077047765254974,-0.010704460553824902,0.00361419003456831,-0.008846715092658997,0.014581933617591858
445,0.0010411335388198495,-0.005254857707768679,-0.02982885204255581,0.0017269416712224483,-0.0011273744748905301,0.005501915235072374,-0.005984123330563307,0.00621370505541563,-0.011618326418101788,0.008908413350582123
446,0.05033553019165993,-0.052580006420612335,-0.014629032462835312,0.0018326581921428442,-0.013128438033163548,0.0025299033150076866,-0.05437849089503288,0.006160753779113293,-0.053938932716846466,0.005582388490438461
447,-0.010300085879862309,0.022075820714235306,-0.004116136580705643,-0.012894361279904842,0.0009584554936736822,-0.0007781761232763529,0.022900311276316643,-0.008015282452106476,0.026422936469316483,-0.011293217539787292
448,0.006583361886441708,0.006814858410507441,-0.023379452526569366,0.0014257211005315185,-0.0010897431056946516,0.0001886010868474841,0.010815790854394436,-0.005087370052933693,0.016858099028468132,-0.011685241013765335
449,-0.009651422500610352,-0.01817386969923973,-0.008085082285106182,0.00041028554551303387,-0.009615607559680939,-0.005803322419524193,-0.027764011174440384,-0.002487863413989544,-0.014212398789823055,-0.011618056334555149
450,-0.007934595458209515,-0.025603827089071274,-0.034572869539260864,0.003461402142420411,-0.003299098927527666,0.009810823947191238,-0.0008390541188418865,0.009815217927098274,-0.019589612260460854,0.01965484395623207
451,0.05844632163643837,-0.06026904657483101,-0.016135379672050476,0.010281863622367382,-0.009215961210429668,0.011485389433801174,-0.04227107763290405,0.011641671881079674,-0.029108818620443344,0.05715392157435417
452,0.01932702399790287,0.010243542492389679,-0.032099734991788864,0.014520381577312946,-0.0032744770869612694,0.009416155517101288,-0.02902209758758545,-0.004659036174416542,-0.035601917654275894,0.03173286095261574
453,0.026048323025396433,-0.020383151888620877,-0.004244992697424047,0.00027521923238252365,-0.003943701381912278,0.0019513737334432998,0.02162202663788992,-0.0009027647867675773,-0.0025461510776248544,0.02338497486174915
454,-0.011080176569521427,0.00038698967546224594,-0.017570871859788895,-0.01192545797675848,-0.016482001170516014,-0.007951602339744568,0.013337405398488045,-0.009174419566988945,-0.07269838452339172,-0.011045695282518864
455,0.04936482012271881,-0.07704871892929077,0.018512500450015068,0.003022732213139534,-0.013274235650897026,0.004488778300583363,-0.05111699551343918,-0.001125600072555244,-0.021013863384723663,0.024558205157518387
456,0.04835635796189308,-0.0753939151763916,-0.006633821874856949,0.01692787930369377,-0.011386672966182232,0.01847762241959572,-0.05794364959001541,0.007901931181550026,-0.03641853481531143,0.05666044354438782
457,0.031690407544374466,-0.0139240063726902,-0.007131421472877264,0.0095417695119977,0.0008827171404846013,0.007890421897172928,-0.02187301218509674,0.00508536072447896,0.027194557711482048,-0.024052901193499565
458,-0.032444342970848083,0.0037633522879332304,-0.018051285296678543,-0.024078113958239555,-0.016963765025138855,-0.02292531356215477,-0.005744358524680138,-0.024988606572151184,-0.012471936643123627,-0.012759261764585972
