,security,conformity,tradition,benevolence,universalism,self-direction,stimulation,hedonism,achievement,power
0,0.014182578772306442,0.000340326689183712,-0.02168596163392067,0.00201252824626863,-0.0016056620515882969,0.00762199517339468,-0.0076122405007481575,0.009288839995861053,-0.027329467236995697,0.028793247416615486
1,0.006695040967315435,-0.0041902679949998856,-0.027179818600416183,-0.0010819309391081333,0.002460737945511937,0.0052943360060453415,0.012948251329362392,0.011159409768879414,-0.002615055302157998,0.019884860143065453
2,0.010767989791929722,-0.011781238950788975,-0.04900947958230972,-0.003964910749346018,-0.010523077100515366,0.00475354166701436,0.021635226905345917,0.006899681407958269,-0.01671336404979229,0.007394879125058651
3,0.014706341549754143,-0.04437878355383873,-0.029102426022291183,0.001553216716274619,-0.010969036258757114,0.001096957130357623,-0.02302347868680954,0.001221881015226245,-0.020280374214053154,0.027342870831489563
4,0.0020203472601146998,-0.009537543761670776,0.07289049949263252,0.01994348033760222,-0.00047155135441855533,0.01510511142544679,0.04574194468851007,0.006998850509092812,0.04807922910987764,-0.002335432541897848
5,-0.011601939797401428,0.006210772320628166,-0.02325594611465931,-0.01041749119758606,-0.012615659274160862,-0.00845014862716198,-0.003641203511506319,-0.009277194738388062,-0.017528804019093513,-0.0028771236538887024
6,-0.0029161700513213873,0.0017649797955527902,0.0015195799060165882,-0.008694801479578018,-0.0027520277071744204,-0.004783812444657087,0.0035584631841629744,-0.004043582361191511,-0.012738981284201145,-0.009761117398738861
7,0.022340215742588043,-0.0029186694882810116,0.01037670113146305,0.019496332854032516,0.023871829733252525,0.01585882157087326,-0.023242566734552383,0.025231076404452324,-0.006523294374346733,0.04649847373366356
8,0.06474938988685608,0.013056904077529907,0.04474012926220894,0.006579651031643152,0.008608072996139526,0.013690856285393238,0.031493693590164185,0.01607457734644413,-0.0177229605615139,0.06095459312200546
9,0.028907716274261475,2.798996865749359e-05,0.0027409177273511887,0.002570351120084524,-0.0029388046823441982,0.011238068342208862,-0.01864004321396351,0.011339420452713966,0.0032482712995260954,0.024370281025767326
10,-0.01199443731456995,0.005926980637013912,-0.01531066931784153,-0.013022958301007748,-0.01855824515223503,-0.007060143630951643,0.0007819114252924919,-0.007958253845572472,-0.006027077324688435,-0.0017336136661469936
11,0.02236443783622139,-0.007073220011716551,-0.0035979359867633013,-0.01771361779240108,-0.014938083716472709,-0.011955811238370643,0.014280590312738548,-0.006274465390744326,0.024616992812717255,-0.06004762883002572
12,0.022340215742588043,-0.0029186694882810116,0.01037670113146305,0.019496332854032516,0.023871829733252525,0.01585882157087326,-0.023242566734552383,0.025231076404452324,-0.006523294374346733,0.04649847373366356
13,0.07062825560569763,-0.03769494593143463,-0.005500970408320427,0.05134958773851395,0.013782529160380363,0.04587776958942413,-0.01673581823706627,0.04850311204791069,-0.03626532852649689,0.08456776291131973
14,0.016397468745708466,-0.0034016796853393316,-0.003888963721692562,0.01167977973818779,0.015738926827907562,0.01184595376253128,-0.009495662525296211,0.019886020570993423,-0.005038772709667683,0.036389417946338654
15,-0.011011779308319092,-0.006082688458263874,-0.02604050561785698,-0.01676548644900322,-0.003892526961863041,-0.005278735421597958,0.032378390431404114,-0.001534122508019209,0.02333991602063179,-0.0018850755877792835
16,0.001747544389218092,0.0022209095768630505,-0.006205169949680567,-0.0011175979161635041,0.006946282461285591,0.0019039823673665524,-0.011594068259000778,0.005215195007622242,0.014429423958063126,0.007585001178085804
17,0.007794911041855812,-0.003780701197683811,-0.009602504782378674,0.007840008474886417,-0.0011122921714559197,0.008406490087509155,-0.03598194569349289,0.003726942464709282,-0.018137948587536812,-0.0020089377649128437
18,0.01844799518585205,-0.017874574288725853,0.005271566100418568,0.011293560266494751,0.0041673085652291775,0.01276203989982605,-0.025882918387651443,0.014362012036144733,-0.04430791735649109,0.04036468639969826
19,0.04022865742444992,-0.014888416975736618,-0.026532430201768875,0.007337316405028105,0.0007063588127493858,0.004479325842112303,-0.02374052256345749,0.01288461685180664,-0.03913912549614906,0.043211471289396286
20,0.022340215742588043,-0.0029186694882810116,0.01037670113146305,0.019496332854032516,0.023871829733252525,0.01585882157087326,-0.023242566734552383,0.025231076404452324,-0.006523294374346733,0.04649847373366356
21,0.027000227943062782,-0.013885206542909145,-0.001934475265443325,0.0056393686681985855,0.0005118651315569878,0.008815963752567768,-0.026443665847182274,0.005116811487823725,-0.020182529464364052,0.041638873517513275
22,-0.0016311730723828077,-0.031433507800102234,-0.02137596346437931,-0.0015075489645823836,-0.006786481477320194,0.0012593837454915047,-0.01962321251630783,0.0035955258645117283,0.030090207234025,0.03126274794340134
23,0.022340215742588043,-0.0029186694882810116,0.01037670113146305,0.019496332854032516,0.023871829733252525,0.01585882157087326,-0.023242566734552383,0.025231076404452324,-0.006523294374346733,0.04649847373366356
24,0.0071927583776414394,0.040604930371046066,0.023517776280641556,-0.004671900533139706,0.007144726347178221,-0.0063471719622612,0.055794861167669296,-0.00691464077681303,0.008415888994932175,-0.0019797715358436108
25,-0.0008018431253731251,-0.04825884848833084,-0.010581713169813156,0.005899415351450443,-0.016264010220766068,0.005227562040090561,-0.0803343802690506,0.0060210805386304855,-0.030157137662172318,0.04640461131930351
26,-0.0077421292662620544,-0.0045938389375805855,-0.020692475140094757,2.09462596103549e-05,-0.009029252454638481,0.002469595056027174,-0.012051993981003761,0.001543087768368423,-0.035319071263074875,0.020059458911418915
27,0.00678357295691967,-0.03246570751070976,-0.016552122309803963,0.002054098527878523,-0.008046349510550499,-0.00031301024137064815,-0.023723924532532692,0.0031293602660298347,-0.020274024456739426,0.02952740713953972
28,0.022340215742588043,-0.0029186694882810116,0.01037670113146305,0.019496332854032516,0.023871829733252525,0.01585882157087326,-0.023242566734552383,0.025231076404452324,-0.006523294374346733,0.04649847373366356
29,0.014461199752986431,-0.01802404224872589,-0.018566200509667397,0.004787310492247343,-0.006101037375628948,0.0019010347314178944,-0.03642946481704712,0.006726623512804508,-0.02074880339205265,0.024625439196825027
30,0.015475516207516193,-0.00424556527286768,0.011027812957763672,0.004657023586332798,0.00848775077611208,0.005858355201780796,-0.005104652140289545,0.00838445033878088,0.003486559959128499,0.02572072111070156
31,0.01877453923225403,-0.027187127619981766,-0.01671532727777958,0.01587323099374771,0.004357540048658848,0.018130606040358543,-0.014593704603612423,0.018279721960425377,-0.0037118075415492058,0.03290552273392677
32,0.013934886083006859,-0.020846795290708542,-0.0033968803472816944,0.0007772211683914065,-0.00033483467996120453,0.004793466534465551,-0.0005875412607565522,0.005812506191432476,0.012990358285605907,0.027346311137080193
33,-0.013702495954930782,-0.014985010027885437,-0.030817754566669464,-0.009502097964286804,-0.007930995896458626,-0.0077610984444618225,0.010990793816745281,0.004020185675472021,0.0021335226483643055,-0.008503095246851444
34,0.015150131657719612,-0.05650915578007698,0.005841727368533611,0.019709110260009766,0.006315422244369984,0.007415979169309139,-0.009780803695321083,0.0233796164393425,-0.0333864726126194,0.06495937705039978
35,0.08933780918069173,0.008197115449924398,-0.016577507569357816,0.009878335929155295,-0.002363317843207714,0.023330530649755276,0.024764611010075856,0.0170584090100493,-0.018738908555635758,0.008259438284613976
36,0.021705109626054764,-0.017007116228342056,-0.012215819209814072,-0.004779629874974489,-0.009727008640766144,-6.957456935197115e-05,-0.027081698179244995,0.004469061270356178,-0.02224806137382984,0.027257291600108147
37,0.0297800675034523,-0.03960651159286499,0.004005132243037224,0.019451387226581573,0.002169057261198759,0.01790124922990799,-0.05013420432806015,0.020168371498584747,-0.03595857694745064,0.057118020951747894
38,0.003227971261367202,-0.004472059663385153,-0.035502590239048004,-0.005642206408083439,-0.0022840965539216995,0.0029531780164688826,0.020968372002243996,0.00804104097187519,-0.0017489684978500009,0.013987117446959019
39,0.006445925682783127,-0.01788567192852497,-0.037099409848451614,-0.006943080108612776,-0.01219541858881712,-0.005787093658000231,0.006203239317983389,-0.003452852601185441,-0.010506879538297653,-0.007204862777143717
40,-0.016608010977506638,-0.024693315848708153,-0.03531210869550705,-0.0070115914568305016,-0.012803008779883385,0.0053039425984025,0.001690185396000743,0.0053811343386769295,-0.010100881569087505,0.010420833714306355
41,-0.022999856621026993,0.025703001767396927,-0.009180008433759212,0.005109741352498531,0.006700897589325905,0.004245173651725054,0.011788592673838139,0.004389356821775436,0.009271622635424137,0.018904555588960648
42,-0.01198573037981987,-0.00570858595892787,-0.07202333211898804,-0.025652945041656494,-0.02310468629002571,-0.007319947704672813,0.056161075830459595,-0.00564254354685545,0.002051489893347025,-0.011892503127455711
43,0.025591392070055008,-0.05685638263821602,-0.0026422617956995964,0.010097373276948929,-0.00401857728138566,0.013685222715139389,-0.059949908405542374,0.014851703308522701,-0.02880074456334114,0.056489527225494385
44,-0.009417776018381119,-0.0025526657700538635,-0.01915404573082924,-0.004959595389664173,-0.01210634596645832,-0.008223931305110455,-0.020153740420937538,-0.0052647823467850685,-0.021338891237974167,-0.007248447276651859
45,0.034042607869335,0.0009874520947449976,0.027153156836387027,0.010653329756669765,0.01353389926139142,0.008970816947536571,0.02972216477608377,0.037234410431564495,0.02204071044103361,0.005244237212040089
46,-0.0072815511375665665,-0.012984119355678558,-0.05300861597061157,-0.002381295897066593,-0.012542076408863068,0.005234632641077042,-0.04136185720562935,0.011568333022296429,-0.04923379048705101,0.015945792198181152
47,0.07981480658054352,-0.040326379239559174,0.006566223222762346,0.056331388652324677,0.016774499788880348,0.04899166524410248,-0.0631960779428482,0.05276234820485115,-0.06039555370807648,0.0963146761059761
48,0.0037413998506963253,0.009066805243492126,-0.02934877946972847,-0.00028130505234003067,-0.003020029515028,-5.9419311583042145e-05,0.003061199327930808,0.005526847206056118,-0.016817014664411545,0.004462323151528835
49,-0.0062096938490867615,0.014126619324088097,0.062414757907390594,-0.0016416579019278288,-0.0006625293754041195,-0.022183530032634735,0.04759429395198822,-0.010470440611243248,-0.03379131481051445,-0.000507066142745316
50,0.016397468745708466,-0.0034016796853393316,-0.003888963721692562,0.01167977973818779,0.015738926827907562,0.01184595376253128,-0.009495662525296211,0.019886020570993423,-0.005038772709667683,0.036389417946338654
51,-0.006736185401678085,0.053190600126981735,0.014452945441007614,0.015734568238258362,0.019234642386436462,0.015878096222877502,-0.028095323592424393,0.013286770321428776,0.010774071328341961,-0.00648597814142704
52,0.05281597375869751,-0.000754297710955143,0.009857183322310448,0.029047533869743347,0.011259162798523903,0.024005305022001266,-0.03340058773756027,0.027155663818120956,-0.027701307088136673,0.06285600364208221
53,0.03133492171764374,-0.0202160831540823,-0.029426271095871925,0.016578424721956253,0.0006967717781662941,0.020727038383483887,0.011016626842319965,0.023930061608552933,-0.01700601354241371,0.04126850515604019
54,0.012208755128085613,-0.003742128610610962,-0.013944050297141075,0.006170317530632019,0.010006492957472801,0.009017501026391983,0.00019378727301955223,0.01611858420073986,-0.003992406185716391,0.02926410362124443
55,0.015915291383862495,-0.0033770492300391197,-0.020358921959996223,0.01371455192565918,0.0026019024662673473,0.018185772001743317,0.00044857594184577465,0.01905982941389084,-0.009939359501004219,0.02529611438512802
56,0.008909113705158234,-0.0010571363382041454,-0.0231349915266037,0.006650569848716259,0.013918079435825348,0.004386253654956818,0.01727982424199581,0.004595012404024601,-0.003950269892811775,0.020995087921619415
57,-0.04066824913024902,0.03684628754854202,0.015850236639380455,-0.026242045685648918,-0.007825717329978943,-0.024947386234998703,0.055154550820589066,-0.01620693877339363,0.01279472652822733,-0.0458211787045002
58,0.02846241556107998,-0.033566057682037354,-0.013847391121089458,0.0021848755422979593,-0.005111942999064922,-0.0005439035594463348,-0.018429473042488098,0.013195998035371304,-0.02368064410984516,0.01972385309636593
59,0.022340215742588043,-0.0029186694882810116,0.01037670113146305,0.019496332854032516,0.023871829733252525,0.01585882157087326,-0.023242566734552383,0.025231076404452324,-0.006523294374346733,0.04649847373366356
60,0.004486987832933664,-0.016816027462482452,0.019635535776615143,-0.00834861770272255,0.011823005974292755,-0.009462415240705013,0.014014201238751411,-0.0022618845105171204,0.04918777942657471,0.013131845742464066
61,0.02508416399359703,-0.025904882699251175,-0.00889760535210371,0.00609624944627285,-0.0071579087525606155,0.006225729826837778,-0.018973372876644135,0.0009251574520021677,-0.0301397442817688,0.021090665832161903
62,0.029936689883470535,-0.06108349934220314,0.014875867404043674,0.019503895193338394,0.0010036258026957512,0.016629211604595184,-0.09262868762016296,0.018871016800403595,-0.03475838154554367,0.07169736921787262
63,0.011553177610039711,-0.03471125289797783,-0.014002492651343346,0.013049020431935787,-0.005207029636949301,0.015370920300483704,-0.06104562431573868,0.01689443364739418,-0.0333719439804554,0.04816368222236633
64,0.02052135393023491,-0.025641893967986107,-0.024724414572119713,0.005918198265135288,-0.00704745901748538,0.010042119771242142,-0.05897077918052673,0.011618277058005333,-0.04637324810028076,0.040794022381305695
65,0.010297475382685661,-0.014643714763224125,0.009075263515114784,0.017932184040546417,0.016992760822176933,0.016819296404719353,-0.03301512077450752,0.023166213184595108,-0.011199431493878365,0.04343884065747261
66,0.010546156205236912,-0.0038772576954215765,-0.017935149371623993,0.003983484115451574,0.007731156423687935,0.00789482332766056,0.0040397439152002335,0.014623204246163368,-0.0035770833492279053,0.02643589861690998
67,-0.01198573224246502,-0.005708585027605295,-0.07202332466840744,-0.025652946904301643,-0.023104684427380562,-0.007319948635995388,0.05616108700633049,-0.005642544012516737,0.002051485003903508,-0.011892504058778286
68,0.0020658811554312706,-0.010909095406532288,-0.010537903755903244,-0.00934741273522377,-0.004042412154376507,-0.013041900470852852,-0.01701732724905014,-0.0036162841133773327,-0.0006179460324347019,0.032963935285806656
69,0.0032207733020186424,-0.006426747422665358,-0.02732638642191887,-0.0027121424209326506,-0.0034133605659008026,0.005390024743974209,0.0019089641282334924,0.0075298938900232315,-0.004804061260074377,0.014359898865222931
70,0.014771133661270142,-0.010578649118542671,0.008477536030113697,-4.440348129719496e-05,-0.007077431306242943,0.004549827426671982,-0.00931269396096468,0.007239950820803642,-0.00905667245388031,0.010503790341317654
71,-0.01875125989317894,0.001946300733834505,-0.014496883377432823,0.019732248038053513,0.003741311375051737,-0.0006648509297519922,-0.0075072674080729485,-0.00344822253100574,-0.0027773624751716852,-0.021040229126811028
72,0.016016041859984398,-0.07754182815551758,-0.016595127061009407,0.023053724318742752,0.001543422695249319,0.00974097941070795,-0.011793890967965126,0.02836299128830433,-0.05094892904162407,0.07072151452302933
73,-0.0012938568834215403,-0.014289028942584991,-0.03807491809129715,0.007017351221293211,-0.005596970673650503,0.009668631479144096,-0.06774186342954636,0.017854848876595497,-0.061154045164585114,0.029426729306578636
74,0.008478833362460136,-0.020836828276515007,0.004545095842331648,0.004501103889197111,-0.006015476770699024,0.0038236239925026894,-0.030370201915502548,0.0015139237511903048,-0.014792099595069885,0.02615230157971382
75,-0.01623195968568325,-0.01961643435060978,-0.0028892350383102894,-0.006399207748472691,-0.005747149232774973,0.0008358057239092886,0.01900007575750351,0.0032973322086036205,-0.0013049456756561995,0.011302182450890541
76,-0.017215218394994736,-0.019278384745121002,-0.01719244383275509,0.0060233380645513535,-0.0017303708009421825,0.008306428790092468,-0.02005581744015217,0.014949099160730839,-0.03548065572977066,0.04602457210421562
77,-0.02176057919859886,-0.0458560511469841,0.005610802210867405,0.01376837957650423,-0.0013194683706387877,0.019376102834939957,-0.05902985855937004,0.017669497057795525,-0.02364742010831833,0.035294052213430405
78,-0.006486109457910061,0.0009088191436603665,-0.051001496613025665,-0.023072868585586548,-0.022467799484729767,-0.005786917172372341,0.045439399778842926,-0.0048772795125842094,-0.003259673248976469,-0.0057427710853517056
79,-0.0033495300449430943,0.005128489341586828,-0.02670532837510109,-0.0032068395521491766,-0.006563927046954632,0.00698345759883523,-0.003415884682908654,0.012940099462866783,-0.019514499232172966,0.017332773655653
80,0.05572594702243805,-0.026781665161252022,-0.015513962134718895,0.03576505184173584,0.007304397877305746,0.0273619145154953,-0.039721038192510605,0.028679057955741882,-0.05874650180339813,0.038145896047353745
81,-0.003576556420047016,-0.0008778993974975112,-0.019066147227048254,-0.015168384913431787,-0.010469889670784308,-0.009745528750455148,-0.014501859714844252,-0.013691152319749461,0.006659011601603602,-0.006666345430387313
82,0.02081461437046528,-0.02659786306321621,0.007658637594431639,0.005286709405481815,-0.0032607002649456263,0.004908784758299589,-0.04660253971815109,0.004817571025341749,-0.021281221881508827,0.030264975503087044
83,-0.004517344757914543,0.004478951450437307,0.03301778435707092,-0.018713120371103287,-0.005295520648360252,-0.010721271857619286,-0.030133847147226334,-0.02841159701347351,-0.012167295441031456,-0.07119005918502808
84,0.016397468745708466,-0.0034016796853393316,-0.003888963721692562,0.01167977973818779,0.015738926827907562,0.01184595376253128,-0.009495662525296211,0.019886020570993423,-0.005038772709667683,0.036389417946338654
85,0.017265725880861282,-0.003572126617655158,-0.012631021440029144,-0.004398643039166927,0.0007132573518902063,0.0018469610949978232,0.015082637779414654,0.0037317725364118814,-0.016506660729646683,0.015177194960415363
86,0.02031213790178299,0.006932714954018593,0.000362071325071156,-0.0007327726925723255,-0.0014996478566899896,0.006545394659042358,-0.01704336516559124,0.003124952781945467,-0.007303629070520401,0.0007093118038028479
87,0.007930388674139977,-0.005433658137917519,-0.006147323176264763,0.010314257815480232,0.0054628378711640835,0.013421136885881424,-0.022133665159344673,0.014978289604187012,-0.00734393484890461,0.023184916004538536
88,1.9137747585773468e-05,0.007835036143660545,-0.027778301388025284,0.0019458322785794735,-0.010206962004303932,-0.011135037988424301,0.03147968649864197,-0.016684431582689285,0.043736428022384644,0.010585002601146698
89,-0.011985724791884422,-0.00570859108120203,-0.07202333211898804,-0.025652941316366196,-0.023104684427380562,-0.007319947239011526,0.05616108328104019,-0.005642544012516737,0.0020514875650405884,-0.01189250499010086
90,0.022364839911460876,0.00713140657171607,-0.01645071990787983,0.001693809637799859,-0.00786172691732645,0.005453651770949364,-0.020913057029247284,0.0005911239422857761,-0.032975442707538605,0.04592922329902649
91,-0.0035469112917780876,0.047036197036504745,0.014005843549966812,0.016147179529070854,0.01974327489733696,0.015875982120633125,-0.027563044801354408,0.014596892520785332,0.008876798674464226,-0.0006743352860212326
92,-0.02266714908182621,0.007570010609924793,0.03497261554002762,-0.03063356876373291,0.019146842882037163,-0.022524137049913406,0.05107896775007248,-0.015403218567371368,0.10177481919527054,-0.022708619013428688
93,-0.006736185401678085,0.053190600126981735,0.014452945441007614,0.015734568238258362,0.019234642386436462,0.015878096222877502,-0.028095323592424393,0.013286770321428776,0.010774071328341961,-0.00648597814142704
94,0.022340215742588043,-0.0029186694882810116,0.01037670113146305,0.019496332854032516,0.023871829733252525,0.01585882157087326,-0.023242566734552383,0.025231076404452324,-0.006523294374346733,0.04649847373366356
95,0.022340215742588043,-0.0029186694882810116,0.01037670113146305,0.019496332854032516,0.023871829733252525,0.01585882157087326,-0.023242566734552383,0.025231076404452324,-0.006523294374346733,0.04649847373366356
96,0.012208755128085613,-0.003742128610610962,-0.013944050297141075,0.006170317530632019,0.010006492957472801,0.009017501026391983,0.00019378727301955223,0.01611858420073986,-0.003992406185716391,0.02926410362124443
97,0.01958877220749855,-0.014279129914939404,-0.024919545277953148,0.006991461385041475,-0.0017677348805591464,0.016059964895248413,-0.010760974138975143,0.00994434580206871,-0.0011917902156710625,0.02075015939772129
98,-0.002329569309949875,-0.019415341317653656,-0.013056235387921333,0.008329855278134346,-0.005807562731206417,0.0077110277488827705,-0.06723519414663315,0.007006943691521883,-0.03185252845287323,0.02969062328338623
99,0.012267515063285828,-0.0267682746052742,0.0010923759546130896,0.003084274474531412,-0.0038799955509603024,-0.002280884189531207,0.011742385104298592,0.0029619429260492325,-0.02220819517970085,0.049813948571681976
100,0.03914543241262436,-0.042620979249477386,0.00278538279235363,0.02147791162133217,-0.007613110356032848,0.014658916741609573,-0.07068034261465073,0.015660397708415985,-0.047721944749355316,0.04981347545981407
101,0.024467729032039642,0.00887837540358305,0.009038594551384449,0.001859953161329031,-0.001716614468023181,0.009736824780702591,-0.028737632557749748,0.014630268327891827,0.002982074860483408,0.026404153555631638
102,0.03010878898203373,-0.015622244216501713,0.02350008301436901,0.021094143390655518,0.015027866698801517,0.020764775574207306,-0.00279625179246068,0.017950326204299927,-0.003366048913449049,0.04426807910203934
103,0.013084649108350277,-0.024916499853134155,0.009767217561602592,0.012073596939444542,-0.004041250795125961,0.008120574988424778,-0.0302655640989542,0.008058820851147175,-0.027886053547263145,0.05936376750469208
104,0.009058916941285133,-0.017030879855155945,-0.013596619479358196,-0.0061403680592775345,-0.01036512479186058,-0.003197356825694442,-0.007650975603610277,0.0027476982213556767,-0.004149368032813072,-0.000273026991635561
105,-0.016924802213907242,-0.04790901765227318,-0.031099528074264526,-0.008131475187838078,-0.012612133286893368,-0.017355214804410934,-0.0015783621929585934,-0.01609071157872677,-0.005607582628726959,-0.002428642474114895
106,-0.001443111919797957,0.005107291042804718,-0.028701310977339745,-0.0031942781060934067,-0.0005704606883227825,0.0048219794407486916,0.012780123390257359,0.007760285399854183,0.0003565466031432152,0.00765417143702507
107,-0.006886254530400038,0.011268128640949726,-0.009228741750121117,-0.010823803022503853,-0.0021793677005916834,-0.009646239690482616,-0.0010285794269293547,-0.011429047212004662,0.00865049660205841,-0.005853305570781231
108,0.02156565524637699,-0.02272946573793888,0.013216689229011536,0.0004957675701007247,-0.002406686544418335,0.009579620324075222,-0.02920813299715519,0.0059409667737782,0.006596769206225872,0.020542403683066368
109,-0.006482278928160667,-0.0019362481543794274,-0.02328130416572094,-0.01140826940536499,-0.004162659868597984,-0.0051549565978348255,0.023188110440969467,-0.004636771976947784,0.0051420703530311584,-0.011492407880723476
110,0.016397468745708466,-0.0034016796853393316,-0.003888963721692562,0.01167977973818779,0.015738926827907562,0.01184595376253128,-0.009495662525296211,0.019886020570993423,-0.005038772709667683,0.036389417946338654
111,0.006695040967315435,-0.0041902679949998856,-0.027179818600416183,-0.0010819309391081333,0.002460737945511937,0.0052943360060453415,0.012948251329362392,0.011159409768879414,-0.002615055302157998,0.019884860143065453
112,0.008797958493232727,-0.01860804855823517,-0.03265506774187088,-0.009213564917445183,-0.0019257139647379518,0.002468033693730831,0.045569948852062225,0.0009715999476611614,-0.02419259026646614,0.03312326967716217
113,-0.006469815503805876,0.04002463072538376,-0.015665944665670395,-0.005613170564174652,-0.0024615656584501266,0.005780046805739403,0.020425092428922653,0.007360775023698807,0.007670605555176735,0.005508792586624622
114,-0.00036624539643526077,-0.004764190409332514,-0.04413055256009102,-0.010369709692895412,-0.0072029284201562405,0.0005261693149805069,0.029282592236995697,0.004808316007256508,-0.0008511154446750879,0.00787309929728508
115,-0.014928227290511131,0.011949790641665459,0.022977478802204132,-0.0263311006128788,0.014218742027878761,-0.01789899356663227,0.0376783050596714,-0.01218343898653984,0.07362523674964905,-0.01744704507291317
116,-0.008160742931067944,-0.03502035513520241,-0.009893552400171757,0.006442924961447716,-0.0056136781349778175,0.010778557509183884,-0.04392940178513527,0.01179242692887783,-0.01958724483847618,0.033274468034505844
117,-0.01198573224246502,-0.005708585027605295,-0.07202332466840744,-0.025652946904301643,-0.023104684427380562,-0.007319948635995388,0.05616108700633049,-0.005642544012516737,0.002051485003903508,-0.011892504058778286
118,0.016479868441820145,-0.01898481696844101,-0.008528043515980244,-0.006741098593920469,-0.012137211859226227,-0.004174289293587208,-0.037171605974435806,-0.004802923649549484,-0.023419488221406937,0.01295906025916338
119,-0.01198573224246502,-0.005708585027605295,-0.07202332466840744,-0.025652946904301643,-0.023104684427380562,-0.007319948635995388,0.05616108700633049,-0.005642544012516737,0.002051485003903508,-0.011892504058778286
120,-0.006895660422742367,0.0038945593405514956,0.026353709399700165,-0.013067040592432022,0.0208025723695755,-0.009073975495994091,0.025035202503204346,-0.0011641443707048893,0.06382498145103455,0.0015429395716637373
121,0.022466091439127922,-0.04665057361125946,-0.022331543266773224,0.025112833827733994,0.006174319423735142,0.020941205322742462,-0.055343665182590485,0.02539222687482834,-0.02559545636177063,0.05055369436740875
122,0.011713802814483643,-0.00767873041331768,-0.002543885027989745,0.0022259317338466644,0.0011506687151268125,0.0008352405857294798,0.0015612933784723282,0.006825534626841545,-0.02058594673871994,0.038388971239328384
123,-0.019808949902653694,0.004836003761738539,0.01962534710764885,-0.027851855382323265,0.01343874167650938,-0.018786555156111717,0.048083484172821045,-0.012422718107700348,0.08359292894601822,-0.018384084105491638
124,0.011613072827458382,-0.018550263717770576,0.005958113819360733,0.006150801666080952,0.00020818132907152176,0.00038538454100489616,0.004580711014568806,0.00507759116590023,-0.019325528293848038,0.04646339640021324
125,0.005034564062952995,-0.01699499785900116,-0.024307280778884888,-0.001882237265817821,0.004172680899500847,0.005936909466981888,-0.01162415649741888,-0.0018422049470245838,-0.00706849992275238,0.007471601478755474
126,-0.011968597769737244,0.0019062822684645653,-0.02740192413330078,0.009398492984473705,0.005532773677259684,0.011111589148640633,-0.020671281963586807,0.019366266205906868,-0.004691380076110363,0.011909978464245796
127,0.008788530714809895,0.01055467315018177,-0.04446147754788399,-0.006543406285345554,-0.016476396471261978,-0.0027684527449309826,-0.02091614156961441,-0.005742326844483614,-0.08645512908697128,0.04182111471891403
128,0.03068283572793007,0.005407467018812895,-0.015174996107816696,0.023910438641905785,0.0033601424656808376,0.023418003693223,-0.007811658550053835,0.021356632933020592,-0.03994794562458992,0.042606763541698456
129,-0.01198573224246502,-0.005708585027605295,-0.07202332466840744,-0.025652946904301643,-0.023104684427380562,-0.007319948635995388,0.05616108700633049,-0.005642544012516737,0.002051485003903508,-0.011892504058778286
130,-0.010045451112091541,-0.010607734322547913,-0.007758640684187412,-0.011066792532801628,-0.00669057946652174,-0.009499158710241318,-0.009220065549015999,-0.01271412055939436,-0.0028325074817985296,-0.008550897240638733
131,0.003227971261367202,-0.004472059663385153,-0.035502590239048004,-0.005642206408083439,-0.0022840965539216995,0.0029531780164688826,0.020968372002243996,0.00804104097187519,-0.0017489684978500009,0.013987117446959019
132,-0.03979613095891778,-0.022802198433539384,-0.023353488921493644,0.005349810811332666,-0.01843472959410392,-0.006281272377567192,0.004752362151053326,-0.004177536817984558,-0.029782667988573045,-0.020809210102354838
133,-0.023848247463969553,0.060449110890091626,0.011528155716446196,-0.013170458361233713,-0.0039158389902041275,-0.012744867653559285,0.046166201809746885,-0.01273517637332261,0.006028851337400495,-0.030628193396304258
134,0.010367856360971928,-0.04858763888478279,-0.00039065396413207054,0.020200591534376144,0.003520188620314002,0.015974542126059532,-0.03731600567698479,0.013389891013503075,-0.010937683284282684,0.056867554783821106
135,0.04569634795188904,-0.03350448980927467,0.01166125014424324,0.001346479868516326,-0.006729271728545427,0.008564932271838188,-0.01862369291484356,0.017845014110207558,-0.03567376360297203,0.03615109995007515
136,0.019654391333460808,0.02468295767903328,0.010667084716260433,-0.005737621802836657,-0.0033515109680593014,-0.006754404865205288,-0.05532080680131912,-0.000537538668140769,0.007628818973898888,0.014538190327584743
137,-0.003781442064791918,-0.015533597208559513,-0.03538565710186958,-0.010211164131760597,-0.014579947106540203,-0.0013421918265521526,-0.007287814747542143,0.0019183364929631352,-0.0024802994448691607,0.017391769215464592
138,-0.005368691869080067,-0.005170772783458233,-0.056139010936021805,-0.016949482262134552,-0.014048989862203598,-0.002851758850738406,0.040854379534721375,0.00030898768454790115,0.0003985174698755145,-0.0006364313885569572
139,0.04402665048837662,-0.015842702239751816,0.014767903834581375,0.01889679953455925,0.006669327151030302,0.016541723161935806,-0.010522905737161636,0.020869124680757523,-0.02149825543165207,0.04890725016593933
140,0.03937426195051622,0.009402520211183896,0.05528311073780297,0.008083417870160996,-0.0037123765462023454,0.0053096815769093225,0.020498695259502788,-0.006061417138509303,-0.002114405887743266,0.05519898491419272
141,0.004537156317383051,-0.004709241446107626,-0.02534607984125614,-0.0014866495039314032,0.0006457187701016665,0.005704851355403662,0.010622651316225529,0.010507512837648392,-0.005720331333577633,0.023840904235839844
142,0.021202651783823967,-0.024487754330039024,0.014496315270662308,0.023643024265766144,0.00675586611032486,0.01934148371219635,-0.0002532422076910734,0.019515015184879303,-0.017323706299066544,0.045159392058849335
143,-0.00637850072234869,0.008020535111427307,-0.02491108700633049,-0.002000292995944619,-0.0008661795873194933,0.006135463248938322,0.0059623816050589085,0.007289930712431669,0.0005343963857740164,0.003723833942785859
144,0.022340215742588043,-0.0029186694882810116,0.01037670113146305,0.019496332854032516,0.023871829733252525,0.01585882157087326,-0.023242566734552383,0.025231076404452324,-0.006523294374346733,0.04649847373366356
145,0.020294807851314545,-0.04969454184174538,-0.033159006386995316,0.009321792982518673,-0.009355606511235237,0.006048236507922411,-0.009753186255693436,0.016586439684033394,-0.039507508277893066,0.03664850443601608
146,0.014838077127933502,-0.03716495260596275,0.005945511627942324,0.015660325065255165,-0.0010477141477167606,0.009216970764100552,-0.0843917578458786,0.013927740976214409,-0.027130983769893646,0.05878887698054314
147,0.0067310333251953125,0.014133438467979431,-0.019879046827554703,-0.0018400773406028748,-0.002713315887376666,0.004037001170217991,0.0019608591683208942,-0.0007321436423808336,-0.015644008293747902,0.014180338010191917
148,0.011577535420656204,-0.007952242158353329,-0.004253325052559376,0.008234987035393715,-0.003952066879719496,0.008526913821697235,-0.04160790517926216,0.007743808440864086,-0.03665035963058472,0.03138096258044243
149,-0.007400050293654203,-0.009753056801855564,-0.007622133940458298,-0.0068208142183721066,0.004413139540702105,0.0005037448136135936,0.010347403585910797,0.004918776452541351,0.01937928795814514,0.010608602315187454
150,0.014136259444057941,-0.003585459664463997,-0.009317041374742985,0.008705586194992065,0.012644367292523384,0.01031905971467495,-0.004264974035322666,0.017852233722805977,-0.004473901353776455,0.03254293277859688
151,0.03108571283519268,0.0180335883051157,-0.006485279183834791,0.009331544861197472,-0.007522871717810631,0.002714219968765974,-0.04810566455125809,0.00012082536704838276,-0.059542156755924225,0.07135282456874847
152,0.0003727637231349945,-0.05278700590133667,-0.008024543523788452,0.027765654027462006,0.009050999768078327,0.020658617839217186,-0.02661183290183544,0.026510747149586678,-0.0019023021450266242,0.03323468938469887
153,0.03176547586917877,-0.028018059208989143,-0.015470257960259914,0.014035624451935291,-0.0035199890844523907,0.005756791215389967,-0.03433974087238312,0.009059478528797626,-0.04532307758927345,0.025475628674030304
154,-0.05101393804639259,-0.028756716491689607,-0.0027745230769154125,-0.016094906635076657,-0.029173680285947644,-0.020984404764969024,-0.07220679828423963,-0.013513011126821801,-0.003312809646742264,-0.03330753888600143
155,0.02236582711338997,-0.040742941200733185,-0.003553250804543495,0.007428888697177172,-0.009175041690468788,0.007022511679679155,-0.04481765627861023,0.0065157669596374035,-0.037331473082304,0.038796793669462204
156,0.02907877042889595,-0.012355055660009384,-0.016114016994833946,0.009960426017642021,-0.008948075585067272,0.008853338658809662,-0.03992652893066406,0.010850277729332447,-0.03594405949115753,0.035704318434000015
157,0.04995010420680046,0.011650574393570423,0.0030607914086431265,0.026996787637472153,0.018700137734413147,0.018719788640737534,-0.03207514062523842,0.01690809428691864,-0.01643357239663601,0.046112705022096634
158,0.045292630791664124,-0.029512479901313782,-0.01537528820335865,0.03061092644929886,0.00573262432590127,0.029538996517658234,-0.012138625606894493,0.032676417380571365,-0.026150081306695938,0.06107804551720619
159,0.00802843552082777,-0.024184219539165497,-0.021233396604657173,0.0007165508577600121,-0.010658469051122665,0.010134715586900711,-0.029117083176970482,0.003209049580618739,-0.012794754467904568,0.017028391361236572
160,-0.00314183346927166,-0.016628321260213852,-0.031219253316521645,0.0026866067200899124,-0.005207544192671776,0.007940794341266155,-0.030441928654909134,0.010326322168111801,-0.026633204892277718,0.021612022072076797
161,-0.01198573224246502,-0.005708585027605295,-0.07202332466840744,-0.025652946904301643,-0.023104684427380562,-0.007319948635995388,0.05616108700633049,-0.005642544012516737,0.002051485003903508,-0.011892504058778286
162,0.04143049567937851,-0.010316341184079647,-0.010807940736413002,0.025685328990221024,0.01418386586010456,0.032684653997421265,-0.02017035149037838,0.02684902399778366,-0.03432496637105942,0.07068773359060287
163,-0.04025669023394585,0.03147108480334282,-0.007258611265569925,-0.0036359881050884724,0.0034475564025342464,0.006556983105838299,0.042865779250860214,0.009689932689070702,0.026819245889782906,0.016886726021766663
164,-0.02262096107006073,0.005862364545464516,0.0034112222492694855,-0.022606924176216125,-0.001868849853053689,-0.014294200576841831,0.036817848682403564,-0.009337294846773148,0.023991018533706665,-0.006785800214856863
165,0.05941598489880562,-0.029620051383972168,-0.0018142354674637318,0.04395340383052826,0.01612522080540657,0.0389074981212616,-0.018246660009026527,0.04309944435954094,-0.0293593592941761,0.07572823762893677
166,0.038715727627277374,-0.03534238785505295,-0.0019144113175570965,0.02724446728825569,-0.0006898357532918453,0.02380504086613655,-0.0482606403529644,0.027298113331198692,-0.03040752373635769,0.06081481650471687
167,0.017787273973226547,-0.020424239337444305,0.007064687088131905,7.941562216728926e-05,0.0071757095865905285,0.0026362750213593245,-0.005405886564403772,0.006622781977057457,0.02487889491021633,0.02604621648788452
168,0.011865409091114998,-0.022060152143239975,-0.034740157425403595,0.008580382913351059,-0.008673950098454952,0.004175286740064621,-0.02933681756258011,0.00429349672049284,-0.059299569576978683,0.03497304022312164
169,-0.012752261012792587,0.014547115191817284,-0.01500212773680687,-0.012256846763193607,-0.0032321736216545105,-0.009948384016752243,0.004111446440219879,-0.007281061261892319,-0.005026638507843018,-0.014519162476062775
170,0.022340215742588043,-0.0029186694882810116,0.01037670113146305,0.019496332854032516,0.023871829733252525,0.01585882157087326,-0.023242566734552383,0.025231076404452324,-0.006523294374346733,0.04649847373366356
171,0.0012714425101876259,-0.00019426050130277872,0.006073846481740475,0.0009827462490648031,-0.00455879233777523,0.004349516239017248,-0.02029367722570896,0.004756772890686989,-0.001985830720514059,0.02505446970462799
172,0.012208755128085613,-0.003742128610610962,-0.013944050297141075,0.006170317530632019,0.010006492957472801,0.009017501026391983,0.00019378727301955223,0.01611858420073986,-0.003992406185716391,0.02926410362124443
173,0.007391930557787418,-0.03402460739016533,-0.018104329705238342,0.0035733096301555634,-0.011856058612465858,0.006628837436437607,-0.03971333056688309,0.009446977637708187,-0.027822401374578476,0.037586819380521774
174,-0.01198573224246502,-0.005708585027605295,-0.07202332466840744,-0.025652946904301643,-0.023104684427380562,-0.007319948635995388,0.05616108700633049,-0.005642544012516737,0.002051485003903508,-0.011892504058778286
175,0.035771436989307404,-0.03537579998373985,0.010892022401094437,0.004128654021769762,-0.014747852459549904,0.006283615715801716,-0.044913921505212784,0.007269592024385929,-0.045017123222351074,0.03780883178114891
176,0.025277456268668175,-0.03927319869399071,-0.003277887124568224,0.012378757819533348,-0.0010382495820522308,0.009796760976314545,-0.017065584659576416,0.016397662460803986,-0.03780464082956314,0.05629103630781174
177,0.011312086135149002,-0.012191874906420708,-0.023619284853339195,0.001115396386012435,-0.005253391806036234,0.01013804692775011,0.029048878699541092,0.015298129990696907,0.005138908978551626,0.011841720901429653
178,0.00366573641076684,0.021852940320968628,-0.054470427334308624,-0.012048399075865746,-0.01748606748878956,0.0006034926045686007,0.0068522365763783455,-0.0071567995473742485,-0.08045626431703568,0.027773011475801468
179,-0.02266714535653591,0.0075700050219893456,0.03497260808944702,-0.03063356690108776,0.019146841019392014,-0.022524135187268257,0.051078956574201584,-0.015403218567371368,0.10177481919527054,-0.02270861715078354
180,-0.025510648265480995,0.005917955189943314,-0.023363817483186722,0.002732600085437298,-0.008454153314232826,-0.0016282240394502878,0.023764822632074356,-0.002543099457398057,-0.012907282449305058,-0.015454147011041641
181,0.018135271966457367,-0.01767122745513916,-0.02439226023852825,-0.002884488319978118,-0.008073655888438225,0.004401608370244503,-0.007554257288575172,0.004780784249305725,-0.024916913360357285,0.014421399682760239
182,-0.0014901868999004364,0.022831974551081657,-0.011847973801195621,0.004479981027543545,0.00790531374514103,0.009073300287127495,-0.0022639452945441008,0.010524961166083813,0.004180858377367258,0.004292837344110012
183,-0.012665633112192154,-0.008501128293573856,-0.06662333011627197,-0.022910915315151215,-0.0215893741697073,-0.005463050678372383,0.048148736357688904,-0.004021028056740761,0.000263947993516922,-0.008610349148511887
184,0.019805623218417168,-0.025201812386512756,0.01126888208091259,0.00652175210416317,-0.0026279850862920284,0.009386695921421051,-0.007860742509365082,0.010699570178985596,-0.01566937565803528,0.026284033432602882
185,0.012165574356913567,0.015778591856360435,0.01762833632528782,0.02139285020530224,0.00981773342937231,0.010936879552900791,0.031002473086118698,0.013506298884749413,0.004403385333716869,0.042416833341121674
186,0.04055411368608475,-0.04234877601265907,-0.005461595021188259,0.014227954670786858,0.001840200275182724,0.01738852635025978,-0.008840357884764671,0.02008637972176075,-0.010221990756690502,0.051852550357580185
187,0.02186872623860836,-0.033136457204818726,-0.03244419023394585,0.02204669825732708,0.00950815249234438,0.02653217688202858,-0.01389317773282528,0.00972433015704155,-0.033772796392440796,0.027234205976128578
188,0.00766814174130559,-0.024384986609220505,0.012152808718383312,0.007253710646182299,0.006219884380698204,0.004661685787141323,-0.011032705195248127,0.007965726777911186,-0.006735633593052626,0.038838744163513184
189,0.016942759975790977,0.002688221400603652,-0.0016410427633672953,0.010615451261401176,0.005665977485477924,0.005661806091666222,-0.030023599043488503,0.004726161248981953,-0.004475212190300226,0.022567719221115112
190,0.03925418481230736,-0.0367814339697361,-0.008437409065663815,0.02607158198952675,0.008321894332766533,0.040408894419670105,-0.04673661291599274,0.028624244034290314,-0.020184552296996117,0.08049174398183823
191,0.012015878222882748,-0.012215633876621723,-0.011152994818985462,-0.004111453890800476,-0.00953576248139143,0.00010832445695996284,-0.0002532841172069311,-0.0017198013374581933,-0.0379057414829731,0.0076852296479046345
192,0.005123618990182877,-0.0613250695168972,-0.003212324343621731,0.008059808984398842,0.005389627534896135,-0.00010787020437419415,-0.00036892108619213104,0.015437668189406395,-0.012013064697384834,0.045860741287469864
193,-0.033275067806243896,0.038442760705947876,0.018489591777324677,-0.024007633328437805,-0.0029167737811803818,-0.01601381041109562,0.0224077757447958,-0.010917075909674168,0.02497110702097416,-0.006634175311774015
194,-0.02129042148590088,-0.0013925714883953333,-0.020039454102516174,-0.017385365441441536,-0.012447746470570564,-0.015149022452533245,-0.013068214058876038,-0.014367745257914066,0.005024184472858906,-0.022885369136929512
195,-0.011985724791884422,-0.00570859108120203,-0.07202333211898804,-0.025652941316366196,-0.023104684427380562,-0.007319947239011526,0.05616108328104019,-0.005642544012516737,0.0020514875650405884,-0.01189250499010086
196,-0.011596869677305222,0.013534937053918839,-0.013080575503408909,-0.013598275370895863,0.003195635974407196,-0.004347049165517092,0.027939213439822197,-0.0016802684403955936,0.033068519085645676,-0.009976312518119812
197,-0.022055761888623238,0.019790008664131165,-0.04437028244137764,-0.002266936469823122,-0.001430270727723837,0.0071014054119586945,0.0306381955742836,0.012732736766338348,0.0015275945188477635,0.023797612637281418
198,0.0025432794354856014,0.01688794605433941,0.009741056710481644,0.007791954092681408,0.007865143939852715,0.011348046362400055,-0.03222554922103882,0.017823748290538788,-0.04436415061354637,0.02203657478094101
199,-0.008923984132707119,0.01698608510196209,0.0077486890368163586,-0.006524637341499329,0.0015537877334281802,-0.0020152321085333824,0.015242143534123898,-0.004234930966049433,0.016780000180006027,-0.0006389651680365205
200,0.012927871197462082,-0.02046806737780571,-0.008171472698450089,0.021948864683508873,0.0036552632227540016,0.02273939549922943,-0.03357313200831413,0.022729789838194847,-0.008098459802567959,0.051869507879018784
201,-0.017427587881684303,-0.028059523552656174,-0.02880278043448925,-0.003706263843923807,-0.01097639836370945,0.0075423032976686954,-0.007968136109411716,0.007335759233683348,-0.012255634181201458,0.01437724381685257
202,-0.02428421378135681,-0.03453361615538597,0.019567945972085,-0.005220791324973106,-0.012846715748310089,-0.0026487845461815596,-0.059153806418180466,-0.005889568477869034,-0.02062499150633812,0.013417750597000122
203,0.003227971261367202,-0.004472059663385153,-0.035502590239048004,-0.005642206408083439,-0.0022840965539216995,0.0029531780164688826,0.020968372002243996,0.00804104097187519,-0.0017489684978500009,0.013987117446959019
204,0.0017944383434951305,-0.010379220359027386,-0.043378349393606186,-0.011226330883800983,-0.01269380934536457,-0.005408396944403648,0.013663058169186115,0.0013944092206656933,-0.011629991233348846,0.020417306572198868
205,0.02449992671608925,-0.024675695225596428,-0.011354789137840271,0.005675185471773148,-0.005856345873326063,0.012903396040201187,-0.02128290943801403,0.012517208233475685,-0.01087644137442112,0.04942206293344498
206,-0.005028048995882273,-0.015368974767625332,-0.029050717130303383,-0.0029168943874537945,-0.004445808473974466,0.006030389107763767,0.004258391913026571,0.008957554586231709,-0.006998949684202671,0.016525201499462128
207,-0.00901949405670166,0.005065037403255701,-0.014648081734776497,-0.00253533897921443,0.00029346439987421036,-0.005771880969405174,0.007434021215885878,-0.007613003253936768,0.0017012008465826511,-0.01701226457953453
208,0.057078738766863535,0.007620735764406833,0.04561755327958823,0.0059125899524919995,-0.003474099204474373,0.0053942946601117335,0.04518493491863318,-0.003890450886280211,0.004115637568163022,0.017632464730052373
209,-0.013768846169114113,-0.02638915367424488,0.026142248883843422,-0.03478099778294563,-0.01008588820695877,-0.029716797173023224,0.054078567773103714,-0.027698135003447533,0.03888408839702606,-0.06739484518766403
210,0.008098984137177467,0.05740294232964516,0.014116819947957993,0.020753134042024612,0.019697722047567368,0.01679670810699463,-0.005992767866700888,0.014340166002511978,0.015121638774871826,-0.008549932390451431
211,0.028843380510807037,-0.028955549001693726,0.007566340267658234,0.02732493355870247,0.0007971792947500944,0.014265649020671844,-0.04639307036995888,0.009839138016104698,-0.04272211715579033,0.05904587358236313
212,-0.011985724791884422,-0.00570859108120203,-0.07202333211898804,-0.025652941316366196,-0.023104684427380562,-0.007319947239011526,0.05616108328104019,-0.005642544012516737,0.0020514875650405884,-0.01189250499010086
213,0.0535811185836792,-0.0563940554857254,0.004493622109293938,0.014456088654696941,-0.0032711587846279144,0.020332511514425278,-0.06137381121516228,0.0210768710821867,-0.056179434061050415,0.03540102019906044
214,0.014943797141313553,-0.04799674078822136,0.0017071336042135954,0.012679431587457657,-0.0025358586572110653,0.012825220823287964,-0.06889902800321579,0.014904451556503773,-0.02745644748210907,0.054365359246730804
215,0.012418045662343502,-0.07483010739088058,-0.013628967106342316,0.025472620502114296,0.0038562591653317213,0.009609067812561989,-0.013492424041032791,0.027805302292108536,-0.05006560683250427,0.06978236138820648
216,0.006192299537360668,-0.013080641627311707,0.005980673711746931,0.0006744402344338596,0.00259812967851758,0.007724258583039045,0.011882049962878227,0.014532564207911491,-0.010054814629256725,0.014531428925693035
217,0.005625974386930466,-0.030927004292607307,0.026981700211763382,0.007589483633637428,-0.003892120672389865,0.0030882926657795906,0.0015013685915619135,0.004431338980793953,-0.02997017279267311,0.01838556118309498
218,0.01815551519393921,-0.06205711513757706,-0.014356776140630245,0.01997097209095955,-0.0025262930430471897,0.0065470170229673386,-0.025250889360904694,0.022748205810785294,-0.0427551306784153,0.05430804193019867
219,-0.02291017398238182,0.0077759623527526855,0.03165765106678009,-0.024611808359622955,0.017602380365133286,-0.015471500344574451,0.04874015599489212,-0.008917228318750858,0.08225290477275848,-0.01422488410025835
220,0.016430772840976715,-0.028675882145762444,0.002236423082649708,0.012871887534856796,-4.992308095097542e-05,0.012847512029111385,-0.0475943461060524,0.012909989804029465,-0.02293279580771923,0.04225645586848259
221,-0.0005177553393878043,-0.01232860703021288,-0.016637414693832397,-0.00018804916180670261,0.00015906104817986488,0.0030854411888867617,-0.03852581977844238,0.009518997743725777,-0.02221551537513733,0.017305955290794373
222,-0.042585380375385284,-0.04606448486447334,-0.033122025430202484,-0.02995644323527813,-0.0289614237844944,-0.02186724729835987,-0.02500326931476593,-0.016976002603769302,-0.013429590500891209,-0.01581224985420704
223,0.02816428616642952,-0.03288775682449341,0.004124979488551617,0.00539203267544508,-0.007490985561162233,0.011910255998373032,-0.04879780113697052,0.009798159822821617,-0.01270001009106636,0.06365934014320374
224,-0.006118308752775192,0.010236813686788082,-0.02277151122689247,-0.0011707514058798552,0.005158963613212109,0.00439076405018568,0.009170985780656338,0.005906437058001757,0.004562062211334705,0.007605602033436298
225,0.003227971261367202,-0.004472059663385153,-0.035502590239048004,-0.005642206408083439,-0.0022840965539216995,0.0029531780164688826,0.020968372002243996,0.00804104097187519,-0.0017489684978500009,0.013987117446959019
226,0.03867233172059059,-0.01176061574369669,0.0031851143576204777,0.007878183387219906,0.0013634543865919113,0.01530140358954668,-0.02371578849852085,0.003494114615023136,0.010140475817024708,0.017984744161367416
227,-0.010966727510094643,-0.033087242394685745,0.010993186384439468,-0.004232423380017281,-0.006938559003174305,-0.003394720144569874,-0.043647803366184235,-0.0028408817015588284,-0.010018513537943363,0.01496946346014738
228,0.006695040967315435,-0.0041902679949998856,-0.027179818600416183,-0.0010819309391081333,0.002460737945511937,0.0052943360060453415,0.012948251329362392,0.011159409768879414,-0.002615055302157998,0.019884860143065453
229,-0.007483063265681267,-0.008529650047421455,-0.01738796941936016,-0.009681941010057926,-0.010490136221051216,-0.009690482169389725,-0.03195921704173088,-0.009818527847528458,-0.008997882716357708,0.0006280355155467987
230,-0.010488873347640038,-0.006317758932709694,-0.03542469069361687,-0.00757161621004343,-0.011512186378240585,0.0024025565944612026,0.0015716452617198229,0.0025322504807263613,-0.005005319602787495,0.004556340165436268
231,0.004784179851412773,-0.004345579072833061,-0.031766872853040695,-0.003595304675400257,-0.00015435414388775826,0.004004016984254122,0.017368493601679802,0.00944073498249054,-0.002137713134288788,0.016634352505207062
232,0.03996073082089424,-0.04062905162572861,-0.003092384897172451,0.018110867589712143,0.0025261896662414074,0.025365546345710754,-0.005685548298060894,0.037134893238544464,-0.02721831575036049,0.051892250776290894
233,0.02494431659579277,-0.006520487368106842,0.0042539541609585285,0.0002408821601420641,-0.001090658945031464,0.0046101831831038,-0.020606935024261475,0.0026791910640895367,-0.010059772059321404,0.010061296634376049
234,0.022536970674991608,-0.015529648400843143,0.010808847844600677,0.01677553355693817,0.003941664006561041,0.02356019802391529,-0.03579380363225937,0.019676009193062782,0.0036805300042033195,0.03914984315633774
235,-0.006736185401678085,0.053190600126981735,0.014452945441007614,0.015734568238258362,0.019234642386436462,0.015878096222877502,-0.028095323592424393,0.013286770321428776,0.010774071328341961,-0.00648597814142704
236,0.039199113845825195,-0.024648847058415413,0.0026789624243974686,0.02842647209763527,0.0043768263421952724,0.031118186190724373,-0.019447363913059235,0.03050043433904648,-0.03444019705057144,0.052877094596624374
237,0.018195906654000282,0.005672115366905928,-0.013597830198705196,0.005857117474079132,0.00046144152292981744,0.003116423264145851,0.0059172725304961205,0.0036659378092736006,0.00494372146204114,0.017812533304095268
238,0.022340215742588043,-0.0029186694882810116,0.01037670113146305,0.019496332854032516,0.023871829733252525,0.01585882157087326,-0.023242566734552383,0.025231076404452324,-0.006523294374346733,0.04649847373366356
239,0.01787750981748104,-0.009633789770305157,-0.007368612103164196,0.0009771707700565457,-0.006087429355829954,0.0007491506403312087,-0.012066762894392014,0.0035367063246667385,-0.018519915640354156,0.04123082756996155
240,-0.02672082930803299,0.015965230762958527,-0.01709040068089962,-0.011953217908740044,-0.00495371175929904,-0.007027761545032263,0.019019702449440956,-0.005928564816713333,0.010944555513560772,-0.01391013152897358
241,-0.011974245309829712,-0.008108297362923622,-0.03862667828798294,-0.013649974018335342,-0.019805561751127243,-0.004474723245948553,0.03918098285794258,-0.007678765803575516,0.018162833526730537,-0.017224300652742386
242,-0.01753712337931644,-0.01216371561068016,-0.061035869163883955,0.0060273129235980626,-0.00045167564472989286,-0.011127704542137329,0.017608475982511095,0.01711979232629749,0.012298526499162781,0.014205801455368141
243,-0.0024858922697603703,0.010853562504053116,-0.027963735163211823,-0.010771140456199646,-0.012678300961852074,-0.013833887875080109,-0.013842703774571419,-0.01615411974489689,-0.024898111820220947,-0.024692151695489883
244,0.022340215742588043,-0.0029186694882810116,0.01037670113146305,0.019496332854032516,0.023871829733252525,0.01585882157087326,-0.023242566734552383,0.025231076404452324,-0.006523294374346733,0.04649847373366356
245,0.04314001649618149,-0.014954769983887672,0.00016069074627012014,0.01848076656460762,-0.006328933872282505,0.012923231348395348,-0.0571025013923645,0.016008898615837097,-0.03221210092306137,0.04888322204351425
246,0.001481346320360899,-0.008777509443461895,-0.028999293223023415,-0.0024086013436317444,-0.0009542889893054962,0.005296484567224979,0.01042942889034748,0.009866610169410706,-0.0042898934334516525,0.01776742748916149
247,0.01632869243621826,-0.008137942291796207,0.007302585523575544,0.0020230584777891636,-0.0019256679806858301,0.010661885142326355,0.011856439523398876,0.012617147527635098,0.0026131172198802233,0.0199902281165123
248,0.005097361747175455,-0.012558568269014359,-0.009850291535258293,0.007760952226817608,0.007635429501533508,0.01118604838848114,-0.012204539030790329,0.016443263739347458,-0.008107132278382778,0.030526451766490936
249,0.0041630747728049755,0.01760532148182392,0.009341997094452381,0.011245371773838997,0.01899835467338562,0.010516863316297531,-0.01939542405307293,0.013248267583549023,0.007643621414899826,0.015564559027552605
250,0.046146608889102936,-0.03058558702468872,-0.007172845304012299,0.034269366413354874,0.009743543341755867,0.030902236700057983,-0.017592929303646088,0.03391757979989052,-0.03917550668120384,0.0638800784945488
251,-0.000631031347438693,-0.010357477702200413,-0.01150044146925211,-0.005395151674747467,-0.006044807843863964,-0.005652910098433495,0.0023311127442866564,-0.004457456991076469,0.0034371614456176758,-0.01011037826538086
252,0.025484999641776085,0.01718932017683983,0.034028299152851105,0.02227223664522171,-0.00958879105746746,0.010448667220771313,-0.04164205491542816,0.02357986941933632,-0.044127821922302246,0.039122309535741806
253,-0.010105730034410954,-0.046589504927396774,0.01797662302851677,0.0030044459272176027,-0.011984337121248245,-0.004895519930869341,-0.04282044619321823,-0.009825733490288258,-0.03745971620082855,0.026585668325424194
254,0.0034142257645726204,-0.003924421966075897,0.009649388492107391,-0.0004825661890208721,0.012293866835534573,0.0024850252084434032,0.007648256607353687,0.0064039072021842,0.035139456391334534,0.009961171075701714
255,0.00940164178609848,-0.05117040127515793,-0.017016034573316574,0.002512501087039709,-0.017541253939270973,0.004251318983733654,-0.06840822845697403,0.005052664317190647,-0.02951957657933235,0.046704791486263275
256,-0.023788657039403915,0.006824251264333725,-0.002015417441725731,-0.0047853365540504456,-0.004204168915748596,0.008852824568748474,0.030772201716899872,0.006518574897199869,-0.02114030160009861,0.02424343302845955
257,0.018605925142765045,-0.005378799978643656,-0.002659036312252283,0.021280385553836823,0.014773381873965263,0.01618649810552597,-0.007948847487568855,0.008287821896374226,0.021265558898448944,0.03336896747350693
258,-0.01402493566274643,0.011110860854387283,0.008094863034784794,-0.010124106891453266,-0.005075938533991575,-0.01253710500895977,-0.016868356615304947,-0.006934810429811478,-0.0022874760907143354,0.0031247581355273724
259,0.01179652288556099,-0.013780385255813599,-0.007459999993443489,0.00987236574292183,-0.0007887103129178286,0.012045646086335182,-0.02191345766186714,0.010884147137403488,-0.013409310020506382,0.03128070756793022
260,0.009097373113036156,-0.003995013423264027,-0.02141299657523632,0.0020778768230229616,0.005748426076024771,0.006916521117091179,0.0073911212384700775,0.01332012563943863,-0.003215169068425894,0.023971403017640114
261,0.0255997683852911,-0.038114845752716064,-0.009131886065006256,0.01907416433095932,-0.0035746144130825996,0.01643509417772293,-0.027305100113153458,0.01210043765604496,-0.03679393604397774,0.04064144939184189
262,0.003477520775049925,-0.021513815969228745,-0.034673161804676056,-0.0014640574809163809,-0.00016482570208609104,0.0012523469049483538,-0.011312931776046753,0.0006899861618876457,-0.0205827709287405,0.01834867149591446
263,-0.010263275355100632,0.011827430687844753,0.0009596408344805241,-0.012831980362534523,0.009463558904826641,-0.005515526048839092,0.025681251659989357,-0.001332966610789299,0.043252576142549515,-0.006659261882305145
264,0.012240467593073845,-0.06521479785442352,-0.020121771842241287,0.014916028827428818,-0.004611239768564701,0.002193041145801544,-0.01706533133983612,0.020556528121232986,-0.04346776753664017,0.049137406051158905
265,-0.006783597636967897,0.0034576314501464367,0.006872117519378662,0.01405448280274868,0.010863564908504486,0.016209125518798828,-0.035054534673690796,0.016455285251140594,-0.0055984994396567345,0.01898396573960781
266,0.01645519956946373,-0.04403865709900856,-0.01920904777944088,0.0060432069003582,-0.003654506988823414,0.003358157817274332,0.02173667959868908,0.011812707409262657,-0.02123703807592392,0.031271494925022125
267,0.005525615531951189,-0.024139534682035446,-0.0010641543194651604,0.0039775436744093895,-0.0030137249268591404,0.0027913718950003386,-0.03348443657159805,0.0053077624179422855,-0.06826208531856537,0.04121728986501694
268,-0.01591070182621479,0.005538542754948139,-0.019257113337516785,-0.015435823239386082,-0.011426960118114948,-0.014374548569321632,-0.006806961726397276,-0.010592044331133366,-0.005243794061243534,-0.01475493609905243
269,-0.021426986902952194,-0.011053360998630524,-0.00874435342848301,-0.01808822527527809,-0.006868723314255476,-0.011420683935284615,0.03200376406311989,-0.01175952423363924,0.016380440443754196,-0.01294203381985426
270,0.0016617098590359092,0.020777415484189987,-0.04154382646083832,-0.01702130399644375,-0.011480005457997322,-0.007166213355958462,-0.00296145211905241,-0.0052408212795853615,-0.02792803943157196,-0.007869282737374306
271,0.02797681652009487,-0.03106447122991085,-0.019840987399220467,0.010317830368876457,-0.002120458520948887,0.014276193454861641,-0.0254512932151556,0.01953119784593582,-0.007911836728453636,0.03729460388422012
272,0.01149211885795184,0.08202160772923817,0.07332572035126805,0.04039168228054038,0.040505298807723945,0.014196539362944802,0.0034068888399812645,0.025350586051525424,0.0399160509033165,0.014150171392443574
273,0.008965587243437767,-0.051858559250831604,-0.010911948047578335,0.02304806187748909,-0.0021253933664411306,0.01668958179652691,-0.024064943194389343,0.018743693828582764,-0.0003260562662035227,0.030819980427622795
274,0.014136259444057941,-0.003585459664463997,-0.009317041374742985,0.008705586194992065,0.012644367292523384,0.01031905971467495,-0.004264974035322666,0.017852233722805977,-0.004473901353776455,0.03254293277859688
275,0.022588998079299927,0.022700324654579163,0.018202662467956543,0.032062187790870667,0.021405404433608055,0.030158570036292076,-0.03836406022310257,0.028927117586135864,-0.012358308769762516,0.025248533114790916
276,0.003227971261367202,-0.004472059663385153,-0.035502590239048004,-0.005642206408083439,-0.0022840965539216995,0.0029531780164688826,0.020968372002243996,0.00804104097187519,-0.0017489684978500009,0.013987117446959019
277,0.03298264369368553,-0.02847106009721756,-0.009033551439642906,0.021563515067100525,0.006004858762025833,0.021238701418042183,-0.024477573111653328,0.02531386911869049,-0.021615050733089447,0.05422492325305939
278,0.01717747561633587,-0.03364960104227066,0.02338942140340805,0.004472529515624046,0.0010855244472622871,0.009495967999100685,-0.04493134841322899,0.014812592417001724,-0.03886353597044945,0.04504793509840965
279,-0.022904356941580772,-0.015604665502905846,-0.02487686648964882,-0.016188807785511017,-0.011338550597429276,-0.008242144249379635,0.031139440834522247,-0.021063536405563354,0.01729905605316162,-0.015538654290139675
280,0.005018678493797779,-0.011107773520052433,-0.0047957077622413635,0.0018406393937766552,-0.003462729975581169,0.002901757601648569,-0.029789654538035393,0.0021863821893930435,-0.008044691756367683,0.006851032841950655
281,0.022619210183620453,0.009864618070423603,0.008185536600649357,0.01842675544321537,0.008975837379693985,0.020508967339992523,-0.03832836449146271,0.023086566478013992,0.0017482420662418008,0.03387773036956787
282,-0.011534733697772026,0.01812910847365856,-0.01266760379076004,-0.014082640409469604,-0.006083819083869457,-0.009172899648547173,0.022610602900385857,-0.012031910941004753,-0.020432254299521446,-0.0012599603505805135
283,0.0003123423084616661,0.027733616530895233,-0.0015132814878597856,0.009655099362134933,0.013231063261628151,0.011888723820447922,-0.012298027984797955,0.013301617465913296,0.004546565935015678,0.007072552107274532
284,0.022340215742588043,-0.0029186694882810116,0.01037670113146305,0.019496332854032516,0.023871829733252525,0.01585882157087326,-0.023242566734552383,0.025231076404452324,-0.006523294374346733,0.04649847373366356
285,0.012208755128085613,-0.003742128610610962,-0.013944050297141075,0.006170317530632019,0.010006492957472801,0.009017501026391983,0.00019378727301955223,0.01611858420073986,-0.003992406185716391,0.02926410362124443
286,-0.01198573224246502,-0.005708585027605295,-0.07202332466840744,-0.025652946904301643,-0.023104684427380562,-0.007319948635995388,0.05616108700633049,-0.005642544012516737,0.002051485003903508,-0.011892504058778286
287,-0.013634433969855309,-0.0005832304013893008,0.006810820195823908,-0.015190000645816326,0.010479532182216644,-0.009277124889194965,0.005630649626255035,-0.0017525122966617346,0.03956767916679382,-0.001935357227921486
288,-0.007757752202451229,-0.005364959593862295,-0.06187400221824646,-0.020091839134693146,-0.017318520694971085,-0.004464984871447086,0.046380821615457535,-0.0018397942185401917,0.0009953209664672613,-0.004700407385826111
289,-0.010307129472494125,0.014982973225414753,-0.011394077911973,-0.01230268832296133,-0.0030097041744738817,-0.01196729950606823,0.014340180903673172,-0.008512347936630249,0.008535325527191162,-0.018384473398327827
290,0.005320072174072266,0.0024941451847553253,0.0018981716129928827,-0.007349928375333548,-0.006778639275580645,-0.009105282835662365,-0.03039318323135376,-0.006302008405327797,-0.016111910343170166,0.001295733731240034
291,-0.004933586344122887,0.03996394947171211,0.013366691768169403,0.01596607081592083,0.018139686435461044,0.016142459586262703,-0.029958738014101982,0.01483081839978695,0.00640060193836689,0.002064082771539688
292,0.012007434852421284,-0.022314827889204025,0.004378396552056074,0.005228712223470211,0.0015015287790447474,0.0012219792697578669,0.013913195580244064,0.011035580188035965,-0.0025662570260465145,0.014995048753917217
293,0.019374243915081024,0.0038108546286821365,-0.014844623394310474,0.008511144667863846,-0.0010904171504080296,0.007996938191354275,-0.017069676890969276,0.008111974224448204,-0.02536756359040737,0.03466056287288666
294,0.03221061825752258,-0.03961435705423355,0.019664710387587547,0.023018168285489082,0.015006623230874538,0.019501322880387306,-0.06626689434051514,0.02490510791540146,-0.023839058354496956,0.06637465208768845
295,-0.005353367887437344,-0.008092038333415985,-0.0196456890553236,-0.006330227479338646,-0.006716781295835972,-0.005656406283378601,-0.01618766412138939,-0.005812611430883408,-0.0081377774477005,0.0033733798190951347
296,0.017413953319191933,-0.01648636721074581,-0.0026324342470616102,-0.0008510237094014883,-0.006796976551413536,0.006671072915196419,-0.04042103886604309,0.005057445727288723,-0.017456024885177612,0.04320153966546059
297,-0.0014694207347929478,-0.025689806789159775,0.017512943595647812,0.0017007616115733981,-0.008237598463892937,-0.0031969284173101187,-0.030599158257246017,-0.006655547302216291,-0.03423526510596275,0.03722740709781647
298,0.08081781388511822,-0.00905486836795029,-0.0020424737059224394,0.007155500977193336,-0.002812788436402626,0.008311052425698694,0.059648714033495816,0.015416125918936601,0.002108218018526479,0.06961317419613622
299,-0.013768846169114113,-0.02638915367424488,0.026142248883843422,-0.03478099778294563,-0.01008588820695877,-0.029716797173023224,0.054078567773103714,-0.027698135003447533,0.03888408839702606,-0.06739484518766403
300,-0.0015631719725206494,-0.016282251104712486,-0.017663531005382538,0.0032278327271342278,0.0013636699877679348,0.009381058625876904,-0.007940787822008133,0.013048727996647358,-0.008718938566744328,0.024356821551918983
301,0.008115870878100395,-0.024815600365400314,-0.0008504602592438459,0.004777709487825632,0.00045843131374567747,0.005517412908375263,-0.02291191555559635,0.005786322522908449,-0.0595962218940258,0.03764777630567551
302,0.022340215742588043,-0.0029186694882810116,0.01037670113146305,0.019496332854032516,0.023871829733252525,0.01585882157087326,-0.023242566734552383,0.025231076404452324,-0.006523294374346733,0.04649847373366356
303,-0.0018216869793832302,0.011699721217155457,-0.02192308008670807,0.003393908031284809,0.0031587094999849796,0.008380921557545662,-0.014042127877473831,0.011581378057599068,-0.010968237183988094,0.009689335711300373
304,0.022340215742588043,-0.0029186694882810116,0.01037670113146305,0.019496332854032516,0.023871829733252525,0.01585882157087326,-0.023242566734552383,0.025231076404452324,-0.006523294374346733,0.04649847373366356
305,0.009678823873400688,-0.024025294929742813,-0.0002744731027632952,0.009529882110655308,-0.0004004156216979027,0.0002833728212863207,-0.010195422917604446,0.0069033075124025345,-0.02041039615869522,0.039509233087301254
306,0.015414666384458542,0.03188709914684296,0.013369840569794178,0.018776006996631622,0.01796804927289486,0.021943729370832443,-0.02146419882774353,0.015708602964878082,-0.01862606219947338,0.014731347560882568
307,0.0034142257645726204,-0.003924421966075897,0.009649388492107391,-0.0004825661890208721,0.012293866835534573,0.0024850252084434032,0.007648256607353687,0.0064039072021842,0.035139456391334534,0.009961171075701714
308,0.005686191841959953,-0.04410300776362419,-0.030690867453813553,0.006658206693828106,-0.004232943523675203,-0.0017886785790324211,0.01800040900707245,-0.0004668311448767781,-0.009062206372618675,0.011374717578291893
309,-0.03223807364702225,-0.004516225308179855,-0.026428937911987305,-0.01991720125079155,-0.01680087298154831,-0.020950231701135635,-0.01547787245362997,-0.022659502923488617,-0.001702135894447565,-0.025505321100354195
310,0.016397468745708466,-0.0034016796853393316,-0.003888963721692562,0.01167977973818779,0.015738926827907562,0.01184595376253128,-0.009495662525296211,0.019886020570993423,-0.005038772709667683,0.036389417946338654
311,0.04361952468752861,-0.009594998322427273,-0.004459043964743614,0.023832105100154877,0.009088879451155663,0.024945251643657684,-0.013784381560981274,0.021761085838079453,-0.006275901570916176,0.035307884216308594
312,-0.005425957962870598,-0.004125884268432856,-0.012217098847031593,-0.01085815578699112,0.0015993011184036732,-0.0038306363858282566,0.02653433568775654,0.004277586936950684,0.029645422473549843,0.0013779025757685304
313,-0.013898915611207485,0.030945168808102608,-0.003864014521241188,-0.013919241726398468,-0.005982182454317808,-0.012503521516919136,0.009855099022388458,-0.01202194020152092,0.014533891342580318,-0.025140032172203064
314,0.04928727075457573,-0.06809155642986298,-0.0020492877811193466,0.02141447737812996,-0.006972594186663628,0.02109738625586033,-0.061514679342508316,0.015495019033551216,-0.030305368825793266,0.06439485400915146
315,-0.011495944112539291,0.003854075213894248,-0.02665032632648945,-0.0035783196799457073,0.007256513461470604,-0.009783875197172165,-0.00014527630992233753,0.010385182686150074,0.008408607915043831,0.01020808145403862
316,0.022340215742588043,-0.0029186694882810116,0.01037670113146305,0.019496332854032516,0.023871829733252525,0.01585882157087326,-0.023242566734552383,0.025231076404452324,-0.006523294374346733,0.04649847373366356
317,-0.007854681462049484,0.01260465383529663,-0.01652836799621582,0.0018268090207129717,0.00227538519538939,0.00856541097164154,-0.0038165191654115915,0.008758161216974258,0.0008619077270850539,0.003366806311532855
318,0.06474938988685608,0.013056904077529907,0.04474012926220894,0.006579651031643152,0.008608072996139526,0.013690856285393238,0.031493693590164185,0.01607457734644413,-0.0177229605615139,0.06095459312200546
319,0.02908608317375183,-0.018279090523719788,-0.027605881914496422,0.015354644507169724,0.0017914031632244587,0.019350240007042885,0.009744085371494293,0.023011595010757446,-0.015475884079933167,0.039857033640146255
320,-0.013753880746662617,0.01734313741326332,-0.014775920659303665,-0.003184798639267683,-0.006249771453440189,-0.002312439028173685,-0.006769324652850628,-0.0033225943334400654,-0.029288221150636673,0.0050639864057302475
321,-0.019688710570335388,-3.6960351280868053e-05,-0.021258793771266937,-0.02148853987455368,-0.013228481635451317,-0.013243239372968674,-0.006703919731080532,-0.013499909080564976,-0.01061100885272026,-0.022557200863957405
322,0.022340215742588043,-0.0029186694882810116,0.01037670113146305,0.019496332854032516,0.023871829733252525,0.01585882157087326,-0.023242566734552383,0.025231076404452324,-0.006523294374346733,0.04649847373366356
323,-0.015391217544674873,-0.01953413151204586,-0.005774461664259434,0.002298712730407715,-0.0009228968992829323,0.0024564953055232763,-0.006169732194393873,0.007826795801520348,-0.011885191313922405,0.008074474520981312
324,0.009956133805161343,0.015364873575895215,-0.05047213239477185,0.0003640686203474456,-0.004310096992643105,0.010464732138712244,-0.01587205577613768,-0.006932924975752003,-0.025848537972737153,-0.012530966383618017
325,0.028659280389547348,-0.013547750189900398,-0.0010719138663262129,0.008809462189674377,-0.00746114132925868,0.004867603536695242,-0.012334912084043026,0.00844226498156786,-0.03148290142416954,0.02886616811156273
326,-0.0003732391633093357,0.0036196736618876457,-0.03443281352519989,-0.009301209822297096,-0.006119590252637863,0.0005837285425513983,0.003162084612995386,0.005603558383882046,-0.004456930793821812,0.0006986658554524183
327,0.022340215742588043,-0.0029186694882810116,0.01037670113146305,0.019496332854032516,0.023871829733252525,0.01585882157087326,-0.023242566734552383,0.025231076404452324,-0.006523294374346733,0.04649847373366356
328,0.022340213879942894,-0.002918665762990713,0.010376700200140476,0.019496332854032516,0.023871829733252525,0.01585882157087326,-0.02324257418513298,0.025231076404452324,-0.006523291580379009,0.04649847373366356
329,0.022340215742588043,-0.0029186694882810116,0.01037670113146305,0.019496332854032516,0.023871829733252525,0.01585882157087326,-0.023242566734552383,0.025231076404452324,-0.006523294374346733,0.04649847373366356
330,0.04543735086917877,-0.02515423111617565,0.00679580494761467,0.018891427665948868,0.001641595852561295,0.018587876111268997,-0.029482996091246605,0.016408881172537804,-0.03565865755081177,0.06272386014461517
331,0.009720456786453724,0.016451384872198105,0.004284899216145277,0.010175509378314018,0.017432767897844315,0.012886865995824337,-0.0022750920616090298,0.021614836528897285,0.0019198320806026459,0.03260019049048424
332,-0.004101799800992012,-0.00886989664286375,-0.04333017021417618,-0.010232262313365936,-0.008917970582842827,0.0012206609826534986,0.024610010907053947,0.004550168756395578,-0.0026367679238319397,0.007684056181460619
333,-0.0015035206452012062,-0.02401365339756012,-0.015215136110782623,0.008426139131188393,-0.0011392070446163416,0.011890633031725883,-0.023695295676589012,0.017725065350532532,-0.024806907400488853,0.050688888877630234
334,6.13359734416008e-05,-0.01305487472563982,-0.045054491609334946,0.0034158211201429367,-0.014246365055441856,0.008521228097379208,-0.062469907104969025,0.0006498759612441063,-0.034918032586574554,0.03762603923678398
335,0.009874189272522926,-0.0076098134741187096,-0.010099506936967373,0.007985572330653667,0.01009783148765564,0.010552974417805672,-0.007284859195351601,0.01701924204826355,-0.006039254367351532,0.03125692158937454
336,0.0008533671498298645,-0.011462735943496227,-0.04140879213809967,-0.004672188777476549,-0.017366589978337288,-0.011256802827119827,-0.04014446213841438,-0.01343935914337635,0.010109549388289452,0.008598655462265015
337,0.016037197783589363,-0.04298381507396698,-0.008115720003843307,0.004474549554288387,-0.011607350781559944,0.005065159872174263,-0.04719512164592743,0.00892294105142355,-0.016870692372322083,0.04962875694036484
338,-0.013697645626962185,0.0005200933665037155,-0.009082064032554626,-0.01928814873099327,0.0018740645609796047,-0.00945650227367878,0.031989701092243195,-0.005383612588047981,0.04258435592055321,-0.007807849906384945
339,-0.01347271166741848,-0.011815947480499744,-0.06021338328719139,-0.019656047224998474,-0.0197906531393528,-0.0032588609028607607,0.03863787278532982,-0.002096242504194379,-0.001857914961874485,-0.004714339040219784
340,0.0036691075656563044,-0.011136803776025772,-0.027686707675457,0.009886592626571655,0.0019287440227344632,0.01145680621266365,-0.055862557142972946,0.019795076921582222,-0.04570525884628296,0.03209403529763222
341,-0.011995937675237656,0.02149651199579239,-0.019249701872467995,-4.997174255549908e-05,0.006126293912529945,0.005425486713647842,-0.013191026635468006,0.0024416684173047543,0.0022811302915215492,-0.0022547931876033545
342,0.0200564656406641,0.001232227310538292,-0.003021607641130686,-0.010478840209543705,-0.004555871710181236,-0.010720878839492798,0.004132573492825031,-0.005938208661973476,-0.01782596856355667,0.021308250725269318
343,0.0034142257645726204,-0.003924421966075897,0.009649388492107391,-0.0004825661890208721,0.012293866835534573,0.0024850252084434032,0.007648256607353687,0.0064039072021842,0.035139456391334534,0.009961171075701714
344,0.0021837702952325344,0.002319314982742071,-0.008090449497103691,0.0019513281295076013,-0.0026392866857349873,-0.00016087922267615795,-0.01727808639407158,-0.005296280607581139,-0.008818714879453182,0.020108185708522797
345,0.014184493571519852,-0.01044068206101656,0.011819291859865189,0.009823177941143513,0.009105119854211807,0.010838434100151062,-0.008335577324032784,0.016538117080926895,-0.002510210033506155,0.03395920991897583
346,0.005075312219560146,-0.01472325436770916,-0.009754069149494171,0.007976768538355827,-0.0039650676771998405,0.005110523663461208,-0.04526625573635101,0.005013877525925636,0.0037427442148327827,0.024872763082385063
347,-0.0024716441985219717,-0.015170646831393242,-0.003924081102013588,0.00044564390555024147,-0.005352742038667202,-0.0014559978153556585,-0.019386570900678635,-0.0015279327053576708,-0.024245791137218475,0.02069840207695961
348,-0.0132699990645051,0.001641952432692051,-0.01848480850458145,0.000679677352309227,-0.001969957957044244,0.008879434317350388,-0.008381335064768791,0.00805430393666029,-0.00304232956841588,0.00470404839143157
349,0.01982732303440571,-0.03864164650440216,-0.03206354007124901,0.008915785700082779,-0.0046942573972046375,0.014005866833031178,0.007095711305737495,0.01195947639644146,-0.020727356895804405,0.030194303020834923
350,-0.011924059130251408,-0.049087587743997574,-0.01023431122303009,0.0059265075251460075,-0.012460174039006233,-0.006239200476557016,-0.05672962963581085,1.1980999261140823e-05,-0.023750022053718567,0.0350184328854084
351,0.007708875462412834,-0.012194943614304066,0.011989680118858814,0.005840165074914694,0.01164720393717289,0.007853148505091667,-0.0019456573063507676,0.01007047574967146,0.0090817641466856,0.03559846058487892
352,0.0027859520632773638,-0.009733985178172588,-0.014607654884457588,0.004765465389937162,-0.0002741338685154915,0.004012062679976225,-0.0392601452767849,-0.00033655716106295586,-0.003865225240588188,0.018514646217226982
353,0.03398307412862778,-0.029297439381480217,0.030709508806467056,0.012212689965963364,0.016534600406885147,0.01587091013789177,-0.011474763043224812,0.026639491319656372,-0.00686876242980361,0.046008385717868805
354,0.010608239099383354,0.019720742478966713,0.012021413072943687,0.017978506162762642,0.02200077846646309,0.01586659997701645,-0.025200599804520607,0.020411694422364235,0.0004559839144349098,0.025119883939623833
355,0.01097007654607296,0.00196267431601882,-0.016898542642593384,0.005568176973611116,-0.0024007053580135107,0.012187475338578224,-0.035692036151885986,0.016414545476436615,-0.033075883984565735,0.032617900520563126
356,-0.0032269193325191736,0.008108147419989109,-0.03444087505340576,-0.006404121406376362,-0.0032389257103204727,0.0029991704504936934,0.01973801665008068,0.0054195900447666645,0.0021123006008565426,0.0022172352764755487
357,0.020356783643364906,-0.008176269941031933,-0.0039038839749991894,0.00785183534026146,0.002285280730575323,0.005406562704592943,-0.021191075444221497,0.009923619218170643,-0.025474580004811287,0.033424120396375656
358,0.008172264322638512,-0.03407444804906845,0.05945727229118347,0.021993078291416168,-0.0023939928505569696,0.006619950756430626,-0.021998442709445953,0.01570235565304756,-0.02684318833053112,0.03612222522497177
359,-0.001462736427645447,-0.014259788719598305,0.0024874669528126333,-0.007601603950854839,-0.00904246097576262,-0.004514755025703631,0.001278733430947562,-0.017375843429035143,-0.06795516018737845,-0.04927744936340942
360,0.023037150502204895,-0.019971104338765144,-0.01702401228249073,0.011569447815418243,0.0032762596383690834,0.016098711639642715,0.012601223774254322,0.019186317920684814,-0.00047064118552953005,0.03392808139324188
361,-0.0017608553171157837,-0.027554873377084732,0.01575041376054287,-0.001222885330207646,-0.0051162526942789555,-0.0050036367028951645,-0.020552413538098335,-0.0035593139473348856,-0.02190064638853073,0.024308916181325912
362,-0.013728766702115536,-0.0015152492560446262,-0.024375051259994507,-0.01472204178571701,-0.009893694892525673,-0.011423610150814056,0.015589592047035694,-0.007955694571137428,0.0070850360207259655,-0.016186106950044632
363,0.02935631448425005,0.038623951952842434,-0.02784222085716488,-0.0037951639264548302,0.014693746060769633,-0.011332521104370422,-0.01374374754625271,-0.008652745110682017,-0.028228005158123272,0.02008603312848987
364,0.022340215742588043,-0.0029186694882810116,0.01037670113146305,0.019496332854032516,0.023871829733252525,0.01585882157087326,-0.023242566734552383,0.025231076404452324,-0.006523294374346733,0.04649847373366356
365,0.022340213879942894,-0.002918665762990713,0.010376700200140476,0.019496332854032516,0.023871829733252525,0.01585882157087326,-0.02324257418513298,0.025231076404452324,-0.006523291580379009,0.04649847373366356
366,-0.009844181127846241,-0.007993902079761028,-0.02247340977191925,-0.0148702971637249,-0.015523947775363922,-0.015295165590941906,-0.010878918692469597,-0.012142837047576904,-0.007676867768168449,-0.014431796967983246
367,-0.04271174967288971,-0.03664408251643181,-0.008205968886613846,0.007039134856313467,0.005549626890569925,0.014101268723607063,-0.01963554322719574,0.010385965928435326,-0.00047861551865935326,0.028159556910395622
368,-0.0031645966228097677,-0.003646379802376032,-0.03186436742544174,-0.008667627349495888,-0.01502983458340168,-0.012449805624783039,-0.023800142109394073,-0.0015063651371747255,-0.024005534127354622,0.002495124936103821
369,-0.007832503877580166,-0.028647620230913162,0.025807905942201614,-0.017325803637504578,-0.012040218338370323,-0.012822858057916164,0.015473717823624611,-0.0019422732293605804,-0.011273644864559174,0.002018498256802559
370,0.01380656287074089,-0.03420564532279968,-0.012963742017745972,0.011472237296402454,-0.003837007563561201,0.014126472175121307,-0.06512726098299026,0.01742013357579708,-0.04190470650792122,0.04370410740375519
371,0.0034142257645726204,-0.003924421966075897,0.009649388492107391,-0.0004825661890208721,0.012293866835534573,0.0024850252084434032,0.007648256607353687,0.0064039072021842,0.035139456391334534,0.009961171075701714
372,0.0012457487173378468,-0.0021547633223235607,-0.010222556069493294,0.0042556654661893845,-0.004494135268032551,0.003656763583421707,-0.010555863380432129,0.002824116498231888,-0.01107802614569664,0.012530609965324402
373,-0.008402922190725803,0.009866015054285526,-0.04411357641220093,-0.01192743331193924,-0.00901271402835846,0.00023627979680895805,0.029024532064795494,0.001293507288210094,0.0037791337817907333,-0.006718810647726059
374,0.022340213879942894,-0.002918665762990713,0.010376700200140476,0.019496332854032516,0.023871829733252525,0.01585882157087326,-0.02324257418513298,0.025231076404452324,-0.006523291580379009,0.04649847373366356
375,-0.001937410095706582,-0.009737766347825527,-0.03545299172401428,-0.0059988005086779594,-0.0050232671201229095,0.003565327962860465,0.01594824716448784,0.007348387502133846,-0.003923838026821613,0.013058442622423172
376,-0.012300685048103333,0.0027419663965702057,-0.0260549895465374,-0.008658208884298801,-0.004825599957257509,-0.012197986245155334,-0.014990326017141342,-0.004907562863081694,-0.002445682417601347,-0.023520436137914658
377,-0.002156939124688506,0.011599458754062653,-0.061000484973192215,-0.0171095822006464,-0.019576314836740494,-0.0023441980592906475,0.025196190923452377,-0.006593463011085987,-0.049761611968278885,0.013016590848565102
378,-0.007316465489566326,0.005957786925137043,-0.00976178515702486,0.0009893535170704126,0.003488421207293868,0.0033214353024959564,-0.01952487602829933,0.006940731778740883,-0.004949775990098715,0.006489838473498821
379,0.0020076928194612265,-0.007195456884801388,-0.019232790917158127,-0.011023645289242268,-0.006971037946641445,-0.0006892400560900569,0.009603121317923069,0.0033387229777872562,0.015092197805643082,0.011510347947478294
380,-0.021245408803224564,-0.00715809129178524,-0.022966820746660233,-0.02819070592522621,-0.016889037564396858,-0.021554309874773026,0.021254153922200203,-0.028083816170692444,0.0231778621673584,-0.02795538119971752
381,-0.0022313748486340046,-0.001263920683413744,-0.03262489289045334,-0.01641620136797428,-0.016295935958623886,-0.008605871349573135,-0.02395111694931984,-0.00911363959312439,-0.011229991912841797,-0.0027058685664087534
382,0.050608277320861816,-0.05198173597455025,-0.01032821275293827,0.022635454311966896,0.007102685980498791,0.027078811079263687,-0.03762545809149742,0.021813396364450455,-0.011784403584897518,0.0624808594584465
383,0.020196445286273956,0.008468467742204666,-0.015570007264614105,0.0030236290767788887,-0.004834036808460951,0.005761454813182354,-0.025014709681272507,0.0010524310637265444,-0.03758031129837036,0.04620085284113884
384,0.009661855176091194,-0.020639965310692787,0.0004725245526060462,0.0030898277182132006,-0.002604803303256631,0.0038358615711331367,-0.025881625711917877,0.004076717887073755,-0.00600413465872407,0.018758976832032204
385,-0.011985724791884422,-0.00570859108120203,-0.07202333211898804,-0.025652941316366196,-0.023104684427380562,-0.007319947239011526,0.05616108328104019,-0.005642544012516737,0.0020514875650405884,-0.01189250499010086
386,-0.00935752410441637,-0.0034261001273989677,-0.009023971855640411,0.006089835427701473,0.002827090211212635,0.011831391602754593,-0.019281670451164246,0.012163531966507435,-0.0059187039732933044,0.014484326355159283
387,0.024471400305628777,-0.05774335935711861,0.015827130526304245,0.004764231387525797,0.001403403584845364,0.007463737856596708,-0.04173186793923378,0.02050386741757393,-0.04681214317679405,0.077374666929245
388,-0.007482767105102539,-0.018545100465416908,-0.04137479141354561,0.005950034596025944,-0.008347025141119957,0.01030607707798481,-0.07096169888973236,0.017109092324972153,-0.06109382212162018,0.02591514401137829
389,0.02435295656323433,-0.008218389004468918,-0.01842513494193554,0.009219981729984283,0.004491372965276241,0.019049324095249176,0.018963590264320374,0.01703495904803276,0.000437113456428051,0.047177065163850784
390,0.005816402845084667,-0.00118688412476331,-0.000460383715108037,-0.00026651902589946985,0.01361887063831091,0.0029640765860676765,0.008505741134285927,0.0103357695043087,0.018699346110224724,0.01998857781291008
391,0.03801031410694122,-0.052733078598976135,-0.023325569927692413,0.015684762969613075,-0.0044427718967199326,0.020944561809301376,-0.025335760787129402,0.00904408935457468,-0.0022001387551426888,0.05348378047347069
392,0.013630966655910015,-0.027742117643356323,-0.030900634825229645,-0.0023798267357051373,-0.01300461683422327,0.0038456693291664124,-0.001763093750923872,0.0034703100100159645,-0.017879724502563477,0.045452408492565155
393,-0.0053907097317278385,-0.02575896680355072,-0.0020406937692314386,-0.0030453726649284363,-0.009312452748417854,0.0015492145903408527,-0.016272898763418198,0.004234544932842255,-0.005269355606287718,0.013702362775802612
394,0.005937968380749226,-0.0137740857899189,-0.020551292225718498,-0.0023400962818413973,-0.003954751882702112,-0.0011392270680516958,-0.007377078756690025,3.351038321852684e-05,-0.015898022800683975,0.017273491248488426
395,0.0025913789868354797,-0.016837937757372856,-0.04247713088989258,-0.019020926207304,-0.01688012108206749,-0.007079016882926226,0.025973521173000336,-0.005857526324689388,0.0031821918673813343,0.005256706848740578
396,-0.03185885399580002,0.016124412417411804,-0.041901737451553345,-0.011457919143140316,-0.0020680450834333897,-0.004191703628748655,0.016198929399251938,0.0017164981691166759,0.023354658856987953,0.014979883097112179
397,-0.004750104621052742,0.006966063752770424,-0.02182656154036522,-0.005596951115876436,-0.0025105015374720097,0.0015298937214538455,0.009298795834183693,0.003680830355733633,0.002086461754515767,0.002983764512464404
398,0.0034142257645726204,-0.003924421966075897,0.009649388492107391,-0.0004825661890208721,0.012293866835534573,0.0024850252084434032,0.007648256607353687,0.0064039072021842,0.035139456391334534,0.009961171075701714
399,0.02463630586862564,-0.022153615951538086,-0.015218347311019897,0.011461762711405754,0.001506319735199213,0.019820479676127434,-0.010653581470251083,0.01954757794737816,-0.01840338297188282,0.03523235768079758
400,0.007718144450336695,-0.053252432495355606,-0.04799381643533707,0.009278309531509876,0.0012286445125937462,0.00926088634878397,-0.03253154456615448,0.0009641563519835472,-0.013584951870143414,0.017184749245643616
401,0.012208755128085613,-0.003742128610610962,-0.013944050297141075,0.006170317530632019,0.010006492957472801,0.009017501026391983,0.00019378727301955223,0.01611858420073986,-0.003992406185716391,0.02926410362124443
402,-0.01540604792535305,-0.019756602123379707,-0.044858336448669434,-0.011859012767672539,-0.015481811948120594,0.0020212780218571424,0.015854569151997566,0.002514583757147193,-0.006940831895917654,0.004618559964001179
403,0.02437492460012436,-0.036256324499845505,0.006498978938907385,0.015762804076075554,-0.004276437684893608,0.005624546203762293,-0.05374022573232651,0.014265624806284904,-0.024383462965488434,0.03810055926442146
404,0.0394405797123909,-0.04047630354762077,0.00474952906370163,0.015205629169940948,-0.002084094565361738,0.009623697027564049,-0.019522052258253098,0.014744755811989307,-0.03134061396121979,0.03833892196416855
405,-0.013700732961297035,0.001143499044701457,-0.010159904137253761,-0.008710945025086403,-0.009633639827370644,-0.006144119426608086,-0.01031778659671545,-0.005827044136822224,0.0028680646792054176,-0.019955506548285484
406,0.012208755128085613,-0.003742128610610962,-0.013944050297141075,0.006170317530632019,0.010006492957472801,0.009017501026391983,0.00019378727301955223,0.01611858420073986,-0.003992406185716391,0.02926410362124443
407,-0.01847705990076065,-0.013270304538309574,-0.03335163742303848,-0.01716446876525879,-0.02071244828402996,-0.013234421610832214,-0.00755153875797987,-0.01505153626203537,-0.022207751870155334,-0.009062127210199833
408,-0.005259642377495766,-0.013288432732224464,-0.022589286789298058,0.0013795290142297745,-0.0060431272722780704,0.00018760119564831257,-0.011517168954014778,0.00126443593762815,0.004370204638689756,0.0043541984632611275
409,0.005566730163991451,-0.009308995679020882,0.006158116739243269,0.017572516575455666,0.00026811612769961357,0.014086635783314705,-0.011524707078933716,0.012594832107424736,-0.04155410826206207,0.02636522427201271
410,-0.007262546103447676,0.005855976603925228,-0.032338861376047134,-0.005729397758841515,-0.004372329916805029,0.004014067351818085,0.013876761309802532,0.005250981077551842,0.0007735813269391656,0.0012617416214197874
411,0.0052458131685853004,-0.0350312814116478,-0.004407444968819618,0.0016012913547456264,-0.00751516642048955,-0.002522490918636322,0.0037448881193995476,0.001255763228982687,-0.01971462555229664,0.028096996247768402
412,0.04249773919582367,-0.028598472476005554,-0.0105067677795887,0.029757477343082428,0.009762883186340332,0.03083161823451519,-0.020154474303126335,0.030194148421287537,-0.02250511758029461,0.0631788894534111
413,0.010608240030705929,0.019720742478966713,0.012021413072943687,0.017978506162762642,0.02200077846646309,0.01586659997701645,-0.025200599804520607,0.020411694422364235,0.0004559839144349098,0.025119883939623833
414,0.05807778239250183,-0.033812206238508224,0.021452339366078377,0.029056746512651443,0.02436555176973343,0.03838542476296425,-0.001418911386281252,0.04322367161512375,-0.01097934041172266,0.08439414948225021
415,0.022340215742588043,-0.0029186694882810116,0.01037670113146305,0.019496332854032516,0.023871829733252525,0.01585882157087326,-0.023242566734552383,0.025231076404452324,-0.006523294374346733,0.04649847373366356
416,0.0357823446393013,-0.059356749057769775,-0.03250490501523018,0.02702256664633751,-0.009869318455457687,0.015301297418773174,-0.06745314598083496,0.023779021576046944,-0.07720769941806793,0.048212192952632904
417,0.022340215742588043,-0.0029186694882810116,0.01037670113146305,0.019496332854032516,0.023871829733252525,0.01585882157087326,-0.023242566734552383,0.025231076404452324,-0.006523294374346733,0.04649847373366356
418,0.022340215742588043,-0.0029186694882810116,0.01037670113146305,0.019496332854032516,0.023871829733252525,0.01585882157087326,-0.023242566734552383,0.025231076404452324,-0.006523294374346733,0.04649847373366356
419,-0.004207579419016838,0.02810334973037243,-0.011432189494371414,0.004144676961004734,0.0074885133653879166,0.009084368124604225,-0.0027514705434441566,0.009415384382009506,0.005802151747047901,-0.0006605915259569883
420,0.0019360545556992292,-0.004577064886689186,-0.03860384225845337,-0.007341471500694752,-0.004052134696394205,0.0020808090921491385,0.02395685203373432,0.006879061460494995,-0.0014262404292821884,0.011789483018219471
421,0.022340215742588043,-0.0029186694882810116,0.01037670113146305,0.019496332854032516,0.023871829733252525,0.01585882157087326,-0.023242566734552383,0.025231076404452324,-0.006523294374346733,0.04649847373366356
422,-0.01319850143045187,-0.010689720511436462,-0.062391214072704315,-0.02076191082596779,-0.02040177769958973,-0.004007747862488031,0.04186926782131195,-0.002750200219452381,-0.0011369946878403425,-0.006038033403456211
423,-0.0020085573196411133,-0.02388008125126362,0.0006933702970854938,0.012687243521213531,0.007510594092309475,0.015478216111660004,-0.03338911011815071,0.018816854804754257,-0.014014885760843754,0.0358610562980175
424,0.003185590263456106,0.015852242708206177,-0.0079811317846179,0.008959718979895115,0.002908335067331791,0.014183202758431435,-0.019559284672141075,0.013061229139566422,-0.012040829285979271,0.011966677382588387
425,0.02232215367257595,-0.01213085651397705,-0.01697331666946411,0.011303288862109184,0.0008003485854715109,0.008616296574473381,-0.012400021776556969,0.007053827866911888,-0.009197559207677841,0.035073474049568176
426,-0.0037606405094265938,-0.001459214137867093,-0.004519340582191944,-0.005681145004928112,-0.004976647440344095,-0.00594726949930191,0.00016698811668902636,-0.005530538968741894,0.00535978190600872,-0.005042633041739464
427,0.006959519349038601,0.005490513984113932,-0.0018101490568369627,0.009771395474672318,0.008695237338542938,0.012361117638647556,-0.02482818253338337,0.013709215447306633,-0.00422217370942235,0.020066844299435616
428,0.020537905395030975,-0.03712117671966553,-0.022893819957971573,0.01991024985909462,0.0003257398493587971,0.018285708501935005,0.010944278910756111,0.020259292796254158,-0.014964275062084198,0.04712062329053879
429,-0.0008904873393476009,-0.004806804936379194,-0.04538901522755623,-0.011059259064495564,-0.007920380681753159,0.00017216848209500313,0.030495289713144302,0.004336795303970575,-0.0007201594999060035,0.006981315091252327
430,0.017047451809048653,-0.011741182766854763,0.006800598464906216,0.005889792926609516,0.0025087548419833183,0.005681827198714018,-0.03313860297203064,0.009420782327651978,-0.045875195413827896,0.03457431122660637
431,0.020091937854886055,-0.018154382705688477,0.0059650009498000145,0.026579169556498528,0.005705247167497873,0.023661985993385315,-0.015088769607245922,0.024498308077454567,-0.025763822719454765,0.04342371225357056
432,-0.011251889169216156,0.001916180131956935,-0.0207940973341465,-0.013217519968748093,-0.005523094907402992,-0.011911343783140182,0.0017175932880491018,-0.008492364548146725,0.0006682685343548656,-0.00835768785327673
433,0.025277456268668175,-0.03927319869399071,-0.003277887124568224,0.012378757819533348,-0.0010382495820522308,0.009796760976314545,-0.017065584659576416,0.016397662460803986,-0.03780464082956314,0.05629103630781174
434,-0.01198573224246502,-0.005708585027605295,-0.07202332466840744,-0.025652946904301643,-0.023104684427380562,-0.007319948635995388,0.05616108700633049,-0.005642544012516737,0.002051485003903508,-0.011892504058778286
435,0.0373406708240509,-0.038528699427843094,0.004769342951476574,0.02087026834487915,0.0016585153061896563,0.020194649696350098,-0.04438508674502373,0.02005576528608799,-0.02406087890267372,0.05814645439386368
436,0.027033889666199684,-0.04630419611930847,0.015890449285507202,0.02068723365664482,0.0064424993470311165,0.015974244102835655,-0.0828743427991867,0.02025473490357399,-0.028852280229330063,0.0673857256770134
437,-0.013106236234307289,0.005341893993318081,0.029747705906629562,-0.019984474405646324,0.020150572061538696,-0.014370448887348175,0.03529084101319313,-0.006771278101950884,0.07876906543970108,-0.008006960153579712
438,0.03809798136353493,-0.013985179364681244,-0.01296896580606699,0.02456771209836006,0.023663710802793503,0.02743583731353283,-0.012974140234291553,0.034734152257442474,0.01931404322385788,0.06265279650688171
439,-0.006046354304999113,-0.03646785765886307,-0.025517549365758896,-0.009072022512555122,-0.010152669623494148,-0.008030993863940239,0.01118022482842207,-0.00434466265141964,-0.01210484653711319,0.0049518318846821785
440,0.0020180947612971067,0.022016383707523346,0.016645468771457672,0.008581118658185005,0.021089527755975723,0.008688566274940968,-0.011330338194966316,0.012741388753056526,0.02081223577260971,0.011861691251397133
441,-0.015223728492856026,0.006205009762197733,-0.022024745121598244,-0.012164384126663208,-0.00826303381472826,-0.009085487574338913,-0.01108047179877758,-0.007070183753967285,-0.002964915707707405,-0.010763812810182571
442,0.025204114615917206,0.004312821663916111,-0.012364397756755352,0.008657573722302914,-0.002088642679154873,0.0113613810390234,-0.026981493458151817,0.01046731136739254,-0.03554638847708702,0.06216995045542717
443,-0.0019484404474496841,0.0439516045153141,0.013781744055449963,0.01635398156940937,0.019998202100396156,0.015874922275543213,-0.027296269312500954,0.015253527089953423,0.007925871759653091,0.002238483866676688
444,0.013162607327103615,0.0033732401207089424,0.014273783192038536,0.011060154065489769,0.007689600810408592,0.008308656513690948,-0.011027966625988483,0.0054574813693761826,-0.01569671742618084,0.022015152499079704
445,-0.0033228257670998573,-0.014507519081234932,0.007800846826285124,0.006078159436583519,0.00579763762652874,0.01122768223285675,0.0006734273047186434,0.010122688487172127,0.005532465409487486,0.031647078692913055
446,0.051003698259592056,-0.024474846199154854,8.59841238707304e-05,-0.0008070189505815506,-0.019170863553881645,0.004642714746296406,-0.04496678337454796,0.008083761669695377,-0.04730353131890297,0.009407570585608482
447,-0.013447018340229988,-0.007684845477342606,-0.010779125615954399,-0.008880339562892914,0.002577432431280613,-0.00246368907392025,0.0044080461375415325,-0.0015300620580092072,0.016510959714651108,-0.0029908560682088137
448,0.01426507905125618,0.0057134125381708145,-0.02311847172677517,-0.0013770670630037785,-0.004325839690864086,-0.005238447338342667,0.006910822354257107,-0.00802894588559866,0.024166174232959747,-0.0013182440306991339
449,-0.014139791950583458,-0.01627495512366295,-0.04046180099248886,-0.0006318741943687201,-0.014711698517203331,-0.008314351551234722,-0.024213232100009918,-0.0031909875106066465,-0.02417491003870964,-0.014660796150565147
450,-0.004720764234662056,-0.025626055896282196,-0.03798620030283928,0.0024406861048191786,-0.005970904137939215,0.00840233825147152,-0.026540551334619522,0.00781457033008337,-0.027036769315600395,0.015590833500027657
451,0.034830089658498764,-0.05620575696229935,0.006174218375235796,0.013745434582233429,0.0006124319043010473,0.020771842449903488,-0.04407750070095062,0.01974785327911377,-0.015645209699869156,0.0874088704586029
452,0.03423333913087845,0.012467029504477978,-0.027739549055695534,0.016704479232430458,-0.003301554126664996,0.004796432331204414,-0.018792850896716118,0.0005242221523076296,-0.052943482995033264,0.0457502081990242
453,-0.009219170503387136,-0.03906384195946641,-0.01766841816663798,-0.0037325659482669894,-0.009594938666571176,-0.009950363842216509,-0.02310933416948881,-0.011095243294423343,0.06926224650434164,0.003263427922947152
454,-0.014014710672199726,0.005301757249981165,-0.00379635626450181,-0.003893565386533737,-0.0012954419944435358,0.0014660533051937819,0.010252618230879307,-0.0036819912493228912,-0.016976559534668922,-0.007021841127425432
455,0.0423906072974205,-0.05975916236639023,-0.012462912127375603,0.008042431436479092,-0.01168995164334774,0.004942957311868668,-0.06812721490859985,0.005996641702950001,-0.020457511767745018,0.04538041353225708
456,0.05093053728342056,-0.08036953210830688,-0.01299528032541275,0.02017289586365223,-0.012195827439427376,0.021675709635019302,-0.07336314022541046,0.01223667524755001,-0.03157731145620346,0.06168844923377037
457,0.022340213879942894,-0.002918665762990713,0.010376700200140476,0.019496332854032516,0.023871829733252525,0.01585882157087326,-0.02324257418513298,0.025231076404452324,-0.006523291580379009,0.04649847373366356
458,-0.010679956525564194,0.015114405192434788,-0.02963107079267502,-0.022701770067214966,-0.02013564668595791,-0.020169004797935486,0.008645006455481052,-0.020563147962093353,-0.01046355813741684,-0.0422765351831913
