,security,conformity,tradition,benevolence,universalism,self-direction,stimulation,hedonism,achievement,power
0,-0.0031989612616598606,-0.035347700119018555,-0.015953145921230316,-0.011154665611684322,-0.011555856093764305,0.001718894112855196,-0.002970803761854768,-0.010605592280626297,-0.016298608854413033,-0.015566779300570488
1,-0.009739845991134644,-0.04419494420289993,-0.01735427975654602,-0.016206828877329826,-0.013518964871764183,-0.000805113697424531,0.007064616773277521,-0.014455216005444527,-0.012272347696125507,-0.03177531808614731
2,-0.0009753108024597168,-0.048958972096443176,-0.02028246968984604,-0.012652982026338577,-0.014018152840435505,0.0067689744755625725,0.019631167873740196,-0.009802421554923058,-0.018725773319602013,-0.042976949363946915
3,0.011818934231996536,-0.054394327104091644,-0.010759658180177212,-0.0019386298954486847,-0.01022348366677761,0.006050022318959236,-0.01564675197005272,-0.004427628125995398,-0.02904418297111988,-0.0035493439063429832
4,0.015653482159246775,0.008685188097370043,0.0010841897867735545,0.011277221696210904,0.013835198451547705,0.004644814110634361,0.008915040869979516,-0.0053440616630632464,0.019984227743706798,0.0011218431183619556
5,-0.004798664711415768,-0.02271389402449131,-0.018225030973553658,-0.010077569633722305,-0.012553025968372822,-0.0024654404260218143,0.0011804860550910234,-0.010342747904360294,-0.013592056930065155,-0.022504061460494995
6,-0.012736214324831963,-0.014888943172991276,0.00041621451964601874,-0.012836752459406853,-0.007468083407729864,-0.005870531313121319,-0.007960787974298,-0.010095219127833843,-0.009527887217700481,-0.012023375369608402
7,-0.029363855719566345,-0.027641288936138153,-0.007181103341281414,-0.021086975932121277,-0.010579166933894157,-0.019338760524988174,-0.03449003025889397,-0.022431952878832817,0.001699548214673996,0.0057506556622684
8,0.0221103485673666,0.0066645266488194466,0.02570408023893833,-0.004020024556666613,0.0022066773381084204,0.006576685234904289,-0.006426242645829916,0.003928046207875013,-0.03723766654729843,0.0321183055639267
9,-0.00024939561262726784,0.0036951727233827114,-0.002707794075831771,-0.004275758285075426,-0.007175306789577007,-0.0009882403537631035,-0.006385105662047863,0.0002702914644032717,-0.008222091943025589,-0.0005125235766172409
10,0.00013997778296470642,-0.026988560333848,-0.01170370914041996,-0.008715719915926456,-0.011616908945143223,0.0013996424386277795,0.00586918368935585,-0.008375808596611023,-0.008847584947943687,-0.020324185490608215
11,0.019389479832752812,-0.011335549914442406,-0.009711741536245155,0.0025358789689631407,0.0056261285666084045,0.006332972869925558,0.00023920193788272296,0.010960096023099374,-0.028793695965753166,-0.0157479110570159
12,-0.029363855719566345,-0.027641288936138153,-0.007181103341281414,-0.021086975932121277,-0.010579166933894157,-0.019338760524988174,-0.03449003025889397,-0.022431952878832817,0.001699548214673996,0.0057506556622684
13,0.013099122792482376,-0.046087801456451416,-0.021712226793169975,0.002118317410349846,-0.007425983902066946,0.007740586530417204,-0.006581199821084738,-0.0019538579508662224,-0.019536472856998444,-0.0010494644520804286
14,-0.019551852717995644,-0.03591811656951904,-0.012267688289284706,-0.018646903336048126,-0.01204906776547432,-0.010071936994791031,-0.013712700456380844,-0.018443582579493523,-0.00528640067204833,-0.013012328185141087
15,-0.0029213528614491224,-0.03724583610892296,-0.014116480946540833,-0.012453269213438034,-0.011274315416812897,0.003737964201718569,0.012600308284163475,-0.010919488035142422,-0.014998096041381359,-0.033224787563085556
16,0.0014935318613424897,-0.011162422597408295,-0.003541382495313883,-0.00532469293102622,-0.005203781649470329,0.002281269058585167,-0.006031784228980541,-0.0063208588398993015,-0.005716175306588411,-0.01786806806921959
17,0.00511754397302866,-0.016596227884292603,-0.009009775705635548,0.0028121969662606716,-0.005808553658425808,-0.001552137779071927,-0.027837170287966728,-0.0011121543357148767,-0.015901697799563408,0.0053192065097391605
18,0.0007533594034612179,-0.024891851469874382,-0.009361195378005505,-0.007429847959429026,-0.009575558826327324,-0.0037144997622817755,-0.015308653004467487,-0.008618766441941261,-0.01527496613562107,0.010357044637203217
19,0.003063804004341364,0.007621101103723049,-0.0011152465594932437,-0.005900217220187187,-0.0062712314538657665,-0.003152101766318083,-0.016308138146996498,-0.0010455083101987839,-0.0341782420873642,0.01622040756046772
20,-0.029363855719566345,-0.027641288936138153,-0.007181103341281414,-0.021086975932121277,-0.010579166933894157,-0.019338760524988174,-0.03449003025889397,-0.022431952878832817,0.001699548214673996,0.0057506556622684
21,0.012726513668894768,-0.016573958098888397,0.0021467264741659164,-0.0016069075791165233,-0.0030634466093033552,-0.00012972718104720116,-0.025067675858736038,-0.00045809405855834484,-0.030490141361951828,0.032225772738456726
22,0.0029375292360782623,-0.038166169077157974,-0.011041472665965557,-0.005613458342850208,-0.014736385084688663,-0.0022157642524689436,-0.02810622751712799,-0.010367125272750854,-0.021460089832544327,0.0034415018744766712
23,-0.029363855719566345,-0.027641288936138153,-0.007181103341281414,-0.021086975932121277,-0.010579166933894157,-0.019338760524988174,-0.03449003025889397,-0.022431952878832817,0.001699548214673996,0.0057506556622684
24,0.011138301342725754,0.015499856323003769,0.009062008000910282,0.00018397378153167665,0.0011251694522798061,-0.0009390044142492115,0.0049082511104643345,-0.0010412537958472967,-0.030734416097402573,0.016421347856521606
25,0.009125061333179474,-0.04646535962820053,-0.009046713821589947,-0.0017875558696687222,-0.01417357474565506,0.00048218341544270515,-0.0386379212141037,-0.008496514521539211,-0.03786405548453331,0.008432659320533276
26,-0.002624791581183672,-0.03608563169836998,-0.009216897189617157,-0.008963302709162235,-0.012605059891939163,0.0023057095240801573,-0.006173606030642986,-0.010929390788078308,-0.030120406299829483,-0.016354521736502647
27,-0.0031289691105484962,-0.04825132340192795,-0.017336256802082062,-0.009134102612733841,-0.014540264382958412,-0.0015557827427983284,-0.01128429640084505,-0.011905865743756294,-0.026010580360889435,-0.01425499189645052
28,-0.029363855719566345,-0.027641288936138153,-0.007181103341281414,-0.021086975932121277,-0.010579166933894157,-0.019338760524988174,-0.03449003025889397,-0.022431952878832817,0.001699548214673996,0.0057506556622684
29,0.005431458819657564,-0.021549507975578308,-0.010070478543639183,-0.0016908630495890975,-0.010825549252331257,-0.004521680995821953,-0.03623741865158081,-0.0051636360585689545,-0.030645456165075302,0.01805471070110798
30,0.005363054573535919,0.0011760152410715818,0.009988325648009777,-0.0008690698887221515,3.719062078744173e-05,0.0038194635417312384,-0.011801325716078281,0.00044502352830022573,-0.012502750381827354,0.01082032360136509
31,0.0008887596195563674,-0.04739289730787277,-0.010025488212704659,-0.007117290981113911,-0.010784958489239216,0.002952322131022811,-0.009875055402517319,-0.00792955607175827,-0.016882166266441345,-0.015045646578073502
32,-0.000935867428779602,-0.0232522115111351,-0.011218983680009842,-0.010063298046588898,-0.010789932683110237,0.0008729193359613419,-1.9197119399905205e-05,-0.011792143806815147,-0.00818722415715456,-0.017607584595680237
33,-0.008318623527884483,-0.010177727788686752,-0.020868197083473206,-0.009909574873745441,-0.007732630241662264,-0.0038073405157774687,-0.0039705801755189896,-0.005138871725648642,-0.007797312457114458,-0.010709641501307487
34,-0.002671182155609131,-0.0024806945584714413,0.010821946896612644,0.005411805585026741,0.003948934841901064,0.0036298991180956364,-0.007448813412338495,0.0105111263692379,-0.037728890776634216,0.04036521166563034
35,0.04680445713269134,0.023878468571686025,-0.006711801174279918,-0.010605822082786072,-0.0032648284760539575,-0.002677054328968983,-0.06879184340220396,-0.022432109552035107,0.004382158103932258,-0.00047031633875899625
36,-0.0024497201666235924,-0.02981659583747387,-0.009960980154573917,-0.012374654412269592,-0.013608463108539581,-0.003972317557781935,-0.010426739230751991,-0.009339912794530392,-0.020318610593676567,-0.002363907638937235
37,0.013523656874895096,-0.055111851543188095,-0.0009579765610396862,-5.086790770292282e-05,-0.009723236784338951,0.0037383760791271925,-0.027053698897361755,-0.00445004366338253,-0.033769555389881134,0.008117131888866425
38,-0.00728684663772583,-0.046264149248600006,-0.018625935539603233,-0.015596810728311539,-0.01388644240796566,0.0015115917194634676,0.012258941307663918,-0.013458123430609703,-0.01401882991194725,-0.036466050893068314
39,0.0035374779254198074,-0.03806859999895096,-0.01595894806087017,-0.008229692466557026,-0.011250349693000317,0.00557691790163517,0.010318034328520298,-0.007650098763406277,-0.018507540225982666,-0.031579580157995224
40,0.005217266269028187,-0.03980952128767967,-0.009537032805383205,-0.0046048471704125404,-0.009591778740286827,0.006214311346411705,-0.0064041027799248695,-0.005694054067134857,-0.029820770025253296,-0.013043278828263283
41,0.020360881462693214,-0.016467414796352386,-0.0021598730236291885,0.00012360373511910439,-0.0037166024558246136,0.0024263884406536818,-0.006454983726143837,-0.004343857988715172,-0.013793708756566048,0.0008891336619853973
42,7.216352969408035e-05,-0.05247177183628082,-0.022440869361162186,-0.013766751624643803,-0.014988865703344345,0.008461708202958107,0.027841931208968163,-0.010466847568750381,-0.019258296117186546,-0.05053829774260521
43,0.02210165560245514,-0.07293592393398285,-0.00045875145588070154,0.0025225754361599684,-0.0074891578406095505,0.009624742902815342,-0.02322136051952839,-0.0007907735416665673,-0.03320924937725067,0.0032959762029349804
44,-0.006858526729047298,-0.013483807444572449,-0.012223994359374046,-0.00693890918046236,-0.007857628166675568,-0.003436644794419408,-0.0022612325847148895,-0.00740835489705205,-0.013360870070755482,-0.010463908314704895
45,-0.013617746371136115,0.02941706709789942,-0.024234281625249158,-0.003658323035371012,0.008102877417989804,0.0058360783817626005,-0.023365883827408708,-0.004957909710607299,-0.009744145015110593,-0.003925108367225854
46,-0.0006787395104765892,-0.03766028583049774,-0.026495397090911865,-0.009005563333630562,-0.013741705566644669,0.007486164569854736,0.013230022974312305,-0.005191032774746418,-0.027178596705198288,-0.039133261889219284
47,0.0293146762996912,-0.010525938123464584,0.014217251911759377,0.013591168448328972,0.00213897624053061,0.01746441423892975,-0.03737911954522133,0.017621692270040512,-0.05412370711565018,0.04202922806143761
48,8.877867367118597e-05,-0.027816738933324814,-0.013517502695322037,-0.009517921134829521,-0.010681506246328354,0.0026647266931831837,0.0020754579454660416,-0.00904696062207222,-0.01330549269914627,-0.024814700707793236
49,-0.020106036216020584,0.034573256969451904,0.0315985269844532,0.0060006314888596535,0.0017822510562837124,-0.014160079881548882,0.033827416598796844,-0.013574689626693726,-0.027978619560599327,-0.031243078410625458
50,-0.019551852717995644,-0.03591811656951904,-0.012267688289284706,-0.018646903336048126,-0.01204906776547432,-0.010071936994791031,-0.013712700456380844,-0.018443582579493523,-0.00528640067204833,-0.013012328185141087
51,-0.006636635400354862,0.0360272116959095,0.04621928557753563,0.011317160911858082,0.008374757133424282,0.0010867882519960403,-0.04971293359994888,0.006548933684825897,0.009335383772850037,0.014243055135011673
52,0.011312716640532017,-0.005735551938414574,0.008766104467213154,-0.00155488436575979,-0.005916217342019081,0.0002822740934789181,-0.02996184676885605,-0.0040312353521585464,-0.021069617941975594,0.020195523276925087
53,-0.0007554562762379646,-0.048671379685401917,-0.0206757802516222,-0.011714441701769829,-0.013165883719921112,0.005354316905140877,0.015016520395874977,-0.010228646919131279,-0.017062483355402946,-0.035670049488544464
54,-0.014645848423242569,-0.04005653038620949,-0.014810990542173386,-0.0174268651753664,-0.012784016318619251,-0.005438525229692459,-0.0033240471966564655,-0.016449399292469025,-0.008779373951256275,-0.02239381894469261
55,0.0018372813938185573,-0.0384044349193573,-0.011231138370931149,-0.006707161199301481,-0.009977773763239384,0.006264847237616777,0.00395143823698163,-0.006568434182554483,-0.019078493118286133,-0.025218328461050987
56,0.0027484779711812735,-0.015809040516614914,-0.014693954959511757,-0.0013344758190214634,-0.0017846891423687339,0.0034682066179811954,0.0006465667975135148,8.606910705566406e-05,-0.012443946674466133,-0.011243922635912895
57,0.021443761885166168,0.01322664599865675,0.013773989863693714,0.0011545629240572453,0.004637029953300953,-0.00531389843672514,-0.005755780730396509,0.003204807871952653,-0.0025558050256222486,0.007431101053953171
58,-0.0024286345578730106,0.0018765972927212715,0.0032166168093681335,0.0008530268678441644,-0.004191291518509388,-0.002217514906078577,-0.02972361445426941,0.0013087098486721516,-0.02499518170952797,0.02328067272901535
59,-0.029363855719566345,-0.027641288936138153,-0.007181103341281414,-0.021086975932121277,-0.010579166933894157,-0.019338760524988174,-0.03449003025889397,-0.022431952878832817,0.001699548214673996,0.0057506556622684
60,-0.009699566289782524,0.01652967371046543,0.004860502667725086,-0.013967324048280716,0.0010304327588528395,-0.007576783653348684,0.012557589448988438,-0.013732598163187504,0.024217573925852776,-0.012365559116005898
61,0.007551080547273159,-0.032394882291555405,-0.0022197705693542957,-0.002103903330862522,-0.008134267292916775,0.004790125880390406,-0.012134336866438389,-0.0016821499448269606,-0.03329534828662872,0.003647827310487628
62,0.024154221639037132,-0.07394697517156601,0.006551738828420639,0.006494421511888504,-0.007085422053933144,0.0037036272697150707,-0.056643374264240265,-0.0013521213550120592,-0.03766331449151039,0.032248057425022125
63,0.003923528362065554,-0.045807480812072754,-0.014347795397043228,-0.0047529712319374084,-0.013367578387260437,0.003106262069195509,-0.025325579568743706,-0.0076671382412314415,-0.030289366841316223,-0.0050658886320889
64,-0.0011216625571250916,-0.029512528330087662,-0.011155419051647186,-0.009660744108259678,-0.012067459523677826,-0.0014243465848267078,-0.01833230070769787,-0.007058693096041679,-0.029146231710910797,0.0005941733252257109
65,-0.009500740095973015,-0.027394291013479233,-0.0019071446731686592,-0.008264957927167416,-0.007386930286884308,-0.007685923483222723,-0.037570077925920486,-0.0116766057908535,-0.019341859966516495,0.015101198107004166
66,-0.013010513968765736,-0.041436001658439636,-0.015658756718039513,-0.01702018640935421,-0.013028999790549278,-0.0038940547965466976,0.00013884436339139938,-0.015784669667482376,-0.009943701326847076,-0.02552097663283348
67,7.21607357263565e-05,-0.05247177183628082,-0.022440869361162186,-0.013766749761998653,-0.01498886477202177,0.008461709134280682,0.027841931208968163,-0.010466848500072956,-0.019258297979831696,-0.05053830146789551
68,-0.001047592842951417,0.00749228335916996,0.0024439808912575245,-0.007229149341583252,-0.004463020246475935,-0.002509562997147441,-0.006197110749781132,-0.003721133805811405,-0.022563517093658447,0.012666706927120686
69,0.0012583237839862704,-0.04950843006372452,-0.012593070045113564,-0.009787766262888908,-0.011716136708855629,0.005392040591686964,0.006448668427765369,-0.008793696761131287,-0.018484314903616905,-0.029870063066482544
70,0.0050558364018797874,-0.009369712322950363,0.00548156164586544,-0.0012946370989084244,-0.0051566362380981445,0.0028174060862511396,-0.011883259750902653,0.0013138467911630869,-0.013001811690628529,0.006377777550369501
71,-0.0035388991236686707,-0.02768467739224434,-0.007692496292293072,-0.004401125013828278,-0.0064703961834311485,0.0077882795594632626,0.01016809418797493,-0.0062974439933896065,-0.013814343139529228,-0.024235986173152924
72,-0.005381021648645401,-0.03163749724626541,-0.007349497638642788,0.0020216447301208973,-0.0025550946593284607,0.004881873726844788,-0.0016513506416231394,0.00646631233394146,-0.041981521993875504,0.021286407485604286
73,-0.004308702424168587,-0.0026449039578437805,-0.021235957741737366,-0.000312283169478178,-0.008309884928166866,-0.0002869053278118372,-0.03148842602968216,0.0036309384740889072,-0.04047613590955734,0.0064245061948895454
74,0.007688792422413826,-0.025116808712482452,-0.0043807001784443855,-0.005049583502113819,-0.011187905445694923,-0.0021671676076948643,-0.026235906407237053,-0.00929226167500019,-0.018166759982705116,0.0007705155294388533
75,-0.007989227771759033,-0.019507598131895065,-0.012403387576341629,-0.0071720099076628685,-0.007632085122168064,-0.0007200087420642376,0.005824453663080931,-0.005866851191967726,-0.00690611032769084,-0.004602233879268169
76,-0.0024203057400882244,-0.03169018030166626,-0.008360818959772587,-0.0057995994575321674,-0.008019142784178257,0.004285692237317562,-0.006178185343742371,-0.004745968617498875,-0.030799871310591698,-0.0037844828329980373
77,0.010362375527620316,-0.027147285640239716,0.0033668107353150845,0.004557061940431595,-0.004194692242890596,0.003966911695897579,-0.0406501404941082,-0.0009212605655193329,-0.04038326442241669,0.024451736360788345
78,0.0008457005023956299,-0.0505015030503273,-0.020729543641209602,-0.012986816465854645,-0.014524818398058414,0.008172163739800453,0.024301113560795784,-0.009781045839190483,-0.020475298166275024,-0.04667939618229866
79,-0.0010135339107364416,-0.007652910426259041,-0.022630365565419197,-0.008115708827972412,-0.005491360556334257,0.004585917107760906,0.009645272046327591,3.225676482543349e-05,-0.0190749391913414,-0.022454550489783287
80,0.001504443702287972,-0.032646242529153824,-0.010260202921926975,-0.0024164984934031963,-0.008693070150911808,0.004186647478491068,-0.01706685684621334,-0.0011630624067038298,-0.021984092891216278,-0.008810530416667461
81,0.008384410817948941,0.005317307863686493,0.010363525865481915,0.02606788495855585,0.016334485822157806,0.012895031739210548,-0.016375933646281593,0.019044468945247636,0.004850456815210864,0.013144531693320187
82,0.013754544779658318,-0.03377097472548485,0.003805693704634905,0.001556285424157977,-0.007729851175099611,-0.0017629759386181831,-0.04716234281659126,-0.0036296830512583256,-0.02566639706492424,0.02423347905278206
83,-0.010906917043030262,0.019858013838529587,-0.012118143029510975,-0.010747522115707397,-0.003939547576010227,-0.011908840388059616,-0.021728143095970154,-0.011399734765291214,-0.016757801175117493,-0.018958527594804764
84,-0.019551850855350494,-0.03591811656951904,-0.012267688289284706,-0.018646903336048126,-0.01204906776547432,-0.010071936994791031,-0.013712700456380844,-0.018443582579493523,-0.005286400206387043,-0.013012328185141087
85,-0.0005499094258993864,-0.04309004545211792,-0.01481714192777872,-0.012234259396791458,-0.01196020096540451,0.0035949016455560923,0.007631204091012478,-0.010423515923321247,-0.01992623880505562,-0.029504571110010147
86,0.008170569315552711,0.0037842863239347935,-0.0007928743725642562,-0.0006750956526957452,-0.004095298238098621,0.0028565567918121815,-0.004838631022721529,0.0016729563940316439,-0.017962614074349403,-0.0027501662261784077
87,0.004546239040791988,-0.04075630381703377,-0.0019847636576741934,-0.003075998742133379,-0.007623625453561544,0.004413898568600416,-0.014824975281953812,-0.004631023854017258,-0.02017817273736,-0.007532130926847458
88,0.013679137453436852,-0.020844604820013046,-0.008826480247080326,-0.006448781117796898,-0.007313907146453857,0.00505838543176651,0.021842630580067635,-0.011395912617444992,-0.0001811778638511896,-0.02739405632019043
89,7.21607357263565e-05,-0.05247177183628082,-0.022440865635871887,-0.013766751624643803,-0.014988865703344345,0.008461710065603256,0.027841931208968163,-0.010466847568750381,-0.019258297979831696,-0.05053829774260521
90,0.007095920387655497,0.011394781991839409,0.0042440928518772125,-0.003087102435529232,-0.004245678428560495,0.0021975887939333916,-0.019119765609502792,0.0029151171911507845,-0.039066776633262634,0.035586245357990265
91,-0.01118207536637783,0.023293511942029,0.03553919866681099,0.004836332052946091,0.0045839715749025345,-0.0029983206186443567,-0.04666835069656372,0.0007527602137997746,0.007808228023350239,0.012544577941298485
92,-0.029987890273332596,0.06998581439256668,0.018901074305176735,-0.026018839329481125,0.0073022241704165936,-0.016156915575265884,0.029016979038715363,-0.02347724884748459,0.05741637945175171,-0.03173189237713814
93,-0.006636635400354862,0.0360272116959095,0.04621928557753563,0.011317160911858082,0.008374757133424282,0.0010867882519960403,-0.04971293359994888,0.006548933684825897,0.009335383772850037,0.014243055135011673
94,-0.029363855719566345,-0.027641288936138153,-0.007181103341281414,-0.021086975932121277,-0.010579166933894157,-0.019338760524988174,-0.03449003025889397,-0.022431952878832817,0.001699548214673996,0.0057506556622684
95,-0.029363855719566345,-0.027641288936138153,-0.007181103341281414,-0.021086975932121277,-0.010579166933894157,-0.019338760524988174,-0.03449003025889397,-0.022431952878832817,0.001699548214673996,0.0057506556622684
96,-0.014645848423242569,-0.04005653038620949,-0.014810990542173386,-0.0174268651753664,-0.012784016318619251,-0.005438525229692459,-0.0033240471966564655,-0.016449399292469025,-0.008779373951256275,-0.022393817082047462
97,0.004037769977003336,-0.040207378566265106,-0.010684792883694172,-0.006660413462668657,-0.010004432871937752,0.008235260844230652,0.006991558242589235,-0.006095845252275467,-0.01616464927792549,-0.029698513448238373
98,0.007558789104223251,-0.026611359789967537,-0.0069651235826313496,0.002287493785843253,-0.009133495390415192,-0.0014157714322209358,-0.047418855130672455,-0.004198582377284765,-0.038552068173885345,0.020814431831240654
99,-0.0014207176864147186,-0.01807248406112194,0.002472429536283016,-0.0016466309316456318,-0.0033386526629328728,0.0010768849169835448,0.001082529197447002,0.0013528808485716581,-0.04350819066166878,0.02287731133401394
100,0.01555122621357441,-0.025281956419348717,-0.0054480936378240585,-0.0024581083562225103,-0.015190519392490387,-0.0030872493516653776,-0.04564876854419708,-0.011773938313126564,-0.02253578044474125,0.011246467009186745
101,0.0028463152702897787,0.008743468672037125,-0.0018168073147535324,-0.004360024351626635,-0.005584524013102055,0.0002726134844124317,-0.005102619528770447,0.0012690459843724966,-0.008590794168412685,0.005375380627810955
102,0.02805761992931366,-0.014975541271269321,0.010490070097148418,0.011220907792448997,0.005688460543751717,0.008835878223180771,-0.020143801346421242,0.006689258385449648,-0.009031371213495731,0.019911816343665123
103,-0.0042894561775028706,-0.015242885798215866,0.008986052125692368,-0.004419897682964802,-0.010194097645580769,-0.002538220724090934,-0.026593072339892387,-0.004232397768646479,-0.043787334114313126,0.030397621914744377
104,0.002470743376761675,-0.030645685270428658,-0.009964795783162117,-0.005516326054930687,-0.00925961509346962,0.001227750675752759,-0.0030387076549232006,-0.006023835390806198,-0.018865210935473442,-0.010705201886594296
105,-0.0016073227161541581,-0.03856527805328369,-0.01610703021287918,-0.010846155695617199,-0.017029348760843277,-0.009632231667637825,-0.02370757795870304,-0.01992778293788433,-0.026775645092129707,-0.010528426617383957
106,-0.004911760799586773,-0.0413944311439991,-0.0141910370439291,-0.01250516064465046,-0.01220140140503645,0.0028575274627655745,0.008251179940998554,-0.011015902273356915,-0.015120510011911392,-0.03238310292363167
107,-0.009138890542089939,0.005027775187045336,-0.0094375628978014,-0.00950173195451498,-0.004201017785817385,-0.006612651515752077,-0.0006102342158555984,-0.00985303707420826,0.006589988712221384,-0.004518580157309771
108,0.003305576043203473,-0.015792176127433777,0.0013878565514460206,-0.00831621140241623,-0.009100738912820816,0.002217833185568452,-0.007282697595655918,-0.006497008726000786,-0.015645869076251984,-0.005941038019955158
109,-0.005565345287322998,-0.0372273214161396,-0.014620230533182621,-0.012689322233200073,-0.012426857836544514,0.0017705372301861644,0.00903178472071886,-0.012504339218139648,-0.016295175999403,-0.03878486901521683
110,-0.019551852717995644,-0.03591811656951904,-0.012267688289284706,-0.018646903336048126,-0.01204906776547432,-0.010071936994791031,-0.013712700456380844,-0.018443582579493523,-0.00528640067204833,-0.013012328185141087
111,-0.009739845991134644,-0.04419494420289993,-0.01735427975654602,-0.016206828877329826,-0.013518964871764183,-0.000805113697424531,0.007064616773277521,-0.014455216005444527,-0.012272347696125507,-0.03177531808614731
112,4.0851300582289696e-05,0.006084982305765152,-0.007661969400942326,-0.006995480507612228,-0.0026677085552364588,0.004053020384162664,0.010553818196058273,-0.00013702450087293983,-0.03800121322274208,0.013345019891858101
113,-0.0019423456396907568,0.020449228584766388,-0.019701272249221802,-0.005812033079564571,-2.7015688829123974e-05,0.0031177110504359007,0.006010894197970629,0.0031164921820163727,-0.0127774802967906,-0.013703360222280025
114,-0.005122433882206678,-0.04808991029858589,-0.01974797435104847,-0.015058557502925396,-0.014210684224963188,0.003555746516212821,0.016842175275087357,-0.012578336521983147,-0.0155598483979702,-0.040604956448078156
115,-0.025806423276662827,0.045070208609104156,0.008547979407012463,-0.02461368590593338,0.0016923558432608843,-0.014858875423669815,0.013042229227721691,-0.022233685478568077,0.04313795641064644,-0.023984532803297043
116,0.005815249867737293,-0.03585771471261978,-0.004475277848541737,-0.0016048983670771122,-0.00870580319315195,0.0024179222527891397,-0.028375552967190742,-0.005639215931296349,-0.03358346223831177,0.007057906128466129
117,7.21607357263565e-05,-0.05247177183628082,-0.022440869361162186,-0.013766749761998653,-0.01498886477202177,0.008461709134280682,0.027841931208968163,-0.010466848500072956,-0.019258297979831696,-0.05053830146789551
118,0.009281856007874012,-0.012322831898927689,-0.002706374041736126,-0.005610074382275343,-0.009443473070859909,-0.004415456205606461,-0.019870558753609657,-0.0037821107544004917,-0.011946400627493858,0.007613600697368383
119,7.21607357263565e-05,-0.05247177183628082,-0.022440869361162186,-0.013766749761998653,-0.01498886477202177,0.008461709134280682,0.027841931208968163,-0.010466848500072956,-0.019258297979831696,-0.05053830146789551
120,-0.02967587299644947,0.021172262728214264,0.005859984550625086,-0.02355290576815605,-0.0016384716145694256,-0.01774783805012703,-0.0027365200221538544,-0.02295459806919098,0.029557956382632256,-0.012990619987249374
121,-0.004849289543926716,-0.041203174740076065,-0.011140289716422558,-0.0031169685535132885,-0.010798724368214607,-0.0028835737612098455,-0.027297494933009148,-0.006492008455097675,-0.025008538737893105,0.01362200640141964
122,-0.006659438833594322,-0.016218293458223343,-0.0019233615603297949,-0.006692701950669289,-0.005118817090988159,0.00019804621115326881,-0.0009365591686218977,-0.003528282744809985,-0.026746459305286407,0.006200762465596199
123,-0.01685040071606636,0.01539597474038601,0.0013996873749420047,-0.01994081400334835,-0.002401206409558654,-0.006036599166691303,0.023442957550287247,-0.01756550557911396,0.022021640092134476,-0.03536257892847061
124,-0.002787551376968622,-0.011357292532920837,0.007509190123528242,-0.00014555384404957294,-0.001570595894008875,-0.00042274571023881435,-0.0060216933488845825,0.0022361120209097862,-0.04180687293410301,0.030223779380321503
125,-0.010097279213368893,-0.017627932131290436,-0.02001119777560234,-0.013314176350831985,-0.0108101861551404,-0.0015411433996632695,0.0010115867480635643,-0.011767876334488392,-0.014310671016573906,-0.034228548407554626
126,-0.0004082885570824146,-0.04211306944489479,-0.01034082192927599,-0.00577674712985754,-0.01073278859257698,0.00439780717715621,-0.002362160012125969,-0.007130642421543598,-0.019186189398169518,-0.019371137022972107
127,-0.001548934611491859,-0.004290397744625807,-0.03137793764472008,-0.006911569274961948,-0.01045621745288372,-0.001350094797089696,-0.016462020576000214,-0.011790979653596878,-0.028354626148939133,0.02531474269926548
128,0.014158586040139198,-0.02332445979118347,-0.008630942553281784,0.002527516568079591,-0.009487924166023731,0.010606232099235058,-0.002406362909823656,0.0013251123018562794,-0.03467888757586479,-0.0029245195910334587
129,7.21607357263565e-05,-0.05247177183628082,-0.022440869361162186,-0.013766749761998653,-0.01498886477202177,0.008461709134280682,0.027841931208968163,-0.010466848500072956,-0.019258297979831696,-0.05053830146789551
130,-0.004883237183094025,0.004871354438364506,-0.004832395352423191,-0.009826837107539177,-0.004809945821762085,-0.008254901506006718,-0.01645120419561863,-0.01282634399831295,-0.001099968794733286,-0.00348263350315392
131,-0.00728684663772583,-0.046264149248600006,-0.018625935539603233,-0.015596810728311539,-0.01388644240796566,0.0015115917194634676,0.012258941307663918,-0.013458123430609703,-0.01401882991194725,-0.036466050893068314
132,0.006465974528880501,-0.012332633777482446,-0.006786801520787158,-0.005487109140703028,-0.002214934165575495,0.00250748554938042,-0.009119972748018176,0.0010167975827561214,-0.022008427004871958,-0.043086584807441236
133,-0.010524613782763481,-0.004134277813136578,-0.021057836711406708,-0.008661213330924511,-0.007019403390586376,-0.00853578932583332,-0.0017947618616744876,-0.008484983816742897,-0.0022410694509744644,-0.008361616171896458
134,0.0040541160851716995,-0.02983803302049637,-0.005806970410048962,-0.0019050876144319773,-0.0058076102286577225,0.0035059123765677214,-0.01989061012864113,-0.006879729218780994,-0.012957125902175903,0.007955547422170639
135,0.017757389694452286,0.009355064481496811,0.005295590031892061,-0.004708611406385899,-0.006654996424913406,-0.0012259628856554627,-0.010793897323310375,-0.0017838182393461466,-0.034285612404346466,0.030158057808876038
136,-0.00027624540962278843,-0.012086506001651287,-0.005920179188251495,-0.005690334364771843,-0.008069522678852081,-0.005942639894783497,-0.02095145359635353,-0.0030547461938112974,-0.010737527161836624,0.02293778397142887
137,-0.007046445272862911,-0.03855574131011963,-0.020364759489893913,-0.01298260036855936,-0.01457222830504179,0.0006198631599545479,0.00017364858649671078,-0.01238513644784689,-0.020753107964992523,-0.02262607030570507
138,-0.0026038442738354206,-0.05021445080637932,-0.0210536178201437,-0.014432229101657867,-0.01458798348903656,0.005934394896030426,0.022175386548042297,-0.01155458576977253,-0.017353026196360588,-0.04542112350463867
139,-0.0021454263478517532,-0.009105918928980827,-0.004273981787264347,-0.005230644252151251,-0.004493442829698324,-0.0035575474612414837,-0.020585816353559494,-0.003929156810045242,-0.02160833403468132,0.017310991883277893
140,0.004427939074865858,0.0019513584230626269,-0.003570536665517163,0.008893749599795218,0.002641868915961315,-0.0018143125681337792,-0.023692345487466994,-0.012430977590973287,-0.023872413354888794,0.025866396348404583
141,-0.00518254516646266,-0.03795802965760231,-0.012210134416818619,-0.012517720460891724,-0.01134437508881092,0.0013339207507669926,0.002625881228595972,-0.010738682001829147,-0.018976759165525436,-0.021799832582473755
142,0.011228187009692192,-0.0006130880210548639,0.008706131018698215,0.0025878215674310923,-0.00448122713714838,0.0010263160802423954,-0.021437672898173332,-0.002946461783722043,-0.007202504202723503,0.01340376678854227
143,-0.0013427858939394355,-0.037564653903245926,-0.010119487531483173,-0.008820269256830215,-0.010501440614461899,0.004446711391210556,0.0026718461886048317,-0.008272133767604828,-0.018594510853290558,-0.025897352024912834
144,-0.029363855719566345,-0.027641288936138153,-0.007181103341281414,-0.021086975932121277,-0.010579166933894157,-0.019338760524988174,-0.03449003025889397,-0.022431952878832817,0.001699548214673996,0.0057506556622684
145,-0.000622783787548542,-0.04043294116854668,-0.017580553889274597,-0.010200392454862595,-0.013335037976503372,0.0034013015683740377,0.008638243190944195,-0.009501881897449493,-0.02011505886912346,-0.028276938945055008
146,-0.0037585985846817493,-0.04577835649251938,-0.008895235136151314,-0.00800995621830225,-0.017325639724731445,-0.01284370943903923,-0.0636034682393074,-0.01726960390806198,-0.027872024103999138,0.02387685514986515
147,-0.0015750867314636707,-0.014284960925579071,-0.015399990603327751,-0.004456471186131239,-0.0064512281678617,0.003572906833142042,-0.012075397185981274,-0.00737052783370018,-0.014762483537197113,-0.005746061913669109
148,0.004621962551027536,-0.02584325149655342,0.00018858310068026185,-0.0030177475418895483,-0.00906606949865818,0.0019120946526527405,-0.022880535572767258,-0.00489012710750103,-0.034369319677352905,0.0068409014493227005
149,-0.003908778075128794,-0.029687054455280304,-0.007849857211112976,-0.009899859316647053,-0.0087982676923275,0.0002784803509712219,-0.005279490724205971,-0.010363368317484856,-0.016417423263192177,-0.01459292322397232
150,-0.016748420894145966,-0.03828292340040207,-0.013721000403165817,-0.01794973947107792,-0.012469039298593998,-0.007424274459481239,-0.0077763330191373825,-0.01730404794216156,-0.0072823865339159966,-0.018373172730207443
151,0.002786018652841449,0.0170426107943058,0.01592775247991085,-0.0019064294174313545,-0.0038445829413831234,0.0006884119939059019,-0.03822696581482887,0.0001392627600580454,-0.05188111215829849,0.0466986708343029
152,-0.00794633012264967,-0.03444010764360428,-0.00793479010462761,-0.007092736661434174,-0.008012316189706326,-0.0011445286218076944,-0.02179587073624134,-0.008300207555294037,-0.01306676771491766,0.0006202267250046134
153,0.004056103993207216,-0.030396578833460808,-0.012198366224765778,-0.0020109466277062893,-0.008859043940901756,0.0032553235068917274,-0.008636880666017532,-0.0026098182424902916,-0.028747424483299255,-0.009523799642920494
154,0.009464532854982916,0.02063080187131952,0.007180541135725452,-0.001986206391078255,0.012232824102337444,0.012427774605320309,0.019606923580416737,0.0017694420673739662,0.039668306473588974,0.01386928753907292
155,0.012923221103847027,-0.03511049225926399,4.7985115088522434e-05,-0.0026966859586536884,-0.012057913467288017,0.0016380419256165624,-0.028583092615008354,-0.0071484860964119434,-0.028104588389396667,0.0049411337822675705
156,0.009881344623863697,-0.03512938320636749,-0.017643524333834648,-0.003934570122510195,-0.01609209179878235,-0.00014094333164393902,-0.028083741664886475,-0.004844035021960735,-0.03523480147123337,-0.0037083204369992018
157,0.02368156984448433,0.00973779708147049,-0.0030964319594204426,0.00903833843767643,0.0050037698820233345,0.007031844928860664,-0.038984812796115875,0.0027511906810104847,-0.01254880242049694,0.020442737266421318
158,0.0019413098925724626,-0.047795962542295456,-0.019374588504433632,-0.008192172273993492,-0.012485494837164879,0.0035272478125989437,1.93743035197258e-05,-0.009333891794085503,-0.019102327525615692,-0.020367395132780075
159,0.005422296468168497,-0.023174533620476723,-0.009712131693959236,-0.0026802928186953068,-0.007175439037382603,0.004015207290649414,-0.019927019253373146,-0.0030377774965018034,-0.025458557531237602,-0.0011863078689202666
160,0.0018077823333442211,-0.035017382353544235,-0.010055575519800186,-0.005866365972906351,-0.009743909351527691,0.0025965534150600433,-0.014254997484385967,-0.007187913171947002,-0.027645155787467957,-0.00786188617348671
161,7.21607357263565e-05,-0.05247177183628082,-0.022440869361162186,-0.013766749761998653,-0.01498886477202177,0.008461709134280682,0.027841931208968163,-0.010466848500072956,-0.019258297979831696,-0.05053830146789551
162,0.0183310117572546,0.009133495390415192,0.011380121111869812,0.0030949017964303493,0.0017365720123052597,0.010277013294398785,-0.01826486736536026,0.008708557114005089,-0.0608946830034256,0.040075115859508514
163,-0.018918566405773163,-0.02669745683670044,-0.014815273694694042,-0.015096165239810944,-0.011131027713418007,-0.00038629595655947924,0.01264948584139347,-0.011971226893365383,-0.007649412844330072,-0.02642902173101902
164,-0.007857355289161205,-0.006119930651038885,-0.005804776679724455,-0.013577403500676155,-0.004501026123762131,-0.001712497789412737,0.017970748245716095,-0.010552230291068554,-0.0007989786099642515,-0.020004775375127792
165,-0.0028244948480278254,-0.039170362055301666,-0.01626306027173996,-0.006583668291568756,-0.00860842876136303,-0.0024141683243215084,-0.017047010362148285,-0.009633142501115799,-0.011572967283427715,0.0015005827881395817
166,0.014561105519533157,-0.031020890921354294,0.004276630934327841,0.0013116103364154696,-0.008925660513341427,0.0017431722953915596,-0.03635988384485245,-0.003240467980504036,-0.020914893597364426,0.0158028956502676
167,-0.0005591483786702156,-0.01858675479888916,-0.002269177231937647,-0.011215455830097198,-0.007933010347187519,-0.0014038844965398312,-0.002298392355442047,-0.011222915723919868,-0.002073136856779456,-0.012622703798115253
168,0.005049480125308037,-0.01645542122423649,-0.017866121605038643,-0.002635690849274397,-0.008960270322859287,-0.0002994402311742306,-0.024685077369213104,-0.006635298021137714,-0.03445129469037056,0.01474828738719225
169,-0.00616044644266367,0.017349448055028915,-0.004733318462967873,-0.006902525667101145,-0.0010103442473337054,-0.004032135009765625,-0.0028611556626856327,-0.0031220430973917246,-0.006480274721980095,0.0005436090286821127
170,-0.029363855719566345,-0.027641288936138153,-0.007181103341281414,-0.021086975932121277,-0.010579166933894157,-0.019338760524988174,-0.03449003025889397,-0.022431952878832817,0.001699548214673996,0.0057506556622684
171,0.0017330138944089413,-0.025994926691055298,-0.003970565274357796,-0.005364328157156706,-0.009790235199034214,0.0023658794816583395,-0.01295944768935442,-0.0048955646343529224,-0.018403228372335434,-0.001621375558897853
172,-0.014645848423242569,-0.04005653038620949,-0.014810990542173386,-0.0174268651753664,-0.012784016318619251,-0.005438525229692459,-0.0033240471966564655,-0.016449399292469025,-0.008779373951256275,-0.022393817082047462
173,0.008834406733512878,-0.047193046659231186,-0.008575158193707466,-0.003269324777647853,-0.011782467365264893,0.004312283359467983,-0.02205735817551613,-0.004732475150376558,-0.026932843029499054,-0.004334728233516216
174,7.21607357263565e-05,-0.05247177183628082,-0.022440869361162186,-0.013766749761998653,-0.01498886477202177,0.008461709134280682,0.027841931208968163,-0.010466848500072956,-0.019258297979831696,-0.05053830146789551
175,0.015454106964170933,-0.013780446723103523,0.012593290768563747,-0.008267545141279697,-0.016382183879613876,-0.00506967818364501,-0.04341655597090721,-0.011621007695794106,-0.0267020333558321,0.014646558091044426
176,0.0029180976562201977,-0.015231985598802567,0.004181557800620794,-0.0006516872672364116,-0.005313384346663952,0.0025036593433469534,-0.011490843258798122,0.002261676825582981,-0.036912351846694946,0.02075345441699028
177,0.005336536094546318,-0.03475918248295784,-0.009961064904928207,-0.008531342260539532,-0.01184912770986557,0.007519105914980173,0.013906173408031464,-0.007302573882043362,-0.019915789365768433,-0.03146767616271973
178,-0.0007572988979518414,-0.025224918499588966,-0.029414694756269455,-0.011384584940969944,-0.012162496335804462,0.005391240119934082,0.005581169854849577,-0.012587571516633034,-0.02433287724852562,-0.011872947216033936
179,-0.029987886548042297,0.06998582184314728,0.018901068717241287,-0.026018841192126274,0.0073022241704165936,-0.016156915575265884,0.029016979038715363,-0.02347724698483944,0.05741638317704201,-0.03173189237713814
180,-0.028256306424736977,-0.004236264619976282,-0.023117784410715103,-0.007315227296203375,-0.006258460693061352,-0.003002116922289133,0.017848875373601913,-0.00866138469427824,0.011407999321818352,-0.028231514617800713
181,0.0020454139448702335,-0.005527549423277378,0.007450680714100599,-0.007512312848120928,-0.005823611281812191,0.0035401347558945417,-0.011279080994427204,0.00022223708219826221,-0.020272571593523026,0.021253546699881554
182,-0.007156800478696823,-0.029805878177285194,-0.005656888242810965,-0.01021401584148407,-0.009434201754629612,0.001426631584763527,-0.0001354333944618702,-0.009456712752580643,-0.00934798363596201,-0.026324234902858734
183,0.0008637127466499805,-0.05052373185753822,-0.02045566588640213,-0.012357231229543686,-0.014158543199300766,0.00811595655977726,0.022573307156562805,-0.009732570499181747,-0.020883290097117424,-0.04476982355117798
184,0.0005558644188567996,-0.026027366518974304,-0.0005496672820299864,-0.008183498866856098,-0.008759805001318455,-0.0010986097622662783,-0.012678641825914383,-0.007386006414890289,-0.023064536973834038,-0.0014796402538195252
185,0.0074925972148776054,-0.01996084488928318,0.0003787212772294879,-0.0019900663755834103,-0.004473165608942509,0.0062913913279771805,0.002369279507547617,-0.001216230564750731,-0.023705629631876945,-0.0026225673500448465
186,0.003709849901497364,-0.029164858162403107,-0.005217403639107943,-0.008534585125744343,-0.009475481696426868,0.0010226634331047535,-0.004412968177348375,-0.007321096025407314,-0.016899878159165382,-0.0052078175358474255
187,0.006124970968812704,-0.04519044607877731,-0.019163066521286964,-0.0056998757645487785,-0.010213656350970268,0.011866298504173756,0.015872886404395103,-0.006334391422569752,-0.02156083658337593,-0.03720515966415405
188,0.004782293923199177,0.004662103019654751,0.00746607081964612,0.00041949935257434845,0.0014731766423210502,-0.0004015048034489155,-0.010756012052297592,0.0015893974341452122,-0.021084526553750038,0.024182798340916634
189,0.0019944352097809315,0.004840782377868891,-0.0025565309915691614,-0.0006302291876636446,-0.006827556528151035,-0.004119730554521084,-0.025808967649936676,-0.007832834497094154,-0.012615878134965897,0.013705311343073845
190,0.017528126016259193,-0.02796424739062786,0.0032692274544388056,0.0024161245673894882,-0.0023864819668233395,0.005549354944378138,-0.049573518335819244,-0.0015172690618783236,-0.01415229681879282,0.03702660650014877
191,0.0013740388676524162,-0.024862278252840042,-0.014902128838002682,-0.005969759076833725,-0.010096291080117226,0.0016125906258821487,-0.012855233624577522,-0.008613986894488335,-0.022713376209139824,-0.0034530842676758766
192,-0.010383578948676586,-0.007906891405582428,-0.0005707343225367367,-0.003331656800583005,0.0004083722596988082,-0.0006545602809637785,0.0013861199840903282,0.00037259364034980536,-0.02220248430967331,0.01538779865950346
193,-0.024220604449510574,0.04114830493927002,-0.0016739898128435016,-0.014411970973014832,0.0003556197043508291,-0.00516437366604805,0.012022754177451134,-0.005317120347172022,0.004809772130101919,-0.01459585689008236
194,-0.009521009400486946,-0.002752600936219096,-0.0057777585461735725,-0.011758167296648026,-0.010010731406509876,-0.007208877708762884,-0.012688583694398403,-0.014181084930896759,-0.00195224373601377,-0.01566191017627716
195,7.21607357263565e-05,-0.05247177183628082,-0.022440865635871887,-0.013766751624643803,-0.014988865703344345,0.008461710065603256,0.027841931208968163,-0.010466847568750381,-0.019258297979831696,-0.05053829774260521
196,-0.005828028544783592,-0.027073148638010025,-0.009644132107496262,-0.013155884109437466,-0.009645631536841393,0.0032568681053817272,0.0171167254447937,-0.010989826172590256,-0.005766694433987141,-0.038894906640052795
197,-0.009360582567751408,-0.041099123656749725,-0.025502778589725494,-0.015227247029542923,-0.012898588553071022,0.0007005190127529204,0.015342913568019867,-0.010335827246308327,-0.014120539650321007,-0.03993683680891991
198,0.009231602773070335,0.026874886825680733,0.012564213015139103,0.007996237836778164,0.004324686713516712,0.010707570239901543,-0.007547537796199322,0.01151229627430439,-0.03194990009069443,0.0247671939432621
199,0.0006250685546547174,0.014771141111850739,-0.004592697136104107,-0.005940830800682306,-0.0034789061173796654,-0.005474822595715523,-0.0022341501899063587,-0.00957692414522171,0.0069640027359128,-0.0005745129310525954
200,0.002509624697268009,-0.021698251366615295,-0.0026614349335432053,-0.0017088523600250483,-0.0052898116409778595,0.004889096133410931,-0.01357759814709425,-0.0014706377405673265,-0.02464606985449791,0.004844018258154392
201,0.006074783392250538,-0.037699151784181595,-0.00738639198243618,-0.003077860688790679,-0.008692262694239616,0.005839744117110968,-0.01211177185177803,-0.004898587241768837,-0.03158119320869446,-0.006794101558625698
202,0.004518657922744751,-0.01263633742928505,-0.005445033777505159,-0.007741114124655724,-0.0037958964239805937,0.002674753312021494,-0.01178780011832714,-0.0005056106019765139,-0.023815356194972992,0.00667283870279789
203,-0.00728684663772583,-0.046264149248600006,-0.018625935539603233,-0.015596810728311539,-0.01388644240796566,0.0015115917194634676,0.012258941307663918,-0.013458123430609703,-0.01401882991194725,-0.036466050893068314
204,-0.001705528236925602,-0.04086887091398239,-0.016085291281342506,-0.012253345921635628,-0.012811074033379555,0.004645877983421087,0.016430838033556938,-0.008958324790000916,-0.020933322608470917,-0.03199007362127304
205,0.0067169442772865295,-0.030919531360268593,-0.01016067061573267,-0.009923849254846573,-0.012293831445276737,0.0013305123429745436,-0.000743186566978693,-0.009695484302937984,-0.015943437814712524,-0.021174710243940353
206,-0.00042257370660081506,-0.040719546377658844,-0.01180368009954691,-0.008634846657514572,-0.010802848264575005,0.003256714902818203,-0.0032996847294270992,-0.008880332112312317,-0.023505566641688347,-0.018036426976323128
207,-0.000634662457741797,0.007426772732287645,-0.012054689228534698,0.0025681087281554937,0.001390282646752894,0.0007477409671992064,0.0004486542893573642,-0.0009242788073606789,-0.0044086105190217495,-0.004808309953659773
208,-0.009914288700565193,-0.03267562698053261,0.055787997915684666,-0.005229782603907371,0.0021682949231164933,0.011222325171031517,0.00047295184386625085,-0.0018592025676940995,0.029972785902600656,0.013785080373878204
209,-0.0259146336466074,0.013162799179553986,-0.007408434525132179,-0.02596779726445675,-0.004623631946742535,-0.017357081174850464,0.009214435704052448,-0.022264868021011353,0.03312331810593605,-0.03521660715341568
210,-0.0048743137158453465,0.024383727461099625,0.034907106310129166,0.00958680734038353,0.006633811630308628,0.003428405849263072,-0.03235459327697754,0.005646784324198961,0.01102055050432682,0.0035667645279318094
211,-0.002038157545030117,-0.0071641746908426285,0.004272769205272198,-0.004099535755813122,-0.00991767831146717,-0.006294311955571175,-0.033497460186481476,-0.012662645429372787,-0.019814152270555496,0.005432963836938143
212,7.21607357263565e-05,-0.05247177183628082,-0.022440865635871887,-0.013766751624643803,-0.014988865703344345,0.008461710065603256,0.027841931208968163,-0.010466847568750381,-0.019258297979831696,-0.05053829774260521
213,0.015278291888535023,-0.004790513776242733,0.011362459510564804,-0.0033309017308056355,-0.008767588995397091,-0.0008335334714502096,-0.0380374900996685,-0.00590135995298624,-0.017875133082270622,0.003507124725729227
214,0.012701774016022682,-0.0546993725001812,-0.001611484563909471,0.00039806426502764225,-0.009124662727117538,0.0025931717827916145,-0.037674080580472946,-0.0049431039951741695,-0.03366845101118088,0.013730131089687347
215,-0.007231407333165407,-0.020990516990423203,0.0010262633441016078,0.00877951830625534,0.0026999935507774353,0.004037789534777403,-0.012727498076856136,0.013725025579333305,-0.04989638924598694,0.04727471247315407
216,0.00026916712522506714,0.012564919888973236,0.012357654049992561,-0.002051935764029622,0.0014359421329572797,0.0031216272618621588,-0.000770602491684258,0.007050657644867897,-0.02268175035715103,0.01341696921736002
217,0.010325091890990734,-0.010884037241339684,0.009163727052509785,0.002358953235670924,-0.002485885750502348,0.003495254786685109,-0.011958254501223564,0.0024765771813690662,-0.027112707495689392,0.013615047559142113
218,-0.008651627227663994,-0.025176437571644783,-0.010973913595080376,-0.0067526791244745255,-0.01133044995367527,-0.00563897704705596,-0.016959328204393387,-0.009064282290637493,-0.017301909625530243,0.0015598040772601962
219,-0.024737296625971794,0.059062715619802475,0.01122954674065113,-0.019078178331255913,0.0071912165731191635,-0.01112095732241869,0.02681928128004074,-0.014599659480154514,0.04367992654442787,-0.025163447484374046
220,0.015089154243469238,-0.04813660681247711,0.0035857590846717358,0.002906233072280884,-0.006322881206870079,0.005616732873022556,-0.032101429998874664,-0.0013527593109756708,-0.0299445241689682,0.011243709363043308
221,-0.0083707170560956,-0.0054764943197369576,-0.008927357383072376,-0.007271081209182739,-0.00590919004753232,-0.004670044872909784,-0.02298949472606182,-0.008612576872110367,-0.014400135725736618,0.0006566718220710754
222,-0.02955135889351368,-0.020489482209086418,-0.037129297852516174,-0.012433074414730072,-0.008706431835889816,-0.00502387760207057,0.014208696782588959,-0.008122438564896584,0.0016745954053476453,0.010005135089159012
223,0.01752743311226368,-0.004813907667994499,0.005314392503350973,-0.0061310697346925735,-0.011077741160988808,-0.007408455945551395,-0.03650863468647003,-0.009743659757077694,-0.014941733330488205,0.013406079262495041
224,-0.01225200854241848,-0.03423362970352173,-0.009157287888228893,-0.014110025018453598,-0.011576120741665363,-0.002223637420684099,-0.0019239234970882535,-0.012836173176765442,-0.014140446670353413,-0.027710963040590286
225,-0.00728684663772583,-0.046264149248600006,-0.018625935539603233,-0.015596810728311539,-0.01388644240796566,0.0015115917194634676,0.012258941307663918,-0.013458123430609703,-0.01401882991194725,-0.036466050893068314
226,0.025918973609805107,-0.011296083219349384,0.00453583849593997,0.0029858709312975407,-0.004811231978237629,0.006623187102377415,-0.03398900106549263,0.002395705785602331,0.00152322999201715,0.015057402662932873
227,-0.0011339429765939713,-0.012745623476803303,-0.0027048583142459393,-0.0030765202827751637,-0.0006286520510911942,-0.0024307584390044212,-0.020757701247930527,0.0015984824858605862,-0.027038373053073883,0.027423668652772903
228,-0.009739845991134644,-0.04419494420289993,-0.01735427975654602,-0.016206828877329826,-0.013518964871764183,-0.000805113697424531,0.007064616773277521,-0.014455216005444527,-0.012272347696125507,-0.03177531808614731
229,0.0022185693960636854,-0.017131462693214417,-0.01328735426068306,-0.006238403730094433,-0.010123996064066887,-0.0033069602213799953,-0.025051962584257126,-0.008024957031011581,-0.020306143909692764,0.005956725217401981
230,0.003031452652066946,-0.043084751814603806,-0.01277128141373396,-0.0075976490043103695,-0.011964807286858559,0.00634778942912817,0.002995515475049615,-0.007648018188774586,-0.02421046979725361,-0.02647078037261963
231,-0.008338133804500103,-0.045377347618341446,-0.0180809423327446,-0.015858247876167297,-0.01372895110398531,0.0005187188507989049,0.01003280095756054,-0.01388544775545597,-0.013270335271954536,-0.034455735236406326
232,-0.0017233336111530662,-0.042647406458854675,-0.015549243427813053,-0.005754577927291393,-0.00796809233725071,-0.0026541396509855986,-0.031201818957924843,-0.0013023996725678444,-0.008528297767043114,0.015617797151207924
233,0.007718150038272142,0.001326787518337369,-0.0007970879087224603,-0.002340456936508417,-0.0035071889869868755,0.000441564479842782,-0.007747279014438391,-0.0008161746081896126,-0.012556515634059906,-0.001649647019803524
234,0.017676901072263718,-0.037632692605257034,0.006819744128733873,0.007730974815785885,-0.0030651092529296875,0.008721549063920975,-0.0358436144888401,0.004198167007416487,-0.012287098914384842,0.02340211160480976
235,-0.006636635400354862,0.0360272116959095,0.04621928557753563,0.011317160911858082,0.008374757133424282,0.0010867882519960403,-0.04971293359994888,0.006548933684825897,0.009335383772850037,0.014243055135011673
236,0.023888511583209038,-0.048604194074869156,0.0013275302480906248,0.007998623885214329,-0.006802869960665703,0.016673676669597626,-0.006706655956804752,0.006362492218613625,-0.03645433485507965,-0.0009296570206061006
237,0.006382678169757128,-0.02255912497639656,-0.004638375714421272,-0.0036431304179131985,-0.007391074672341347,0.005262354388833046,0.0029328716918826103,-0.0052394503727555275,-0.007990291342139244,-0.010348495095968246
238,-0.029363855719566345,-0.027641288936138153,-0.007181103341281414,-0.021086975932121277,-0.010579166933894157,-0.019338760524988174,-0.03449003025889397,-0.022431952878832817,0.001699548214673996,0.0057506556622684
239,0.0048174504190683365,0.0033281068317592144,0.011618116870522499,-0.004960223101079464,-0.004340172279626131,0.0017381763318553567,-0.012407219037413597,-0.0006250175065360963,-0.0343889445066452,0.0200479906052351
240,-0.0015024086460471153,-0.034098777920007706,-0.013900895603001118,-0.009645070880651474,-0.012347308918833733,-0.0015320025850087404,-0.0014040027745068073,-0.011537863872945309,-0.02230476774275303,-0.022108709439635277
241,0.0014752366114407778,-0.04781623184680939,-0.019882217049598694,-0.01178160309791565,-0.013443485833704472,0.00899031013250351,0.027303436771035194,-0.01021506730467081,-0.014547055587172508,-0.045490480959415436
242,0.0031135511372119376,-0.010412036295004267,-0.016156324743848396,0.00267731854632324,-0.00013294094245611945,-0.00651700055373748,0.0070126121977458515,0.0031381730044084716,-0.020785850538900245,0.008222513915920578
243,-0.009891267865896225,-0.002911059185862541,-0.019202906638383865,-0.007847245782613754,-0.005553290247917175,-0.005423475988209248,-0.007404090370982885,-0.006095305550843477,-0.012661623768508434,-0.0119845662266016
244,-0.029363855719566345,-0.027641288936138153,-0.007181103341281414,-0.021086975932121277,-0.010579166933894157,-0.019338760524988174,-0.03449003025889397,-0.022431952878832817,0.001699548214673996,0.0057506556622684
245,0.019952166825532913,-0.0033939494751393795,0.003361842129379511,-0.003621133044362068,-0.013953780755400658,-0.0039062253199517727,-0.03562181442975998,-0.008130062371492386,-0.02255978435277939,0.018936388194561005
246,-0.0051376549527049065,-0.04284559190273285,-0.014948979951441288,-0.012636987492442131,-0.012310601770877838,0.0013547090347856283,0.0029203929007053375,-0.011759473010897636,-0.017671864479780197,-0.02601161226630211
247,0.005760586354881525,-0.03855927288532257,-0.0022744243033230305,-0.003903899108991027,-0.006031903438270092,0.006254243664443493,0.003497416153550148,-0.003798312973231077,-0.007176592480391264,-0.007307323627173901
248,-0.006309774238616228,-0.03575344383716583,-0.008751719258725643,-0.010098890401422977,-0.009920909069478512,-0.0023033793549984694,-0.015766073018312454,-0.011273352429270744,-0.019314002245664597,-0.006778633687645197
249,-0.02275145798921585,-0.0004922454245388508,0.009441453032195568,-0.011090502142906189,-0.0037143121007829905,-0.012113252654671669,-0.03341476991772652,-0.013122850097715855,0.006279964931309223,0.005153377074748278
250,0.0006102971383370459,-0.04355558753013611,-0.021473051980137825,-0.00626495573669672,-0.010113281197845936,0.0012480942532420158,-0.006663748994469643,-0.007741282694041729,-0.019229566678404808,-0.006842046044766903
251,-0.00982107874006033,-1.1546420864760876e-05,-0.0031895048450678587,-0.010818898677825928,-0.0067739104852080345,-0.009300637058913708,-0.006738776341080666,-0.00992359034717083,-0.0005270629771985114,-0.0127650061622262
252,0.008637693710625172,0.00323665514588356,0.00735065620392561,-0.00042227597441524267,-0.010123605839908123,-0.004424391780048609,-0.037711452692747116,-0.005954300053417683,-0.009277677163481712,0.009111601859331131
253,-0.011405433528125286,-0.028364956378936768,-0.014503168873488903,-0.0023149107582867146,-0.00967335607856512,-0.007812234573066235,-0.028072208166122437,-0.011155747808516026,-0.04750505089759827,0.023827679455280304
254,-0.0134362131357193,-0.006300288252532482,0.0010737217962741852,-0.012046780437231064,-0.004742607474327087,-0.005064577795565128,-0.0014348645927384496,-0.012335605919361115,0.005752387456595898,-0.01441559661179781
255,0.014021381735801697,-0.06303428113460541,-0.0112205995246768,-0.0027068653143942356,-0.014738948084414005,0.004845439922064543,-0.02360622026026249,-0.0073956591077148914,-0.034745536744594574,-0.005723646376281977
256,-0.012531498447060585,-0.006438995711505413,-0.021156737580895424,-0.010306191630661488,-0.0072227050550282,0.0010024073999375105,0.00829425361007452,-0.010329918004572392,-0.00536156352609396,-0.0018886663019657135
257,0.011098602786660194,0.00033028883626684546,0.004092206247150898,0.006173274479806423,0.005033519584685564,0.01156091783195734,-0.002315922174602747,0.0038756614085286856,0.007867046631872654,0.0064946794882416725
258,-0.02745405025780201,-0.007523631677031517,-0.024853907525539398,-0.015234925784170628,-0.006579822860658169,-0.013318393379449844,-0.02227107062935829,-0.008069407194852829,-0.000822835136204958,-0.005912897177040577
259,0.003948329947888851,-0.02607206255197525,-0.0032959396485239267,-0.003975126892328262,-0.010027505457401276,0.0020399445202201605,-0.01717308722436428,-0.006247962359338999,-0.017938630655407906,-0.0057068560272455215
260,-0.011702243238687515,-0.042539577931165695,-0.016336964443325996,-0.016694843769073486,-0.01322498731315136,-0.002658477518707514,0.002909149043262005,-0.015252890065312386,-0.01087515614926815,-0.02802271582186222
261,0.018641948699951172,-0.019645707681775093,0.006291869096457958,0.0022243880666792393,-0.008112024515867233,0.005977303721010685,-0.018053919076919556,-0.0009038592106662691,-0.03297095000743866,0.0069521754048764706
262,-0.014073655009269714,-0.03311016783118248,-0.016552971675992012,-0.013610376045107841,-0.012181291356682777,-0.0013702565338462591,-0.00021451013162732124,-0.012587105855345726,-0.014312929473817348,-0.0236060731112957
263,-0.010950904339551926,-0.015143929980695248,-0.005271647125482559,-0.015019182115793228,-0.00753462128341198,-0.0012562002521008253,0.01217598095536232,-0.013276640325784683,0.0023741202894598246,-0.0327216275036335
264,-0.009141860529780388,-0.030788589268922806,-0.012899279594421387,-0.00837765820324421,-0.011858344078063965,-0.0040567899122834206,-0.008257433772087097,-0.009586136788129807,-0.017607279121875763,-0.007562759332358837
265,0.0021129914093762636,-0.020478183403611183,0.005953570827841759,0.0008176162373274565,-0.004089641850441694,0.0007751262746751308,-0.03647102043032646,-0.0034296964295208454,-0.026734737679362297,0.015597768127918243
266,0.0012062574969604611,-0.03876105695962906,-0.010227907449007034,-0.00896103959530592,-0.009793869219720364,0.0036831411998718977,0.012272140942513943,-0.0052018482238054276,-0.026991119608283043,-0.01802714169025421
267,0.0057321591302752495,-0.009752079844474792,-0.0029352731071412563,-0.002570031676441431,-0.004969628527760506,0.0007945634424686432,-0.020578235387802124,0.0017704128986224532,-0.0474025160074234,0.034138429909944534
268,-0.004885138012468815,-0.005226927809417248,-0.0030973823741078377,-0.005418579094111919,-0.00726225133985281,-0.003904804354533553,-0.01578988879919052,-0.005887249484658241,-0.0044424207881093025,-0.0034390506334602833
269,-0.008563479408621788,-0.02292647771537304,-0.015188347548246384,-0.014255225658416748,-0.012311609461903572,-0.001961163943633437,0.006111299619078636,-0.014240475371479988,-0.013968449085950851,-0.03402003273367882
270,-0.005533281713724136,-0.015784883871674538,-0.018310969695448875,-0.012718291021883488,-0.010846346616744995,0.0014236775459721684,0.011081642471253872,-0.008650889620184898,-0.01900213211774826,-0.031534284353256226
271,0.0016584862023591995,-0.028444435447454453,-0.00990264117717743,-0.010244414210319519,-0.011941168457269669,0.000485024880617857,-0.001756944926455617,-0.009202275425195694,-0.014528964646160603,-0.019986994564533234
272,-0.00011747767194454726,-0.02518095496449846,0.02887982703367543,0.012592749070335134,-0.0014887782071470207,0.014494666086077128,0.005950242915234846,0.0041842165691035865,0.015181804167832241,-0.01990468909928037
273,0.001265896251425147,-0.028639914467930794,-0.011918827891349792,0.0013034873409196734,-0.004030343145132065,0.0036815868224948645,-0.02525521069765091,-0.002167072845622897,0.01016636285930872,0.01705080270767212
274,-0.016748420894145966,-0.03828292340040207,-0.013721000403165817,-0.01794973947107792,-0.012469039298593998,-0.007424273993819952,-0.0077763330191373825,-0.01730404794216156,-0.0072823865339159966,-0.018373172730207443
275,0.01793789118528366,0.00434467475861311,0.041721973568201065,0.021998651325702667,0.009807128459215164,0.013088504783809185,-0.05091744661331177,0.017496762797236443,-0.015884006395936012,0.03150823339819908
276,-0.00728684663772583,-0.046264149248600006,-0.018625935539603233,-0.015596810728311539,-0.01388644240796566,0.0015115917194634676,0.012258941307663918,-0.013458123430609703,-0.01401882991194725,-0.036466050893068314
277,0.0006602719076909125,-0.050448425114154816,-0.012426136992871761,-0.008427765220403671,-0.01147907692939043,0.00039917079266160727,-0.012826512567698956,-0.010201942175626755,-0.019280310720205307,-0.010250017046928406
278,-0.016989421099424362,-0.04318287968635559,0.004482786636799574,-0.013589436188340187,-0.012830317951738834,-0.006196404807269573,-0.02091168239712715,-0.009710792452096939,-0.023803748190402985,-0.0020363987423479557
279,-0.0010710118804126978,-0.04956531152129173,-0.020052744075655937,-0.013390036299824715,-0.01343111228197813,0.005497760605067015,0.020177464932203293,-0.012298351153731346,-0.015423835255205631,-0.043157320469617844
280,-0.0013510041171684861,-0.024889105930924416,-0.001761970459483564,-0.0034835943952202797,-0.009990972466766834,-0.0017392702866345644,-0.02226143889129162,-0.008448589593172073,-0.019488628953695297,-0.0064482782036066055
281,0.0017343021463602781,-0.019328657537698746,0.0036411494947969913,-0.004896247293800116,-0.008872761391103268,0.0002075305674225092,-0.025069257244467735,-0.005449902731925249,-0.007509191054850817,0.00020088336896151304
282,-0.010040517896413803,0.0037235282361507416,-0.021091710776090622,-0.01319564413279295,-0.006838254164904356,-0.005054609850049019,0.005136388354003429,-0.011439358815550804,-0.009783094748854637,-0.012809030711650848
283,-0.010254930704832077,-0.02009192295372486,0.0015362482517957687,-0.008691413328051567,-0.00705363042652607,-0.0015884021995589137,-0.012125738896429539,-0.009023796766996384,-0.00510071637108922,-0.015946775674819946
284,-0.029363855719566345,-0.027641288936138153,-0.007181103341281414,-0.021086975932121277,-0.010579166933894157,-0.019338760524988174,-0.03449003025889397,-0.022431952878832817,0.001699548214673996,0.0057506556622684
285,-0.014645848423242569,-0.04005653038620949,-0.014810990542173386,-0.0174268651753664,-0.012784016318619251,-0.005438525229692459,-0.0033240471966564655,-0.016449399292469025,-0.008779373951256275,-0.02239381894469261
286,7.21607357263565e-05,-0.05247177183628082,-0.022440869361162186,-0.013766749761998653,-0.01498886477202177,0.008461709134280682,0.027841931208968163,-0.010466848500072956,-0.019258297979831696,-0.05053830146789551
287,-0.025374475866556168,0.04317936301231384,0.004960705526173115,-0.019980721175670624,0.0014382506487891078,-0.013234483078122139,0.008495367132127285,-0.017617421224713326,0.030070917680859566,-0.021015852689743042
288,-0.0015631741844117641,-0.05109230428934097,-0.021593110635876656,-0.014173433184623718,-0.014743883162736893,0.006917240098118782,0.02437904104590416,-0.01113157533109188,-0.01809396967291832,-0.047411128878593445
289,-0.009002722799777985,-0.011907679960131645,-0.001284020021557808,-0.015566764399409294,-0.010227540507912636,-0.003592241322621703,0.0030660531483590603,-0.013904732652008533,-0.01057228073477745,-0.028423424810171127
290,-0.00874788872897625,0.002762922551482916,-0.002825522795319557,-0.011223042383790016,-0.007761216722428799,-0.007033597677946091,-0.014127571135759354,-0.008384370245039463,-0.01723530702292919,-0.0009149010293185711
291,-0.005026522558182478,0.008881857618689537,0.02634708769619465,0.00475654099136591,0.0020757829770445824,-0.0010082537773996592,-0.04494886100292206,0.00027446821331977844,-0.005960775073617697,0.01594662480056286
292,0.004008556716144085,0.009253700263798237,0.015428449027240276,0.0026173610240221024,0.002263339702039957,0.003528077155351639,-0.01698491908609867,0.00917272362858057,-0.04450168460607529,0.032031528651714325
293,0.0030056373216211796,-0.013627409934997559,0.0008141595753841102,-0.004595050122588873,-0.007235798519104719,0.0027027297765016556,-0.009064516983926296,-0.003938635811209679,-0.027528615668416023,0.003359601367264986
294,0.007383650168776512,-0.06052068620920181,0.007171135861426592,-0.001137535902671516,-0.005284308921545744,-0.004275493323802948,-0.05438733845949173,-0.006773324683308601,-0.02273034118115902,0.03144045174121857
295,-0.005350254476070404,-0.0070321024395525455,-0.013448667712509632,-0.006380138918757439,-0.0061432537622749805,-0.006211236584931612,-0.01430688239634037,-0.006249315105378628,-0.013765925541520119,0.0027462411671876907
296,0.009005172178149223,-0.02994270622730255,-0.004394119139760733,-0.0049760243855416775,-0.010908188298344612,0.0004097727360203862,-0.02953486703336239,-0.006960304453969002,-0.024837205186486244,0.009975248947739601
297,-0.0018636405002325773,0.0023668790236115456,0.008611590601503849,-0.0029255289118736982,-0.002407865598797798,-0.00039944739546626806,-0.01664058305323124,-0.0008793302113190293,-0.04540536180138588,0.028695544227957726
298,-0.02728602985942935,-0.01776533772208317,0.010409348636059412,-0.010466358341234248,-0.00873216786716345,-0.00389882169427708,-0.013520696188658027,-0.005307853712714266,0.006582960351283271,-0.011975291349270356
299,-0.0259146336466074,0.013162799179553986,-0.007408434525132179,-0.02596779726445675,-0.004623631946742535,-0.017357081174850464,0.009214435704052448,-0.022264868021011353,0.03312331810593605,-0.03521660715341568
300,-0.0016989561263471842,-0.037375882267951965,-0.009065843187272549,-0.007901273667812347,-0.009789258241653442,0.0011036964133381844,-0.012021281756460667,-0.009041632525622845,-0.023516720160841942,-0.009284489788115025
301,0.007208474446088076,-0.02504708617925644,-0.002561508910730481,-0.0020795962773263454,-0.0031537350732833147,0.005481329746544361,-0.009924231097102165,0.0032046446576714516,-0.0411234050989151,0.02107805758714676
302,-0.029363855719566345,-0.027641288936138153,-0.007181103341281414,-0.021086975932121277,-0.010579166933894157,-0.019338760524988174,-0.03449003025889397,-0.022431952878832817,0.001699548214673996,0.0057506556622684
303,-0.006971542723476887,-0.03126852959394455,-0.00990079902112484,-0.010515973903238773,-0.010352949611842632,0.001600267831236124,0.0008199308067560196,-0.009252337738871574,-0.012361732311546803,-0.027282293885946274
304,-0.029363855719566345,-0.027641288936138153,-0.007181103341281414,-0.021086975932121277,-0.010579166933894157,-0.019338760524988174,-0.03449003025889397,-0.022431952878832817,0.001699548214673996,0.0057506556622684
305,-0.003306636353954673,-0.010986664332449436,0.005089730489999056,-0.0003165784291923046,-0.0035793352872133255,-0.0019953064620494843,-0.01400039717555046,-0.0003647349076345563,-0.03466710448265076,0.026099754497408867
306,0.0011598211713135242,0.003349101636558771,0.023370396345853806,0.005969445686787367,0.0013491332065314054,0.007700037211179733,-0.03170263394713402,0.0036869060713797808,-0.013154298067092896,0.00432371674105525
307,-0.0134362131357193,-0.006300288252532482,0.0010737217962741852,-0.012046780437231064,-0.004742607474327087,-0.005064577795565128,-0.0014348645927384496,-0.012335605919361115,0.005752387456595898,-0.01441559661179781
308,6.050115916877985e-05,-0.03373322635889053,-0.021705878898501396,-0.00995747558772564,-0.011858301237225533,-0.002798499073833227,0.009391515515744686,-0.015624085441231728,-0.017602333799004555,-0.028418293222784996
309,-0.018105827271938324,-0.005175334867089987,-0.017324380576610565,-0.013549506664276123,-0.012600889429450035,-0.013747148215770721,-0.014493659138679504,-0.013826058246195316,0.0031766772735863924,-0.01563730463385582
310,-0.019551852717995644,-0.03591811656951904,-0.012267688289284706,-0.018646903336048126,-0.01204906776547432,-0.010071936994791031,-0.013712700456380844,-0.018443582579493523,-0.00528640067204833,-0.013012328185141087
311,0.000852130469866097,-0.011585831642150879,0.0033424196299165487,-0.003008886706084013,-0.005228669382631779,-0.003444595029577613,-0.02931581810116768,-0.006121838930994272,0.0024763569235801697,0.009769010357558727
312,-0.008192761801183224,-0.028558526188135147,-0.011334795504808426,-0.013761687092483044,-0.009726032614707947,0.0016373149119317532,0.015580127947032452,-0.01146003045141697,-0.00633235601708293,-0.034141670912504196
313,-0.012896087020635605,0.02249997667968273,0.008704565465450287,-0.009249272756278515,-0.005042105447500944,-0.008898448199033737,-0.003113914979621768,-0.011494698002934456,0.006805465091019869,-0.014889873564243317
314,0.021571025252342224,-0.0225765872746706,0.004435578361153603,0.0011664589401334524,-0.009053019806742668,0.0021067559719085693,-0.04788641631603241,-0.0033063897863030434,-0.03236662968993187,0.035343363881111145
315,-0.0088996896520257,0.011738541536033154,-0.00448237918317318,-0.007024011109024286,0.001431031385436654,-0.0025410805828869343,0.000218775006942451,0.0011766654206439853,-0.022176017984747887,0.004650883376598358
316,-0.029363855719566345,-0.027641288936138153,-0.007181103341281414,-0.021086975932121277,-0.010579166933894157,-0.019338760524988174,-0.03449003025889397,-0.022431952878832817,0.001699548214673996,0.0057506556622684
317,-4.069239366799593e-05,-0.032263338565826416,-0.005386821459978819,-0.0060238963924348354,-0.008701290935277939,0.004426409024745226,-0.004918730817735195,-0.006450258195400238,-0.019681937992572784,-0.01815084181725979
318,0.0221103485673666,0.0066645266488194466,0.02570408023893833,-0.004020024556666613,0.0022066773381084204,0.006576685234904289,-0.006426242645829916,0.003928046207875013,-0.03723766654729843,0.0321183055639267
319,-0.0024917572736740112,-0.04759450629353523,-0.019942687824368477,-0.012428496964275837,-0.01311814971268177,0.0040052104741334915,0.012723946012556553,-0.011006238870322704,-0.016027091071009636,-0.03401051089167595
320,-0.005591940600425005,0.02552059292793274,-0.016251150518655777,-0.003148620016872883,-0.0038097368087619543,-6.892858073115349e-05,0.008044488728046417,-0.0040436796844005585,-0.016673434525728226,-0.0015406464226543903
321,-0.013901273719966412,-0.02458938956260681,-0.023741573095321655,-0.015673121437430382,-0.010000010952353477,-0.006184272468090057,-0.002168502425774932,-0.013225875794887543,-0.013981440104544163,-0.02320091426372528
322,-0.029363855719566345,-0.027641288936138153,-0.007181103341281414,-0.021086975932121277,-0.010579166933894157,-0.019338760524988174,-0.03449003025889397,-0.022431952878832817,0.001699548214673996,0.0057506556622684
323,-0.006838093977421522,-0.017566952854394913,-0.002263895934447646,-0.0003690276062116027,-0.002246497431769967,0.003636877052485943,-0.011522337794303894,0.0012105568312108517,-0.0019254968501627445,0.00026906817220151424
324,0.0003368134014976187,-0.04356635615607339,-0.06370871698432894,0.0062312543894965065,0.004806503554464008,-0.006408035693487664,-0.017604264981223264,-0.010532794870480628,-0.01014172307850987,0.014258460994290886
325,0.006642777472734451,-0.01540737971663475,0.00018909270875155926,-0.004622948355972767,-0.011665582656860352,0.0005620411247946322,-0.008473602123558521,-0.007237231824547052,-0.023068279027938843,-0.004661767743527889
326,-0.0009756721556186676,-0.0305543951690197,-0.015884051099419594,-0.010139381512999535,-0.00993445236235857,0.005712730810046196,0.01611250638961792,-0.006197355687618256,-0.012604417279362679,-0.03310582786798477
327,-0.029363855719566345,-0.027641288936138153,-0.007181103341281414,-0.021086975932121277,-0.010579166933894157,-0.019338760524988174,-0.03449003025889397,-0.022431952878832817,0.001699548214673996,0.0057506556622684
328,-0.029363853856921196,-0.027641287073493004,-0.00718110054731369,-0.021086975932121277,-0.010579166933894157,-0.019338760524988174,-0.03449003025889397,-0.022431951016187668,0.001699548214673996,0.005750654265284538
329,-0.029363855719566345,-0.027641288936138153,-0.007181103341281414,-0.021086975932121277,-0.010579166933894157,-0.019338760524988174,-0.03449003025889397,-0.022431952878832817,0.001699548214673996,0.0057506556622684
330,0.012575292028486729,-0.010968679562211037,0.014117863960564137,-0.00035305856727063656,-0.0033071874640882015,0.0036497176624834538,-0.026145903393626213,0.0032714782282710075,-0.03350204974412918,0.03813866898417473
331,-0.020585648715496063,-0.00047439453192055225,-0.014467179775238037,-0.015797076746821404,-0.004173519555479288,-0.011537496000528336,-0.01680685579776764,-0.010717337019741535,-0.002124534687027335,-0.0002749440027400851
332,-0.0023210684303194284,-0.046202391386032104,-0.017307445406913757,-0.012391304597258568,-0.013088381849229336,0.004424800164997578,0.011488926596939564,-0.010769287124276161,-0.019279181957244873,-0.03412841632962227
333,-0.007399043999612331,-0.016475796699523926,-0.006988972891122103,-0.007003984414041042,-0.008247606456279755,-0.002026699483394623,-0.011002875864505768,-0.004763014614582062,-0.01677488163113594,0.009129399433732033
334,0.0016168206930160522,0.000476175919175148,-0.004106036387383938,-0.0035268429201096296,-0.009722229093313217,0.004528232850134373,-0.044089723378419876,-0.0028058921452611685,-0.03274628147482872,0.029559757560491562
335,-0.01129547506570816,-0.037215251475572586,-0.011357472278177738,-0.013966217637062073,-0.011229971423745155,-0.004643188323825598,-0.011276502162218094,-0.014193737879395485,-0.013464527204632759,-0.01302263978868723
336,0.0018527057254686952,-0.019899846985936165,-0.012822719290852547,-0.0010238639079034328,-0.007389497011899948,-0.0034621041268110275,-0.05230558291077614,-0.006678946781903505,-0.01690485328435898,0.02194489724934101
337,0.009097411297261715,-0.04074449837207794,-0.010977495461702347,-0.0061426470056176186,-0.01564936712384224,-0.0011332377325743437,-0.025645596906542778,-0.011074965819716454,-0.025872327387332916,-0.001976102590560913
338,-0.005511741619557142,-0.025974445044994354,-0.010495184920728207,-0.01380464993417263,-0.009700866416096687,0.0018716854974627495,0.014841214753687382,-0.01224161870777607,-0.006616489961743355,-0.03487541526556015
339,0.0017871924210339785,-0.048251017928123474,-0.018139593303203583,-0.01071278378367424,-0.013189833611249924,0.007712577469646931,0.016426585614681244,-0.00887591764330864,-0.02277912199497223,-0.03803994879126549
340,-0.020553046837449074,-0.01616947166621685,-0.017673714086413383,-0.012298649176955223,-0.010386187583208084,-0.01137266494333744,-0.033195238560438156,-0.011409164406359196,-0.01584681309759617,0.002194379922002554
341,-0.006223347038030624,-0.02159244753420353,-0.0031319994013756514,-0.008406874723732471,-0.007845651358366013,0.002753602107986808,0.003548569045960903,-0.0064553250558674335,-0.005887843668460846,-0.02725386805832386
342,0.003444686997681856,0.017394833266735077,0.005814163014292717,-0.008786225691437721,-0.0031888464000076056,-0.0042517827823758125,-0.014973384328186512,-0.004057867918163538,-0.03536562994122505,0.028162814676761627
343,-0.0134362131357193,-0.006300288252532482,0.0010737217962741852,-0.012046780437231064,-0.004742607474327087,-0.005064577795565128,-0.0014348645927384496,-0.012335605919361115,0.005752387456595898,-0.01441559661179781
344,-0.0017843469977378845,0.00017823127564042807,-0.008844946511089802,-0.004346001893281937,-0.00757664255797863,-0.0037960431072860956,-0.01187063753604889,-0.010563375428318977,-0.010002839379012585,0.002043649088591337
345,-0.01288303080946207,-0.02574736997485161,-0.005621087271720171,-0.014366356655955315,-0.010355798527598381,-0.006026597693562508,-0.00647692522034049,-0.012264667078852654,-0.014131274074316025,-0.011788316071033478
346,-0.01647125370800495,-0.0249234177172184,-0.015820618718862534,-0.014748807065188885,-0.01312869880348444,-0.005276159383356571,-0.013789208605885506,-0.01640731655061245,-0.0010723795276135206,-0.01350101362913847
347,-0.001888881204649806,-0.014991406351327896,-0.001585666206665337,-0.00592914130538702,-0.006998459808528423,-0.0006501966854557395,-0.01796301081776619,-0.0027642911300063133,-0.03073766827583313,0.01343846507370472
348,0.004139638505876064,-0.032915279269218445,-0.004468271974474192,-0.0031573909800499678,-0.007958456873893738,0.005748173221945763,-0.010341272689402103,-0.004581054672598839,-0.026261119171977043,-0.010562704876065254
349,0.0022951883729547262,-0.05158744752407074,-0.01929367333650589,-0.010473747737705708,-0.013250056654214859,0.007631356827914715,0.017345096915960312,-0.009061899967491627,-0.022330082952976227,-0.03805875405669212
350,-0.00809601228684187,-0.029451927170157433,-0.015342175029218197,-0.0085934828966856,-0.016080738976597786,-0.0003337045491207391,-0.016732364892959595,-0.007274653762578964,-0.026859566569328308,-0.00831630825996399
351,-0.0002759938652161509,0.0005647945217788219,0.009614367969334126,-0.004220867063850164,0.0001543880207464099,0.00149937579408288,-0.012587843462824821,-0.0014130412600934505,-0.016290536150336266,0.018095912411808968
352,-0.005040592513978481,-0.02366911806166172,-0.0015266448026522994,-0.004794897511601448,-0.007347225211560726,-0.001594449277035892,-0.02667449228465557,-0.008472356013953686,-0.01744076982140541,0.0069045755080878735
353,0.021974962204694748,-0.02194879576563835,0.02505776658654213,0.005389086436480284,0.003006616374477744,0.005523871164768934,-0.008119570091366768,0.007913828827440739,-0.028173303231596947,0.039656221866607666
354,-0.02368205040693283,-0.011724157258868217,0.0061689941212534904,-0.012985942885279655,-0.005840687081217766,-0.014232374727725983,-0.03829574957489967,-0.015186727978289127,0.0036085054744035006,0.007873754017055035
355,0.007376197725534439,-0.008186755701899529,-0.004726129584014416,0.005035726819187403,-0.0029631159268319607,0.009869263507425785,-0.02194175310432911,0.008295471780002117,-0.007088480517268181,0.017321009188890457
356,-0.004299898631870747,-0.04326111078262329,-0.015828892588615417,-0.01307052280753851,-0.012843331322073936,0.004263318609446287,0.014360671862959862,-0.010927808471024036,-0.0145576698705554,-0.038714341819286346
357,0.005718736443668604,0.0009804177097976208,0.00937807746231556,0.00046985375229269266,-0.0002848022850230336,0.00417735381051898,-0.0170945655554533,0.004660443868488073,-0.0317988246679306,0.02590768225491047
358,-0.0015597610035911202,-0.03525347262620926,0.01386877428740263,-0.003099532797932625,-0.01299697533249855,-0.0036457739770412445,-0.012256544083356857,-0.008757066912949085,-0.029969386756420135,-0.011721535585820675
359,0.026988146800594286,0.028246940484226307,0.003681669554713197,0.02082356984777069,0.02320521595698308,0.018426306719074637,0.02274173359061034,0.011466236112591387,0.03931793384394876,0.031523861574795496
360,0.000670003006234765,-0.038080230355262756,-0.015125958248972893,-0.009449031203985214,-0.010346616618335247,0.004939477425068617,0.009768152609467506,-0.008939655497670174,-0.0161005686968565,-0.027634505182504654
361,-0.0002704160287976265,0.0016923286020755768,0.010315492749214172,-0.003225143998861313,-0.0016646619187667966,-0.0016118132043629885,-0.015965871512889862,-0.0021293899044394493,-0.036164313554763794,0.024334749206900597
362,-0.004245773423463106,-0.03022189810872078,-0.014036678709089756,-0.010070126503705978,-0.010113578289747238,0.0019952841103076935,0.009926185011863708,-0.00870413426309824,-0.014006293378770351,-0.029097139835357666
363,-0.00719907239856795,0.011799589848230123,0.01228522006280424,0.0008682774146117207,0.00026067128434134054,0.004778116907146026,-0.00024593537222400083,0.003761395721828227,0.005442694750261163,-0.010597860324390172
364,-0.029363855719566345,-0.027641288936138153,-0.007181103341281414,-0.021086975932121277,-0.010579166933894157,-0.019338760524988174,-0.03449003025889397,-0.022431952878832817,0.001699548214673996,0.0057506556622684
365,-0.029363853856921196,-0.027641287073493004,-0.00718110054731369,-0.021086975932121277,-0.010579166933894157,-0.019338760524988174,-0.03449003025889397,-0.022431951016187668,0.001699548214673996,0.005750654265284538
366,-0.01107326615601778,0.0002115463139489293,-0.009167569689452648,-0.013057549484074116,-0.01023193821310997,-0.01046115905046463,-0.005812498275190592,-0.013082614168524742,-0.00462891161441803,-0.008289431221783161
367,-0.006719718687236309,-0.011190500110387802,0.00963550340384245,-0.0016189622692763805,0.002654306823387742,0.007455664686858654,0.00036235793959349394,0.0008686610963195562,-0.011085023172199726,0.006565377581864595
368,0.004089186899363995,-0.00914820097386837,-0.015677085146307945,-0.011411870829761028,-0.012860005721449852,-0.007155328523367643,-0.01587914116680622,-0.008057409897446632,-0.013831796124577522,0.0020124393049627542
369,-0.004736408591270447,-0.00626340601593256,0.008785952813923359,-0.006924080662429333,0.00031050003599375486,-0.001976858824491501,-0.005049258004873991,0.0009936593705788255,-0.04171508178114891,0.0233597569167614
370,0.018475882709026337,-0.05091124773025513,0.0005965655436739326,0.005222897045314312,-0.005752148572355509,0.006278492510318756,-0.038511790335178375,0.002447230275720358,-0.034578703343868256,0.019432179629802704
371,-0.0134362131357193,-0.006300288252532482,0.0010737217962741852,-0.012046780437231064,-0.004742607474327087,-0.005064577795565128,-0.0014348645927384496,-0.012335605919361115,0.005752387456595898,-0.01441559661179781
372,-0.0015110818203538656,-0.00483670923858881,-0.00807768665254116,-0.004656259901821613,-0.0075424062088131905,0.00048340324428863823,-0.01055971346795559,-0.00495761027559638,-0.011429687961935997,-0.0037278246600180864
373,-0.0014583265874534845,-0.045263610780239105,-0.01699158549308777,-0.012236482463777065,-0.013162546791136265,0.0069420551881194115,0.020076151937246323,-0.009678758680820465,-0.016467392444610596,-0.04390072450041771
374,-0.029363853856921196,-0.027641287073493004,-0.00718110054731369,-0.021086975932121277,-0.010579166933894157,-0.019338760524988174,-0.03449003025889397,-0.022431951016187668,0.001699548214673996,0.005750654265284538
375,-0.003118806518614292,-0.04411260783672333,-0.015596294775605202,-0.011932821944355965,-0.012454886920750141,0.0030791652388870716,0.006037930957973003,-0.010870099999010563,-0.019286148250102997,-0.028658468276262283
376,-0.015950443223118782,-0.010765694081783295,-0.016477452591061592,-0.015565400011837482,-0.011242235079407692,-0.008643935434520245,-0.005175942555069923,-0.014571947045624256,-0.0024067917838692665,-0.025631921365857124
377,-0.0002596264239400625,-0.041573040187358856,-0.025230402126908302,-0.012813887558877468,-0.013858316466212273,0.007233521901071072,0.018937626853585243,-0.011315137147903442,-0.021288130432367325,-0.03507215529680252
378,-0.007970798760652542,-0.0026810364797711372,0.000996638322249055,-0.0031083212234079838,-0.0034380326978862286,-3.4831929951906204e-05,-0.00568615086376667,-0.0034651029855012894,-0.008468879386782646,-0.012655327096581459
379,-0.0020485143177211285,-0.030056681483983994,-0.016619892790913582,-0.010129387490451336,-0.010406794026494026,0.004729925654828548,0.014809701591730118,-0.00793776847422123,-0.012285071425139904,-0.027669524773955345
380,-0.010880591347813606,-0.006458481773734093,-0.00870470330119133,-0.017521508038043976,-0.011059464886784554,-0.009965737350285053,0.004164953716099262,-0.015545811504125595,0.009571407921612263,-0.023428361862897873
381,0.0039948029443621635,-0.020357243716716766,-0.008315203711390495,-0.012387324124574661,-0.012004278600215912,-0.0040704128332436085,-0.008597336709499359,-0.007842953316867352,-0.018925683572888374,-0.0031049796380102634
382,-0.007745019160211086,-0.044371310621500015,-0.012996896170079708,-0.0122564397752285,-0.009656215086579323,-0.00932392105460167,-0.03746810927987099,-0.01592831313610077,-0.009329245425760746,0.016597136855125427
383,0.013143908232450485,0.011829910799860954,0.0055487994104623795,-0.0005667214281857014,-0.001186114619486034,0.0032520685344934464,-0.017165929079055786,0.004188487306237221,-0.04592073708772659,0.04201755300164223
384,0.0011272781994193792,-0.004305814392864704,-0.0014157505938783288,-0.0034120380878448486,-0.005489867180585861,-0.0025959531776607037,-0.01657383143901825,-0.004270228091627359,-0.0069805169478058815,0.005115087144076824
385,7.21607357263565e-05,-0.05247177183628082,-0.022440865635871887,-0.013766751624643803,-0.014988865703344345,0.008461710065603256,0.027841931208968163,-0.010466847568750381,-0.019258297979831696,-0.05053829774260521
386,0.002832672093063593,-0.030117861926555634,-0.0020890480373054743,-0.0025336456019431353,-0.007040209602564573,0.0033356351777911186,-0.01979893632233143,-0.004938401281833649,-0.026821618899703026,-0.0008459453238174319
387,-0.0036023221909999847,-0.010644922032952309,0.013494541868567467,0.0015336389187723398,0.00090629025362432,0.00536982249468565,-0.031482089310884476,0.01390056125819683,-0.05157974734902382,0.048839859664440155
388,0.004454022739082575,-0.012071083299815655,-0.015311305411159992,0.004877484869211912,-0.0067749302834272385,0.004230298567563295,-0.03618593513965607,0.0042154835537076,-0.045074936002492905,0.011398444883525372
389,0.005266297142952681,-0.038253214210271835,-0.010555129498243332,-0.0060268668457865715,-0.008148768916726112,0.009607953950762749,0.01310951728373766,-0.004124298691749573,-0.02231324464082718,-0.021554235368967056
390,-0.01765185408294201,-0.027810772880911827,-0.010676790960133076,-0.01865207403898239,-0.010554907843470573,-0.007900388911366463,-0.0032065403647720814,-0.017750438302755356,-0.001111911959014833,-0.020513176918029785
391,0.004523150157183409,-0.04569493606686592,-0.017379235476255417,-0.005641498137265444,-0.010633516125380993,0.004693020135164261,-0.005467111244797707,-0.007940859533846378,-0.021087123081088066,-0.0142256123945117
392,0.0007400440517812967,-0.05109666287899017,-0.01889498345553875,-0.011893263086676598,-0.015145929530262947,0.005329078994691372,0.009451686404645443,-0.011065361090004444,-0.020622411742806435,-0.030478961765766144
393,-0.0041029192507267,-0.02156219631433487,-0.008909273892641068,-0.00743869598954916,-0.009525226429104805,-0.0002072177012450993,0.00196567689999938,-0.004138180986046791,-0.01031215488910675,-0.013341167010366917
394,-0.002067487919703126,-0.031308747828006744,-0.02338460646569729,-0.005542227998375893,-0.007239545229822397,-0.0019852840341627598,0.005426392890512943,-0.0053120688535273075,-0.016125036403536797,-0.0052727581933140755
395,-0.001318369060754776,-0.04640183970332146,-0.020174629986286163,-0.013607382774353027,-0.014614931307733059,0.006009436212480068,0.019397180527448654,-0.011874943971633911,-0.016508758068084717,-0.04042021185159683
396,-0.021473512053489685,-0.00546196149662137,-0.0038504041731357574,-0.020921245217323303,-0.009303029626607895,-0.002934688702225685,0.0004499731585383415,-0.009042525663971901,-0.008617943152785301,0.0018705937545746565
397,-0.0041883960366249084,-0.031229406595230103,-0.015176169574260712,-0.011199217289686203,-0.01078471727669239,0.00210848287679255,0.005317477975040674,-0.0093458853662014,-0.015827951952815056,-0.03012881986796856
398,-0.0134362131357193,-0.006300288252532482,0.0010737217962741852,-0.012046780437231064,-0.004742607474327087,-0.005064577795565128,-0.0014348645927384496,-0.012335605919361115,0.005752387456595898,-0.01441559661179781
399,-0.0019565988332033157,-0.04677525535225868,-0.013980395160615444,-0.011187132447957993,-0.0120268939062953,0.004697410389780998,0.0070523470640182495,-0.00919852964580059,-0.017737871035933495,-0.028910808265209198
400,0.008118748664855957,-0.02429351955652237,-0.014767194166779518,0.001259824726730585,-0.003660912625491619,0.011467458680272102,-0.005479372106492519,-0.003126028925180435,-0.022706249728798866,-0.01402825303375721
401,-0.014645848423242569,-0.04005653038620949,-0.014810990542173386,-0.0174268651753664,-0.012784016318619251,-0.005438525229692459,-0.0033240471966564655,-0.016449399292469025,-0.008779373951256275,-0.02239381894469261
402,0.003930989652872086,-0.04297509416937828,-0.012762998230755329,-0.006895323749631643,-0.01094105001538992,0.006776161026209593,0.0021574068814516068,-0.006887253373861313,-0.027180153876543045,-0.022417031228542328
403,0.0026184904854744673,-0.02912665158510208,-0.003764436114579439,-0.007270352449268103,-0.014467916451394558,-0.00560385687276721,-0.030289914458990097,-0.012015081942081451,-0.02212199941277504,0.0006142612546682358
404,0.010503748431801796,-0.005437424872070551,0.0030530262738466263,-0.0015234675956889987,-0.004622140899300575,0.0012207191903144121,-0.01534057967364788,1.5558907762169838e-05,-0.03572214022278786,0.021692009642720222
405,-0.013553764671087265,-0.013530533760786057,-0.004408344626426697,-0.006955523509532213,-0.00801390316337347,-0.0040389616042375565,-0.009629658423364162,-0.007477928884327412,-0.008025032468140125,-0.016899893060326576
406,-0.014645848423242569,-0.04005653038620949,-0.014810990542173386,-0.0174268651753664,-0.012784016318619251,-0.005438525229692459,-0.0033240471966564655,-0.016449399292469025,-0.008779373951256275,-0.022393817082047462
407,0.004373518284410238,-0.044628772884607315,-0.014945697039365768,-0.009449660778045654,-0.013988267630338669,0.001000698423013091,-0.007843447849154472,-0.01070774532854557,-0.02663487382233143,-0.01939823478460312
408,-0.005607991013675928,-0.013844169676303864,-0.013224277645349503,-0.003748771036043763,-0.006530669517815113,0.002546247560530901,-0.003303330624476075,-0.005553093738853931,0.00709307286888361,-0.014322014525532722
409,0.008442109450697899,-0.01353116612881422,0.006056980229914188,0.0031155503820627928,-0.008840113878250122,-0.00017989217303693295,-0.018382107838988304,-0.004192139022052288,-0.0394718162715435,0.011045575141906738
410,-0.001039585447870195,-0.04075903072953224,-0.012759785167872906,-0.009880230762064457,-0.01146303303539753,0.005307068582624197,0.008065433241426945,-0.008742427453398705,-0.01873674988746643,-0.03117755800485611
411,-0.006821478717029095,-0.049067698419094086,-0.018762512132525444,-0.008132906630635262,-0.011943118646740913,-0.0033588032238185406,0.00593818724155426,-0.009719664230942726,-0.0260879285633564,-0.011545308865606785
412,-0.0017235965933650732,-0.04992319643497467,-0.01706998609006405,-0.008956288918852806,-0.010290762409567833,0.0013210386969149113,-0.00888507068157196,-0.010322174988687038,-0.013333762995898724,-0.00957089476287365
413,-0.02368205040693283,-0.011724156327545643,0.0061689941212534904,-0.012985942885279655,-0.005840687081217766,-0.014232374727725983,-0.03829574957489967,-0.015186727978289127,0.0036085054744035006,0.007873754017055035
414,0.010084837675094604,-0.0439467690885067,-0.004306714050471783,-0.003457122016698122,-0.005702385678887367,0.008879052475094795,-0.0004572531033772975,-0.001238410361111164,-0.018741164356470108,-0.004792371299117804
415,-0.029363855719566345,-0.027641288936138153,-0.007181103341281414,-0.021086975932121277,-0.010579166933894157,-0.019338760524988174,-0.03449003025889397,-0.022431952878832817,0.001699548214673996,0.0057506556622684
416,-0.003102825256064534,-0.028728172183036804,-0.009755069389939308,0.0017758477479219437,-0.011854366399347782,-0.0033550707157701254,-0.0402630940079689,-0.003723637666553259,-0.03873281925916672,0.018401961773633957
417,-0.029363855719566345,-0.027641288936138153,-0.007181103341281414,-0.021086975932121277,-0.010579166933894157,-0.019338760524988174,-0.03449003025889397,-0.022431952878832817,0.001699548214673996,0.0057506556622684
418,-0.029363855719566345,-0.027641288936138153,-0.007181103341281414,-0.021086975932121277,-0.010579166933894157,-0.019338760524988174,-0.03449003025889397,-0.022431952878832817,0.001699548214673996,0.0057506556622684
419,-0.00528454314917326,-0.02724321559071541,-0.0033683693036437035,-0.008410804904997349,-0.008596745319664478,0.0031429207883775234,0.0006617228500545025,-0.00770854065194726,-0.009490138851106167,-0.02730683796107769
420,-0.0064691780135035515,-0.04695389047265053,-0.019049813970923424,-0.015393468551337719,-0.014008933678269386,0.0022838269360363483,0.013990381732583046,-0.013125758618116379,-0.014600996859371662,-0.03802963346242905
421,-0.029363855719566345,-0.027641288936138153,-0.007181103341281414,-0.021086975932121277,-0.010579166933894157,-0.019338760524988174,-0.03449003025889397,-0.022431952878832817,0.001699548214673996,0.0057506556622684
422,0.0014753660652786493,-0.04901842400431633,-0.01892164535820484,-0.011268053203821182,-0.013516933657228947,0.00784878246486187,0.01850210689008236,-0.009165177121758461,-0.022138971835374832,-0.04031238332390785
423,0.00039096956606954336,-0.030070889741182327,-0.0018446915782988071,-0.003177592996507883,-0.006812817417085171,-0.0007127043791115284,-0.031670987606048584,-0.006762032862752676,-0.028684306889772415,0.011963717639446259
424,0.00020864926045760512,0.018731044605374336,-0.002878354862332344,0.0013537993654608727,0.0017329056281596422,0.0025915917940437794,-0.015872903168201447,0.004451141692698002,-0.013661953620612621,0.0021967703942209482
425,0.004033436067402363,-0.02034502848982811,-0.011737542226910591,-0.003405076451599598,-0.007266286760568619,0.0027530675288289785,-0.0024101193994283676,-0.006569355726242065,-0.01712653785943985,-0.006527186371386051
426,-0.0067446306347846985,-0.0012661968357861042,-0.009866220876574516,-0.008945549838244915,-0.00761876255273819,-0.003912249580025673,-0.007698001805692911,-0.008296744897961617,-0.013501686044037342,-0.00819394551217556
427,0.0015111034736037254,-0.03930792585015297,0.0008107959874905646,-0.004613600205630064,-0.007212004624307156,0.0024891053326427937,-0.016160504892468452,-0.006029970943927765,-0.015321998856961727,-0.008949415758252144
428,0.004907676950097084,-0.04503866657614708,-0.014265133067965508,-0.005511459894478321,-0.010007467120885849,0.008887866511940956,0.01198845449835062,-0.004614626057446003,-0.022400835528969765,-0.02355240099132061
429,-0.004833846352994442,-0.04833335056900978,-0.019897576421499252,-0.014986790716648102,-0.014253913424909115,0.0038282983005046844,0.01745327189564705,-0.012461032718420029,-0.015765320509672165,-0.041156794875860214
430,-0.002748593222349882,-0.0070626018568873405,-0.005464858841150999,-0.012298972345888615,-0.011519349180161953,-0.009007811546325684,-0.026122383773326874,-0.013463118113577366,-0.012895213440060616,0.0070147328078746796
431,0.009823082014918327,-0.02525174431502819,0.007429858669638634,0.003072891151532531,-0.002580526052042842,0.007681990973651409,-0.01704229786992073,0.001078148139640689,-0.03156232461333275,0.011110170744359493
432,-0.01325469370931387,-0.01589181087911129,-0.01200218964368105,-0.014548545703291893,-0.012090010568499565,-0.005924990400671959,0.0029683655593544245,-0.012704244814813137,-0.012847482226788998,-0.026560982689261436
433,0.0029180976562201977,-0.015231985598802567,0.004181557800620794,-0.0006516872672364116,-0.005313384346663952,0.0025036593433469534,-0.011490843258798122,0.002261676825582981,-0.036912351846694946,0.02075345441699028
434,7.21607357263565e-05,-0.05247177183628082,-0.022440869361162186,-0.013766749761998653,-0.01498886477202177,0.008461709134280682,0.027841931208968163,-0.010466848500072956,-0.019258297979831696,-0.05053830146789551
435,0.014759914949536324,-0.02977037988603115,-0.0001671736827120185,0.004883283749222755,-0.006261169444769621,0.0026570227928459644,-0.035031236708164215,0.00010359496809542179,-0.02651819959282875,0.018174950033426285
436,0.010276256129145622,-0.061199627816677094,0.0036150338128209114,0.00010338402353227139,-0.009041870944201946,-0.004690125584602356,-0.06205324828624725,-0.0078401118516922,-0.02967298962175846,0.03355297073721886
437,-0.029779881238937378,0.037443459033966064,0.010207015089690685,-0.024374885484576225,0.0013417606242001057,-0.01721753180027008,0.007847977802157402,-0.02312881499528885,0.03884409740567207,-0.019237713888287544
438,-0.002402461599558592,-0.026217680424451828,-0.003641901770606637,-0.006270145066082478,-0.003855898743495345,0.0014292285777628422,-0.0019006738439202309,-0.0036490082275122404,-0.0031833024695515633,-0.001488175243139267
439,-0.0008238203590735793,-0.05017126351594925,-0.01640617474913597,-0.01240437850356102,-0.012959606014192104,0.00350755313411355,0.014759991317987442,-0.011336937546730042,-0.018191302195191383,-0.03656109794974327
440,-0.0229595098644495,0.004496443551033735,0.011802173219621181,-0.012533203698694706,-0.0026092759799212217,-0.013048339635133743,-0.029766997322440147,-0.014301024377346039,0.011840766295790672,0.002822411246597767
441,-0.015125611796975136,0.01597439870238304,-0.012850835919380188,-0.012079610489308834,-0.006489674560725689,-0.009279679507017136,-0.0009961907053366303,-0.008823375217616558,0.0008711388800293207,-0.017088454216718674
442,0.012382258661091328,0.009388299658894539,0.010017544962465763,-0.0008760200580582023,-0.001800070982426405,0.004208581522107124,-0.02215675450861454,0.004920669831335545,-0.039272844791412354,0.034387294203042984
443,-0.01313012931495905,0.01783621311187744,0.030962031334638596,0.0020588345360010862,0.0029593503568321466,-0.004749082028865814,-0.04536353424191475,-0.0017313166754320264,0.007153722457587719,0.011816657148301601
444,-0.0006707881111651659,-0.0054003773257136345,0.012289011850953102,-0.0014574290253221989,-0.0014696168946102262,4.108017310500145e-05,-0.01735086366534233,-0.002457437803968787,-0.020411323755979538,0.017994780093431473
445,-0.013647804036736488,-0.03912709280848503,-0.012793155387043953,-0.011261137202382088,-0.009819438681006432,-0.006720240227878094,-0.021864624693989754,-0.01462264358997345,-0.014047965407371521,-0.0006035923724994063
446,0.014482719823718071,0.005409532692283392,-0.003908950835466385,-0.009661608375608921,-0.014435077086091042,-0.0087210014462471,-0.05498196557164192,-0.01388461422175169,-0.010908246040344238,0.004086263477802277
447,-0.007037000264972448,0.023203840479254723,-0.0053617400117218494,-0.007960955612361431,0.001668397570028901,-0.0026088054291903973,0.002791740233078599,-0.008206566795706749,0.02074902318418026,-0.01113655511289835
448,-0.00044433900620788336,-0.018637709319591522,-0.015147756785154343,-0.005209103226661682,-0.006562832277268171,-0.007533278316259384,-0.008628574199974537,-0.011308535002171993,0.010735198855400085,0.0022315937094390392
449,-0.01109938882291317,-0.003018666058778763,-0.013556052930653095,0.0014084081631153822,-0.006590451113879681,-0.003386026481166482,-0.01751152239739895,-0.006388410925865173,-0.018483538180589676,-0.00016932724975049496
450,0.00027314183535054326,-0.03179396688938141,-0.027684222906827927,-0.004801989533007145,-0.009852105751633644,0.005018298979848623,0.0001240614801645279,-0.0060698301531374454,-0.014891869388520718,-0.010666659101843834
451,0.012084214016795158,-0.045079346746206284,-0.010883176699280739,-0.007580311968922615,-0.009193832986056805,-0.0101463682949543,-0.034561801701784134,-0.008173760026693344,-0.023204581812024117,0.02506982907652855
