,security,conformity,tradition,benevolence,universalism,self-direction,stimulation,hedonism,achievement,power
0,-0.00011978321708738804,-0.012992726638913155,-0.003241107566282153,-0.009532216936349869,-0.01724858395755291,-0.0020748416427522898,0.02272213064134121,-0.02486233575211561,0.0031241620890796185,0.012507287785410881
1,-0.007401605136692524,-0.024921899661421776,0.012090415693819523,-0.01302574947476387,-0.017842980101704597,-0.007109480910003185,0.048983532935380936,-0.030712744700779854,0.0199498999863863,-0.0031280789989978075
2,-0.006579800043255091,-0.03463554009795189,0.00954501237720251,-0.01870907098054886,-0.026592377573251724,-0.009222318418323994,0.05015284940600395,-0.05954607849797841,0.015537802129983902,-0.004334216006100178
3,0.01927413046360016,-0.049553994089365005,0.0061445944011211395,0.001194889540784061,-0.014835286885499954,0.0034219378139823675,-0.004457331728190184,-0.017135597579325926,-0.01469902228564024,0.02460751123726368
4,0.014793400242193685,-0.002195892755193802,-0.014807253125375347,0.014672959425560506,0.0034072040470530516,-0.0014272410259644037,0.05322535385924649,-0.046539297990058195,0.027266661001335707,-0.010799365575895479
5,-0.010251974686980247,-0.018509838730096817,-0.004788392223417759,-0.015804259106516838,-0.022170137614011765,-0.011986400000751019,0.01015770435333252,-0.02753515416307417,-6.287009455263615e-05,-0.005584534257650375
6,-0.003943643998354673,0.005672539584338665,-0.0004512420855462551,-0.009196266531944275,-0.008141942322254181,-0.0034416329581290483,0.020870598033070564,-0.027333316643256566,0.008593792095780373,0.002915854100137949
7,-0.002905942965298891,0.0010768906213343143,0.015488562174141407,0.010063648223876953,0.008734112605452538,0.004285684321075678,0.03422051668167114,0.0402539180759884,0.0242476649582386,0.007987086661159992
8,0.03572278842329979,0.027828363701701164,0.0415959432721138,0.003535647178068757,0.004015025682747364,0.009544838219881058,0.012578326277434826,0.0035868423576382496,-0.024965036660432816,0.060478270053863525
9,0.012947210110723972,0.009451916441321373,0.017335504293441772,0.00551038421690464,0.00279106548987329,0.00898789707571268,0.000898787344340235,0.02773489062100382,0.004666890017688274,0.01863688975572586
10,-0.007379437796771526,-0.018225397914648056,-0.0028953473083674908,-0.015452388674020767,-0.02181847020983696,-0.006478072609752417,0.017305690795183182,-0.031195266614741923,0.011935981921851635,0.0008061951957643032
11,0.0018028065267383306,-0.010145266596549261,-0.028959792697352334,0.0026211437444914063,-0.003493153686450018,-0.007586617359036877,-0.020226701059552717,-0.07026954121906313,-0.05132739687951544,0.028530645778820963
12,-0.002905942965298891,0.0010768906213343143,0.015488562174141407,0.010063648223876953,0.008734112605452538,0.004285684321075678,0.03422051668167114,0.0402539180759884,0.0242476649582386,0.007987086661159992
13,0.01956498622894287,-0.037365593016147614,-0.001358717679977417,0.013053854927420616,-0.0066914027556777,0.013680394738912582,0.012839547358453274,-0.047195247703703966,-0.0014913026243448257,0.033164385706186295
14,-0.005153775680810213,-0.011922502890229225,0.013789490796625614,-0.0014810515567660332,-0.004554432351142168,-0.001411897363141179,0.04160202294588089,0.004770587145684676,0.022098779678344727,0.002429503947496414
15,-0.008499384857714176,-0.022776475176215172,0.014253795146942139,-0.01775335893034935,-0.02273908071219921,-0.009254099801182747,0.04421679303050041,-0.03989673967959207,0.013654384762048721,-0.0014328749384731054
16,0.001105701900087297,-0.0030839662067592144,0.0004507518606260419,-0.00997935514897108,-0.01362705510109663,-0.0048783691599965096,0.01924387365579605,-0.048011806719512884,0.01591760665178299,0.0029390337876975536
17,0.020086251199245453,-0.009939071722328663,-0.0054622311145067215,0.010730721056461334,-0.002353185322135687,0.007519844453781843,-0.03414369747042656,-0.014068029772202265,-0.0207282193005085,0.01417161338031292
18,0.009165334515273571,-0.017411254346370697,-0.0035969268064945936,0.0005404134280979633,-0.007837146520614624,0.0024271858856081963,-0.0032455597538501024,-0.003362237033963423,0.00472133606672287,0.021997492760419846
19,0.022617869079113007,0.009431492537260056,-0.011527827940881252,-0.0044815209694206715,-0.010705456137657166,-0.004017215687781572,-0.022182084619998932,-0.02719910168013095,-0.029874971136450768,0.041272662580013275
20,-0.002905942965298891,0.0010768906213343143,0.015488562174141407,0.010063648223876953,0.008734112605452538,0.004285684321075678,0.03422051668167114,0.0402539180759884,0.0242476649582386,0.007987086661159992
21,0.029105594381690025,-0.0011664340272545815,-0.0011832164600491524,0.006387446075677872,-0.00037052202969789505,0.008426697924733162,-0.01634926162660122,0.015162865543281837,-0.0289249736815691,0.05202772840857506
22,0.013574658893048763,-0.04105245694518089,0.006253147963434458,-0.0013986746780574322,-0.019117318093776703,-0.004154202528297901,-0.0213590320199728,-0.05327049080284597,-0.009443427436053753,0.026490645483136177
23,-0.002905942965298891,0.0010768906213343143,0.015488562174141407,0.010063648223876953,0.008734112605452538,0.004285684321075678,0.03422051668167114,0.0402539180759884,0.0242476649582386,0.007987086661159992
24,0.02589285559952259,0.02833668887615204,0.004857755731791258,0.0023451060988008976,0.006410008762031794,0.004939024802297354,0.011809478513896465,-0.01585299523064481,-0.01598825678229332,0.041850652545690536
25,0.015063056722283363,-0.03438286483287811,0.019875358790159225,0.00245738890953362,-0.019478702917695045,0.0009650830179452896,-0.0299642626196146,-0.02997084115133788,-0.034174587577581406,0.03667914867401123
26,-0.0019120778888463974,-0.014310584403574467,0.01575157232582569,-0.008377309888601303,-0.0193876251578331,-0.0021481593139469624,0.018685616552829742,-0.016940260446056014,-0.012175341136753559,0.013584226369857788
27,0.0020169694907963276,-0.03506450727581978,0.003535548225045204,-0.006261294707655907,-0.019234444946050644,-0.0052370596677064896,0.010091880336403847,-0.02801021116205339,7.872306741774082e-05,0.012877467088401318
28,-0.002905942965298891,0.0010768906213343143,0.015488562174141407,0.010063648223876953,0.008734112605452538,0.004285684321075678,0.03422051668167114,0.0402539180759884,0.0242476649582386,0.007987086661159992
29,0.014394769445061684,-0.019468244165182114,-0.00038505508564412594,0.00719979265704751,-0.0069760228507220745,0.0029334966093301773,-0.036063723266124725,-0.003532285077811538,-0.03197851404547691,0.033686380833387375
30,0.013480830937623978,0.00960876327008009,0.011522154323756695,0.002232811413705349,-0.00016198353841900826,0.00547911087051034,0.006727220956236124,-0.01092167066434625,0.00746831763535738,0.03325396031141281
31,0.0079724146053195,-0.03164301812648773,0.010406258516013622,-0.0021617512684315443,-0.013469027355313301,0.0012710902374237776,0.018510453402996063,-0.029992065234863828,0.0066715567372739315,0.013477939181029797
32,-0.003766814712435007,-0.020481321960687637,0.002080989768728614,-0.015671228989958763,-0.021477507427334785,-0.010874642059206963,0.013525907881557941,-0.04981259099865774,0.010256302542984486,0.004662455525249243
33,-0.011897005140781403,0.0002192764077335596,-0.0033244043588638306,-0.012208175845444202,-0.015029340982437134,-0.006258878856897354,0.015755608677864075,0.00788475133757589,0.01514509692788124,0.001869295141659677
34,0.020509913563728333,-0.004519626032561064,0.008897660300135612,0.01116624940186739,0.005586368963122368,0.00872746855020523,-0.0012594768777489662,0.004841416276080762,-0.012361230328679085,0.07532171905040741
35,0.01091921894724163,0.005566957361114771,-0.047868342260517824,-0.011826191072985106,-0.013598993171578465,-0.012800119269250194,0.015337593658672637,-0.01551638794565744,-0.04400295957827328,-0.013278205996993584
36,0.004475337453186512,-0.009617874398827553,0.0029120314866304398,-0.013440023176372051,-0.02023126184940338,-0.008447029627859592,0.001088661141693592,-0.01274256340940626,-0.003513679141178727,0.014897729270160198
37,0.025047261267900467,-0.04282659664750099,0.023542052134871483,0.010747067630290985,-0.007836111821234226,0.007841171696782112,-0.01676352694630623,-0.002894091540406797,-0.020452845841646194,0.03544047474861145
38,-0.00796356052160263,-0.02817174792289734,0.011665643192827702,-0.015911923721432686,-0.021165115758776665,-0.008533874526619911,0.05082891508936882,-0.039583576487792455,0.019412681460380554,-0.00451747328042984
39,0.0034300698898732662,-0.029044093564152718,-0.00032609712798148394,-0.014895069412887096,-0.02337920106947422,-0.008554456755518913,0.028779271990060806,-0.04144363679339216,0.005094834137707949,-0.0018882742151618004
40,0.002399883233010769,-0.01955045759677887,0.02422891929745674,-0.00647327583283186,-0.019524158909916878,0.0012250530999153852,0.023484159260988235,-0.013702477241715898,-0.01699291169643402,0.022491492331027985
41,0.008270633406937122,0.007191421464085579,-0.01769135519862175,0.00018522050231695175,-0.00801828783005476,0.0043116300366818905,-3.620237112045288e-05,-0.03618802116366679,-0.02177930250763893,0.012037398293614388
42,-0.009649436920881271,-0.037921302020549774,0.010391338728368282,-0.024570444598793983,-0.031131524592638016,-0.012807061895728111,0.056365035474300385,-0.06619607353025389,0.01780102401971817,-0.008685663342475891
43,0.030201103538274765,-0.05827179178595543,0.026920044794678688,0.005455956794321537,-0.010524646379053593,0.00695356260985136,-0.01965773105621338,0.0013001756276619508,-0.01859779842197895,0.038768470287323
44,-0.005857683718204498,-0.0061661675572395325,-0.003705279901623726,-0.005693542771041393,-0.00929725170135498,-0.004263298120349646,4.154210910201073e-05,-0.0008178226764404433,-0.0049128299579024315,0.002031701384112239
45,0.0019492345632218452,-0.03278681005555022,0.01950807866926551,0.011018880640766122,0.012250159750910842,0.007230331002642993,-0.029019923555375388,-0.002386406087809975,-0.0251869586303379,-0.009174715268619816
46,-0.0033755325712263584,-0.02947091870009899,-0.006057399790734053,-0.01825493574142456,-0.026268895715475082,-0.007489842362701893,0.03685106337070465,-0.05722601425764881,0.00358827062882483,-0.00034145149402320385
47,0.05082026869058609,-0.0014338809996843338,0.013648166321218014,0.02875256910920143,0.006388572044670582,0.02721966616809368,-0.02052769809961319,-0.03758302788329342,-0.040573496371507645,0.08091098815202713
48,-0.0017906127031892538,-0.014369586482644081,0.005934514105319977,-0.010491943918168545,-0.01799432933330536,-0.005861505400389433,0.029931742697954178,-0.03656200498627483,0.01197720319032669,-0.001163420849479735
49,-0.030293524265289307,0.005120937712490559,0.07117052376270294,0.0014062109403312206,-0.008244497701525688,-0.016147583723068237,0.07738294452428818,0.018053655756685646,0.0008661709725856781,-0.027016595005989075
50,-0.005153775680810213,-0.011922502890229225,0.013789490796625614,-0.0014810515567660332,-0.004554432351142168,-0.001411897363141179,0.04160202294588089,0.004770587145684676,0.022098779678344727,0.002429503947496414
51,0.00401911698281765,0.08139470964670181,-0.051305364817380905,0.014041242189705372,0.008830900304019451,0.02173926681280136,-0.025129856541752815,-0.05449496763223402,0.00685321819037199,0.01498495414853096
52,0.016981635242700577,0.006438756361603737,0.011045683175325394,0.004358125384896994,-0.00872163474559784,0.0022812848910689354,-0.023038053885102272,-0.02148947721225615,-0.016846776008605957,0.03372284770011902
53,-0.0037100561894476414,-0.0336436852812767,0.008839249610900879,-0.014141024090349674,-0.022495897486805916,-0.006245792377740145,0.046219997107982635,-0.05139771365057283,0.015046671032905579,0.0005739267216995358
54,-0.0062776911072432995,-0.01842220313847065,0.012939948588609695,-0.007253400515764952,-0.011198705062270164,-0.00426068902015686,0.04529278352856636,-0.012971078603588766,0.021024338901042938,-0.00034928566310554743
55,-0.0008473929483443499,-0.019434025511145592,0.007031614892184734,-0.009711235761642456,-0.01960141584277153,-0.001404542475938797,0.032356973737478256,-0.044241531319031344,0.004017688799649477,0.008682625368237495
56,0.011691151186823845,-0.015506564639508724,-0.012032002210617065,0.0036406484432518482,-0.0013741636648774147,0.0030866803135722876,0.020634256303310394,-0.022731342439050964,-0.0058539132587611675,0.008348972536623478
57,-0.04529687017202377,0.054374564439058304,-0.011734922416508198,-0.019404157996177673,-0.00629340298473835,-0.02549666352570057,0.018800020217895508,0.05661926993865272,0.012832367792725563,-0.042348988354206085
58,0.0015072341775521636,0.01209717895835638,0.008130347356200218,0.0023664445616304874,-0.007340471260249615,0.003968619741499424,-0.009419484063982964,0.027946695629617144,-0.0072103566490113735,0.04706169292330742
59,-0.002905942965298891,0.0010768906213343143,0.015488562174141407,0.010063648223876953,0.008734112605452538,0.004285684321075678,0.03422051668167114,0.0402539180759884,0.0242476649582386,0.007987086661159992
60,-0.012950500473380089,9.369826875627041e-05,0.002968959975987673,-0.019167844206094742,-0.008835993707180023,-0.02086063101887703,0.021316377446055412,-0.03739655293228384,0.04551686346530914,-0.013861216604709625
61,0.01207753736525774,-0.01753745786845684,0.013356907293200493,9.420246351510286e-05,-0.011837073601782322,0.004016217775642872,0.007411806844174862,-0.003156622563662022,-0.02213328704237938,0.028402529656887054
62,0.043845247477293015,-0.06026870757341385,0.029999086633324623,0.020281290635466576,-0.0011572232469916344,0.013704532757401466,-0.06075811758637428,0.024142045470196067,-0.0353643037378788,0.058066777884960175
63,0.008524119853973389,-0.03865954279899597,0.013701013289391994,-0.0008415633346885443,-0.01844031549990177,0.000719205942004919,-0.01559451688081026,-0.04111905292941835,-0.015761401504278183,0.025330068543553352
64,0.012839773669838905,-0.019192900508642197,0.0016121435910463333,-0.0022617075592279434,-0.010293305851519108,0.002113747177645564,0.00443745544180274,-0.024321239323293102,-0.007873231545090675,0.02866695262491703
65,0.005771630443632603,-5.136383697390556e-05,0.02677753008902073,0.010843771509826183,0.00040866032941266894,0.009771428070962429,0.012411903589963913,0.03952251943786127,-0.013769594021141529,0.03082786500453949
66,-0.006652331445366144,-0.020588763058185577,0.012656770646572113,-0.009177515283226967,-0.013413462787866592,-0.005210285075008869,0.04652303457260132,-0.01888496588505865,0.02066619321703911,-0.0012755519710481167
67,-0.009649436920881271,-0.037921302020549774,0.010391340591013432,-0.024570444598793983,-0.031131524592638016,-0.01280706375837326,0.056365031749010086,-0.06619607528316598,0.01780102401971817,-0.008685663342475891
68,0.0035361910704523325,0.013741492293775082,0.0026991639751940966,-0.007877537049353123,-0.011018630117177963,-0.004515370354056358,-0.00039519183337688446,0.009257328354826901,-0.0059307110495865345,0.03697994723916054
69,0.00016939197666943073,-0.03182074427604675,0.011160417459905148,-0.01257120817899704,-0.02049356698989868,-0.00502946600317955,0.03374004364013672,-0.04016523039562177,0.010240505449473858,0.00430553313344717
70,0.006288830656558275,-0.010754169896245003,0.016392478719353676,-0.0012355606304481626,-0.008525796234607697,0.00023869145661592484,-0.022855021059513092,0.007860713975129097,-0.022353004664182663,0.009545679204165936
71,-0.005648122169077396,-0.021742697805166245,0.017533332109451294,-0.006494350731372833,-0.017804160714149475,-0.005656145047396421,0.02738209068775177,-0.033360160383196474,0.0016329928766936064,0.0017402085941284895
72,0.015803378075361252,-0.027975134551525116,0.002938334597274661,0.006190890446305275,-0.005410672165453434,0.005355105269700289,0.011751098558306694,-0.0062549842540281795,-0.008709372952580452,0.059507813304662704
73,0.0148779833689332,-1.7444603145122528e-05,-0.028228363022208214,0.005007356405258179,-0.003926021978259087,0.008669191971421242,-0.009547851979732513,-0.015134076881965414,-0.02616932988166809,0.03151663765311241
74,0.01001371257007122,-0.01820681057870388,0.004962683189660311,-0.0035983589477837086,-0.017261356115341187,-0.00501535227522254,-0.02210184931755066,-0.028890351470500134,-0.006615908816456795,0.017239980399608612
75,-0.0016861503245308995,-0.012484855949878693,-0.006816968321800232,-0.006934407167136669,-0.011414671316742897,-0.0004491601139307022,0.009563586674630642,0.018811978481225546,0.016567355021834373,0.00948136206716299
76,-0.0005898435483686626,-0.014681966044008732,0.01790793612599373,-0.004904754459857941,-0.01423817127943039,0.0008671372197568417,0.02451377362012863,-0.012993649991752836,-0.009706997312605381,0.028341548517346382
77,0.01444919966161251,-0.0011796196922659874,0.038066502660512924,0.011623894795775414,-0.007916792295873165,0.015257169492542744,-0.009396718814969063,0.038791119577220395,-0.05178684741258621,0.053668636828660965
78,-0.008091326802968979,-0.034631237387657166,0.01182167511433363,-0.023246996104717255,-0.030036911368370056,-0.011653080582618713,0.053021226078271866,-0.06205587213506487,0.014050021767616272,-0.005960596725344658
79,-0.010050380602478981,-0.0009573365096002817,0.003184855915606022,-0.009681403636932373,-0.008304561488330364,0.0003495060373097658,0.02720845490694046,-0.007980005367618961,-0.00030960142612457275,-0.0003408883058000356
80,0.01265980489552021,-0.024634674191474915,0.001921644201502204,0.010775862261652946,-0.008106901310384274,0.010173303075134754,0.014049030840396881,-0.048479447597028553,-0.0024536186829209328,0.020568303763866425
81,-0.052849259573955844,-0.012606882301985398,0.002153300302323266,-0.011861892870026237,-0.006578188417328184,-0.008595553826295899,-0.015348352115794972,-0.03826378414446957,0.016134594627323556,-0.026921427146400386
82,0.03021273948252201,-0.02359938621520996,0.009870934300124645,0.01039836835116148,-0.006378821562975645,0.007654197514057159,-0.04759560152888298,0.01580504330085194,-0.030817102640867233,0.03917776793241501
83,-0.0183546282351017,0.022538214921951294,-0.0014566287863999605,-0.014131084084510803,-0.0037327390164136887,-0.011740738525986671,-0.02806045114994049,-0.014472526540051496,-0.031444817781448364,-0.028719864785671234
84,-0.005153775215148926,-0.011922502890229225,0.013789490796625614,-0.0014810515567660332,-0.004554432351142168,-0.001411897363141179,0.04160202294588089,0.004770587145684676,0.022098779678344727,0.002429503947496414
85,-0.00297840079292655,-0.028398767113685608,0.01349752675741911,-0.015101101249456406,-0.020969495177268982,-0.008219476789236069,0.03706667572259903,-0.04226954038552384,0.008076481521129608,0.003915573935955763
86,0.01574786938726902,0.023473164066672325,0.010576616041362286,0.006909470073878765,0.0019263798603788018,0.011521012522280216,0.002164615551009774,0.03246370512628395,-0.015303385443985462,0.01153972465544939
87,0.009872263297438622,-0.019728489220142365,0.013859615661203861,0.0008650375530123711,-0.011019216850399971,0.00500235240906477,0.012832589447498322,-0.015384554605114013,-0.00463493587449193,0.0211569145321846
88,-0.008703043684363365,-0.014474194496870041,0.01363454945385456,-0.011479735374450684,-0.015067330561578274,-0.013906717300415039,0.04315899312496185,-0.05380517505028109,0.014465229585766792,0.00240334402769804
89,-0.009649436920881271,-0.037921302020549774,0.010391338728368282,-0.024570444598793983,-0.031131524592638016,-0.012807061895728111,0.05636502802371979,-0.06619607614802672,0.017801018431782722,-0.008685661479830742
90,0.025490080937743187,0.025320667773485184,-0.0009391844505444169,0.0005805259570479393,-0.0045458730310201645,0.009574110619723797,-0.024333003908395767,0.002004290009783184,-0.03779047355055809,0.06653126329183578
91,0.002634106669574976,0.06533113121986389,-0.03794657438993454,0.013245722278952599,0.00881154090166092,0.018248554319143295,-0.013259777799248695,-0.03554519022680522,0.010332100093364716,0.013585379347205162
92,-0.049639564007520676,0.04647984355688095,0.00015577394515275955,-0.04297109693288803,-0.00832483172416687,-0.03983978554606438,0.05210590362548828,-0.04072912842284139,0.09662388265132904,-0.0557808056473732
93,0.00401911698281765,0.08139470964670181,-0.051305364817380905,0.014041242189705372,0.008830900304019451,0.02173926681280136,-0.025129856541752815,-0.05449496763223402,0.00685321819037199,0.01498495414853096
94,-0.002905942965298891,0.0010768906213343143,0.015488562174141407,0.010063648223876953,0.008734112605452538,0.004285684321075678,0.03422051668167114,0.0402539180759884,0.0242476649582386,0.007987086661159992
95,-0.002905942965298891,0.0010768906213343143,0.015488562174141407,0.010063648223876953,0.008734112605452538,0.004285684321075678,0.03422051668167114,0.0402539180759884,0.0242476649582386,0.007987086661159992
96,-0.0062776911072432995,-0.01842220313847065,0.012939948588609695,-0.007253400515764952,-0.011198705062270164,-0.00426068902015686,0.04529278352856636,-0.012971078603588766,0.021024338901042938,-0.0003492854302749038
97,-0.00017793592996895313,-0.01969224587082863,-0.003207529429346323,-0.013022064231336117,-0.02178047224879265,-0.0017558595864102244,0.03376789018511772,-0.05384881381001909,0.009563742205500603,0.0040678950026631355
98,0.017845941707491875,-0.01003822311758995,0.014757296070456505,0.010042697191238403,-0.011040511541068554,0.008291272446513176,-0.034567780792713165,0.005889070038947928,-0.04733496159315109,0.045509155839681625
99,0.004911680705845356,-0.005089526064693928,0.003995124250650406,-0.000791006488725543,-0.00483867060393095,0.0037577166222035885,0.00846637599170208,0.00793154789356547,-0.011732080020010471,0.056532226502895355
100,0.012255201116204262,-0.025618351995944977,0.0011973502114415169,-0.0009991924744099379,-0.0232697743922472,-0.0070042796432971954,-0.05735265091061592,-0.05742438918208022,-0.015517260879278183,0.01984258182346821
101,0.01021497044712305,0.015743419528007507,0.025198545306921005,0.005867287050932646,0.0045602149330079556,0.009555371478199959,-0.0022318465635180473,0.03863944458885914,0.003923757933080196,0.021679088473320007
102,0.036193136125802994,0.002537657506763935,0.03905746713280678,0.020708313211798668,0.014468872919678688,0.022135764360427856,-0.00045470590703189373,0.02135687714045755,-0.010374076664447784,0.0391826406121254
103,0.017559314146637917,-0.010380360297858715,0.01644884981215,0.0077251289039850235,-0.0024103582836687565,0.0066702705807983875,-0.031052259728312492,-0.022020793043533292,-0.028341805562376976,0.05564276501536369
104,0.0036157341673970222,-0.015517126768827438,0.016179554164409637,-0.004068304318934679,-0.013888826593756676,1.588277518749237e-05,0.020334769040346146,0.0015509692402482511,-8.69855284690857e-06,0.011580665595829487
105,-0.0060331374406814575,-0.04661496356129646,-9.130872786045074e-05,-0.002553322585299611,-0.018993467092514038,-0.011148889549076557,-0.0039833663031458855,-0.0559955282283773,-0.006733582820743322,0.0038922401145100594
106,-0.006237809080630541,-0.021859392523765564,0.00928958598524332,-0.014058193191885948,-0.020380107685923576,-0.006107721012085676,0.043795038014650345,-0.04054676366948205,0.014201272279024124,-0.0006831219652667642
107,-0.011153214611113071,0.012147017754614353,-0.013710501603782177,-0.012048853561282158,-0.006301274988800287,-0.008566204458475113,0.0014695115387439728,-0.009615037084435306,0.010374091565608978,-0.005477460566908121
108,0.00036104791797697544,0.0006948728114366531,0.007486335001885891,-0.012671815231442451,-0.0174318328499794,-0.0061780186370015144,0.00023551937192678452,-0.02198089054065405,0.008937278762459755,0.018029602244496346
109,-0.013261585496366024,-0.020707955583930016,0.009088140912353992,-0.01835673488676548,-0.020732056349515915,-0.009112516418099403,0.044536881148815155,-0.04145518705131368,0.01139333751052618,-0.007098487112671137
110,-0.005153775680810213,-0.011922502890229225,0.013789490796625614,-0.0014810515567660332,-0.004554432351142168,-0.001411897363141179,0.04160202294588089,0.004770587145684676,0.022098779678344727,0.002429503947496414
111,-0.007401605136692524,-0.024921899661421776,0.012090415693819523,-0.01302574947476387,-0.017842980101704597,-0.007109480910003185,0.048983532935380936,-0.030712744700779854,0.0199498999863863,-0.0031280789989978075
112,0.009630927816033363,0.004254016559571028,-0.00401902524754405,-0.009123610332608223,-0.001376098720356822,0.00295468932017684,0.027134383097290993,0.008318911877243845,-0.025895074009895325,0.0514615997672081
113,-0.01455379743129015,0.02562529221177101,-0.002511894330382347,-0.006634326186031103,0.0009553386480547488,0.0041853757575154305,0.018860071897506714,0.018858375490134048,-0.0045909397304058075,-0.0011980951530858874
114,-0.008459406904876232,-0.03103925846517086,0.01129085011780262,-0.018458547070622444,-0.02409641444683075,-0.0097906943410635,0.05245717987418175,-0.04741078647393171,0.018938668072223663,-0.0057434095069766045
115,-0.03532450646162033,0.03803873062133789,-0.0018495181575417519,-0.03440200537443161,-0.008929678238928318,-0.02985450252890587,0.045484233647584915,-0.022841444752230704,0.07003907114267349,-0.04229382798075676
116,0.009461912326514721,-0.014820873737335205,0.027808712795376778,0.003376141656190157,-0.0133866798132658,0.0065783229656517506,-0.0003868087660521269,0.00551887771414428,-0.0312504917383194,0.03642730414867401
117,-0.009649436920881271,-0.037921302020549774,0.010391340591013432,-0.024570444598793983,-0.031131524592638016,-0.01280706375837326,0.056365031749010086,-0.06619607528316598,0.01780102401971817,-0.008685663342475891
118,0.020472651347517967,0.004789859056472778,-0.013132876716554165,-0.004251924343407154,-0.01228528842329979,0.00011624535545706749,-0.04691140726208687,0.008652105573118284,-0.01896556094288826,0.01702973060309887
119,-0.009649436920881271,-0.037921302020549774,0.010391340591013432,-0.024570444598793983,-0.031131524592638016,-0.01280706375837326,0.056365031749010086,-0.06619607528316598,0.01780102401971817,-0.008685663342475891
120,-0.026272756978869438,0.023778365924954414,0.007822167128324509,-0.016453726217150688,0.0002046399749815464,-0.01777704991400242,0.04316321387887001,-0.0002376060007926034,0.06043577566742897,-0.02389685809612274
121,0.011775190010666847,-0.02393699809908867,0.005474727600812912,0.011915089562535286,-0.004898147191852331,0.006655895616859198,-0.013284820131957531,0.007783383285029172,-0.005890543572604656,0.030775178223848343
122,0.0037224204279482365,-0.0009560519829392433,0.00597694655880332,-0.004187718965113163,-0.0070293135941028595,0.0005279844626784325,0.017498847097158432,-0.01024997285238451,-0.00038714148104190826,0.03430839255452156
123,-0.029996344819664955,0.010438536293804646,0.0061403545551002026,-0.03175432235002518,-0.01642483100295067,-0.02562633901834488,0.05069064348936081,-0.044350904098338674,0.05781560763716698,-0.03100508078932762
124,0.006273520179092884,0.0038028405979275703,0.0004735290422104299,0.0031231013126671314,-0.0006163865327835083,0.0066953240893781185,0.001900265458971262,0.013874978950559624,-0.01288878545165062,0.06005118414759636
125,-0.007683528587222099,-0.014115791767835617,-0.010777498595416546,-0.017414523288607597,-0.015817303210496902,-0.007609921973198652,0.019642217084765434,-0.021227676392825058,0.005623494740575552,-0.008973012678325176
126,-0.00018687552073970437,-0.03127440810203552,0.006578964646905661,-0.005614131689071655,-0.01762658730149269,-0.0026086275465786457,0.017947861924767494,-0.03073119865320171,0.0012236125767230988,0.005926108919084072
127,0.01184867974370718,0.039207689464092255,-0.06915681064128876,-0.0038549834862351418,-0.022493883967399597,0.005626310594379902,-0.038909729570150375,0.04436592631191802,-0.03498142212629318,0.05580379441380501
128,0.021384689956903458,-0.004136131145060062,0.009061174467206001,0.009332103654742241,-0.011522429063916206,0.012075156904757023,0.009265640750527382,-0.021889549116325752,-0.021653972566127777,0.02956226095557213
129,-0.009649436920881271,-0.037921302020549774,0.010391340591013432,-0.024570444598793983,-0.031131524592638016,-0.01280706375837326,0.056365031749010086,-0.06619607528316598,0.01780102401971817,-0.008685663342475891
130,-0.010226208716630936,0.005459259729832411,-0.014438474550843239,-0.012548910453915596,-0.013266509398818016,-0.011757072061300278,-0.018769174814224243,-0.015172267298122618,-0.0024200575426220894,-0.004226379096508026
131,-0.00796356052160263,-0.02817174792289734,0.011665643192827702,-0.015911923721432686,-0.021165115758776665,-0.008533874526619911,0.05082891508936882,-0.039583576487792455,0.019412681460380554,-0.00451747328042984
132,0.017072392057355234,-0.01728584764874718,-0.026314258894812426,0.001604160619396327,0.0011833497700156864,0.000650615669225453,-0.02304210629211553,-0.04439104346859828,-0.020187081906891592,0.018808138133936995
133,-0.010496909730136395,0.000537073821760714,-0.020395059138536453,-0.007563767489045858,-0.0070805237628519535,-0.005990874022245407,0.003733184887096286,0.01099346249964665,0.005298693664371967,-0.006897646933794022
134,0.007904984056949615,-0.022013649344444275,0.013227086514234543,0.003823471488431096,-0.00882010068744421,0.005753799341619015,-0.004320469219237566,-5.447489925432258e-07,-0.005174553953111172,0.03300344571471214
135,0.023538392037153244,0.01683082804083824,-0.009765051305294037,-0.005260947160422802,-0.014096620492637157,0.0024931649677455425,-0.021471578627824783,-0.015970132260321755,-0.011449262499809265,0.03689250722527504
136,0.019735973328351974,0.04077238589525223,-0.0013317554257810116,-0.01368550956249237,-0.010041888803243637,-0.002571755088865757,-0.039229221642017365,-0.0034927192314434183,-0.0007216340745799243,0.024828040972352028
137,-0.0009180816123262048,-0.028794236481189728,-2.2726599127054214e-05,-0.01361134648323059,-0.022030547261238098,-0.005975800566375256,0.027581095695495605,-0.03391530712166888,0.0035433233715593815,0.0038656643591821194
138,-0.009036388248205185,-0.034376002848148346,0.010854726657271385,-0.021421892568469048,-0.027507375925779343,-0.011253176257014275,0.05435189977288246,-0.05651880371437036,0.018387073650956154,-0.007169957738369703
139,0.021296672523021698,0.00971744954586029,0.017038505524396896,0.012210044078528881,0.0043076034635305405,0.010962100699543953,0.009982645511627197,0.019748492562715103,-0.007986200042068958,0.030851149931550026
140,0.017335076270779164,0.000736148020159583,-0.008026004319280116,-0.0043529532065599355,0.0031633978867748615,-0.005160955927742196,-0.004240717164871853,-0.02486417291909509,-0.02290678913045061,0.012075650874841781
141,-0.002924976171925664,-0.018687749281525612,0.01606198586523533,-0.01038987748324871,-0.01643645390868187,-0.003888010513037443,0.03961082920432091,-0.025960560258001315,0.0077715907245874405,0.009698878042399883
142,0.012429025024175644,0.006480429321527481,-0.0032184692099690437,0.0069379182532429695,-0.008642405271530151,0.0036170482635498047,-0.018909649923443794,-0.004791888955483072,0.009985299780964851,0.01829259656369686
143,-0.0034122292418032885,-0.016848793253302574,0.010277771390974522,-0.011330947279930115,-0.019653569906949997,-0.0030100136063992977,0.03498658910393715,-0.0363664884787723,0.0047394889406859875,0.006319065578281879
144,-0.002905942965298891,0.0010768906213343143,0.015488562174141407,0.010063648223876953,0.008734112605452538,0.004285684321075678,0.03422051668167114,0.0402539180759884,0.0242476649582386,0.007987086661159992
145,-0.005583673249930143,-0.03131280094385147,0.0010006905067712069,-0.01798054948449135,-0.02847462147474289,-0.012568817473948002,0.02246602438390255,-0.05750696114933948,0.010514456778764725,0.0003433710662648082
146,0.01817977987229824,-0.03473525494337082,0.012903627008199692,0.012305008247494698,-0.008648976683616638,0.0009410157799720764,-0.04947492107748985,-0.019997659245005198,-0.02268235571682453,0.035131387412548065
147,0.004656460136175156,0.016273921355605125,-0.02875181846320629,-0.006680715829133987,-0.014679456129670143,0.0021146840881556273,0.0033992116805166006,-0.031147867372984184,-0.009619742631912231,0.014458034187555313
148,0.011520511470735073,-0.007055898662656546,0.002865907736122608,4.425121005624533e-05,-0.013175992295145988,0.0033024363219738007,-0.00988343358039856,-0.027523669105257872,-0.024769704788923264,0.03441433981060982
149,-0.0038251541554927826,-0.012140944600105286,0.01961296796798706,-0.00826670415699482,-0.014848452061414719,-0.0028562527149915695,0.030398771166801453,-0.011336431440585822,0.002248072065412998,0.010953303426504135
150,-0.005796011071652174,-0.015636611729860306,0.013304042629897594,-0.004779535345733166,-0.008351159282028675,-0.00303977751173079,0.04371102899312973,-0.005367508112803281,0.021484816446900368,0.0008416238706558943
151,0.02259458415210247,0.04188215360045433,0.0091525474563241,0.002959243021905422,-0.0022188914008438587,0.008129782043397427,-0.04689135402441025,0.010467550708370861,-0.054089177399873734,0.08166446536779404
152,0.0024927309714257717,-0.01654626801609993,0.02008550986647606,0.005444002337753773,-0.004052307456731796,0.0066714221611619,0.012741015292704105,0.000562008136280023,-0.004365024622529745,0.018099084496498108
153,0.012848315760493279,-0.023248760029673576,0.002434441586956382,0.00041613588109612465,-0.01598682813346386,-0.0005522142164409161,0.005291172303259373,-0.02332516745470445,-0.01741238497197628,0.01630927436053753
154,0.03360677907622124,-0.015710151149002594,0.041041799126847134,-0.011817526862903395,-0.008263506234026623,-0.003109347836325138,-0.0005122358563217551,0.053388327098161686,-0.04147190603280373,-0.02282728680767222
155,0.015838006511330605,-0.033211350440979004,0.0061309076845645905,-0.002664191648364067,-0.019573241472244263,-0.0033414096105843782,-0.03442807495594025,-0.03887043563549333,-0.019562190398573875,0.023572886362671852
156,0.016740258783102036,-0.030703634023666382,-0.0038939802907407284,-0.0038530826568603516,-0.020016957074403763,-0.002401655539870262,-0.03204963356256485,-0.07629756614413985,-0.03273183852434158,0.024980347603559494
157,0.04313987120985985,0.016307193785905838,0.004176844842731953,0.020011022686958313,0.011436007916927338,0.01562410220503807,0.012102678418159485,-0.029929562984197695,0.004381130449473858,0.039981696754693985
158,0.004248836077749729,-0.03471137955784798,0.007149443030357361,-0.004803343676030636,-0.017329435795545578,-0.001005317084491253,0.026268241927027702,-0.0466060094373795,0.006402237806469202,0.012218141928315163
159,0.0024709212593734264,-0.0030540579464286566,0.007175924256443977,-0.0021366626024246216,-0.013751490041613579,0.0071800472214818,0.0047446563839912415,0.0033138285603789425,-0.024431046098470688,0.023669200018048286
160,0.003934796899557114,-0.014421645551919937,0.016382932662963867,-0.002965778112411499,-0.015311278402805328,0.0026482874527573586,0.01920645497739315,-0.004482596898681972,-0.015897516161203384,0.021891746670007706
161,-0.009649436920881271,-0.037921302020549774,0.010391340591013432,-0.024570444598793983,-0.031131524592638016,-0.01280706375837326,0.056365031749010086,-0.06619607528316598,0.01780102401971817,-0.008685663342475891
162,0.02747185155749321,0.016489308327436447,0.015040948055684566,0.010810468345880508,0.006494565866887569,0.02009539119899273,-0.012110226787626743,-0.04628374393141934,-0.055805739015340805,0.07607726752758026
163,-0.013592985458672047,-0.00759474840015173,0.014324609190225601,-0.012191114947199821,-0.012988398782908916,-0.005801941733807325,0.04403733089566231,-0.03552536515880593,0.02207784727215767,-0.0012196365278214216
164,-0.010270163416862488,-0.00589163601398468,0.00078220060095191,-0.01724856160581112,-0.013827568851411343,-0.010390784591436386,0.028822822496294975,-0.006848755973431181,0.024331770837306976,-0.0014915189240127802
165,0.01113838516175747,-0.022949663922190666,0.0049590147100389,0.011932525783777237,-0.00090683379676193,0.010157378390431404,0.020857416093349457,-0.014401810531322647,0.008160809054970741,0.023722900077700615
166,0.019133087247610092,-0.025698546320199966,0.006695123389363289,0.005418786313384771,-0.014451623894274235,0.0014779958873987198,-0.04549737274646759,-0.030606566286120004,-0.010598902590572834,0.02919197455048561
167,-0.0032074972987174988,-0.011022909544408321,0.010038158856332302,-0.01216124091297388,-0.013804570771753788,-0.008681461215019226,0.019884614273905754,-0.0405083828306986,0.021173100918531418,0.0022071197163313627
168,0.012933542020618916,0.0015899604186415672,-0.042413998395204544,0.003962854854762554,-0.014574464410543442,0.00545740220695734,-0.029535138979554176,0.018930368976557366,-0.034307241439819336,0.03171888366341591
169,-0.0034038759768009186,0.02344772219657898,-0.017943795770406723,-0.007440308574587107,-0.0021839221008121967,-0.002799576846882701,0.0018537011928856373,0.04403587363813615,-0.009147676639258862,0.011176949366927147
170,-0.002905942965298891,0.0010768906213343143,0.015488562174141407,0.010063648223876953,0.008734112605452538,0.004285684321075678,0.03422051668167114,0.0402539180759884,0.0242476649582386,0.007987086661159992
171,0.005465686786919832,-0.014615881256759167,0.014249004423618317,-0.0038759305607527494,-0.012706350535154343,-0.0002969219349324703,-0.00367596629075706,-0.011825193927495281,-0.010815857909619808,0.022211521863937378
172,-0.0062776911072432995,-0.01842220313847065,0.012939948588609695,-0.007253400515764952,-0.011198705062270164,-0.00426068902015686,0.04529278352856636,-0.012971078603588766,0.021024338901042938,-0.0003492854302749038
173,0.013109009712934494,-0.03405334800481796,0.018846169114112854,-0.0001936673652380705,-0.017273347824811935,0.0026368959806859493,-0.0029908649157732725,-0.0190033611235364,-0.01991075463593006,0.027106544002890587
174,-0.009649436920881271,-0.037921302020549774,0.010391340591013432,-0.024570444598793983,-0.031131524592638016,-0.01280706375837326,0.056365031749010086,-0.06619607528316598,0.01780102401971817,-0.008685663342475891
175,0.013650917448103428,-0.008570495992898941,0.005938578397035599,-0.011785958893597126,-0.02904876321554184,-0.009468729607760906,-0.06078924611210823,-0.0407011666042199,-0.01970916986465454,0.016436681151390076
176,0.016873862594366074,-0.009677805937826633,0.00728161446750164,0.0042080627754330635,-0.006928639952093363,0.00525885634124279,-0.007527262903749943,-0.012417541707736169,-0.016021139919757843,0.0522942915558815
177,-0.0030791163444519043,-0.021602533757686615,0.013122324831783772,-0.015042969025671482,-0.024923671036958694,-0.007449517026543617,0.035104308277368546,-0.05349623213198335,0.008615375496447086,-0.00022893032291904092
178,0.0006926720961928368,0.010714780539274216,-0.03725169599056244,-0.01567685231566429,-0.0267808735370636,-0.0018769917078316212,0.008535018190741539,-0.018855276719278682,-0.011267629452049732,0.025320332497358322
179,-0.049639564007520676,0.04647983983159065,0.0001557772047817707,-0.04297109693288803,-0.00832483172416687,-0.03983978554606438,0.05210590362548828,-0.04072913150965532,0.09662388265132904,-0.0557808093726635
180,-0.02904520556330681,-0.0091690793633461,-0.018013130873441696,-0.004114437382668257,-0.014525266364216805,-0.006322567351162434,0.04280124604701996,-0.012855354536955101,0.020670300349593163,-0.0208584051579237
181,0.023014504462480545,0.010268611833453178,-0.0025401990860700607,-0.0017782936338335276,-0.005714594852179289,0.005645141005516052,-0.014618615619838238,0.00010633124209637624,-0.00872854981571436,0.04165196791291237
182,-0.005567029118537903,-0.006258454639464617,-0.0009285585256293416,-0.00992128998041153,-0.015165911987423897,-0.0024792468175292015,0.035637158900499344,-0.04256585389758812,0.016900788992643356,-0.0006169852567836642
183,-0.007795697543770075,-0.035095006227493286,0.0125201977789402,-0.021786265075206757,-0.02934577688574791,-0.010648274794220924,0.051306452602148056,-0.058120134611696836,0.01244810875505209,-0.0038891760632395744
184,0.0018737316131591797,-0.01120411790907383,0.019328219816088676,-0.004267397802323103,-0.014977831393480301,-0.0015119514428079128,0.01017129048705101,-0.009731064845142658,-0.014726733788847923,0.01882600411772728
185,0.012943722307682037,-0.005512614734470844,0.020972656086087227,0.0010821967152878642,-0.007826171815395355,0.0027032846119254827,0.025519751012325287,-0.0450743162509532,-0.005803170148283243,0.03349309414625168
186,0.005610387772321701,-0.015443850308656693,0.007360064424574375,-0.0060853976756334305,-0.015107112936675549,-0.0019693183712661266,0.015990396961569786,-0.032856898377116014,0.0066747162491083145,0.01886880211532116
187,0.0020788635592907667,-0.04121965914964676,0.006155771669000387,-0.01183507964015007,-0.0216025710105896,-0.0033525540493428707,0.033841922879219055,-0.07085613637505421,0.00908157043159008,0.0005641942843794823
188,0.007777128368616104,0.010043534450232983,0.0024964611511677504,0.003421957138925791,0.002429623156785965,0.005580995697528124,-0.008381681516766548,0.00343290371047597,-0.007106756791472435,0.047651201486587524
189,0.0015012642834335566,0.0068582454696297646,-0.012890512123703957,-0.002243450377136469,-0.012308293953537941,-0.007077550515532494,-0.04209006205201149,-0.04722802464508593,0.0001168522285297513,0.010836496949195862
190,0.01886223815381527,-0.016087904572486877,0.002455762354657054,0.010644979774951935,-0.004163660109043121,0.012997917830944061,-0.05286859720945358,-0.00048590984830760436,-0.017524002119898796,0.04675791412591934
191,0.010044298134744167,-0.008246672339737415,-0.012054845690727234,-0.0036917557008564472,-0.016394909471273422,6.253807805478573e-05,0.0010744220344349742,-0.019344454029063964,-0.01793808490037918,0.015974605455994606
192,0.002803254406899214,-0.012463957071304321,0.0010973975295200944,-0.0032703070901334286,-0.004805791191756725,-0.004360458813607693,0.014018295332789421,-0.011827531669891894,0.01047801785171032,0.03856334090232849
193,-0.03752850741147995,0.03353193402290344,-0.0020964322611689568,-0.02154495380818844,-0.00407795887440443,-0.013644902035593987,0.027920344844460487,0.005560913923583152,0.01959839090704918,-0.015359660610556602
194,-0.014365042559802532,-0.0017191700171679258,-0.008503369987010956,-0.01874331757426262,-0.01886802725493908,-0.01611131802201271,-0.009385865181684494,-0.039568690722734806,0.00026907562278211117,-0.013575050979852676
195,-0.009649436920881271,-0.037921302020549774,0.010391338728368282,-0.024570444598793983,-0.031131524592638016,-0.012807061895728111,0.05636502802371979,-0.06619607614802672,0.017801018431782722,-0.008685661479830742
196,-0.012944169342517853,-0.013489644974470139,0.0031970872078090906,-0.0212776530534029,-0.022291161119937897,-0.01187688298523426,0.046575937420129776,-0.05652009743654855,0.026881428435444832,-0.011371850967407227
197,-0.006613582372665405,-0.020634550601243973,0.007469724863767624,-0.01484330091625452,-0.019646845757961273,-0.008391843177378178,0.043530527502298355,-0.05276818427416751,0.01564187929034233,0.0002773780142888427
198,0.019489936530590057,0.03688984364271164,0.012732480652630329,0.009221818298101425,0.009759178385138512,0.013654788956046104,-0.0023819466587156057,-0.0412532765840887,-0.03556548058986664,0.05125990882515907
199,-0.0021904795430600643,0.017578786239027977,-0.0002821130328811705,-0.00828765332698822,-0.00543453823775053,-0.0074167633429169655,0.011961249634623528,-0.01022584121848623,0.01010145340114832,-0.0005293497815728188
200,0.00649638008326292,-0.003650691593065858,0.023158486932516098,0.003491393057629466,-0.007082120515406132,0.00873524695634842,0.009556122124195099,-0.0032367883328286093,-0.01147889532148838,0.03437164053320885
201,0.004408103413879871,-0.01648864895105362,0.02653518319129944,-0.003457078943029046,-0.017589597031474113,0.003563739825040102,0.01800401322543621,-0.00495354379336882,-0.022791899740695953,0.02768768183887005
202,-0.0016355820698663592,-4.2469240725040436e-05,0.013078869320452213,-0.008590994402766228,-0.010281934402883053,0.0016287676990032196,-0.0009541043546050787,-0.008107561625218265,-0.010361838154494762,0.043079789727926254
203,-0.00796356052160263,-0.02817174792289734,0.011665643192827702,-0.015911923721432686,-0.021165115758776665,-0.008533874526619911,0.05082891508936882,-0.039583576487792455,0.019412681460380554,-0.00451747328042984
204,-0.004278060980141163,-0.02613731101155281,0.009885539300739765,-0.01731821335852146,-0.024036411195993423,-0.008778583258390427,0.04244321584701538,-0.04212818550910877,0.011079302988946438,0.0060629649087786674
205,-0.0007541347295045853,-0.01936771161854267,-0.0025818918365985155,-0.016308728605508804,-0.02549184113740921,-0.010113915428519249,0.014733570627868176,-0.06002986756018995,0.009487360715866089,0.003970407880842686
206,-0.0007174236234277487,-0.020474310964345932,0.020296022295951843,-0.00788778718560934,-0.01807786151766777,-0.0011732826242223382,0.03149185702204704,-0.017007010451659556,-0.004535381682217121,0.014322138391435146
207,-0.004684986546635628,0.008151490241289139,-0.013286232016980648,0.00018253710004501045,0.0011818886268883944,-0.0019186248537153006,0.006006925832480192,-0.014617735686482622,0.004325034096837044,-0.012894410640001297
208,0.007819949067242732,-0.005754777149660272,-0.003777451322339671,-0.008152739041902307,-0.0014316073454269205,-0.005053253072283461,-0.03331467739058156,-0.028123181683400077,-0.022038472388330076,0.00650019158766579
209,-0.03444343060255051,-0.0043367804028093815,-0.017073053866624832,-0.043849796056747437,-0.021090805530548096,-0.039201948791742325,0.045722685754299164,-0.020414334652145157,0.032103076577186584,-0.0679490715265274
210,0.0096425861120224,0.07004295289516449,-0.03903033211827278,0.013762565329670906,0.005917997099459171,0.018648620694875717,-0.006753356195986271,-0.06218702161468358,0.008639792911708355,0.009841252118349075
211,0.0017278604209423065,-0.0034086224623024464,-0.0013059830525889993,-0.003939986228942871,-0.01923450268805027,-0.011124180629849434,-0.04153770953416824,-0.061635640991185875,-0.01371898502111435,0.008338825777173042
212,-0.009649436920881271,-0.037921302020549774,0.010391338728368282,-0.024570444598793983,-0.031131524592638016,-0.012807061895728111,0.05636502802371979,-0.06619607614802672,0.017801018431782722,-0.008685661479830742
213,0.009562894701957703,-0.006947704590857029,-0.009559177793562412,-0.010256055742502213,-0.023617438971996307,-0.007710627745836973,-0.0453684963285923,-0.07948873727840242,-0.013599179685115814,0.010659884661436081
214,0.023257795721292496,-0.03811461478471756,0.026202552020549774,0.008710203692317009,-0.009403765201568604,0.007526327855885029,-0.024546774104237556,0.005348453202513211,-0.02791620045900345,0.04158423840999603
215,0.024804510176181793,-0.017864927649497986,-0.004420303739607334,0.017966534942388535,0.004735326394438744,0.01338488981127739,-0.00531277060508728,0.01449050172487077,-0.0180576890707016,0.08383040130138397
216,0.01290322095155716,0.01352052204310894,0.004408222623169422,-3.3011892810463905e-05,0.002002038061618805,0.006730846595019102,0.008381279185414314,5.3511679472145225e-06,-0.01535162515938282,0.037270840257406235
217,0.015806764364242554,-0.014716691337525845,0.022190507501363754,0.010516636073589325,0.0010650822659954429,0.0077918353490531445,-0.011768920347094536,0.014163185424338587,-0.014673318713903427,0.03211091086268425
218,-0.0043753813952207565,-0.021539952605962753,-0.011257137171924114,-0.007969713769853115,-0.022375021129846573,-0.012658089399337769,-0.01239642035216093,-0.028448253135529573,0.007703564129769802,0.011180659756064415
219,-0.03932087868452072,0.03972024470567703,0.0005035385256633162,-0.032946303486824036,-0.0031974869780242443,-0.02721068635582924,0.047550641000270844,-0.02121342808477432,0.07454411685466766,-0.04129715636372566
220,0.023801591247320175,-0.03158382326364517,0.019449874758720398,0.007144383154809475,-0.00917748361825943,0.007963879965245724,-0.026202891021966934,-0.0023527258980140034,-0.024938419461250305,0.0400429368019104
221,0.0017807891126722097,0.0011548912152647972,-0.0006367825553752482,-0.0030640806071460247,-0.006700511090457439,-0.0007604737766087055,0.007708878722041845,0.003439363048982902,-0.006440973840653896,0.0145688746124506
222,-0.008503688499331474,-0.02506418526172638,0.004393281415104866,-0.011969516985118389,-0.0212385430932045,-0.004719733726233244,0.047553181648254395,0.05725417694926933,0.003137216903269291,-0.009930018335580826
223,0.009434841573238373,0.00025124289095401764,-0.019735204055905342,-0.01232909969985485,-0.025178156793117523,-0.01219291239976883,-0.04459993541240692,-0.060602227768860956,-0.0048115430399775505,0.018139326944947243
224,-0.010483196936547756,-0.017410937696695328,0.0001942630624398589,-0.012323956936597824,-0.015407112427055836,-0.006306970492005348,0.04005064815282822,-0.031643704459320174,0.01911199279129505,-0.0037584472447633743
225,-0.00796356052160263,-0.02817174792289734,0.011665643192827702,-0.015911923721432686,-0.021165115758776665,-0.008533874526619911,0.05082891508936882,-0.039583576487792455,0.019412681460380554,-0.00451747328042984
226,0.02369883842766285,0.0036412598565220833,-0.001117210602387786,0.006258309818804264,-0.0005744225345551968,0.014755838550627232,-0.035335976630449295,-0.0011658408064544028,0.0055073220282793045,0.022041339427232742
227,-0.00023314589634537697,0.0027153249830007553,0.0004736093105748296,-0.000645847525447607,-0.002132020890712738,0.004289079923182726,-0.01621466875076294,0.037486523777271324,-0.012859753333032131,0.052559610456228256
228,-0.007401605136692524,-0.024921899661421776,0.012090415693819523,-0.01302574947476387,-0.017842980101704597,-0.007109480910003185,0.048983532935380936,-0.030712744700779854,0.0199498999863863,-0.0031280789989978075
229,0.0023805974051356316,-0.010072518140077591,0.0023595208767801523,-0.005532313138246536,-0.013044859282672405,-0.0047788177616894245,-0.026494380086660385,-0.01852310741486467,-0.018808335065841675,0.015159712173044682
230,-0.0012821720447391272,-0.02562357671558857,0.012966667301952839,-0.012859610840678215,-0.023872531950473785,-0.004533026833087206,0.028255708515644073,-0.044217299606528086,-0.002025958616286516,0.00942219141870737
231,-0.007722716778516769,-0.02677895314991474,0.01184768509119749,-0.014674989506602287,-0.019741341471672058,-0.007923419587314129,0.05003803223371506,-0.035781790354860815,0.019642915576696396,-0.003922019153833389
232,0.021954163908958435,-0.04077123478055,-0.01028148178011179,0.015632998198270798,0.0013039724435657263,0.01645023748278618,-0.0001509001012891531,0.055468805481117656,-0.004127555061131716,0.028534669429063797
233,0.013638820499181747,0.018861250951886177,0.010273100808262825,0.0033279366325587034,0.0018249412532895803,0.007532912772148848,9.317416697740555e-05,0.02589120610562003,-0.01080133393406868,0.010288868099451065
234,0.032635848969221115,-0.0335485003888607,0.01834702491760254,0.02192012220621109,0.003337977919727564,0.021821357309818268,-0.027627747505903244,0.014233330974170236,-0.005990828387439251,0.03819142282009125
235,0.00401911698281765,0.08139470964670181,-0.051305364817380905,0.014041242189705372,0.008830900304019451,0.02173926681280136,-0.025129856541752815,-0.05449496763223402,0.00685321819037199,0.01498495414853096
236,0.03165438771247864,-0.03483044356107712,0.022852463647723198,0.013829058036208153,-0.008987577632069588,0.016552656888961792,0.006921510212123394,-0.025882975289245748,-0.019220132380723953,0.03751688450574875
237,-0.00012794602662324905,-0.007963810116052628,0.003865849459543824,-0.008939153514802456,-0.016504911705851555,-0.006339214276522398,0.017446711659431458,-0.047034558737013614,0.013461773283779621,0.004338007420301437
238,-0.002905942965298891,0.0010768906213343143,0.015488562174141407,0.010063648223876953,0.008734112605452538,0.004285684321075678,0.03422051668167114,0.0402539180759884,0.0242476649582386,0.007987086661159992
239,0.013191429898142815,0.015105701982975006,0.011368638835847378,-0.0034853757824748755,-0.0069639249704778194,0.0004921751096844673,-0.008328807540237904,-0.03393667176652908,-0.015235512517392635,0.04981331154704094
240,-0.002632381860166788,-0.02600439265370369,0.010600119829177856,-0.009890187531709671,-0.019103556871414185,-0.009178439155220985,0.01611618511378765,-0.034485906760023756,-0.0004638980608433485,0.004938299302011728
241,-0.010734204202890396,-0.035730671137571335,0.008869096636772156,-0.022151369601488113,-0.028386127203702927,-0.011363436467945576,0.0514102503657341,-0.059107689070568924,0.01792255789041519,-0.007913623005151749
242,-0.01351701882129377,0.015503196622030651,0.010446393321907914,-0.017566879104200343,-0.007718400792116033,-0.005681460381725398,-0.0029036011459342343,-0.05625229078094812,-0.035185863411366695,-0.008656752564046492
243,0.006733679212629795,-0.001927476143464446,-0.02514585480093956,-0.004644859582185745,-0.010516339913010597,-0.004830984864383936,-0.009272500872612,-0.02927992205635375,-0.022333182394504547,-0.004873341415077448
244,-0.002905942965298891,0.0010768906213343143,0.015488562174141407,0.010063648223876953,0.008734112605452538,0.004285684321075678,0.03422051668167114,0.0402539180759884,0.0242476649582386,0.007987086661159992
245,0.014220599085092545,-0.0036910949274897575,-0.014863183721899986,-0.0066580260172486305,-0.02662905678153038,-0.010293113067746162,-0.06252440810203552,-0.04033059240130484,-0.005693450570106506,0.019836382940411568
246,-0.004385759588330984,-0.02326914668083191,0.015825340524315834,-0.01100960373878479,-0.018360264599323273,-0.004545006901025772,0.04113757237792015,-0.02547881587375188,0.008582878857851028,0.004754866473376751
247,0.01120050624012947,-0.014795532450079918,0.016533879563212395,-0.005080459173768759,-0.011703952215611935,0.0005266742664389312,0.01950763165950775,-0.0064448887477215125,0.013232070952653885,0.012628959491848946
248,0.0006312725599855185,-0.012674672529101372,0.021315468475222588,-0.000960968725848943,-0.01010473445057869,0.002245263895019889,0.027062946930527687,0.004282987941548718,-0.0032460542861372232,0.017656689509749413
249,-0.004737646318972111,0.02459213323891163,-0.007303299382328987,0.00617503747344017,0.006571204401552677,0.006186534184962511,0.015344267711043358,0.0018788999715493512,0.019084757193922997,0.006334956735372543
250,0.008866235613822937,-0.03050730749964714,-0.00011038765660487115,0.0038316312711685896,-0.008724642917513847,0.005731699522584677,0.02273569442331791,-0.023368577301786105,0.004687144421041012,0.020868727937340736
251,-0.021559342741966248,-0.006592730525881052,-0.01083343755453825,-0.010119495913386345,-0.011926759034395218,-0.012157849967479706,-0.006160635035485029,-0.001280870450339408,-0.010324221104383469,-0.01142214983701706
252,-0.0013532015727832913,0.01538284495472908,0.011087438091635704,-0.004849780350923538,-0.02473442256450653,-0.013153043575584888,-0.0439341776072979,-0.03354496730953684,-0.003721269778907299,0.015727441757917404
253,0.0069331154227256775,-0.036404840648174286,-0.01207705494016409,0.002928356174379587,-0.013592159375548363,-0.0028578266501426697,-0.037252869457006454,0.06545785167850235,-0.02597268670797348,0.024627987295389175
254,-0.010800817050039768,0.0046102628111839294,0.0026233047246932983,-0.009765837341547012,-0.0076714977622032166,-0.006412805058062077,0.0316573828458786,-0.02139469834015725,0.033803798258304596,-0.004699320532381535
255,0.01818210631608963,-0.05421949923038483,0.016381967812776566,-0.0029835309833288193,-0.022247351706027985,-0.0027840854600071907,-0.022971084341406822,-0.045484663613720014,-0.01927492767572403,0.027923477813601494
256,-0.005038863979279995,0.021772300824522972,-0.03346116468310356,-0.008263872936367989,-0.01358803641051054,0.004941502586007118,0.006319250911474228,0.023425279792492294,0.010751483961939812,0.017889870330691338
257,0.026765672490000725,0.016924910247325897,0.001983569236472249,0.009141500107944012,0.00479259854182601,0.014427544549107552,-0.0004137337673455477,-0.005259880791678483,0.011268573813140392,0.026432372629642487
258,0.005657333880662918,-0.012863985262811184,-0.021606160327792168,-0.016783347353339195,-0.011924780905246735,-0.016176767647266388,-0.021460719406604767,-0.02322785298522077,0.0010742302983999252,-0.007029629312455654
259,0.004275817424058914,-0.017047151923179626,-0.002972546499222517,-0.005522098392248154,-0.018132895231246948,-0.003167498856782913,-0.01068702433258295,-0.05318029037512635,-0.00611055176705122,0.015154922381043434
260,-0.0069520436227321625,-0.02232201024889946,0.012430225498974323,-0.010716807097196579,-0.015185268595814705,-0.00596996396780014,0.04750722646713257,-0.023616076347144032,0.020379681140184402,-0.0020165578462183475
261,0.01995064876973629,-0.026554040610790253,0.01124937366694212,0.004562865477055311,-0.013003182597458363,0.003819114528596401,-0.020855668932199478,-0.041734349642557164,-0.026666952297091484,0.03239143639802933
262,-0.007930315099656582,-0.027787424623966217,0.003795541822910309,-0.01158243790268898,-0.014600936323404312,-0.004029934760183096,0.034104906022548676,-0.03228899689742447,0.0022545710671693087,0.0028123781085014343
263,-0.015807019546628,-0.003715179394930601,0.0032210249919444323,-0.01999729685485363,-0.01707794889807701,-0.012866426259279251,0.04480274021625519,-0.044923820619178975,0.03417995944619179,-0.014014430344104767
264,-0.006487586535513401,-0.025005027651786804,-0.008089473471045494,-0.011831682175397873,-0.024451809003949165,-0.014096297323703766,0.0005565816536545753,-0.03264061487613426,0.01173369213938713,0.0072595179080963135
265,0.009137924760580063,0.007681717164814472,0.02129484713077545,0.009325218386948109,-0.005011297296732664,0.012787637300789356,-0.001294719404540956,0.019548869164172283,-0.02919105440378189,0.0382629856467247
266,-8.000270463526249e-05,-0.0283254012465477,0.013108046725392342,-0.00897306203842163,-0.01786678656935692,-0.004166652448475361,0.0356878787279129,-0.04166158935959733,-0.0006292143370956182,0.018285715952515602
267,0.019967451691627502,0.00036811642348766327,-0.0026712785474956036,0.001447533257305622,-0.003831246867775917,0.005830387584865093,-0.015105165541172028,0.0035983879666836513,-0.027532903477549553,0.06203420087695122
268,-0.00492145586758852,0.008462686091661453,-0.010716672986745834,-0.007804466877132654,-0.010983644984662533,-0.0034362736623734236,-0.00494655454531312,0.005470667750021591,-0.009623274207115173,0.005521794781088829
269,-0.012689766474068165,-0.015215269289910793,-0.000457417918369174,-0.022740380838513374,-0.024176206439733505,-0.014617828652262688,0.030942868441343307,-0.029482582945828662,0.01166587881743908,-0.008125507272779942
270,-0.0028097324538975954,-0.007370694540441036,-0.013368893414735794,-0.019009750336408615,-0.020199652761220932,-0.008905439637601376,0.036069221794605255,-0.05398850432905175,-0.00649765320122242,-0.0027922303415834904
271,-0.002413630485534668,-0.01940440945327282,0.0026001399382948875,-0.013869760558009148,-0.022891219705343246,-0.00960610806941986,0.012569796293973923,-0.05816966441607929,0.010672498494386673,0.0011702763149514794
272,0.024670288363323613,-0.0008051182635957625,-0.008240322053601253,0.013420449495569399,0.0065423738951173585,-0.0018748033334693092,0.00682844455778259,-0.013962991647436739,-0.008669602646448612,0.019354673617516815
273,0.009936157613992691,-0.03425087034702301,-0.005038499366492033,0.012865377590060234,0.002084682695567608,0.012303347699344158,-0.02291230671107769,-0.011595343606711989,-0.012532626278698444,0.020658152177929878
274,-0.005796011071652174,-0.015636611729860306,0.013304042629897594,-0.004779535345733166,-0.008351159282028675,-0.00303977751173079,0.04371102899312973,-0.005367508112803281,0.02148481458425522,0.0008416238706558943
275,0.03642107918858528,0.04023132100701332,-0.021332070231437683,0.034219786524772644,0.015861067920923233,0.03653353080153465,-0.03151983767747879,-0.023400390238647553,-0.017711065709590912,0.04511895775794983
276,-0.00796356052160263,-0.02817174792289734,0.011665643192827702,-0.015911923721432686,-0.021165115758776665,-0.008533874526619911,0.05082891508936882,-0.039583576487792455,0.019412681460380554,-0.00451747328042984
277,0.008685792796313763,-0.03422405198216438,0.013897494412958622,-0.0005035868380218744,-0.011836075223982334,0.000874226214364171,0.015065597370266914,-0.020169081488038303,0.002963984152302146,0.017222007736563683
278,-0.0006815420929342508,-0.027605140581727028,0.018115099519491196,-0.0011668987572193146,-0.008810635656118393,-0.0006321754772216082,0.010190295986831188,-0.03196007980413337,-0.0030546667985618114,0.009230144321918488
279,-0.009320307523012161,-0.03565991669893265,0.008965662680566311,-0.020274728536605835,-0.02598518319427967,-0.011432849802076817,0.05185101181268692,-0.05683447188483786,0.01850212924182415,-0.00755910761654377
280,0.005384320393204689,-0.008066073060035706,0.006057008169591427,0.0008767923573032022,-0.01021427009254694,0.0010092542506754398,-0.012026970274746418,-0.011114417758426351,-0.008595316670835018,0.009438623674213886
281,0.01061201374977827,-0.0035569779574871063,0.008495197631418705,0.006041227374225855,-0.007140398025512695,0.007379738613963127,-0.0076813893392682076,-0.0287756368455837,0.01024546381086111,0.018573662266135216
282,-0.01708347350358963,0.015433375723659992,-0.01989990845322609,-0.021421339362859726,-0.016004951670765877,-0.011725114658474922,0.014670479111373425,0.0038251186733987783,0.0010434219148010015,-0.005608870182186365
283,-0.003817422315478325,0.007311326451599598,-0.005779939237982035,-0.0036430794280022383,-0.008323507383465767,0.0019469608087092638,0.026753781363368034,-0.032438617847699205,0.016514977440238,0.0028410141821950674
284,-0.002905942965298891,0.0010768906213343143,0.015488562174141407,0.010063648223876953,0.008734112605452538,0.004285684321075678,0.03422051668167114,0.0402539180759884,0.0242476649582386,0.007987086661159992
285,-0.0062776911072432995,-0.01842220313847065,0.012939948588609695,-0.007253400515764952,-0.011198705062270164,-0.00426068902015686,0.04529278352856636,-0.012971078603588766,0.021024338901042938,-0.00034928566310554743
286,-0.009649436920881271,-0.037921302020549774,0.010391340591013432,-0.024570444598793983,-0.031131524592638016,-0.01280706375837326,0.056365031749010086,-0.06619607528316598,0.01780102401971817,-0.008685663342475891
287,-0.031003005802631378,0.03047940321266651,-0.006548663135617971,-0.02685486152768135,-0.006041036918759346,-0.024435274302959442,0.036825548857450485,-0.025496406536844988,0.06194887310266495,-0.03174082934856415
288,-0.009274796582758427,-0.035754721611738205,0.010674519464373589,-0.022646326571702957,-0.02891676500439644,-0.011857464909553528,0.05513478443026543,-0.06028219097166568,0.018159162253141403,-0.007759402971714735
289,-0.015005175024271011,-0.003913149703294039,0.005485814064741135,-0.022149957716464996,-0.02148406207561493,-0.016999555751681328,0.024537065997719765,-0.027725172376998435,0.020328393206000328,-0.011121120303869247
290,0.002283363835886121,0.021273581311106682,0.011571812443435192,-0.004966970533132553,-0.006220163777470589,-0.004948889836668968,-0.014651432633399963,0.010133571981531643,-0.01524482574313879,0.009136417880654335
291,0.006009845528751612,0.04632805660367012,-0.016228556632995605,0.012782342731952667,0.0040320176631212234,0.017393872141838074,-0.012156044133007526,-0.014306243578399293,-0.007416168227791786,0.0250377394258976
292,0.020556319504976273,0.013249313458800316,0.010400716215372086,0.009574034251272678,0.005989172961562872,0.012010915204882622,0.005817399360239506,0.007335589561978108,-0.028086233884096146,0.06325240433216095
293,0.007608215790241957,0.003719178494066,0.001989969052374363,-0.00260398187674582,-0.011230460368096828,0.0015821633860468864,0.010562819428741932,-0.02284835042089179,-0.011784736067056656,0.0279015451669693
294,0.03357285261154175,-0.038772694766521454,0.029468653723597527,0.022773001343011856,0.009408174082636833,0.015499938279390335,-0.030729983001947403,0.054525172307239134,-0.015374481678009033,0.0471048429608345
295,0.0034322349820286036,0.0013326508924365044,-0.01351216621696949,-0.005298395175486803,-0.007254072930663824,-0.002228616503998637,-0.008072677999734879,0.017986444696680044,-0.010574601590633392,0.010428075678646564
296,0.016708897426724434,-0.01739717461168766,0.007814265787601471,-0.0026689241640269756,-0.014261938631534576,0.00011502206325531006,-0.02142477221786976,-0.006346350288037915,-0.02104930207133293,0.02736099623143673
297,0.013557914644479752,0.007874487899243832,0.012275347486138344,0.0004941918887197971,-0.004870561882853508,0.0015874807722866535,-0.014178277924656868,0.014469189866322394,-0.024594968184828758,0.0545286200940609
298,-0.00895562121548319,-0.03124831199725584,-0.02150068035884994,-0.006786370901537248,-0.02348989515033854,-0.018149228116928144,-0.017587401355302346,-0.01835986635557399,-0.021248002296727478,-0.021956940268408658
299,-0.03444343060255051,-0.0043367804028093815,-0.017073053866624832,-0.043849796056747437,-0.021090805530548096,-0.039201948791742325,0.045722685754299164,-0.020414334652145157,0.032103076577186584,-0.0679490715265274
300,0.001338721951469779,-0.015424985438585281,0.022480851039290428,-0.0031658911611884832,-0.01387250330299139,0.0018371803453192115,0.025631427764892578,-0.002911198493724291,-0.008744798600673676,0.019590608775615692
301,0.02137577347457409,-0.013141980394721031,0.00520129082724452,0.0024609826505184174,-0.0018326649442315102,0.008977352641522884,0.0030672666616737843,0.019817665354711057,-0.019152361899614334,0.054862264543771744
302,-0.002905942965298891,0.0010768906213343143,0.015488562174141407,0.010063648223876953,0.008734112605452538,0.004285684321075678,0.03422051668167114,0.0402539180759884,0.0242476649582386,0.007987086661159992
303,-0.004995669238269329,-0.010534187778830528,-0.001133464160375297,-0.010588770732283592,-0.0161915086209774,-0.003143119625747204,0.03580910339951515,-0.041356897482074446,0.014605626463890076,-0.00013167643919587135
304,-0.002905942965298891,0.0010768906213343143,0.015488562174141407,0.010063648223876953,0.008734112605452538,0.004285684321075678,0.03422051668167114,0.0402539180759884,0.0242476649582386,0.007987086661159992
305,0.002733814064413309,0.0026087965816259384,-0.007615452632308006,0.0006281062960624695,-0.006669847760349512,0.0009095040149986744,-0.01178563479334116,-0.000529625546292844,-0.008958438411355019,0.04543657973408699
306,0.012177467346191406,0.02616269327700138,-0.013676390051841736,0.011636889539659023,0.002282478380948305,0.0162670835852623,-0.008657252416014671,-0.0644319719141379,-0.007482495158910751,0.01773465983569622
307,-0.010800817050039768,0.0046102628111839294,0.0026233047246932983,-0.009765837341547012,-0.0076714977622032166,-0.006412805058062077,0.0316573828458786,-0.02139469834015725,0.033803798258304596,-0.004699320532381535
308,-0.013386940583586693,-0.04242559149861336,-0.007220335304737091,-0.004660748410969973,-0.016168655827641487,-0.007414672058075666,0.04279308393597603,-0.059787025265407426,0.012879020534455776,-0.006905672140419483
309,-0.023458287119865417,-0.0036177667789161205,-0.025691542774438858,-0.018106356263160706,-0.0184417013078928,-0.01677035167813301,-0.016248708590865135,0.0008589855478468612,-0.008722072467207909,-0.017508402466773987
310,-0.005153775680810213,-0.011922502890229225,0.013789490796625614,-0.0014810515567660332,-0.004554432351142168,-0.001411897363141179,0.04160202294588089,0.004770587145684676,0.022098779678344727,0.002429503947496414
311,0.012531347572803497,0.013827502727508545,-0.016033658757805824,0.005301276221871376,-0.005692765582352877,0.004465482197701931,-0.010152637027204037,-0.03176671443675309,0.011813057586550713,0.020140264183282852
312,-0.013743428513407707,-0.017873110249638557,0.011412017978727818,-0.018985863775014877,-0.02047741785645485,-0.011465828865766525,0.04680367931723595,-0.036016126011932895,0.025317134335637093,-0.00905870832502842
313,-0.026527483016252518,0.023995421826839447,-0.01601063832640648,-0.018596861511468887,-0.014599129557609558,-0.017611533403396606,-0.0027023288421332836,-0.02585380887291024,-2.4792738258838654e-05,-0.02615116536617279
314,0.026409469544887543,-0.02343326061964035,0.006281876936554909,0.006092678755521774,-0.014266103506088257,0.006969936192035675,-0.053867027163505554,-0.00581607768454781,-0.039624787867069244,0.05470243841409683
315,-0.005790979601442814,0.023305285722017288,0.0039000576362013817,-0.0046338243409991264,0.001803647493943572,-0.006450940854847431,0.014029244892299175,0.0068221703385339255,-0.0019745633471757174,0.028264682739973068
316,-0.002905942965298891,0.0010768906213343143,0.015488562174141407,0.010063648223876953,0.008734112605452538,0.004285684321075678,0.03422051668167114,0.0402539180759884,0.0242476649582386,0.007987086661159992
317,-0.0009510882664471865,-0.009614832699298859,0.0098849693313241,-0.007461455650627613,-0.016954898834228516,0.0004224274307489395,0.026486270129680634,-0.02954267500586796,-0.0017856754129752517,0.012209744192659855
318,0.03572278842329979,0.027828363701701164,0.0415959432721138,0.003535647178068757,0.004015025682747364,0.009544838219881058,0.012578326277434826,0.0035868423576382496,-0.024965036660432816,0.060478270053863525
319,-0.004031010903418064,-0.03174100071191788,0.009351834654808044,-0.013280071318149567,-0.02108374983072281,-0.005997654981911182,0.04610409960150719,-0.04659438383144265,0.01579388603568077,0.0004585261922329664
320,0.0021019047126173973,0.02950761653482914,-0.026732107624411583,-0.0031445680651813745,-0.008086162619292736,0.0015108457300812006,0.00469363434240222,0.03910227320930193,-0.020046105608344078,0.010489379055798054
321,-0.019846713170409203,-0.009255064651370049,0.0042630708776414394,-0.015674004331231117,-0.016562864184379578,-0.011371775530278683,0.02103172056376934,-0.011705819446298352,-0.0032352376729249954,-0.012431655079126358
322,-0.002905942965298891,0.0010768906213343143,0.015488562174141407,0.010063648223876953,0.008734112605452538,0.004285684321075678,0.03422051668167114,0.0402539180759884,0.0242476649582386,0.007987086661159992
323,-0.0050823744386434555,-0.014323488809168339,0.015212680213153362,0.0067911152727901936,0.002373351249843836,0.009170440025627613,0.010381616652011871,0.05031572591459945,0.004422882571816444,0.0127145666629076
324,-0.008962565348769594,0.022349932319003486,-0.007119629080252261,-0.005538652425925959,-0.00530906080833566,-0.006696053003361021,-0.02551904633259107,-0.02289497154456241,-0.016038232558173833,0.0008487117194007746
325,0.000903427368029952,-0.006083312444388866,-0.0005640641320496798,-0.008591033518314362,-0.023362185806035995,-0.008037933148443699,-0.008473137393593788,-0.044951794499304955,-0.004881745204329491,0.007954145781695843
326,-0.00482540437951684,-0.017468422651290894,0.005099005997180939,-0.014883745461702347,-0.017973676323890686,-0.0053480216301977634,0.03580775111913681,-0.03191646737400083,0.013441628776490688,-0.001891058636829257
327,-0.002905942965298891,0.0010768906213343143,0.015488562174141407,0.010063648223876953,0.008734112605452538,0.004285684321075678,0.03422051668167114,0.0402539180759884,0.0242476649582386,0.007987086661159992
328,-0.0029059420339763165,0.0010768892243504524,0.015488560311496258,0.010063647292554379,0.008734114468097687,0.004285684786736965,0.03422051668167114,0.04025391919436762,0.0242476649582386,0.007987086661159992
329,-0.002905942965298891,0.0010768906213343143,0.015488562174141407,0.010063648223876953,0.008734112605452538,0.004285684321075678,0.03422051668167114,0.0402539180759884,0.0242476649582386,0.007987086661159992
330,0.03206631541252136,0.009722249582409859,0.014652881771326065,0.010684403590857983,-0.0012563015334308147,0.013673694804310799,-0.02792118862271309,-0.008743016825426077,-0.03492756187915802,0.07078635692596436
331,-0.010603975504636765,0.01829957216978073,0.010875609703361988,0.0060165394097566605,0.012004547752439976,0.006756719201803207,0.03254713863134384,0.04716433653323754,0.014425709843635559,0.002273879013955593
332,-0.005794167052954435,-0.02845381386578083,0.014487886801362038,-0.01571689173579216,-0.02324647828936577,-0.0071624391712248325,0.04537675529718399,-0.03976642614732423,0.009908369742333889,0.0011927203740924597
333,0.000833850004710257,-0.006443424616008997,-0.0031711540650576353,-0.001730760675854981,-0.008924862369894981,0.0019799324218183756,0.005296983756124973,0.0010795974297237781,-0.004360415507107973,0.03089604154229164
334,0.009662764146924019,0.012434051372110844,-0.008624760434031487,0.0023890058510005474,-0.0158756785094738,0.01565678045153618,-0.03798513859510422,0.03135257614835534,-0.03955215960741043,0.045118317008018494
335,-0.0026358929462730885,-0.0144651522859931,0.01726929470896721,-0.003145124763250351,-0.009544340893626213,-0.0005329143023118377,0.03556273505091667,-0.0013871031295420756,0.009068213403224945,0.00911683402955532
336,0.00650214496999979,0.006438407581299543,0.007205238565802574,-0.003136947751045227,-0.012348005548119545,0.001456547062844038,-0.03343544155359268,0.04079759331704137,-0.0246842373162508,0.039913296699523926
337,0.011326758190989494,-0.03615672513842583,0.0065849521197378635,-0.006375808268785477,-0.023866888135671616,-0.007879449054598808,-0.024103302508592606,-0.058144689338019626,-0.011090179905295372,0.021999981254339218
338,-0.012938547879457474,-0.016278313472867012,0.009386377409100533,-0.021401068195700645,-0.022279419004917145,-0.013454588130116463,0.04280456528067589,-0.04860162174420405,0.02423923835158348,-0.00905129685997963
339,-0.005632992833852768,-0.03179768845438957,0.015003866516053677,-0.018538054078817368,-0.027262402698397636,-0.00812968984246254,0.04540474712848663,-0.04869820796624672,0.006203045137226582,0.0017067212611436844
340,0.0032114284113049507,-0.0006553316488862038,-0.008142163045704365,0.0069396295584738255,0.0019290723139420152,0.005677727982401848,0.015583386644721031,0.016730668741122355,0.003148443764075637,0.013555111363530159
341,-0.002801057416945696,-0.0022549377754330635,-0.001407889649271965,-0.00828736461699009,-0.015035090036690235,-0.0018044156022369862,0.029658319428563118,-0.04856309102451164,0.012776710093021393,-0.002101029735058546
342,0.019300468266010284,0.016204822808504105,0.004597493913024664,-0.008600648492574692,-0.004429057240486145,-0.0018897484987974167,-0.008742131292819977,0.00994410849313598,-0.036073267459869385,0.047330472618341446
343,-0.010800817050039768,0.0046102628111839294,0.0026233047246932983,-0.009765837341547012,-0.0076714977622032166,-0.006412805058062077,0.0316573828458786,-0.02139469834015725,0.033803798258304596,-0.004699320532381535
344,-0.0015528079820796847,0.0018301852978765965,-0.0045011285692453384,-0.0052987392991781235,-0.013598253950476646,-0.007258370518684387,-0.01166033186018467,-0.040283151472232166,-0.00568330567330122,0.008927883580327034
345,-0.0034471889957785606,-0.012356127612292767,0.01329164206981659,-0.005906456150114536,-0.008230002596974373,-0.003006718819960952,0.03239387273788452,-0.012680716349268761,0.01419222541153431,0.008004036732017994
346,-0.011258594691753387,-0.012080256827175617,-0.000552442274056375,-0.009413288906216621,-0.015039151534438133,-0.005748486611992121,0.008506182581186295,-0.012985255038108075,0.02698296681046486,0.00023316877195611596
347,0.006136014126241207,-0.006435113027691841,0.0018482867162674665,-0.0031696073710918427,-0.010403905063867569,-0.00023114681243896484,-0.018151508644223213,-0.012165936969500897,-0.02546161413192749,0.03352174162864685
348,0.0025470852851867676,-0.010373624041676521,0.017362169921398163,-0.0046083200722932816,-0.016946427524089813,0.0030899839475750923,0.019064702093601227,-0.017410884677718917,-0.014825085178017616,0.02180907502770424
349,-0.0028835954144597054,-0.038042958825826645,0.010799797251820564,-0.01609668880701065,-0.025494880974292755,-0.007564941421151161,0.04392803832888603,-0.05459041180898788,0.011702550575137138,0.0010998250218108296
350,-0.006348839495331049,-0.031248925253748894,-0.0035754714626818895,-0.010278180241584778,-0.02548571117222309,-0.011209236457943916,-0.0063193077221512794,-0.02214822188481654,-0.010241813957691193,0.0037189978174865246
351,0.00650798948481679,0.002263232134282589,0.006275816820561886,-4.4067215640097857e-05,-9.909574873745441e-05,0.0021844147704541683,-0.0011256341822445393,-0.02427268779756995,0.004224508069455624,0.03956844285130501
352,0.0003506166394799948,-0.001804235391318798,0.010928301140666008,0.00423986092209816,-0.006350531708449125,0.006262755021452904,0.002300599589943886,0.004723728114841244,-0.011101827956736088,0.02485707402229309
353,0.026443783193826675,-0.008186724968254566,0.02797607146203518,0.017255641520023346,0.012260016053915024,0.014717387966811657,-0.03316859155893326,0.05642373648393355,-0.024155426770448685,0.05906908959150314
354,-0.0011746773961931467,0.021156348288059235,-0.0012099159648641944,0.01105804555118084,0.008758310228586197,0.008649080991744995,0.019382929429411888,0.016566697541854455,0.019899053499102592,0.009736555628478527
355,0.027641866356134415,0.007105149328708649,-0.010737395845353603,0.014115991070866585,0.0022187726572155952,0.021371502429246902,-0.010957869701087475,0.04836983508561667,-0.006688550114631653,0.04148818179965019
356,-0.007839065045118332,-0.024767134338617325,0.006957858335226774,-0.01737845316529274,-0.023151945322752,-0.008224938996136189,0.0479794442653656,-0.05122267015911387,0.01793072372674942,-0.004884588066488504
357,0.02197961136698723,0.010775448754429817,0.01324173528701067,0.00645970506593585,0.0021040006540715694,0.010232333093881607,-0.0021790857426822186,0.006666216911427559,-0.02175143174827099,0.05575502663850784
358,-0.0012177962344139814,-0.038486793637275696,0.04101485386490822,0.0038091803435236216,-0.016968633979558945,-0.003871109103783965,-0.010409119538962841,-0.009414814946180416,-0.01418115571141243,0.01780693791806698
359,0.045155131413116986,0.010692129523548016,0.04443292757459232,0.027905812759639943,0.021949306652686573,0.02819652792985899,0.022954831564005556,0.09522365284275498,0.03533778077621645,0.015265038232796879
360,-0.0036055115051567554,-0.025151805952191353,0.011697640642523766,-0.012758603319525719,-0.020398005843162537,-0.0053884368389844894,0.03810298442840576,-0.042184045158806284,0.010275282897055149,0.004926835652440786
361,0.011006627231836319,0.0001484360545873642,0.009246714413166046,-0.0018717641942203045,-0.0050226664170622826,-0.0017041335813701153,-0.016524426639080048,0.014026054576673172,-0.017800236120820045,0.042738061398267746
362,-0.008540664799511433,-0.018171735107898712,0.004999701865017414,-0.016224898397922516,-0.019903182983398438,-0.009129729121923447,0.03331794962286949,-0.02633177665476974,0.006137210875749588,-0.0043455809354782104
363,-0.02132766609298337,-0.004233289986428208,-0.003913726448642639,-0.0007211577409280237,-0.007293342255231577,0.0010360994334467572,-0.032860412986318054,0.004159206839155161,-0.010064856233901576,-0.0019012402747502519
364,-0.002905942965298891,0.0010768906213343143,0.015488562174141407,0.010063648223876953,0.008734112605452538,0.004285684321075678,0.03422051668167114,0.0402539180759884,0.0242476649582386,0.007987086661159992
365,-0.0029059420339763165,0.0010768892243504524,0.015488560311496258,0.010063647292554379,0.008734114468097687,0.004285684786736965,0.03422051668167114,0.04025391919436762,0.0242476649582386,0.007987086661159992
366,-0.022665351629257202,0.0029295000713318586,-0.012670187279582024,-0.018823210150003433,-0.02017620950937271,-0.01823500730097294,-0.008541048504412174,-0.011978130712743123,-0.0033147260546684265,-0.011580735445022583
367,-0.012700440362095833,-0.003945817705243826,0.0104816984385252,0.004180483520030975,0.00020977412350475788,0.008215897716581821,0.009194964542984962,0.012148813745808713,0.015460050664842129,0.031931109726428986
368,0.00013768766075372696,0.009043307043612003,-0.03923480585217476,-0.016037199646234512,-0.025536146014928818,-0.011651303619146347,-0.047718483954668045,-0.019941134790699908,-0.023035461083054543,0.00799587182700634
369,0.012182620353996754,0.010226527228951454,0.0192551352083683,-0.006558460649102926,5.842745304107666e-05,0.0010601268149912357,0.007625032216310501,0.009596041532869913,-0.018941596150398254,0.05018666014075279
370,0.03325407952070236,-0.03350204974412918,0.02083447016775608,0.012984996661543846,-0.00393192982301116,0.01491479016840458,-0.030504295602440834,0.03259502596444188,-0.03259943425655365,0.04802784323692322
371,-0.010800817050039768,0.0046102628111839294,0.0026233047246932983,-0.009765837341547012,-0.0076714977622032166,-0.006412805058062077,0.0316573828458786,-0.02139469834015725,0.033803798258304596,-0.004699320532381535
372,-0.0017178719863295555,-0.001563469646498561,-0.015747494995594025,-0.005416653119027615,-0.014225814491510391,-0.004752961918711662,-0.01630212925374508,-0.015282079873860849,-0.0008841598755680025,0.008926278911530972
373,-0.00843227468430996,-0.028005922213196754,0.006166480481624603,-0.02057553641498089,-0.026853295043110847,-0.009729012846946716,0.0497531034052372,-0.06155849910497944,0.017249267548322678,-0.006399449892342091
374,-0.0029059420339763165,0.0010768892243504524,0.015488560311496258,0.010063647292554379,0.008734114468097687,0.004285684786736965,0.03422051668167114,0.04025391919436762,0.0242476649582386,0.007987086661159992
375,-0.004509080667048693,-0.0252979826182127,0.015853403136134148,-0.012765707448124886,-0.020618129521608353,-0.005280899815261364,0.04171399772167206,-0.030956544302847847,0.007277484051883221,0.004485513083636761
376,-0.01643282175064087,-0.007348455488681793,-0.013750489801168442,-0.012998223304748535,-0.016185978427529335,-0.01383186411112547,0.014737354591488838,-0.02293874423716979,0.007222685031592846,-0.01664336398243904
377,-0.005512585397809744,-0.01846686191856861,-0.00866587646305561,-0.021013006567955017,-0.02939126454293728,-0.008435032330453396,0.03723302483558655,-0.04725975622435439,0.006173561327159405,0.004916731733828783
378,-0.00819380022585392,0.010797915048897266,-0.023436468094587326,-0.008468970656394958,-0.010682709515094757,-0.001723724533803761,0.013230599462985992,-0.03479336273644454,0.015101863071322441,0.002537792082875967
379,-0.005465487949550152,-0.01841256581246853,0.008237050846219063,-0.01594453677535057,-0.020225275307893753,-0.008689980953931808,0.02823525480926037,-0.04294374100530836,0.015235978178679943,-0.00010480277705937624
380,-0.016999751329421997,0.0006440105498768389,-0.012942920438945293,-0.02259252592921257,-0.015879318118095398,-0.013702302239835262,0.015563863329589367,-0.022238052800263784,0.022702742367982864,-0.022022755816578865
381,0.006797633599489927,0.0011173496022820473,-0.012601500377058983,-0.014761004596948624,-0.018405914306640625,-0.004127894528210163,-0.02217188850045204,0.0007105921186259367,-0.01834537833929062,0.007959253154695034
382,0.0146205248311162,-0.018200773745775223,0.007665717042982578,0.013857325538992882,0.004501884803175926,0.01313013955950737,0.018361929804086685,0.041745833554349354,0.005457391031086445,0.027055874466896057
383,0.025022361427545547,0.024315863847732544,-0.0031706541776657104,0.004327730741351843,-0.0013854308053851128,0.010688547044992447,-0.02132907323539257,0.012584388486861636,-0.04306482896208763,0.07145678997039795
384,0.004800648428499699,-0.0019282158464193344,-0.0051667517982423306,-0.002154131419956684,-0.00954209640622139,-0.001566651277244091,-0.016029484570026398,-0.016551519603626715,-0.0012908601202070713,0.009904671460390091
385,-0.009649436920881271,-0.037921302020549774,0.010391338728368282,-0.024570444598793983,-0.031131524592638016,-0.012807061895728111,0.05636502802371979,-0.06619607614802672,0.017801018431782722,-0.008685661479830742
386,0.004896910861134529,-0.005959298927336931,0.02093953639268875,0.0005531033966690302,-0.012490663677453995,0.00627668434754014,0.012982604093849659,-0.0005759625080820714,-0.02001561038196087,0.027993064373731613
387,0.03773173689842224,-0.026988351717591286,-0.0034927083179354668,0.00610033143311739,0.0028418549336493015,0.013268591836094856,-0.0294007807970047,0.047331996453665676,-0.05588895082473755,0.0825825184583664
388,0.014892295002937317,-0.0024863588623702526,-0.0034757701214402914,0.006765097379684448,-0.009589778259396553,0.012237012386322021,-0.014860784634947777,0.00807691852916883,-0.046126022934913635,0.040789760649204254
389,0.004189486615359783,-0.023775773122906685,0.019015701487660408,-0.010457208380103111,-0.018109241500496864,-0.0008937940001487732,0.03669895976781845,-0.04004188387968674,0.0037554744631052017,0.01942964643239975
390,-0.01027669943869114,-0.009982087649405003,0.011916392482817173,-0.00909346528351307,-0.00891803577542305,-0.006963960360735655,0.04486687108874321,-0.010424383339206516,0.028906626626849174,-0.005058801267296076
391,0.00892353244125843,-0.03344875946640968,0.005596091505140066,-0.0019850495737046003,-0.015493303537368774,0.0025644185952842236,0.013013116084039211,-0.03217943374036063,0.0022355341352522373,0.01687062904238701
392,-0.0021025093737989664,-0.038888297975063324,0.009670862928032875,-0.01635357365012169,-0.026028728112578392,-0.008720805868506432,0.03628221154212952,-0.053562699342315036,0.007188817486166954,0.006806640420109034
393,-0.008248881436884403,-0.015795888379216194,0.0038966387510299683,-0.010399877093732357,-0.015763606876134872,-0.00397113710641861,-0.0019876547157764435,-0.006863596681731027,-0.0004920936189591885,0.002948910230770707
394,-0.008244914934039116,-0.012464052066206932,-0.03156926482915878,-0.009580366313457489,-0.016805503517389297,-0.004529355093836784,0.006218958646059036,0.028742334258851997,0.00308228749781847,0.011355330236256123
395,-0.007412716746330261,-0.0352899394929409,0.007001429796218872,-0.02295948937535286,-0.02912495844066143,-0.01302587240934372,0.045758094638586044,-0.05647047131628805,0.014892542734742165,-0.00403753574937582
396,-0.011053206399083138,0.016294460743665695,-0.015674548223614693,-0.02326531521975994,-0.01253972202539444,-0.004991412162780762,0.02393210679292679,0.015654985826455373,-0.004661723040044308,0.03264006972312927
397,-0.008788283914327621,-0.015706432983279228,0.00666846102103591,-0.013357197865843773,-0.01699136570096016,-0.0054733119904994965,0.03482000157237053,-0.03581052182378664,0.009402920491993427,-0.0021069017238914967
398,-0.010800817050039768,0.0046102628111839294,0.0026233047246932983,-0.009765837341547012,-0.0076714977622032166,-0.006412805058062077,0.0316573828458786,-0.02139469834015725,0.033803798258304596,-0.004699320532381535
399,-0.002424420090392232,-0.029149940237402916,0.011495769023895264,-0.011591680347919464,-0.01996448077261448,-0.003930063918232918,0.039024073630571365,-0.04172593602813425,0.007998629473149776,0.005784525070339441
400,0.011870226822793484,-0.04114419221878052,-0.014210551045835018,0.003282872261479497,-0.00619388185441494,0.009252000600099564,-0.0074971211142838,-0.01638419963020986,-0.001533733680844307,0.015987524762749672
401,-0.0062776911072432995,-0.01842220313847065,0.012939948588609695,-0.007253400515764952,-0.011198705062270164,-0.00426068902015686,0.04529278352856636,-0.012971078603588766,0.021024338901042938,-0.00034928566310554743
402,-0.0006124448264017701,-0.024143164977431297,0.020769521594047546,-0.01099756732583046,-0.022426001727581024,-0.0022829745430499315,0.031704381108284,-0.02682587571450263,-0.008294431492686272,0.014697203412652016
403,0.00604036683216691,-0.021127790212631226,0.006321071647107601,-0.005388454534113407,-0.021169254556298256,-0.010532308369874954,-0.0316852368414402,-0.04820296026324341,-0.00990290567278862,0.012436398304998875
404,0.020189879462122917,0.0007328102365136147,-0.000631945556961,0.0008630743250250816,-0.008997883647680283,0.0016647488810122013,-0.014615483582019806,-0.017925754416710744,-0.015460088849067688,0.040845077484846115
405,-0.011811445467174053,-0.011692664586007595,-0.012188717722892761,-0.008403152227401733,-0.0108040077611804,-0.004479039926081896,-0.006346527487039566,-0.012956206165894744,-0.00644570030272007,-0.008177224546670914
406,-0.0062776911072432995,-0.01842220313847065,0.012939948588609695,-0.007253400515764952,-0.011198705062270164,-0.00426068902015686,0.04529278352856636,-0.012971078603588766,0.021024338901042938,-0.0003492854302749038
407,0.0025417516008019447,-0.03615499287843704,0.00498708663508296,-0.0110899917781353,-0.022206392139196396,-0.007874874398112297,0.0013606545981019735,-0.037006873647232236,-0.008962176740169525,0.008352210745215416
408,-0.007773802615702152,-0.014354638755321503,-0.010362389497458935,-0.005484262015670538,-0.014374100603163242,3.032502718269825e-05,0.011219300329685211,0.0012736310448013778,0.020177867263555527,0.0008733584545552731
409,0.006211024709045887,-0.02259308286011219,0.02214069850742817,0.012284177355468273,-0.009170129895210266,0.003954983316361904,-0.04231424257159233,-0.025674767074872373,-0.036047495901584625,0.02502438984811306
410,-0.004748762119561434,-0.021364329382777214,0.01030211802572012,-0.014167984016239643,-0.022113127633929253,-0.005109378136694431,0.03956769034266472,-0.04275853893348143,0.007538379170000553,0.003103761002421379
411,-0.00816085934638977,-0.03565581887960434,-0.005798059515655041,-0.007818164303898811,-0.016858192160725594,-0.004803011193871498,0.024583637714385986,0.0016973620895592983,0.009385562501847744,0.012856690213084221
412,0.008696142584085464,-0.03434842452406883,0.006095418240875006,0.0006666724802926183,-0.0101349838078022,0.0040669371373951435,0.020056085661053658,-0.030184891233395447,0.009967138059437275,0.016429807990789413
413,-0.0011746773961931467,0.021156348288059235,-0.0012099159648641944,0.01105804555118084,0.008758310228586197,0.008649080991744995,0.019382929429411888,0.016566697541854455,0.019899053499102592,0.009736555628478527
414,0.016345197334885597,-0.024426857009530067,0.02700028009712696,0.0024759219959378242,-0.006082409527152777,0.009095543995499611,0.031640008091926575,-0.006468048596839637,0.0027362320106476545,0.030694637447595596
415,-0.002905942965298891,0.0010768906213343143,0.015488562174141407,0.010063648223876953,0.008734112605452538,0.004285684321075678,0.03422051668167114,0.0402539180759884,0.0242476649582386,0.007987086661159992
416,0.015117377042770386,-0.030168529599905014,-0.02618899941444397,0.009797446429729462,-0.019300930202007294,0.0007430175319314003,-0.0457889586687088,-0.014063929892397164,-0.01487292442470789,0.025982387363910675
417,-0.002905942965298891,0.0010768906213343143,0.015488562174141407,0.010063648223876953,0.008734112605452538,0.004285684321075678,0.03422051668167114,0.0402539180759884,0.0242476649582386,0.007987086661159992
418,-0.002905942965298891,0.0010768906213343143,0.015488562174141407,0.010063648223876953,0.008734112605452538,0.004285684321075678,0.03422051668167114,0.0402539180759884,0.0242476649582386,0.007987086661159992
419,-0.005389361176639795,-0.003217518562451005,-0.004395683761686087,-0.010588264092803001,-0.016157716512680054,-0.002033886266872287,0.03322324901819229,-0.04996454818572279,0.015869898721575737,-0.0006839155685156584
420,-0.008150886744260788,-0.029255028814077377,0.011524049565196037,-0.016873981803655624,-0.022272493690252304,-0.009008675813674927,0.051444027572870255,-0.042540524318601274,0.01923360489308834,-0.004980602767318487
421,-0.002905942965298891,0.0010768906213343143,0.015488562174141407,0.010063648223876953,0.008734112605452538,0.004285684321075678,0.03422051668167114,0.0402539180759884,0.0242476649582386,0.007987086661159992
422,-0.006363256834447384,-0.032911065965890884,0.014165219850838184,-0.019634852185845375,-0.027965880930423737,-0.008980121463537216,0.04739752039313316,-0.05187964226512175,0.00831176433712244,-0.00018280139192938805
423,0.007914874702692032,-0.0047605764120817184,0.029974166303873062,0.007255579344928265,-0.006796006578952074,0.009700814262032509,0.007602861151099205,0.027450942157871132,-0.02715829759836197,0.03658892586827278
424,-0.004089595749974251,0.027071330696344376,-0.011650223284959793,0.0036485730670392513,0.0015216113533824682,0.009455222636461258,-0.010363029316067696,-0.0001858765382867552,-0.01465233787894249,0.00836111232638359
425,0.0026543568819761276,-0.01017426885664463,-0.0068084984086453915,-0.0024413536302745342,-0.013473862782120705,7.738429121673107e-05,0.011900173500180244,-0.02407284756712473,-0.004173705354332924,0.01558269839733839
426,-0.006280011031776667,0.006336740218102932,-0.007208515889942646,-0.012821381911635399,-0.013412900269031525,-0.008924819529056549,0.0026528136804699898,-0.015557462085711918,-0.009437661617994308,0.006779545918107033
427,0.008552953600883484,-0.016537079587578773,0.006110966205596924,-0.0003343375865370035,-0.009123921394348145,0.0037675448693335056,0.009876860305666924,-0.02016996577137302,0.0037466916255652905,0.01590554602444172
428,0.0008229719242081046,-0.033070217818021774,0.014146561734378338,-0.009162181988358498,-0.019617367535829544,-0.0023342915810644627,0.03345903009176254,-0.051365324072589466,0.003348171478137374,0.015908215194940567
429,-0.008525516837835312,-0.03142160177230835,0.011240876279771328,-0.018798094242811203,-0.024487251415848732,-0.009958270937204361,0.05267428234219551,-0.04845440836417875,0.01887546107172966,-0.00590687058866024
430,-0.0026274053379893303,0.004087840206921101,-0.009892202913761139,-0.011073214933276176,-0.016702188178896904,-0.01076145563274622,-0.018555911257863045,-0.012484171588560074,0.005185283720493317,0.009071474894881248
431,0.01423780620098114,-0.00988558866083622,0.022677237167954445,0.008364629931747913,-0.0056040664203464985,0.011971688829362392,0.0011043738340958953,0.00185789833597356,-0.024224529042840004,0.04144809767603874
432,-0.008383606560528278,-0.009515566751360893,-0.008761940523982048,-0.018205557018518448,-0.018712183460593224,-0.012611251324415207,0.022153005003929138,-0.03608183491186605,0.010773575864732265,-0.002688318956643343
433,0.016873862594366074,-0.009677805937826633,0.00728161446750164,0.0042080627754330635,-0.006928639952093363,0.00525885634124279,-0.007527262903749943,-0.012417541707736169,-0.016021139919757843,0.0522942915558815
434,-0.009649436920881271,-0.037921302020549774,0.010391340591013432,-0.024570444598793983,-0.031131524592638016,-0.01280706375837326,0.056365031749010086,-0.06619607528316598,0.01780102401971817,-0.008685663342475891
435,0.028040021657943726,-0.022506333887577057,0.003907305654138327,0.012293313629925251,-0.006566876079887152,0.008004069328308105,-0.04087300971150398,-0.026135536853215947,-0.016172323375940323,0.041839323937892914
436,0.034711383283138275,-0.04512763023376465,0.02563866600394249,0.02112767845392227,0.0023201233707368374,0.011919219978153706,-0.05121807008981705,0.027570291843915753,-0.02622205764055252,0.05013900622725487
437,-0.03406169265508652,0.031345516443252563,0.005266701336950064,-0.02529285103082657,-0.002638516016304493,-0.02513129450380802,0.046144112944602966,-0.013734781411331578,0.07249847799539566,-0.03452484309673309
438,0.008205131627619267,-0.008146794512867928,0.015385651960968971,0.004452852066606283,0.00040735211223363876,0.007881110534071922,0.03019656427204609,-0.003325036319352836,0.017215417698025703,0.02580450475215912
439,-0.007577565498650074,-0.03946464881300926,0.010991768911480904,-0.015469785779714584,-0.022261597216129303,-0.009077424183487892,0.04489781707525253,-0.04888186775359443,0.01348032895475626,-0.0042273541912436485
440,-0.007603588048368692,0.030510973185300827,-0.00578581215813756,0.0036237097810953856,0.006324775516986847,0.002968784887343645,0.019818328320980072,0.0016138019190046343,0.02961728163063526,0.0008767788531258702
441,-0.017070049419999123,0.013380809687077999,-0.016681430861353874,-0.015549559146165848,-0.008088131435215473,-0.009860193356871605,0.0053985826671123505,0.010805450507761653,0.0005194921977818012,-0.010489553213119507
442,0.02120894193649292,0.025666922330856323,0.006168784108012915,0.003194015473127365,-0.0031400287989526987,0.010197151452302933,-0.018975669518113136,-0.0010557491462753104,-0.04005727916955948,0.06604071706533432
443,0.0020405317191034555,0.05844675004482269,-0.03222138434648514,0.012904787436127663,0.008803245611488819,0.016752533614635468,-0.008172603324055672,-0.027423854767702534,0.011823058128356934,0.012985563836991787
444,0.014027921482920647,0.006476882379502058,0.014001008123159409,0.00811058096587658,0.0029477786738425493,0.007870086468756199,-0.004388007801026106,-0.005608735057095304,-0.011470040306448936,0.03948016092181206
445,-0.002410588087514043,-0.0166072528809309,0.003340747905895114,0.0016795904375612736,-0.007432321552187204,0.0012520065065473318,0.011247613467276096,0.022243811303731154,0.006746766157448292,0.018088532611727715
446,0.009800195693969727,0.0037823375314474106,-0.014198437333106995,-0.019643694162368774,-0.03145839646458626,-0.020724453032016754,-0.07628030329942703,-0.039299511556206375,-0.011891977861523628,-0.0015820260159671307
447,-0.008163997903466225,0.00866642501205206,-0.01613996922969818,-0.011669270694255829,-0.002493118867278099,-0.005532130599021912,0.01421818882226944,0.0034869725206560513,0.04561604559421539,-0.01050061360001564
448,0.02336491458117962,-0.0036718009505420923,-0.01551786344498396,0.006295592989772558,-0.0010658178944140673,0.002338638762012124,0.0007494684541597962,-0.007335007961574758,0.01767946593463421,0.0027857746463268995
449,-0.006637471728026867,0.010189255699515343,-0.0036461572162806988,-0.0034734513610601425,-0.01500430516898632,-0.003874426241964102,-0.022043855860829353,0.011918990129282075,-0.024665962904691696,0.012627488933503628
450,0.0012451461516320705,-0.025995619595050812,-0.008793031796813011,-0.002744646742939949,-0.01420177798718214,0.0016341565642505884,0.005587234161794186,-0.026461835298761054,-0.0012396948877722025,0.01672455295920372
451,0.028910327702760696,-0.035227835178375244,-0.0006553132552653551,0.012220727279782295,-0.0005426909774541855,0.009035533294081688,0.0011420550290495157,0.005651729192572674,-0.0018482578452676535,0.042677462100982666
452,0.03754899650812149,0.02770763635635376,-0.04752139002084732,0.01360225584357977,-0.00883409008383751,0.010276869870722294,-0.035656772553920746,-0.0067775023663208065,-0.03503062203526497,0.046600811183452606
453,0.012774000157158766,-0.0030962510254315167,-0.008277520285476013,0.004396900676271634,0.0033095291483750578,-0.003222661824638843,0.02510649130813249,0.03946823046246356,-3.727485360216693e-05,0.03110544798176371
454,0.009945366531610489,0.03109581395983696,0.01817474514245987,0.0014094151556491852,8.080108091235161e-05,0.004887896589934826,-0.011512959375977516,0.0076211390497784755,-0.048352230340242386,0.042058832943439484
455,0.009568270295858383,-0.029129046946763992,0.010032789781689644,-0.004258779343217611,-0.01607486419379711,-0.0010612548794597387,0.006372958421707153,-0.012796146632630227,-0.0009216033504344523,0.020979678258299828
456,0.028199173510074615,-0.04545595869421959,-0.005412831902503967,0.00532167311757803,-0.02436031587421894,0.003576810471713543,-0.07063185423612595,-0.01413157034821294,-0.04388309270143509,0.044775355607271194
457,-0.0029059420339763165,0.0010768892243504524,0.015488560311496258,0.010063647292554379,0.008734114468097687,0.004285684786736965,0.03422051668167114,0.04025391919436762,0.0242476649582386,0.007987086661159992
458,-0.030805259943008423,0.0026485102716833353,-0.008426490239799023,-0.01881207525730133,-0.021024487912654877,-0.019090140238404274,-0.01030028983950615,-0.001806772989516807,-0.018667034804821014,-0.021743889898061752
