,security,conformity,tradition,benevolence,universalism,self-direction,stimulation,hedonism,achievement,power
0,0.00875470507889986,0.001398060005158186,-0.01404499914497137,-0.00047885673120617867,-0.010358082130551338,0.005915308371186256,-0.0056188153102993965,0.0007932926528155804,-0.01174551248550415,0.029933735728263855
1,-0.005979506764560938,-0.016697807237505913,0.013165338896214962,-0.0057219769805669785,-0.00943596102297306,-0.003504895605146885,0.044313617050647736,-0.003036297159269452,0.021309388801455498,0.0003879350842908025
2,0.002907276153564453,-0.0319163054227829,0.005301678087562323,-0.005684557370841503,-0.01955808326601982,-0.0002999524585902691,0.03294150531291962,-0.0031062187626957893,0.0058713555335998535,0.007450086064636707
3,0.01157219149172306,-0.054914023727178574,-0.0061285048723220825,0.004037267994135618,-0.01404634490609169,0.00017365108942613006,-0.006461619399487972,-0.00158749520778656,-0.018417710438370705,0.016429712995886803
4,-0.04497087043101872,-0.007061706120768186,0.02014892389761772,-0.004055000391186846,-0.016808074256592975,-0.012029795518644835,-0.019626030983910567,-0.01190384767497393,0.02391953926624645,-0.007285448790217064
5,-0.01930866949260235,-0.002369591500610113,-0.013432122766971588,-0.014606496319174767,-0.015652494505047798,-0.013841308653354645,-0.0017110389890149236,-0.015177983790636063,-0.004158599767833948,-0.014137043617665768
6,-0.004432831425219774,0.013274836353957653,-0.010949870571494102,-0.010188616812229156,-0.007061050273478031,-0.004783282522112131,0.013810752891004086,-0.005839643068611622,0.01214348990470171,-0.013866684399545193
7,-0.002905943663790822,0.0010768852662295103,0.015488560311496258,0.010063647292554379,0.008734113536775112,0.004285684786736965,0.03422052040696144,0.010810050182044506,0.024247661232948303,0.007987086661159992
8,0.05350404232740402,0.0311377365142107,0.05568477883934975,0.007203822024166584,0.008164258673787117,0.01168825663626194,0.014547989703714848,0.01606365293264389,-0.027400657534599304,0.0537819042801857
9,0.021170249208807945,0.0004035769961774349,0.025118423625826836,0.007710335776209831,0.0016787282656878233,0.010670823976397514,-0.0037174157332628965,0.013583769090473652,0.005655345972627401,0.02821407839655876
10,-0.011955790221691132,-0.00911693274974823,-0.010346360504627228,-0.012509049847722054,-0.017505675554275513,-0.005120369140058756,0.000928177498281002,-0.00923466682434082,0.003155285492539406,0.003458568826317787
11,-0.021501262432685613,0.007457476051881809,-0.016199922912524086,0.002130829278863354,0.01118501498397908,0.007413022844904453,0.01909212423130572,0.014885654978940954,0.02831877289323166,0.007073074678357612
12,-0.002905943663790822,0.0010768852662295103,0.015488560311496258,0.010063647292554379,0.008734113536775112,0.004285684786736965,0.03422052040696144,0.010810050182044506,0.024247661232948303,0.007987086661159992
13,0.0477907657623291,-0.048745445907115936,-0.015105361118912697,0.04144935682415962,0.006429188884794712,0.035905636847019196,-0.025504106655716896,0.03962273895740509,-0.023472430184483528,0.07144826650619507
14,-0.004073423333466053,-0.005674743093550205,0.014606096781790257,0.004067553672939539,0.0018322988180443645,0.0013264704030007124,0.038054339587688446,0.005550582893192768,0.02313157171010971,0.005100588779896498
15,-0.01633276417851448,-0.007671111263334751,0.011329250410199165,-0.02081150934100151,-0.017626352608203888,-0.014425414614379406,0.04559076949954033,-0.01664709858596325,0.03140055015683174,-0.011910741217434406
16,0.002153255045413971,0.01901526004076004,-0.015143010765314102,-0.0062882862985134125,-0.0052656917832791805,-0.003088058438152075,0.008427659049630165,-0.003240704769268632,0.022398691624403,0.0009563951753079891
17,0.012160790152847767,0.0018631098791956902,-0.006066644098609686,0.009134834632277489,0.0005495663499459624,0.009767517447471619,-0.022954290732741356,0.007347791455686092,-0.015141916461288929,0.005698476452380419
18,0.022530466318130493,-0.0337957888841629,-0.011194795370101929,0.009976629167795181,-0.001257244497537613,0.012924454174935818,-0.009329017251729965,0.020618615671992302,-0.006998591125011444,0.04141753539443016
19,0.03250013291835785,-0.01494666188955307,-0.023778380826115608,0.00713958078995347,-0.005976782646030188,0.0015750555321574211,-0.02517029084265232,0.013095948845148087,-0.04052377864718437,0.0399492084980011
20,-0.002905943663790822,0.0010768852662295103,0.015488560311496258,0.010063647292554379,0.008734113536775112,0.004285684786736965,0.03422052040696144,0.010810050182044506,0.024247661232948303,0.007987086661159992
21,0.031032461673021317,-0.01783563382923603,-0.017042608931660652,0.005560832563787699,-0.0032191374339163303,0.009183738380670547,-0.014095315709710121,0.007122545037418604,-0.031152671203017235,0.04133201390504837
22,0.01142211351543665,-0.028476234525442123,-0.001034916378557682,-0.0007054435554891825,-0.011848513036966324,-0.0021127727814018726,-0.002300804015249014,-0.0011191158555448055,0.010598278604447842,0.02700372040271759
23,-0.002905943663790822,0.0010768852662295103,0.015488560311496258,0.010063647292554379,0.008734113536775112,0.004285684786736965,0.03422052040696144,0.010810050182044506,0.024247661232948303,0.007987086661159992
24,0.031237978488206863,0.029129110276699066,-0.0002004613634198904,-0.0017239402513951063,0.007497807499021292,-0.001358358422294259,0.035239946097135544,-0.0019557387568056583,0.0015971000539138913,0.004694167524576187
25,0.021463092416524887,-0.04424302279949188,0.016343651339411736,0.006292371079325676,-0.020268460735678673,-0.00020959018729627132,-0.05830983817577362,-0.005176215898245573,-0.04146362841129303,0.042542964220047
26,-0.002490030135959387,-0.0004816325381398201,0.010009019635617733,-0.00511073088273406,-0.017271894961595535,-0.001377793843857944,-0.0046134390868246555,-0.006455902475863695,-0.025186998769640923,0.015616713091731071
27,0.005684188101440668,-0.03254622220993042,-0.004409602843225002,0.0013438621535897255,-0.01377490907907486,-0.001611411338672042,-0.004864367190748453,-0.0028645023703575134,-0.00567150441929698,0.021436315029859543
28,-0.002905943663790822,0.0010768852662295103,0.015488560311496258,0.010063647292554379,0.008734113536775112,0.004285684786736965,0.03422052040696144,0.010810050182044506,0.024247661232948303,0.007987086661159992
29,0.012249778024852276,-0.023935172706842422,-0.008589881472289562,0.0087211225181818,-0.005281914956867695,0.004037282429635525,-0.0204984862357378,0.007099169306457043,-0.026794729754328728,0.027486883103847504
30,0.009225063025951385,0.013347098603844643,0.0005434876657091081,0.0023259364534169436,0.0015036686090752482,0.004002261441200972,0.00531432218849659,0.003956804517656565,0.01438394095748663,0.02113255485892296
31,0.02166958712041378,-0.027597656473517418,0.00239763711579144,0.014879249036312103,-0.002396961906924844,0.01488769706338644,0.0010031331330537796,0.011530646122992039,0.005732624791562557,0.026433276012539864
32,0.0026313725393265486,-0.014739052392542362,-0.006604253314435482,-0.006450148764997721,-0.012603753246366978,-0.005694441497325897,-0.001859098905697465,-0.00722171226516366,0.013404082506895065,0.01363480556756258
33,-0.016721637919545174,0.014114132151007652,-0.005703350994735956,-0.009552203118801117,-0.010022098198533058,-0.004966044798493385,0.006622000597417355,-0.0035000734496861696,0.020061684772372246,-0.0006086681969463825
34,0.02069004625082016,-0.051006242632865906,-0.0049156490713357925,0.019789736717939377,0.002923206891864538,0.00879791472107172,-0.00042533501982688904,0.021933935582637787,-0.002507884055376053,0.06430800259113312
35,-0.022875931350680875,-0.027628361844151544,-0.009724856728619169,0.011182046237160898,0.004621717415039452,-0.005310622889838376,0.00830655352765075,0.013241778595730528,0.007928330212180446,-0.017684460845209617
36,0.010998904705047607,-0.013763372786343098,0.0010130065493285656,-0.010383957996964455,-0.018439965322613716,-0.006154344417154789,-0.015686025843024254,-0.0017475546337664127,-0.020211633294820786,0.02422996424138546
37,0.03382965177297592,-0.04122185707092285,0.02590189129114151,0.020216936245560646,-0.0024398881942033768,0.0139346644282341,-0.0304045882076025,0.013137416914105415,-0.029956649988889694,0.04621776565909386
38,-0.00666063604876399,-0.020636796951293945,0.01265049260109663,-0.009220171719789505,-0.013462564907968044,-0.005231339018791914,0.04655029997229576,-0.006104735657572746,0.020658252760767937,-0.0012960877502337098
39,0.009157128632068634,-0.019860055297613144,-0.01878560520708561,-0.010303176939487457,-0.017715947702527046,-0.008579927496612072,0.003112973878160119,-0.00979311391711235,0.0028437436558306217,-0.004163843579590321
40,0.0017461979296058416,-0.020547080785036087,0.023478228598833084,-0.007455052807927132,-0.020153861492872238,0.00046380492858588696,0.025267962366342545,-0.006434752605855465,-0.015105330385267735,0.020800122991204262
41,0.010612116195261478,0.01700739376246929,-0.02020871825516224,0.004814291372895241,-0.0024835262447595596,0.007907663471996784,-0.01052011176943779,-0.0006401804275810719,-0.02894539386034012,0.0160719845443964
42,-0.009649433195590973,-0.037921302020549774,0.01039133407175541,-0.024570444598793983,-0.031131524592638016,-0.012807062827050686,0.056365035474300385,-0.019569214433431625,0.017801018431782722,-0.008685664273798466
43,0.042115263640880585,-0.06494170427322388,0.030302075669169426,0.014606139622628689,-0.005910622421652079,0.011800410225987434,-0.04975647106766701,0.008894262835383415,-0.0327533595263958,0.05392967537045479
44,-0.006708301603794098,-0.0019087267573922873,-0.010575631633400917,-0.005395694635808468,-0.007174244150519371,-0.005578237120062113,-0.013459204696118832,-0.0065140267834067345,-0.0035299481824040413,-0.005320606287568808
45,0.00038355853263702736,-0.009251203022864411,0.0038044934811205912,0.018487108610921434,0.025901131525634547,0.021756009361036846,0.014388868065030518,0.010759178269702307,0.004541350934203433,0.007878206750308304
46,0.009390340186655521,-0.012276445515453815,-0.039526596665382385,-0.005404402501881123,-0.016374625265598297,0.0033294097520411015,-0.0028551516588777304,0.006101096048951149,-0.02533123828470707,0.016636988148093224
47,0.08445457369089127,-0.03308317810297012,0.00862528383731842,0.05999910831451416,0.013256835751235485,0.048965685069561005,-0.04726669192314148,0.05501305311918259,-0.05893068015575409,0.09125947952270508
48,0.0011411317391321063,0.0006466117920354009,-0.006564618553966284,0.0002384505933150649,-0.003930245526134968,0.0010148223955184221,0.029815170913934708,0.003787652589380741,0.007491991855204105,0.002843331079930067
49,-0.03092527762055397,0.005748406983911991,0.0723695233464241,0.0014131654752418399,-0.00815119780600071,-0.01639220118522644,0.07906898856163025,-0.007050881162285805,0.0016912072896957397,-0.02773568034172058
50,-0.004073423333466053,-0.005674743093550205,0.014606096781790257,0.004067553672939539,0.0018322988180443645,0.0013264704030007124,0.038054339587688446,0.005550582893192768,0.02313157171010971,0.005100588779896498
51,0.004019113257527351,0.08139470964670181,-0.051305364817380905,0.014041241258382797,0.008830897510051727,0.02173927053809166,-0.025129856541752815,0.017996665090322495,0.0068532200530171394,0.01498495414853096
52,0.04146968945860863,-0.0009311651811003685,0.01585008017718792,0.026260575279593468,0.004722612909972668,0.02077956683933735,-0.0250899288803339,0.021294470876455307,-0.03317325934767723,0.05638455972075462
53,0.018058516085147858,-0.037469666451215744,-0.0007679682457819581,0.011063375510275364,-0.008018084801733494,0.01229324284940958,0.015107454732060432,0.01228451170027256,-0.0005176253616809845,0.030992744490504265
54,-0.0048963152803480625,-0.010433601215481758,0.013984094373881817,-0.00015876564430072904,-0.003032414708286524,-0.0007593182381242514,0.040756579488515854,0.0018434688681736588,0.02234490215778351,0.003066049423068762
55,0.014019910246133804,-0.00655935937538743,-0.011504700407385826,0.010034284554421902,-0.0059514292515814304,0.014122326858341694,0.003909537568688393,0.011862306855618954,-0.0028970972634851933,0.027825182303786278
56,0.008802540600299835,0.0027285353280603886,-0.013628740794956684,0.005809991620481014,0.011283375322818756,0.004606850445270538,0.024009453132748604,0.005816183052957058,-0.0018134014680981636,0.009574918076395988
57,-0.046512771397829056,0.05051537975668907,-0.02558222785592079,-0.027936333790421486,-0.009731557220220566,-0.03002382442355156,0.023890668526291847,-0.02107049711048603,0.017592214047908783,-0.05146030709147453
58,-0.00623294385150075,-0.013842898420989513,-0.004018502309918404,0.008011117577552795,-0.006533436011523008,0.007081909105181694,0.00664371345192194,0.011770742014050484,0.015719803050160408,0.03542574122548103
59,-0.002905943663790822,0.0010768852662295103,0.015488560311496258,0.010063647292554379,0.008734113536775112,0.004285684786736965,0.03422052040696144,0.010810050182044506,0.024247661232948303,0.007987086661159992
60,-0.012095127254724503,0.003777820151299238,0.0022952635772526264,-0.017263539135456085,-0.006015121936798096,-0.020746985450387,0.014162175357341766,-0.01663493737578392,0.049187351018190384,-0.012567488476634026
61,0.0179985873401165,-0.03158014267683029,-0.0003715141792781651,0.005521995015442371,-0.009310736320912838,0.005091527011245489,-0.00867094099521637,-0.00027842726558446884,-0.02910640463232994,0.02273845672607422
62,0.04500624164938927,-0.0604793056845665,0.028704434633255005,0.022105582058429718,-0.001458004117012024,0.013379356823861599,-0.07187528908252716,0.012446187436580658,-0.03995645046234131,0.06081271916627884
63,0.016309501603245735,-0.044487837702035904,0.01175067387521267,0.011768621392548084,-0.011033532209694386,0.010071411728858948,-0.05526939034461975,0.007856309413909912,-0.027880487963557243,0.041360147297382355
64,0.02390025556087494,-0.030383966863155365,-0.02069515734910965,0.0022620735689997673,-0.01198490895330906,0.006247277371585369,-0.0273013636469841,0.006672827526926994,-0.026628686115145683,0.03322051092982292
65,0.0018332768231630325,0.00046070199459791183,0.02165399119257927,0.010489709675312042,0.0041871992871165276,0.007281703408807516,0.02230982668697834,0.010099106468260288,0.003484685905277729,0.020461494103074074
66,-0.005222942680120468,-0.012322500348091125,0.01373720820993185,-0.001836288021877408,-0.004963329993188381,-0.0015872151125222445,0.04182915762066841,0.00037203123793005943,0.022032657638192177,0.0022584935650229454
67,-0.009649434126913548,-0.037921302020549774,0.010391338728368282,-0.024570446461439133,-0.031131522729992867,-0.012807061895728111,0.056365035474300385,-0.019569214433431625,0.01780102215707302,-0.008685663342475891
68,-0.0035915207117795944,0.012380195781588554,-0.009162688627839088,-0.011621695011854172,-0.01389804296195507,-0.01137659139931202,-0.004282655660063028,-0.006802592892199755,0.007742193527519703,0.021105501800775528
69,0.005466495640575886,-0.016521599143743515,0.004986354615539312,-0.0031490284018218517,-0.011700449511408806,0.0016396369319409132,0.014646563678979874,-0.0014562236610800028,0.005690933205187321,0.012300631031394005
70,0.00653372798115015,-0.010543188080191612,0.015994122251868248,-0.0016305982135236263,-0.009149564430117607,-5.711894482374191e-05,-0.024728190153837204,0.0027644182555377483,-0.02340761199593544,0.009468222968280315
71,-0.017559519037604332,-0.010760861448943615,0.011218772269785404,0.010507771745324135,-0.0018863980658352375,-0.012324029579758644,0.0076516359113156796,-0.0142721738666296,0.0226872731000185,-0.02887006103992462
72,0.023233840242028236,-0.07651926577091217,-0.018439097329974174,0.022875189781188965,-0.0034458227455615997,0.010385564528405666,-0.0006525847129523754,0.023867186158895493,-0.007555621210485697,0.06808427721261978
73,0.015497701242566109,-0.0037080813199281693,-0.04601699113845825,0.0024637379683554173,-0.009004473686218262,0.008584531024098396,-0.017792344093322754,0.014228185638785362,-0.03471869230270386,0.026752784848213196
74,0.015818558633327484,-0.019203979521989822,0.0033953916281461716,0.004908883944153786,-0.007868192158639431,0.0017800497589632869,-0.020475298166275024,-0.00024317298084497452,-0.012675928883254528,0.02494104951620102
75,-0.004215432330965996,-0.006048635579645634,-0.014867151156067848,-0.0068154409527778625,-0.0058463807217776775,0.0022129123099148273,0.011373020708560944,0.003272134345024824,0.02554839476943016,0.005045692436397076
76,-0.009349547326564789,-0.02233562432229519,0.009079430252313614,0.004507909063249826,-0.010075339116156101,0.004887291230261326,0.0102166049182415,0.0098990174010396,-0.01941748522222042,0.041575685143470764
77,0.014449205249547958,-0.0011796224862337112,0.038066502660512924,0.011623894795775414,-0.00791679136455059,0.015257173217833042,-0.00939672440290451,0.008206559345126152,-0.05178684741258621,0.05366864055395126
78,-0.004143495112657547,-0.02344978228211403,0.014328667894005775,-0.023057185113430023,-0.02852780558168888,-0.010784409008920193,0.04737427085638046,-0.015756679698824883,0.0068741743452847,-0.00312115834094584
79,0.0006342388223856688,-0.003652455285191536,-0.011127013713121414,-0.00041673751547932625,-0.004249274265021086,0.006926541682332754,0.005365913733839989,0.008292920887470245,-0.014890158548951149,0.014613796025514603
80,0.03078165277838707,-0.027571307495236397,-0.00796360895037651,0.030088147148489952,-0.0023185363970696926,0.024858152493834496,-0.016653383150696754,0.028029844164848328,-0.02383950538933277,0.041258305311203
81,-0.019533678251664563,-0.05242452468298098,-0.009813290731136211,-0.021193474529720938,-0.006994562037361629,-0.013309064037563793,0.02230910526788954,-0.018591401333023047,0.011964169386378502,-0.008867261484187216
82,0.02520126849412918,-0.021218307316303253,-0.001873732777312398,0.005852915812283754,-0.007112385239452124,0.005564363673329353,-0.032213449478149414,0.0058357855305075645,-0.024957360699772835,0.024422522634267807
83,-0.025086399167776108,0.016197482123970985,0.0006774483481422067,-0.01674901694059372,-0.004713437519967556,-0.015223091468214989,-0.033553220331668854,-0.014989037998020649,-0.03662348911166191,-0.04582582786679268
84,-0.004073423333466053,-0.005674743093550205,0.014606096781790257,0.004067553672939539,0.0018322988180443645,0.0013264704030007124,0.038054339587688446,0.005550582893192768,0.02313157171010971,0.005100588779896498
85,0.004594124853610992,-0.023873958736658096,0.019653407856822014,-0.007095751818269491,-0.009536858648061752,-0.005644696298986673,0.015012366697192192,-0.009525075554847717,-0.008981123566627502,0.009778019040822983
86,0.018391776829957962,0.02300329878926277,0.004326915368437767,0.005762796849012375,0.0013943561352789402,0.009789559990167618,-0.0034061879850924015,0.007754490710794926,-0.006999093107879162,0.005811753682792187
87,0.014041051268577576,0.00031810812652111053,0.0005985989701002836,0.009690631181001663,-0.0022318996489048004,0.011687936261296272,-0.004138262942433357,0.0097352871671319,-0.003801042214035988,0.024901889264583588
88,-0.007539406418800354,0.014355303719639778,0.01762225478887558,0.004616015590727329,0.004684485960751772,-0.015258804894983768,0.026921413838863373,-0.01931881532073021,0.010363686829805374,0.016037892550230026
89,-0.009649435058236122,-0.037921302020549774,0.01039133407175541,-0.024570446461439133,-0.031131522729992867,-0.012807061895728111,0.056365035474300385,-0.019569214433431625,0.017801016569137573,-0.008685663342475891
90,0.021695926785469055,0.011044668033719063,-0.01498192548751831,-0.002174064051359892,-0.011685405857861042,0.006929255090653896,-0.03234391659498215,0.0015812241472303867,-0.034632712602615356,0.045347828418016434
91,0.0032595403026789427,0.07258497178554535,-0.04397900775074959,0.01360495574772358,0.008820283226668835,0.019824858754873276,-0.018619954586029053,0.017208393663167953,0.008761134929955006,0.014217384159564972
92,-0.049639567732810974,0.04647983983159065,0.00015577301383018494,-0.04297110065817833,-0.00832483172416687,-0.03983978554606438,0.05210589990019798,-0.03559128940105438,0.09662388265132904,-0.0557808056473732
93,0.004019113257527351,0.08139470964670181,-0.051305364817380905,0.014041241258382797,0.008830897510051727,0.02173927053809166,-0.025129856541752815,0.017996665090322495,0.0068532200530171394,0.01498495414853096
94,-0.002905943663790822,0.0010768852662295103,0.015488560311496258,0.010063647292554379,0.008734113536775112,0.004285684786736965,0.03422052040696144,0.010810050182044506,0.024247661232948303,0.007987086661159992
95,-0.002905943663790822,0.0010768852662295103,0.015488560311496258,0.010063647292554379,0.008734113536775112,0.004285684786736965,0.03422052040696144,0.010810050182044506,0.024247661232948303,0.007987086661159992
96,-0.0048963152803480625,-0.010433601215481758,0.013984094373881817,-0.00015876561519689858,-0.0030324142426252365,-0.0007593182381242514,0.040756579488515854,0.0018434688681736588,0.02234490215778351,0.003066049423068762
97,0.022627703845500946,-0.009539668448269367,-0.020689327269792557,0.0068233138881623745,-0.008866154588758945,0.018106864765286446,-0.002908846130594611,0.007616117596626282,-0.010610970668494701,0.032865989953279495
98,0.017804674804210663,-0.0067650736309587955,-0.012373000383377075,0.007041557691991329,-0.012128434143960476,0.003995557781308889,-0.04255462810397148,0.0022152187302708626,-0.04180239886045456,0.03485844284296036
99,-0.0026506276335567236,-0.026837948709726334,-0.010393035598099232,0.002129132393747568,-0.0065537975169718266,0.003070579841732979,0.0036163299810141325,0.004306080751121044,-0.007084546610713005,0.048045601695775986
100,0.03082174062728882,-0.05362575501203537,0.0047169155441224575,0.020676448941230774,-0.012259412556886673,0.011159244924783707,-0.0712670385837555,0.009277835488319397,-0.028052695095539093,0.04136992245912552
101,0.016748107969760895,0.010901116766035557,0.03606637939810753,0.008995084092020988,0.004841800779104233,0.011166605167090893,-0.004372938070446253,0.01768437586724758,0.005785482469946146,0.03019135817885399
102,0.03635464981198311,0.003018892602995038,0.03941228240728378,0.02180807664990425,0.01522474642843008,0.022907759994268417,0.0042745983228087425,0.020394766703248024,-0.009283710271120071,0.03965822234749794
103,0.015244565904140472,-0.03122198022902012,0.014266260899603367,0.00782680418342352,-0.005791915114969015,0.006515890825539827,-0.030620289966464043,0.005898536182940006,-0.028337541967630386,0.04396432638168335
104,0.008595279417932034,-0.008540315553545952,0.00882288720458746,-0.0007731253281235695,-0.00846789125353098,0.0008572114165872335,0.012811523862183094,0.0006144403014332056,0.012562255375087261,0.003233671421185136
105,-0.03294765204191208,-0.05537794530391693,-0.017564069479703903,-0.007574215065687895,-0.020145229995250702,-0.02184044010937214,0.030314283445477486,-0.018832124769687653,0.007271266542375088,-0.02709425613284111
106,-0.004182465840131044,-0.002166684251278639,0.0008505807491019368,-0.005792601034045219,-0.011053595691919327,-0.0001584901474416256,0.03177136927843094,-0.0025218897499144077,0.015018947422504425,0.002961160847917199
107,-0.013783132657408714,0.012847953476011753,-0.01598484441637993,-0.013978928327560425,-0.0071539380587637424,-0.01019175723195076,0.003326300997287035,-0.013002735562622547,0.010731473565101624,-0.009697193279862404
108,0.009722226299345493,0.005012028850615025,0.007481907028704882,-0.0008066440932452679,-0.003078003413975239,0.0067572444677352905,-0.012083029374480247,0.006403653882443905,0.014911909587681293,0.03765451908111572
109,-0.020948395133018494,0.001827904605306685,0.005786985624581575,-0.014294831082224846,-0.010347687639296055,-0.006003891583532095,0.028129367157816887,-0.014733076095581055,-0.0011495151557028294,-0.007611650973558426
110,-0.004073423333466053,-0.005674743093550205,0.014606096781790257,0.004067553672939539,0.0018322988180443645,0.0013264704030007124,0.038054339587688446,0.005550582893192768,0.02313157171010971,0.005100588779896498
111,-0.005979506764560938,-0.016697807237505913,0.013165338896214962,-0.0057219769805669785,-0.00943596102297306,-0.003504895605146885,0.044313617050647736,-0.003036297159269452,0.021309388801455498,0.0003879350842908025
112,0.005153491161763668,-0.011384166777133942,-0.030469931662082672,-0.009595388546586037,0.0011638544965535402,0.003267154097557068,0.04302661120891571,6.15529716014862e-05,-0.024780942127108574,0.030836744233965874
113,-0.008051340468227863,0.03026673011481762,-0.00689716637134552,-0.0003785311128012836,0.0044888644479215145,0.008978117257356644,0.0071320245042443275,0.0059595415368676186,-0.007510219234973192,0.006913388147950172
114,-0.007366737350821495,-0.02472022920846939,0.012116771191358566,-0.012846650555729866,-0.017636828124523163,-0.007021092809736729,0.04886902868747711,-0.0092856977134943,0.019983235746622086,-0.003041856689378619
115,-0.03905007615685463,0.043068207800388336,-0.003129898337647319,-0.038022883236408234,-0.009347513318061829,-0.0331408753991127,0.04632963985204697,-0.02974177896976471,0.07619700580835342,-0.04729123413562775
116,0.010742101818323135,-0.019154416397213936,0.02450835146009922,0.004557395353913307,-0.01277865655720234,0.005070531740784645,-0.008726216852664948,0.000498743262141943,-0.028436938300728798,0.03517678380012512
117,-0.009649434126913548,-0.037921302020549774,0.010391338728368282,-0.024570446461439133,-0.031131522729992867,-0.012807061895728111,0.056365035474300385,-0.019569214433431625,0.01780102215707302,-0.008685663342475891
118,0.01574571616947651,0.0011599198915064335,-0.017659345641732216,-0.00468668807297945,-0.008793395012617111,0.0010697472607716918,-0.030616823583841324,0.0005997440312057734,-0.01453959196805954,0.015444662421941757
119,-0.009649434126913548,-0.037921302020549774,0.010391338728368282,-0.024570446461439133,-0.031131522729992867,-0.012807061895728111,0.056365035474300385,-0.019569214433431625,0.01780102215707302,-0.008685663342475891
120,-0.03326316550374031,0.030569735914468765,0.005528689827769995,-0.024386659264564514,-0.002347033703699708,-0.024377334862947464,0.04583850875496864,-0.019331322982907295,0.07126179337501526,-0.03343525156378746
121,0.018911922350525856,-0.0362299382686615,-0.0009578573517501354,0.023644015192985535,-0.0013262517750263214,0.0144750801846385,-0.025717467069625854,0.019116191193461418,-0.014779087156057358,0.04429569095373154
122,0.004201273899525404,-0.005558610428124666,-0.00696050887927413,0.0017114351503551006,-0.003227761946618557,0.0028234783094376326,0.00760820833966136,0.0050516277551651,0.0012324386043474078,0.030227310955524445
123,-0.04207915440201759,0.03325647860765457,0.002454204484820366,-0.03819256275892258,-0.01080906018614769,-0.03419099748134613,0.05137120187282562,-0.0314679816365242,0.08208490908145905,-0.0461951345205307
124,-0.0016494736773893237,-0.014117593877017498,-0.01485839020460844,0.004781041759997606,-0.0034127612598240376,0.005767609924077988,-0.0008191678207367659,0.006980817764997482,-0.0057810768485069275,0.04585589841008186
125,0.004338589496910572,-0.017626553773880005,-0.0076299854554235935,-0.006509621627628803,-0.0008010037709027529,0.0037805833853781223,-0.00674973800778389,-0.006571567617356777,-0.0014631440863013268,0.0008554535452276468
126,0.0011458329390734434,-0.012723968364298344,-0.002247896511107683,0.014110767282545567,0.0017920001409947872,0.012024279683828354,0.008428748697042465,0.014664444141089916,-0.003702539252117276,0.008499433286488056
127,0.011826274916529655,0.03976224735379219,-0.06959009915590286,-0.003935603424906731,-0.02249213121831417,0.0057206545025110245,-0.0389203317463398,-0.007363729644566774,-0.03512885048985481,0.05590077117085457
128,0.033235806971788406,0.014547720551490784,0.005103616509586573,0.023695776239037514,-0.002092184731736779,0.023714415729045868,-0.006156309507787228,0.019046258181333542,-0.03631327301263809,0.0448332317173481
129,-0.009649434126913548,-0.037921302020549774,0.010391338728368282,-0.024570446461439133,-0.031131522729992867,-0.012807061895728111,0.056365035474300385,-0.019569214433431625,0.01780102215707302,-0.008685663342475891
130,-0.012798388488590717,0.0011852950556203723,-0.015946723520755768,-0.013895039446651936,-0.012022929266095161,-0.011328311637043953,-0.011838353238999844,-0.01414834801107645,-0.004599396139383316,-0.007452044636011124
131,-0.00666063604876399,-0.020636796951293945,0.01265049260109663,-0.009220171719789505,-0.013462564907968044,-0.005231339018791914,0.04655029997229576,-0.006104735657572746,0.020658252760767937,-0.0012960877502337098
132,-0.03484786088228233,-0.03621955039489241,-0.010025472453500228,-0.018543344486196985,-0.01628699199226061,-0.015875117474976157,-0.039609383724356836,-0.019693170098440998,0.006510988103183898,-0.014534510408606384
133,-0.014604562893509865,-6.257661152631044e-05,-0.02363063022494316,-0.010412110015749931,-0.00849829986691475,-0.008822832256555557,0.002285170601680875,-0.009259691461920738,0.004997812211513519,-0.01093854010105133
134,0.017946254462003708,-0.042754754424095154,0.003135164501145482,0.017501698806881905,0.0027918231207877398,0.015389992855489254,-0.026072394102811813,0.008638178929686546,-0.0052840011194348335,0.05365869030356407
135,0.038953252136707306,-0.012783482670783997,-0.025287913158535957,0.0004108436405658722,-0.016432156786322594,0.012697653844952583,-0.008046681992709637,0.012460648082196712,-0.005896185990422964,0.026287563145160675
136,0.011532953009009361,0.05086055397987366,0.005416856147348881,-0.017923977226018906,-0.010413415729999542,-0.006847879383713007,-0.043077562004327774,-0.0070175593718886375,0.0027213466819375753,0.016457952558994293
137,0.0019750806968659163,-0.026395132765173912,-0.012460251338779926,-0.011454453691840172,-0.019249215722084045,-0.004607768729329109,0.0172889344394207,-0.009225919842720032,0.0015832313802093267,0.004408461973071098
138,-0.008349481970071793,-0.030403582379221916,0.011373931542038918,-0.01789400354027748,-0.023446597158908844,-0.009512078948318958,0.05209621414542198,-0.013712980784475803,0.01904373988509178,-0.0054716430604457855
139,0.03832834213972092,-9.534414857625961e-06,0.017954116687178612,0.020596254616975784,0.0037173780146986246,0.014030696824193,0.006614655256271362,0.012017681263387203,-0.004505417309701443,0.028031321242451668
140,0.02574844806589801,0.003098952535559029,-0.04113432619644515,0.0008708610960661649,-0.001851971839164425,0.0026475658811364097,-0.008715875425670205,-0.0069527339955357485,-0.012139937692371892,-0.005196357535940553
141,-0.0026874453760683537,-0.013051752001047134,0.015901772305369377,-0.005377055145800114,-0.009982995688915253,-0.0018363269045948982,0.03815522417426109,-0.002426053397357464,0.011790095828473568,0.010117707774043083
142,0.027777981013059616,-0.00400247098878026,-0.001172633608803153,0.02382882684469223,0.0043325964361429214,0.019672978669404984,-0.001368567580357194,0.0189976803958416,0.009581412188708782,0.03436674177646637
143,-0.0018146184738725424,0.008075724355876446,-0.004404592793434858,-0.0036849300377070904,-0.010511090978980064,0.003325761528685689,0.021065380424261093,-0.0005761778447777033,0.007662016432732344,0.007934811525046825
144,-0.002905943663790822,0.0010768852662295103,0.015488560311496258,0.010063647292554379,0.008734113536775112,0.004285684786736965,0.03422052040696144,0.010810050182044506,0.024247661232948303,0.007987086661159992
145,0.017260925844311714,-0.06324915587902069,-0.009597106836736202,0.008024971932172775,-0.015266470611095428,0.0036685371305793524,-0.004101358819752932,0.007525318302214146,-0.00891878642141819,0.03738271817564964
146,0.018031209707260132,-0.0344829186797142,0.012921848334372044,0.012289216741919518,-0.008526499383151531,0.0009645813843235373,-0.04888521134853363,0.0015292796306312084,-0.022351698949933052,0.034940123558044434
147,0.013026335276663303,0.0359615720808506,-0.032247595489025116,-0.00330174108967185,-0.00814334861934185,0.004329106770455837,-0.007874342612922192,-0.00319075514562428,-0.02244453877210617,0.015392797999083996
148,0.0165148563683033,-0.003224264830350876,-0.008262941613793373,0.008317779749631882,-0.009265275672078133,0.00786461029201746,-0.03272394463419914,0.005338088609278202,-0.038223203271627426,0.03866007179021835
149,-0.012928910553455353,0.0009589004330337048,0.014794746413826942,-0.01255115121603012,-0.010072542354464531,-0.009284384548664093,0.036096956580877304,-0.009798258543014526,0.02510894276201725,-0.003351624123752117
150,-0.004517647437751293,-0.008243738673627377,0.014270320534706116,0.001786044449545443,-0.0007938367780297995,0.00020049081649631262,0.03951309621334076,0.003549356944859028,0.022706901654601097,0.0040022763423621655
151,0.021229539066553116,0.030268725007772446,-0.001999316504225135,0.003246279899030924,-0.008752623572945595,0.006501922383904457,-0.06690891087055206,0.004670395981520414,-0.06103622540831566,0.06808365136384964
152,0.008025906048715115,-0.03280451521277428,0.017386848106980324,0.019450541585683823,0.00514940544962883,0.016934089362621307,-0.018565258011221886,0.017097944393754005,-0.009706932120025158,0.025804251432418823
153,0.025966227054595947,-0.022838763892650604,-0.0074442061595618725,0.014175406657159328,-0.010032321326434612,0.007336588576436043,-0.01846296526491642,0.011895399540662766,-0.029001321643590927,0.028524484485387802
154,-0.0271688459865033,0.029771777534121587,-0.0045194166553353815,-0.015583208045618156,-0.014816166878337238,-0.010013670434981047,-0.027598308807546774,-0.010623968589439052,-0.039152412127690855,-0.010863629873278475
155,0.025280430912971497,-0.04904665797948837,0.0026740641333162785,0.008738626725971699,-0.012083984911441803,0.005165725480765104,-0.03936280310153961,0.0011984691955149174,-0.03114892914891243,0.03064562752842903
156,0.02516401745378971,-0.020336050540208817,-0.013223929330706596,0.004393391311168671,-0.012583738192915916,0.004756573587656021,-0.04442691430449486,0.002932433970272541,-0.04551791399717331,0.03462102264165878
157,0.04563203454017639,0.018174517899751663,0.0010578508954495192,0.023373620584607124,0.013822515495121479,0.01690724864602089,0.010678695514798164,0.014782698825001717,0.007603238336741924,0.03505812585353851
158,0.030226565897464752,-0.04180768504738808,-0.00493996124714613,0.023591697216033936,-0.0022526192478835583,0.020511537790298462,-0.009512275457382202,0.02207103557884693,-0.0126796904951334,0.04803157225251198
159,0.009541341103613377,-0.008580248802900314,-0.018028507009148598,-0.0001668271142989397,-0.015229363925755024,0.012106087058782578,-0.013276301324367523,0.0008083595894277096,-0.030234605073928833,0.025691291317343712
160,0.007539164274930954,-0.009060206823050976,-0.007082101423293352,-0.0006858743727207184,-0.012721629813313484,0.0039405617862939835,0.008424025028944016,0.0021942537277936935,-0.019036706537008286,0.019864585250616074
161,-0.009649434126913548,-0.037921302020549774,0.010391338728368282,-0.024570446461439133,-0.031131522729992867,-0.012807061895728111,0.056365035474300385,-0.019569214433431625,0.01780102215707302,-0.008685663342475891
162,0.03206104040145874,-0.004991843365132809,0.004921368323266506,0.018427543342113495,0.00655096210539341,0.02859427034854889,-0.02502688206732273,0.021163983270525932,-0.07958987355232239,0.06539839506149292
163,-0.029042242094874382,0.04155745357275009,0.020669423043727875,-0.006474907044321299,0.0037411293014883995,-0.0006462936289608479,0.028880605474114418,-0.002763192867860198,0.028283659368753433,0.005459410138428211
164,-0.01905343309044838,0.010660940781235695,-0.006600968539714813,-0.017586268484592438,-0.009561905637383461,-0.012047000229358673,0.02671888656914234,-0.011520344763994217,0.03483491390943527,-0.009149616584181786
165,0.036019206047058105,-0.037176914513111115,-0.008001582697033882,0.034161731600761414,0.006964382249861956,0.028563620522618294,-0.011636306531727314,0.03293255716562271,-0.012392031028866768,0.056712862104177475
166,0.04004254192113876,-0.043723173439502716,0.008863469585776329,0.02738582156598568,-0.0016730278730392456,0.021206779405474663,-0.04476092755794525,0.02181684598326683,-0.017877766862511635,0.05372751131653786
167,0.00516261113807559,-0.01066688634455204,0.011249826289713383,-0.004440806340426207,-0.003710673889145255,-0.0031284091528505087,0.009047169238328934,-0.0026371018029749393,0.02639961615204811,0.008480180986225605
168,0.01896928995847702,-0.010007480159401894,-0.04961618781089783,0.00865275040268898,-0.013522570952773094,0.0086323581635952,-0.026225216686725616,0.0037745004519820213,-0.030863793566823006,0.04109233617782593
169,-0.018328925594687462,0.02180812694132328,-0.025675339624285698,-0.012434191070497036,-0.004730594344437122,-0.008192313835024834,0.009078164584934711,-0.005997519940137863,0.003704539267346263,-0.010464413091540337
170,-0.002905943663790822,0.0010768852662295103,0.015488560311496258,0.010063647292554379,0.008734113536775112,0.004285684786736965,0.03422052040696144,0.010810050182044506,0.024247661232948303,0.007987086661159992
171,0.004621988162398338,-0.0008920205291360617,0.015235023573040962,0.0006349642062559724,-0.004833525978028774,0.0038130348548293114,-0.010843434371054173,0.002616405952721834,-0.01034189946949482,0.023764243349432945
172,-0.0048963152803480625,-0.010433601215481758,0.013984094373881817,-0.00015876561519689858,-0.0030324142426252365,-0.0007593182381242514,0.040756579488515854,0.0018434688681736588,0.02234490215778351,0.003066049423068762
173,0.01915459707379341,-0.03600240498781204,0.015351049602031708,0.004621793515980244,-0.015350084751844406,0.0049005113542079926,-0.025786438956856728,0.0039113955572247505,-0.034868597984313965,0.03504129871726036
174,-0.009649434126913548,-0.037921302020549774,0.010391338728368282,-0.024570446461439133,-0.031131522729992867,-0.012807061895728111,0.056365035474300385,-0.019569214433431625,0.01780102215707302,-0.008685663342475891
175,0.029851645231246948,-0.035430438816547394,0.00934235192835331,0.004708318971097469,-0.01769431307911873,0.005754990968853235,-0.047063812613487244,0.0024825837463140488,-0.025510288774967194,0.037523627281188965
176,0.021290993317961693,-0.03763263672590256,-0.0033945064060389996,0.013199832290410995,-0.005050583276897669,0.010276591405272484,-0.011765563860535622,0.015064500272274017,-0.015028663910925388,0.054497942328453064
177,0.007134560029953718,-0.014048035256564617,0.02742180973291397,0.002937915036454797,-0.009707251563668251,0.006621180102229118,0.034175727516412735,0.007181107532233,0.007473574951291084,0.008170951157808304
178,0.006950262933969498,0.0401424914598465,-0.0660785660147667,-0.010295704007148743,-0.024148475378751755,0.004736348055303097,-0.02040497586131096,-0.01308274082839489,-0.028855886310338974,0.045895956456661224
179,-0.049639567732810974,0.046479836106300354,0.0001557711511850357,-0.04297110065817833,-0.008324834518134594,-0.03983978554606438,0.05210589990019798,-0.03559128940105438,0.09662388265132904,-0.0557808056473732
180,-0.04271046072244644,-0.0028283793944865465,-0.038214489817619324,-0.000624121050350368,-0.01529233530163765,-0.0068302880972623825,0.04005470871925354,-0.0011715810978785157,0.019470758736133575,-0.03262362629175186
181,0.03067883662879467,-0.011492256075143814,-0.02388467639684677,-0.001701153814792633,-0.008026991039514542,0.008580975234508514,-0.01491958275437355,0.004913348704576492,-0.007465070113539696,0.027547836303710938
182,-0.001603629789315164,0.027676472440361977,-0.017633456736803055,0.0017944173887372017,-0.0029063140973448753,0.007539603393524885,0.012608792632818222,0.005307597108185291,0.01412138156592846,0.006413202732801437
183,-0.007973206229507923,-0.03536565601825714,0.012316335923969746,-0.02205287292599678,-0.02951677329838276,-0.010854997672140598,0.05179084464907646,-0.017637213692069054,0.012960700318217278,-0.004348483402282
184,0.013231029734015465,-0.0196578036993742,0.020474964752793312,0.003978981636464596,-0.010908860713243484,0.0026000284124165773,0.0016822877805680037,0.0012795573566108942,-0.021720606833696365,0.019462211057543755
185,0.019589843228459358,0.015751073136925697,0.035739466547966,0.01801561377942562,0.006369954440742731,0.010121174156665802,0.023179572075605392,0.008011390455067158,-0.005731398239731789,0.033222123980522156
186,0.028114426881074905,-0.0323299765586853,0.003384018549695611,0.012867053970694542,-0.004506219178438187,0.014236298389732838,0.0005438593216240406,0.013888767920434475,-0.005189237184822559,0.045872997492551804
187,0.03226076066493988,-0.049707747995853424,-0.004744159989058971,0.02093842253088951,0.002919478341937065,0.02097790688276291,-0.02411961741745472,0.0072686318308115005,-0.013357284478843212,0.02436799556016922
188,0.005534365773200989,-0.008544713258743286,-0.003924117423593998,0.005935432389378548,0.001765894703567028,0.006583459675312042,-0.010428513400256634,0.007541955448687077,-0.0016283985460177064,0.03667065128684044
189,0.007728669326752424,0.00559338741004467,-0.008794457651674747,0.008256431668996811,0.0033233612775802612,0.003234084229916334,-0.018222277984023094,0.002279838314279914,0.005284328944981098,0.01771346852183342
190,0.02874978631734848,-0.03391120955348015,-0.004216235131025314,0.027010377496480942,0.008024157956242561,0.03796911984682083,-0.03433994576334953,0.022368736565113068,-0.026424914598464966,0.07664967328310013
191,0.007970579899847507,0.0007510203868150711,-0.025093721225857735,-0.00668673450127244,-0.016113828867673874,-0.0025453176349401474,-0.004259161651134491,-0.007312494795769453,-0.02336052991449833,0.010219860821962357
192,0.00491527421399951,-0.05113337188959122,-0.01596471481025219,0.005525450222194195,-0.005343194585293531,-0.003922012634575367,0.00803842581808567,0.00711509445682168,0.01605207286775112,0.03754642605781555
193,-0.04988596588373184,0.03058703988790512,-0.006875121966004372,-0.03164885193109512,-0.011449947953224182,-0.023432254791259766,0.029427168890833855,-0.01656314916908741,0.019318876788020134,-0.01867583394050598
194,-0.02611646056175232,0.004492748063057661,-0.01491416897624731,-0.02426699921488762,-0.017029093578457832,-0.01931178942322731,-0.007654797285795212,-0.021879427134990692,-0.0007956018671393394,-0.02598736435174942
195,-0.009649435058236122,-0.037921302020549774,0.01039133407175541,-0.024570446461439133,-0.031131522729992867,-0.012807061895728111,0.056365035474300385,-0.019569214433431625,0.017801016569137573,-0.008685663342475891
196,-0.017458617687225342,0.020080508664250374,-0.008177530951797962,-0.017842451110482216,-0.011610329151153564,-0.010775904171168804,0.032728154212236404,-0.012681123800575733,0.03856288269162178,-0.015378703363239765
197,-0.0031731603667140007,-0.0011839214712381363,0.0014558660332113504,-0.006858763284981251,-0.009980237111449242,-0.005087670404464006,0.027500959113240242,-0.0051732296124100685,0.010572408325970173,0.011189904995262623
198,0.015557080507278442,0.025951193645596504,0.0016738187987357378,0.01002025417983532,0.0072829509153962135,0.013081545010209084,-0.001413701567798853,0.02307986468076706,-0.034410953521728516,0.027089711278676987
199,0.0018286993727087975,0.01842360384762287,-0.003117064945399761,-0.004961760248988867,-0.0021772042382508516,-0.002389169530943036,0.02082737348973751,-0.00709934439510107,0.008685464970767498,0.002120399847626686
200,0.015913141891360283,-0.010117383673787117,0.02149595506489277,0.019009914249181747,-8.336221799254417e-05,0.019403457641601562,-0.01657745987176895,0.013378405943512917,0.010646608658134937,0.04527393355965614
201,0.0037667846772819757,-0.017466429620981216,0.025798682123422623,-0.004420295357704163,-0.018207397311925888,0.002816885942593217,0.019754083827137947,-0.004105858970433474,-0.020940013229846954,0.026028282940387726
202,-0.016378706321120262,-0.013265157118439674,0.003086007898673415,-0.008027884177863598,-0.012239156290888786,0.002983194775879383,-0.03674668073654175,0.001848448533564806,-0.012453648261725903,0.034868475049734116
203,-0.00666063604876399,-0.020636796951293945,0.01265049260109663,-0.009220171719789505,-0.013462564907968044,-0.005231339018791914,0.04655029997229576,-0.006104735657572746,0.020658252760767937,-0.0012960877502337098
204,-0.0005648845690302551,-0.021842559799551964,0.005375796929001808,-0.011109419167041779,-0.020652752369642258,-0.0067041669972240925,0.027699992060661316,-0.0071465130895376205,0.006360541097819805,0.014365209266543388
205,0.027908265590667725,-0.031749069690704346,-0.013827690854668617,0.004415606148540974,-0.012886395677924156,0.006307430565357208,-0.01346314512193203,0.006227076519280672,-0.008474069647490978,0.03990060091018677
206,-0.0015215311432257295,-0.017583508044481277,0.01899309642612934,-0.005582388490438461,-0.01406870223581791,-0.0007851496338844299,0.033149633556604385,-0.003945998381823301,0.0015023164451122284,0.012130330316722393
207,-0.013362454250454903,0.012225998565554619,-0.02062918245792389,-0.006830226629972458,-0.0006807679892517626,-0.007973922416567802,0.012722133658826351,-0.008014388382434845,0.007298555690795183,-0.020204927772283554
208,0.021981488867022406,-0.018585191913920284,0.0031198303878184046,-0.00023748513256959626,0.012518310331956748,0.01131796376834297,-0.003124190442487309,0.006903716248735742,0.016996085652077796,0.0025952013772457387
209,-0.036860764026641846,-0.008712904527783394,-0.021746478974819183,-0.04770470783114433,-0.02323286235332489,-0.04284421354532242,0.04572468250989914,-0.03700266778469086,0.028095368295907974,-0.0758875235915184
210,0.014928975142538548,0.08157207071781158,-0.04132333770394325,0.01943788304924965,0.010288686491549015,0.02209903858602047,-0.008543603122234344,0.01737990975379944,0.00800863467156887,0.010472264140844345
211,0.028557851910591125,-0.03758212924003601,0.008368393406271935,0.024026665836572647,-0.0030747605487704277,0.01023414358496666,-0.04751736298203468,0.008612221106886864,-0.04529455676674843,0.04022008180618286
212,-0.009649435058236122,-0.037921302020549774,0.01039133407175541,-0.024570446461439133,-0.031131522729992867,-0.012807061895728111,0.056365035474300385,-0.019569214433431625,0.017801016569137573,-0.008685663342475891
213,0.046179428696632385,-0.04814477637410164,-0.0056920177303254604,0.016797227784991264,-0.00467295665293932,0.022647272795438766,-0.04551944136619568,0.02505529299378395,-0.046984486281871796,0.04360072687268257
214,0.029282361268997192,-0.044669121503829956,0.024937555193901062,0.01332652848213911,-0.007164123933762312,0.008261390030384064,-0.04376184567809105,0.006062068976461887,-0.03156430646777153,0.04683973640203476
215,0.022932255640625954,-0.07169853150844574,-0.026259178295731544,0.02601221390068531,-0.0007688687182962894,0.012511108070611954,-0.003010115120559931,0.026181457564234734,-0.005940449424088001,0.06933215260505676
216,0.010530705563724041,-0.00047047226689755917,-0.0006336872465908527,0.0012860842980444431,0.0023904608096927404,0.0074522485956549644,0.0064420029520988464,0.015530645847320557,0.004033392295241356,0.011204207316040993
217,0.006992450449615717,-0.019668754190206528,0.027293408289551735,0.008832048624753952,0.0024480365682393312,0.005429533775895834,0.004561948124319315,0.010924158617854118,-0.0010592612670734525,0.0194109994918108
218,0.016397491097450256,-0.06651002168655396,-0.01970743201673031,0.018183570355176926,-0.009108238853514194,0.005145165137946606,-0.013954859226942062,0.015620426274836063,-0.005718288477510214,0.04878240451216698
219,-0.03998448699712753,0.03871992602944374,0.00043517176527529955,-0.03477378934621811,-0.004525047726929188,-0.02951435185968876,0.04866630584001541,-0.02584759145975113,0.07934597879648209,-0.043115824460983276
220,0.028583016246557236,-0.024570314213633537,0.0073656789027154446,0.013695135712623596,-0.0032695215195417404,0.011074413545429707,-0.042981717735528946,0.008028313517570496,-0.022985991090536118,0.044020459055900574
221,0.0032619955018162727,0.0029737837612628937,-0.02659630961716175,-0.005980185233056545,-0.007828684523701668,-0.0020931283943355083,-0.0003737667575478554,0.002478385344147682,-0.008482377976179123,0.008742925710976124
222,-0.010253243148326874,-0.02697846293449402,0.005859074182808399,-0.013447226956486702,-0.022705532610416412,-0.005910982843488455,0.048962995409965515,0.004382455721497536,0.0034811007790267467,-0.011904570274055004
223,0.037943702191114426,-0.03261098265647888,-0.02116723172366619,0.005444235634058714,-0.013355018571019173,0.00559641607105732,-0.03744497895240784,0.006371445953845978,-0.017968203872442245,0.05180830508470535
224,-0.009657027199864388,0.0021835151128470898,-0.01077607087790966,-0.004522655159235001,-0.006221592426300049,-0.0006310769822448492,0.025526417419314384,-0.002246658317744732,0.018245451152324677,0.00012995832366868854
225,-0.00666063604876399,-0.020636796951293945,0.01265049260109663,-0.009220171719789505,-0.013462564907968044,-0.005231339018791914,0.04655029997229576,-0.006104735657572746,0.020658252760767937,-0.0012960877502337098
226,0.025041891261935234,0.0031967717222869396,0.0056718760170042515,0.007199602201581001,0.0013894884614273906,0.014500100165605545,-0.03635686635971069,0.0059572854079306126,0.009019802324473858,0.019705962389707565
227,-0.014346223324537277,-0.009010388515889645,-0.010791289620101452,-0.008034385740756989,-0.009152437560260296,-0.0016630319878458977,-0.025889266282320023,0.0005188677459955215,-0.004483634606003761,0.02975352108478546
228,-0.005979506764560938,-0.016697807237505913,0.013165338896214962,-0.0057219769805669785,-0.00943596102297306,-0.003504895605146885,0.044313617050647736,-0.003036297159269452,0.021309388801455498,0.0003879350842908025
229,-0.007955720648169518,0.002161955926567316,-0.003219258738681674,-0.00940977968275547,-0.009365284815430641,-0.008436115458607674,-0.020642966032028198,-0.009822636842727661,-0.009621230885386467,0.00011608819477260113
230,0.0016116041224449873,-0.011303195729851723,0.0019907443784177303,-0.007373655214905739,-0.018984492868185043,-0.0005068290047347546,0.011084221303462982,-0.006570442579686642,-0.003578006522729993,0.012565528973937035
231,-0.006354901939630508,-0.018868757411837578,0.012881582602858543,-0.007649990264326334,-0.011655202135443687,-0.004456415772438049,0.045546356588602066,-0.004727451130747795,0.020950520411133766,-0.0005402013193815947
232,0.022373855113983154,-0.057863470166921616,-0.01552895549684763,0.01653468608856201,-0.0027861623093485832,0.026746267452836037,-0.004576363600790501,0.03777410462498665,-0.014119974337518215,0.035393282771110535
233,0.021584797650575638,0.011630775406956673,0.00790376216173172,0.006071413867175579,0.0026748040691018105,0.007837597280740738,-0.002239588415250182,0.007453300524502993,-0.005528651177883148,0.011890142224729061
234,0.027768902480602264,-0.027499092742800713,0.01226733811199665,0.017545677721500397,0.0008689847309142351,0.020929966121912003,-0.018755288794636726,0.016506241634488106,-0.0006033640820533037,0.030832229182124138
235,0.004019113257527351,0.08139470964670181,-0.051305364817380905,0.014041241258382797,0.008830897510051727,0.02173927053809166,-0.025129856541752815,0.017996665090322495,0.0068532200530171394,0.01498495414853096
236,0.050028812140226364,-0.022444799542427063,0.023328568786382675,0.03351220861077309,0.0026201135478913784,0.032307714223861694,-0.0144245820119977,0.029608536511659622,-0.03708585724234581,0.05827852338552475
237,0.0073767611756920815,0.0002776971668936312,-0.0005542561411857605,0.0040996442548930645,-0.004807766526937485,0.0008860406232997775,0.008332961238920689,-0.0033738568890839815,0.008456461131572723,0.01192947756499052
238,-0.002905943663790822,0.0010768852662295103,0.015488560311496258,0.010063647292554379,0.008734113536775112,0.004285684786736965,0.03422052040696144,0.010810050182044506,0.024247661232948303,0.007987086661159992
239,0.014926024712622166,-0.002547750249505043,0.003140014596283436,0.0012620426714420319,-0.007280909921973944,0.0008099371334537864,-0.016842227429151535,-0.0008645174093544483,-0.009994289837777615,0.035647761076688766
240,-0.013526933267712593,-0.006111150607466698,0.0019202010007575154,-0.010844267904758453,-0.011081332340836525,-0.016657061874866486,0.006656911689788103,-0.016540318727493286,0.006357153877615929,-0.012406214140355587
241,-0.015246272087097168,-0.0266188383102417,0.0025373774114996195,-0.012089302763342857,-0.016966743394732475,-0.005358721595257521,0.030801009386777878,-0.007473188918083906,0.01842806674540043,-0.004702393431216478
242,-0.01355586146456007,-0.008320827855930116,0.03411997530773995,-0.0009381349102696927,0.010592674120609219,0.0036321449051612987,0.04216052812285819,0.007186920911765872,0.007806463273655674,0.014917551440507356
243,-0.004930594936013222,0.006718302145600319,-0.03460821136832237,-0.012198292650282383,-0.015216370113193989,-0.013063322752714157,-0.012723138555884361,-0.015375053510069847,-0.02422361820936203,-0.023920711129903793
244,-0.002905943663790822,0.0010768852662295103,0.015488560311496258,0.010063647292554379,0.008734113536775112,0.004285684786736965,0.03422052040696144,0.010810050182044506,0.024247661232948303,0.007987086661159992
245,0.030843954533338547,-0.024337271228432655,0.0016390348318964243,0.017298832535743713,-0.011004043743014336,0.010729565285146236,-0.058701712638139725,0.009871463291347027,-0.0068990932777523994,0.041767019778490067
246,-0.004250999540090561,-0.017559023573994637,0.015472685918211937,-0.006109725683927536,-0.011833925731480122,-0.002616957761347294,0.04005244001746178,-0.0037966491654515266,0.013162157498300076,0.004954845178872347
247,0.025369882583618164,-0.001379476161673665,0.01991570182144642,0.007371622137725353,-0.00022286968305706978,0.012144455686211586,0.020669488236308098,0.012480812147259712,0.016400374472141266,0.02516024373471737
248,-0.0008463840931653976,-0.00849630031734705,0.019025683403015137,0.002307904651388526,-0.0040549468249082565,0.002593694254755974,0.03025711327791214,0.0031755659729242325,0.00682560820132494,0.013659573160111904
249,-0.00506833428516984,0.03454945981502533,-0.016723275184631348,0.005086875986307859,0.005882484372705221,0.007387416437268257,0.007368532940745354,0.008647513575851917,0.01672470197081566,0.006103993393480778
250,0.0325346365571022,-0.0409858264029026,-0.015216166153550148,0.026897624135017395,0.001983321737498045,0.023919709026813507,-0.012040354311466217,0.029485056176781654,-0.016180306673049927,0.05413360521197319
251,-0.021294251084327698,-0.008772211149334908,-0.012762549333274364,-0.011082340963184834,-0.013315173797309399,-0.013096114620566368,-0.009331094101071358,-0.012518787756562233,-0.013698111288249493,-0.011699006892740726
252,0.02169918641448021,-0.01007818803191185,0.03384455293416977,0.023945869877934456,-0.007586626801639795,0.010160565376281738,-0.027028081938624382,0.01895568147301674,-0.018196193501353264,0.05166012793779373
253,0.008366964757442474,-0.03930240124464035,-0.014172191731631756,0.003927659709006548,-0.013998051173985004,-0.0029125723522156477,-0.045616328716278076,-0.005535854492336512,-0.030606085434556007,0.027681894600391388
254,-0.009310629218816757,0.016861185431480408,-0.0027366492431610823,-0.006627049297094345,-0.002614852273836732,-0.004289381206035614,0.021903278306126595,-0.00335034285672009,0.040867194533348083,-0.004420326091349125
255,0.028979778289794922,-0.060982171446084976,0.017535783350467682,0.00552138639613986,-0.01996137574315071,0.0003082768525928259,-0.059281449764966965,-0.004540662281215191,-0.03611551970243454,0.04285730421543121
256,-0.006922995671629906,0.027865588665008545,-0.03712083399295807,-0.005140261258929968,-0.008735457435250282,0.009835698641836643,0.0005832003080286086,0.0034294051583856344,0.020555980503559113,0.016462933272123337
257,0.027751661837100983,0.03672210872173309,-0.0014227158389985561,0.01621449925005436,0.016137950122356415,0.019955914467573166,-0.006899913772940636,0.010232980363070965,0.015359568409621716,0.031014271080493927
258,-0.005399058572947979,-0.010052078403532505,-0.0246148481965065,-0.021830689162015915,-0.013700621202588081,-0.02314239740371704,-0.028650056570768356,-0.021292487159371376,0.0022766003385186195,-0.017810020595788956
259,0.012005489319562912,-0.011788119561970234,-0.010156197473406792,0.007784036919474602,-0.0061494274996221066,0.008621197193861008,-0.024379614740610123,0.005995224695652723,-0.012980098836123943,0.029559839516878128
260,-0.005507564637809992,-0.013968491926789284,0.013522069901227951,-0.0032980830874294043,-0.006645932327955961,-0.002308647846803069,0.042763810604810715,-0.0009101810865104198,0.021760566160082817,0.0015547892544418573
261,0.034855861216783524,-0.035954903811216354,0.003698051907122135,0.018161367624998093,-0.004705565981566906,0.012532944791018963,-0.03286558389663696,0.00942637212574482,-0.03758248686790466,0.03597385063767433
262,-0.007776244077831507,-0.026698250323534012,-0.004235665313899517,-0.006499475333839655,-0.007118930108845234,0.0009215511381626129,0.01645294390618801,-9.470852091908455e-05,-0.015337647870182991,0.010672670789062977
263,-0.022275153547525406,0.025984352454543114,-0.0052993157878518105,-0.019326265901327133,-0.008021335117518902,-0.014472456648945808,0.035180091857910156,-0.014186350628733635,0.04876410588622093,-0.020767303183674812
264,0.012619879096746445,-0.07132915407419205,-0.01939079351723194,0.014201238751411438,-0.011350000277161598,0.0012685765977948904,-0.004121359437704086,0.012736068107187748,0.0013717152178287506,0.04610403627157211
265,0.005935054272413254,0.03050500899553299,-0.0029211598448455334,0.010796615853905678,0.0010291477665305138,0.014535298570990562,-0.0044210562482476234,0.011461344547569752,-0.010824599303305149,0.026848530396819115
266,0.0005018020747229457,-0.04455191642045975,0.009595600888133049,0.005599040538072586,-0.01087786816060543,0.0006845275638625026,0.031309887766838074,0.004082269035279751,-0.013931560330092907,0.024512842297554016
267,0.02084021084010601,-0.028634004294872284,-0.025958748534321785,0.003174339421093464,-0.007009423803538084,0.006604331079870462,-0.016682807356119156,0.01843724213540554,-0.02958124503493309,0.0526190847158432
268,-0.018075108528137207,0.014184572733938694,-0.02267996408045292,-0.01751207932829857,-0.012913355603814125,-0.011743489652872086,0.00044914823956787586,-0.01333750318735838,-0.0012247356353327632,-0.01050783321261406
269,-0.024218197911977768,-0.005472428165376186,0.005404094234108925,-0.02396886795759201,-0.01508882362395525,-0.018989473581314087,0.03413772210478783,-0.019764842465519905,0.031160036101937294,-0.017407843843102455
270,0.0012639777269214392,0.01942804828286171,-0.0423138327896595,-0.017522888258099556,-0.013193616643548012,-0.0081992968916893,0.018132958561182022,-0.009250846691429615,-0.024635734036564827,-0.0008791182190179825
271,0.024537764489650726,-0.03715982288122177,0.0009607454994693398,0.009404703043401241,-0.007911274209618568,0.009614435955882072,-0.007448341231793165,0.013515885919332504,-0.003862174227833748,0.030523432418704033
272,0.017373431703869555,0.02681463653331211,-0.04801218988049975,-0.015526033078817376,-0.009631893033127621,-0.006581269100256313,-0.0445609220269077,-0.009082307943470268,-0.019345526921460552,0.017294345653848766
273,0.01262985821813345,-0.044683780521154404,-0.005310677923262119,0.017805203795433044,0.0027792896144092083,0.016626577824354172,-0.036150965839624405,0.018198426812887192,-0.017869524657726288,0.027417264878749847
274,-0.004517647437751293,-0.008243738673627377,0.014270320534706116,0.001786044449545443,-0.0007938367780297995,0.00020049081649631262,0.03951309621334076,0.003549356944859028,0.022706899791955948,0.0040022763423621655
275,0.03302880749106407,0.04610743001103401,-0.02895492874085903,0.03314809501171112,0.013791350647807121,0.03518723323941231,-0.03236572444438934,0.03407009690999985,-0.015615938231348991,0.04101221263408661
276,-0.00666063604876399,-0.020636796951293945,0.01265049260109663,-0.009220171719789505,-0.013462564907968044,-0.005231339018791914,0.04655029997229576,-0.006104735657572746,0.020658252760767937,-0.0012960877502337098
277,0.023260654881596565,-0.03665916994214058,0.006982642691582441,0.016627194359898567,-0.0023156851530075073,0.013135112822055817,-0.0076338015496730804,0.014498300850391388,-0.008195131085813046,0.037907976657152176
278,0.003892587497830391,-0.038365285843610764,0.022419147193431854,0.0020334706641733646,-0.009263020940124989,0.0015068098437041044,-0.019811563193798065,0.011200690641999245,-0.025041287764906883,0.0167266633361578
279,-0.00968554150313139,-0.03609234467148781,0.0008333604200743139,-0.009926775470376015,-0.013127577491104603,-0.009825162589550018,0.03694239258766174,-0.021844832226634026,0.019966213032603264,-0.006994493305683136
280,0.00220661167986691,0.0025485744699835777,0.0022464150097221136,0.0035048327408730984,-0.0053386446088552475,0.0034240311942994595,-0.017025677487254143,-0.001209513284265995,-0.01113243866711855,0.0039188452064991
281,0.021906891837716103,0.01884065568447113,0.002901946660131216,0.0168166384100914,0.002157688606530428,0.019556943327188492,-0.02538973279297352,0.020329173654317856,0.016743451356887817,0.02988128364086151
282,-0.015524864196777344,0.017702125012874603,-0.025591004639863968,-0.019917720928788185,-0.01374133676290512,-0.010003915056586266,0.006009050644934177,-0.013136493042111397,-0.00385859701782465,-0.0019385023042559624
283,-0.00022181635722517967,0.038942430168390274,-0.022446513175964355,0.006322395522147417,0.0019411689136177301,0.011034000664949417,0.0050939759239554405,0.009580014273524284,0.013489432632923126,0.009006328880786896
284,-0.002905943663790822,0.0010768852662295103,0.015488560311496258,0.010063647292554379,0.008734113536775112,0.004285684786736965,0.03422052040696144,0.010810050182044506,0.024247661232948303,0.007987086661159992
285,-0.0048963152803480625,-0.010433601215481758,0.013984094373881817,-0.00015876564430072904,-0.003032414708286524,-0.0007593182381242514,0.040756579488515854,0.0018434688681736588,0.02234490215778351,0.003066049423068762
286,-0.009649434126913548,-0.037921302020549774,0.010391338728368282,-0.024570446461439133,-0.031131522729992867,-0.012807061895728111,0.056365035474300385,-0.019569214433431625,0.01780102215707302,-0.008685663342475891
287,-0.02506912127137184,0.02664441242814064,-0.016351906582713127,-0.024734359234571457,-0.00801725685596466,-0.020841754972934723,0.027085963636636734,-0.015912292525172234,0.047431085258722305,-0.024917753413319588
288,-0.00881883967667818,-0.033117830753326416,0.011019174940884113,-0.020304514095187187,-0.02622121572494507,-0.010701722465455532,0.053637463599443436,-0.01582735776901245,0.01859506592154503,-0.006632054690271616
289,-0.020800596103072166,-0.00015842128777876496,0.004984979052096605,-0.018969815224409103,-0.012015574611723423,-0.017188886180520058,0.02252025716006756,-0.015299234539270401,0.028222570195794106,-0.019355904310941696
290,0.001471606781706214,0.02400507777929306,0.005698780529201031,-0.008000757545232773,-0.007512066513299942,-0.008491918444633484,-0.017309507355093956,-0.0042960792779922485,-0.011535001918673515,-0.005001540295779705
291,0.00411144969984889,0.06696899235248566,-0.0377325676381588,0.013454128056764603,0.007546023465692997,0.019477102905511856,-0.017917759716510773,0.016523050144314766,0.004151386208832264,0.017220962792634964
292,0.0020642452873289585,-0.004077878315001726,-0.008561916649341583,-9.12938266992569e-05,0.0013485571835190058,0.001772891846485436,0.027547407895326614,0.0033594327978789806,-0.0054407925345003605,0.02375933900475502
293,0.013810689561069012,0.0053064851090312,-0.011420647613704205,0.005201212130486965,-0.008293443359434605,0.0069952006451785564,-0.0032137157395482063,0.004180564545094967,-0.02104257233440876,0.031001877039670944
294,0.029737787321209908,-0.035937488079071045,0.026868538931012154,0.0208958201110363,0.007453729398548603,0.013279509730637074,-0.028792956843972206,0.016229592263698578,-0.013755413703620434,0.0434727780520916
295,-0.0009977847803384066,0.004682790022343397,-0.020863471552729607,-0.009507156908512115,-0.008356492966413498,-0.006421239580959082,-0.009284778498113155,-0.006003215909004211,-0.004329098388552666,-0.0008999352576211095
296,0.02429448999464512,-0.018808584660291672,0.0034697516821324825,0.002619554288685322,-0.008395636454224586,0.005941211245954037,-0.028407515957951546,0.0029424787499010563,-0.029443467035889626,0.033151961863040924
297,0.010803673416376114,-0.020487692207098007,-0.002849425422027707,0.0029211007058620453,-0.010660731233656406,-0.001981323817744851,-0.036369506269693375,-0.0032662819139659405,-0.029115650802850723,0.038157373666763306
298,-0.002994245169264276,-0.02273104322059071,-0.0025512553543078657,-0.009098167596797537,-0.015057992501200814,-0.00710067821981185,-0.02826250673880049,-0.012334833805411336,-0.045979360754515045,-0.016355159999806933
299,-0.036860764026641846,-0.008712904527783394,-0.021746478974819183,-0.04770470783114433,-0.02323286235332489,-0.04284421354532242,0.04572468250989914,-0.03700266778469086,0.028095368295907974,-0.0758875235915184
300,-5.081738345324993e-05,-0.012194215320050716,0.02039199322462082,-0.0006879665888845921,-0.00899507850408554,0.001940115005709231,0.028726138174533844,0.00022653210908174515,9.585519728716463e-05,0.015850728377699852
301,0.021886905655264854,-0.02955821342766285,-0.020054711028933525,0.005530287511646748,-0.0031428425572812557,0.01008518971502781,-0.007860582321882248,0.01866159588098526,-0.02414052002131939,0.04803546518087387
302,-0.002905943663790822,0.0010768852662295103,0.015488560311496258,0.010063647292554379,0.008734113536775112,0.004285684786736965,0.03422052040696144,0.010810050182044506,0.024247661232948303,0.007987086661159992
303,0.00133051339071244,0.015369917266070843,-0.02187492698431015,0.0002622139872983098,-0.0059738680720329285,0.006219099275767803,0.009519313462078571,0.005812956020236015,0.0038780695758759975,0.009287891909480095
304,-0.002905943663790822,0.0010768852662295103,0.015488560311496258,0.010063647292554379,0.008734113536775112,0.004285684786736965,0.03422052040696144,0.010810050182044506,0.024247661232948303,0.007987086661159992
305,0.001897056121379137,-0.02117469161748886,-0.018841998651623726,0.008573169820010662,-0.005031721666455269,0.003930743783712387,-0.011236237362027168,0.006412864662706852,-0.0035031717270612717,0.03968611732125282
306,0.019984116777777672,0.03745463863015175,-0.015437563881278038,0.022246386855840683,0.011437668465077877,0.024266332387924194,-0.025925185531377792,0.01688382402062416,-0.01724286563694477,0.026137804612517357
307,-0.009310629218816757,0.016861185431480408,-0.0027366492431610823,-0.006627049297094345,-0.002614852273836732,-0.004289381206035614,0.021903278306126595,-0.00335034285672009,0.040867194533348083,-0.004420326091349125
308,-0.01969726011157036,-0.05497387424111366,-0.023751243948936462,0.004088214598596096,-0.012391602620482445,-0.007522778585553169,0.03740305453538895,-0.0031496593728661537,0.007971382699906826,-0.010973003692924976
309,-0.03268469497561455,-0.000829666736535728,-0.03076998144388199,-0.023412350565195084,-0.020984601229429245,-0.022155221551656723,-0.014454681426286697,-0.021198194473981857,-0.007965326309204102,-0.026457253843545914
310,-0.004073423333466053,-0.005674743093550205,0.014606096781790257,0.004067553672939539,0.0018322988180443645,0.0013264704030007124,0.038054339587688446,0.005550582893192768,0.02313157171010971,0.005100588779896498
311,0.03715483471751213,-0.0028519625775516033,-0.021658098325133324,0.02263982780277729,0.004610404837876558,0.021942447870969772,-0.004919680766761303,0.013030242174863815,0.0060440655797719955,0.047038331627845764
312,-0.021403983235359192,-0.00017715169815346599,0.010340000502765179,-0.015575286000967026,-0.01187706459313631,-0.011348826810717583,0.03975418955087662,-0.008886021561920643,0.03782781958580017,-0.014568453654646873
313,-0.029368042945861816,0.021318843588232994,-0.015561031177639961,-0.02067839726805687,-0.01620015874505043,-0.020566269755363464,-0.00750325433909893,-0.018669448792934418,-0.004272200632840395,-0.029384445399045944
314,0.04364416003227234,-0.06316466629505157,0.009136890061199665,0.020429208874702454,-0.010117882862687111,0.022666729986667633,-0.04701286554336548,0.014216044917702675,-0.0514739491045475,0.06731148064136505
315,-0.015515967272222042,0.02129518613219261,-0.01817120984196663,-0.0037406007759273052,0.005659439601004124,-0.012848014011979103,0.015362483449280262,0.009185288101434708,0.009610176086425781,0.006150124128907919
316,-0.002905943663790822,0.0010768852662295103,0.015488560311496258,0.010063647292554379,0.008734113536775112,0.004285684786736965,0.03422052040696144,0.010810050182044506,0.024247661232948303,0.007987086661159992
317,0.0002816504565998912,0.02044232189655304,-0.010162594728171825,0.00022244907449930906,-0.007225505076348782,0.0073186494410037994,0.010789456777274609,0.003089799312874675,0.003418288193643093,0.012142901308834553
318,0.05350404232740402,0.0311377365142107,0.05568477883934975,0.007203822024166584,0.008164258673787117,0.01168825663626194,0.014547989703714848,0.01606365293264389,-0.027400657534599304,0.0537819042801857
319,0.015359503217041492,-0.03429078310728073,0.0009665742982178926,0.009743885137140751,-0.007431872189044952,0.010758532211184502,0.018123257905244827,0.011056861840188503,0.002170535270124674,0.027709143236279488
320,-0.007895534858107567,0.030721936374902725,-0.024989726021885872,-0.007694555446505547,-0.009444182738661766,-0.003158087842166424,0.0008156038820743561,-0.003299594158306718,-0.01378303486853838,0.0019157500937581062
321,-0.025514759123325348,-0.005398344714194536,-0.011283976957201958,-0.018677493557333946,-0.01639268919825554,-0.017392117530107498,0.006272200495004654,-0.022093486040830612,-0.00905846618115902,-0.030203253030776978
322,-0.002905943663790822,0.0010768852662295103,0.015488560311496258,0.010063647292554379,0.008734113536775112,0.004285684786736965,0.03422052040696144,0.010810050182044506,0.024247661232948303,0.007987086661159992
323,-0.01164565421640873,-0.008035966195166111,0.0027918783016502857,0.0022960202768445015,-0.0017164062010124326,0.0051641459576785564,0.00638471357524395,0.0029867810662835836,0.00162716512568295,0.008299363777041435
324,0.019069608598788642,-0.029462446732537433,3.1335928900802154e-05,0.007464453819660068,0.004271263167691425,-5.158151535678782e-05,-0.004535792748446723,0.007726747056697265,-0.02194108717535557,-0.005793846961864265
325,0.01606505736708641,-0.01978316530585289,-0.0013170471647754312,0.008004154078662395,-0.013249274343252182,0.0048642149195075035,-0.01426364853978157,0.003930033650249243,-0.022223252803087234,0.027386117726564407
326,-0.0011168061755597591,-0.0011050892062485218,-0.008141901344060898,-0.006390830036252737,-0.0061901588924229145,0.0008299414766952395,0.00836250465363264,0.00239147013053298,0.004060965497046709,0.0016475740121677518
327,-0.002905943663790822,0.0010768852662295103,0.015488560311496258,0.010063647292554379,0.008734113536775112,0.004285684786736965,0.03422052040696144,0.010810050182044506,0.024247661232948303,0.007987086661159992
328,-0.0029059401713311672,0.0010768945794552565,0.015488560311496258,0.010063649155199528,0.008734113536775112,0.004285684786736965,0.03422051668167114,0.010810050182044506,0.024247661232948303,0.007987089455127716
329,-0.002905943663790822,0.0010768852662295103,0.015488560311496258,0.010063647292554379,0.008734113536775112,0.004285684786736965,0.03422052040696144,0.010810050182044506,0.024247661232948303,0.007987086661159992
330,0.042581260204315186,-0.012134935706853867,0.012030800804495811,0.018646739423274994,-0.001719640102237463,0.017715997993946075,-0.03870944306254387,0.017879419028759003,-0.033890873193740845,0.06431068480014801
331,-0.009181851521134377,0.015117894858121872,0.011727795004844666,0.006764193065464497,0.0114003736525774,0.006300225853919983,0.03285627439618111,0.011251181364059448,0.016240190714597702,0.003329324070364237
332,-0.0055867829360067844,-0.024341506883502007,0.014376134611666203,-0.012165951542556286,-0.018635550513863564,-0.0056995367631316185,0.04431609809398651,-0.009072384797036648,0.012735817581415176,0.0016267779283225536
333,0.007502063177525997,-0.01599988341331482,-0.014908003620803356,0.005169570446014404,-0.006318401545286179,0.00995324645191431,-0.002059826161712408,0.013928629457950592,-0.019839830696582794,0.04562339931726456
334,0.0077104573138058186,0.0179868396371603,-0.02766934037208557,-0.0013777511194348335,-0.019121970981359482,0.015819773077964783,-0.049645863473415375,0.0054391054436564445,-0.03456184267997742,0.041630785912275314
335,-0.002923216437920928,-0.00861414149403572,0.016359606757760048,0.00179019826464355,-0.002513099228963256,0.0011559720151126385,0.035527199506759644,0.003181771608069539,0.015574336983263493,0.008203480392694473
336,-0.00897925067692995,0.010448778048157692,-0.014640895649790764,-0.01775725558400154,-0.015931516885757446,-0.01187021192163229,-0.0417272225022316,-0.01536688394844532,0.010821361094713211,0.015365798957645893
337,0.026255376636981964,-0.041284624487161636,0.0021696616895496845,0.0033374112099409103,-0.01685882918536663,-0.0005668996600434184,-0.03302128240466118,-4.448089748620987e-05,-0.017981622368097305,0.04143907502293587
338,-0.023056870326399803,0.009554426185786724,0.0031693102791905403,-0.024963295087218285,-0.01486948225647211,-0.019625883549451828,0.038837648928165436,-0.020505346357822418,0.04609130322933197,-0.021666154265403748
339,-0.005983475595712662,-0.032332032918930054,0.014601367525756359,-0.01906444877386093,-0.02760002389550209,-0.008537844754755497,0.04636115953326225,-0.01534387655556202,0.007215098012238741,0.0007998712826520205
340,0.009277088567614555,-0.0023729121312499046,-0.03157314285635948,0.0038420232012867928,-0.004818444140255451,0.007058006711304188,-0.0028961990028619766,0.013104183599352837,-0.01777241751551628,0.01907607540488243
341,0.005976633168756962,0.026627782732248306,-0.006900134030729532,0.007051309570670128,-0.0015272689051926136,0.006913340650498867,0.004082420840859413,0.0008477705996483564,0.004509127698838711,0.00090599904069677
342,0.013987191021442413,0.0034634810872375965,-0.003639715723693371,-0.014023040421307087,-0.008306356146931648,-0.00849235337227583,-0.0047010076232254505,-0.007445725612342358,-0.03414725512266159,0.02043367177248001
343,-0.009310629218816757,0.016861185431480408,-0.0027366492431610823,-0.006627049297094345,-0.002614852273836732,-0.004289381206035614,0.021903278306126595,-0.00335034285672009,0.040867194533348083,-0.004420326091349125
344,-0.0029496995266526937,-0.00789020024240017,-0.010090762749314308,-0.002541470807045698,-0.011059393174946308,-0.005297007039189339,-0.01723681204020977,-0.01016148366034031,-0.019806893542408943,0.01378137618303299
345,0.004638860002160072,-0.01708972081542015,0.02395329624414444,0.005514497868716717,0.0001936402404680848,0.005650384817272425,0.020281299948692322,0.007823988795280457,0.013679753988981247,0.02225775457918644
346,-0.006476330105215311,-0.008438070304691792,-0.006067200098186731,-0.0008508796454407275,-0.01196631882339716,0.0006951612886041403,-0.02782364934682846,-0.006295330356806517,0.03238167613744736,0.012641055509448051
347,0.0007970424485392869,-0.01565910130739212,-0.007936347275972366,0.0005216188728809357,-0.008247765712440014,0.0011409572325646877,-0.023956332355737686,0.0021773725748062134,-0.027000052854418755,0.020353831350803375
348,0.002514754654839635,0.01392299123108387,-0.0018087152857333422,-0.00018640479538589716,-0.010353103280067444,0.007657784037292004,0.008226696401834488,0.0018263629171997309,-0.007680380251258612,0.018833808600902557
349,0.024658381938934326,-0.048813775181770325,0.011105014011263847,0.011235528625547886,-0.00918583758175373,0.011960212141275406,0.016555845737457275,0.006700810510665178,0.001307224971242249,0.03268088400363922
350,0.0017274866113439202,-0.04404802247881889,-0.009945186786353588,0.007216785103082657,-0.016571369022130966,-0.00277418433688581,-0.037817128002643585,-0.0010997569188475609,-0.0358588844537735,0.020562756806612015
351,0.0022282234858721495,-0.0021999599412083626,-0.0017618758138269186,0.0009191348217427731,0.0021125872153788805,0.0013696595560759306,-0.003155119251459837,0.002556865569204092,0.0156294796615839,0.028949018567800522
352,-0.009571624919772148,0.004298456013202667,-0.006602867040783167,0.003695766907185316,-0.005154579412192106,0.004064065869897604,-0.01196760218590498,-0.001900325994938612,-0.008856626227498055,0.01783355139195919
353,0.027401689440011978,-0.013159483671188354,0.027447111904621124,0.020876634865999222,0.020447781309485435,0.020073451101779938,-0.020505312830209732,0.027850886806845665,-0.007896087132394314,0.04903145506978035
354,-0.000111760338768363,0.03348415717482567,-0.01146197970956564,0.011668558232486248,0.008773165754973888,0.011327996850013733,0.010273359715938568,0.013709763064980507,0.017229212448000908,0.01081064436584711
355,0.019559146836400032,0.012753178365528584,-0.025423262268304825,0.004884571768343449,-0.0039016224909573793,0.013643473386764526,-0.013981944881379604,0.015183105133473873,-0.013108662329614162,0.032524142414331436
356,-0.005096462555229664,-0.002565880073234439,-0.0023101787082850933,-0.008266447111964226,-0.013369199819862843,-0.0012889150530099869,0.03320889547467232,-0.0044394563883543015,0.016771402209997177,0.0003022488090209663
357,0.017444506287574768,-0.00273757241666317,-0.004308716394007206,0.006209653802216053,-0.0011202192399650812,0.007885120809078217,-0.004305937793105841,0.00893805455416441,-0.017206966876983643,0.03318773955106735
358,0.003900708630681038,-0.03818296641111374,0.07608839124441147,0.022022560238838196,-0.006326913367956877,0.006537287496030331,-0.0239412821829319,0.009632106870412827,-0.018638288602232933,0.03560763970017433
359,0.02422143757699282,0.03719826615688652,-0.025976393097493982,0.0018263334171782592,0.008083458607660276,0.012260531988796326,0.0036365856610510367,0.006820639325981636,0.057089772502852396,-0.004199082608826558
360,0.01069678459316492,-0.024792132899165154,-0.00030484021408483386,0.005027477629482746,-0.007832992821931839,0.0065653957426548,0.014801549725234509,0.0067076911218464375,0.008369436487555504,0.023320397362113
361,0.005024938844144344,-0.017355725169181824,-0.0039452905766665936,-0.00298947561532259,-0.010504054836928844,-0.006460062228143215,-0.0217352956533432,-0.005246626678854227,-0.015814077109098434,0.020326964557170868
362,-0.01765534095466137,0.0005598770221695304,-0.010976212099194527,-0.01935889571905136,-0.014835840091109276,-0.014938791282474995,0.01930549181997776,-0.016156066209077835,0.009491601027548313,-0.018944792449474335
363,-0.017649189253440205,0.023352332939822622,-0.00014019545986006384,-0.004174368425355177,0.005316063012129724,0.005611126990110106,-0.014885965338867154,0.0029715074848124037,-0.016029522823839383,0.012967374801311226
364,-0.002905943663790822,0.0010768852662295103,0.015488560311496258,0.010063647292554379,0.008734113536775112,0.004285684786736965,0.03422052040696144,0.010810050182044506,0.024247661232948303,0.007987086661159992
365,-0.0029059401713311672,0.0010768945794552565,0.015488560311496258,0.010063649155199528,0.008734113536775112,0.004285684786736965,0.03422051668167114,0.010810050182044506,0.024247661232948303,0.007987089455127716
366,-0.024352233856916428,-0.0018782299011945724,-0.01637904904782772,-0.018754733726382256,-0.020174119621515274,-0.018348677083849907,-0.010072213597595692,-0.018607132136821747,-0.007894467562437057,-0.014471461996436119
367,-0.04044075310230255,-0.01635855995118618,-0.007650000974535942,0.007088199257850647,8.342601358890533e-05,0.009322721511125565,-0.008571459911763668,0.011473521590232849,0.017383437603712082,0.021447304636240005
368,-0.004409639164805412,-0.0035614189691841602,-0.04908391088247299,-0.009543303400278091,-0.01952320709824562,-0.00831998698413372,-0.03100939840078354,-0.003990096040070057,-0.018637603148818016,0.008067579008638859
369,0.004592708311975002,-0.015841560438275337,0.014652259647846222,-0.01445551123470068,-0.004853844176977873,-0.00708002271130681,0.012489691376686096,-0.0027057137340307236,-0.012081146240234375,0.012221116572618484
370,0.03138250857591629,-0.025055427104234695,-0.005495048593729734,0.010087416507303715,-0.005659377668052912,0.013430777937173843,-0.037904709577560425,0.014274710789322853,-0.03632735833525658,0.042156100273132324
371,-0.009310629218816757,0.016861185431480408,-0.0027366492431610823,-0.006627049297094345,-0.002614852273836732,-0.004289381206035614,0.021903278306126595,-0.00335034285672009,0.040867194533348083,-0.004420326091349125
372,0.0030599143356084824,-0.007545948028564453,-0.016961466521024704,0.005569306202232838,-0.0038170386105775833,0.0039227125234901905,-0.012696893885731697,0.002686095191165805,-0.0044421060010790825,0.015787627547979355
373,-0.0056424830108881,-0.004223193041980267,-0.005406517069786787,-0.012247679755091667,-0.018118785694241524,-0.0026766054797917604,0.033637940883636475,-0.00779382511973381,0.015354692935943604,-0.0014249217929318547
374,-0.0029059401713311672,0.0010768945794552565,0.015488560311496258,0.010063649155199528,0.008734113536775112,0.004285684786736965,0.03422051668167114,0.010810050182044506,0.024247661232948303,0.007987089455127716
375,-0.004471450112760067,-0.02061343938112259,0.015470083802938461,-0.008760528638958931,-0.015205008909106255,-0.003748296294361353,0.04100828245282173,-0.006190672516822815,0.011345256119966507,0.0044578672386705875
376,-0.02334362082183361,-0.001516534830443561,-0.03460480272769928,-0.013661619275808334,-0.015719719231128693,-0.01834029331803322,-0.0035343097988516092,-0.013011235743761063,-0.004137787036597729,-0.027897484600543976
377,0.0007748210337013006,0.011101086623966694,-0.0376301109790802,-0.015606214292347431,-0.026746317744255066,-0.0017901769606396556,0.00815512053668499,-0.015495847910642624,-0.011498510837554932,0.025590427219867706
378,-0.0034634110052138567,0.022402092814445496,-0.037421923130750656,-0.0027161764446645975,-0.005569238215684891,0.003189462935552001,-0.0035771450493484735,0.0041667139157652855,0.005295835435390472,0.008796358481049538
379,-0.0006323324050754309,-0.0006246063858270645,0.006665979512035847,-0.010206647217273712,-0.012443860061466694,-0.006215420085936785,0.014206897467374802,-0.006548991892486811,0.024521438404917717,0.006373590789735317
380,-0.022607017308473587,0.013652567751705647,-0.02127835527062416,-0.029540259391069412,-0.014741145074367523,-0.018225260078907013,0.01451474241912365,-0.027507992461323738,0.0258376132696867,-0.03179646655917168
381,-0.0035034706816077232,0.005404731724411249,-0.023651298135519028,-0.02180442027747631,-0.020499609410762787,-0.010679865255951881,-0.024043653160333633,-0.014063702896237373,-0.01532266940921545,-0.00617891876026988
382,0.037662193179130554,-0.0435447059571743,-0.002618808299303055,0.018844790756702423,-0.0010621349792927504,0.02475775219500065,-0.002487021032720804,0.015835385769605637,-0.019245773553848267,0.05212519317865372
383,0.015475612133741379,0.008816013112664223,-0.012157976627349854,0.0007623075507581234,-0.007445906288921833,0.006292917765676975,-0.02413155697286129,0.0036974577233195305,-0.03630436956882477,0.048013634979724884
384,0.009766059927642345,-0.011575862765312195,-0.005173974670469761,0.002386328298598528,-0.006312028970569372,0.0035118372179567814,-0.015036783181130886,0.0042010084725916386,-0.000519704888574779,0.012287468649446964
385,-0.009649435058236122,-0.037921302020549774,0.01039133407175541,-0.024570446461439133,-0.031131522729992867,-0.012807061895728111,0.056365035474300385,-0.019569214433431625,0.017801016569137573,-0.008685663342475891
386,0.003692793194204569,0.013584429398179054,0.003938230685889721,0.003813430666923523,-0.00631446810439229,0.009145012125372887,0.007217023521661758,0.0049266028217971325,-0.00930025428533554,0.022494761273264885
387,0.042945656925439835,-0.08178284019231796,-0.025360722094774246,0.006433397531509399,-0.003457143437117338,0.012604713439941406,-0.042723070830106735,0.02326256036758423,-0.06638359278440475,0.06367481499910355
388,0.015340236015617847,-0.003807375207543373,-0.04547199234366417,0.001853201538324356,-0.011281045153737068,0.009183850139379501,-0.020384561270475388,0.01362202875316143,-0.0404033362865448,0.027770154178142548
389,0.02732764184474945,-0.02315181866288185,0.026967022567987442,0.008953379467129707,0.0013894406147301197,0.016502026468515396,0.02499542571604252,0.0145946703851223,0.011799920350313187,0.04702598974108696
390,-0.014387892559170723,0.0032861502841115,0.011154912412166595,-0.008265437558293343,-0.0028030851390212774,-0.008661924861371517,0.04245699569582939,-0.0052416324615478516,0.03871253877878189,-0.00914731901139021
391,0.03573249652981758,-0.04562816768884659,-0.0031224850099533796,0.018245020881295204,-0.006950280163437128,0.02028340846300125,-0.02382458932697773,0.008038561791181564,-0.015419219620525837,0.048383355140686035
392,0.011054811999201775,-0.044823624193668365,0.009602058678865433,-0.003748510032892227,-0.01897452399134636,-0.001104918890632689,0.008747009560465813,-0.0066245547495782375,-0.011382455006241798,0.03906157240271568
393,-0.005039853975176811,-0.022117290645837784,0.002425665268674493,-0.0016012578271329403,-0.010741918347775936,0.00239932956174016,-0.027255769819021225,0.0038923874963074923,-0.008251669816672802,0.00942758284509182
394,-0.005536475218832493,-0.00748289842158556,-0.04249021038413048,-0.004037789534777403,-0.011006008833646774,-0.00012892670929431915,-0.004354045260697603,0.0003216555342078209,-0.0006525919307023287,0.017140589654445648
395,-0.005166356451809406,-0.02956566773355007,0.0012304240372031927,-0.021699056029319763,-0.026173099875450134,-0.014522804878652096,0.02933460846543312,-0.01887531206011772,0.012404948472976685,0.0016035696025937796
396,-0.044258903712034225,0.007844561710953712,-0.06533698737621307,-0.051201995462179184,-0.029424414038658142,-0.024154145270586014,0.0219324491918087,-0.03439197689294815,-0.0031508696265518665,-0.007832882925868034
397,-0.009157342836260796,0.003928812220692635,0.0002578876737970859,-0.006377587094902992,-0.008000748232007027,-0.0003861524164676666,0.017520202323794365,-0.004801714792847633,0.0026558241806924343,0.0017488014418631792
398,-0.009310629218816757,0.016861185431480408,-0.0027366492431610823,-0.006627049297094345,-0.002614852273836732,-0.004289381206035614,0.021903278306126595,-0.00335034285672009,0.040867194533348083,-0.004420326091349125
399,0.014339383691549301,-0.029019106179475784,0.003378729335963726,0.00811895914375782,-0.005999214947223663,0.012169658206403255,0.004954366944730282,0.011018305085599422,-0.010813243687152863,0.0326416902244091
400,0.013953052461147308,-0.04121525585651398,-0.021437600255012512,0.008630840107798576,0.00025733164511621,0.014152639545500278,-0.023964643478393555,0.007232426665723324,-0.014002732932567596,0.022887133061885834
401,-0.0048963152803480625,-0.010433601215481758,0.013984094373881817,-0.00015876564430072904,-0.003032414708286524,-0.0007593182381242514,0.040756579488515854,0.0018434688681736588,0.02234490215778351,0.003066049423068762
402,-0.001217070035636425,-0.025064999237656593,0.02007516659796238,-0.011905666440725327,-0.023008443415164948,-0.002987092360854149,0.03335431590676308,-0.009850182570517063,-0.0065484982915222645,0.013132759369909763
403,0.021763049066066742,-0.03832846134901047,0.013461114838719368,0.01254064217209816,-0.009883122518658638,0.0004354229895398021,-0.0428895428776741,0.005062174517661333,-0.019864019006490707,0.02845616266131401
404,0.03900629281997681,-0.03144654259085655,-0.010223692283034325,0.016525354236364365,-0.005268986336886883,0.012492475099861622,-0.016910014674067497,0.012751337140798569,-0.015597048215568066,0.037361156195402145
405,-0.020119011402130127,-0.007888497784733772,-0.018425919115543365,-0.011849325150251389,-0.011964205652475357,-0.007400076370686293,-0.009130059741437435,-0.01381717436015606,-0.006310952361673117,-0.017051203176379204
406,-0.0048963152803480625,-0.010433601215481758,0.013984094373881817,-0.00015876561519689858,-0.0030324142426252365,-0.0007593182381242514,0.040756579488515854,0.0018434688681736588,0.02234490215778351,0.003066049423068762
407,-0.01075457688421011,-0.029117567464709282,-0.018720705062150955,-0.015296971425414085,-0.02600754052400589,-0.01655946485698223,-0.02067963406443596,-0.018310271203517914,-0.018234431743621826,-0.012195342220366001
408,-0.003732893615961075,-0.0073858993127942085,-0.01778583787381649,-0.00016554608009755611,-0.009266259148716927,0.003686237381771207,0.0005396229680627584,-0.00044147763401269913,0.009510733187198639,0.005773481912910938
409,0.008010676130652428,-0.009174209088087082,0.02618814818561077,0.01733417809009552,7.185456342995167e-05,0.014399799518287182,-0.018285023048520088,0.009590448811650276,-0.025924939662218094,0.026232104748487473
410,-0.003049863502383232,0.0008237764704972506,-0.002071849536150694,-0.0069777644239366055,-0.013762133195996284,0.0007822420448064804,0.026630768552422523,-0.00357064395211637,0.009260543622076511,0.005314408801496029
411,-0.004134326707571745,-0.03959148749709129,-0.01637990027666092,0.0001746462658047676,-0.011102394200861454,0.0002484995638951659,0.008986215107142925,0.0012251432053744793,0.0012817586539313197,0.026794416829943657
412,0.031082430854439735,-0.043697308748960495,-0.004008174873888493,0.0227794349193573,0.0009837279794737697,0.021365128457546234,-0.01308345329016447,0.01987486705183983,-0.006358791142702103,0.04611526057124138
413,-0.000111760338768363,0.03348415717482567,-0.01146197970956564,0.011668558232486248,0.008773164823651314,0.011327996850013733,0.010273359715938568,0.013709763064980507,0.017229212448000908,0.01081064436584711
414,0.060707658529281616,-0.02587403543293476,0.049229688942432404,0.03325952589511871,0.024472424760460854,0.03862069174647331,0.015527119860053062,0.04225883632898331,-0.0003594765439629555,0.08327372372150421
415,-0.002905943663790822,0.0010768852662295103,0.015488560311496258,0.010063647292554379,0.008734113536775112,0.004285684786736965,0.03422052040696144,0.010810050182044506,0.024247661232948303,0.007987086661159992
416,0.03525370731949806,-0.07610289752483368,-0.040916506201028824,0.02950863167643547,-0.015322687104344368,0.014796795323491096,-0.05449872091412544,0.018703242763876915,-0.022737747058272362,0.04343220591545105
417,-0.002905943663790822,0.0010768852662295103,0.015488560311496258,0.010063647292554379,0.008734113536775112,0.004285684786736965,0.03422052040696144,0.010810050182044506,0.024247661232948303,0.007987086661159992
418,-0.002905943663790822,0.0010768852662295103,0.015488560311496258,0.010063647292554379,0.008734113536775112,0.004285684786736965,0.03422052040696144,0.010810050182044506,0.024247661232948303,0.007987086661159992
419,-0.0009504769695922732,0.0352361761033535,-0.02390526607632637,0.0021818596869707108,-0.0028812990058213472,0.009185821749269962,0.007025263272225857,0.005994759500026703,0.01249012816697359,0.007077155169099569
420,-0.006914434023201466,-0.02210455946624279,0.012458648532629013,-0.010523681528866291,-0.014962973073124886,-0.00587465101853013,0.04738375172019005,-0.007248108275234699,0.020415624603629112,-0.0019235884537920356
421,-0.002905943663790822,0.0010768852662295103,0.015488560311496258,0.010063647292554379,0.008734113536775112,0.004285684786736965,0.03422052040696144,0.010810050182044506,0.024247661232948303,0.007987086661159992
422,-0.006659504026174545,-0.033362723886966705,0.013825018890202045,-0.02007978782057762,-0.02825126051902771,-0.009325115010142326,0.048205938190221786,-0.016123056411743164,0.009167197160422802,-0.0009493292891420424
423,0.004861201625317335,-0.0035064597614109516,0.02592252567410469,0.00771245127543807,-0.002870300319045782,0.008046122267842293,0.015165713615715504,0.006831724662333727,-0.013006294146180153,0.028528006747364998
424,0.007010822184383869,0.013922985643148422,-0.021268704906105995,0.011723962612450123,0.0031732534989714622,0.014972993172705173,-0.021282842382788658,0.014858116395771503,-0.015853168442845345,0.01550768781453371
425,0.01504824310541153,-0.011097324080765247,-0.018096590414643288,0.010575737804174423,-0.003966832533478737,0.009079398587346077,-0.00178854342084378,0.0030029364861547947,-0.01394127868115902,0.030467722564935684
426,-0.01171683706343174,0.005377237685024738,-0.013175003230571747,-0.011172382161021233,-0.012196144089102745,-0.010838447138667107,-0.003813773626461625,-0.010529439896345139,-0.006665526889264584,-0.004247661679983139
427,0.010910801589488983,0.011625884100794792,-0.00857616402208805,0.00850062444806099,-0.00012347474694252014,0.01123552955687046,-0.009329063817858696,0.009399696253240108,0.0013297934783622622,0.020819008350372314
428,0.016951456665992737,-0.03646866977214813,0.013720585033297539,0.015093322843313217,-0.003191111609339714,0.013960822485387325,0.001550982240587473,0.010789318010210991,-0.01492911484092474,0.04474852234125137
429,-0.0074697211384773254,-0.02531583234667778,0.012038931250572205,-0.013375602662563324,-0.018245680257678032,-0.007282141130417585,0.04920722171664238,-0.009749667719006538,0.019884780049324036,-0.003296499839052558
430,0.01832326501607895,-0.018768053501844406,-0.012444141320884228,0.004844628274440765,-0.0031655989587306976,0.0066419485956430435,-0.013872506096959114,0.01580807939171791,-0.008952045813202858,0.039100080728530884
431,0.022182287648320198,-0.01872069574892521,0.0077821859158575535,0.02262364886701107,0.001066777273081243,0.02125805988907814,-0.015225101262331009,0.021766627207398415,-0.02221103012561798,0.04216509312391281
432,-0.01311037689447403,-0.0012578186579048634,-0.016768647357821465,-0.01493941992521286,-0.012316349893808365,-0.013385316357016563,0.012238919734954834,-0.01354595273733139,0.009194234386086464,-0.010775016620755196
433,0.021290993317961693,-0.03763263672590256,-0.0033945064060389996,0.013199832290410995,-0.005050583276897669,0.010276591405272484,-0.011765563860535622,0.015064500272274017,-0.015028663910925388,0.054497942328453064
434,-0.009649434126913548,-0.037921302020549774,0.010391338728368282,-0.024570446461439133,-0.031131522729992867,-0.012807061895728111,0.056365035474300385,-0.019569214433431625,0.01780102215707302,-0.008685663342475891
435,0.03866807743906975,-0.03441629186272621,-0.0034811492078006268,0.022108186036348343,-0.001617158530279994,0.016982819885015488,-0.04221987724304199,0.017606431618332863,-0.0188087560236454,0.050518542528152466
436,0.03171217441558838,-0.043109551072120667,0.023438988253474236,0.01958005130290985,0.0005146150942891836,0.010029558092355728,-0.050422634929418564,0.01123280543833971,-0.025330401957035065,0.04736921563744545
437,-0.03971194475889206,0.03683489188551903,0.0034129151608794928,-0.03170493245124817,-0.0047010029666125774,-0.030466213822364807,0.04830650985240936,-0.025734249502420425,0.08124902099370956,-0.042234599590301514
438,0.02375931665301323,-0.007978121750056744,0.01734917238354683,0.023597758263349533,0.017328236252069473,0.025604594498872757,0.016116341575980186,0.03226078301668167,0.03267895430326462,0.04669678956270218
439,-0.019227284938097,-0.053154122084379196,0.0011624651961028576,-0.008978044614195824,-0.017997872084379196,-0.012796442955732346,0.031155671924352646,-0.009516802616417408,0.004833593498915434,-0.012862872332334518
440,-0.008810365572571754,0.042453404515981674,-0.014727151021361351,0.0017740074545145035,0.005583480931818485,0.00317984726279974,0.013264765031635761,0.0050748614594340324,0.030660994350910187,-0.0010731699876487255
441,-0.02291572280228138,0.0161528792232275,-0.021995654329657555,-0.019867293536663055,-0.010637535713613033,-0.013605593703687191,0.006115573924034834,-0.0100746750831604,-0.00020564859732985497,-0.016452033072710037
442,0.022226965054869652,0.012366674840450287,-0.0018135762074962258,0.00779429916292429,-0.004196694120764732,0.014964807778596878,-0.027275893837213516,0.01225209515541792,-0.0456944964826107,0.05979817733168602
443,0.002878834493458271,0.06816951185464859,-0.04030701145529747,0.013386287726461887,0.008814962580800056,0.018865350633859634,-0.01535717397928238,0.016813311725854874,0.009717395529150963,0.013832679949700832
444,0.013219287618994713,0.005009059328585863,0.009491421282291412,0.010595040395855904,0.006692591123282909,0.008060963824391365,-0.005253528710454702,0.005961827468127012,-0.0031561136711388826,0.023645728826522827
445,-0.008948405273258686,-0.005697214510291815,-0.005638794042170048,0.0036403911653906107,-0.00278971204534173,0.005219587590545416,0.01839292421936989,-0.0010948870331048965,0.012300590053200722,0.021351784467697144
446,0.04340418055653572,-0.0481455996632576,-0.00956795085221529,0.001453114440664649,-0.015433132648468018,0.0035497434437274933,-0.05861896649003029,0.005258884746581316,-0.03124629519879818,0.023560352623462677
447,-0.010003536008298397,0.012104000896215439,-0.02309904247522354,-0.015321344137191772,-0.005037532653659582,-0.007745296228677034,0.01575159840285778,-0.008190403692424297,0.035990625619888306,-0.012582862749695778
448,0.02486402541399002,0.007827634923160076,-0.025184035301208496,0.004153980873525143,0.0016332607483491302,0.0026706871576607227,0.01914665289223194,-0.001719519728794694,0.03263705596327782,-0.009042599238455296
449,-0.01016643363982439,0.00552388234063983,-0.020902546122670174,-0.009174785576760769,-0.019392594695091248,-0.01027174573391676,-0.03178585693240166,-0.012628945522010326,-0.012238812632858753,0.00299775879830122
450,0.001963493414223194,-0.012087374925613403,-0.030965883284807205,0.005274382885545492,-0.004190047271549702,0.010293593630194664,-0.007016101386398077,0.002300838939845562,-0.007708082441240549,0.026902442798018456
451,0.04617813974618912,-0.054931703954935074,-0.009417160414159298,0.01339145191013813,-0.005577541887760162,0.011613444425165653,-0.01681080460548401,0.015594116412103176,-0.016011426225304604,0.06150515377521515
452,0.04176925867795944,0.02267099916934967,-0.041572678834199905,0.016847018152475357,-0.006669993046671152,0.01047165971249342,-0.03507767245173454,-0.00039764493703842163,-0.03418612852692604,0.044575292617082596
453,-0.048481090759224396,0.004411740170623344,-0.05962489067126774,-0.01645670378804924,-0.021961920785605046,-0.012325938358869817,-0.004769695192799855,-0.01535364792878093,-0.014035374089099793,-0.026341607900052168
454,-0.010962912812829018,0.015508783049881458,0.01167846005409956,-0.006454833783209324,-0.012966890819370747,-0.005003064405173063,-0.016080807894468307,-0.008194059133529663,-0.06713186204433441,-0.015329715795814991
455,0.03241288289427757,-0.04360170662403107,-0.0007223606808111072,0.0034680403769016266,-0.014253072440624237,0.0023190516512840986,-0.050383858382701874,0.0009072341490536928,-0.0012051837984472513,0.039052627980709076
456,0.047720134258270264,-0.07294106483459473,-0.005846405401825905,0.02006620168685913,-0.015997158363461494,0.02309952676296234,-0.05430552735924721,0.009839511476457119,-0.058670930564403534,0.06841861456632614
457,-0.0029059401713311672,0.0010768945794552565,0.015488560311496258,0.010063649155199528,0.008734113536775112,0.004285684786736965,0.03422051668167114,0.010810050182044506,0.024247661232948303,0.007987089455127716
458,-0.03730369359254837,0.0037971448618918657,-0.015189236961305141,-0.022503504529595375,-0.02262473851442337,-0.023579783737659454,-0.012921917252242565,-0.02396559529006481,-0.016350988298654556,-0.031150339171290398
