,security,conformity,tradition,benevolence,universalism,self-direction,stimulation,hedonism,achievement,power
0,0.0058977543376386166,-0.026437710970640182,-0.02697010524570942,-0.00306036532856524,-0.007417579181492329,0.008379220962524414,0.018136123195290565,0.004651774186640978,-0.020882584154605865,0.007492429111152887
1,0.0020800025667995214,-0.037700504064559937,-0.023235253989696503,-0.006099339574575424,-0.006074202246963978,0.007351847365498543,0.038137126713991165,0.0053461105562746525,-0.008046717382967472,-0.0067029111087322235
2,-0.005854096729308367,-0.04518967121839523,-0.028373338282108307,-0.00936101283878088,-0.008380764164030552,0.008371282368898392,0.05579457804560661,0.006950687151402235,-0.02333930879831314,0.0012353300116956234
3,0.018319200724363327,-0.05330822244286537,-0.02100536972284317,0.003230511676520109,-0.006268609315156937,0.010692320764064789,-0.008758275769650936,0.00753513490781188,-0.035734448581933975,0.025977369397878647
4,-0.014902605089287056,0.002775044423783303,-0.015541421301593753,0.001453326322835325,0.008688178417908905,0.003445651617974248,-0.0062045675628883915,0.009806525784334877,-0.03243784524470675,-0.007422513549724764
5,-0.00786923710256815,-0.02221154421567917,-0.02471156045794487,-0.010229544714093208,-0.010907993651926517,-0.00221045920625329,0.013548946008086205,-0.0038950301241129637,-0.023666201159358025,0.0027002552524209023
6,0.007065270096063614,-0.007536882534623146,-0.00410831393674016,-0.004870915785431862,-0.004862739238888025,0.0016440012259408832,0.0025222289841622114,-0.002015096368268132,-0.002101882826536894,-0.00801137462258339
7,0.03169040009379387,-0.013924005441367626,-0.007131421007215977,0.00954176764935255,0.0008827155688777566,0.007890420965850353,-0.02187301032245159,0.005085358861833811,0.027194559574127197,-0.024052899330854416
8,0.0398918017745018,0.00916893407702446,0.028974302113056183,0.004374959506094456,0.009078919887542725,0.01487489603459835,0.028757600113749504,0.012787345796823502,-0.033392876386642456,0.06049160659313202
9,0.011942228302359581,0.010378277860581875,-0.002490145154297352,0.004143207333981991,-0.0002663827035576105,0.008786976337432861,-0.008923551067709923,0.010724876075983047,-0.00837890524417162,0.009282576851546764
10,-0.00019782286835834384,-0.020861180499196053,-0.01629796251654625,-0.00703065562993288,-0.007784554734826088,0.0035595197696238756,0.0249492060393095,0.0007944762473925948,-0.016890205442905426,0.0057439180091023445
11,0.06455584937982599,0.027519405637114646,0.02566898124492529,0.009665931380540484,0.008970685476396182,0.01906866624751799,0.04092195471874501,0.019443594483595016,0.024191520850190086,0.0031690260783251902
12,0.03169040009379387,-0.013924005441367626,-0.007131421007215977,0.00954176764935255,0.0008827155688777566,0.007890420965850353,-0.02187301032245159,0.005085358861833811,0.027194559574127197,-0.024052899330854416
13,0.032900840044021606,-0.04452628642320633,-0.02041609399020672,0.017817344516515732,0.0007409712998196483,0.02151397615671158,0.009541714563965797,0.018480993807315826,-0.016473211348056793,0.027455080300569534
14,0.016885200515389442,-0.025812258943915367,-0.015183337032794952,0.0017212132224813104,-0.0025957422330975533,0.007621133700013161,0.008132056333124638,0.005215735174715519,0.0095739234238863,-0.015377904288470745
15,-0.007020065560936928,-0.03242284432053566,-0.01979149878025055,-0.009866585023701191,-0.005759093910455704,0.006380158010870218,0.050147801637649536,0.003737354651093483,-0.01233699731528759,0.0018244595266878605
16,0.0013780143344774842,-0.0042548105120658875,-0.00889665074646473,-0.003433812176808715,-0.0008895888458937407,0.007480495609343052,0.02045852690935135,0.003483292181044817,6.688619032502174e-05,0.007995283231139183
17,0.017811167985200882,-0.02006637677550316,-0.012455509975552559,0.010202848352491856,-0.0027601481415331364,0.006192890461534262,-0.04387959465384483,0.003879349213093519,-0.029489442706108093,0.010846025310456753
18,0.02125246450304985,-0.021450070664286613,-0.008402450010180473,0.002080594189465046,-0.002737452043220401,0.0074379462748765945,-0.012822872027754784,0.006876133382320404,-0.003288839478045702,0.010372506454586983
19,0.019158128648996353,0.004255023784935474,-0.008346877992153168,-0.0029090680181980133,-0.004162171855568886,0.0011575710959732533,-0.010010884143412113,-0.001133836805820465,-0.037862926721572876,0.034289851784706116
20,0.03169040009379387,-0.013924005441367626,-0.007131421007215977,0.00954176764935255,0.0008827155688777566,0.007890420965850353,-0.02187301032245159,0.005085358861833811,0.027194559574127197,-0.024052899330854416
21,0.030757315456867218,-0.011032020673155785,0.0010284302989020944,0.00582074373960495,-9.17424913495779e-05,0.008418019860982895,-0.020427772775292397,0.0038251359947025776,-0.028704609721899033,0.04043954983353615
22,0.0073167867958545685,-0.0418667308986187,-0.028568943962454796,-0.001979726366698742,-0.012335175648331642,0.0031893430277705193,-0.027981381863355637,5.771871656179428e-06,-0.02262606844305992,0.029600612819194794
23,0.03169040009379387,-0.013924005441367626,-0.007131421007215977,0.00954176764935255,0.0008827155688777566,0.007890420965850353,-0.02187301032245159,0.005085358861833811,0.027194559574127197,-0.024052899330854416
24,0.007958602160215378,0.00017336569726467133,0.008075780235230923,-0.001693203579634428,0.00018113816622644663,0.00037578027695417404,0.011098386719822884,-0.0036176377907395363,-0.017137007787823677,0.03646073862910271
25,0.010876585729420185,-0.04140431433916092,-0.018241435289382935,0.0031961065251380205,-0.009719911962747574,0.00616246135905385,-0.02796366810798645,0.0012977824080735445,-0.04301619902253151,0.03308885917067528
26,0.0007508671842515469,-0.027501272037625313,-0.013038739562034607,-0.0029126270674169064,-0.006695329677313566,0.008098884485661983,0.019152343273162842,0.002709431806579232,-0.02923656813800335,0.006004918832331896
27,0.001652262290008366,-0.04816822707653046,-0.02315542846918106,-0.002510249614715576,-0.01000424288213253,0.004406805150210857,0.005754441954195499,0.0018944983603432775,-0.025117777287960052,0.013897527009248734
28,0.03169040009379387,-0.013924005441367626,-0.007131421007215977,0.00954176764935255,0.0008827155688777566,0.007890420965850353,-0.02187301032245159,0.005085358861833811,0.027194559574127197,-0.024052899330854416
29,0.014969628304243088,-0.02190624177455902,-0.01713569462299347,0.00332649820484221,-0.008679350838065147,0.0027697395998984575,-0.04074660688638687,0.000850171665661037,-0.040475767105817795,0.029393678531050682
30,0.01769939810037613,0.0025825039483606815,0.012208943255245686,0.005654723849147558,0.006476822774857283,0.013209706172347069,0.01222254242748022,0.010261042974889278,-0.004778812639415264,0.03195183724164963
31,0.011222073808312416,-0.03902926295995712,-0.018638597801327705,0.0023178481496870518,-0.003592273686081171,0.01200338639318943,0.010884804651141167,0.00863314513117075,-0.016452360898256302,0.011537225916981697
32,-0.0024011016357690096,-0.02409566566348076,-0.01861615851521492,-0.010781068354845047,-0.008596967905759811,0.0022339485585689545,0.02300834096968174,-0.0031524128280580044,-0.008748184889554977,0.013040379621088505
33,-0.01024224329739809,-0.017055194824934006,-0.01033016573637724,-0.006507272366434336,-0.006087176501750946,-0.003513220464810729,0.00682354811578989,0.002238706685602665,-0.015100966207683086,-0.0052340091206133366
34,0.013639030046761036,-0.012837802059948444,0.013598877936601639,0.010040849447250366,0.0070970505475997925,0.010023171082139015,0.00840703397989273,0.01535787247121334,-0.03654630854725838,0.067416712641716
35,-0.008061469210902308,0.006876068174243808,-0.05133208050333961,-0.004532455514842585,-0.00959864430235674,0.0062950934916412215,0.010973576562113986,0.013160774811151929,-0.01568238773752113,0.01696236002861342
36,0.007068380247801542,-0.02482292614877224,-0.016247114166617393,-0.007278235629200935,-0.010525565594434738,-0.0007560655358247459,0.003415927290916443,-0.0004795985296368599,-0.024238131940364838,0.011901067569851875
37,0.027338305488228798,-0.04810589924454689,-0.006371843628585339,0.011015215888619423,-0.0009743314003571868,0.014809184707701206,-0.02282237447798252,0.01122174970805645,-0.03488793969154358,0.031229211017489433
38,-0.001621299423277378,-0.040672559291124344,-0.025248238816857338,-0.008054479956626892,-0.006943818181753159,0.0072845276445150375,0.04563840478658676,0.005378705449402332,-0.012451883405447006,-0.004534163977950811
39,-0.005583356134593487,-0.04391302540898323,-0.022153915837407112,-0.0058528827503323555,-0.009218035265803337,0.004625087603926659,0.03570007532835007,0.0027988976798951626,-0.030761323869228363,-0.000783353578299284
40,9.028567001223564e-05,-0.030966056510806084,-0.012205622158944607,-0.0011423826217651367,-0.0033064596354961395,0.010571022517979145,0.03149144724011421,0.007136082276701927,-0.02629139833152294,0.015958774834871292
41,-0.004089135676622391,-0.028416063636541367,-0.010147576220333576,-0.0069196792319417,-0.012887367978692055,-0.005248798988759518,-0.028354167938232422,-0.013181072659790516,-0.0393243208527565,-0.010256725363433361
42,-0.012725193984806538,-0.04958874359726906,-0.03128717467188835,-0.013919895514845848,-0.009552663192152977,0.007082561030983925,0.06814219802618027,0.0054764896631240845,-0.02566736750304699,0.001972088124603033
43,0.024704584851861,-0.06255593150854111,-0.006814830005168915,0.00747810211032629,0.0018768272129818797,0.01724456436932087,-0.012456361204385757,0.013910171575844288,-0.04205622151494026,0.04378986731171608
44,-0.00983494520187378,-0.014764591120183468,-0.010873334482312202,-0.0022378379944711924,-0.004527888260781765,-9.112793486565351e-05,0.0028541618958115578,-0.0020979191176593304,-0.022980334237217903,0.0014889705926179886
45,-0.0009121351585677203,0.008831855483957419,-0.03252622164138442,-0.002478983649509498,-0.009356241540814894,0.00023663834869900322,-0.019830352869856033,0.0034096519763975753,0.002893387958435303,-0.0020538945148813716
46,-0.010448934510350227,-0.03807000070810318,-0.027749117463827133,-0.010300735011696815,-0.00964580662548542,0.006981962360441685,0.048672132194042206,0.005420261528342962,-0.03055155649781227,0.005840701516717672
47,0.04996676370501518,-0.007645570673048496,0.011695764027535915,0.029791545122861862,0.011460194364190102,0.031679634004831314,-0.017110781744122505,0.02982279285788536,-0.047706715762615204,0.07654488831758499
48,0.0035807681269943714,-0.023747820407152176,-0.020101210102438927,-0.0028083377983421087,-0.003962907940149307,0.007236502133309841,0.028898702934384346,0.0052602700889110565,-0.013167265802621841,0.0026872430462390184
49,-0.03369425982236862,0.0068165878765285015,0.03187862038612366,0.0019446539226919413,-0.0010570732410997152,-0.019437041133642197,0.009370770305395126,-0.013290331698954105,-0.004117771051824093,-0.04538688808679581
50,0.016885200515389442,-0.025812258943915367,-0.015183337032794952,0.0017212132224813104,-0.0025957422330975533,0.007621133700013161,0.008132056333124638,0.005215735174715519,0.0095739234238863,-0.015377904288470745
51,0.016314268112182617,0.08714509755373001,0.010527624748647213,0.02450426109135151,0.012906555086374283,0.020500125363469124,-0.050209589302539825,0.013395368121564388,0.006202449090778828,0.004066659137606621
52,0.0283507127314806,0.0019112764857709408,-0.000758618931286037,0.009659647941589355,0.002012202050536871,0.009194858372211456,-0.01804998144507408,0.007216784171760082,-0.02057049795985222,0.02637026645243168
53,0.00018112361431121826,-0.0448635071516037,-0.02675779163837433,-0.005738780368119478,-0.006596437655389309,0.009746155701577663,0.048033349215984344,0.007756813894957304,-0.018361771479249,0.003734229365363717
54,0.009482604451477528,-0.03175637871026993,-0.019209297373890877,-0.0021890655625611544,-0.004334974102675915,0.007486490998417139,0.023134596645832062,0.005280923098325729,0.0007636004593223333,-0.011040407232940197
55,0.000837037106975913,-0.028804130852222443,-0.01941845193505287,-0.001690527657046914,-0.0038852919824421406,0.011294979602098465,0.035736359655857086,0.0083820391446352,-0.02019677497446537,0.00891229696571827
56,0.014557125978171825,-0.018117746338248253,-0.02387809380888939,0.005524253938347101,0.006413524970412254,0.009111890569329262,0.0216703899204731,0.010526713915169239,-0.013872943818569183,0.017699817195534706
57,-0.02488138899207115,0.03665950149297714,-0.005037847440689802,-0.011815032921731472,-0.001140492968261242,-0.019259126856923103,0.024388818070292473,-0.020978156477212906,0.01565854623913765,-0.0510399155318737
58,0.009491382166743279,-0.006850152276456356,0.002628158777952194,0.005195525474846363,0.0020686343777924776,0.0046175639145076275,-0.002524445066228509,0.012534462846815586,-0.03655749931931496,0.03832341730594635
59,0.03169040009379387,-0.013924005441367626,-0.007131421007215977,0.00954176764935255,0.0008827155688777566,0.007890420965850353,-0.02187301032245159,0.005085358861833811,0.027194559574127197,-0.024052899330854416
60,-0.0015569583047181368,0.0070022945292294025,0.0077327582985162735,-0.01503616664558649,0.0008447871077805758,-0.006538917310535908,0.03130461275577545,-0.007222011219710112,0.03132836893200874,-0.0015037242555990815
61,0.01118590496480465,-0.023760803043842316,-0.009558446705341339,0.002348248613998294,-0.004041106905788183,0.008608733303844929,0.009116142988204956,0.005831076763570309,-0.03294401615858078,0.02297678217291832
62,0.04179275035858154,-0.06197572126984596,-0.00030393770430237055,0.01701272465288639,0.0028956111054867506,0.017401421442627907,-0.06540311872959137,0.012803377583622932,-0.045361313968896866,0.056005194783210754
63,0.007613209076225758,-0.04679739475250244,-0.02143172174692154,0.0015029101632535458,-0.008420374244451523,0.009119207039475441,-0.014390736818313599,0.0061773136258125305,-0.03761746361851692,0.02330445498228073
64,0.019547685980796814,-0.0275518000125885,-0.016049718484282494,-8.608313510194421e-05,-0.005834843032062054,0.008709967136383057,-0.0014919983223080635,0.004525603726506233,-0.028145253658294678,0.020284056663513184
65,0.02229808084666729,-0.013133687898516655,-0.00012774323113262653,0.010588448494672775,0.0019112308509647846,0.010974952019751072,-0.013516165316104889,0.006940518505871296,0.0001395612198393792,0.002946280175819993
66,0.0070150671526789665,-0.033737748861312866,-0.0205512847751379,-0.003492489457130432,-0.0049147168174386024,0.007441611960530281,0.02813544124364853,0.005302653182297945,-0.0021731765009462833,-0.009594576433300972
67,-0.012725196778774261,-0.04958874359726906,-0.03128717467188835,-0.013919894583523273,-0.009552663192152977,0.007082562427967787,0.06814219802618027,0.0054764896631240845,-0.02566736750304699,0.001972088124603033
68,0.0066900597885251045,-0.00635936576873064,-0.009296557866036892,-0.005796054378151894,-0.002180839190259576,0.00044375937432050705,0.012434708885848522,0.002850850112736225,-0.02747960574924946,0.03481972962617874
69,0.0013584671542048454,-0.04136796295642853,-0.021391624584794044,-0.0049230786971747875,-0.004865927621722221,0.0100131556391716,0.03546975180506706,0.007627612445503473,-0.02187587507069111,0.008146594278514385
70,0.008999574929475784,-0.021996786817908287,0.0015142709016799927,-0.0020632348023355007,-0.007596483454108238,0.0007638675160706043,-0.018029795959591866,0.0011392795713618398,-0.023915575817227364,0.011052708141505718
71,-0.008197737857699394,-0.03032018058001995,-0.016512801870703697,0.00022800173610448837,-0.002696340437978506,0.006469304207712412,0.02626209333539009,0.003963390830904245,-0.016687054187059402,0.004092175979167223
72,0.009754432365298271,-0.03702639788389206,-0.0077567994594573975,0.0069043440744280815,-0.0002604112960398197,0.010118295438587666,0.01645256206393242,0.01495068147778511,-0.04430409520864487,0.05123357102274895
73,0.010366466827690601,-0.004210404586046934,-0.007215677294880152,0.004371193237602711,-0.004269218537956476,0.007756864186376333,-0.013488353230059147,0.005997421685606241,-0.03097573295235634,0.01762688346207142
74,0.01391330175101757,-0.01897997222840786,-0.0141858896240592,-0.00011221168097108603,-0.007170872297137976,0.0018583510536700487,-0.01946871541440487,-0.0012908950448036194,-0.02228311449289322,0.01909478008747101
75,-0.003728648880496621,-0.021846121177077293,-0.013935137540102005,-0.0025573004968464375,-0.0055375657975673676,0.0036894697695970535,0.015640854835510254,0.00316171208396554,-0.004277949221432209,0.008891320787370205
76,0.0019982396624982357,-0.02883617952466011,-0.01066402718424797,0.0003507510991767049,-0.0018875114619731903,0.010444458574056625,0.02677057310938835,0.008240137249231339,-0.027607781812548637,0.023859765380620956
77,0.01290576346218586,-0.01234336569905281,0.006875932216644287,0.011635129339993,0.002939744619652629,0.014059482142329216,-0.005159308668226004,0.008795677684247494,-0.02691543661057949,0.029945462942123413
78,-0.010580737143754959,-0.04662254452705383,-0.028595155104994774,-0.012915264815092087,-0.008988659828901291,0.007392339874058962,0.06482306122779846,0.005530199967324734,-0.02636219747364521,0.0033180266618728638
79,-0.010932473465800285,-0.0022098091430962086,-0.02071637287735939,-0.004929074086248875,-0.0018125921487808228,0.00908063817769289,0.040475308895111084,0.011051587760448456,-0.01836695894598961,0.0023195897229015827
80,0.027438443154096603,-0.026284407824277878,-0.016028400510549545,0.014730583876371384,-0.003655924927443266,0.017123034223914146,-0.0006336725782603025,0.017400460317730904,-0.024663548916578293,0.004753048066049814
81,0.019057470041525297,-0.03019039537514871,-0.004422797073152362,-0.002095336973050994,-0.0055119866760549325,-0.00617882091916491,-0.03248815880354887,-0.0024550475288702784,-0.014059603800794209,0.031891872935329454
82,0.029302392154932022,-0.02578756958246231,-0.0018094866536557674,0.008952346630394459,-0.0031514179427176714,0.007609878666698933,-0.05397448688745499,0.005119369365274906,-0.03431179001927376,0.031191805377602577
83,-0.030156150460243225,0.04126259312033653,-0.012967744842171669,-0.014314952306449413,-0.007591515779495239,-0.006677303463220596,-0.023057537153363228,-0.013046637177467346,-0.04372560977935791,-0.028484148904681206
84,0.016885200515389442,-0.025812258943915367,-0.015183337032794952,0.0017212132224813104,-0.0025957422330975533,0.007621134165674448,0.008132056333124638,0.005215734709054232,0.009573922492563725,-0.015377904288470745
85,0.0003350463230162859,-0.03839276358485222,-0.021421663463115692,-0.007633867207914591,-0.006189508829265833,0.006809588987380266,0.03978496789932251,0.0047660646960139275,-0.023782093077898026,0.006144771818071604
86,0.013081587851047516,0.011414755135774612,0.004499748349189758,0.0017893058247864246,0.0006652333540841937,0.009011011570692062,-0.0035521727986633778,0.0070235333405435085,-0.016403082758188248,0.0008214835543185472
87,0.013244549743831158,-0.02788637764751911,-0.00898666586726904,0.0059995464980602264,0.00021825789008289576,0.014033219777047634,0.008727814070880413,0.010971473529934883,-0.01936449483036995,0.016001472249627113
88,-0.005034633446484804,-0.00802551582455635,-0.010411566123366356,-0.00024167820811271667,0.0021393964998424053,0.0044471793808043,0.05163612589240074,0.003878667950630188,0.015202676877379417,0.009959781542420387
89,-0.012725194916129112,-0.04958874359726906,-0.03128717094659805,-0.013919894583523273,-0.009552663192152977,0.007082562427967787,0.06814219802618027,0.005476487800478935,-0.02566736750304699,0.001972088124603033
90,0.01779680699110031,0.013272874057292938,0.0023593686055392027,1.6201520338654518e-05,-0.0008574675302952528,0.00931168906390667,-0.01398115511983633,0.0035664557944983244,-0.04970724880695343,0.05708257853984833
91,0.01938948966562748,0.06693127751350403,0.006995812989771366,0.02151176519691944,0.010501788929104805,0.017978187650442123,-0.04454227536916733,0.011733366176486015,0.010400870814919472,-0.0015572533011436462
92,-0.03423604369163513,0.06341248005628586,0.017674706876277924,-0.0357985645532608,0.004343537613749504,-0.016810405999422073,0.07083335518836975,-0.023379474878311157,0.09726154804229736,-0.029868777841329575
93,0.016314268112182617,0.08714509755373001,0.010527624748647213,0.02450426109135151,0.012906555086374283,0.020500125363469124,-0.050209589302539825,0.013395368121564388,0.006202449090778828,0.004066659137606621
94,0.03169040009379387,-0.013924005441367626,-0.007131421007215977,0.00954176764935255,0.0008827155688777566,0.007890420965850353,-0.02187301032245159,0.005085358861833811,0.027194559574127197,-0.024052899330854416
95,0.03169040009379387,-0.013924005441367626,-0.007131421007215977,0.00954176764935255,0.0008827155688777566,0.007890420965850353,-0.02187301032245159,0.005085358861833811,0.027194559574127197,-0.024052899330854416
96,0.009482604451477528,-0.03175637871026993,-0.019209297373890877,-0.0021890655625611544,-0.004334974102675915,0.007486490998417139,0.023134596645832062,0.005280923098325729,0.0007636004593223333,-0.011040407232940197
97,-0.0010452409042045474,-0.02777273952960968,-0.02102789282798767,-0.0037140955682843924,-0.005016962997615337,0.011531473137438297,0.03767840936779976,0.00771082891151309,-0.018659191206097603,0.007837017066776752
98,0.01372740138322115,-0.01659807562828064,-0.008916947990655899,0.009403188712894917,-0.004554272163659334,0.006715473253279924,-0.03722785413265228,0.002674662508070469,-0.03585880994796753,0.030095335096120834
99,0.0029264723416417837,-0.027930155396461487,0.006490310654044151,0.0009782102424651384,-0.0003568246029317379,0.00813373178243637,0.026389293372631073,0.006525410804897547,-0.0354941226541996,0.05888938531279564
100,0.018236806616187096,-0.02687024511396885,-0.019260097295045853,0.0025227773003280163,-0.010956978425383568,-0.00023362296633422375,-0.04437891021370888,-0.0026747873052954674,-0.030338965356349945,0.023143349215388298
101,0.011754591017961502,0.016822708770632744,0.005772721488028765,0.0057616629637777805,0.0021293265745043755,0.010395540855824947,-0.010433267802000046,0.012111563235521317,-0.005580420605838299,0.015145460143685341
102,0.03690792992711067,-0.003408582415431738,0.031467005610466,0.02090279385447502,0.015756186097860336,0.020195310935378075,-0.010469986125826836,0.01595243811607361,-0.0038975109346210957,0.03470190614461899
103,0.02528299391269684,-0.014375940896570683,0.004679466597735882,0.00702059268951416,-0.004244971089065075,0.008723902516067028,-0.027733007445931435,0.0031764016021043062,-0.037447214126586914,0.0448598749935627
104,0.005786579102277756,-0.028546743094921112,-0.009937080554664135,-0.00033754436299204826,-0.0036518939305096865,0.007497892715036869,0.019646208733320236,0.0047312527894973755,-0.015844013541936874,0.006015213672071695
105,0.005565440747886896,-0.051985036581754684,-0.03595850616693497,-0.010407902300357819,-0.02263316884636879,-0.010167259722948074,-0.024287056177854538,-0.016109498217701912,-0.029885556548833847,0.001976118888705969
106,-0.0016712413635104895,-0.03306090086698532,-0.022319812327623367,-0.006016119848936796,-0.005655149929225445,0.00842480268329382,0.04098343104124069,0.0060685258358716965,-0.014537515118718147,-0.0008518612012267113
107,-0.004036955069750547,0.007125713862478733,-0.009029585868120193,-0.008413955569267273,-0.0042298296466469765,-0.004015188664197922,-0.002547789365053177,-0.007454420439898968,0.001416499842889607,-0.00568635668605566
108,0.00964259821921587,-0.012385404668748379,-0.0026254327967762947,-0.005271135829389095,-0.003798060119152069,0.00509781576693058,0.013321813195943832,0.0038503329269587994,-0.011577371507883072,0.017800385132431984
109,-0.007794021628797054,-0.031225457787513733,-0.02007732167840004,-0.00795610062777996,-0.005147462710738182,0.005325783975422382,0.043939258903265,0.002700165845453739,-0.021181505173444748,-0.0033104615285992622
110,0.016885200515389442,-0.025812258943915367,-0.015183337032794952,0.0017212132224813104,-0.0025957422330975533,0.007621133700013161,0.008132056333124638,0.005215735174715519,0.0095739234238863,-0.015377904288470745
111,0.0020800025667995214,-0.037700504064559937,-0.023235253989696503,-0.006099339574575424,-0.006074202246963978,0.007351847365498543,0.038137126713991165,0.0053461105562746525,-0.008046717382967472,-0.0067029111087322235
112,0.007304096594452858,-0.005421903915703297,-0.012483022175729275,-0.004755591042339802,0.0061354427598416805,0.008824227377772331,0.040376629680395126,0.005474149715155363,-0.03695352002978325,0.039906393736600876
113,-0.013324091210961342,0.026534639298915863,-0.01819109171628952,-0.002402771729975939,0.002556396881118417,0.009019957855343819,0.03391074016690254,0.011232402175664902,-0.009408591315150261,-0.001194610958918929
114,-0.004887161310762167,-0.043294958770275116,-0.0270244013518095,-0.00977960042655468,-0.007711127400398254,0.007225126028060913,0.05225716531276703,0.005407463759183884,-0.016338782384991646,-0.0026205601170659065
115,-0.016640793532133102,0.049084875732660294,0.009321747347712517,-0.025633741170167923,0.0026797992177307606,-0.0093665337190032,0.0544411726295948,-0.014566170983016491,0.07535957545042038,-0.0233247559517622
116,0.009369805455207825,-0.025358624756336212,-0.006178812123835087,0.005294303875416517,-0.0021956427954137325,0.010678820312023163,0.0007236753590404987,0.006274355109781027,-0.026954397559165955,0.022547198459506035
117,-0.012725196778774261,-0.04958874359726906,-0.03128717467188835,-0.013919894583523273,-0.009552663192152977,0.007082562427967787,0.06814219802618027,0.0054764896631240845,-0.02566736750304699,0.001972088124603033
118,0.0123697929084301,-0.0116010382771492,-0.008262640796601772,-0.004124500788748264,-0.009519403800368309,-0.0029449034482240677,-0.03671099990606308,-0.004374680574983358,-0.03978150337934494,0.011026820167899132
119,-0.012725196778774261,-0.04958874359726906,-0.03128717467188835,-0.013919894583523273,-0.009552663192152977,0.007082562427967787,0.06814219802618027,0.0054764896631240845,-0.02566736750304699,0.001972088124603033
120,-0.0012728194706141949,0.02474423311650753,0.005271644797176123,-0.013128399848937988,0.0026131272315979004,-0.004459991119801998,0.024480171501636505,-0.009147059172391891,0.06222806125879288,-0.026960840448737144
121,0.01742933876812458,-0.03690411150455475,-0.02208121493458748,0.010956993326544762,-0.006085435394197702,0.008332725614309311,-0.027572166174650192,0.007982077077031136,-0.017686747014522552,0.020680157467722893
122,0.005136273801326752,-0.019005322828888893,-0.0020722695626318455,-0.0007803848711773753,-0.0006080350140109658,0.00797104462981224,0.02365092933177948,0.00664280541241169,-0.022311240434646606,0.03473428636789322
123,-0.021613862365484238,0.01406230591237545,-0.002526197349652648,-0.0238154586404562,-0.0011882553808391094,-0.005483468994498253,0.06330987066030502,-0.009948724880814552,0.04251027852296829,-0.015098059549927711
124,0.006404805928468704,-0.018428955227136612,0.010600600391626358,0.004300455097109079,0.0014918781816959381,0.008952694945037365,0.015689171850681305,0.00699157128110528,-0.032219525426626205,0.0595954954624176
125,-0.005120139569044113,-0.027102718129754066,-0.03133317455649376,-0.010148909874260426,-0.006746202707290649,0.002754545770585537,0.022713828831911087,-0.0014876403147354722,-0.010214114561676979,-0.008518287912011147
126,-0.005814633797854185,-0.043591566383838654,-0.027002966031432152,-0.0016130548901855946,-0.006718781776726246,0.008542519994080067,0.017060361802577972,0.006404518615454435,-0.02600867673754692,0.010743321850895882
127,0.008811816573143005,0.015844235196709633,-0.07237546145915985,-0.00314146326854825,-0.016073022037744522,0.0029107891023159027,-0.025631215423345566,-0.005103883799165487,-0.05421309545636177,0.03917500004172325
128,0.022279027849435806,-0.01466414425522089,-0.011071106418967247,0.013433546759188175,-0.0011579518904909492,0.01915900409221649,0.007644645404070616,0.015085984021425247,-0.03504671901464462,0.022184506058692932
129,-0.012725196778774261,-0.04958874359726906,-0.03128717467188835,-0.013919894583523273,-0.009552663192152977,0.007082562427967787,0.06814219802618027,0.0054764896631240845,-0.02566736750304699,0.001972088124603033
130,-0.0027512232773005962,0.005160607863217592,-0.011700545437633991,-0.008241290226578712,-0.005457732826471329,-0.0076841628178954124,-0.015246463008224964,-0.010612186044454575,-0.004282266367226839,-0.002903688233345747
131,-0.001621299423277378,-0.040672559291124344,-0.025248238816857338,-0.008054479956626892,-0.006943818181753159,0.0072845276445150375,0.04563840478658676,0.005378705449402332,-0.012451883405447006,-0.004534163977950811
132,0.03758527485585655,0.02595257306441372,0.017486703838539897,0.01757091209693572,0.02632564681969772,0.0184397826576182,-0.018822756472043407,0.019026518283707383,0.027666497577732756,0.01891877615471909
133,-0.012824715115129948,-0.0016112637240439653,-0.01828652434051037,-0.009436173364520073,-0.00802461989223957,-0.007580457255244255,-0.003247244516387582,-0.009442183189094067,-0.005998454988002777,-0.011817174032330513
134,0.006062651053071022,-0.028681790456175804,-0.010469363071024418,0.0068147145211696625,-7.752666715532541e-05,0.010999694466590881,-0.00022571731824427843,0.006352811120450497,-0.01100611686706543,0.023054473102092743
135,0.02309037372469902,0.0023121063131839037,-0.00759150693193078,0.00013743527233600616,-0.004372084513306618,0.0067664990201592445,-0.001732595730572939,0.007208795286715031,-0.03999016061425209,0.030703287571668625
136,0.013567239046096802,0.017355937510728836,-0.005742354784160852,-0.006891007535159588,-0.005731802433729172,-0.002995553892105818,-0.03788704797625542,-0.009022003971040249,-0.019867155700922012,0.02317158877849579
137,-0.0011169548379257321,-0.03843335434794426,-0.027746310457587242,-0.007325123064219952,-0.011363913305103779,0.0044423844665288925,0.020755935460329056,0.001919106813147664,-0.01766611635684967,0.0028189322911202908
138,-0.008687429130077362,-0.046346504241228104,-0.029091203585267067,-0.01178701687604189,-0.008603992871940136,0.007156004197895527,0.05995900183916092,0.005440929438918829,-0.020861726254224777,-0.0003938237205147743
139,0.03196045011281967,-0.0007478233892470598,0.0018090999219566584,0.010917479172348976,0.0029448748100548983,0.011974775232374668,-0.0013995575718581676,0.009709409438073635,-0.010923870839178562,0.011733507737517357
140,-0.015317160585765346,-0.012725322796091636,3.903095619705113e-05,-0.008833423279887235,-0.017601818151500838,-0.0024477617784650577,0.017565902364115083,-0.019339115226225674,-0.027654943059164303,-0.014644467992187566
141,0.0031976390164345503,-0.03169000521302223,-0.016998378559947014,-0.004235216416418552,-0.004196438472718,0.00863615795969963,0.03549351915717125,0.006279049441218376,-0.015137584879994392,0.004909237381070852
142,0.019876526668667793,0.0032904893159866333,-0.0038102613762021065,0.01304025948047638,0.0018355307402089238,0.008988133631646633,-0.013447985984385014,0.0065426514483988285,0.0007886171224527061,0.012818994000554085
143,-0.0013872941490262747,-0.02714426815509796,-0.018351107835769653,-0.0036475430242717266,-0.004290898330509663,0.009644313715398312,0.0358722060918808,0.006764317862689495,-0.018191402778029442,0.004882658366113901
144,0.03169040009379387,-0.013924005441367626,-0.007131421007215977,0.00954176764935255,0.0008827155688777566,0.007890420965850353,-0.02187301032245159,0.005085358861833811,0.027194559574127197,-0.024052899330854416
145,-0.004786171950399876,-0.03826364874839783,-0.027283286675810814,-0.008379627950489521,-0.009352358989417553,0.003094913437962532,0.034769292920827866,0.003594041336327791,-0.02400890737771988,0.004925001412630081
146,0.028368495404720306,-0.0410744845867157,-0.020735224708914757,0.008752288296818733,-0.011701665818691254,0.002550556557253003,-0.07687219977378845,-0.0026141349226236343,-0.029040779918432236,0.023816823959350586
147,-0.00010485784150660038,0.007955923676490784,-0.032526154071092606,-0.0003101375186815858,-0.004124510567635298,0.008065242320299149,0.0011845650151371956,0.0015177701134234667,-0.023415660485625267,0.006521059200167656
148,0.012288068421185017,-0.01658838614821434,-0.01021496020257473,0.002721354365348816,-0.004990786779671907,0.008547944016754627,-0.01067072432488203,0.004178440198302269,-0.038603246212005615,0.027345318347215652
149,0.0014284870121628046,-0.02181273326277733,-0.010460024699568748,-0.0033144992776215076,-0.0024912806693464518,0.007551765069365501,0.028930092230439186,0.004113032016903162,-0.0070289927534759045,0.004305639769881964
150,0.012655142694711685,-0.029208894819021225,-0.017483888193964958,-0.0005132300429977477,-0.0035895896144211292,0.007544194348156452,0.016704943031072617,0.0052529857493937016,0.004539450630545616,-0.012899338267743587
151,0.019310560077428818,0.022969860583543777,0.02068776823580265,0.0034295478835701942,-0.0011203913018107414,0.007456880994141102,-0.03131584823131561,0.0017029410228133202,-0.07060763984918594,0.06801975518465042
152,0.01200621947646141,-0.03181184455752373,-0.010731632821261883,0.007153577171266079,-0.0008407285204157233,0.011317996308207512,-0.004006805829703808,0.008356007747352123,-0.003604728728532791,0.004347616340965033
153,0.011243730783462524,-0.03362240642309189,-0.015590032562613487,0.004905857611447573,-0.004267346113920212,0.006228302605450153,0.011826770380139351,0.00870847050100565,-0.03834062069654465,0.013421823270618916
154,-0.05738450573704835,-0.05074797015994258,-0.004517095942569993,-0.01484595841357703,-0.009304187476266029,-0.01825822487558794,-0.016279678464755754,-0.02958689595836196,-0.01866957995459165,-0.00777123289429606
155,0.01714439131319523,-0.034817010164260864,-0.01157127320766449,0.0007185841095633805,-0.009082377888262272,0.004130636341869831,-0.025910528376698494,-0.00015435030218213797,-0.03443492203950882,0.025512421503663063
156,0.014587168581783772,-0.02875535562634468,-0.02866404689848423,-0.000397286145016551,-0.01350831426680088,0.004500809591263533,-0.020441634580492973,0.0010809048544615507,-0.04973459243774414,0.029816487804055214
157,0.05097636207938194,0.014309917576611042,0.004323301371186972,0.0238295029848814,0.016140934079885483,0.023496152833104134,-0.0151287242770195,0.017107879742980003,0.00039123441092669964,0.03562426194548607
158,0.010923678055405617,-0.04438836872577667,-0.024646172299981117,0.0012462553568184376,-0.005712293554097414,0.011342623271048069,0.0232724379748106,0.008706498891115189,-0.019528303295373917,0.01164404395967722
159,0.0036149374209344387,-0.010005748830735683,-0.011086096055805683,0.001371373189613223,-0.003141736378893256,0.010891195386648178,0.008327839896082878,0.0056370459496974945,-0.022746173664927483,0.015060994774103165
160,0.005471008829772472,-0.025414278730750084,-0.011816924437880516,0.0009805784793570638,-0.003395371837541461,0.009801704436540604,0.017316488549113274,0.006015951279550791,-0.02138928696513176,0.011236974969506264
161,-0.012725196778774261,-0.04958874359726906,-0.03128717467188835,-0.013919894583523273,-0.009552663192152977,0.007082562427967787,0.06814219802618027,0.0054764896631240845,-0.02566736750304699,0.001972088124603033
162,0.0338430218398571,0.003969207871705294,0.003792851697653532,0.011294154450297356,0.005766567308455706,0.020542744547128677,0.003069865982979536,0.01726669818162918,-0.06209283694624901,0.06757847964763641
163,-0.004152425564825535,-0.013730376958847046,-0.023932969197630882,-0.006633080076426268,-0.003319968469440937,0.006820053793489933,0.04246155172586441,0.006498823873698711,-0.006045801565051079,-0.0028466866351664066
164,-0.01040700078010559,-0.0073959860019385815,-0.01238165982067585,-0.01547364890575409,-0.0031223376281559467,-0.0007483936497010291,0.04209611937403679,-0.002812599763274193,0.002368816640228033,0.0006985171930864453
165,0.032446928322315216,-0.03305043652653694,-0.015434340573847294,0.01471400260925293,0.0007941254880279303,0.016405142843723297,-0.0022388086654245853,0.01345763262361288,-9.780097752809525e-05,0.008139587938785553
166,0.02406182512640953,-0.02478049322962761,-0.008310637436807156,0.010081877931952477,-0.0019148883875459433,0.00918138399720192,-0.03184643015265465,0.0071585457772016525,-0.023143406957387924,0.030514534562826157
167,0.0048959627747535706,-0.01594756357371807,-0.007886137813329697,-0.006385074462741613,-0.0025080270133912563,0.003722981782630086,0.02070690132677555,0.0007596727227792144,0.0026989819016307592,0.004517829976975918
168,0.008157087489962578,0.0009226324036717415,-0.035184185951948166,0.0031549138948321342,-0.012075632810592651,0.0034310435876250267,-0.034537944942712784,-0.0034270796459168196,-0.0429336316883564,0.01860317587852478
169,0.0007556715281680226,0.013746352866292,-0.011441478505730629,-0.005026804283261299,-0.0001872287830337882,-0.002150625456124544,-0.007932760752737522,0.0008503507706336677,-0.022202616557478905,0.002275171224027872
170,0.03169040009379387,-0.013924005441367626,-0.007131421007215977,0.00954176764935255,0.0008827155688777566,0.007890420965850353,-0.02187301032245159,0.005085358861833811,0.027194559574127197,-0.024052899330854416
171,0.0035617081448435783,-0.02071198634803295,-0.009566307067871094,0.00038719282019883394,-0.003577084746211767,0.007355392444878817,0.0007880592020228505,0.0044252751395106316,-0.028223786503076553,0.02286347560584545
172,0.009482604451477528,-0.03175637871026993,-0.019209297373890877,-0.0021890655625611544,-0.004334974102675915,0.007486490998417139,0.023134596645832062,0.005280923098325729,0.0007636004593223333,-0.011040407232940197
173,0.011478892527520657,-0.04386752471327782,-0.01377708837389946,0.0034700105898082256,-0.005742009729146957,0.011027798056602478,-0.002523736795410514,0.00845208391547203,-0.03399135172367096,0.02409411035478115
174,-0.012725196778774261,-0.04958874359726906,-0.03128717467188835,-0.013919894583523273,-0.009552663192152977,0.007082562427967787,0.06814219802618027,0.0054764896631240845,-0.02566736750304699,0.001972088124603033
175,0.028465626761317253,-0.0021022330038249493,0.0033955718390643597,-0.0021231109276413918,-0.012360721826553345,4.612357588484883e-05,-0.03980828821659088,-0.004634192679077387,-0.02851862646639347,0.014360540546476841
176,0.01569169946014881,-0.02277173101902008,-0.0045168157666921616,0.004737017676234245,-0.001264481688849628,0.008753695525228977,0.0011500404216349125,0.009487638249993324,-0.038876183331012726,0.04540577903389931
177,-0.002029776107519865,-0.03011506050825119,-0.019612552598118782,-0.006277169566601515,-0.00522287841886282,0.008814079686999321,0.04753880947828293,0.007251875940710306,-0.01990603841841221,0.0059888013638556
178,-0.002896546386182308,-0.002985995961353183,-0.054668866097927094,-0.009330406785011292,-0.012776022776961327,0.007716061547398567,0.023461785167455673,-0.001981335459277034,-0.03803892433643341,0.020622722804546356
179,-0.03423604369163513,0.06341248750686646,0.017674706876277924,-0.0357985645532608,0.004343537613749504,-0.016810404136776924,0.07083334773778915,-0.023379476740956306,0.09726154804229736,-0.029868777841329575
180,-0.024956028908491135,-0.018767908215522766,-0.029568586498498917,-0.0005291876150295138,-0.006042364053428173,0.0030342284590005875,0.031591787934303284,0.0015026552136987448,0.015821440145373344,-0.013507363386452198
181,0.021638287231326103,0.0028104884549975395,-0.005236972123384476,0.0003798882244154811,0.0016663228161633015,0.010563727468252182,0.004601007327437401,0.007628653198480606,-0.025745756924152374,0.03303239494562149
182,0.0019658105447888374,-0.015109032392501831,-0.018093068152666092,-0.0015427290927618742,-0.002973743714392185,0.00992764811962843,0.026468804106116295,0.006982037797570229,-0.008721014484763145,-0.00281399954110384
183,-0.010753577575087547,-0.04672371596097946,-0.02835155464708805,-0.011954122222959995,-0.008591709658503532,0.007619247771799564,0.0625036433339119,0.005731808952987194,-0.0257633738219738,0.004123880062252283
184,0.007276300340890884,-0.02504609525203705,-0.006333312951028347,-0.0013362009776756167,-0.005128761753439903,0.004994515795260668,0.009197121486067772,0.0024623945355415344,-0.0233264472335577,0.010392820462584496
185,0.012854702770709991,-0.015847118571400642,-0.00024444260634481907,0.005954225547611713,0.0028638262301683426,0.012006888166069984,0.03053375333547592,0.01091797649860382,-0.02415294572710991,0.03163605555891991
186,0.01470224279910326,-0.026728101074695587,-0.014439992606639862,-0.000669082859531045,-0.0040485137142241,0.007887433283030987,0.016535460948944092,0.00671488419175148,-0.012113245204091072,0.014865720644593239
187,-0.0034751733765006065,-0.05277387052774429,-0.025701196864247322,-0.002731563523411751,-0.003073030849918723,0.012864256277680397,0.04475238546729088,0.009173912927508354,-0.031949542462825775,0.007521682418882847
188,0.00901768822222948,-0.007842004299163818,0.009776147082448006,0.0019277660176157951,0.0026053166948258877,0.006674697156995535,0.0014628232456743717,0.004554889164865017,-0.020335528999567032,0.04136565327644348
189,0.011809947900474072,0.0083994772285223,-0.011029243469238281,0.0065568541176617146,-0.0020809457637369633,0.0010088119888678193,-0.0320296585559845,-0.002459936775267124,-0.013528778217732906,0.022289609536528587
190,0.022392775863409042,-0.014330748468637466,-0.0006301181274466217,0.011244652792811394,0.003780446480959654,0.016295135021209717,-0.04381941258907318,0.00736046489328146,-0.01228359341621399,0.039665982127189636
191,0.009391965344548225,-0.013107502833008766,-0.025014536455273628,0.0002707547973841429,-0.007065963931381702,0.007833924144506454,-0.003224858082830906,0.001497148536145687,-0.02410922199487686,0.00975732784718275
192,-0.0005934624932706356,-0.014909744262695312,-0.001392389414831996,-0.002466847188770771,0.0007005720399320126,0.00284924590960145,0.021697605028748512,0.0055139195173978806,-0.015795890241861343,0.035812217742204666
193,-0.029061593115329742,0.04150437191128731,0.0008399301441386342,-0.01638970710337162,0.0020614154636859894,-0.003193992655724287,0.0437069796025753,-0.002081829821690917,0.025447312742471695,-0.00845848023891449
194,-0.010058934800326824,-0.003156655700877309,-0.02218375727534294,-0.012703181244432926,-0.009796000085771084,-0.008106760680675507,-0.006857474334537983,-0.008554644882678986,-0.009432063437998295,-0.009314725175499916
195,-0.012725194916129112,-0.04958874359726906,-0.03128717094659805,-0.013919894583523273,-0.009552663192152977,0.007082562427967787,0.06814219802618027,0.005476487800478935,-0.02566736750304699,0.001972088124603033
196,-0.010289318859577179,-0.020006977021694183,-0.019777674227952957,-0.011639229953289032,-0.00504794716835022,0.005478093400597572,0.052142661064863205,0.002641822677105665,-0.00447116419672966,-0.0030998182483017445
197,0.001601774012669921,-0.034697357565164566,-0.023595165461301804,-0.007537617813795805,-0.006643372587859631,0.005919057410210371,0.03101200982928276,0.003917138557881117,-0.008480271324515343,-0.0034680813550949097
198,0.015672683715820312,0.016505872830748558,0.027059068903326988,0.010769090615212917,0.011963505297899246,0.014757501892745495,0.011760217137634754,0.015535695478320122,-0.02896503172814846,0.043956346809864044
199,-0.0009733978658914566,0.015352296642959118,-0.010351687669754028,-0.008953163400292397,-0.0014476139331236482,-0.0015282363165169954,-0.0012495082337409258,-0.007715040352195501,0.031372442841529846,0.0028873905539512634
200,0.005983914248645306,-0.0160667784512043,-0.001788800349459052,0.006339072249829769,0.0015065900515764952,0.014656666666269302,0.01585288904607296,0.01104678213596344,-0.02069772221148014,0.024886056780815125
201,0.002226198324933648,-0.027862276881933212,-0.009025360457599163,0.0009872044902294874,-0.002265424467623234,0.011152434162795544,0.025382990017533302,0.007412680424749851,-0.02639540657401085,0.01828988641500473
202,0.007344789803028107,-0.018621614202857018,-0.006285852286964655,-0.004331604111939669,-0.0020723920315504074,0.008840602822601795,0.012959685176610947,0.00816140603274107,-0.03573765233159065,0.03518209233880043
203,-0.001621299423277378,-0.040672559291124344,-0.025248238816857338,-0.008054479956626892,-0.006943818181753159,0.0072845276445150375,0.04563840478658676,0.005378705449402332,-0.012451883405447006,-0.004534163977950811
204,-0.004005529452115297,-0.04151882603764534,-0.02589847519993782,-0.009402871131896973,-0.007397003006190062,0.006278376094996929,0.04926604405045509,0.006292181089520454,-0.026977894827723503,0.010354207828640938
205,0.0049037146382033825,-0.02480984479188919,-0.02350807376205921,-0.007172067649662495,-0.008431795053184032,0.003839638317003846,0.02277280017733574,0.0021790633909404278,-0.01753900945186615,0.009526502341032028
206,0.001740531763061881,-0.03241831809282303,-0.0153453778475523,-0.002273331629112363,-0.003997143357992172,0.009515916928648949,0.03170634061098099,0.006530732847750187,-0.019035127013921738,0.007826542481780052
207,0.0013585530687123537,0.011255413293838501,-0.008302869275212288,0.00198526494204998,0.005702416878193617,0.0014704690547659993,0.007612483575940132,0.0013306222390383482,0.00962047465145588,-0.008335845544934273
208,0.008000673714400554,-0.0350433892090019,-0.0036018074156109353,0.004310778344774038,-0.002788201025369878,0.0035508403180951748,-0.029718714304429492,-0.003558536601096662,-0.006417121183426995,0.012855214649339398
209,-0.035416699945926666,0.017831051722168922,0.006939539220184088,-0.033520519733428955,-0.008263305760920048,-0.020800389349460602,0.04011004790663719,-0.02567143924534321,0.056916315108537674,-0.06154201179742813
210,0.015052448958158493,0.07046941667795181,0.005694770719856024,0.02230096608400345,0.009742699563503265,0.01890662871301174,-0.024506809189915657,0.012908161617815495,0.007394682615995407,0.003641311079263687
211,0.012557035312056541,-0.002014409052208066,-0.008830449543893337,0.0024851979687809944,-0.005620017647743225,-0.0032259749714285135,-0.027796773239970207,-0.0042021675035357475,-0.011832967400550842,0.006122875958681107
212,-0.012725194916129112,-0.04958874359726906,-0.03128717094659805,-0.013919894583523273,-0.009552663192152977,0.007082562427967787,0.06814219802618027,0.005476487800478935,-0.02566736750304699,0.001972088124603033
213,0.016962457448244095,0.003141093533486128,-0.0025247782468795776,-0.0007223465945571661,-0.003074654610827565,0.002787545556202531,-0.025393258780241013,0.003240950172767043,-0.01649908348917961,0.014696027152240276
214,0.02267085388302803,-0.04463242366909981,-0.006872239056974649,0.00883590430021286,-0.0012520668096840382,0.012774793431162834,-0.026736054569482803,0.008500471711158752,-0.035017166286706924,0.03533550724387169
215,0.01750386506319046,-0.028129717335104942,-0.0008360901847481728,0.014520249329507351,0.0033060950227081776,0.011403340846300125,-0.004368760623037815,0.018703468143939972,-0.05327495187520981,0.06787893176078796
216,0.011197255924344063,0.005044987425208092,0.000246973242610693,0.00247430638410151,0.0036975773982703686,0.006930936127901077,0.013954764232039452,0.008530823513865471,-0.028441814705729485,0.029270192608237267
217,0.01474379189312458,-0.01654936745762825,0.012403111904859543,0.0116209601983428,0.000881419749930501,0.009055491536855698,-0.010763759724795818,0.008363824337720871,-0.021660974249243736,0.025319214910268784
218,0.0024291900917887688,-0.021761169657111168,-0.023832760751247406,-0.001319920178502798,-0.009080949239432812,-0.0035012452863156796,-0.007566000334918499,-0.00012128881644457579,-0.015312238596379757,0.0073238457553088665
219,-0.0279335156083107,0.054726649075746536,0.012410767376422882,-0.02685260772705078,0.005450800526887178,-0.008929401636123657,0.06487494707107544,-0.01275284867733717,0.07752639800310135,-0.020201561972498894
220,0.01938924938440323,-0.03685859590768814,-0.003453250974416733,0.008237536065280437,0.0002287516836076975,0.0136650912463665,-0.021993691101670265,0.009398065507411957,-0.033948272466659546,0.03683516010642052
221,0.005730749573558569,-0.004025297239422798,-0.0033521177247166634,-0.001635299762710929,-0.0021922988817095757,0.0038071677554398775,4.0365150198340416e-05,0.0004914336604997516,-0.0026836644392460585,0.00251788180321455
222,-0.008822192437946796,-0.03399289399385452,-0.031997159123420715,-0.01180695928633213,-0.012848999351263046,-0.003566196421161294,-0.0026902949903160334,0.0028935072477906942,-0.009052128531038761,0.01004472840577364
223,0.0213401410728693,0.0027779899537563324,-0.016537237912416458,-0.0043656229972839355,-0.010938940569758415,-0.004337979946285486,-0.03493752330541611,-0.006001904606819153,-0.015505772083997726,0.021849799901247025
224,-0.00030776672065258026,-0.026151401922106743,-0.022801579907536507,-0.00579685065895319,-0.006515256129205227,0.005832779686897993,0.028818856924772263,0.0028317798860371113,-0.003317632945254445,-0.008507040329277515
225,-0.001621299423277378,-0.040672559291124344,-0.025248238816857338,-0.008054479956626892,-0.006943818181753159,0.0072845276445150375,0.04563840478658676,0.005378705449402332,-0.012451883405447006,-0.004534163977950811
226,0.00981332827359438,-0.0160024743527174,0.0076273297891020775,0.008786799386143684,-0.0050082639791071415,0.009866156615316868,-0.05182553082704544,0.0021230976562947035,-0.008623497560620308,0.01155826821923256
227,0.008826004341244698,-0.02362261712551117,0.0026087022852152586,0.00037592503940686584,-0.0009323294507339597,0.004713805392384529,-0.0066791134886443615,0.005978703498840332,-0.030484357848763466,0.04472287371754646
228,0.0020800025667995214,-0.037700504064559937,-0.023235253989696503,-0.006099339574575424,-0.006074202246963978,0.007351847365498543,0.038137126713991165,0.0053461105562746525,-0.008046717382967472,-0.0067029111087322235
229,0.0007663057185709476,-0.019185230135917664,-0.015567165799438953,-0.005564373917877674,-0.010076545178890228,-0.003159045008942485,-0.027562543749809265,-0.0057312920689582825,-0.02976151928305626,0.01577979326248169
230,-0.003812814364209771,-0.035531945526599884,-0.021212682127952576,-0.005365842487663031,-0.006516060791909695,0.008738001808524132,0.03595424070954323,0.005760987289249897,-0.02739005908370018,0.01164063811302185
231,-3.5026518162339926e-05,-0.03939881920814514,-0.02438553422689438,-0.007216562516987324,-0.0065711261704564095,0.007313378620892763,0.04242357611656189,0.005364737473428249,-0.010563953779637814,-0.005463629495352507
232,0.04232995584607124,-0.05196470022201538,-0.01952226832509041,0.014689980074763298,-0.0011638198047876358,0.016375470906496048,-0.028947893530130386,0.02299991250038147,-0.006825227290391922,0.011400092393159866
233,0.014487258158624172,0.008280736394226551,0.006011148449033499,-0.0005109335761517286,0.0015955525450408459,0.0059690154157578945,-0.004658588673919439,0.0045107705518603325,-0.013987396843731403,0.0019774537067860365
234,0.03612329065799713,-0.031182948499917984,0.011450331658124924,0.019197814166545868,0.0024611931294202805,0.022017473354935646,-0.03497795760631561,0.015794787555933,-0.0033924614544957876,0.028720328584313393
235,0.016314268112182617,0.08714509755373001,0.010527624748647213,0.02450426109135151,0.012906555086374283,0.020500125363469124,-0.050209589302539825,0.013395368121564388,0.006202449090778828,0.004066659137606621
236,0.029491426423192024,-0.0419231653213501,-0.0035623591393232346,0.017758255824446678,0.0037544702645391226,0.02646348625421524,0.010517987422645092,0.023635152727365494,-0.03940999507904053,0.03912411257624626
237,0.003283399622887373,-0.011437557637691498,-0.014995675534009933,-0.0026511745527386665,-0.0027138013392686844,0.005584681406617165,0.026109963655471802,0.0024998553562909365,-0.008509835228323936,0.006766913458704948
238,0.03169040009379387,-0.013924005441367626,-0.007131421007215977,0.00954176764935255,0.0008827155688777566,0.007890420965850353,-0.02187301032245159,0.005085358861833811,0.027194559574127197,-0.024052899330854416
239,0.013275464996695518,-0.0008187517523765564,0.006063530221581459,-0.00029529439052566886,-0.000234273262321949,0.006139354780316353,0.006314325146377087,0.003440417116507888,-0.0359785296022892,0.0461592935025692
240,-0.0019862065091729164,-0.03092101588845253,-0.019182315096259117,-0.0038142972625792027,-0.006455200724303722,0.0020166223403066397,0.019441809505224228,-0.00010303035378456116,-0.020967654883861542,0.006799765862524509
241,-0.011214298196136951,-0.044667672365903854,-0.030365025624632835,-0.0129907401278615,-0.007918016985058784,0.00695248506963253,0.0628240555524826,0.005938336253166199,-0.020857861265540123,0.0030715567991137505
242,-0.005177634255409575,0.0022421290381709853,0.023308679713535098,-0.003133767844824768,0.014254586077815424,0.006796555322017239,0.011221920657288989,0.00798641700179098,0.0024962001606437614,0.022612871804980374
243,-0.0015091985696926713,-0.005460396409034729,-0.02787058614194393,-0.0031906708609312773,-0.005278849042952061,-0.003136557759717107,-0.012719780206680298,-0.0022452615667134523,-0.025989484041929245,-0.0061896005645394325
244,0.03169040009379387,-0.013924005441367626,-0.007131421007215977,0.00954176764935255,0.0008827155688777566,0.007890420965850353,-0.02187301032245159,0.005085358861833811,0.027194559574127197,-0.024052899330854416
245,0.025638878345489502,0.0026220781728625298,-0.029572641476988792,-0.001853310503065586,-0.011412827298045158,-0.0023862645030021667,-0.03087688609957695,-0.003046733094379306,-0.03232487291097641,0.015467332676053047
246,0.0014677802100777626,-0.03562835603952408,-0.019841523841023445,-0.004574120044708252,-0.0052225906401872635,0.008342364802956581,0.036092307418584824,0.005896871443837881,-0.01366046816110611,0.0002699103206396103
247,0.011432766914367676,-0.018033791333436966,-0.00834991317242384,0.0007465410744771361,0.0007669690530747175,0.011851508170366287,0.030624546110630035,0.009693512693047523,-0.00640458706766367,0.008355406112968922
248,0.01062365435063839,-0.025285379961133003,-0.010514220222830772,0.002419001655653119,-0.0019100664649158716,0.009677490219473839,0.013703291304409504,0.006452507339417934,-0.008462745696306229,0.0026215477846562862
249,0.01779446192085743,0.01949414424598217,-0.0030861457344144583,0.008770561777055264,0.0034760436974465847,0.009119875729084015,-0.024517927318811417,0.00491208303719759,0.019939713180065155,-0.014748688787221909
250,0.0216705072671175,-0.040951602160930634,-0.020494583994150162,0.007978913374245167,-0.001862512668594718,0.01444077119231224,0.011084935627877712,0.012273318134248257,-0.012603512965142727,0.012362937442958355
251,-0.008990654721856117,-0.0096499715000391,-0.015955090522766113,-0.009539823979139328,-0.009107397869229317,-0.010003220289945602,-0.01441280823200941,-0.009910117834806442,-0.005282328464090824,-0.01760254241526127
252,0.005128685384988785,0.02437981218099594,-0.011778720654547215,0.0026334142312407494,-0.00480916490778327,-0.0035676276311278343,-0.016899704933166504,0.0019363586325198412,0.0015887682093307376,0.01390036940574646
253,-0.008993497118353844,-0.05603586882352829,-0.037335194647312164,-0.0024584480561316013,-0.013439131900668144,0.0029694819822907448,-0.03849439322948456,-0.0027148895896971226,-0.041015226393938065,0.022434867918491364
254,0.000710769381839782,0.0011976002715528011,-0.0031669826712459326,-0.004499631002545357,-5.9118145145475864e-05,0.00502769835293293,0.02304726094007492,0.001050972263328731,0.02224910631775856,-0.005335840862244368
255,0.011187025345861912,-0.059386689215898514,-0.02322045899927616,-0.00017079501412808895,-0.009414680302143097,0.008085508830845356,-0.01571553573012352,0.004236884415149689,-0.04788387939333916,0.03619159385561943
256,-0.00016028434038162231,0.0090352613478899,-0.03658280149102211,-0.0017412279266864061,-0.007030396722257137,0.009305614978075027,0.011197295039892197,0.0011675201822072268,-0.007421678863465786,0.0069082556292414665
257,0.02446123957633972,0.005907346028834581,0.0013283523730933666,0.013542026281356812,0.006818464025855064,0.018432434648275375,-0.005830422975122929,0.010767458006739616,0.012386791408061981,0.02313760481774807
258,-0.0020814905874431133,0.003100356552749872,0.006081386469304562,-0.013580022379755974,-0.012254951521754265,-0.013621415942907333,-0.03157596290111542,-0.01206462923437357,-0.003956488333642483,-0.004907058551907539
259,0.007943679578602314,-0.017604105174541473,-0.021194154396653175,0.00041765288915485144,-0.006301174871623516,0.006159350275993347,-0.0036307726986706257,0.0035114511847496033,-0.024999083951115608,0.01838197186589241
260,0.0050410376861691475,-0.035322848707437515,-0.021624872460961342,-0.00453522801399231,-0.005378510802984238,0.007405704818665981,0.03213611990213394,0.005320035386830568,-0.004522590897977352,-0.008437910117208958
261,0.022439945489168167,-0.027828920632600784,-0.0018958579748868942,0.00671031977981329,-0.00334716378711164,0.010445558466017246,-0.008800927549600601,0.007581066340208054,-0.03636159375309944,0.0316556841135025
262,-0.0072954376228153706,-0.03519608452916145,-0.028911398723721504,-0.008515695109963417,-0.008147375658154488,0.0053550805896520615,0.019037393853068352,0.0034806528128683567,-0.021153021603822708,-0.005141249857842922
263,-0.008328593336045742,-0.008241424337029457,-0.013779019005596638,-0.011651091277599335,-0.0030988273210823536,0.0034425808116793633,0.0451357327401638,0.00011893152259290218,0.010402665473520756,-0.008128833025693893
264,-0.0018179186154156923,-0.02652374655008316,-0.025782020762562752,-0.004521132446825504,-0.009471781551837921,-0.003094922285526991,0.006847945041954517,0.00044758699368685484,-0.017947619780898094,0.004915120080113411
265,0.01415612269192934,-0.0017720181494951248,0.0029509689193218946,0.01136823184788227,0.0031615544576197863,0.013630565255880356,-0.008507742546498775,0.008692980743944645,-0.015201850794255733,0.017430275678634644
266,0.0009359859395772219,-0.04023317992687225,-0.01869262382388115,-0.006216232664883137,-0.006514504551887512,0.006123729981482029,0.04090956971049309,0.007354609668254852,-0.029914651066064835,0.01817634515464306
267,0.02191830798983574,-0.014199401251971722,0.001248384127393365,0.0029090074822306633,0.001897983718663454,0.009967015124857426,-0.008127560839056969,0.00939990021288395,-0.04253711551427841,0.052883561700582504
268,-0.0027673193253576756,0.0005252325208857656,-0.006605151575058699,-0.0042092022486031055,-0.003542780876159668,-0.0003948249213863164,-0.006066812202334404,-0.002375829266384244,-0.009912723675370216,0.0016042246716096997
269,-0.012195175513625145,-0.023711644113063812,-0.025807412341237068,-0.01521401759237051,-0.00999930314719677,-0.0009518021252006292,0.03766748681664467,-0.005667520221322775,-0.003908873535692692,-0.00299757975153625
270,-0.0011435713386163116,-0.01408151164650917,-0.02630961500108242,-0.01397713739424944,-0.008234541863203049,0.0012571311090141535,0.040412746369838715,-0.0013952639419585466,-0.030603354796767235,-0.0015747181605547667
271,0.003828774206340313,-0.023554518818855286,-0.020561281591653824,-0.005469444673508406,-0.006431831046938896,0.0041551971808075905,0.018322234973311424,0.004006840754300356,-0.01318853534758091,0.004158304072916508
272,0.02195480979923394,0.0024403664173856484,-0.02833119162763895,0.003719470123254043,-0.004400969804189198,-0.0019362825314758352,0.012590667381194881,-0.004907137782874645,0.0355060991498816,0.011669299855368548
273,0.018745457753539085,-0.038488343358039856,-0.02597651444375515,0.00815235823392868,-0.0006155383307486773,0.010077348910272121,-0.033911123871803284,0.012260599061846733,0.0007691241335123777,0.015754571184515953
274,0.01265514176338911,-0.029208894819021225,-0.017483888193964958,-0.0005132300429977477,-0.0035895896144211292,0.007544194348156452,0.016704943031072617,0.005252985283732414,0.004539451561868191,-0.012899338267743587
275,0.044635362923145294,0.045130543410778046,0.019639605656266212,0.040018610656261444,0.01985241286456585,0.035672158002853394,-0.05123213306069374,0.030278325080871582,-0.013941215351223946,0.03505726158618927
276,-0.001621299423277378,-0.040672559291124344,-0.025248238816857338,-0.008054479956626892,-0.006943818181753159,0.0072845276445150375,0.04563840478658676,0.005378705449402332,-0.012451883405447006,-0.004534163977950811
277,0.016770459711551666,-0.04355095699429512,-0.017715634778141975,0.0032798275351524353,-0.0034539648331701756,0.011229034513235092,0.004967052955180407,0.008340946398675442,-0.017685022205114365,0.012770945206284523
278,0.017330694943666458,-0.037399809807538986,-0.006716430187225342,0.0014062882401049137,-0.006500496994704008,0.006979367695748806,-0.006849344819784164,0.008851896040141582,-0.01804129034280777,-0.005861063487827778
279,-0.0070429714396595955,-0.04906299337744713,-0.025314098224043846,-0.011175448074936867,-0.008180131204426289,0.005416163243353367,0.05603056401014328,0.002784872893244028,-0.01928666979074478,-0.00026357779279351234
280,0.009527510032057762,-0.01408287975937128,-0.010743891820311546,0.004850239492952824,-0.005745496600866318,0.004577078856527805,-0.027043001726269722,0.001534859649837017,-0.02225789614021778,0.011984078213572502
281,0.019374817609786987,-0.0102320471778512,-0.003227113513275981,0.009251762181520462,-0.0024890871718525887,0.013404482044279575,-0.022167813032865524,0.010134459473192692,-0.001974966609850526,0.00842951238155365
282,-0.013621193356812,-0.0014648722717538476,-0.023962121456861496,-0.016832944005727768,-0.009217577055096626,-0.007095281034708023,0.014093874022364616,-0.008582009002566338,-0.018641550093889236,-0.0048587629571557045
283,0.008261960931122303,-0.00033200846519321203,-0.012438450008630753,0.0037617688067257404,-0.00015420594718307257,0.011146968230605125,0.008608775213360786,0.007627272978425026,-0.001458294689655304,-0.004865176975727081
284,0.03169040009379387,-0.013924005441367626,-0.007131421007215977,0.00954176764935255,0.0008827155688777566,0.007890420965850353,-0.02187301032245159,0.005085358861833811,0.027194559574127197,-0.024052899330854416
285,0.009482604451477528,-0.03175637871026993,-0.019209297373890877,-0.0021890655625611544,-0.004334974102675915,0.007486490998417139,0.023134596645832062,0.005280923098325729,0.0007636004593223333,-0.011040407232940197
286,-0.012725196778774261,-0.04958874359726906,-0.03128717467188835,-0.013919894583523273,-0.009552663192152977,0.007082562427967787,0.06814219802618027,0.0054764896631240845,-0.02566736750304699,0.001972088124603033
287,-0.018145648762583733,0.03936868533492088,0.007738743908703327,-0.02218262478709221,0.0013886075466871262,-0.008778505027294159,0.04195373132824898,-0.01386349368840456,0.06183943897485733,-0.021013572812080383
288,-0.01025767344981432,-0.04760736972093582,-0.029945196583867073,-0.012616469524800777,-0.008972922340035439,0.007127443328499794,0.0631413608789444,0.005454756785184145,-0.02273058518767357,0.0005262489430606365
289,-0.007487684488296509,-0.006171217188239098,-0.01338063646107912,-0.012418463826179504,-0.004536448046565056,-0.004114920739084482,0.0353597030043602,-0.004273771774023771,-0.0014751417329534888,-0.005397619213908911
290,-0.003610186744481325,0.011208266951143742,-0.003479758743196726,-0.011644408106803894,-0.006431443616747856,-0.010343728587031364,-0.006334229372441769,-0.0091979019343853,-0.025563012808561325,-0.006567489355802536
291,0.01753699593245983,0.044281378388404846,0.00696155708283186,0.018689868971705437,0.00834120437502861,0.016858557239174843,-0.03329000249505043,0.01089402660727501,-0.00026093097403645515,0.007443521171808243
292,0.02480410598218441,0.0005013919435441494,0.010075133293867111,0.008478340692818165,0.008765708655118942,0.011346369981765747,0.0011075204238295555,0.013407397083938122,-0.043253280222415924,0.056876640766859055
293,0.013478197157382965,-0.010529025457799435,-0.0065755718387663364,0.003246632870286703,-0.0017558326944708824,0.010185575112700462,0.009777101688086987,0.007491420488804579,-0.027821725234389305,0.023703455924987793
294,0.04691237956285477,-0.04472355917096138,0.005263049155473709,0.019208932295441628,0.007094516418874264,0.017648493871092796,-0.05746397003531456,0.013714607805013657,-0.015625257045030594,0.030777376145124435
295,0.010146497748792171,-0.01340339332818985,-0.011480499058961868,-0.0038581329863518476,-0.005731597077101469,-0.0024098227731883526,-0.014661343768239021,-0.001664134906604886,-0.01551864854991436,0.004674024414271116
296,0.018565408885478973,-0.019242851063609123,-0.008397849276661873,-0.00039121892768889666,-0.006448265630751848,0.005041155032813549,-0.01917431503534317,0.001236991723999381,-0.027818717062473297,0.027654822915792465
297,0.007053760811686516,-0.015169885009527206,0.0001514209434390068,-0.0007592402398586273,-0.0014242581091821194,0.007509632967412472,-0.004273207392543554,0.0041773319244384766,-0.04437753185629845,0.050723060965538025
298,-0.01924136090023122,0.06027082565999452,-0.006981222341656081,-0.012781399106592246,-0.0009408134794812518,-0.0019187226439725355,0.03421378334447087,0.0064671086981450505,0.012132015642960377,-0.007506182251345048
299,-0.035416699945926666,0.017831051722168922,0.006939539220184088,-0.033520519733428955,-0.008263305760920048,-0.020800389349460602,0.04011004790663719,-0.02567143924534321,0.056916315108537674,-0.06154201179742813
300,0.006410306319594383,-0.027557644993066788,-0.011190781369805336,0.000994448782876134,-0.0024686239194124937,0.010034902021288872,0.020818552002310753,0.006725937128067017,-0.015594203025102615,0.00795643962919712
301,0.02050781436264515,-0.026787003502249718,0.002317579695954919,0.003713301382958889,0.005344911012798548,0.014903474599123001,0.008859148249030113,0.013786012306809425,-0.038833823055028915,0.048157088458538055
302,0.03169040009379387,-0.013924005441367626,-0.007131421007215977,0.00954176764935255,0.0008827155688777566,0.007890420965850353,-0.02187301032245159,0.005085358861833811,0.027194559574127197,-0.024052899330854416
303,0.0009690925944596529,-0.019641971215605736,-0.01947619393467903,-0.0027401067782193422,-0.004115333780646324,0.009236648678779602,0.02849237248301506,0.006574847735464573,-0.011291338130831718,-0.002145003993064165
304,0.03169040009379387,-0.013924005441367626,-0.007131421007215977,0.00954176764935255,0.0008827155688777566,0.007890420965850353,-0.02187301032245159,0.005085358861833811,0.027194559574127197,-0.024052899330854416
305,0.0038787461817264557,-0.011567225679755211,0.0005762667278759181,0.003217343706637621,-0.001738860155455768,0.003992653451859951,0.0013957051560282707,0.00280634593218565,-0.025795595720410347,0.04516005888581276
306,0.011112364009022713,0.023927733302116394,0.001291885506361723,0.018101079389452934,0.00825890339910984,0.02056887373328209,-0.012154882773756981,0.013136489316821098,-0.012878280133008957,0.015652485191822052
307,0.000710769381839782,0.0011976002715528011,-0.0031669826712459326,-0.004499631002545357,-5.9118145145475864e-05,0.00502769835293293,0.02304726094007492,0.001050972263328731,0.02224910631775856,-0.005335840862244368
308,0.004746262449771166,-0.049597978591918945,-0.03552890941500664,-0.009657138027250767,-0.017213672399520874,-0.0040276371873915195,0.02661691978573799,-0.00886438973248005,-0.013999676331877708,-0.009558545425534248
309,-0.019070152193307877,-0.00910397432744503,-0.029544377699494362,-0.017720256000757217,-0.019068099558353424,-0.01496028807014227,-0.02366860955953598,-0.017520824447274208,-0.014937898144125938,-0.01877671480178833
310,0.016885200515389442,-0.025812258943915367,-0.015183337032794952,0.0017212132224813104,-0.0025957422330975533,0.007621133700013161,0.008132056333124638,0.005215735174715519,0.0095739234238863,-0.015377904288470745
311,0.023553676903247833,0.013983306474983692,-0.009055002592504025,0.010223576799035072,0.0018537151627242565,0.011232171207666397,-0.017419036477804184,0.004249552730470896,0.00879521481692791,0.00692715821787715
312,-0.010324967093765736,-0.026937179267406464,-0.01594914123415947,-0.011140352115035057,-0.005030935630202293,0.004530956968665123,0.050279926508665085,0.002693037036806345,-0.001321879681199789,-0.0029544797725975513
313,-0.015797030180692673,0.02901383489370346,-0.010931534692645073,-0.012786060571670532,-0.010718561708927155,-0.014061463996767998,-0.009418360888957977,-0.015426715835928917,0.0005825433181598783,-0.021863846108317375
314,0.03064749948680401,-0.025247400626540184,-0.000978655880317092,0.007524367421865463,-0.0074033671990036964,0.008140995167195797,-0.04640083760023117,0.002648233901709318,-0.03545079380273819,0.04800315946340561
315,0.007225810084491968,0.023020945489406586,-0.008549387566745281,0.0031925938092172146,0.009313581511378288,0.007276785094290972,0.01835428550839424,0.010658270679414272,-0.012860383838415146,0.02222345396876335
316,0.03169040009379387,-0.013924005441367626,-0.007131421007215977,0.00954176764935255,0.0008827155688777566,0.007890420965850353,-0.02187301032245159,0.005085358861833811,0.027194559574127197,-0.024052899330854416
317,0.0009426957694813609,-0.019047822803258896,-0.013924650847911835,-0.0004178908420726657,-0.002531100530177355,0.010785941034555435,0.02681388147175312,0.007391379214823246,-0.0182267464697361,0.00797592755407095
318,0.0398918017745018,0.00916893407702446,0.028974302113056183,0.004374959506094456,0.009078919887542725,0.01487489603459835,0.028757600113749504,0.012787345796823502,-0.033392876386642456,0.06049160659313202
319,0.0013438072055578232,-0.043225113302469254,-0.0258142352104187,-0.00529506616294384,-0.006313754245638847,0.009463699534535408,0.04492100328207016,0.007447328418493271,-0.01597110740840435,0.001887395977973938
320,-0.005087710916996002,0.025898247957229614,-0.024563513696193695,0.0013505452079698443,-0.003062410745769739,0.0077102333307266235,0.006927309557795525,0.0037413821555674076,-0.030845599249005318,0.002924559870734811
321,-0.015961026772856712,-0.019663944840431213,-0.026430586352944374,-0.012947185896337032,-0.011141086928546429,-0.00410039909183979,0.01596183329820633,-0.00515149999409914,-0.017742736265063286,-0.014625837095081806
322,0.03169040009379387,-0.013924005441367626,-0.007131421007215977,0.00954176764935255,0.0008827155688777566,0.007890420965850353,-0.02187301032245159,0.005085358861833811,0.027194559574127197,-0.024052899330854416
323,0.003977589774876833,-0.01607642136514187,0.00631993031129241,0.00919857993721962,0.0053243739530444145,0.012956641614437103,0.007704886607825756,0.010372500866651535,-0.0066031403839588165,0.011313424445688725
324,0.04266916039807983,-0.013285341179697421,0.05106308806140446,0.022315152506327693,0.017755390518349096,0.008170800068164176,0.012891757941670232,0.014700173686490558,0.024087615821671512,0.006801477135730233
325,0.007809611968696117,-0.012594151310622692,-0.01207597367465496,-9.776954539120197e-05,-0.006303607020527124,0.0032869246788322926,0.008079185150563717,0.001770703587681055,-0.019087834283709526,0.012030759826302528
326,-0.006304875947535038,-0.024456271901726723,-0.025074783712625504,-0.008036082610487938,-0.0046624112874269485,0.007965282537043095,0.04242684692144394,0.00739321717992425,-0.018408939242362976,0.003795353230088949
327,0.03169040009379387,-0.013924005441367626,-0.007131421007215977,0.00954176764935255,0.0008827155688777566,0.007890420965850353,-0.02187301032245159,0.005085358861833811,0.027194559574127197,-0.024052899330854416
328,0.03169040381908417,-0.013924005441367626,-0.007131422869861126,0.00954176764935255,0.0008827154524624348,0.007890420034527779,-0.021873008459806442,0.005085359327495098,0.027194559574127197,-0.024052899330854416
329,0.03169040009379387,-0.013924005441367626,-0.007131421007215977,0.00954176764935255,0.0008827155688777566,0.007890420965850353,-0.02187301032245159,0.005085358861833811,0.027194559574127197,-0.024052899330854416
330,0.023881476372480392,-0.007513986900448799,0.010055145248770714,0.007230364717543125,0.00042377994395792484,0.011978726834058762,-0.02416945993900299,0.009171552956104279,-0.043957993388175964,0.05350299924612045
331,0.01280843187123537,0.011317902244627476,-0.010071775875985622,0.006069258786737919,0.004234353546053171,0.009432666935026646,0.0035708658397197723,0.010004468262195587,0.018292054533958435,-0.01893002726137638
332,-0.003969379235059023,-0.040474969893693924,-0.023497316986322403,-0.00779280811548233,-0.006686689797788858,0.00805565994232893,0.047727614641189575,0.005842495709657669,-0.01921563595533371,0.00221563084051013
333,0.006402965635061264,-0.015960058197379112,-0.010913345962762833,0.0013602268882095814,-0.0031040534377098083,0.007662097457796335,0.010083799250423908,0.0064887115731835365,-0.007630405947566032,0.02327606827020645
334,0.01257418841123581,0.01240646094083786,-0.023113412782549858,0.0071943080984056,-0.009381931275129318,0.012840070761740208,-0.043872375041246414,0.00292804348282516,-0.03292814642190933,0.02327577956020832
335,0.011286897584795952,-0.027530187740921974,-0.014190767891705036,0.0007666817400604486,-0.002832647878676653,0.008604430593550205,0.01591852679848671,0.005855850875377655,-0.002381186466664076,-0.004932347685098648
336,0.0005513718351721764,-0.008562171831727028,-0.004829662386327982,-0.00015633855946362019,-0.00964228343218565,-0.0009502465836703777,-0.03348585218191147,-0.005322652868926525,-0.03155480697751045,0.02856765128672123
337,0.009765936061739922,-0.04129185527563095,-0.024375231936573982,-0.0027686923276633024,-0.012332484126091003,0.0021507914643734694,-0.018969401717185974,-0.0011558422120288014,-0.034622546285390854,0.027510197833180428
338,-0.010676211677491665,-0.02228444814682007,-0.01767975278198719,-0.013151279650628567,-0.005468983203172684,0.0035535977222025394,0.05065565183758736,0.0004592959303408861,-0.002298781182616949,-0.001008086372166872
339,-0.008453370071947575,-0.043381184339523315,-0.02492666058242321,-0.009660722687840462,-0.0074705942533910275,0.008245383389294147,0.055925287306308746,0.006029685027897358,-0.02587536908686161,0.006634314078837633
340,0.019920220598578453,-0.010453933849930763,-0.010465923696756363,0.0065467581152915955,-0.002719932235777378,0.007487000431865454,-0.017828043550252914,0.005140767898410559,0.0030616619624197483,-0.010219745337963104
341,-0.002080819569528103,-0.009305058047175407,-0.01392793282866478,-0.0021124219056218863,-0.001835155999287963,0.009311017580330372,0.025624776259064674,0.0063307760283350945,-0.011529308743774891,0.0002237195149064064
342,0.01391233317553997,0.005605528596788645,0.004316380713135004,-0.011345949955284595,-0.002723495941609144,-0.0024909707717597485,0.0014555896632373333,-0.005097709596157074,-0.043016426265239716,0.04257378354668617
343,0.000710769381839782,0.0011976002715528011,-0.0031669826712459326,-0.004499631002545357,-5.9118145145475864e-05,0.00502769835293293,0.02304726094007492,0.001050972263328731,0.02224910631775856,-0.005335840862244368
344,0.008289762772619724,-0.001079985057003796,-0.01428841333836317,-0.00035058267530985177,-0.004473772365599871,9.119592141360044e-05,-0.008692435920238495,-0.003068740013986826,-0.0038219946436583996,0.008968411013484001
345,0.010140372440218925,-0.0215033907443285,-0.008651120588183403,-0.0016468903049826622,-0.0032672560773789883,0.0062017301097512245,0.01390838623046875,0.004501845221966505,-0.002772544277831912,-0.0006968977395445108
346,0.010729074478149414,-0.04018980264663696,-0.008142543025314808,0.00540633499622345,-0.0031935805454850197,0.01266027893871069,-0.0017827913397923112,0.009323041886091232,-0.005682047456502914,0.007824757136404514
347,0.0058364262804389,-0.016030659899115562,-0.005329188425093889,-0.0004698436241596937,-0.0021931524388492107,0.00353059871122241,-0.010357656516134739,0.002582609886303544,-0.03938746824860573,0.03240770101547241
348,0.0015651858411729336,-0.020228682085871696,-0.010138969868421555,0.0011891317553818226,-0.0018325489945709705,0.011473668739199638,0.0240640789270401,0.00770510733127594,-0.023337412625551224,0.01487767044454813
349,-0.004254308994859457,-0.048102304339408875,-0.025662705302238464,-0.007450467441231012,-0.007143103517591953,0.009392719715833664,0.051682598888874054,0.007234131917357445,-0.024670373648405075,0.0071069709956645966
350,-0.010592062957584858,-0.040913064032793045,-0.023814816027879715,-0.0046416763216257095,-0.013948241248726845,-0.00012796535156667233,-0.010601382702589035,-0.002251535654067993,-0.018237348645925522,0.013843386434018612
351,0.008300947025418282,-0.0035493653267621994,0.008482863195240498,0.0019149589352309704,0.004924223758280277,0.009118534624576569,0.006431052926927805,0.00544318649917841,-0.011291835457086563,0.03789094462990761
352,0.01120808906853199,-0.011899629607796669,-0.0073145730420947075,0.005989382043480873,-0.00013298133853822947,0.008834914304316044,-0.008913489058613777,0.003142019035294652,-0.008420176804065704,0.012194830924272537
353,0.029878733679652214,-0.02495352178812027,0.025554660707712173,0.014327624812722206,0.013384418562054634,0.015309687703847885,-0.013099305331707,0.019086163491010666,-0.044497426599264145,0.06701911985874176
354,0.02784636989235878,0.011343265883624554,-0.0027166586369276047,0.01328239031136036,0.003888677340000868,0.01104284729808569,-0.028957156464457512,0.007162862457334995,0.021946534514427185,-0.017023012042045593
355,0.02363135665655136,0.004711843095719814,-0.0034425281919538975,0.0185833927243948,0.004016848746687174,0.022746596485376358,-0.006154351402074099,0.019010841846466064,-0.012613844126462936,0.029811721295118332
356,-0.004867156036198139,-0.03571784868836403,-0.025278758257627487,-0.008230062201619148,-0.006663997657597065,0.008084781467914581,0.04825005307793617,0.0059522595256567,-0.016494443640112877,-0.001358279027044773
357,0.017780067399144173,-0.0043609775602817535,0.011497985571622849,0.007687064819037914,0.006117538549005985,0.01310676708817482,0.0033509377390146255,0.012593239545822144,-0.03286050260066986,0.04849473387002945
358,-0.005023303907364607,-0.0373653806746006,0.019823402166366577,0.003421715460717678,-0.010312181897461414,-0.00041183189023286104,-0.010995248332619667,-0.0008859020890668035,-0.029453232884407043,0.01148332841694355
359,-0.00041052706512743897,-0.03345098749508626,0.00034575066952850786,-0.003345582068612747,-0.01206592480217917,-0.006426940056588961,-0.02021522605239263,-0.01045418539557718,-0.05685074125321755,-0.01700581311602759
360,-0.0008663383778184652,-0.034018710255622864,-0.01953406073153019,-0.005326657090336084,-0.00456460565328598,0.008978514932096004,0.044183582067489624,0.006197780836373568,-0.013535290025174618,0.007315005641430616
361,0.006894165184348822,-0.012076064944267273,-0.0003234167234040797,-0.0028363396413624287,-0.0009903397876769304,0.0053174858912825584,-0.0024699345231056213,0.0017457026988267899,-0.03293163701891899,0.04157547280192375
362,-0.00785840768367052,-0.029516803100705147,-0.02047736942768097,-0.009280670434236526,-0.00672393711283803,0.0031803823076188564,0.03725271299481392,0.001409305608831346,-0.017159778624773026,-0.00022673560306429863
363,-0.00645204184831866,-0.03655726869802725,-0.05944341552310611,-0.003890958150058805,-0.006502763825841022,-0.00362238994472798,0.03663422788532499,-0.004089734027586623,-0.03602519062268227,-0.004519516389865457
364,0.03169040009379387,-0.013924005441367626,-0.007131421007215977,0.00954176764935255,0.0008827155688777566,0.007890420965850353,-0.02187301032245159,0.005085358861833811,0.027194559574127197,-0.024052899330854416
365,0.03169040381908417,-0.013924005441367626,-0.007131422869861126,0.00954176764935255,0.0008827154524624348,0.007890420034527779,-0.021873008459806442,0.005085359327495098,0.027194559574127197,-0.024052899330854416
366,-0.012791354209184647,-0.00042120704893022776,-0.01623588241636753,-0.014802243560552597,-0.010920185595750809,-0.013690292835235596,-0.003817438380792737,-0.013538630679249763,-0.011189271695911884,-0.0057328129187226295
367,0.006127741653472185,-0.013531140051782131,0.0037984997034072876,0.005959334783256054,0.00709810433909297,0.014746679924428463,0.013920101337134838,0.012459331192076206,-0.013250979594886303,0.027004294097423553
368,-0.0020176295656710863,0.00047238217666745186,-0.026617923751473427,-0.012094475328922272,-0.01774626411497593,-0.010855549946427345,-0.02793007902801037,-0.011532839387655258,-0.04067787900567055,0.0028274240903556347
369,0.004674289841204882,-0.0021950206719338894,0.018413718789815903,-0.005160481669008732,0.001595382927916944,0.0009173699654638767,0.012502597644925117,0.0013346404302865267,-0.04532556235790253,0.04459734261035919
370,0.026158912107348442,-0.04062845930457115,0.00301746535114944,0.013048626482486725,0.0027111158706247807,0.017656011506915092,-0.028886398300528526,0.013921601697802544,-0.03556951507925987,0.042083363980054855
371,0.000710769381839782,0.0011976002715528011,-0.0031669826712459326,-0.004499631002545357,-5.9118145145475864e-05,0.00502769835293293,0.02304726094007492,0.001050972263328731,0.02224910631775856,-0.005335840862244368
372,0.003947670105844736,-0.005006277933716774,-0.019332336261868477,-0.0008407615823671222,-0.004736228380352259,0.0014034344349056482,-0.008094167336821556,-0.00015066418563947082,-0.011921003460884094,0.009013966657221317
373,-0.009064690209925175,-0.0385483056306839,-0.02743770368397236,-0.01033739373087883,-0.00757574150338769,0.008069811388850212,0.056473664939403534,0.006028153467923403,-0.02150302194058895,0.001192229799926281
374,0.03169040381908417,-0.013924005441367626,-0.007131422869861126,0.00954176764935255,0.0008827154524624348,0.007890420034527779,-0.021873008459806442,0.005085359327495098,0.027194559574127197,-0.024052899330854416
375,-0.001050769817084074,-0.037437062710523605,-0.020900698378682137,-0.00575044471770525,-0.0057313647121191025,0.008380024693906307,0.04092274606227875,0.005964497569948435,-0.017065050080418587,0.002296815626323223
376,-0.004517645575106144,-0.010348713956773281,-0.03533569350838661,-0.0115385502576828,-0.010025763884186745,-0.006256832275539637,0.006048991810530424,-0.00516937579959631,-0.0068693580105900764,-0.01656152307987213
377,-0.008793738670647144,-0.03094763681292534,-0.04063984751701355,-0.012084098532795906,-0.010842006653547287,0.007335962727665901,0.05027003213763237,0.002493357751518488,-0.030615972355008125,0.009432336315512657
378,-0.006833686958998442,0.0073664216324687,-0.006704538594931364,-0.0015665378887206316,-0.0014062750851735473,0.006504997611045837,0.016014352440834045,0.0027478444389998913,-0.00158277852460742,0.007288532797247171
379,-0.008969939313828945,-0.02374856173992157,-0.022761980071663857,-0.009436783380806446,-0.00698102405294776,0.006036938168108463,0.04402861371636391,0.0038264074828475714,-0.013292690739035606,0.0075578512623906136
380,-0.023157641291618347,-0.00490933284163475,-0.018291562795639038,-0.022645842283964157,-0.015636738389730453,-0.01232991460710764,0.005740717984735966,-0.017841055989265442,0.00695361103862524,-0.0282478928565979
381,0.006455007009208202,-0.016185734421014786,-0.012727713212370872,-0.011154602281749249,-0.013957035727798939,-0.0023638822603970766,-0.012419836595654488,-0.00653220945969224,-0.035428326576948166,0.0038274042308330536
382,0.038186654448509216,-0.031213100999593735,-0.005864705890417099,0.012530222535133362,-0.00048255769070237875,0.013214180245995522,-0.02396872267127037,0.007368141319602728,0.017316654324531555,-0.002465380122885108
383,0.026135314255952835,0.010809434577822685,-0.0013745203614234924,0.003262784332036972,0.001474576536566019,0.009643912315368652,-0.007780718617141247,0.007361981552094221,-0.058791980147361755,0.05990508943796158
384,0.00792497955262661,-0.0060834563337266445,-0.011292466893792152,-0.0009631931316107512,-0.004711870104074478,-0.0006215648027136922,-0.01808425597846508,-0.0027937879785895348,-0.01179902721196413,0.007956616580486298
385,-0.012725194916129112,-0.04958874359726906,-0.03128717094659805,-0.013919894583523273,-0.009552663192152977,0.007082562427967787,0.06814219802618027,0.005476487800478935,-0.02566736750304699,0.001972088124603033
386,0.006726480089128017,-0.01627211458981037,-0.005663152318447828,0.0046009523794054985,-0.0002956276875920594,0.011933628469705582,0.012643923982977867,0.00784280151128769,-0.01982157863676548,0.015193866565823555
387,0.03355354070663452,-0.03838435187935829,0.000908511457964778,0.004683144390583038,0.004970811307430267,0.015088695101439953,-0.023508723825216293,0.0160407442599535,-0.0543857142329216,0.06925609707832336
388,0.0055609168484807014,-0.008419113233685493,-0.0037955634761601686,0.006711403839290142,-0.002778025111183524,0.010779786854982376,-0.00719433045014739,0.007220524363219738,-0.03504375368356705,0.024390393868088722
389,0.0010973014868795872,-0.03274991735816002,-0.014293208718299866,-0.0035278876312077045,-0.0016706525348126888,0.01239252183586359,0.04793468117713928,0.01024635136127472,-0.022959552705287933,0.02156224101781845
390,0.0073315161280334,-0.02045625075697899,-0.014313108287751675,-0.004376931115984917,-0.002945353277027607,0.005097194574773312,0.023403704166412354,0.0023953269701451063,0.013056496158242226,-0.014224499464035034
391,0.006611947901546955,-0.042938388884067535,-0.019016213715076447,-0.00045249774120748043,-0.006630382966250181,0.0107382507994771,0.015865109860897064,0.005270469002425671,-0.017276188358664513,0.013689565472304821
392,-0.0026075332425534725,-0.04951344057917595,-0.027186574414372444,-0.008778929710388184,-0.010022565722465515,0.006968246772885323,0.03864224627614021,0.004484917502850294,-0.027550023049116135,0.011003799736499786
393,-0.006763579323887825,-0.022382279857993126,-0.013113793917000294,-0.006232839077711105,-0.008422075770795345,0.0006582526839338243,0.00891596358269453,0.0018598398892208934,-0.02145174704492092,0.0007878108299337327
394,-0.0014817728661000729,-0.027423860505223274,-0.021192779764533043,-0.0074529205448925495,-0.009563862346112728,0.002664114348590374,0.0039062341675162315,0.00295657548122108,-0.031042905524373055,0.00538649270310998
395,-0.00940194632858038,-0.04731721058487892,-0.027585044503211975,-0.013552205637097359,-0.010379583574831486,0.00514045637100935,0.05341257154941559,0.002695582341402769,-0.023368623107671738,0.004245339427143335
396,-0.01394704170525074,-0.004620380699634552,-0.02122645080089569,-0.02370191179215908,-0.009075812995433807,-0.002059134654700756,0.02234499342739582,-0.005581904202699661,-0.00946794357150793,0.021496685221791267
397,-0.00483472365885973,-0.023838698863983154,-0.02194371074438095,-0.005583465099334717,-0.004771065432578325,0.007260331884026527,0.03503822535276413,0.005507185123860836,-0.01796761155128479,0.00013725226745009422
398,0.000710769381839782,0.0011976002715528011,-0.0031669826712459326,-0.004499631002545357,-5.9118145145475864e-05,0.00502769835293293,0.02304726094007492,0.001050972263328731,0.02224910631775856,-0.005335840862244368
399,5.285721272230148e-05,-0.037934813648462296,-0.019483918324112892,-0.004848174285143614,-0.005876398179680109,0.009878757409751415,0.03832462057471275,0.00851893424987793,-0.01969921588897705,0.004917550832033157
400,0.001369197852909565,-0.0389736071228981,-0.039010822772979736,9.615079034119844e-05,-0.001878981594927609,0.011509397067129612,-0.007353931665420532,0.0012894767569378018,-0.040193233639001846,0.004199913237243891
401,0.009482604451477528,-0.03175637871026993,-0.019209297373890877,-0.0021890655625611544,-0.004334974102675915,0.007486490998417139,0.023134596645832062,0.005280923098325729,0.0007636004593223333,-0.011040407232940197
402,-0.0031135890167206526,-0.03562173247337341,-0.0169760100543499,-0.004336759448051453,-0.004868012387305498,0.009698906913399696,0.04065413773059845,0.00672118179500103,-0.0261353962123394,0.012462098151445389
403,0.009088733233511448,-0.022182699292898178,-0.018546978011727333,-0.0012523781042546034,-0.010211726650595665,-0.0013760720612481236,-0.024959025904536247,-0.004096247721463442,-0.026209868490695953,0.012260750867426395
404,0.02070578560233116,-0.013591649942100048,-0.0036760643124580383,0.004064585082232952,-0.0019730208441615105,0.006500331684947014,-0.00020299572497606277,0.006403283216059208,-0.0358356311917305,0.03611262887716293
405,-0.009249902330338955,-0.01921362243592739,-0.011948715895414352,-0.00809333473443985,-0.010035272687673569,-0.0037562912330031395,-0.01404480542987585,-0.007183574140071869,-0.015638338401913643,-0.018317554146051407
406,0.009482604451477528,-0.03175637871026993,-0.019209297373890877,-0.0021890655625611544,-0.004334974102675915,0.007486490998417139,0.023134596645832062,0.005280923098325729,0.0007636004593223333,-0.011040407232940197
407,-0.00047677056863904,-0.046080082654953,-0.026232533156871796,-0.008275240659713745,-0.012062021531164646,0.0012953588739037514,0.004877748899161816,-0.0020832843147218227,-0.039539746940135956,0.011745894327759743
408,-0.005453965626657009,-0.012232834473252296,-0.00844347570091486,-0.0017469862941652536,-0.004672225099056959,0.004947689827531576,0.009662730619311333,0.001268839812837541,0.00156211422290653,0.0047715334221720695
409,0.006832773797214031,-0.009693199768662453,0.003924937453120947,0.009669091552495956,-0.007195368409156799,0.004044058732688427,-0.03385414183139801,-0.0022605061531066895,-0.034250132739543915,0.014994874596595764
410,-0.0038168434984982014,-0.03195378556847572,-0.02112312987446785,-0.005848759785294533,-0.0054184189066290855,0.009095367044210434,0.04278720170259476,0.006488352548331022,-0.019793391227722168,0.0042589642107486725
411,-0.006910090334713459,-0.05296291038393974,-0.017217280343174934,-0.003520981641486287,-0.008720556274056435,0.003506886772811413,0.02808123268187046,0.0024040197022259235,-0.01684204488992691,0.018080085515975952
412,0.017176806926727295,-0.04143321514129639,-0.019298430532217026,0.004516012035310268,-0.0035851262509822845,0.013971185311675072,0.009111575782299042,0.008670319803059101,-0.008127644658088684,0.009588215500116348
413,0.02784636989235878,0.011343266814947128,-0.002716659102588892,0.01328239031136036,0.003888677340000868,0.01104284729808569,-0.028957156464457512,0.007162862457334995,0.021946534514427185,-0.017023013904690742
414,0.02085617557168007,-0.03451431915163994,-0.0032600113190710545,0.007999671623110771,0.005506149493157864,0.01950223743915558,0.0292355976998806,0.01795760728418827,-0.017923051491379738,0.025821628049016
415,0.03169040009379387,-0.013924005441367626,-0.007131421007215977,0.00954176764935255,0.0008827155688777566,0.007890420965850353,-0.02187301032245159,0.005085358861833811,0.027194559574127197,-0.024052899330854416
416,0.01832873560488224,-0.03271323814988136,-0.02868456020951271,0.011177586391568184,-0.013425447978079319,0.002808521967381239,-0.045512568205595016,0.005157160572707653,-0.040914785116910934,0.01668545790016651
417,0.03169040009379387,-0.013924005441367626,-0.007131421007215977,0.00954176764935255,0.0008827155688777566,0.007890420965850353,-0.02187301032245159,0.005085358861833811,0.027194559574127197,-0.024052899330854416
418,0.03169040009379387,-0.013924005441367626,-0.007131421007215977,0.00954176764935255,0.0008827155688777566,0.007890420965850353,-0.02187301032245159,0.005085358861833811,0.027194559574127197,-0.024052899330854416
419,8.661672472953796e-05,-0.010947199538350105,-0.01781400479376316,-0.0013811483513563871,-0.0026334375143051147,0.010537935420870781,0.02730235829949379,0.007407315541058779,-0.011092174798250198,-0.0007573976181447506
420,-0.002855061087757349,-0.041663240641355515,-0.02591923251748085,-0.008706191554665565,-0.007233689539134502,0.007262085564434528,0.048138830810785294,0.005389569327235222,-0.013920266181230545,-0.0038112467154860497
421,0.03169040009379387,-0.013924005441367626,-0.007131421007215977,0.00954176764935255,0.0008827155688777566,0.007890420965850353,-0.02187301032245159,0.005085358861833811,0.027194559574127197,-0.024052899330854416
422,-0.009230067022144794,-0.04450983181595802,-0.026083117350935936,-0.010435117408633232,-0.007849154993891716,0.008033961988985538,0.05814654380083084,0.005929101258516312,-0.025837549939751625,0.005786634050309658
423,0.014232242479920387,-0.016833001747727394,-0.00047715817345306277,0.008330491371452808,0.0010945816757157445,0.011913368478417397,-0.0007288511842489243,0.007602362893521786,-0.01475231721997261,0.014837670139968395
424,0.00017962511628866196,0.032821740955114365,-0.005052428692579269,0.0068575795739889145,0.003923453390598297,0.009691722691059113,-0.0030397791415452957,0.009991969913244247,-0.011569937691092491,0.00225485535338521
425,0.008320914581418037,-0.016569187864661217,-0.012634611688554287,0.001767296576872468,-0.003845301689580083,0.007643194869160652,0.009384023025631905,0.0031498861499130726,-0.019508717581629753,0.013750569894909859
426,-0.0022344118915498257,-0.003586465958505869,-0.010507028549909592,-0.0073130251839756966,-0.004560827277600765,-0.0011407407000660896,0.003973084501922131,-0.0032605361193418503,-0.01396089605987072,0.009070781990885735
427,0.014241094700992107,-0.022958891466259956,-0.010393500328063965,0.005113161168992519,0.0005843513645231724,0.01336427591741085,0.0009487245697528124,0.009911964647471905,-0.016221173107624054,0.01282756682485342
428,-0.0010299000423401594,-0.04636912792921066,-0.018655894324183464,-0.0024357910733669996,-0.0048260134644806385,0.011006420478224754,0.04241308197379112,0.009768924675881863,-0.024204356595873833,0.018903370946645737
429,-0.005322596989572048,-0.04364462196826935,-0.027261218056082726,-0.010009617544710636,-0.007813431322574615,0.007217206060886383,0.053139667958021164,0.00541129894554615,-0.01685703545808792,-0.0023654126562178135
430,0.013365432620048523,1.239081029780209e-05,-0.01290627010166645,-0.00396403344348073,-0.0036310842260718346,-0.00160560617223382,-0.01642765663564205,-0.0021301121450960636,-0.0038344396743923426,0.0018511995440348983
431,0.014639432542026043,-0.014850913546979427,0.005687983240932226,0.011640222743153572,0.004609120078384876,0.01657966338098049,0.003560250159353018,0.012546490877866745,-0.02587912790477276,0.0329902246594429
432,-0.003461478278040886,-0.02381267584860325,-0.02295454405248165,-0.010008210316300392,-0.008848750963807106,-0.0005621170275844634,0.018252123147249222,-0.002710102591663599,-0.012960325926542282,0.0024963985197246075
433,0.01569169946014881,-0.02277173101902008,-0.0045168157666921616,0.004737017676234245,-0.001264481688849628,0.008753695525228977,0.0011500404216349125,0.009487638249993324,-0.038876183331012726,0.04540577903389931
434,-0.012725196778774261,-0.04958874359726906,-0.03128717467188835,-0.013919894583523273,-0.009552663192152977,0.007082562427967787,0.06814219802618027,0.0054764896631240845,-0.02566736750304699,0.001972088124603033
435,0.029174119234085083,-0.030268913134932518,-0.010258111171424389,0.011224775575101376,-0.0013310592621564865,0.01013113185763359,-0.037641823291778564,0.008296521380543709,-0.03057345375418663,0.040418852120637894
436,0.04253922402858734,-0.04942382872104645,-0.0026573659852147102,0.01695970818400383,0.0008184039033949375,0.013560933992266655,-0.07234545797109604,0.008908960036933422,-0.029555432498455048,0.03895922005176544
437,-0.01226055808365345,0.03763365000486374,0.009405996650457382,-0.020685121417045593,0.003189933020621538,-0.008576794527471066,0.03993124142289162,-0.013891197741031647,0.07390589267015457,-0.02793014980852604
438,0.015968412160873413,-0.02208643965423107,-0.011554472148418427,0.006353224627673626,0.003752846037968993,0.014646985568106174,0.014731716364622116,0.015326423570513725,0.0030510120559483767,0.01740836165845394
439,-0.0033351234160363674,-0.04956447333097458,-0.025877099484205246,-0.010196046903729439,-0.00949039589613676,0.004795316606760025,0.04506925866007805,0.0030375286005437374,-0.020708564668893814,-0.0010590399615466595
440,0.017879152670502663,0.02600095048546791,0.0014577505644410849,0.00733957439661026,0.0048125023022294044,0.00796450488269329,-0.016725411638617516,0.0033932430669665337,0.031206388026475906,-0.0168495811522007
441,-0.010530611500144005,0.009393993765115738,-0.011441376060247421,-0.012370371259748936,-0.006520122289657593,-0.007470428012311459,-0.004359405487775803,-0.003835256677120924,-0.004185978788882494,-0.009597125463187695
442,0.02068006433546543,0.007560692261904478,0.0033428044989705086,0.004456309601664543,0.0027211718261241913,0.01154907327145338,-0.008559315465390682,0.009513737633824348,-0.047289203852415085,0.05907193571329117
443,0.020707445219159126,0.05826820805668831,0.005482176784425974,0.020229263231158257,0.009471173398196697,0.016897354274988174,-0.04211343079805374,0.011021077632904053,0.012200196273624897,-0.003967504017055035
444,0.01746376045048237,-0.00022651301696896553,0.011838866397738457,0.008934320881962776,0.004719122778624296,0.009782940149307251,-0.007244607899338007,0.00560489296913147,-0.01969103142619133,0.028004271909594536
445,0.008164308965206146,-0.021294675767421722,-0.025602467358112335,0.001589550287462771,-0.004613492637872696,0.005363405216485262,-0.011365830898284912,0.004020337946712971,-0.013554317876696587,0.007520632352679968
446,0.025070667266845703,0.007085894234478474,-0.012795612215995789,-0.009934242814779282,-0.014320243149995804,-0.013116590678691864,-0.05116606131196022,-0.011225099675357342,-0.0212909746915102,-0.006632628850638866
447,-0.00641042273491621,0.018611395731568336,-0.0034449624363332987,-0.010140947997570038,0.0028691450133919716,0.0011185216717422009,0.019699616357684135,-0.007158048450946808,0.03442927822470665,-0.008819274604320526
448,0.012684710323810577,-0.0057674250565469265,-0.02286420948803425,0.00339098135009408,-0.003743109293282032,0.0010271032806485891,-0.012587630189955235,-0.004150437656790018,0.004570378456264734,-0.002248194068670273
449,-0.0025491949636489153,-0.013646842911839485,-0.0038217701949179173,0.006688359193503857,-0.004028736613690853,0.002206475008279085,-0.01630917377769947,0.005664166063070297,-0.02046043612062931,-1.9986066035926342e-05
450,-0.006013037636876106,-0.03563747555017471,-0.03064197301864624,-0.0009893083479255438,-0.0063126785680651665,0.008036777377128601,0.010897018946707249,0.007109111174941063,-0.02459612302482128,0.015959469601511955
451,0.049033571034669876,-0.04396483302116394,-0.012967776507139206,0.010021494701504707,-0.005663241259753704,0.01022067666053772,-0.03509502485394478,0.00933515839278698,-0.00930124893784523,0.02858530543744564
452,0.017625033855438232,0.014826149679720402,-0.03840941563248634,0.011875540018081665,-0.005021779797971249,0.009269698522984982,-0.027950573712587357,-0.005315415561199188,-0.03763534501194954,0.03276827558875084
453,0.0073786613218899295,-0.01729288813659666,-0.023912797240327847,0.005681846912146575,-0.0045035520494957,0.00021343281322564215,0.039109751566029624,-0.005365225119620566,-0.02001608155810114,-0.038917478882645545
454,0.01086544618010521,0.014096732251346111,0.006803904660046101,-0.0009764878777787089,-0.0003862421726807952,0.004390263929963112,0.009833306074142456,0.002660257276147604,-0.05616985633969307,0.036124054342508316
455,0.018562715500593185,-0.048624344170093536,-0.007093749474734068,-0.0007644543657079339,-0.008184423670172691,0.0069592613726854324,-0.00040682428516447544,0.003114992519840598,-0.01857592537999153,0.010688014328479767
456,0.030964631587266922,-0.044345609843730927,-0.014482719823718071,0.00621864153072238,-0.014409409835934639,0.004685690626502037,-0.06339340656995773,-0.0032341694459319115,-0.0346270352602005,0.04137156903743744
457,0.03169040381908417,-0.013924005441367626,-0.007131422869861126,0.00954176764935255,0.0008827154524624348,0.007890420034527779,-0.021873008459806442,0.005085359327495098,0.027194559574127197,-0.024052899330854416
