,security,conformity,tradition,benevolence,universalism,self-direction,stimulation,hedonism,achievement,power
0,0.004233350045979023,0.0004103821702301502,-0.019716152921319008,-0.004342412110418081,-0.007819578982889652,0.0017913104966282845,-0.009248931892216206,-0.004569522859937919,-0.022569186985492706,0.011723501607775688
1,-0.0018578744493424892,0.0009388996986672282,-0.022969597950577736,-0.005190268624573946,-0.001626417855732143,-0.003136971266940236,0.016694704070687294,-0.004069095401712471,-0.017009861767292023,-0.00455308984965086
2,-0.008688431233167648,-0.018581559881567955,-0.02351008541882038,0.002285934053361416,-0.003821277990937233,0.0028715096414089203,0.026621036231517792,-0.0337779303776121,-0.008688407018780708,0.008242725394666195
3,0.0029538951348513365,-0.029187871143221855,-0.015148757956922054,0.0020866338163614273,-0.008793937042355537,0.0012736115604639053,-0.025564363226294518,-0.008561713126737092,-0.021588794887065887,0.013572181575000286
4,0.010729104385228411,0.04898465579021219,0.04180431877662928,0.015922213454569626,0.005154457889673152,-0.0051576729006651365,-0.027345708015670347,0.03264858694370745,0.06842189864547348,0.00774403481136052
5,-0.017025647684931755,0.006114748306572437,-0.012692812830209732,-0.009568515233695507,-0.007983000949025154,-0.008588152006268501,0.001768368761986494,-0.0023929080054205325,-0.0018913708627223969,-0.005713725928217173
6,-0.0046177576296031475,0.013995043933391571,-0.006495412904769182,-0.011212769895792007,-0.004941195715218782,-0.005119708366692066,0.003179667517542839,-0.015451962650496049,-0.0028423634357750416,-0.011303053237497807
7,0.02713945508003235,0.024466462433338165,-0.015219202265143394,-0.0060964017175138,0.001697073457762599,-0.005602238699793816,-0.023864038288593292,0.0013122802526399566,-0.0422222875058651,-0.013787047937512398
8,0.03818769380450249,0.014694706536829472,0.03444821015000343,0.008886681869626045,0.005474841687828302,0.010616142302751541,0.007612732704728842,0.06907804180379476,-0.02454429864883423,0.052261482924222946
9,0.0036733176093548536,0.0018118598964065313,-0.001543758437037468,0.0019580628722906113,-0.004774562083184719,0.005140789318829775,-0.008210469037294388,-0.0072403207011822,-0.0034197396598756313,0.013176641426980495
10,-0.009910069406032562,-0.0030775326304137707,-0.0048696123994886875,-0.007694181986153126,-0.011156925931572914,-0.004474201705306768,-0.0024647326208651066,-0.004842724048073366,-0.003363720141351223,0.006581116933375597
11,0.035889154663112884,0.029019003758115756,0.007919562173578082,-0.0029813804717777025,0.006986017090221812,0.010621930832261832,0.006013223177828802,0.019146315969595797,-0.005575444403674358,0.035408462536026954
12,0.02713945508003235,0.024466462433338165,-0.015219202265143394,-0.0060964017175138,0.001697073457762599,-0.005602238699793816,-0.023864038288593292,0.0013122802526399566,-0.0422222875058651,-0.013787047937512398
13,0.05641936510801315,-0.04616769775748253,-0.02442128211259842,0.02638217806816101,0.00431212130934,0.02338983863592148,-0.023213179782032967,-0.02334504988878438,-0.03409271687269211,0.05235360190272331
14,0.01612495817244053,0.015529632568359375,-0.018163150176405907,-0.00575221236795187,0.0004346589557826519,-0.004665817134082317,-0.008457993157207966,-0.0007318105377968319,-0.03264547139406204,-0.010279573500156403
15,-0.027237622067332268,-0.0008056275546550751,-0.015065533109009266,-0.009327804669737816,-0.0016567639540880919,-0.005295567214488983,0.04184756428003311,-0.011545577909620651,0.022295910865068436,-0.0037519310135394335
16,-0.003795500146225095,0.016063537448644638,-0.008046479895710945,-0.002439324976876378,0.0015502170426771045,-0.0016369445947930217,0.002324408618733287,-0.02790731758974837,0.023236872628331184,0.0007730525685474277
17,0.009188174270093441,-0.003954538609832525,0.0017574678640812635,0.006513246335089207,-0.004897288978099823,0.003586615901440382,-0.03509436175227165,-0.029114018475722203,-0.018048565834760666,-0.005946505814790726
18,-0.0042061517015099525,-0.023538341745734215,-0.021633515134453773,0.0006864494644105434,-0.006528457161039114,0.006033642217516899,-0.0066880108788609505,0.023877462192958013,-0.026711082085967064,0.03385035693645477
19,0.018595723435282707,-0.0021878820843994617,-0.008079396560788155,0.003945376258343458,-0.006043226923793554,-0.0013828988885506988,-0.019669776782393456,-0.03753574444212137,-0.03230605274438858,0.023870296776294708
20,0.02713945508003235,0.024466462433338165,-0.015219202265143394,-0.0060964017175138,0.001697073457762599,-0.005602238699793816,-0.023864038288593292,0.0013122802526399566,-0.0422222875058651,-0.013787047937512398
21,0.01782558485865593,-0.02673502080142498,-0.010515891015529633,0.0012767778243869543,-0.0027999142184853554,0.0022685464937239885,-0.018052469938993454,0.037112729550080076,-0.02900839038193226,0.02739809639751911
22,0.007641899865120649,-0.03249099478125572,-0.004917377606034279,0.005353828892111778,-0.0042102886363863945,0.0012818011455237865,-0.015258249826729298,-0.008926714692484215,0.010359279811382294,0.015333186835050583
23,0.02713945508003235,0.024466462433338165,-0.015219202265143394,-0.0060964017175138,0.001697073457762599,-0.005602238699793816,-0.023864038288593292,0.0013122802526399566,-0.0422222875058651,-0.013787047937512398
24,0.003821195336058736,0.020020494237542152,0.007169666234403849,-0.006826139986515045,-0.00035496288910508156,-0.004371446557343006,0.021846748888492584,0.011574789418133643,0.0021580031607300043,0.001665090094320476
25,0.009214888326823711,-0.04190355911850929,-0.004325904417783022,0.0029003936797380447,-0.01560451090335846,-0.0008278892491944134,-0.058926984667778015,-0.05317584235201486,-0.042334213852882385,0.03284696862101555
26,-0.012070642784237862,-0.001543577411212027,-0.014283020049333572,-0.003922759555280209,-0.008244297467172146,-0.0022151400335133076,-0.010567543096840382,-0.032888957585513495,-0.0404052771627903,0.008217431604862213
27,0.004349736962467432,-0.03160049766302109,-0.012417943216860294,-4.490272840484977e-05,-0.007762671448290348,-0.002424490638077259,-0.007777604274451733,0.015054016844649094,-0.023911163210868835,0.012804078869521618
28,0.02713945508003235,0.024466462433338165,-0.015219202265143394,-0.0060964017175138,0.001697073457762599,-0.005602238699793816,-0.023864038288593292,0.0013122802526399566,-0.0422222875058651,-0.013787047937512398
29,0.011234434321522713,-0.01853909343481064,-0.005142877344042063,0.0034494129940867424,-0.007173166144639254,-0.00113825430162251,-0.024709802120923996,-0.0035769221955710227,-0.02609749138355255,0.01741751655936241
30,0.004958607256412506,0.006234912201762199,0.005704998504370451,0.001794718555174768,0.00296627264469862,0.002496198983862996,0.00016419659368693829,0.002873570115739677,0.009772749617695808,0.012515990063548088
31,0.013469863682985306,-0.017928238958120346,-0.010118610225617886,0.00891950260847807,-0.00021856350940652192,0.008300626650452614,-0.007349788676947355,-0.00991487307452849,-0.010326240211725235,0.013799164444208145
32,-0.002876969985663891,-0.009136877954006195,-0.010383234359323978,-0.0028261372353881598,-0.00406273640692234,-0.0005689642275683582,0.00758704449981451,-0.022025958523143055,0.01704244501888752,0.014072000049054623
33,-0.015028715133666992,0.007363558746874332,0.0019887397065758705,-0.0010268375044688582,-0.004086938686668873,-0.0033989138901233673,0.007981839589774609,0.0263888297502148,-0.0012732958421111107,0.0025407434441149235
34,0.0028628273867070675,-0.04715355858206749,-0.006656440906226635,0.01385875977575779,-0.0001605907455086708,0.0019370120717212558,-0.00024283118546009064,0.020695847346113194,-0.028265632688999176,0.04272901639342308
35,0.033962718809539966,0.03540624289258168,-0.01246786831225725,0.008379409790441921,-0.003749204450803681,0.014084830255746424,0.018999056082367877,0.052627194739909774,0.007604925841027118,-0.008796931638434813
36,0.005648055113852024,-0.014036749489605427,-0.006942346692085266,-0.009408421814441681,-0.013349276036024094,-0.005394670180976391,-0.0173841193318367,0.0031491177116899863,-0.028269220143556595,0.01652771420776844
37,0.029379557818174362,-0.03122647851705551,0.0029998861718922853,0.01200838666409254,-0.00260934024117887,0.00881950557231903,-0.04126003384590149,0.0027462696185871008,-0.04289495199918747,0.03145092725753784
38,-0.008283866569399834,-0.0042749568819999695,-0.024687133729457855,-0.004989465698599815,-0.00236292602494359,-0.0025906520895659924,0.025682782754302025,-0.005261644852242213,-0.011422628536820412,-0.002506786258891225
39,-0.012092973105609417,-0.020604759454727173,-0.015930794179439545,-0.0023116623051464558,-0.009359819814562798,-0.005053013097494841,0.00014594406820833683,-0.006766239131729437,-0.0028412239626049995,-0.006929632276296616
40,-0.0235325675457716,-0.028456375002861023,-0.01750003546476364,-0.0006549202371388674,-0.005851958878338337,0.0012631828431040049,0.011857724748551846,-0.031528466722906524,-0.01490430161356926,0.020253129303455353
41,0.0029512217734009027,0.011073275469243526,0.02744312211871147,0.00541288498789072,0.004078208468854427,0.0041368864476680756,-0.023080745711922646,-0.01687845701974555,-0.009855462238192558,0.026031626388430595
42,-0.03648145869374275,-0.027153657749295235,-0.03222377970814705,-0.004108321387320757,-0.005594756454229355,-0.0001933778403326869,0.06512294709682465,-0.010494604558769202,0.01309445220977068,0.006472505163401365
43,0.022832097485661507,-0.057261478155851364,0.009372814558446407,0.0124085433781147,-0.0022355769760906696,0.010607799515128136,-0.05063335970044136,0.02290421662824687,-0.028066599741578102,0.04572385549545288
44,-0.016469739377498627,0.007289945147931576,-0.0057779839262366295,-0.004527435638010502,-0.005087820813059807,-0.004951228387653828,-0.007031545974314213,-0.00542009064943129,-0.009126424789428711,-0.0014587300829589367
45,0.01689431439894802,-0.005727200870438185,0.004638575750584293,0.01417207965621969,0.006497496153108702,0.016019041800200542,0.030711952793031856,0.020949442128146374,0.04930545150921277,0.010466940684810494
46,0.0013144731055945158,-0.014190999791026115,-0.05053567886352539,-0.003810169640928507,-0.009054310619831085,-0.0005648191436193883,-0.01761101745069027,-0.031220587742239216,-0.029319146648049355,0.011464770883321762
47,0.06163085997104645,-0.027753274887800217,0.009129351004958153,0.043174274265766144,0.009293871000409126,0.03680185601115227,-0.0312730111181736,-0.03860352360581396,-0.060451775789260864,0.06955153495073318
48,-0.00206141103990376,0.0102996239438653,-0.02255133166909218,0.002232290105894208,0.0008576527470722795,0.0018718698993325233,0.011174377053976059,0.0034749557236913578,-0.014418084174394608,0.0024957130663096905
49,-0.03271619603037834,-0.01571071706712246,0.05439523607492447,-0.002465819241479039,-0.006153126247227192,-0.022693190723657608,0.03349882736802101,0.03386267107313296,-0.05882692709565163,-0.027978161349892616
50,0.01612495817244053,0.015529632568359375,-0.018163150176405907,-0.00575221236795187,0.0004346589557826519,-0.004665817134082317,-0.008457993157207966,-0.0007318105377968319,-0.03264547139406204,-0.010279573500156403
51,0.01215067133307457,0.0625089704990387,0.016897005960345268,0.006325987633317709,0.006228442303836346,0.0036354740150272846,-0.028388701379299164,-0.03651203600862582,0.005232810974121094,-0.0008311683777719736
52,0.03792307898402214,0.003972351085394621,0.0028628462459892035,0.019680075347423553,0.0053066168911755085,0.014668451622128487,-0.029099782928824425,-0.010552313394076916,-0.03719722479581833,0.04067700356245041
53,0.015758197754621506,-0.02873905748128891,-0.026193508878350258,0.009815302677452564,4.7516950871795416e-05,0.010030645877122879,0.011436211876571178,-0.014817537614646815,-0.016680089756846428,0.024991651996970177
54,0.008361444808542728,0.00923054851591587,-0.020238187164068222,-0.005509611219167709,-0.00045514560770243406,-0.004005787428468466,0.002400884870439768,-0.0021725762041422112,-0.025895297527313232,-0.007807348854839802
55,0.009518119506537914,-0.008501572534441948,-0.014250634238123894,0.008706733584403992,0.0007966001285240054,0.008311801590025425,0.00200417498126626,-0.024122419846934234,-0.009900531731545925,0.020552707836031914
56,0.0074023595079779625,0.010721486061811447,-0.007315270137041807,0.004159849137067795,0.006856592837721109,0.000617772457189858,0.013907242566347122,0.0080352052572337,-0.003593660891056061,0.00818299688398838
57,0.0007188501767814159,0.031067386269569397,-0.02200607769191265,-0.013449754565954208,-0.007447944022715092,-0.012494598515331745,0.019062627106904984,0.06423405633047966,-0.000950381625443697,-0.05009903386235237
58,-0.005055062472820282,-0.027693986892700195,0.016881460323929787,0.006473498418927193,-0.007106236647814512,0.00048255512956529856,-0.0012692785821855068,0.03640278151605148,0.0012001034338027239,0.028633637353777885
59,0.02713945508003235,0.024466462433338165,-0.015219202265143394,-0.0060964017175138,0.001697073457762599,-0.005602238699793816,-0.023864038288593292,0.0013122802526399566,-0.0422222875058651,-0.013787047937512398
60,-0.016455987468361855,0.012247768230736256,0.00981862936168909,-0.010135559365153313,0.00279416237026453,-0.010691465809941292,0.025032535195350647,-0.009704251791585891,0.056121449917554855,-0.004179735202342272
61,0.007618763484060764,-0.022826112806797028,-0.005558047443628311,0.0024557621218264103,-0.008188372477889061,0.00010500242933630943,-0.01748272031545639,-0.012126186215479515,-0.03039175644516945,0.018215002492070198
62,0.037159115076065063,-0.050817862153053284,0.013489617966115475,0.011854499578475952,-0.0047505698166787624,0.008130437694489956,-0.08093171566724777,0.00980130202687091,-0.044518571346998215,0.044553615152835846
63,0.0034779589623212814,-0.03216300159692764,-0.009283402934670448,0.008706480264663696,-0.008516041561961174,0.005551684182137251,-0.05130796134471893,-0.0351921166987231,-0.03677576407790184,0.0309734009206295
64,0.021704258397221565,-0.020510593429207802,-0.03137551248073578,-0.0026005753315985203,-0.011157083325088024,-0.00024930050130933523,-0.04360122233629227,-0.04265364223124507,-0.04064978286623955,0.017847076058387756
65,0.017243945971131325,0.009618107229471207,-0.0113601079210639,-0.003559260396286845,-0.0004426573868840933,-0.0032840974163264036,-0.030323395505547523,-0.014058378352429643,-0.04328534007072449,-0.00029675266705453396
66,0.005279927514493465,0.006730297580361366,-0.02106180414557457,-0.005413317587226629,-0.0008083265274763107,-0.0037438056897372007,0.0067110140807926655,-0.002744448977817084,-0.023215997964143753,-0.0068260617554187775
67,-0.03648145869374275,-0.027153657749295235,-0.03222377970814705,-0.0041083237156271935,-0.00559475552290678,-0.00019337818957865238,0.06512294709682465,-0.01049460485363627,0.013094453141093254,0.00647250609472394
68,-0.010550678707659245,0.007876679301261902,-0.00801035389304161,-0.009009411558508873,-0.00528037128970027,-0.009301256388425827,0.00820491649210453,0.02174277783050644,0.0033525084145367146,0.014290088787674904
69,-0.003841009456664324,-0.009439417161047459,-0.011455515399575233,0.0010615215869620442,-0.0015359065728262067,0.0019619078375399113,0.007696741260588169,-0.005523979006558959,-0.006967630237340927,0.010509883053600788
70,0.009943191893398762,-0.016304733231663704,0.0020123817957937717,-0.004267645068466663,-0.006801918614655733,-0.004030061885714531,-0.021334683522582054,0.0007843684470622801,-0.02953624725341797,0.004759802017360926
71,-0.016227776184678078,0.013163725845515728,-0.012124205939471722,0.015680069103837013,0.013186492957174778,0.0015449104830622673,-0.0056451126001775265,0.012344081155010869,0.03593188151717186,0.0018594276625663042
72,0.0036469767801463604,-0.07514408975839615,-0.026838578283786774,0.016431961208581924,-0.004775521345436573,0.0024721957743167877,-0.005988957826048136,0.019625444324396602,-0.047205280512571335,0.04482480138540268
73,0.015938514843583107,-0.00810057483613491,-0.04868297651410103,-0.003113333135843277,-0.00842576939612627,-0.0006929951487109065,-0.04166992008686066,-0.03370654276296421,-0.04326077178120613,0.013763358816504478
74,0.013748746365308762,-0.014413361437618732,0.0009966385550796986,0.0017889566952362657,-0.006618374492973089,0.0009603344951756299,-0.024369042366743088,-0.005814026069844973,-0.021484030410647392,0.019273199141025543
75,-0.009373780339956284,-0.0070028845220804214,-0.015198638662695885,-0.00652666948735714,-0.006022357381880283,-0.0005468364106491208,0.017630312591791153,0.042023241649690166,0.01458932738751173,0.0024649696424603462
76,-0.008553058840334415,-0.012363032437860966,-0.012799057178199291,0.007023092359304428,-0.004111038520932198,0.0019740830175578594,-3.734929487109184e-05,-0.01142030286269164,-0.03533376753330231,0.02974245697259903
77,-0.009098125621676445,-0.029908563941717148,-0.0010871191043406725,0.003194671357050538,-0.0061386688612401485,0.0028868461959064007,-0.04751834273338318,-0.05497542641148746,-0.0461152046918869,0.035614728927612305
78,-0.026770081371068954,-0.019580380991101265,-0.021036649122834206,-0.003463450353592634,-0.0059870388358831406,0.00029662949964404106,0.051501110196113586,-0.011224674740434565,0.006166029721498489,0.009279871359467506
79,-0.0019959171768277884,-0.004535480868071318,-0.02082500420510769,-0.0015629521803930402,-0.004129678010940552,0.0020740367472171783,-0.0018732128664851189,-0.01923226792952958,-0.021088162437081337,0.00558122992515564
80,0.040777795016765594,-0.011361933313310146,-0.0072624776512384415,0.01784229651093483,-0.001476666540838778,0.011447181925177574,-0.04169083386659622,-0.0915704186897341,-0.04608786106109619,0.01749986782670021
81,-0.02254621989977154,0.026364912819812743,-0.013253176494149397,-0.006622771786332288,-0.00989843551821932,-0.0058950211356201074,-0.010547377181142565,0.04025829113852677,-0.003946457401109656,0.004896304915926965
82,0.018072566017508507,-0.01617761328816414,-0.001673575141467154,0.0013294736854732037,-0.0075677791610360146,0.0014464533887803555,-0.03576667979359627,-0.0005218127073426948,-0.03169427439570427,0.016515718773007393
83,-0.010667156428098679,0.013527081348001957,-0.03792070969939232,-0.013211548328399658,-0.0017637680284678936,-0.005678284913301468,-0.01989094540476799,-0.05341783777551613,-0.013246024027466774,-0.02946743369102478
84,0.01612495817244053,0.015529632568359375,-0.018163150176405907,-0.00575221236795187,0.0004346589557826519,-0.004665817134082317,-0.008457993157207966,-0.0007318105377968319,-0.03264547511935234,-0.010279573500156403
85,0.005467136390507221,-0.01242028921842575,-0.00359081057831645,-0.0036827856674790382,0.00314869312569499,-9.966653306037188e-05,0.012137366458773613,0.0038136426215792376,-0.016340726986527443,0.00768023356795311
86,0.002704920247197151,0.004372056107968092,-0.0016769191715866327,0.0008737268508411944,-0.00376361352391541,0.00476031145080924,-0.015198914334177971,0.008624374270113037,-0.01023232750594616,-0.0003371818456798792
87,0.009608101099729538,-0.00021373189520090818,-0.0005536949029192328,0.006051339209079742,0.0007949937134981155,0.004662373568862677,-0.017445795238018036,-0.011675121685171572,-0.014328375458717346,0.014646009542047977
88,-0.004104292951524258,0.02250707894563675,-0.03610171377658844,0.0035385750234127045,0.0004996054340153933,-0.00410015694797039,-0.004625594709068537,-0.034446657623804854,0.023137860000133514,0.016084153205156326
89,-0.03648145869374275,-0.027153657749295235,-0.03222377598285675,-0.004108322784304619,-0.0055947559885680676,-0.00019337795674800873,0.06512293964624405,-0.010494606628879972,0.013094453141093254,0.006472504232078791
90,0.005275442264974117,0.002750720828771591,-0.011170106939971447,-0.004984631668776274,-0.011594291776418686,0.0019602274987846613,-0.02526528388261795,-0.0032667688845436876,-0.03868766129016876,0.02869434282183647
91,0.013794731348752975,0.05833623185753822,0.013374311849474907,0.004963428247720003,0.005731416866183281,0.002622227417305112,-0.02789241261780262,-0.032363242335462415,2.765539102256298e-05,-0.002252243459224701
92,-0.04513011500239372,0.05092423036694527,0.014236032962799072,-0.026757966727018356,0.006356748752295971,-0.018819620832800865,0.06619522720575333,-0.0030165054450219664,0.10353487730026245,-0.035080764442682266
93,0.01215067133307457,0.0625089704990387,0.016897005960345268,0.006325987633317709,0.006228442303836346,0.0036354740150272846,-0.028388701379299164,-0.03651203600862582,0.005232810974121094,-0.0008311683777719736
94,0.02713945508003235,0.024466462433338165,-0.015219202265143394,-0.0060964017175138,0.001697073457762599,-0.005602238699793816,-0.023864038288593292,0.0013122802526399566,-0.0422222875058651,-0.013787047937512398
95,0.02713945508003235,0.024466462433338165,-0.015219202265143394,-0.0060964017175138,0.001697073457762599,-0.005602238699793816,-0.023864038288593292,0.0013122802526399566,-0.0422222875058651,-0.013787047937512398
96,0.008361443877220154,0.00923054851591587,-0.020238187164068222,-0.005509611219167709,-0.00045514560770243406,-0.004005787428468466,0.002400884870439768,-0.0021725762041422112,-0.02589530125260353,-0.007807348854839802
97,0.01043719332665205,-0.0235043466091156,-0.010163686238229275,0.007106156554073095,-0.0011884812265634537,0.008787903003394604,0.0013051144778728485,-0.0007361195963039753,-0.006548680365085602,0.01890425756573677
98,0.010768508538603783,-0.012029949575662613,-0.01876646652817726,-4.808831727132201e-05,-0.01168387196958065,-0.003353807609528303,-0.057195574045181274,-0.043141748072284464,-0.04849547892808914,0.018148791044950485
99,0.005931551102548838,-0.04221414402127266,0.0007971948944032192,0.0011966174934059381,-0.0016726074973121285,-0.0003398370463401079,0.023728903383016586,0.07030820942406603,-0.01916152983903885,0.03881840780377388
100,0.03547971695661545,-0.04881078749895096,-0.01294648740440607,0.010438458994030952,-0.008390558883547783,0.007495119236409664,-0.05636538192629814,-0.0066073745690414295,-0.03165504336357117,0.03298187628388405
101,0.00410281540825963,0.010473457165062428,-0.0014148157788440585,0.0021837244275957346,-0.004286458715796471,0.005790123250335455,-0.008283152244985104,0.0010840613264508636,0.0036094975657761097,0.015943443402647972
102,0.03380225598812103,-0.007232888601720333,0.026029497385025024,0.014883901923894882,0.010154135525226593,0.015257705003023148,-0.01611054316163063,0.02924117975517283,-0.004584280773997307,0.027845293283462524
103,0.0046280547976493835,-0.023976078256964684,0.0006269481964409351,0.0017788888653740287,-0.009564386680722237,0.0026644787285476923,-0.03418473154306412,-0.04231211558366546,-0.044110484421253204,0.024756330996751785
104,-0.0065349917858839035,-0.021857216954231262,-0.009374789893627167,-0.003132930491119623,-0.009014492854475975,-0.0019775480031967163,0.014800876379013062,0.041259472711263054,-0.009194007143378258,-0.00033307040575891733
105,-0.008265038952231407,-0.0017254212871193886,-0.02167879417538643,-0.010504502803087234,-0.012543602846562862,-0.012170798145234585,-0.008870119228959084,-0.047880512965145006,-0.013829664327204227,-0.023837782442569733
106,-0.007733782287687063,0.005039572715759277,-0.016654308885335922,-0.0023870377335697412,-0.0012166477972641587,-0.0008932724012993276,0.017276635393500328,-0.013762542734410962,-0.0064786626026034355,0.0002737764734774828
107,-0.010348208248615265,0.009548801928758621,-0.01098334789276123,-0.00948382169008255,-0.005689139477908611,-0.008303990587592125,0.00013629987370222807,-0.0064193405200296955,0.004755916073918343,-0.011142216622829437
108,0.02073236182332039,-0.011499226093292236,0.019753292202949524,0.0011419872753322124,-0.0016533108428120613,0.006279428955167532,-0.009458753280341625,0.04173810928689964,0.0012668089475482702,0.026238424703478813
109,-0.021945051848888397,0.006179277319461107,-0.012450849637389183,-0.004801888018846512,-0.004561344161629677,-0.0038282903842628,0.02673039212822914,-0.0093735934071697,-0.006559723988175392,-0.010110486298799515
110,0.01612495817244053,0.015529632568359375,-0.018163150176405907,-0.00575221236795187,0.0004346589557826519,-0.004665817134082317,-0.008457993157207966,-0.0007318105377968319,-0.03264547139406204,-0.010279573500156403
111,-0.0018578744493424892,0.0009388996986672282,-0.022969597950577736,-0.005190268624573946,-0.001626417855732143,-0.003136971266940236,0.016694704070687294,-0.004069095401712471,-0.017009861767292023,-0.00455308984965086
112,-0.005242777056992054,-0.0014624109026044607,-0.01933462545275688,-0.011206669732928276,0.00012991717085242271,0.0007826646324247122,0.026245253160595894,0.03433567553340435,-0.02424171008169651,0.014456622302532196
113,-0.005823901854455471,0.024946214631199837,-0.0029939478263258934,-0.0013548708520829678,-0.00015769386664032936,0.0021769143640995026,0.004835698753595352,-0.01570965281003741,-0.002083567436784506,-0.004714781418442726
114,-0.014945495873689651,-0.009680005721747875,-0.02646765485405922,-0.004781296476721764,-0.0031264410354197025,-0.002024299232289195,0.035000450909137726,-0.006497923906276489,-0.00563051225617528,-0.0003854422830045223
115,-0.03541473671793938,0.045753512531518936,0.008509166538715363,-0.02365703694522381,0.0032981778495013714,-0.015596696175634861,0.05253246799111366,0.004793752151680248,0.07743462920188904,-0.030337773263454437
116,-0.0027384464628994465,-0.025859897956252098,-0.008467191830277443,0.0008063592831604183,-0.007858851924538612,0.00019095951574854553,-0.03143296018242836,-0.04046689882833206,-0.0358610600233078,0.023961320519447327
117,-0.03648145869374275,-0.027153657749295235,-0.03222377970814705,-0.0041083237156271935,-0.00559475552290678,-0.00019337818957865238,0.06512294709682465,-0.01049460485363627,0.013094453141093254,0.00647250609472394
118,0.008318746462464333,-0.010598423890769482,0.0025867698714137077,-0.006158872973173857,-0.006517259869724512,-0.00233365036547184,-0.02626481093466282,0.028810016467796164,-0.013804135844111443,0.004240013659000397
119,-0.03648145869374275,-0.027153657749295235,-0.03222377970814705,-0.0041083237156271935,-0.00559475552290678,-0.00019337818957865238,0.06512294709682465,-0.01049460485363627,0.013094453141093254,0.00647250609472394
120,-0.019805407151579857,0.041652899235486984,0.003914326429367065,-0.019517740234732628,0.004723906982690096,-0.014187982305884361,0.034636642783880234,-0.001499613059602423,0.052458636462688446,-0.027619019150733948
121,0.010153739713132381,-0.02736329473555088,-0.013265463523566723,0.009720629081130028,-0.0038624750450253487,0.0052536604925990105,-0.024847256019711494,0.015334619969263517,-0.03922248259186745,0.02946578525006771
122,0.0024636071175336838,-0.010892558842897415,-0.0054940106347203255,-8.204707410186529e-05,-0.0009637000039219856,-0.0017862115055322647,0.008692309260368347,0.0317641051655587,-0.014012177474796772,0.022438615560531616
123,-0.04125829413533211,0.03874678164720535,0.006945513188838959,-0.02273581549525261,0.00447192694991827,-0.015666568651795387,0.061839647591114044,-0.004492123989817521,0.08510904014110565,-0.028041135519742966
124,0.009055317379534245,-0.02986879087984562,0.003465729532763362,0.0017555986996740103,-0.0005694771534763277,-8.065591100603342e-05,0.015034331008791924,0.060537020786577356,-0.018666699528694153,0.03450438752770424
125,-0.009345367550849915,-0.011230047792196274,-0.004159816540777683,-0.0020201699808239937,-0.000821573892608285,0.004730102140456438,-0.016445092856884003,-0.0030059102721898667,-0.007350827567279339,-0.00219014473259449
126,-0.016720948740839958,-0.011790302582085133,0.004209022503346205,0.006862508598715067,0.003763362066820264,0.00821859110146761,-0.015009080059826374,0.028459883503710863,-0.01908612623810768,0.006637001410126686
127,0.010198716074228287,0.026259545236825943,-0.04255302995443344,-0.011875787749886513,-0.01884826458990574,0.0015742294490337372,-0.008957581594586372,0.032367997263081094,-0.024321995675563812,0.02372286468744278
128,0.023711377754807472,0.00737764872610569,-0.01054629310965538,0.01673990488052368,-0.00078694021794945,0.01589682325720787,-0.012349667027592659,-0.004173207645005257,-0.0508514940738678,0.022633418440818787
129,-0.03648145869374275,-0.027153657749295235,-0.03222377970814705,-0.0041083237156271935,-0.00559475552290678,-0.00019337818957865238,0.06512294709682465,-0.01049460485363627,0.013094453141093254,0.00647250609472394
130,-0.010051553137600422,0.00803470890969038,-0.008443441241979599,-0.010832312516868114,-0.0056331949308514595,-0.008770078420639038,-0.008293986320495605,-0.005280541434226417,-0.0029642044100910425,-0.004997739568352699
131,-0.008283866569399834,-0.0042749568819999695,-0.024687133729457855,-0.004989465698599815,-0.00236292602494359,-0.0025906520895659924,0.025682782754302025,-0.005261644852242213,-0.011422628536820412,-0.002506786258891225
132,-0.026202881597004082,-0.05846739948292584,-0.05430973404319204,0.013474143244633148,-0.00933838721003147,0.0061608303421863,0.015906376954972233,-0.1034737577658453,-0.013388719599117475,0.008442980239605925
133,-0.0022253182803130787,0.027418458328158896,0.027070516629670985,0.004384760808724037,0.020196940977855817,-0.0014914638411776709,0.06094929241861419,0.03766753111629388,0.0076963826901428065,-0.023845355038782656
134,0.008479831740260124,-0.0329461507499218,-0.008033262565732002,0.010638980194926262,0.0019487278768792748,0.00877920351922512,-0.026824764907360077,0.012730783989849798,-0.013491073623299599,0.035843055695295334
135,0.028041601181030273,-0.049086615443229675,-0.026868481189012527,-0.00039641791954636574,-0.01383944135159254,0.004606463015079498,0.0030240295454859734,0.038271134139921996,-0.02511845901608467,0.023264911025762558
136,0.0004206367302685976,0.013025125488638878,0.014171335846185684,-0.009785913862287998,-0.010043376125395298,-0.009271413087844849,-0.044740140438079834,-0.00404508239368405,-0.02157072350382805,0.014266150072216988
137,-0.009435336105525494,-0.012517880648374557,-0.028264958411455154,-0.00765541335567832,-0.011564725078642368,-0.005733557976782322,-0.00048808392602950335,-0.018740108345051007,-0.017210111021995544,0.002823358168825507
138,-0.024217210710048676,-0.01720280386507511,-0.028945788741111755,-0.004491565749049187,-0.0041891043074429035,-0.0012360460823401809,0.04796886816620827,-0.008218581479043826,0.002431000117212534,0.002567055867984891
139,0.03907734900712967,-0.006771346554160118,0.007441754452884197,0.006462025921791792,-0.0023993407376110554,0.005149744916707277,-0.01925053633749485,-0.0069290974261699625,-0.038101743906736374,0.011237391270697117
140,0.03380632702690066,0.02098817015452197,-0.029435507789981902,-0.0013115401599265134,-0.00768483374995556,-0.004573411909465272,0.017336270874457365,-0.06123407989700007,0.0018729358899561292,0.008582024225193096
141,-0.004606039263308048,-0.0023644333705306053,-0.01851751282811165,-0.003843483980745077,-0.001731162890791893,-0.0017070651520043612,0.014302044175565243,-0.009808556397559794,-0.01811373420059681,0.004256329499185085
142,0.027260536327958107,-0.0012155696749687195,-0.002952698152512312,0.016492947936058044,0.003876513335853815,0.012653501704335213,-0.00395014276728034,0.023175108507462145,-0.006938611622899771,0.022703031077980995
143,-0.009233886376023293,0.007337382063269615,-0.011353746056556702,-0.0004323491593822837,-0.0009946123464033008,0.0005031554028391838,0.010983601212501526,-0.021580666169725645,-0.0041519696824252605,0.004507959820330143
144,0.02713945508003235,0.024466462433338165,-0.015219202265143394,-0.0060964017175138,0.001697073457762599,-0.005602238699793816,-0.023864038288593292,0.0013122802526399566,-0.0422222875058651,-0.013787047937512398
145,0.002457584021613002,-0.05260401964187622,-0.02530577965080738,0.010694868862628937,-0.005576662719249725,0.0034748127218335867,0.0035706129856407642,0.00989870024727867,-0.03105008229613304,0.0282626673579216
146,0.0282292477786541,-0.018915090709924698,-0.004607466049492359,0.00030114944092929363,-0.01189399790018797,-0.0036453509237617254,-0.06816911697387695,-0.03747157739451053,-0.05131138116121292,0.0173899307847023
147,0.01200155820697546,0.025153595954179764,-0.01674983836710453,-0.004148269072175026,-0.005965014919638634,0.0003254279727116227,-0.009157054126262665,-0.01330801833258313,-0.00806328747421503,0.005988827906548977
148,0.009249396622180939,-0.005915042012929916,-0.00044459791388362646,0.002800775459036231,-0.008057706989347935,0.0014867867575958371,-0.03383468836545944,-0.026193381585276038,-0.038816459476947784,0.02173091098666191
149,-0.016031192615628242,0.005575487855821848,-0.00981881096959114,-0.00880472268909216,-0.0007731926161795855,-0.005658697336912155,0.018782159313559532,-0.014435707111520006,0.008805656805634499,-0.003427717834711075
150,0.011933950707316399,0.012129176408052444,-0.019283320754766464,-0.005621247924864292,-4.568742588162422e-05,-0.004309511743485928,-0.0025960062630474567,-0.00150958596254803,-0.02900150790810585,-0.008944980800151825
151,0.010762805119156837,0.01140725426375866,0.013327263295650482,0.0013658776879310608,-0.00949324294924736,3.303703851997852e-05,-0.057247914373874664,-0.02830737228512124,-0.0636557787656784,0.04580678790807724
152,0.0001619915710762143,-0.03188491612672806,-0.015589602291584015,0.010361311957240105,0.00425639096647501,0.007959311828017235,-0.02320644073188305,-0.03306127957355737,-0.01851728744804859,0.010182804428040981
153,0.014671598561108112,-0.011664011515676975,-0.008916988037526608,0.008654510602355003,-0.00713333347812295,0.002113029360771179,-0.023704392835497856,-0.033551706719565685,-0.03312318027019501,0.014986054971814156
154,0.02519298119245825,-0.002229924869445412,0.019491739771030043,0.004719230399968728,0.001584123319184829,0.007748565824040326,0.01451428264026756,-0.028859654344329442,0.021799773199452914,0.009273059355172912
155,0.014854654669761658,-0.03355110436677933,0.005638868547976017,0.006820185575634241,-0.008797314018011093,0.004674224182963371,-0.03842149302363396,-0.01256676907073334,-0.03083726391196251,0.02271971106529236
156,0.018010618165135384,-0.01631963811814785,-0.01804855838418007,0.00558222271502018,-0.010670468211174011,0.003058307571336627,-0.03032362088561058,-0.0614185242067013,-0.03310810402035713,0.026027122512459755
157,0.037774138152599335,0.016642998903989792,-0.0010404097847640514,0.0198577381670475,0.011192791163921356,0.011832085438072681,-0.035223957151174545,-0.021298996503013635,0.001886781887151301,0.024255676195025444
158,0.033841051161289215,-0.034771062433719635,-0.022799724712967873,0.01541755348443985,0.0002811504527926445,0.013804137706756592,-0.012542099691927433,-0.021181191427360538,-0.028031639754772186,0.035301048308610916
159,0.007408040575683117,-0.027646007016301155,-0.017573215067386627,-0.0030009415931999683,-0.009484473615884781,0.0024995452258735895,-0.022763757035136223,-0.00951243799273444,-0.02127000316977501,0.010454459115862846
160,-0.0007287622429430485,-0.009590426459908485,-0.0284250658005476,-0.0035524736158549786,-0.006772709544748068,-0.0006257302011363208,-0.02026376873254776,-0.026147085807361685,-0.030744386836886406,0.011456474661827087
161,-0.03648145869374275,-0.027153657749295235,-0.03222377970814705,-0.0041083237156271935,-0.00559475552290678,-0.00019337818957865238,0.06512294709682465,-0.01049460485363627,0.013094453141093254,0.00647250609472394
162,0.024884335696697235,-0.0037673148326575756,-0.020153507590293884,0.014104136265814304,0.00015875801909714937,0.018089093267917633,-0.017896877601742744,-0.07402584763384804,-0.07113529741764069,0.04825732111930847
163,-0.03173272684216499,0.02555634081363678,-0.0071688462048769,-0.01001070812344551,-0.0005555085372179747,-0.0003788490721490234,0.02377045713365078,-0.01272949961682368,-0.0012115486897528172,0.0015944535844027996
164,-0.028512392193078995,0.017146453261375427,-0.006715303286910057,-0.018705273047089577,-0.005518799647688866,-0.011486014351248741,0.04084557667374611,0.025430617747965307,0.031042128801345825,-0.014719583094120026
165,0.049620695412158966,-0.029766753315925598,-0.022284600883722305,0.018840795382857323,0.003704917849972844,0.016658004373311996,-0.02336430549621582,-0.017619721870755427,-0.03598037362098694,0.0369960255920887
166,0.0345056988298893,-0.028514452278614044,0.005024612881243229,0.020264171063899994,-0.00020180188585072756,0.01699989289045334,-0.0406639389693737,-0.008403114313837294,-0.029350703582167625,0.04000433534383774
167,0.006982871796935797,-0.00429276330396533,0.0023590070195496082,-0.0019318258855491877,0.000950732734054327,0.00016166444402188063,0.006432043854147196,-0.01765163070711776,0.01855882816016674,0.0078092459589242935
168,0.00999488029628992,-0.01059040892869234,-0.0335160493850708,-0.0009197623585350811,-0.013072135858237743,0.0017626071348786354,-0.032818470150232315,0.006989000843651476,-0.03898539021611214,0.02074394002556801
169,-0.011542266234755516,0.02711651660501957,-0.006809701211750507,-0.00588839128613472,-8.708580571692437e-05,-0.003735631937161088,0.004081776365637779,0.05266995449309363,0.004569426644593477,-0.008828696794807911
170,0.02713945508003235,0.024466462433338165,-0.015219202265143394,-0.0060964017175138,0.001697073457762599,-0.005602238699793816,-0.023864038288593292,0.0013122802526399566,-0.0422222875058651,-0.013787047937512398
171,-0.0075508002191782,-0.001738812541589141,0.004529367201030254,0.0006055040284991264,-0.006346666254103184,0.001516797230578959,-0.014090429991483688,-0.0006980704085049454,-0.011032179929316044,0.01407119445502758
172,0.008361443877220154,0.00923054851591587,-0.020238187164068222,-0.005509611219167709,-0.00045514560770243406,-0.004005787428468466,0.002400884870439768,-0.0021725762041422112,-0.02589530125260353,-0.007807348854839802
173,0.004597654566168785,-0.030063770711421967,-0.007915284484624863,0.00369926355779171,-0.010389852337539196,0.003910420462489128,-0.03239962086081505,-0.016879654088370603,-0.03087026998400688,0.02548261359333992
174,-0.03648145869374275,-0.027153657749295235,-0.03222377970814705,-0.0041083237156271935,-0.00559475552290678,-0.00019337818957865238,0.06512294709682465,-0.01049460485363627,0.013094453141093254,0.00647250609472394
175,0.02954879403114319,-0.02254689857363701,0.008929429575800896,0.003409342374652624,-0.012053689919412136,0.005083950236439705,-0.04154740646481514,0.0009374561219386325,-0.039265114814043045,0.02506851777434349
176,0.00592346815392375,-0.038348279893398285,-0.006180414929986,0.006685616914182901,-0.004744997248053551,0.003445303300395608,-0.013535166159272194,0.007998462272178552,-0.03796502202749252,0.03428152576088905
177,-0.0013389312662184238,-0.010847572237253189,-0.0019729461055248976,0.009046290069818497,0.004264534916728735,0.009388769045472145,0.04314776510000229,0.01170858794729322,0.007491562515497208,0.012365497648715973
178,0.0025420794263482094,0.028883645310997963,-0.04453696310520172,-0.012755406089127064,-0.017534315586090088,0.004921475891023874,0.008286381140351295,0.014117742518996251,-0.015351155772805214,0.019380563870072365
179,-0.04513011500239372,0.05092422291636467,0.014236035756766796,-0.026757966727018356,0.00635675061494112,-0.018819620832800865,0.06619523465633392,-0.00301650245708851,0.10353486984968185,-0.035080768167972565
180,-0.04764074087142944,0.0046263751573860645,-0.017732959240674973,-0.003204111475497484,-0.004960945807397366,-0.003447833238169551,0.03814822807908058,0.003167797723136727,0.0017902206163853407,-0.027831068262457848
181,-0.0007571543101221323,-0.010815268382430077,-0.01942824013531208,-0.0015609082765877247,-0.004689617548137903,0.004528112709522247,-0.010458946228027344,-0.003913435705720461,-0.01628768816590309,0.003733942052349448
182,0.001392164034768939,0.027348123490810394,-0.004996488802134991,0.0003685519041027874,0.0017052018083631992,0.00035750161623582244,7.921562064439058e-05,-0.020059120501883337,-0.003536057658493519,-0.0017133606597781181
183,-0.03457675874233246,-0.027345262467861176,-0.03005800023674965,-0.0036003475543111563,-0.005632589105516672,2.08740821108222e-05,0.05728795751929283,-0.013588558213328748,0.00897600781172514,0.008499553427100182
184,0.013900860212743282,-0.012287930585443974,0.002327902941033244,-0.00226834905333817,-0.006213591434061527,0.0006482686731033027,-0.008542483672499657,-0.022827240419798077,-0.03343729302287102,0.01659536175429821
185,0.015335784293711185,0.010781354270875454,0.0243087075650692,0.025060847401618958,0.012623975053429604,0.0102889034897089,0.019238246604800224,-0.012998930568191461,0.007048515602946281,0.02576451748609543
186,0.022850004956126213,-0.026319943368434906,-0.004015767015516758,0.006704920902848244,-0.003248268272727728,0.008458387106657028,-0.007079996634274721,-0.006281663058980525,-0.01900424435734749,0.03295676410198212
187,-0.0005684671923518181,-0.016521068289875984,-0.01458634715527296,0.02224261313676834,0.006966588087379932,0.02078426070511341,-0.008706474676728249,-0.05282978068701104,-0.022229112684726715,0.028041554614901543
188,0.006123287603259087,-0.01607494428753853,0.013448336161673069,0.0035586629528552294,0.003005622886121273,0.0023949735332280397,-0.006081101018935442,0.019814184755425592,0.003010873682796955,0.028707679361104965
189,0.006538315676152706,0.007012724876403809,-0.007309305481612682,0.005161701701581478,0.0021116198040544987,0.002475798362866044,-0.01843547262251377,-0.003895258346778354,0.004247766919434071,0.02290373481810093
190,0.03215588629245758,-0.029004786163568497,-0.007341558579355478,0.013153783045709133,0.007144598290324211,0.02627953514456749,-0.04345475137233734,-0.00392682184390683,-0.023524679243564606,0.05512605607509613
191,-0.0016833629924803972,0.011011036112904549,-0.015600251033902168,-0.003779000137001276,-0.013713769614696503,-0.0016500753117725253,-0.012777729891240597,-0.022093537829461534,-0.01934729889035225,0.00060632498934865
192,-0.008694521151483059,-0.049389734864234924,-0.01856202818453312,0.004558644723147154,-0.0028912005946040154,-0.0038521767128258944,0.008692225441336632,0.008424928352843213,-0.01155981607735157,0.025158707052469254
193,-0.02532651461660862,0.03575762361288071,0.013139810413122177,-0.015478847548365593,-0.0027203806675970554,-0.008870724588632584,0.05178156867623329,0.014268906199421798,0.025886747986078262,-0.007662043906748295
194,-0.019059408456087112,0.0036854634527117014,-0.017107585445046425,-0.015740036964416504,-0.00996766984462738,-0.010747741907835007,-0.009303459897637367,-0.04089406232817962,-0.00679746875539422,-0.018068550154566765
195,-0.03648145869374275,-0.027153657749295235,-0.03222377598285675,-0.004108322784304619,-0.0055947559885680676,-0.00019337795674800873,0.06512293964624405,-0.010494606628879972,0.013094453141093254,0.006472504232078791
196,-0.02246830239892006,0.022155970335006714,-0.0048417383804917336,-0.008206467144191265,0.0014249185333028436,-0.005026280879974365,0.035719696432352066,-0.01424530262359843,0.034148164093494415,-0.008908191695809364
197,0.002601244952529669,-0.00946730189025402,-0.005733678583055735,-0.0024282382801175117,0.00010940746869891882,0.0034469119273126125,0.011935361661016941,-0.0029837054775508844,-0.029477588832378387,-0.00350721413269639
198,0.001626230776309967,0.009912430308759212,-0.0008654579287394881,0.0057580797001719475,0.0005220999009907246,0.007458212785422802,-0.019985558465123177,-0.04289528563874628,-0.028411753475666046,0.008779472671449184
199,-0.003205872606486082,0.008997134864330292,-0.0016753547824919224,0.0017788592958822846,0.004967197775840759,0.002212342107668519,0.026360882446169853,0.03976336140266888,0.021850962191820145,0.009564755484461784
200,0.002297484315931797,-0.018028324469923973,0.007544712629169226,0.014289679937064648,0.0001249879423994571,0.010670044459402561,-0.021838011220097542,-0.044830917208553,-0.009065698832273483,0.03116600774228573
201,-0.021236581727862358,-0.028687363490462303,-0.014889341779053211,-4.2591593228280544e-05,-0.005897562485188246,0.0015214486047625542,0.0024131755344569683,-0.03525800961953418,-0.019868800416588783,0.022696591913700104
202,0.005461407359689474,-0.01513146236538887,0.006088294554501772,-0.008857378736138344,-0.011716636829078197,0.0002617697464302182,-0.03956681862473488,0.025273379431607953,0.0010581021197140217,0.014337485656142235
203,-0.008283866569399834,-0.0042749568819999695,-0.024687133729457855,-0.004989465698599815,-0.00236292602494359,-0.0025906520895659924,0.025682782754302025,-0.005261644852242213,-0.011422628536820412,-0.002506786258891225
204,-0.015137466602027416,-0.015495738945901394,-0.023518521338701248,-0.0033472655341029167,-0.005365913733839989,-0.0030520581640303135,0.028725549578666687,0.008124532230423934,-0.00817993376404047,0.01355576328933239
205,0.02462582476437092,-0.023226547986268997,-0.016718298196792603,0.0019430655520409346,-0.008147998712956905,0.002808516612276435,-0.01566830649971962,-0.024766686882073445,-0.026224466040730476,0.03231416642665863
206,-0.011762555688619614,-0.01358669064939022,-0.019427889958024025,-0.002760719507932663,-0.0037185081746429205,-0.0008895632345229387,0.011231162585318089,-0.01878610320822582,-0.017596840858459473,0.008439483121037483
207,-0.005990843288600445,0.0009828738402575254,-0.019477158784866333,-0.005256637930870056,-0.005597282201051712,-0.0059531088918447495,-0.0020127450115978718,-0.01830763868098878,-0.005679923575371504,-0.01599324867129326
208,0.03452283504522865,0.025433846557115426,0.003123406358169288,0.005963968677454029,-0.0030529403439425317,-0.0074864543848260565,-0.015734989594345085,0.014689333778225996,-0.005259425651793617,-0.02069027365418286
209,-0.04866117238998413,0.023241357877850533,0.0018749483861029148,-0.02199905924499035,-0.015745140612125397,-0.02763960137963295,0.01234755665063858,-0.05281942071433179,0.04016667604446411,-0.0530247800052166
210,0.015756480395793915,0.057647496461868286,0.01676134020090103,0.011027861386537552,0.009825739078223705,0.006270932964980602,-0.009358190931379795,-0.029053507145736766,0.010915632359683514,0.002369290217757225
211,0.021701790392398834,-0.033748116344213486,-0.006526891607791185,0.016357319429516792,-0.001991589553654194,0.0035908531863242388,-0.043358705937862396,-0.016479384412595527,-0.046651482582092285,0.031249765306711197
212,-0.03648145869374275,-0.027153657749295235,-0.03222377598285675,-0.004108322784304619,-0.0055947559885680676,-0.00019337795674800873,0.06512293964624405,-0.010494606628879972,0.013094453141093254,0.006472504232078791
213,0.032270289957523346,-0.034210462123155594,-0.0005117596592754126,0.01403200626373291,0.0014804127858951688,0.015470894053578377,-0.06398759037256241,-0.06434283006279633,-0.02943979576230049,0.03381918743252754
214,0.020350178703665733,-0.039175134152173996,0.00271039386279881,0.0066168541088700294,-0.006371419411152601,0.004228889010846615,-0.05670894309878349,-0.01046407464558803,-0.039236411452293396,0.03377937525510788
215,0.005082671996206045,-0.07390028238296509,-0.0254367645829916,0.017849907279014587,-0.004121414385735989,0.0022310130298137665,-0.010102970525622368,0.023929472113510996,-0.04799164831638336,0.043525613844394684
216,-0.0019129731226712465,0.0002790740691125393,-0.008429705165326595,0.0003669518046081066,-0.0023266698699444532,0.003799926023930311,-0.0041171894408762455,-0.010967379598315315,-0.008776029571890831,-0.0006397954421117902
217,0.004714186303317547,-0.024088483303785324,0.0122758774086833,0.005277648568153381,-0.00873516034334898,-0.0015659164637327194,-0.013364494778215885,-0.037940338209556314,-0.011121757328510284,0.008070053532719612
218,0.008003128692507744,-0.05708464980125427,-0.027058066800236702,0.012423668056726456,-0.006738199852406979,0.00025759264826774597,-0.020162435248494148,0.019373997833607964,-0.04153401777148247,0.03433492034673691
219,-0.04023357108235359,0.04229183495044708,0.013519225642085075,-0.020858995616436005,0.006050500087440014,-0.013325203210115433,0.059212904423475266,0.004790109124559484,0.08738881349563599,-0.027772467583417892
220,0.014467036351561546,-0.026213224977254868,0.010318080894649029,0.008042184635996819,-0.003232537768781185,0.005767208524048328,-0.04502028599381447,-0.01194719032281855,-0.017807966098189354,0.027035322040319443
221,0.0012071742676198483,0.004303259775042534,-0.03084852546453476,-0.0075472621247172356,-0.005049081519246101,-0.00475721200928092,-0.01913384720683098,-0.024141482751551573,-0.012940158136188984,0.0015283767133951187
222,-0.047244664281606674,-0.019690893590450287,0.01272173598408699,-0.012976611964404583,-0.019394181668758392,-0.006352805532515049,0.040237147361040115,0.033857429410858036,-0.007744065020233393,0.0043694982305169106
223,0.03691567853093147,-0.02344261109828949,-0.01148055400699377,-0.000718412920832634,-0.01302536390721798,-0.000200817477889359,-0.04088003933429718,-0.030478708052321373,-0.037828754633665085,0.0398106686770916
224,-0.004722961224615574,0.013576831668615341,-0.015915781259536743,-0.004942148923873901,-0.001925721182487905,-0.003960462287068367,0.005323611665517092,-0.01156972296277237,-0.011546717956662178,-0.007149622775614262
225,-0.008283866569399834,-0.0042749568819999695,-0.024687133729457855,-0.004989465698599815,-0.00236292602494359,-0.0025906520895659924,0.025682782754302025,-0.005261644852242213,-0.011422628536820412,-0.002506786258891225
226,0.019009971991181374,-0.005370507016777992,0.014695470221340656,0.0017685687635093927,-0.005323753692209721,0.007398463319987059,-0.033224206417798996,-0.011828618391799276,-0.005468028597533703,0.00708241481333971
227,0.008747397921979427,-0.020688308402895927,0.004933190532028675,-0.00734669528901577,-0.00801951251924038,-0.0027142371982336044,-0.024303656071424484,0.0514858435821617,-0.0035459985956549644,0.01595054566860199
228,-0.0018578744493424892,0.0009388996986672282,-0.022969597950577736,-0.005190268624573946,-0.001626417855732143,-0.003136971266940236,0.016694704070687294,-0.004069095401712471,-0.017009861767292023,-0.00455308984965086
229,-0.005696597509086132,0.0011982446303591132,-0.008813604712486267,-0.006950355134904385,-0.006449338048696518,-0.006244287826120853,-0.01875920593738556,-0.02094927057260837,-0.011221703141927719,0.0020940101239830256
230,-0.01592981442809105,-0.01284385658800602,-0.013722198083996773,0.00019746331963688135,-0.005256196483969688,0.0009059666190296412,0.01144233625382185,-0.02906753066410418,-0.004725564271211624,0.013590858317911625
231,-0.005399523302912712,-0.0019346850458532572,-0.023916203528642654,-0.0050795977003872395,-0.002032341668382287,-0.0028358702547848225,0.02164844423532486,-0.004726362390578875,-0.013930488377809525,-0.0034252782352268696
232,0.025951527059078217,-0.03553115203976631,-0.017580701038241386,0.008389173075556755,-0.0007020889315754175,0.013625551015138626,-0.042865414172410965,0.06483110227075048,-0.022733835503458977,0.015888027846813202
233,0.008772117085754871,-0.0047642262652516365,0.000807191536296159,0.0008298296015709639,-0.0031083482317626476,0.0030097931157797575,-0.017633289098739624,0.00398637120495806,-0.009070802479982376,0.004858090542256832
234,0.017731923609972,-0.03187328949570656,0.006150820292532444,0.012114984914660454,-0.0016238783719018102,0.01390523836016655,-0.026003200560808182,0.0056999438088172275,-0.0030722469091415405,0.020110465586185455
235,0.01215067133307457,0.0625089704990387,0.016897005960345268,0.006325987633317709,0.006228442303836346,0.0036354740150272846,-0.028388701379299164,-0.03651203600862582,0.005232810974121094,-0.0008311683777719736
236,0.031867615878582,-0.022995157167315483,0.010754561051726341,0.026995263993740082,0.004129787907004356,0.02409849315881729,-0.013163539581000805,0.00038949114067356226,-0.03248969092965126,0.043543796986341476
237,0.00023546069860458374,0.009658086113631725,-0.004797475412487984,0.006115279626101255,0.0024194319266825914,0.002239687368273735,0.011542698368430138,-0.021012674690227478,0.008954407647252083,0.01201505959033966
238,0.02713945508003235,0.024466462433338165,-0.015219202265143394,-0.0060964017175138,0.001697073457762599,-0.005602238699793816,-0.023864038288593292,0.0013122802526399566,-0.0422222875058651,-0.013787047937512398
239,0.009414656087756157,-0.00851331278681755,0.0031809431966394186,0.0004885938833467662,-0.006280776113271713,-0.0012626985553652048,-0.0183173269033432,-0.014873940576362137,-0.02144542895257473,0.027467740699648857
240,-0.017657143995165825,0.00017576059326529503,-0.023506848141551018,-0.010351795703172684,-0.00927826389670372,-0.017877455800771713,0.004667649045586586,-0.010057741523451035,-0.005608575418591499,-0.016548726707696915
241,-0.01994156464934349,-0.02424049749970436,-0.02555309422314167,-0.00033569452352821827,-0.0029153157956898212,0.0011182581074535847,0.05282024294137955,-0.020761064333058788,0.0016980292275547981,0.007142023649066687
242,-0.012112490670443713,0.00178169422767801,-0.019727600239789176,-0.022362969819719504,-0.01986210245120394,-0.016563076693734875,0.015191804877439041,-0.046045865406527824,-0.006633028691420797,-0.005221751172258997
243,-0.017690733075141907,0.007364925462752581,-0.018947754055261612,-0.015095779672265053,-0.015367265790700912,-0.013632607646286488,-0.014813316985964775,-0.04610875930680646,-0.028397087007761,-0.026221131905913353
244,0.02713945508003235,0.024466462433338165,-0.015219202265143394,-0.0060964017175138,0.001697073457762599,-0.005602238699793816,-0.023864038288593292,0.0013122802526399566,-0.0422222875058651,-0.013787047937512398
245,0.027481824159622192,-0.01147809624671936,0.0021937976125627756,0.01345022115856409,-0.004344749264419079,0.009133533574640751,-0.0502169206738472,0.015547547299304312,-0.025362655520439148,0.031212933361530304
246,-0.006707247346639633,-0.005637845024466515,-0.021745862439274788,-0.00417555496096611,-0.002571819117292762,-0.002152504865080118,0.015612502582371235,-0.01021270846604819,-0.016538774594664574,0.000996921444311738
247,0.01333764847368002,-0.012701399624347687,-0.00736577482894063,0.0061299558728933334,0.0015826534945517778,0.009874743409454823,0.019886426627635956,0.01834463461841133,0.00859852135181427,0.010926952585577965
248,0.004706333391368389,0.0010368759976699948,-0.01622895337641239,-0.003687391523271799,-0.0016449764370918274,-0.0025628311559557915,-0.00804958026856184,-0.013226718952868755,-0.03012828156352043,0.0012829509796574712
249,0.011925800703465939,0.038656216114759445,-0.0019715353846549988,-0.003737875260412693,0.0030741319060325623,-0.0031728558242321014,-0.017977779731154442,-0.016886046608012743,-0.008506023325026035,-0.007974313572049141
250,0.031950607895851135,-0.03555705025792122,-0.027626603841781616,0.014908364042639732,-0.0007023675716482103,0.013980190269649029,-0.01592141203582287,-0.007107728018372951,-0.03387710079550743,0.038790374994277954
251,-0.002722958568483591,0.004446022212505341,-0.017760341987013817,-0.008777518756687641,-0.007838155142962933,-0.009324830025434494,-0.009833794087171555,-0.009226943316071403,-0.013370211236178875,-0.01280249748378992
252,0.007982230745255947,-0.012084230780601501,0.028455886989831924,0.017473973333835602,-0.003599096555262804,0.01048208773136139,-0.03350929170846939,0.004484182124405595,-0.015383141115307808,0.042909253388643265
253,0.0009900315199047327,-0.01815473474562168,0.00608791271224618,-0.011306325905025005,-0.018250178545713425,-0.0052978405728936195,-0.04881548136472702,0.07009800636141222,-0.010176792740821838,0.034701157361269
254,-0.006336606107652187,0.01954137161374092,0.0026875301264226437,-0.00590959656983614,0.002307356335222721,-0.003596084425225854,0.018418436869978905,-0.008479832312203273,0.028360361233353615,-0.005932379513978958
255,0.011770382523536682,-0.05260634422302246,-0.0015614696312695742,0.006293782498687506,-0.012586710043251514,0.0030991584062576294,-0.04937610402703285,-0.025543167800912682,-0.03180568665266037,0.03798808157444
256,-0.0026999192778021097,0.02363731898367405,-0.02704969234764576,-0.00937603134661913,-0.008936721831560135,0.006028379313647747,0.016240356490015984,0.031452076783020026,0.016672436147928238,0.002700554672628641
257,0.01497159618884325,0.028153184801340103,0.006940220482647419,0.014546051621437073,0.014332645572721958,0.012345975264906883,-0.004943731240928173,0.019676674984815064,0.029780615121126175,0.02074221335351467
258,-0.008323103189468384,-0.007660871837288141,0.0016987407580018044,-0.01504951249808073,-0.00775575265288353,-0.009934226050972939,-0.01141948439180851,-0.009386958591902198,-0.014672654680907726,-0.009881073608994484
259,0.012227891013026237,-0.009198891930282116,-0.004579382948577404,0.0044227708131074905,-0.003082611598074436,0.004481523297727108,-0.01892109401524067,-0.02297175012056829,-0.014053462073206902,0.022852454334497452
260,0.002594688441604376,0.00455157645046711,-0.021779516711831093,-0.005329407751560211,-0.001116093946620822,-0.0035155159421265125,0.010466881096363068,-0.0032427820299199372,-0.020881257951259613,-0.0059709707275033
261,0.026027293875813484,-0.03031439520418644,0.006852875929325819,0.013197561725974083,-0.004164139274507761,0.00746232969686389,-0.03530891612172127,-0.03455660160005432,-0.041823990643024445,0.029245072975754738
262,0.0003863822785206139,-0.007435881998389959,-0.03297845274209976,-0.009846953675150871,-0.004773655906319618,-0.004982140846550465,-0.007462161127477884,-0.013791451725014,-0.025938507169485092,0.004089731723070145
263,-0.02100597321987152,0.030131332576274872,-0.0009915807750076056,-0.01157723180949688,0.0027065458707511425,-0.007834050804376602,0.03391001746058464,-0.01087600224367179,0.040343768894672394,-0.014924902468919754
264,0.0021338341757655144,-0.061370670795440674,-0.0298620592802763,0.011499921791255474,-0.006783453747630119,-0.0015971200773492455,-0.00922614336013794,0.02297675907750326,-0.042055994272232056,0.03124747984111309
265,0.005290130618959665,0.017481397837400436,0.0020090455655008554,0.0023218814749270678,0.00031944678630679846,0.0013986617559567094,-0.030700059607625008,-0.034832794563941734,-0.02256821095943451,0.010314014740288258
266,-0.0021322746761143208,-0.02665485069155693,-0.008166223764419556,0.001339921378530562,-0.005668047349900007,-0.00030775682535022497,0.021543117240071297,-0.0032857318965737823,-0.019166002050042152,0.01711641438305378
267,-0.013951181434094906,-0.030640795826911926,-0.02634265273809433,-0.0025104135274887085,-0.013236746191978455,0.000497271423228085,-0.010607708245515823,0.02779488269336438,-0.039758242666721344,0.04088275134563446
268,-0.01743440143764019,0.012677117250859737,-0.009660922922194004,-0.010051209479570389,-0.006550854071974754,-0.00852164626121521,-0.00026985350996255875,-0.009477001782454487,-0.006488078739494085,-0.004732065834105015
269,-0.03187672048807144,-0.00896339863538742,-0.008451718837022781,-0.011885980144143105,-0.008805188350379467,-0.01112687960267067,0.021884389221668243,-0.03723913539962898,0.027070563286542892,-0.010218694806098938
270,-0.004330737981945276,0.016797330230474472,-0.036999575793743134,-0.014234831556677818,-0.00848364271223545,-0.006550178863108158,0.009095747955143452,-0.0370235135671026,-0.013384015299379826,-0.004648780450224876
271,0.01506809052079916,-0.022771481424570084,-0.015023943036794662,0.006216790527105331,-0.004502207972109318,0.006288302130997181,-0.00868128426373005,-0.037730473831735875,-0.019620880484580994,0.02420254610478878
272,-0.028111579211831123,-0.027029851453592,-0.03980088227799249,0.009840360622203592,0.0010736935016432744,0.010411591323784612,-0.010195466661465622,0.03212087678058499,0.02801358131121388,-0.020056366303818705
273,0.005794943310320377,-0.04277516528964043,-0.025723109021782875,0.010978770442306995,0.0011055702343583107,0.008701279759407043,-0.022366084158420563,-0.03723088175462019,-0.0199295561760664,0.01632487028837204
274,0.011933950707316399,0.01212917547672987,-0.019283320754766464,-0.005621247924864292,-4.568742588162422e-05,-0.004309511743485928,-0.0025960062630474567,-0.00150958596254803,-0.029001504182815552,-0.008944980800151825
275,0.032027117908000946,0.033492185175418854,0.01870020292699337,0.021204205229878426,0.009258568286895752,0.01671961322426796,-0.0313759408891201,-0.027061022285883737,-0.015616470947861671,0.021876808255910873
276,-0.008283866569399834,-0.0042749568819999695,-0.024687133729457855,-0.004989465698599815,-0.00236292602494359,-0.0025906520895659924,0.025682782754302025,-0.005261644852242213,-0.011422628536820412,-0.002506786258891225
277,0.02733401395380497,-0.02555946260690689,-0.014954855665564537,0.008838464505970478,-0.0009136610897257924,0.007686426397413015,-0.02177175134420395,-0.009757478423327656,-0.03066854178905487,0.025006400421261787
278,0.012003352865576744,-0.027633486315608025,0.01415493804961443,-0.0012504460755735636,-0.008493088185787201,-0.0026745558716356754,-0.03112202323973179,-0.03399374102208996,-0.055164169520139694,0.0048515526577830315
279,-0.029839634895324707,-0.02649574540555477,-0.011214316822588444,-0.009242210537195206,-0.006976990960538387,-0.010026369243860245,0.020989935845136642,-0.014481239944670442,0.00657034944742918,-0.0027337167412042618
280,-0.00014526117593050003,0.00027387274894863367,-0.0056381067261099815,0.0019556782208383083,-0.006435922347009182,0.0011664158664643764,-0.02435668557882309,-0.009285932631577393,-0.009493029676377773,-0.0015784420538693666
281,0.02600865811109543,0.01663823425769806,0.005745396483689547,0.008423369377851486,0.001741278450936079,0.009252410382032394,-0.03219509497284889,-0.016556384252445325,-0.005877112504094839,0.015487432479858398
282,-0.01749463751912117,0.013078455813229084,-0.00986077357083559,-0.013355660252273083,-0.004387132357805967,-0.0048512741923332214,0.0028685987927019596,0.021574394685737915,-0.007719329558312893,-0.0017572621582075953
283,0.007896694354712963,0.03670841455459595,-0.0003203925443813205,0.0011374249588698149,0.002958918921649456,0.00045211048563942313,-0.011091593652963638,-0.021701758371928514,-0.006392232142388821,-0.003119227010756731
284,0.02713945508003235,0.024466462433338165,-0.015219202265143394,-0.0060964017175138,0.001697073457762599,-0.005602238699793816,-0.023864038288593292,0.0013122802526399566,-0.0422222875058651,-0.013787047937512398
285,0.008361444808542728,0.00923054851591587,-0.020238187164068222,-0.005509611219167709,-0.00045514560770243406,-0.004005787428468466,0.002400884870439768,-0.0021725762041422112,-0.025895297527313232,-0.007807348854839802
286,-0.03648145869374275,-0.027153657749295235,-0.03222377970814705,-0.0041083237156271935,-0.00559475552290678,-0.00019337818957865238,0.06512294709682465,-0.01049460485363627,0.013094453141093254,0.00647250609472394
287,-0.020608996972441673,0.02930121310055256,-0.010697193443775177,-0.017726263031363487,0.000705534010194242,-0.01195712573826313,0.023734886199235916,-0.013781621795789838,0.04499882087111473,-0.01798301748931408
288,-0.028645183891057968,-0.02079552598297596,-0.03012929856777191,-0.004353198688477278,-0.004696612246334553,-0.0008595945546403527,0.054162297397851944,-0.009040335898843494,0.006281011737883091,0.0039771078154444695
289,-0.030069831758737564,0.01838325522840023,-0.006441495381295681,-0.014169726520776749,-0.00462705735117197,-0.011652451939880848,0.011976048350334167,0.02653416716890756,0.0008144897874444723,-0.006146161817014217
290,-0.014088992960751057,0.022165490314364433,0.002408750122413039,-0.008635330945253372,-0.010139962658286095,-0.010823589749634266,-0.03346105292439461,-0.015355712362872007,-0.009482130408287048,-0.010353254154324532
291,0.012051810510456562,0.0516178160905838,0.01227330882102251,0.00482876505702734,0.004827700089663267,0.0026423726230859756,-0.029386600479483604,-0.03408479473794601,-0.0034853771794587374,0.0006307100411504507
292,0.001816410687752068,0.005917082075029612,0.00336723355576396,0.0017554126679897308,0.002074630931019783,-0.0006764074205420911,-0.0006709553999826312,0.012728535130229535,-0.0070587145164608955,0.01248148549348116
293,0.011208656243979931,0.005651947110891342,-0.008106661029160023,0.0021867963951081038,-0.0035531404428184032,0.0036140787415206432,-0.017197158187627792,-0.001278593538098588,-0.02931983768939972,0.02137383259832859
294,0.038284894078969955,-0.020613575354218483,0.005569434724748135,0.006264266557991505,0.0005953508079983294,0.00441127410158515,-0.062140777707099915,0.01887139793892097,-0.04471075162291527,0.02288561500608921
295,-0.0026678082067519426,-0.0031307577155530453,-0.010111250914633274,-0.008330200798809528,-0.0073265815153717995,-0.005589687265455723,-0.012192953377962112,0.014054183983849491,-0.010412216186523438,-0.001810030429624021
296,0.016730302944779396,-0.014195315539836884,-0.004613707773387432,-0.002612894866615534,-0.008382288739085197,0.002629538532346487,-0.03411373123526573,-0.0008474857156342316,-0.025106020271778107,0.026476243510842323
297,0.001436004415154457,-0.010091930627822876,0.013884622603654861,-0.0085112564265728,-0.01342872716486454,-0.003621354466304183,-0.039627157151699066,0.049632444262015143,-0.014264232479035854,0.039152584969997406
298,-0.008278646854815943,-0.037602735934450224,-0.04381641348783856,-0.0038777584607210622,-0.014533533665153434,-0.011859752842114822,-0.0039016430436786256,-0.04872517091257111,-0.04095245084316907,0.014798433598209832
299,-0.04866117238998413,0.023241357877850533,0.0018749483861029148,-0.02199905924499035,-0.015745140612125397,-0.02763960137963295,0.01234755665063858,-0.05281942071433179,0.04016667604446411,-0.0530247800052166
300,-0.003959090448915958,-0.008013453334569931,-0.01661899872124195,-0.0027568445075303316,-0.0029359348118305206,-0.0013887772802263498,-0.0019408052321523428,-0.018842812633948477,-0.025456637144088745,0.007104161195456982
301,-0.013824593275785446,-0.029735052958130836,-0.02165738306939602,0.0004672629293054342,-0.00852272380143404,0.0038578035309910774,-0.008277498185634613,0.04028335058111883,-0.031053481623530388,0.038320958614349365
302,0.02713945508003235,0.024466462433338165,-0.015219202265143394,-0.0060964017175138,0.001697073457762599,-0.005602238699793816,-0.023864038288593292,0.0013122802526399566,-0.0422222875058651,-0.013787047937512398
303,0.002721630036830902,0.01585259474813938,-0.017969543114304543,-0.0011118034599348903,-0.0012336515355855227,-0.0002070279442705214,-0.006008044350892305,-0.021986196144547217,-0.012606879696249962,0.001252222340553999
304,0.02713945508003235,0.024466462433338165,-0.015219202265143394,-0.0060964017175138,0.001697073457762599,-0.005602238699793816,-0.023864038288593292,0.0013122802526399566,-0.0422222875058651,-0.013787047937512398
305,0.005874526221305132,-0.02790362760424614,-0.005039753392338753,0.004344532731920481,-0.002540428191423416,-0.001062476192601025,0.0004815114662051201,0.0371255204181199,-0.016564112156629562,0.029046278446912766
306,0.0035289244260638952,0.04137970507144928,0.016449959948658943,0.013045931234955788,0.00599628547206521,0.011623439379036427,-0.023973064497113228,-0.028896209796585796,-0.011486854404211044,0.012717906385660172
307,-0.006336606107652187,0.01954137161374092,0.0026875301264226437,-0.00590959656983614,0.002307356335222721,-0.003596084425225854,0.018418436869978905,-0.008479832312203273,0.028360361233353615,-0.005932379513978958
308,0.0048863752745091915,-0.00873067881911993,-0.027514830231666565,-0.0012274179607629776,-0.005853970535099506,-0.002428496489301324,0.0039297183975577354,-0.03876939925109726,-0.01111200638115406,-0.010747130960226059
309,-0.024084657430648804,0.0031211720779538155,-0.02630617842078209,-0.017340485006570816,-0.01635216549038887,-0.016801822930574417,-0.008964475244283676,0.0038121665352874347,-0.005513820797204971,-0.01754733920097351
310,0.01612495817244053,0.015529632568359375,-0.018163150176405907,-0.00575221236795187,0.0004346589557826519,-0.004665817134082317,-0.008457993157207966,-0.0007318105377968319,-0.03264547139406204,-0.010279573500156403
311,0.02115355059504509,0.0073058088310062885,-0.0066609252244234085,0.009704411961138248,0.0011309097753837705,0.013511543162167072,-0.015038526616990566,-0.023671577372339114,-0.0005166891496628523,0.02829381451010704
312,-0.02552354335784912,0.007141427136957645,-0.0013482202775776386,-0.006491749547421932,0.001055021770298481,-0.004424365237355232,0.040083229541778564,0.00879910550290612,0.03269866108894348,-0.00528582651168108
313,-0.009950530715286732,0.025157609954476357,-0.0054779620841145515,-0.012896183878183365,-0.006769292522221804,-0.013791998848319054,-0.002144975820556283,-0.020284420410088624,0.0025658351369202137,-0.021312575787305832
314,0.033478427678346634,-0.06692997366189957,0.0012560638133436441,0.012177770957350731,-0.006946391426026821,0.012922249734401703,-0.04568929225206375,0.03202076451575615,-0.03855127841234207,0.04406825825572014
315,-0.004665737971663475,0.003713766112923622,-0.02194518968462944,-0.0036876315716654062,0.004668578505516052,-0.007350008934736252,0.021202079951763153,0.02559579676215765,-0.0025764324236661196,0.0042199911549687386
316,0.02713945508003235,0.024466462433338165,-0.015219202265143394,-0.0060964017175138,0.001697073457762599,-0.005602238699793816,-0.023864038288593292,0.0013122802526399566,-0.0422222875058651,-0.013787047937512398
317,-0.0059964656829833984,0.014352734200656414,-0.005673093721270561,0.0010710125789046288,-0.00010004057548940182,0.001295743277296424,0.0007750581135042012,-0.02670086056050965,-0.0046828375197947025,0.005855849012732506
318,0.03818769380450249,0.014694706536829472,0.03444821015000343,0.008886681869626045,0.005474841687828302,0.010616142302751541,0.007612732704728842,0.06907804180379476,-0.02454429864883423,0.052261482924222946
319,0.014888495206832886,-0.024274621158838272,-0.025493288412690163,0.00801340863108635,-1.1586176697164774e-05,0.008380251936614513,0.010373846627771854,-0.01333075168243655,-0.01776360534131527,0.02113516815006733
320,-0.0158556941896677,0.03363994136452675,-0.008624610491096973,-0.007540821563452482,-0.007245548535138369,-0.002801320981234312,-0.003973819315433502,0.018686629787601963,-0.00896344892680645,-0.005894189700484276
321,-0.027467625215649605,-0.01238747127354145,-0.02668016403913498,-0.020426973700523376,-0.012970278039574623,-0.01525130681693554,-0.005894212052226067,-0.01782558885209429,-0.02106478437781334,-0.02782999910414219
322,0.02713945508003235,0.024466462433338165,-0.015219202265143394,-0.0060964017175138,0.001697073457762599,-0.005602238699793816,-0.023864038288593292,0.0013122802526399566,-0.0422222875058651,-0.013787047937512398
323,-0.008491713553667068,-0.009373038075864315,-0.0036313042510300875,5.272298585623503e-05,-0.0013220200780779123,0.001738780876621604,-0.010887008160352707,0.029428379584101574,-0.004954650066792965,0.0008445292478427291
324,0.03477095637792463,-0.012249705521906297,-0.015154031560579291,0.0037957454303297316,-6.513408799416304e-05,0.001830053291898036,0.010857855730237165,-0.010593096140065074,0.009288535246176163,0.019989525060597344
325,0.016938215121626854,-0.013858108781278133,-0.002064588014036417,0.008400152437388897,-0.0037942074704915285,0.005768043454736471,-0.005769054871052504,0.017537215973734113,-0.02900293841958046,0.02543022483587265
326,-0.015817278996109962,0.0030839983373880386,-0.017766082659363747,-0.002301545348018408,-0.002320231171324849,2.1204352378845215e-05,0.01792542263865471,0.011288013373446558,0.005800691898912191,0.0009669885039329529
327,0.02713945508003235,0.024466462433338165,-0.015219202265143394,-0.0060964017175138,0.001697073457762599,-0.005602238699793816,-0.023864038288593292,0.0013122802526399566,-0.0422222875058651,-0.013787047937512398
328,0.027139458805322647,0.024466468021273613,-0.015219203196465969,-0.0060964017175138,0.0016970717115327716,-0.005602238699793816,-0.023864036425948143,0.00131227602273103,-0.042222294956445694,-0.013787047937512398
329,0.02713945508003235,0.024466462433338165,-0.015219202265143394,-0.0060964017175138,0.001697073457762599,-0.005602238699793816,-0.023864038288593292,0.0013122802526399566,-0.0422222875058651,-0.013787047937512398
330,0.023557044565677643,-0.016337672248482704,0.0078234001994133,0.007609060034155846,-0.0036993594840168953,0.008779892697930336,-0.040347129106521606,-0.022648459127399677,-0.03531181812286377,0.03664490953087807
331,0.016412954777479172,0.029822584241628647,-0.011366023682057858,-0.006407113745808601,0.0022010798566043377,-0.003605659818276763,-0.010812344960868359,-0.002486518908285632,-0.029894357547163963,-0.016204437240958214
332,-0.017473092302680016,-0.014143581502139568,-0.02484208159148693,-0.003914061468094587,-0.003771913005039096,-0.0012868921039626002,0.031353458762168884,-0.011755490424670566,-0.00685305567458272,0.004077502992004156
333,0.009462730027735233,-0.016843846067786217,-0.02111777663230896,0.0014308743411675096,-0.004917256999760866,0.003849620232358575,-0.011343259364366531,0.016140672146733502,-0.01915973797440529,0.028531543910503387
334,-0.009885525330901146,0.012042708694934845,-0.02154785394668579,-0.0044427290558815,-0.01585407555103302,0.006644083186984062,-0.042716242372989655,-0.0286259401564593,-0.020630277693271637,0.030995912849903107
335,0.008286952041089535,0.00683612609282136,-0.01803208887577057,-0.004744770936667919,-0.0008078418904915452,-0.0034939954057335854,-0.004442749544978142,-0.006818535000194434,-0.029139062389731407,-0.004245017655193806
336,0.0009044723119586706,-0.015557766892015934,-0.0003583463840186596,-0.006471863482147455,-0.016414521262049675,-0.010577592998743057,-0.052838075906038284,0.012668990725366452,-0.003615398658439517,0.009969307109713554
337,0.01765396073460579,-0.034356243908405304,-0.005292852874845266,0.0019765596371144056,-0.011709924787282944,0.00030129088554531336,-0.027127984911203384,-0.023044212956464395,-0.02350166067481041,0.031482696533203125
338,-0.029500875622034073,0.014837103895843029,-0.0052462187595665455,-0.012697650119662285,0.00017892406322062016,-0.008282428607344627,0.04324407875537872,-0.01208287821501534,0.043343640863895416,-0.010849248617887497
339,-0.03231582045555115,-0.02757273241877556,-0.02748716250061989,-0.0029973681084811687,-0.005677497014403343,0.0002751953434199095,0.04798759147524834,-0.017261164207912294,0.004087301902472973,0.01090571191161871
340,0.017975999042391777,0.0015407553873956203,-0.04253048449754715,-0.004515737295150757,-0.006170690059661865,-0.002336581703275442,-0.03718187287449837,-0.024660823984658624,-0.042611993849277496,0.004030441865324974
341,-0.002189595252275467,0.02535284124314785,0.0022346177138388157,6.175722228363156e-05,0.0012535576242953539,0.0012873896630480886,0.005870283115655184,-0.010363852395156256,-0.009257414378225803,0.003040911629796028
342,0.0006295596249401569,0.0079422015696764,-0.0030364650301635265,-0.013232718221843243,-0.008434471674263477,-0.008813697844743729,-0.01927366852760315,0.03138379351277513,-0.017080318182706833,0.013650423847138882
343,-0.006336606107652187,0.01954137161374092,0.0026875301264226437,-0.00590959656983614,0.002307356335222721,-0.003596084425225854,0.018418436869978905,-0.008479832312203273,0.028360361233353615,-0.005932379513978958
344,-0.002651098184287548,0.0010006865486502647,-0.016032811254262924,-0.002950134454295039,-0.00790187157690525,-0.003191351890563965,-0.011154800653457642,-0.02567905437241115,-0.016384724527597427,0.011819424107670784
345,0.008658293634653091,-0.0018916591070592403,-8.054700447246432e-05,-0.001002483069896698,0.0007852005073800683,0.0011339334305375814,-0.003134399652481079,-0.03716330851412394,-0.020822182297706604,0.008896353654563427
346,-0.0016881886404007673,-0.0032132023479789495,-0.013106131926178932,-0.003916339483112097,-0.0070633599534630775,-0.002641092287376523,-0.03023429960012436,-0.02479071418803469,-0.00031309155747294426,0.0037182350642979145
347,-0.009203895926475525,-0.006530421786010265,-0.0062572285532951355,-0.001293830806389451,-0.006901596672832966,-0.001827897853218019,-0.026673518121242523,0.002755917458957006,-0.02145339362323284,0.016135448589920998
348,-0.011466823518276215,0.002302188891917467,-0.005869192071259022,0.001705568633042276,-0.0017671540845185518,0.002065337495878339,-0.0017510075122117996,-0.033213584925555054,-0.008095238357782364,0.013123787939548492
349,0.0005110029596835375,-0.043722428381443024,-0.017712948843836784,0.014036772772669792,0.0006450973451137543,0.01191029418259859,0.015473118051886559,-0.01103032604537417,-0.007193941622972488,0.030869323760271072
350,-0.026522792875766754,-0.03177960216999054,-0.011535532772541046,-0.0027397542726248503,-0.019227048382163048,-0.010363138280808926,-0.06028442457318306,0.025193632143763377,-0.019899122416973114,0.027584869414567947
351,-0.010013456456363201,-0.003222009167075157,0.011000349186360836,-0.0006951950490474701,0.002373168244957924,0.00022905075456947088,-6.688287248834968e-05,0.005138354813181753,0.009152982383966446,0.018459264189004898
352,-0.002620928455144167,0.00025325571186840534,-0.009098175913095474,-0.0014752561692148447,-0.004915814381092787,-0.003844302613288164,-0.03915661573410034,-0.02722314616136122,-0.0273757167160511,0.006683323532342911
353,0.02415148727595806,-0.031774528324604034,0.02476811781525612,0.015135903842747211,0.013461660593748093,0.015510222874581814,-0.011701059527695179,0.08476746705515555,-0.021198447793722153,0.04274965822696686
354,0.021091658622026443,0.03981615602970123,-0.0022606991697102785,-0.001084117335267365,0.003525427309796214,-0.0018749325536191463,-0.025689681991934776,-0.0139493760651436,-0.02307472564280033,-0.008559505455195904
355,0.011495314538478851,0.008117051795125008,-0.01948079839348793,0.0013047903776168823,-0.006479321978986263,0.005901021882891655,-0.01655479520559311,0.013048642062176128,-0.015514283441007137,0.015574603341519833
356,-0.01152876578271389,0.0043439315631985664,-0.017458682879805565,-0.0022089346311986446,-0.0013342449674382806,-0.0005300224293023348,0.024508723989129066,-0.013717593039678497,-0.0008864551782608032,0.00036046141758561134
357,0.002535588573664427,-0.007939890027046204,-0.005399216897785664,0.002136683091521263,-0.0034627194982022047,0.0018825791776180267,-0.015842556953430176,0.0034973717325887696,-0.01684560813009739,0.019251754507422447
358,-0.0010852690320461988,-0.015130266547203064,0.04573627561330795,0.011858968064188957,-0.003861022414639592,-0.003270618384703994,-0.03335094451904297,0.040214718738497995,-0.0398726761341095,0.01032115239650011
359,-0.007411589045399278,0.009578783375278985,-0.031920535609171186,0.016151521315880754,0.004594050116857993,0.010604226335173344,0.04247882009517891,-0.034838470240343256,0.0019180908844227977,-0.0010271200848432811
360,0.00707014836370945,-0.020656680688261986,-0.018494613468647003,0.005855821073055267,0.0009343815036118031,0.006995026022195816,0.015601938590407372,-0.01727441077346535,0.0009575788863003254,0.020691420882940292
361,-0.0012795253423973918,-0.005195587873458862,0.010976956225931644,-0.008424635045230389,-0.009667832404375076,-0.004807576537132263,-0.019467616453766823,0.032336740318399684,-0.0031415133271366358,0.022216487675905228
362,-0.020080970600247383,-0.0030766038689762354,-0.014692332595586777,-0.01133792195469141,-0.005897289142012596,-0.009972727857530117,0.014701847918331623,0.004024120976638564,0.0042689284309744835,-0.012841209769248962
363,-0.00035973749142631734,-0.011679234068581337,-0.004765158948891799,-0.0007294163427293827,-0.005902847640287775,-0.0005887455668139206,0.03926787329150654,-0.048521092841487576,-0.0031852391007725833,0.014029716914953593
364,0.02713945508003235,0.024466462433338165,-0.015219202265143394,-0.0060964017175138,0.001697073457762599,-0.005602238699793816,-0.023864038288593292,0.0013122802526399566,-0.0422222875058651,-0.013787047937512398
365,0.027139458805322647,0.024466468021273613,-0.015219203196465969,-0.0060964017175138,0.0016970717115327716,-0.005602238699793816,-0.023864036425948143,0.00131227602273103,-0.042222294956445694,-0.013787047937512398
366,-0.010630957782268524,0.002192994812503457,-0.020114775747060776,-0.01419769786298275,-0.011754538863897324,-0.014933418482542038,-0.010829725302755833,-0.012984311932231749,-0.015382704325020313,-0.011107211001217365
367,-0.019963759928941727,-0.012904440052807331,0.007457036059349775,0.007242265157401562,0.005798365920782089,0.0156983844935894,6.017112173140049e-05,0.05456643686908311,0.015124458819627762,0.011840002611279488
368,0.00012987153604626656,-0.014341335743665695,-0.02652899920940399,-0.00927552580833435,-0.015954066067934036,-0.007836636155843735,-0.01679132506251335,-0.0031104001794892977,-0.02063768170773983,0.0035041668452322483
369,-0.019894029945135117,-0.021266769617795944,-0.0057024406269192696,-0.012417582795023918,-0.005243171937763691,-0.012878691777586937,-0.001209651934914291,0.013491998666110313,-0.014516660943627357,0.005827081389725208
370,0.021521782502532005,-0.02768762968480587,-0.013996702618896961,0.0029323911294341087,-0.006303132977336645,0.006141155492514372,-0.050226952880620956,-9.874749672454664e-05,-0.03983971104025841,0.031729377806186676
371,-0.006336606107652187,0.01954137161374092,0.0026875301264226437,-0.00590959656983614,0.002307356335222721,-0.003596084425225854,0.018418436869978905,-0.008479832312203273,0.028360361233353615,-0.005932379513978958
372,0.003161462489515543,-0.0032083773985505104,-0.0074636912904679775,0.00418069027364254,-0.0038357526063919067,0.0024991766549646854,-0.011953204870223999,0.005502373835416396,-0.000967928150203079,0.006827314849942923
373,-0.01967274770140648,-0.00039337333873845637,-0.01828956790268421,-0.001509066321887076,-0.002034823875874281,0.00045905238948762417,0.03495008870959282,-0.01653457641477671,0.007477037608623505,0.003258718643337488
374,0.027139458805322647,0.024466468021273613,-0.015219203196465969,-0.0060964017175138,0.0016970717115327716,-0.005602238699793816,-0.023864036425948143,0.00131227602273103,-0.042222294956445694,-0.013787047937512398
375,-0.01225469633936882,-0.010571906343102455,-0.022815579548478127,-0.003860731143504381,-0.003271485213190317,-0.0015870957868173718,0.02208266407251358,-0.012101640539880115,-0.012329275719821453,0.003419998101890087
376,-0.006237314082682133,0.013752252794802189,-0.03506322577595711,-0.011061780154705048,-0.007182484958320856,-0.012071728706359863,0.00011380447540432215,-0.029384753710199895,-0.008701258338987827,-0.022839445620775223
377,-0.011975523084402084,0.008036570623517036,-0.039956193417310715,-0.009538505226373672,-0.013092542998492718,0.003018641844391823,0.029430808499455452,0.004961419787035361,-0.004768773913383484,0.014578490518033504
378,8.944171713665128e-05,0.013593103736639023,-0.013410902582108974,-0.003276452422142029,-0.0012667971896007657,-0.0022863089106976986,-0.0047036390751600266,-0.009794581776652917,0.0024186898954212666,0.00350159197114408
379,-0.015740733593702316,-0.005189205054193735,-0.012600534595549107,-0.002863894682377577,-0.0051940870471298695,0.000399923010263592,0.027421966195106506,-0.011012911500218537,0.023722907528281212,0.004857546649873257
380,-0.014713104814291,0.011892534792423248,-0.03484942018985748,-0.026578586548566818,-0.01583491824567318,-0.018346019089221954,0.009607253596186638,-0.02105160394309676,0.023299358785152435,-0.029455071315169334
381,0.0017251214012503624,-0.007057040464133024,-0.01649550534784794,-0.016642635688185692,-0.015913598239421844,-0.010282682254910469,-0.026207508519291878,0.008529167693792602,-0.022157765924930573,-0.005883935838937759
382,0.03857230395078659,-0.05060220882296562,-0.017338961362838745,0.007264464627951384,-0.0021271570585668087,0.00988728366792202,-0.02239980176091194,0.025109939149410433,-0.037536174058914185,0.0222282987087965
383,0.011418945156037807,0.005177043378353119,-0.010970588773488998,-0.0003423549933359027,-0.0068776849657297134,0.0036712386645376682,-0.016055339947342873,-0.0005750922715615325,-0.04668765887618065,0.030392292886972427
384,0.0051425304263830185,-0.014348582364618778,-0.004986580461263657,0.000670296314638108,-0.005074070300906897,0.00015885184984654188,-0.019433515146374702,-0.0075006849357999415,-0.0038864430971443653,0.007687373086810112
385,-0.03648145869374275,-0.027153657749295235,-0.03222377598285675,-0.004108322784304619,-0.0055947559885680676,-0.00019337795674800873,0.06512293964624405,-0.010494606628879972,0.013094453141093254,0.006472504232078791
386,-0.004531715996563435,0.003706465009599924,-0.005149401258677244,0.0011262494372203946,-0.0015240764478221536,0.0012329561868682504,-0.013273228891193867,-0.032032424650874206,-0.017853448167443275,0.012138222344219685
387,0.023466330021619797,-0.05161110311746597,-0.005439773667603731,0.0017565438756719232,-0.004258471075445414,0.007418622728437185,-0.04479648172855377,0.08491771711009731,-0.056265126913785934,0.0338851660490036
388,0.01095221284776926,-0.01217621099203825,-0.05048702284693718,-0.002981119090691209,-0.009727947413921356,-0.0003036534180864692,-0.04430732876062393,-0.03963635932027297,-0.043160583823919296,0.01544995792210102
389,0.0014912893529981375,-0.021680044010281563,-0.001655148807913065,0.011590992100536823,0.008617840707302094,0.014075322076678276,0.025470826774835587,0.006951877469233089,0.007512661628425121,0.03848540037870407
390,-0.0010632115881890059,0.02007909305393696,-0.012156732380390167,-0.010196742601692677,0.001277770847082138,-0.007412758655846119,0.013186994008719921,-0.00194740385764383,0.00032199686393141747,-0.014436348341405392
391,0.02666148729622364,-0.04988565668463707,-0.01268194243311882,0.009915774688124657,-0.004462352488189936,0.010783419013023376,-0.027640942484140396,0.0017821389980092004,-0.02473396807909012,0.02487870119512081
392,-0.0030473715160042048,-0.032134927809238434,-0.017564283683896065,0.0006383250001817942,-0.008624345064163208,0.0011479207314550877,0.0041166190057992935,-0.015054633186444922,-0.021856103092432022,0.03284398093819618
393,-0.010234137065708637,-0.020457901060581207,-0.005835440941154957,-0.0032562934793531895,-0.010039592161774635,-0.0020465506240725517,-0.017116494476795197,0.013428831631099399,-0.009286395274102688,0.00172195746563375
394,0.003134104423224926,-0.007844609208405018,-0.007678276859223843,-0.001828988315537572,-0.004012026824057102,-0.0010606215801090002,0.0024911905638873577,0.09063100183026918,-0.007598307449370623,0.01687484420835972
395,-0.025583606213331223,-0.019063038751482964,-0.02406696230173111,-0.0067353565245866776,-0.008390814065933228,-0.0040018558502197266,0.0354606993496418,-0.007449622092180773,0.013294873759150505,0.0076976618729531765
396,-0.05277097970247269,-0.005767694674432278,-0.048423755913972855,-0.0429646298289299,-0.02860558032989502,-0.022061971947550774,0.0015761679969727993,0.018088333309936408,-0.0022184313274919987,-0.022816315293312073
397,-0.009676910005509853,0.008037559688091278,-0.010903400368988514,-0.0027899069245904684,-0.0030751191079616547,-0.0015406387392431498,0.01161795761436224,-0.016648605187220333,-0.007915510796010494,-0.002989252097904682
398,-0.006336606107652187,0.01954137161374092,0.0026875301264226437,-0.00590959656983614,0.002307356335222721,-0.003596084425225854,0.018418436869978905,-0.008479832312203273,0.028360361233353615,-0.005932379513978958
399,0.0030227855313569307,-0.02670508809387684,-0.005747930146753788,0.006585960276424885,-0.00030922703444957733,0.009031939320266247,-0.0043689170852303505,-0.03152198442075693,-0.0319395437836647,0.021545641124248505
400,0.010765953920781612,-0.024102121591567993,-0.029109403491020203,0.0011471100151538849,0.0008882801048457623,0.00468764454126358,-0.025131868198513985,-0.02315084933598698,-0.018495477735996246,0.013112896122038364
401,0.008361444808542728,0.00923054851591587,-0.020238187164068222,-0.005509611219167709,-0.00045514560770243406,-0.004005787428468466,0.002400884870439768,-0.0021725762041422112,-0.025895297527313232,-0.007807348854839802
402,-0.02689974755048752,-0.02811761572957039,-0.02132873237133026,-0.0015529281226918101,-0.005785076878964901,0.0008844253607094288,0.02570858970284462,-0.02605890735567217,-0.007623618934303522,0.01666967198252678
403,0.022451046854257584,-0.028046350926160812,0.0007670650957152247,0.008591869845986366,-0.00606452114880085,0.0007960083894431591,-0.03311128541827202,-0.010246155377160827,-0.028347913175821304,0.017830446362495422
404,0.025585629045963287,-0.04181213304400444,-0.009446249343454838,0.010182411409914494,-0.005616559647023678,0.00645978469401598,-0.013207479380071163,0.020095300636569922,-0.026315897703170776,0.02745073102414608
405,-0.014452881179749966,-0.0051836660131812096,-0.009584994986653328,-0.00747297378256917,-0.009310887195169926,-0.007783479988574982,-0.01185509655624628,-0.006376338107660751,-0.0036247633397579193,-0.019874215126037598
406,0.008361443877220154,0.00923054851591587,-0.020238187164068222,-0.005509611219167709,-0.00045514560770243406,-0.004005787428468466,0.002400884870439768,-0.0021725762041422112,-0.02589530125260353,-0.007807348854839802
407,-0.00729970820248127,-0.011013924144208431,-0.02286437153816223,-0.011373317800462246,-0.015222251415252686,-0.010232609696686268,-0.014856968075037003,-0.013925147702490336,-0.026373079046607018,-0.0074767242185771465
408,-0.006316282786428928,-0.004846405237913132,-0.011880421079695225,-0.0015267493436113,-0.005369240418076515,-0.00036029715556651354,-0.012475810945034027,0.02199110714169228,0.009404996410012245,0.005216278601437807
409,0.0014852748718112707,-0.006287418305873871,0.014528855681419373,0.012980109080672264,-0.000996729009784758,0.008655829355120659,-0.0071102348156273365,0.003864986494372615,-0.01710360124707222,0.015717942267656326
410,-0.013529769144952297,0.0018994861748069525,-0.014644140377640724,-0.0010119080543518066,-0.001719876891002059,0.000393339607398957,0.019519269466400146,-0.01983282664890636,-0.0014328793622553349,0.0048176925629377365
411,0.0056509957648813725,-0.04198799654841423,-0.0135432668030262,-0.0025680484250187874,-0.005347549915313721,-0.004255547188222408,0.018739663064479828,0.0591516795971418,-0.01782948337495327,0.01998746208846569
412,0.0340607725083828,-0.03259273245930672,-0.020748460665345192,0.012479530647397041,0.00013020291225984693,0.012198563665151596,-0.021842651069164276,-0.02185708368799697,-0.027524113655090332,0.03159567341208458
413,0.021091658622026443,0.03981615602970123,-0.0022606991697102785,-0.0010841174516826868,0.003525427309796214,-0.0018749325536191463,-0.025689681991934776,-0.0139493760651436,-0.02307472750544548,-0.008559505455195904
414,0.045790188014507294,-0.02142362855374813,0.02055405266582966,0.023265233263373375,0.017560021951794624,0.02764502726495266,0.0032431185245513916,0.029959348226622582,-0.02236805111169815,0.05895591527223587
415,0.02713945508003235,0.024466462433338165,-0.015219202265143394,-0.0060964017175138,0.001697073457762599,-0.005602238699793816,-0.023864038288593292,0.0013122802526399566,-0.0422222875058651,-0.013787047937512398
416,0.016737332567572594,-0.058860935270786285,-0.02833527885377407,0.017450131475925446,-0.014016478322446346,0.0066319843754172325,-0.04949492961168289,-0.009229708444921268,-0.073897585272789,0.029472090303897858
417,0.02713945508003235,0.024466462433338165,-0.015219202265143394,-0.0060964017175138,0.001697073457762599,-0.005602238699793816,-0.023864038288593292,0.0013122802526399566,-0.0422222875058651,-0.013787047937512398
418,0.02713945508003235,0.024466462433338165,-0.015219202265143394,-0.0060964017175138,0.001697073457762599,-0.005602238699793816,-0.023864038288593292,0.0013122802526399566,-0.0422222875058651,-0.013787047937512398
419,9.697861969470978e-06,0.03094201162457466,-0.001973072299733758,0.0015345748979598284,0.0021337391808629036,0.0012230236316099763,-0.0003813210059888661,-0.02360718497937802,0.0008992333896458149,-0.0005045260768383741
420,-0.010678335092961788,-0.006217757239937782,-0.025327131152153015,-0.004914639517664909,-0.002637364435940981,-0.002387080807238817,0.029031939804553986,-0.005706014496049922,-0.009340700693428516,-0.0017442831303924322
421,0.02713945508003235,0.024466462433338165,-0.015219202265143394,-0.0060964017175138,0.001697073457762599,-0.005602238699793816,-0.023864038288593292,0.0013122802526399566,-0.0422222875058651,-0.013787047937512398
422,-0.033083997666835785,-0.02749544382095337,-0.028360631316900253,-0.003202236955985427,-0.005662240087985992,0.00018879002891480923,0.0511474609375,-0.016013371606738852,0.005748270079493523,0.010088200680911541
423,0.003958278801292181,-0.006388057954609394,-0.009926308877766132,-0.0014365699607878923,-0.002736068330705166,-0.0010226941667497158,-0.02729925327003002,-0.02689690994508023,-0.03914276883006096,0.01185812521725893
424,0.007879368960857391,0.01545562781393528,-0.009194118902087212,0.005063591990619898,-0.00019476463785395026,0.005527849309146404,-0.0216719601303339,-0.020529302381463107,-0.012773420661687851,0.005736502818763256
425,0.012435521930456161,-0.0032530887983739376,-0.016138436272740364,0.007164078764617443,-0.0023446911945939064,0.003476961050182581,-0.013994162902235985,-0.002643100616995072,-0.012716846540570259,0.019026705995202065
426,-0.0058470116928219795,0.0014421023661270738,-0.021175149828195572,-0.008474122732877731,-0.0068974969908595085,-0.010041113942861557,-0.010329867713153362,-0.027187460844099905,-0.008420199155807495,-0.00459287641569972
427,0.011823982931673527,0.011998852714896202,0.0022284567821770906,0.004101187456399202,0.001593016553670168,0.0031225685961544514,-0.021489176899194717,-0.009972530129694774,-0.012091555632650852,0.00972415879368782
428,0.006281849928200245,-0.036517076194286346,-0.012763909995555878,0.01463361643254757,0.0016223264392465353,0.009545153938233852,0.010135321877896786,-0.015191248072905252,-0.008797982707619667,0.032800834625959396
429,-0.015917154029011726,-0.01046838704496622,-0.026727357879281044,-0.00475093349814415,-0.0032378057949244976,-0.0019416939467191696,0.0363595187664032,-0.00667824428363381,-0.00478568347170949,-7.602619007229805e-05
430,0.0017865942791104317,-0.010182023048400879,-0.019145742058753967,-0.00039721070788800716,-0.005909963510930538,0.003176495898514986,-0.015409148298203945,0.03301757217807172,-0.03067120537161827,0.031115129590034485
431,0.015315535478293896,-0.02148052118718624,0.0007230886840261519,0.013579345308244228,0.0006925798952579498,0.012498142197728157,-0.022519804537296295,-0.015880205851793134,-0.0243523046374321,0.02885621227324009
432,-0.019721489399671555,0.007442059926688671,-0.015487421303987503,-0.010119499638676643,-0.0058588869869709015,-0.01013125292956829,0.006339932791888714,-0.010255885076275525,0.005297107622027397,-0.009038060903549194
433,0.00592346815392375,-0.038348279893398285,-0.006180414929986,0.006685616914182901,-0.004744997248053551,0.003445303300395608,-0.013535166159272194,0.007998462272178552,-0.03796502202749252,0.03428152576088905
434,-0.03648145869374275,-0.027153657749295235,-0.03222377970814705,-0.0041083237156271935,-0.00559475552290678,-0.00019337818957865238,0.06512294709682465,-0.01049460485363627,0.013094453141093254,0.00647250609472394
435,0.033058036118745804,-0.031107159331440926,-0.01009958516806364,0.01161017082631588,-0.004595392383635044,0.009436934255063534,-0.04268844425678253,-0.026485423576225936,-0.03277931362390518,0.03180981054902077
436,0.03643014281988144,-0.029378950595855713,0.0056907497346401215,0.006373106501996517,-0.0048491498455405235,0.003153008408844471,-0.07270145416259766,-0.000955373787042163,-0.04798879101872444,0.028299128636717796
437,-0.029777906835079193,0.045303817838430405,0.007978864945471287,-0.022368833422660828,0.005366897210478783,-0.016011852771043777,0.04706394299864769,-0.0020969407031195455,0.07257170975208282,-0.030557341873645782
438,0.030583186075091362,-0.0031068676616996527,-0.009185721166431904,0.01054568774998188,0.008457028307020664,0.01307411678135395,-0.005791676230728626,-0.010026423378748301,-0.0015131218824535608,0.02487833984196186
439,-0.008355483412742615,-0.01946462132036686,-0.013653606176376343,-0.0053231786005198956,-0.00764518603682518,-0.006340174004435539,0.016560323536396027,-0.03477118843186175,-0.010339893400669098,-0.008512384258210659
440,0.007486988324671984,0.044990647584199905,0.003439081134274602,-0.004874148406088352,0.004423831589519978,-0.0042917607352137566,-0.00887429341673851,-0.014984146923544966,0.004466467071324587,-0.012464582920074463
441,-0.02329718880355358,0.006071901880204678,-0.014766352251172066,-0.017536550760269165,-0.009413281455636024,-0.013050725683569908,-0.0016790444497019053,-0.006977546022576149,-0.0015256651677191257,-0.0170180331915617
442,0.014142830856144428,0.004095535259693861,-0.0031014815904200077,0.002358017023652792,-0.005226479843258858,0.008184133097529411,-0.02706979587674141,-0.01095199175652899,-0.03976811468601227,0.0436372309923172
443,0.014618737623095512,0.056244850158691406,0.011608721688389778,0.00428050709888339,0.005482303444296122,0.00211438350379467,-0.027643665671348572,-0.03028385550144167,-0.002581188455224037,-0.0029644928872585297
444,0.006978000979870558,0.0012439994607120752,0.008754683658480644,0.0027919895946979523,0.001990976044908166,8.658377919346094e-05,-0.01738460175693035,-0.009503699958525545,-0.004353413358330727,0.008467323146760464
445,0.006595971062779427,-0.0009242343949154019,-0.014987308531999588,-0.0038165547885000706,-0.000318082922603935,-0.00042055430822074413,-0.0013876636512577534,0.06323933493241772,-0.01687868870794773,0.007525986526161432
446,0.030018143355846405,-0.028351925313472748,0.0056250011548399925,-0.001467995811253786,-0.011970585212111473,0.0005919302348047495,-0.05654583126306534,0.018009197315474006,-0.0332365408539772,0.003255091141909361
447,-0.014930075965821743,0.015294426120817661,-0.013076127506792545,-0.011760465800762177,-0.0004213564097881317,-0.005230138078331947,0.01054966077208519,-0.0067907493442873335,0.027035648003220558,-0.009038284420967102
448,0.0031063645146787167,0.008891800418496132,-0.01306349691003561,0.0037420496810227633,-0.0025856979191303253,-0.004009280353784561,0.013091671280562878,-0.00449365150119114,-0.0001507021370343864,-0.01720110885798931
449,-0.014648720622062683,-4.3667969293892384e-05,-0.023084867745637894,-0.0010398103622719646,-0.014722573570907116,-0.007855142466723919,-0.012962386012077332,-0.014993724825820495,-0.003521217266097665,-0.0004862416535615921
450,-0.01057767029851675,-0.0012733316980302334,-0.04633118212223053,0.0016416949220001698,-0.0038569155149161816,0.006707311142235994,-0.004733235575258732,-0.007543212984997282,-0.004066619090735912,0.007228471338748932
451,0.045386407524347305,-0.040702447295188904,-0.017705049365758896,-0.00024987850338220596,-0.012795941904187202,0.0006494004046544433,-0.03768431395292282,-0.027865227677324127,-0.05262693017721176,0.04151668772101402
452,0.011836091056466103,0.015207836404442787,-0.02882291004061699,0.006667709909379482,-0.003795575350522995,0.005939283408224583,-0.016003744676709175,0.015201547477100247,-0.019629381597042084,0.02001381851732731
453,0.019547241173574165,0.005959236430535597,-0.019774298207657626,0.004550217948722809,0.01695568319238321,0.00896164932597716,0.018458581656839924,0.006212673304372245,0.05442279476700361,0.048865501438735456
454,-0.016265973448753357,0.003310306929051876,-0.0014566171448677778,-0.005424029193818569,-0.0021413175854831934,0.0012790434993803501,0.004107571206986904,0.07121993177721861,-0.05661031976342201,-0.004651430994272232
455,0.034195009618997574,-0.06252028793096542,-0.009094261564314365,0.0032962667755782604,-0.00869496539235115,-0.0017536748200654984,-0.05234568566083908,-0.006340402744252609,-0.01603352092206478,0.021606817841529846
