,security,conformity,tradition,benevolence,universalism,self-direction,stimulation,hedonism,achievement,power
0,0.012238712050020695,-0.008188417181372643,-0.007415291387587786,0.0002875632490031421,-0.008722534403204918,0.0026184257585555315,-0.027655094861984253,0.0027584938798099756,-0.03100733272731304,0.027897175401449203
1,-0.010052565485239029,-0.019990064203739166,0.007435065694153309,-0.007070764899253845,-0.009953705593943596,-0.0022544763050973415,0.0022996210027486086,0.002426288090646267,-0.009059073403477669,0.015786634758114815
2,0.0024786703288555145,-0.03963509202003479,0.003517330624163151,0.002667543012648821,-0.008107435889542103,0.006401460152119398,0.01799597404897213,0.008360273204743862,-0.00995655357837677,0.013355589471757412
3,0.015607821755111217,-0.04760086163878441,-0.02292737551033497,0.0005732063436880708,-0.013745401054620743,0.0014397390186786652,-0.01906229369342327,-0.0034256186336278915,-0.031563516706228256,0.01681879162788391
4,0.02458232173494482,0.006855212768616527,-0.022501678338266502,0.010194504849055515,0.009374380343604749,0.00870468670944435,0.0616435331571309,0.016296305038328872,0.008358525804528068,0.015404219503527182
5,-0.01157478429377079,-0.0007568524451926351,-0.013539009727537632,-0.009748000651597977,-0.00946323573589325,-0.008843377232551575,-0.009287908673286438,-0.01064847968518734,-0.009700658731162548,-0.004000575747340918
6,0.00298855802975595,-0.009877252392470837,0.0016138346400111914,-0.0074079264886677265,-0.007208259776234627,-0.008634554222226143,-0.013641578145325184,-0.006355369929224253,-0.0018031669314950705,-0.019469352439045906
7,-0.015522775240242481,0.01670227386057377,0.008607161231338978,-0.009045464918017387,-0.010921760462224483,-0.0068962350487709045,-0.04165675491094589,0.0032726344652473927,-0.015624209307134151,0.017645888030529022
8,0.046568628400564194,0.028403881937265396,0.052172668278217316,-0.0008898086380213499,0.00527097936719656,0.01209212839603424,0.0059591373428702354,0.015735408291220665,-0.03656066581606865,0.05626184865832329
9,0.004558965563774109,0.0033878940157592297,0.00436973525211215,0.0020967070013284683,-0.0027500982396304607,0.0060194674879312515,-0.01671561412513256,0.008944694884121418,0.004749828018248081,0.011267319321632385
10,-0.004520714282989502,-0.012273408472537994,0.004395032301545143,-0.004721799399703741,-0.00874036643654108,-0.0042443471029400826,0.003832346759736538,-0.006600973196327686,-0.0005566164618358016,0.0024115685373544693
11,-0.004149486040901906,0.05244852629470715,0.00010941799562224925,0.003708999272448905,0.010095534150628947,0.0055839312587372975,0.003422012166001443,0.0035194404226657557,0.03042789602432061,0.013012783476049613
12,-0.015522775240242481,0.01670227386057377,0.008607161231338978,-0.009045464918017387,-0.010921760462224483,-0.0068962350487709045,-0.04165675491094589,0.0032726344652473927,-0.015624209307134151,0.017645888030529022
13,0.04533744975924492,-0.03321181610226631,-0.016143200919032097,0.03464158624410629,0.0007441655034199357,0.024790901690721512,-0.02657472901046276,0.02712707221508026,-0.02398230880498886,0.06610515713691711
14,-0.01344494428485632,0.0027648694813251495,0.008161951787769794,-0.008295385167002678,-0.010554051958024502,-0.0051330868154764175,-0.024960141628980637,0.002951154951006174,-0.013130473904311657,0.01693965494632721
15,-0.0013042213395237923,-0.008703325875103474,0.014686712063848972,-0.005621540360152721,-0.0032005440443754196,0.0042043412104249,0.03483821451663971,0.0052220686338841915,0.018317990005016327,0.007879653945565224
16,0.014999238774180412,0.02798335626721382,0.00866808369755745,0.0051288604736328125,0.0026782227214425802,0.008176745846867561,-0.005107483826577663,0.011609379202127457,0.023488236591219902,0.007516992744058371
17,-0.004632062278687954,-0.008242025971412659,-0.0012171979760751128,0.005296302493661642,-0.0035570524632930756,0.002188350073993206,-0.03870509937405586,-0.000545419636182487,-0.017165260389447212,-0.0007077984046190977
18,0.015553036704659462,-0.01839456893503666,-0.022422239184379578,0.0029070312157273293,-0.006787298247218132,0.006095329765230417,-0.015438994392752647,0.01139147486537695,-0.029128672555088997,0.033227697014808655
19,0.022374672815203667,-0.0005614021793007851,-0.007529460825026035,0.004566343035548925,-0.003584575839340687,0.0006475665140897036,-0.022360770031809807,0.007502952590584755,-0.03917905315756798,0.03453001379966736
20,-0.015522775240242481,0.01670227386057377,0.008607161231338978,-0.009045464918017387,-0.010921760462224483,-0.0068962350487709045,-0.04165675491094589,0.0032726344652473927,-0.015624209307134151,0.017645888030529022
21,0.02347898855805397,-0.01833280548453331,-0.011718707159161568,0.002654455369338393,-0.004916167818009853,0.0042428732849657536,-0.0202067531645298,0.0028600723017007113,-0.02260802872478962,0.030778903514146805
22,-0.00674469256773591,-0.021291330456733704,-0.026928504928946495,-0.00170112494379282,-0.012457538396120071,0.0009627917315810919,-0.02546204999089241,-0.0007615296635776758,0.001522757112979889,0.025179261341691017
23,-0.015522775240242481,0.01670227386057377,0.008607161231338978,-0.009045464918017387,-0.010921760462224483,-0.0068962350487709045,-0.04165675491094589,0.0032726344652473927,-0.015624209307134151,0.017645888030529022
24,0.017620492726564407,0.028128162026405334,0.03696327656507492,-0.0034573369193822145,0.0018866416066884995,-0.005843229591846466,0.023441743105649948,-0.009956011548638344,0.005281650926917791,0.0010852182749658823
25,0.005934511311352253,-0.053714267909526825,-0.010989121161401272,0.0025133881717920303,-0.01867710053920746,0.0005125305615365505,-0.06023989990353584,-0.0035054595209658146,-0.05846121162176132,0.03162471204996109
26,-0.01286604255437851,-0.02231861837208271,0.004489484243094921,-0.0009890350047498941,-0.010555432178080082,-0.002666488289833069,-0.017345741391181946,-0.0035149725154042244,-0.04537670686841011,0.017476053908467293
27,0.0003703248221427202,-0.03684724122285843,0.001834550523199141,-0.0007542014354839921,-0.014577989466488361,-0.0028501623310148716,-0.02232670597732067,-0.0009197643958032131,-0.030875306576490402,0.019089166074991226
28,-0.015522775240242481,0.01670227386057377,0.008607161231338978,-0.009045464918017387,-0.010921760462224483,-0.0068962350487709045,-0.04165675491094589,0.0032726344652473927,-0.015624209307134151,0.017645888030529022
29,0.007966065779328346,-0.021587658673524857,-0.014675763435661793,0.003840058809146285,-0.00970473326742649,-0.00130086624994874,-0.03330177441239357,0.0017219649162143469,-0.03702656924724579,0.018105793744325638
30,0.018661601468920708,0.019437633454799652,0.01768520474433899,0.00752820773050189,0.003184820292517543,0.009670393541455269,-0.0079363863915205,0.011798582971096039,0.008414492942392826,0.019682742655277252
31,0.010978301987051964,-0.02993692085146904,0.00047477695625275373,0.010476555675268173,-0.003849057015031576,0.00973315630108118,-0.017120100557804108,0.010659020394086838,-0.008464870974421501,0.025547703728079796
32,0.021374039351940155,0.005010969005525112,0.0018814577488228679,0.004262304864823818,-0.00451978575438261,0.00968906655907631,-0.00023730704560875893,0.007798825856298208,0.01163253653794527,0.022888828068971634
33,-0.013597369194030762,-0.008139589801430702,-0.007987478747963905,-0.002697824500501156,-0.0057518454268574715,-0.0041163149289786816,-0.01683664694428444,-0.002237765584141016,2.400064840912819e-05,0.0030843133572489023
34,0.0021642129868268967,-0.03919701650738716,0.02368534728884697,0.016461003571748734,0.0010463516227900982,0.005594311282038689,-0.013314377516508102,0.017268627882003784,-0.03599584847688675,0.04702351987361908
35,-0.0358278990131672,0.003936948421771865,-0.025690740803437986,-0.005821361561869468,0.0007019836134533144,-0.0023243504874236147,-0.018383138345800354,0.003456932059722142,0.006568371332619029,-0.00642623359728158
36,0.006579868495464325,-0.025341276079416275,-0.005608608480542898,-0.008055667392909527,-0.017704740166664124,-0.006826017517596483,-0.02569144405424595,-0.002119963988661766,-0.029438607394695282,0.023608151823282242
37,0.02365952730178833,-0.041334521025419235,0.010489096865057945,0.011180171743035316,-0.006398848257958889,0.010593820363283157,-0.045122578740119934,0.0100555419921875,-0.04732130095362663,0.041535962373018265
38,-0.008840330876410007,-0.028121313080191612,0.007175331935286522,-0.006633158773183823,-0.009739178232848644,-0.0012258338974788785,0.012040638364851475,0.0022387325298041105,-0.007604197133332491,0.015374617651104927
39,0.005822600796818733,-0.030612686648964882,-0.010181009769439697,-0.0018225462408736348,-0.008533952757716179,-0.004465041216462851,-0.005571736954152584,-0.0009572772542014718,-0.012496573850512505,0.003932868596166372
40,-0.006608244497328997,-0.047547221183776855,0.004614659585058689,0.00219837692566216,-0.006262480281293392,0.005787894129753113,0.020256131887435913,0.004199567250907421,-0.01922033540904522,0.01580623723566532
41,-0.01149825006723404,0.02386687882244587,0.01811775378882885,-0.006226112134754658,0.0049978261813521385,0.004730747081339359,-0.01970323733985424,-0.008166639134287834,0.008793802000582218,0.0013830438256263733
42,-0.0035209853667765856,-0.06380170583724976,0.006035560742020607,-0.004712922498583794,-0.008797818794846535,0.00328790838830173,0.054784730076789856,0.0014157249825075269,-0.0012201154604554176,0.013566644862294197
43,0.03170569986104965,-0.07271143794059753,0.012417684309184551,0.012424654327332973,-0.002176783513277769,0.013968040235340595,-0.04535893350839615,0.010163763538002968,-0.04643171280622482,0.04741835594177246
44,-0.01325155794620514,-0.00401415815576911,-0.006732837297022343,-0.0017063617706298828,-0.005734920967370272,-0.004717194475233555,-0.011461600661277771,-0.005755016580224037,-0.010532312095165253,0.0004854346625506878
45,0.013747269095695515,0.033133302333203225,-0.0063233809056347425,0.0065066053294526565,0.010162533849531391,0.010907600089426976,-0.017841930610771654,0.00047705934200267184,-0.006797028726162582,-0.01494683008179249
46,-0.0007415013387799263,-0.016833707690238953,-0.02335038036108017,-0.0021086805500090122,-0.01529628410935402,-0.0003863912425003946,-0.012030748650431633,0.006253788247704506,-0.02594582363963127,0.007612784393131733
47,0.06904850900173187,-0.023050813004374504,0.015368319116532803,0.047333069145679474,0.011022833175957203,0.04220939427614212,-0.06588862091302872,0.04553087055683136,-0.05871817469596863,0.07321345806121826
48,0.004124118480831385,-0.009037001989781857,-0.00032226755865849555,0.001979214372113347,-0.003587209153920412,0.000327718211337924,2.8406124329194427e-05,-0.0012071868404746056,-0.010815167799592018,0.01029309444129467
49,-0.017201777547597885,0.017032014206051826,0.05292043089866638,-0.0009965437930077314,-0.008637514896690845,-0.023965751752257347,0.04484515264630318,-0.021464187651872635,9.947060607373714e-05,-0.030104463919997215
50,-0.01344494428485632,0.0027648694813251495,0.008161951787769794,-0.008295385167002678,-0.010554051958024502,-0.0051330868154764175,-0.024960141628980637,0.002951154951006174,-0.013130473904311657,0.01693965494632721
51,0.0032028318382799625,0.06297063827514648,0.011148924008011818,0.017520654946565628,0.009373406879603863,0.0022716554813086987,-0.0463656447827816,0.012680275365710258,0.016809795051813126,0.001960628665983677
52,0.038633160293102264,0.004005760885775089,0.006559772416949272,0.02081151306629181,0.0027295320760458708,0.015503070317208767,-0.0417005829513073,0.016713935881853104,-0.03876514360308647,0.04594307765364647
53,0.01754845306277275,-0.03821054473519325,-0.003933915868401527,0.013009629212319851,-0.004651994444429874,0.01187015138566494,0.003297830931842327,0.013654698617756367,-0.013852863572537899,0.038615867495536804
54,-0.01198038924485445,-0.007058845832943916,0.007848145440220833,-0.007766695227473974,-0.010294871404767036,-0.0038903383538126945,-0.013191601261496544,0.0027245597448199987,-0.011372777633368969,0.01644188165664673
55,0.012832727283239365,-0.01624615490436554,0.00020574103109538555,0.014414738863706589,-0.0007536293705925345,0.009886147454380989,-0.005492445547133684,0.01295394729822874,-0.00695244874805212,0.027661209926009178
56,0.008289463818073273,-0.009311954490840435,-0.004147585481405258,0.010105475783348083,0.010520481504499912,0.008123429492115974,-0.006544523872435093,0.011837327852845192,0.004918559920042753,0.011099137365818024
57,-0.025645354762673378,0.04548284038901329,0.018666917458176613,-0.020259052515029907,0.0014289774699136615,-0.01781138777732849,0.019624022766947746,-0.016175061464309692,0.002713004592806101,-0.044534534215927124
58,-0.0015690131112933159,-0.029967736452817917,-0.009757163003087044,0.0065375324338674545,-0.008281171321868896,-8.928519673645496e-05,-0.01781594753265381,0.007717885076999664,-0.021688375622034073,0.026717860251665115
59,-0.015522775240242481,0.01670227386057377,0.008607161231338978,-0.009045464918017387,-0.010921760462224483,-0.0068962350487709045,-0.04165675491094589,0.0032726344652473927,-0.015624209307134151,0.017645888030529022
60,0.024723704904317856,0.041215166449546814,0.025640645995736122,-0.000880346167832613,0.005967546254396439,0.008466862142086029,0.016224868595600128,0.013980974443256855,0.04747848957777023,0.009526620618999004
61,0.008909313008189201,-0.027664877474308014,-0.006779836490750313,0.0038660061545670033,-0.008011171594262123,0.0016045932425186038,-0.01633468270301819,0.00020651798695325851,-0.02655421569943428,0.012834747321903706
62,0.029099363833665848,-0.05932889133691788,0.006812415551394224,0.011072970926761627,-0.006742588244378567,0.010021695867180824,-0.07827066630125046,0.0074260905385017395,-0.05856288596987724,0.04923663288354874
63,0.006330749019980431,-0.04179968684911728,-0.008583894930779934,0.007125334348529577,-0.011199583299458027,0.0072150155901908875,-0.05834551900625229,0.0074845352210104465,-0.04820273444056511,0.0366177037358284
64,0.013907217420637608,-0.017152197659015656,-0.013326105661690235,-0.002924726577475667,-0.017711400985717773,-0.001005822792649269,-0.03998177498579025,0.0023879874497652054,-0.033928610384464264,0.025863632559776306
65,-0.014028222300112247,0.004105347208678722,0.0070843929424881935,-0.003871265798807144,-0.008877678774297237,-0.0026715428102761507,-0.03526055067777634,0.004373160656541586,-0.022085508331656456,0.017825260758399963
66,-0.011399079114198685,-0.010958103463053703,0.007723589427769184,-0.007556845434010029,-0.010191995650529861,-0.0033970619551837444,-0.008520406670868397,0.0026346195954829454,-0.010675101540982723,0.016244295984506607
67,-0.0035209835041314363,-0.06380170583724976,0.006035555154085159,-0.004712922032922506,-0.008797816932201385,0.0032879074569791555,0.054784730076789856,0.001415724866092205,-0.0012201154604554176,0.013566646724939346
68,0.0014029594603925943,0.01675781048834324,0.006976504810154438,-0.0009560415055602789,-0.0013283377047628164,-0.001730807009153068,-9.239709470421076e-05,0.004896078258752823,-0.012647360563278198,0.023312881588935852
69,0.0034723347052931786,-0.02993578091263771,0.008794023655354977,0.002246583579108119,-0.004519287496805191,0.0037543615326285362,-0.0017555380472913384,0.005651142448186874,-0.010668663308024406,0.019820787012577057
70,0.012764951214194298,-0.007916973903775215,0.00820148829370737,0.0010881682392209768,-0.002357887104153633,0.002052719471976161,-0.014118797145783901,0.003350416664034128,-0.017759984359145164,0.00780138885602355
71,0.004953351803123951,-0.02069961279630661,-0.003446197137236595,0.004902754444628954,-0.002950266469269991,-0.014718309976160526,-0.0015207758406177163,-0.01289382390677929,0.014492112211883068,-0.032473064959049225
72,-0.00026407651603221893,-0.07007236033678055,0.018919503316283226,0.019456306472420692,-0.0036859940737485886,0.004946973640471697,-0.018072959035634995,0.016973786056041718,-0.05553271248936653,0.05137809365987778
73,0.0015862509608268738,-0.0006305733695626259,-0.026429500430822372,-0.0008518458344042301,-0.01562504842877388,-0.0013174480991438031,-0.03347393870353699,0.007501117419451475,-0.03357459604740143,0.009379414841532707
74,0.013927062042057514,-0.024305617436766624,0.0047311680391430855,0.003738327883183956,-0.007757031358778477,0.0008261490147560835,-0.023704633116722107,-7.862073834985495e-05,-0.024749889969825745,0.022521939128637314
75,-0.006981136742979288,-0.004312514327466488,0.0033030156046152115,-0.003849437925964594,-0.008357947692275047,-0.0012921717716380954,0.004619586747139692,0.0031942883506417274,0.018792446702718735,-0.002573241014033556
76,-0.00912502035498619,-0.0318225659430027,-0.0037649101577699184,0.005710726138204336,-0.0036170566454529762,0.006141603458672762,-0.000418934621848166,0.006013389211148024,-0.03392677754163742,0.040644995868206024
77,-0.010049685835838318,-0.029427960515022278,0.003030748339369893,0.009902573190629482,-0.003436278784647584,0.00857468694448471,-0.01823374256491661,0.007302781566977501,-0.03928562253713608,0.01830277033150196
78,0.005134552717208862,-0.04647764563560486,0.007211682386696339,-0.0034960161428898573,-0.007557377684861422,0.0041552321054041386,0.04847630858421326,0.0020497902296483517,-0.005286288447678089,0.015303345397114754
79,-0.0018200695049017668,-0.010818609967827797,-0.0009255414479412138,-0.001700202003121376,-0.006880371365696192,0.002478999085724354,-0.015358783304691315,0.01175137422978878,-0.01792079210281372,0.004202928394079208
80,0.01962103880941868,-0.0029488683212548494,-0.0030584298074245453,0.021135075017809868,-0.005948258563876152,0.016291163861751556,-0.044409386813640594,0.024246681481599808,-0.02691090665757656,0.01183397974818945
81,-0.004173473212377705,0.03099430433863857,0.03512238386416055,0.0035418504410151532,0.005353574202756622,0.007939569434546993,0.011794947198760352,0.003814197244173131,0.02403491582893986,0.005011868788157744
82,0.0145522840321064,-0.023356514051556587,-0.00997383426874876,-0.0005474011995829642,-0.00968244019895792,0.0014982507564127445,-0.047257717698812485,-0.0007651569321751595,-0.03496206924319267,0.01345784217119217
83,0.004906584974378347,0.04803038015961647,-0.012546285055577755,-0.007672193460166454,0.005635087378323078,-0.007268373388797045,-0.02275090664625168,-0.013035420328378677,-0.007144949398934841,-0.03721997141838074
84,-0.013444943353533745,0.0027648694813251495,0.008161951787769794,-0.008295385167002678,-0.010554051958024502,-0.0051330868154764175,-0.024960141628980637,0.002951154951006174,-0.013130473904311657,0.01693965494632721
85,0.011349610053002834,-0.03063271939754486,0.013435031287372112,-0.0024874447844922543,-0.0019262370187789202,0.0006482700118795037,0.005692608188837767,0.001942075090482831,-0.01859463006258011,0.018348170444369316
86,0.005980231799185276,-0.007829434238374233,0.002513230312615633,-0.0009247194393537939,-0.0023961940314620733,0.0032673387322574854,-0.016036346554756165,0.0027950042858719826,-0.0035427978727966547,-0.0057014841586351395
87,0.007897591218352318,-0.011061838828027248,0.009933249093592167,0.009736576117575169,-0.0006048583891242743,0.006053554359823465,-0.024398019537329674,0.010264688171446323,-0.012207208201289177,0.02129988931119442
88,-0.007931234315037727,0.009471284225583076,-0.023496437817811966,0.0025062761269509792,0.005460346583276987,-0.004166408907622099,0.06876062601804733,-0.008444055914878845,0.03894120454788208,0.020718486979603767
89,-0.003520985133945942,-0.06380170583724976,0.006035557948052883,-0.004712920635938644,-0.00879781786352396,0.0032879081554710865,0.054784730076789856,0.0014157266123220325,-0.0012201210483908653,0.013566645793616772
90,0.008660603314638138,0.012227317318320274,-0.006960451602935791,-0.003940041176974773,-0.007268992252647877,0.0022429567761719227,-0.03046102449297905,-0.004022117704153061,-0.0395282581448555,0.032616227865219116
91,0.001148901181295514,0.057895638048648834,0.010870122350752354,0.01460672914981842,0.007147311698645353,0.0012660655193030834,-0.04584915190935135,0.011648392304778099,0.013252239674329758,0.0036810797173529863
92,0.014417451806366444,0.0980105996131897,0.04027900844812393,-0.011913676746189594,0.012439975515007973,0.010284513235092163,0.05706101283431053,0.013169001787900925,0.099697545170784,-0.013175389729440212
93,0.0032028318382799625,0.06297063827514648,0.011148924008011818,0.017520654946565628,0.009373406879603863,0.0022716554813086987,-0.0463656447827816,0.012680275365710258,0.016809795051813126,0.001960628665983677
94,-0.015522775240242481,0.01670227386057377,0.008607161231338978,-0.009045464918017387,-0.010921760462224483,-0.0068962350487709045,-0.04165675491094589,0.0032726344652473927,-0.015624209307134151,0.017645888030529022
95,-0.015522775240242481,0.01670227386057377,0.008607161231338978,-0.009045464918017387,-0.010921760462224483,-0.0068962350487709045,-0.04165675491094589,0.0032726344652473927,-0.015624209307134151,0.017645888030529022
96,-0.011980388313531876,-0.007058846764266491,0.007848145440220833,-0.007766695227473974,-0.010294871404767036,-0.003890338120982051,-0.013191601261496544,0.0027245599776506424,-0.011372777633368969,0.01644188165664673
97,0.020717067644000053,-0.02851167879998684,0.004720436409115791,0.010680882260203362,-0.0027286773547530174,0.009616628289222717,-0.011069923639297485,0.007865041494369507,0.0016174986958503723,0.028494229540228844
98,0.0002723459620028734,-0.015153078362345695,-0.01633984036743641,0.0041784425266087055,-0.012596575543284416,-0.0024442533031105995,-0.048823282122612,-8.048734162002802e-05,-0.04956785589456558,0.014505595900118351
99,0.0021940015722066164,-0.028041191399097443,0.016242071986198425,0.0029511896427720785,-0.009849553927779198,-0.0023362250067293644,-0.0007467556279152632,0.00458185188472271,-0.035440970212221146,0.026971474289894104
100,0.04062574729323387,-0.04659290239214897,-0.018879391252994537,0.014110705815255642,-0.011691184714436531,0.008928969502449036,-0.05830191448330879,0.00538986548781395,-0.043070223182439804,0.035111360251903534
101,0.004807388409972191,0.006445314735174179,0.005826958455145359,0.002455794718116522,-0.0010377108119428158,0.0059010740369558334,-0.016726559028029442,0.009936254471540451,0.003234858624637127,0.01366974413394928
102,0.028082188218832016,-0.00367346010170877,0.019424667581915855,0.015903478488326073,0.010796554386615753,0.017606114968657494,-0.0027214796282351017,0.015119974501430988,0.0017327932873740792,0.026498179882764816
103,0.005183526314795017,-0.02114233560860157,0.0015065288171172142,0.0015867890324443579,-0.012109631672501564,0.0003374067600816488,-0.028349054977297783,-0.0020264729391783476,-0.034774526953697205,0.0435434952378273
104,5.7979486882686615e-06,-0.023941610008478165,-0.0039001889526844025,-0.001332074054516852,-0.008150233887135983,0.0019427170045673847,-0.001279953634366393,0.008041677065193653,-0.017729515209794044,0.0007809280650690198
105,-0.009318377822637558,-0.03509822487831116,-0.05036025494337082,-0.020209528505802155,-0.028410248458385468,-0.01728004589676857,0.009577644988894463,-0.027230482548475266,-0.020215831696987152,-0.017528165131807327
106,-0.0059000784531235695,-0.014743178151547909,0.007661872543394566,-0.0011069497559219599,-0.005680247209966183,0.00035128952004015446,0.004735151771456003,0.004353497177362442,-0.0032263498287647963,0.012652501463890076
107,-0.005829186178743839,0.012174464762210846,-0.003094905987381935,-0.006960652768611908,-0.0027862165588885546,-0.003553758142516017,-0.005595304071903229,-0.005268426146358252,0.007091913837939501,-0.004730145446956158
108,0.01916681043803692,-0.0049416967667639256,0.01982143148779869,0.0033371674362570047,-0.004460964351892471,0.005702313035726547,-0.019389580935239792,0.007340362295508385,0.002220775466412306,0.02248135209083557
109,-0.01404423639178276,-0.013790713623166084,0.0033829067833721638,-0.0030623613856732845,-0.0045415619388222694,-0.0015238167252391577,0.027596531435847282,-0.001999450381845236,0.007268709130585194,0.01380558218806982
110,-0.01344494428485632,0.0027648694813251495,0.008161951787769794,-0.008295385167002678,-0.010554051958024502,-0.0051330868154764175,-0.024960141628980637,0.002951154951006174,-0.013130473904311657,0.01693965494632721
111,-0.010052565485239029,-0.019990064203739166,0.007435065694153309,-0.007070764899253845,-0.009953705593943596,-0.0022544763050973415,0.0022996210027486086,0.002426288090646267,-0.009059073403477669,0.015786634758114815
112,-0.0060065630823373795,0.0036211195401847363,-0.03181733563542366,-0.011508810333907604,-0.00278229801915586,0.0016932259313762188,0.04192820191383362,-0.0022009422536939383,-0.0291316919028759,0.012786058709025383
113,-0.00031330622732639313,0.015873460099101067,0.005533665418624878,-0.0005975307431071997,0.00048128259368240833,0.002393802162259817,-0.01997441053390503,0.011908103711903095,0.002616569399833679,-0.005770119838416576
114,-0.007583649829030037,-0.036550745368003845,0.0069060614332556725,-0.006179505027830601,-0.009516782127320766,-0.00015947059728205204,0.022138861939311028,0.002044297754764557,-0.006095963064581156,0.014947488903999329
115,0.007274874486029148,0.08219974488019943,0.030206264927983284,-0.012701094150543213,0.007081858813762665,0.006367107853293419,0.041779521852731705,0.009944209828972816,0.07618532329797745,-0.008255495689809322
116,-0.0050285616889595985,-0.03556443378329277,-1.8304563127458096e-06,0.0030322649981826544,-0.009793033823370934,0.0033207274973392487,-0.023376228287816048,0.00266253505833447,-0.03636343032121658,0.021530410274863243
117,-0.0035209835041314363,-0.06380170583724976,0.006035555154085159,-0.004712922032922506,-0.008797816932201385,0.0032879074569791555,0.054784730076789856,0.001415724866092205,-0.0012201154604554176,0.013566646724939346
118,0.007143531925976276,-0.0028615794144570827,-0.007535832468420267,-0.005594340153038502,-0.006231246516108513,-0.003788410685956478,-0.013254671357572079,-0.0015129059320315719,-0.020771032199263573,0.008027804084122181
119,-0.0035209835041314363,-0.06380170583724976,0.006035555154085159,-0.004712922032922506,-0.008797816932201385,0.0032879074569791555,0.054784730076789856,0.001415724866092205,-0.0012201154604554176,0.013566646724939346
120,0.003925790078938007,0.06951853632926941,0.029180550947785378,-0.010908596217632294,0.004253549966961145,0.004264031071215868,0.022468315437436104,0.009701116010546684,0.05928647145628929,-0.0023749973624944687
121,0.0006221395451575518,-0.03181855380535126,-0.017495710402727127,0.012161307968199253,-0.01007977407425642,0.0067662326619029045,-0.04977191239595413,0.011610585264861584,-0.044276755303144455,0.03657376393675804
122,-0.00029206578619778156,-0.010105578228831291,0.007252066396176815,0.00022488110698759556,-0.004787929356098175,-0.0017288934905081987,-0.005880643613636494,0.005195540376007557,-0.021128801628947258,0.03008878044784069
123,0.010792255401611328,0.07241116464138031,0.03428002446889877,-0.010605834424495697,0.008687526918947697,0.008789313957095146,0.05272866040468216,0.011223368346691132,0.08097244799137115,-0.00826890766620636
124,0.0020311186090111732,-0.015571056865155697,0.015925802290439606,0.004471484571695328,-0.007898244075477123,-0.002228308701887727,-0.009175780229270458,0.00553602259606123,-0.030837979167699814,0.02464325726032257
125,0.008986921980977058,-0.022440269589424133,0.004445363767445087,-0.0017137338872998953,-0.0008995465468615294,0.0040968311950564384,-0.024403641000390053,-0.000661610858514905,0.0005248831585049629,-0.002437939867377281
126,-0.019235579296946526,-0.010493134148418903,0.006275404244661331,0.009149005636572838,0.0022377711720764637,0.007831349037587643,-0.013064318336546421,0.006208943203091621,-0.025752749294042587,0.010409247130155563
127,0.008160088211297989,0.018875978887081146,-0.045476872473955154,0.0010591805912554264,-0.012134493328630924,-0.0030028780456632376,-0.03526924178004265,-0.0068105366080999374,-0.06673155725002289,0.041152529418468475
128,0.017605625092983246,-0.00040605361573398113,0.004334055352956057,0.02074308507144451,-0.0011729304678738117,0.017971143126487732,-0.01826813817024231,0.01848188415169716,-0.04177739471197128,0.03508055955171585
129,-0.0035209835041314363,-0.06380170583724976,0.006035555154085159,-0.004712922032922506,-0.008797816932201385,0.0032879074569791555,0.054784730076789856,0.001415724866092205,-0.0012201154604554176,0.013566646724939346
130,0.003349256468936801,0.0026150597259402275,-0.010553303174674511,-0.008005267940461636,-0.005951017141342163,-0.005560348741710186,-0.01055904384702444,-0.008180823177099228,-0.0038601758424192667,-0.0029146349988877773
131,-0.008840330876410007,-0.028121313080191612,0.007175331935286522,-0.006633158773183823,-0.009739178232848644,-0.0012258338974788785,0.012040638364851475,0.0022387325298041105,-0.007604197133332491,0.015374617651104927
132,0.0010870664399444505,-0.03372535324651985,0.004565363759083277,-0.006868868974748258,-0.010064056915315847,-0.011125761937112223,-0.020568332112138966,-0.002402913765311914,-0.017873588167450882,0.029762657712808067
133,-0.006307001773772293,0.018455185067770854,0.07043066498598835,-0.008057093068488171,-0.0007529905851827775,-0.009047770871777633,0.05708192795883362,-0.014366548641321144,0.011029634980433481,-0.0183133879542952
134,0.0034909218084067106,-0.04369514808058739,-0.00798291526734829,0.011038817465305328,-0.0009320077951997519,0.009817628189921379,-0.026337210088968277,0.005480270367115736,-0.01847623661160469,0.045039694756269455
135,0.015300240367650986,-0.019295163452625275,-0.00623223977163434,0.00035183574073016644,-0.016315989196300507,0.009689738973975182,-0.0421590581536293,0.015387548133730888,-0.037683725357055664,0.016239844262599945
136,-0.004374639596790075,0.022316573187708855,0.021723033860325813,-0.0063533172942698,-0.006420266814529896,-0.010074533522129059,-0.04794605076313019,-0.008936416357755661,-0.0038733561523258686,0.009523834101855755
137,-0.002550142351537943,-0.027922889217734337,-0.016555819660425186,-0.008050661534070969,-0.017251599580049515,-0.0037342729046940804,-0.011151368729770184,-0.0024249935522675514,-0.01929110661149025,0.012258380651473999
138,-0.005834582261741161,-0.048282887786626816,0.006531293038278818,-0.005548109300434589,-0.009207253344357014,0.0013247034512460232,0.03619363531470299,0.0017736849840730429,-0.003996802028268576,0.014353005215525627
139,0.020336158573627472,-0.00694195507094264,0.008095590397715569,0.005869404412806034,-0.005627344362437725,0.004900569096207619,-0.027995264157652855,0.009751502424478531,-0.02929518185555935,0.02087005227804184
140,-0.0049504995191820755,0.04372197006711283,-0.01505303584645884,0.0036624696848236594,0.0016689208614725282,0.007612013422861101,0.0006607728479742152,0.010447297063547193,0.03843068891314734,-0.012022175014410483
141,-0.007444885093718767,-0.02044074609875679,0.009001418948173523,-0.004993831738829613,-0.00819446798413992,-0.0002773676533252001,0.004170050844550133,0.0031538615003228188,-0.013297691941261292,0.019763072952628136
142,0.028429966419935226,-0.0017737539019435644,0.01617727242410183,0.019689718261361122,0.0008032009936869144,0.012365004979074001,-0.012629135511815548,0.01239994540810585,0.0015528936637565494,0.025217782706022263
143,-0.004007094539701939,-0.00963139720261097,0.007628323044627905,0.002999670337885618,-0.003020245349034667,0.002055100165307522,0.0016605551354587078,0.005757085047662258,-0.0021760561503469944,0.011195624247193336
144,-0.015522775240242481,0.01670227386057377,0.008607161231338978,-0.009045464918017387,-0.010921760462224483,-0.0068962350487709045,-0.04165675491094589,0.0032726344652473927,-0.015624209307134151,0.017645888030529022
145,0.008860146626830101,-0.06632265448570251,0.006184180732816458,0.011594200506806374,-0.008188600651919842,0.004158073104918003,-0.007282646372914314,0.009057716466486454,-0.04328064247965813,0.033969201147556305
146,0.0016158197540789843,-0.026988642290234566,-0.008409724570810795,-0.002464674413204193,-0.020041629672050476,-0.004608825780451298,-0.08059869706630707,-0.0035704344045370817,-0.05417153611779213,0.03145197778940201
147,0.018505699932575226,0.02477232925593853,-0.017104635015130043,0.003627263242378831,-0.0018751315074041486,0.0015065702609717846,-0.020171059295535088,-0.0007581254467368126,-0.013554103672504425,0.009821092709898949
148,0.007298542186617851,-0.009750413708388805,-4.216446541249752e-06,0.006917308084666729,-0.007815992459654808,0.00141992699354887,-0.04260716587305069,0.002549335826188326,-0.043000202625989914,0.025143595412373543
149,-0.0035962758120149374,0.005004563834518194,0.014640259556472301,-0.004719870164990425,-0.0030022747814655304,0.0033611212857067585,0.014733913354575634,0.006026013754308224,0.012345734983682632,0.00896305963397026
150,-0.012654328718781471,-0.0025383024476468563,0.007992547936737537,-0.008009981364011765,-0.010414138436317444,-0.004462208598852158,-0.018607083708047867,0.0028288308531045914,-0.012181608006358147,0.016670934855937958
151,0.01138281635940075,0.01004335843026638,0.01184153277426958,0.0004081055521965027,-0.007546410895884037,-0.0007561787497252226,-0.062091752886772156,-0.0030532986856997013,-0.07679042965173721,0.04886336624622345
152,-0.0013016981538385153,-0.038607437163591385,0.00617408100515604,0.010606780648231506,-0.0015864629531279206,0.009641850367188454,-0.02908775396645069,0.014477413147687912,-0.024811606854200363,0.029282651841640472
153,0.005605141166597605,-0.017349161207675934,-0.0031180907972157,0.014988889917731285,-0.004518534988164902,0.0038325698114931583,-0.02179172821342945,0.010788673534989357,-0.02788337878882885,0.007463088259100914
154,0.012300385070568833,-0.007048962804225133,0.06860026730536993,0.017051122891442973,0.01325123562422423,0.01855769377131721,0.006639302706711035,0.013283323945328015,0.0394542545166842,0.02048300010936631
155,0.020329415798187256,-0.042273346334695816,-0.008015763945877552,0.0050087617710232735,-0.013852465897798538,0.0033708142582327127,-0.037651609629392624,-0.0013416837900876999,-0.039577167481184006,0.027512462809681892
156,0.01999083161354065,-0.014011275954544544,-0.009118844754993916,0.0049970559775829315,-0.012860787101089954,0.001967288088053465,-0.03447267785668373,0.0030354810878634453,-0.028045857325196266,0.02897588722407818
157,0.046451762318611145,0.03157924860715866,0.01617470011115074,0.025318050757050514,0.015127493068575859,0.01924777217209339,-0.04273316636681557,0.01719229482114315,0.007193221710622311,0.03398092836141586
158,0.02696901373565197,-0.03494148701429367,-0.009505697526037693,0.019946085289120674,-0.004365048371255398,0.015123534947633743,-0.019243258982896805,0.01701263338327408,-0.023027360439300537,0.04897579550743103
159,0.011412868276238441,-0.024720754474401474,-0.008586877956986427,0.0010985250119119883,-0.009687842801213264,0.004234084859490395,-0.021467100828886032,0.001198107609525323,-0.014220579527318478,0.015624127350747585
160,-0.005735477898269892,-0.017722731456160545,-0.008548412472009659,-0.0013012443669140339,-0.010793661698698997,0.0010738485725596547,-0.014396511018276215,0.003290870226919651,-0.02430790476500988,0.01313074678182602
161,-0.0035209835041314363,-0.06380170583724976,0.006035555154085159,-0.004712922032922506,-0.008797816932201385,0.0032879074569791555,0.054784730076789856,0.001415724866092205,-0.0012201154604554176,0.013566646724939346
162,0.035010360181331635,-0.005220177583396435,-0.007908605970442295,0.015158599242568016,0.0018567258957773447,0.018520817160606384,-0.03238784521818161,0.017725281417369843,-0.07034143805503845,0.04255256801843643
163,-0.03678666800260544,0.01583527959883213,-0.004610861651599407,-0.005796598270535469,-0.003056330606341362,-0.002103151986375451,0.01795355975627899,-0.0013441464398056269,-0.015177627094089985,0.020441710948944092
164,-0.006334247067570686,0.03004656545817852,0.010333272628486156,-0.012854454107582569,-0.0029559717513620853,-0.0024590985849499702,0.030500177294015884,-9.186830720864236e-05,0.028193041682243347,-0.008465202525258064
165,0.031205974519252777,-0.021621976047754288,-0.010396268218755722,0.024497641250491142,-0.001964612863957882,0.0174332857131958,-0.030076704919338226,0.021588176488876343,-0.022041596472263336,0.05485311895608902
166,0.036708224564790726,-0.03823485225439072,0.001904662698507309,0.02187078259885311,-0.0034048533998429775,0.016720347106456757,-0.03792226314544678,0.016015321016311646,-0.0360487699508667,0.042725175619125366
167,0.017966387793421745,-0.003978394437581301,0.01806674152612686,0.001964566530659795,0.0005758358165621758,0.007631836924701929,-0.0009732048492878675,0.007951001636683941,0.018161889165639877,0.022075215354561806
168,0.004673173185437918,-0.013686507940292358,-0.018765736371278763,0.0052538057789206505,-0.010285058058798313,0.0005636204732581973,-0.04120425134897232,-0.0006472145905718207,-0.04869379103183746,0.02918500266969204
169,-0.01700718142092228,0.023357843980193138,-0.012849932536482811,-0.009026030078530312,-0.000702702789567411,-0.007391377352178097,0.0014342005597427487,-0.0016476481687277555,-0.003669903613626957,-0.008766954764723778
170,-0.015522775240242481,0.01670227386057377,0.008607161231338978,-0.009045464918017387,-0.010921760462224483,-0.0068962350487709045,-0.04165675491094589,0.0032726344652473927,-0.015624209307134151,0.017645888030529022
171,-0.0020336236339062452,-0.009562866762280464,0.007168270647525787,0.002624667016789317,-0.003558654570952058,0.004226418677717447,-0.02321370132267475,0.003441517474129796,-0.009098497219383717,0.011406635865569115
172,-0.011980388313531876,-0.007058846764266491,0.007848145440220833,-0.007766695227473974,-0.010294871404767036,-0.003890338120982051,-0.013191601261496544,0.0027245599776506424,-0.011372777633368969,0.01644188165664673
173,0.004372033756226301,-0.04306475818157196,0.0018516789423301816,0.004217473790049553,-0.012082502245903015,0.004995681345462799,-0.037995170801877975,0.004833997692912817,-0.042645517736673355,0.02780781127512455
174,-0.0035209835041314363,-0.06380170583724976,0.006035555154085159,-0.004712922032922506,-0.008797816932201385,0.0032879074569791555,0.054784730076789856,0.001415724866092205,-0.0012201154604554176,0.013566646724939346
175,0.03527180850505829,-0.03205639123916626,0.008399751037359238,0.0048338500782847404,-0.015251857228577137,0.0030976543202996254,-0.03627961874008179,-0.00020185229368507862,-0.04211217910051346,0.032845839858055115
176,0.008138822391629219,-0.03308168426156044,0.006156448274850845,0.010042833164334297,-0.005637256894260645,0.004005097784101963,-0.01733100414276123,0.008896317332983017,-0.046979889273643494,0.03891271352767944
177,0.018158642575144768,-0.0299854576587677,0.012414023280143738,0.008349135518074036,0.00043435744009912014,0.01429222896695137,0.032366156578063965,0.015340850688517094,-0.0036110803484916687,0.01959512010216713
178,0.01253462117165327,0.015819290652871132,-0.04477205127477646,-0.0016593163600191474,-0.01159568503499031,0.0012409848859533668,-0.018565118312835693,-0.007149756886065006,-0.054664354771375656,0.03874359279870987
179,0.014417454600334167,0.0980105996131897,0.040279000997543335,-0.011913674883544445,0.012439976446330547,0.01028451044112444,0.05706101283431053,0.013169003650546074,0.099697545170784,-0.013175386935472488
180,-0.042063236236572266,0.015543739311397076,-0.03296096995472908,0.002375473268330097,-0.008334176614880562,-0.0065195015631616116,0.03814072906970978,0.0010440018959343433,-0.004724207334220409,-0.014999663457274437
181,0.015872115269303322,-0.01147180050611496,-0.016465090215206146,-0.004020382650196552,-0.004742795135825872,0.0059696887619793415,-0.006657054647803307,0.006463103927671909,-0.022917049005627632,0.03163949027657509
182,-0.0031377358827739954,0.015011941082775593,0.009056875482201576,0.004803994670510292,-0.0006891158409416676,0.00043027260107919574,-0.015615521930158138,0.00718294270336628,0.003956146538257599,0.009022917598485947
183,-0.003975106403231621,-0.06141076982021332,0.005826552398502827,-0.003696310566738248,-0.008424886502325535,0.0036556399427354336,0.049705781042575836,0.0018252120353281498,-0.0038678315468132496,0.013896085321903229
184,0.00809280015528202,-0.027151454240083694,0.01149035058915615,0.0006395124364644289,-0.010537642985582352,-0.0006859470740891993,-0.00903994683176279,0.0035658159758895636,-0.02838287316262722,0.01825418695807457
185,0.02304387092590332,0.003673972561955452,0.026473334059119225,0.017864476889371872,0.01170424371957779,0.01006884966045618,0.007768465206027031,0.010708367452025414,-0.0046379780396819115,0.030829288065433502
186,0.025270815938711166,-0.03231552615761757,-0.003035603789612651,0.008386275731027126,-0.006623352412134409,0.008273397572338581,-0.010568779893219471,0.010169905610382557,-0.02032841369509697,0.040105778723955154
187,0.034406911581754684,-0.04811643436551094,0.0024105277843773365,0.024866808205842972,0.007618859875947237,0.021846743300557137,-0.018808381631970406,0.009083854965865612,-0.020632602274417877,0.028059467673301697
188,0.007943172007799149,-0.0005453506018966436,0.0143438670784235,0.0037748441100120544,0.0005193260731175542,0.004479838069528341,-0.01493893377482891,0.006086340174078941,-0.00768525805324316,0.021363113075494766
189,0.00673946738243103,0.01097345631569624,-0.00706363283097744,0.007174791768193245,0.003907052334398031,0.003643232863396406,-0.024136167019605637,0.0011796809267252684,-0.013042999431490898,0.024660596624016762
190,0.028475338593125343,-0.029483705759048462,-0.013573363423347473,0.013121179305016994,0.001163202105090022,0.02600960060954094,-0.04236815869808197,0.014229394495487213,-0.025007927790284157,0.06161315739154816
191,0.0075552030466496944,2.109934575855732e-05,-0.013973665423691273,-0.002860228531062603,-0.011483121663331985,0.0011579091660678387,-0.010225917212665081,-0.0005139856366440654,-0.024252820760011673,0.005022096447646618
192,0.003083278890699148,-0.032072532922029495,0.021617034450173378,0.010293899103999138,-0.0005563711747527122,0.005389792378991842,-0.0015467993216589093,0.015012259595096111,-0.01921643689274788,0.03347271308302879
193,-0.023558855056762695,0.061165936291217804,0.023952515795826912,-0.01866334304213524,-0.0042573269456624985,-0.006990914233028889,0.01479601301252842,-0.0012784582795575261,0.028782768175005913,-0.015721647068858147
194,-0.022085152566432953,0.002435659756883979,-0.015203208662569523,-0.01671237125992775,-0.009272268041968346,-0.01143980585038662,-0.008549034595489502,-0.012266255915164948,0.0014341138303279877,-0.0204663947224617
195,-0.003520985133945942,-0.06380170583724976,0.006035557948052883,-0.004712920635938644,-0.00879781786352396,0.0032879081554710865,0.054784730076789856,0.0014157266123220325,-0.0012201210483908653,0.013566645793616772
196,0.002722004661336541,0.021508868783712387,0.017581531777977943,-0.0013806940987706184,0.0019886933732777834,0.004437044728547335,0.023296019062399864,0.007888554595410824,0.03217432647943497,0.0029762559570372105
197,-0.019909722730517387,-0.022585229948163033,0.0004742163000628352,-0.0038282107561826706,-0.002920858096331358,0.002792229875922203,0.015467065386474133,0.00446140905842185,0.005372273735702038,0.014237354509532452
198,0.01062769629061222,0.006020917557179928,-0.001782348146662116,0.00665904488414526,0.0017309659160673618,0.00867211353033781,-0.01479190494865179,0.014738043770194054,-0.025267528370022774,0.01906496286392212
199,-0.00016506027895957232,0.020388633012771606,-0.006337606348097324,-0.0007238470716401935,0.002836352214217186,0.0052018119022250175,0.01180553063750267,0.0002499090041965246,0.01746111363172531,0.008293882012367249
200,0.006481907330453396,-0.021232355386018753,0.012612521648406982,0.015441883355379105,-0.00121007626876235,0.012951264157891273,-0.02436109445989132,0.012453602626919746,-0.008846832439303398,0.03186773508787155
201,-0.007155652157962322,-0.04466511681675911,0.004362716339528561,0.0034238314256072044,-0.0058129336684942245,0.00623116921633482,0.014133812859654427,0.004693174734711647,-0.02241198904812336,0.016203347593545914
202,-0.00695078494027257,-0.00918647088110447,0.011464894749224186,-0.005242392420768738,-0.010718999430537224,-0.0017830238211899996,-0.03678595647215843,0.00464702770113945,-0.013923675753176212,0.010531947016716003
203,-0.008840330876410007,-0.028121313080191612,0.007175331935286522,-0.006633158773183823,-0.009739178232848644,-0.0012258338974788785,0.012040638364851475,0.0022387325298041105,-0.007604197133332491,0.015374617651104927
204,-0.006184409372508526,-0.037371713668107986,0.005816436838358641,-0.0021498738788068295,-0.008342609740793705,-0.0016847787192091346,0.017280573025345802,0.002159079536795616,-0.02085055224597454,0.02291450835764408
205,0.02875281125307083,-0.03801616653800011,-0.007292932830750942,0.005327347666025162,-0.010564131662249565,0.0037622826639562845,-0.02443647012114525,0.004779186099767685,-0.02504333108663559,0.03785603493452072
206,-0.008538261987268925,-0.032594941556453705,0.005966298282146454,-0.002113856142386794,-0.007992297410964966,0.0018438175320625305,0.009126350283622742,0.0034592689480632544,-0.015096936374902725,0.015926014631986618
207,-0.013990855775773525,0.01269366405904293,-0.011408510617911816,-0.004818927962332964,0.001967993564903736,-0.005908286664634943,0.01145318616181612,-0.007156125269830227,0.008932780474424362,-0.014123368076980114
208,0.03267695058959154,-0.00539083846750239,0.005898737545822503,0.017935458172176892,0.012935868414555619,0.018159589632418417,-0.009443968922003073,0.02386549707792283,0.03906568448454753,0.00180797262330391
209,-0.015881717205047607,0.02418888546526432,0.01201027911156416,-0.028805172070860863,-0.013654598034918308,-0.012639175169169903,0.044750552624464035,-0.00882052443921566,0.05951580032706261,-0.0600394532084465
210,0.006291668396443129,0.060836244374513626,0.012380991131067276,0.019797183573246002,0.011342969723045826,0.005869021639227867,-0.026817994192242622,0.011056936345994473,0.02154221571981907,0.004002390429377556
211,0.03092130273580551,-0.04148334637284279,-0.011293502524495125,0.01830238476395607,-0.004520253743976355,0.004268866963684559,-0.048001911491155624,0.004469052888453007,-0.03420351818203926,0.0358562096953392
212,-0.003520985133945942,-0.06380170583724976,0.006035557948052883,-0.004712920635938644,-0.00879781786352396,0.0032879081554710865,0.054784730076789856,0.0014157266123220325,-0.0012201210483908653,0.013566645793616772
213,0.03568540886044502,-0.04643569886684418,-0.007539099082350731,0.016100989654660225,-0.0032816766761243343,0.014679674059152603,-0.053163498640060425,0.015589814633131027,-0.04959692060947418,0.0374046228826046
214,0.014662335626780987,-0.04964685067534447,0.0033628204837441444,0.006539951544255018,-0.008989271707832813,0.006310233846306801,-0.054636575281620026,0.004660491831600666,-0.04830239713191986,0.037396904081106186
215,-0.003794983960688114,-0.06614815443754196,0.016875119879841805,0.02041405811905861,-0.00290669035166502,0.0033168478403240442,-0.023048777133226395,0.016608312726020813,-0.055579476058483124,0.048538628965616226
216,-0.00465487502515316,0.009657444432377815,0.01226462796330452,0.00023681577295064926,-0.001822854159399867,0.004516643472015858,0.0009860503487288952,0.008473563939332962,-0.0008819663198664784,0.002284891903400421
217,0.001980965491384268,0.0016005878569558263,0.02913086488842964,0.007488492876291275,0.0030929134227335453,0.002233680337667465,0.007765147835016251,0.01008165068924427,-0.008966265246272087,0.0156535841524601
218,0.0026573115028440952,-0.06104539334774017,0.005657541565597057,0.015436057932674885,-0.008768272586166859,9.77173913270235e-05,-0.028360025957226753,0.008782370015978813,-0.04651147872209549,0.04210759699344635
219,0.011036457493901253,0.08211900293827057,0.03531942144036293,-0.009108830243349075,0.011237530037760735,0.010891564190387726,0.05271025374531746,0.015367371961474419,0.08478762954473495,-0.010408436879515648
220,0.01680135354399681,-0.024844394996762276,0.009437989443540573,0.011835644021630287,-0.0020943046547472477,0.009601780213415623,-0.044189244508743286,0.009275062009692192,-0.02239491418004036,0.02938804402947426
221,0.0018879834096878767,0.014964569360017776,-0.011258150450885296,-0.003907033242285252,-0.009799191728234291,-0.00038824998773634434,-0.01840745098888874,0.006864253897219896,-0.007415919564664364,0.003909423016011715
222,-0.012776809744536877,-0.03206576034426689,0.002581304404884577,-0.010891235433518887,-0.016611909493803978,-0.005815955810248852,0.010998884215950966,-0.005387555807828903,-0.023626409471035004,-0.00014035566709935665
223,0.03777925297617912,-0.037050046026706696,-0.011327449232339859,0.002861280459910631,-0.01473282091319561,1.2190546840429306e-05,-0.05002005398273468,0.0006396635435521603,-0.03602905571460724,0.04198606312274933
224,-0.009740536101162434,0.004681081976741552,0.0008314665174111724,-0.0023656392004340887,-0.00622379407286644,-0.004062604159116745,-0.002235534368082881,0.0018737288191914558,-0.0004921668441966176,0.006460107862949371
225,-0.008840330876410007,-0.028121313080191612,0.007175331935286522,-0.006633158773183823,-0.009739178232848644,-0.0012258338974788785,0.012040638364851475,0.0022387325298041105,-0.007604197133332491,0.015374617651104927
226,0.01869373396039009,-0.010908312164247036,0.011459920555353165,0.002402543555945158,-0.002047722227871418,0.006744843907654285,-0.03687961399555206,0.0016997632337734103,-0.006061446387320757,0.013232407160103321
227,-0.005527781322598457,-0.01453312486410141,0.005992497317492962,-0.005805144552141428,-0.010853683575987816,-0.005561943631619215,-0.03183702379465103,0.003141035558655858,-0.016513466835021973,0.007238387130200863
228,-0.010052565485239029,-0.019990064203739166,0.007435065694153309,-0.007070764899253845,-0.009953705593943596,-0.0022544763050973415,0.0022996210027486086,0.002426288090646267,-0.009059073403477669,0.015786634758114815
229,-0.000845481816213578,-0.007163704372942448,-0.008381463587284088,-0.006722050718963146,-0.008634532801806927,-0.007489163428544998,-0.017578251659870148,-0.008212470449507236,-0.011901576071977615,0.0029531503096222878
230,-0.0009071992244571447,-0.03353467956185341,0.00348588265478611,0.0029039359651505947,-0.0063159228302538395,0.0033263505902141333,0.005856171250343323,0.003417905420064926,-0.012399896048009396,0.01507306657731533
231,-0.00938444770872593,-0.02447156235575676,0.007291911169886589,-0.006829581223428249,-0.009835468605160713,-0.0016875454457476735,0.007668330334126949,0.0023229168727993965,-0.008257226087152958,0.015559558756649494
232,0.0024472903460264206,-0.03821360319852829,-0.016452139243483543,0.00839143805205822,-0.008355889469385147,0.015394004993140697,-0.014763752929866314,0.028836768120527267,-0.028614459559321404,0.03883443772792816
233,0.011549454182386398,-0.012165575288236141,0.006089622154831886,0.001322252443060279,-0.0003780206898227334,0.0030683446675539017,-0.015099374577403069,0.0033573764376342297,-0.001268360996618867,0.0036429697647690773
234,0.019096236675977707,-0.02059102989733219,0.015298152342438698,0.012744552455842495,-0.0010026826057583094,0.016519270837306976,-0.033212073147296906,0.013976368121802807,-0.0013027824461460114,0.021578695625066757
235,0.0032028318382799625,0.06297063827514648,0.011148924008011818,0.017520654946565628,0.009373406879603863,0.0022716554813086987,-0.0463656447827816,0.012680275365710258,0.016809795051813126,0.001960628665983677
236,0.042336925864219666,-0.03312726691365242,0.018477601930499077,0.029908599331974983,0.004730714485049248,0.027641354128718376,-0.018344953656196594,0.02721020206809044,-0.03778224438428879,0.0468696691095829
237,0.011804730631411076,0.0010994022013619542,0.0018002137076109648,0.007016713730990887,-0.0009975744178518653,0.0037351991049945354,0.0024582231417298317,0.0034306251909583807,-0.0023382792714983225,0.014010559767484665
238,-0.015522775240242481,0.01670227386057377,0.008607161231338978,-0.009045464918017387,-0.010921760462224483,-0.0068962350487709045,-0.04165675491094589,0.0032726344652473927,-0.015624209307134151,0.017645888030529022
239,0.009641722775995731,-0.01163429580628872,-0.0036734724417328835,-0.0012903587194159627,-0.008754287846386433,-0.004319353960454464,-0.026560809463262558,-0.0028700698167085648,-0.030834674835205078,0.024563129991292953
240,-0.012249860912561417,-6.661599036306143e-05,-0.003698998596519232,-0.010150699876248837,-0.007567707449197769,-0.011335892602801323,0.0007020412012934685,-0.009625550359487534,-0.004139401018619537,-0.0038794209249317646
241,-0.005428786855190992,-0.03663961589336395,0.004284955095499754,-0.006355929188430309,-0.008755415678024292,-0.0035603719297796488,0.033695708960294724,0.00021401187404990196,-0.010164360515773296,0.007458983920514584
242,-0.03842790771080086,-0.016769441761670303,0.027088787947461848,-0.006850314661144439,-0.009138992036006622,-0.0018709798738047855,-0.03968425420380721,0.006205581566944129,-0.011738096777302337,-0.009880244281687791
243,-0.011724226176738739,-1.4050398021936417e-05,-0.0205280389636755,-0.00665607675909996,-0.007491667754948139,-0.010084963403642178,-0.011342693120241165,-0.008237600326538086,-0.01968049630522728,-0.015101023018360138
244,-0.015522775240242481,0.01670227386057377,0.008607161231338978,-0.009045464918017387,-0.010921760462224483,-0.0068962350487709045,-0.04165675491094589,0.0032726344652473927,-0.015624209307134151,0.017645888030529022
245,0.03860746696591377,-0.016957372426986694,-0.010208362713456154,0.014538033865392208,-0.007465842645615339,0.0072654783725738525,-0.046527743339538574,0.005318879149854183,-0.039963044226169586,0.033550262451171875
246,-0.009281953796744347,-0.02615554817020893,0.006804047618061304,-0.004996936768293381,-0.009127850644290447,-0.0004551198799163103,0.006317112594842911,0.002823031973093748,-0.011332498863339424,0.015791023150086403
247,0.014661229215562344,-0.007755105383694172,0.017331203445792198,0.009035688824951649,0.003891835454851389,0.014989403076469898,0.010252891108393669,0.0108281709253788,0.008887039497494698,0.021394168958067894
248,-0.011576203629374504,-0.01174176950007677,0.006839633919298649,-0.004067678470164537,-0.008859042078256607,-0.0012808169703930616,-0.014247161336243153,0.0036830001045018435,-0.017216261476278305,0.016831450164318085
249,-0.00796312466263771,0.04015485197305679,0.009168103337287903,0.0017781462520360947,-0.00037753768265247345,-0.0014366628602147102,-0.0338093526661396,0.007177917752414942,0.005105078220367432,0.0076330360025167465
250,0.029153238981962204,-0.02852747216820717,-0.020613333210349083,0.020866138860583305,-0.003323318436741829,0.015392068773508072,-0.022216955199837685,0.019621122628450394,-0.02495664544403553,0.04930507764220238
251,-0.012120608240365982,-0.005937717389315367,-0.011525312438607216,-0.006687154993414879,-0.006641536019742489,-0.010013306513428688,-0.005746043287217617,-0.008154910057783127,-0.010850334540009499,-0.01052001304924488
252,0.017216648906469345,-0.021220004186034203,-0.0010864962823688984,0.020218349993228912,-0.008083331398665905,0.011142808943986893,-0.03798236697912216,0.011382268741726875,-0.021376287564635277,0.04212801158428192
253,0.01523272879421711,-0.015558509156107903,-0.025655025616288185,-0.004638803191483021,-0.017549097537994385,-0.0034763356670737267,-0.049155574291944504,-0.006070985458791256,-0.03786842152476311,0.022007174789905548
254,0.007745426148176193,0.031213542446494102,0.019617503508925438,0.0012492709793150425,0.0017942863050848246,0.006979701109230518,0.003711987752467394,0.011450869962573051,0.03228113800287247,0.006311332806944847
255,0.018368659541010857,-0.07007427513599396,-0.004613181576132774,0.005106055177748203,-0.014781896024942398,0.004858424421399832,-0.052721548825502396,-0.0003031538799405098,-0.05510352551937103,0.03878721594810486
256,-0.0055366400629282,0.0245057325810194,-0.008564545772969723,-0.002142940182238817,-0.00874137133359909,0.002047555288299918,-0.0033315967302769423,-0.0007678442634642124,0.010019159875810146,0.010336868464946747
257,0.019280290231108665,0.013927199877798557,0.010843860916793346,0.013900908641517162,0.016071218997240067,0.014545699581503868,-0.01259713526815176,0.01064593717455864,0.01790170930325985,0.031164180487394333
258,-0.020557738840579987,0.005657074507325888,0.003831938374787569,-0.014885937795042992,-0.0066231111995875835,-0.01721058040857315,-0.015096805989742279,-0.01959366910159588,-0.009424053132534027,0.002110973699018359
259,0.011904453858733177,-0.012937543913722038,-0.0043061780743300915,0.007761836983263493,-0.004883005749434233,0.004025779664516449,-0.021936919540166855,0.005148719064891338,-0.017801813781261444,0.02645072713494301
260,-0.01089252345263958,-0.014355923980474472,0.007615043316036463,-0.007373982109129429,-0.010102350264787674,-0.0029672239907085896,-0.004449916072189808,0.002556245308369398,-0.01006715465337038,0.01607212796807289
261,0.04376072809100151,-0.039212778210639954,-0.0028374693356454372,0.01749068684875965,-0.005343541502952576,0.009793571196496487,-0.035342276096343994,0.007864341139793396,-0.033419184386730194,0.03193364292383194
262,-0.028174294158816338,-0.01750381663441658,-0.010229915380477905,-0.006809222511947155,-0.01005709357559681,-0.00402163015678525,-0.01704757660627365,-0.0017269242089241743,-0.029849864542484283,0.012852996587753296
263,0.003378361463546753,0.03929678350687027,0.021414434537291527,-0.0038722932804375887,0.0031744183506816626,0.004447597544640303,0.021450810134410858,0.008726801723241806,0.04146189987659454,0.0009381445124745369
264,-0.004330821335315704,-0.06766992062330246,0.010488048195838928,0.01297194417566061,-0.008866356685757637,-0.002163066528737545,-0.018285591155290604,0.007858341559767723,-0.05045108497142792,0.03846124932169914
265,-0.005596521310508251,0.014823947101831436,0.007462992332875729,0.008622640743851662,-3.854162059724331e-05,0.0028352185618132353,-0.030979981645941734,0.00840686447918415,-0.010857720859348774,0.011499685235321522
266,0.0019954123999923468,-0.04161660373210907,-0.009793377481400967,-1.8970691598951817e-05,-0.010310856625437737,0.00046056293649598956,0.013093119487166405,0.004641486331820488,-0.029743703082203865,0.024315237998962402
267,0.016219710931181908,-0.02152065746486187,-0.03871067613363266,0.0011439956724643707,-0.008897410705685616,0.002292267046868801,-0.018693838268518448,0.009171233512461185,-0.04325516149401665,0.03393767774105072
268,-0.01785353198647499,0.010214599780738354,-0.011740105226635933,-0.013009820133447647,-0.008646647445857525,-0.009988338686525822,-0.0064259544014930725,-0.010014266707003117,-0.005736024118959904,-0.01665571704506874
269,-0.011204928159713745,0.012127304449677467,0.01755858026444912,-0.0069880736991763115,-0.00019723971490748227,-0.001144961453974247,0.03735564649105072,0.0017824569949880242,0.02588120847940445,-0.0016958971973508596
270,0.006607518531382084,0.009915811941027641,-0.018136654049158096,-0.010374851524829865,-0.00797116570174694,-0.006042981054633856,0.006862347945570946,-0.004120083525776863,-0.015576099045574665,-0.005976343993097544
271,0.020885135978460312,-0.044512417167425156,-0.006532139610499144,0.0074758995324373245,-0.006681288592517376,0.007054824382066727,-0.022040633484721184,0.010634874925017357,-0.019289011135697365,0.027516160160303116
272,-0.01393219433733136,-0.025428525931554452,0.02968653092992299,-0.005162307173429948,-0.0016447410555138849,-0.009086437116556087,0.012572075615853481,-0.002981682713726242,0.025109276110094683,-0.017632023360858628
273,0.008901692926883698,-0.04050974175333977,-0.005652254913002253,0.007742219138890505,-0.004701540805399418,0.005578965879976749,-0.03258563205599785,0.013238023966550827,-0.032037459313869476,0.029402602463960648
274,-0.012654329650104046,-0.0025383024476468563,0.007992547936737537,-0.008009981364011765,-0.010414138436317444,-0.004462208598852158,-0.018607083708047867,0.002828831085935235,-0.012181608006358147,0.016670934855937958
275,0.02764047682285309,0.03444956615567207,0.015898941084742546,0.030747562646865845,0.012487610802054405,0.017490815371274948,-0.05138561129570007,0.02596188336610794,-0.00616344902664423,0.024395637214183807
276,-0.008840330876410007,-0.028121313080191612,0.007175331935286522,-0.006633158773183823,-0.009739178232848644,-0.0012258338974788785,0.012040638364851475,0.0022387325298041105,-0.007604197133332491,0.015374617651104927
277,0.016444429755210876,-0.031896159052848816,-0.0014261601027101278,0.010417974554002285,-0.0064978525042533875,0.008779854513704777,-0.029132714495062828,0.011116125620901585,-0.026730181649327278,0.03988657519221306
278,0.0022799652069807053,-0.025949837639927864,0.010793911293148994,-0.003475886769592762,-0.013473418541252613,0.0010143371764570475,-0.024726390838623047,0.01092419121414423,-0.04886656627058983,0.024486036971211433
279,-0.005151987075805664,-0.042365193367004395,0.014163274317979813,1.8833670765161514e-06,-0.0019491682760417461,-0.0029815458692610264,0.015765774995088577,-0.012524407356977463,0.008718390949070454,0.010750005953013897
280,-0.0034445677883923054,-0.005784844513982534,-0.0025502245407551527,0.0015291525050997734,-0.005331790074706078,0.0004391005786601454,-0.03117063269019127,-0.0031573765445500612,-0.015292170457541943,-0.0013871747069060802
281,0.0159161314368248,0.01560882106423378,0.015942811965942383,0.010249476879835129,-0.003370407037436962,0.009477566927671432,-0.046610984951257706,0.015759024769067764,0.0046181888319551945,0.030078811571002007
282,-0.005532525479793549,0.02237725630402565,-0.011955024674534798,-0.010863719508051872,-0.0071513899601995945,-0.008047436363995075,0.005980468355119228,-0.009938441216945648,-0.012833856046199799,-0.0023628727067261934
283,-0.003071914426982403,0.028547625988721848,0.009575762785971165,0.006438457407057285,0.0007034966256469488,-6.050540832802653e-05,-0.027706272900104523,0.00817342009395361,0.004845134913921356,0.008242559619247913
284,-0.015522775240242481,0.01670227386057377,0.008607161231338978,-0.009045464918017387,-0.010921760462224483,-0.0068962350487709045,-0.04165675491094589,0.0032726344652473927,-0.015624209307134151,0.017645888030529022
285,-0.01198038924485445,-0.007058845832943916,0.007848145440220833,-0.007766695227473974,-0.010294871404767036,-0.0038903383538126945,-0.013191601261496544,0.0027245597448199987,-0.011372777633368969,0.01644188165664673
286,-0.0035209835041314363,-0.06380170583724976,0.006035555154085159,-0.004712922032922506,-0.008797816932201385,0.0032879074569791555,0.054784730076789856,0.001415724866092205,-0.0012201154604554176,0.013566646724939346
287,0.007436064071953297,0.059521131217479706,0.014406265690922737,-0.008285031653940678,0.0010303222807124257,0.005113000515848398,0.02021808922290802,0.010651197284460068,0.0477234311401844,-0.004647085443139076
288,-0.004999264609068632,-0.053885914385318756,0.006352312862873077,-0.005246566608548164,-0.009059427306056023,0.0020335146691650152,0.042905885726213455,0.0016444423235952854,-0.002994287060573697,0.014069097116589546
289,-0.01047796942293644,-0.0010488748084753752,0.007061953190714121,-0.009435882791876793,-0.006036787293851376,-0.010400798171758652,0.019222360104322433,-0.006281243171542883,0.00781488697975874,-0.004811393097043037
290,-0.0074577974155545235,0.026218833401799202,0.017282504588365555,-0.008679023012518883,-0.007926913909614086,-0.01136782206594944,-0.013173502869904041,-0.007011741399765015,-0.015209000557661057,-0.005793165415525436
291,0.0002963007427752018,0.05124736949801445,0.010273288935422897,0.01424858346581459,0.0063415407203137875,0.0018225013045594096,-0.04374668374657631,0.011317544616758823,0.009252329356968403,0.004794285632669926
292,0.004367379937320948,0.0036911116912961006,-0.0012457745615392923,0.0009799012914299965,0.0006042983150109649,-0.003390578320249915,-0.007182583212852478,0.003950727172195911,-0.01158677414059639,0.013468272984027863
293,0.008918548002839088,0.0023118751123547554,0.0023908736184239388,0.004897790029644966,-0.006731987930834293,0.0034105286467820406,-0.02433447167277336,0.004054302349686623,-0.030139589682221413,0.02536517009139061
294,0.01448608748614788,-0.027282018214464188,0.01181432232260704,0.0048460401594638824,-0.0053433869034051895,0.0052769421599805355,-0.06563029438257217,0.008452326990664005,-0.04013547673821449,0.0391487181186676
295,0.0001779038575477898,-0.010288871824741364,-0.014845354482531548,-0.005781065672636032,-0.005402818322181702,-0.005160660482943058,-0.012352436780929565,-0.003620651550590992,-0.005674381740391254,-0.0045108068734407425
296,0.019413545727729797,-0.02076098695397377,0.002748448634520173,0.00047540280502289534,-0.007235866039991379,0.005525039974600077,-0.029816076159477234,3.545882645994425e-05,-0.026956938207149506,0.0363159254193306
297,0.01728373020887375,-0.004778049886226654,-0.010326403193175793,-0.003605388104915619,-0.012914914637804031,-0.0018608869286254048,-0.04281165078282356,-0.003947678487747908,-0.03603150695562363,0.030838213860988617
298,0.004630867499159877,-0.036739729818078305,0.01572797932378924,-0.01975615708431742,-0.02958416328292388,-0.022870214997762428,0.013525762337096847,-0.01583391206415176,-0.02794955772533371,0.0026671207030471334
299,-0.015881717205047607,0.02418888546526432,0.01201027911156416,-0.028805172070860863,-0.013654598034918308,-0.012639175169169903,0.044750552624464035,-0.00882052443921566,0.05951580032706261,-0.0600394532084465
300,-0.010051731020212173,-0.022729065269231796,0.0061568766832351685,-0.002144870115444064,-0.00806225836277008,0.0008882951806299388,-0.0036594446282833815,0.0038415128365159035,-0.017831237986683846,0.016516849398612976
301,0.015446098521351814,-0.02237388864159584,-0.0301626268774271,0.0034907495137304068,-0.003748040646314621,0.006212438922375441,-0.011677365750074387,0.011254355311393738,-0.036175504326820374,0.03207540139555931
302,-0.015522775240242481,0.01670227386057377,0.008607161231338978,-0.009045464918017387,-0.010921760462224483,-0.0068962350487709045,-0.04165675491094589,0.0032726344652473927,-0.015624209307134151,0.017645888030529022
303,-0.0031330310739576817,0.006403545383363962,0.00018284592078998685,0.002189608057960868,-0.005215138662606478,-0.00017710088286548853,-0.01600261591374874,0.0067240577191114426,-0.005237267818301916,0.009090162813663483
304,-0.015522775240242481,0.01670227386057377,0.008607161231338978,-0.009045464918017387,-0.010921760462224483,-0.0068962350487709045,-0.04165675491094589,0.0032726344652473927,-0.015624209307134151,0.017645888030529022
305,0.0011646058410406113,-0.021633371710777283,0.008328072726726532,0.00763307698071003,-0.007538009434938431,-0.0030930975917726755,-0.019341755658388138,0.003558896016329527,-0.028300590813159943,0.023533711209893227
306,0.010007256641983986,0.0315493606030941,0.01553299743682146,0.019864041358232498,0.007585200015455484,0.010069435462355614,-0.030716026201844215,0.013453461229801178,-0.007488237228244543,0.00967420358210802
307,0.007745426148176193,0.031213542446494102,0.019617503508925438,0.0012492709793150425,0.0017942863050848246,0.006979701109230518,0.003711987752467394,0.011450869962573051,0.03228113800287247,0.006311332806944847
308,0.00495587382465601,-0.03243909776210785,-0.04737483710050583,-0.006566829048097134,-0.019830070436000824,-0.006377003155648708,0.021909385919570923,-0.01399785466492176,-0.010164988227188587,-0.002229432575404644
309,-0.028368623927235603,-0.0023001679219305515,-0.028765179216861725,-0.018517479300498962,-0.015857117250561714,-0.0178206954151392,-0.01759125292301178,-0.015790479257702827,-0.009941183030605316,-0.02338816225528717
310,-0.01344494428485632,0.0027648694813251495,0.008161951787769794,-0.008295385167002678,-0.010554051958024502,-0.0051330868154764175,-0.024960141628980637,0.002951154951006174,-0.013130473904311657,0.01693965494632721
311,0.01984330266714096,0.007193658966571093,-0.009401652030646801,0.012592142447829247,0.0019996899645775557,0.011950869113206863,-0.01950346864759922,0.01249224878847599,-0.005171157885342836,0.028290897607803345
312,-0.001961827976629138,0.009122395887970924,0.018070129677653313,-0.0028882157057523727,-0.00034011516254395247,0.007456827908754349,0.030378274619579315,0.01166445016860962,0.02774020843207836,0.006839625537395477
313,-0.012965554371476173,0.02383253537118435,0.00013697496615350246,-0.00911770947277546,-0.005354378372430801,-0.014076650142669678,-0.0043740468099713326,-0.012822277843952179,0.0010815125424414873,-0.02111082151532173
314,0.03894636034965515,-0.06322048604488373,0.0030607793014496565,0.013528233394026756,-0.011719964444637299,0.012320183217525482,-0.05057256668806076,0.007313463371247053,-0.03392307460308075,0.053779225796461105
315,-0.004062006250023842,0.01480825711041689,-0.005862352438271046,-0.005597930401563644,0.00039178761653602123,-0.011485794559121132,-0.01479080505669117,0.00329350377433002,-0.0197457242757082,-4.7383131459355354e-05
316,-0.015522775240242481,0.01670227386057377,0.008607161231338978,-0.009045464918017387,-0.010921760462224483,-0.0068962350487709045,-0.04165675491094589,0.0032726344652473927,-0.015624209307134151,0.017645888030529022
317,-0.002968424931168556,0.00144401122815907,0.007933327928185463,0.006170165259391069,-0.0007583652622997761,0.002645741915330291,-0.007436064071953297,0.007108311168849468,-0.0010615166975185275,0.009943748824298382
318,0.046568628400564194,0.028403881937265396,0.052172668278217316,-0.0008898086380213499,0.00527097936719656,0.01209212839603424,0.0059591373428702354,0.015735408291220665,-0.03656066581606865,0.05626184865832329
319,0.0140764731913805,-0.03454774618148804,-0.0025485865771770477,0.010566763579845428,-0.005315480753779411,0.010017044842243195,0.001359018380753696,0.012369541451334953,-0.013561258092522621,0.03600866347551346
320,-0.00938578974455595,0.026966450735926628,-0.010542239062488079,-0.003919268026947975,-0.004330991767346859,-0.002114485250785947,-0.011604180559515953,-0.00368954474106431,-0.023898189887404442,0.0027553450781852007
321,-0.03181461989879608,-0.026008807122707367,-0.012673120014369488,-0.02223260886967182,-0.01865970902144909,-0.014314457774162292,-0.0215531587600708,-0.016327664256095886,-0.024277133867144585,-0.020251911133527756
322,-0.015522775240242481,0.01670227386057377,0.008607161231338978,-0.009045464918017387,-0.010921760462224483,-0.0068962350487709045,-0.04165675491094589,0.0032726344652473927,-0.015624209307134151,0.017645888030529022
323,-0.0039442614652216434,-0.007303997874259949,0.0008174468530341983,0.0018849545158445835,-0.0051487889140844345,0.0054955561645329,-0.008040845394134521,0.008050842210650444,0.000170778832398355,-0.0018716466147452593
324,-0.0074779472940592175,-0.009168928354685163,0.00948823301104603,-0.009473055938160236,-0.016103208364834636,-0.009266202603824412,-0.020512318326584657,0.006039226949701831,-0.008139177223071992,-0.06810161569928576
325,0.022782517597079277,-0.02408576011657715,0.0013930038549005985,0.009313336573541164,-0.00957360491156578,0.0033173845149576664,-0.006340319756418467,0.0047195409424602985,-0.03628215193748474,0.0260090921074152
326,-0.005835427902638912,-0.00789029523730278,-0.004880426451563835,-0.0023337609600275755,-0.0010676966048777103,0.0018243547528982162,0.007576100993901491,0.00557373370975256,0.0005716196028515697,0.005832066759467125
327,-0.015522775240242481,0.01670227386057377,0.008607161231338978,-0.009045464918017387,-0.010921760462224483,-0.0068962350487709045,-0.04165675491094589,0.0032726344652473927,-0.015624209307134151,0.017645888030529022
328,-0.015522783622145653,0.016702277585864067,0.008607164956629276,-0.009045465849339962,-0.010921760462224483,-0.006896234583109617,-0.04165675863623619,0.0032726339995861053,-0.015624209307134151,0.017645884305238724
329,-0.015522775240242481,0.01670227386057377,0.008607161231338978,-0.009045464918017387,-0.010921760462224483,-0.0068962350487709045,-0.04165675491094589,0.0032726344652473927,-0.015624209307134151,0.017645888030529022
330,0.024951569736003876,-0.021787138655781746,0.002643393585458398,0.009372145868837833,-0.002850618911907077,0.008565868251025677,-0.04130964353680611,0.010023863054811954,-0.03971680998802185,0.04045505449175835
331,-0.014330653473734856,0.022260501980781555,0.00883329939097166,-0.009273026138544083,-0.006572801619768143,-0.004586014896631241,-0.0341947078704834,0.008193709887564182,-0.007646544836461544,0.004684331826865673
332,-0.00723850866779685,-0.0397757813334465,0.006406640633940697,-0.0044151367619633675,-0.008826072327792645,0.001179418759420514,0.022926166653633118,0.0024620823096483946,-0.008602414280176163,0.015073374845087528
333,-0.001936448272317648,-0.018013030290603638,-0.00707604456692934,0.0015888577327132225,-0.009844740852713585,0.005284366197884083,-0.010750670917332172,0.010370028205215931,-0.0226020198315382,0.03660032898187637
334,-0.003786114975810051,0.015602759085595608,-0.024314498528838158,0.0007367986254394054,-0.013868879526853561,0.009220104664564133,-0.05662784352898598,0.0002629350346978754,-0.047328460961580276,0.026822853833436966
335,-0.012093723751604557,-0.007178939878940582,0.0074608540162444115,-0.006221371702849865,-0.009705854579806328,-0.0029746382497251034,-0.016023486852645874,0.0031978944316506386,-0.014334086328744888,0.01671564020216465
336,0.0074475109577178955,-0.0032509570010006428,0.009813984856009483,-0.007991090416908264,-0.010521357879042625,-0.008251488208770752,-0.04842817038297653,-0.015502206049859524,-0.005039223004132509,0.007341261953115463
337,0.01968659833073616,-0.04094301909208298,-0.0046846335753798485,0.0026406743563711643,-0.015201812610030174,0.0027422248385846615,-0.037279222160577774,0.0026312361005693674,-0.036299481987953186,0.037854984402656555
338,0.004386030603200197,0.021158143877983093,0.020206740126013756,-0.005769929848611355,0.001001761294901371,0.005581359378993511,0.03401122987270355,0.007213215809315443,0.038226738572120667,0.002714746631681919
339,-0.0045141540467739105,-0.058572664856910706,0.005578456912189722,-0.0024895668029785156,-0.007982203736901283,0.0040921494364738464,0.04367693513631821,0.0023112830240279436,-0.007010757923126221,0.014287123456597328
340,-0.0051233647391200066,0.00435651745647192,-0.018812520429491997,-0.0038906142581254244,-0.015197905711829662,-0.003350494895130396,-0.036097344011068344,0.006273204460740089,-0.027696914970874786,0.009728288277983665
341,0.0030396119691431522,0.03831345587968826,0.011011078953742981,0.006196832284331322,0.004169796593487263,0.0058072954416275024,0.004715113900601864,0.009185651317238808,0.021783795207738876,0.008811485022306442
342,0.008925624191761017,0.014514057897031307,0.0009004438761621714,-0.012207433581352234,-0.007721947506070137,-0.007230967748910189,-0.015314103104174137,-0.004459174815565348,-0.031505659222602844,0.01401582919061184
343,0.007745426148176193,0.031213542446494102,0.019617503508925438,0.0012492709793150425,0.0017942863050848246,0.006979701109230518,0.003711987752467394,0.011450869962573051,0.03228113800287247,0.006311332806944847
344,0.010572867467999458,0.0023969567846506834,-0.009460415691137314,0.006317758932709694,-0.0008933781646192074,0.003862665966153145,-0.0050327368080616,-0.0011942822020500898,-0.0104258693754673,0.027076231315732002
345,-0.0026112617924809456,-0.0037530572153627872,0.015656696632504463,0.002041989006102085,-0.005134159233421087,0.0016387919895350933,-0.009253261610865593,0.006675926968455315,-0.011151895858347416,0.028632204979658127
346,-0.0058836014941334724,-0.013903431594371796,-0.0073424759320914745,-0.004546042066067457,-0.011749247089028358,-0.0030531238298863173,-0.03224371373653412,-0.004841412417590618,-0.002103558275848627,0.01399361900985241
347,-0.00539343012496829,-0.016472533345222473,-0.005324150901287794,-0.001618631649762392,-0.005992105696350336,-0.002948183100670576,-0.03251929581165314,-0.0005349439452402294,-0.029497437179088593,0.016605574637651443
348,-0.0032907745335251093,-0.010177282616496086,0.006824119947850704,0.007379377260804176,-0.0009754424681887031,0.004598930478096008,-0.0022710131015628576,0.007067189551889896,-0.0070372940972447395,0.01112455502152443
349,0.021699680015444756,-0.051984574645757675,0.00325860851444304,0.01580582745373249,-0.001321137766353786,0.015516247600317001,0.007611371576786041,0.013103118166327477,-0.015186643227934837,0.03706318140029907
350,0.0062845200300216675,-0.05215468257665634,-0.005226330831646919,0.0062637305818498135,-0.01795104146003723,-0.004673463758081198,-0.07267867773771286,-0.0038215673994272947,-0.01666640304028988,0.03368234261870384
351,0.015641789883375168,0.01319733913987875,0.0012136877048760653,0.0036168452352285385,0.003950399812310934,0.011194698512554169,-0.006029790733009577,0.013587410561740398,0.0060469890013337135,0.03409138321876526
352,0.0009255147306248546,-0.0037627583369612694,-0.007734577637165785,0.0012585960794240236,-0.0055760666728019714,-0.0015351705951616168,-0.027591906487941742,-0.002526880009099841,-0.011194860562682152,0.02262507937848568
353,0.034609317779541016,-0.034603267908096313,0.03606390208005905,0.017554666846990585,0.01621290110051632,0.016947513446211815,0.0007738040294498205,0.023873545229434967,-0.029840674251317978,0.05644659698009491
354,-0.00796721875667572,0.03537099435925484,0.009632733650505543,0.0016736447578296065,-0.002732908818870783,-0.0031971035059541464,-0.04355673864483833,0.007068505510687828,-0.0025374835822731256,0.011317071504890919
355,0.005704871844500303,-0.0034380825236439705,-0.013415192253887653,0.005607066676020622,-0.005637889262288809,0.006864375900477171,-0.027020834386348724,0.01043304055929184,-0.01581811159849167,0.019063841551542282
356,-0.0046651302836835384,-0.01760692708194256,0.007749606855213642,-0.000686955638229847,-0.005194447468966246,0.000810561585240066,0.010811887681484222,0.0043505094945430756,-0.00036099692806601524,0.011866573244333267
357,0.008652161806821823,-0.002893638564273715,-0.004796651192009449,0.002497732173651457,-0.0018256878247484565,0.0021087639033794403,-0.01944568380713463,0.007288893219083548,-0.02594177983701229,0.029679905623197556
358,-0.0064657703042030334,-0.025536052882671356,0.06394580751657486,0.010738303884863853,-0.009701970964670181,-0.002302545355632901,-0.03395537659525871,0.0041733719408512115,-0.033776652067899704,0.031927041709423065
359,0.009602057158791116,0.032107086758288134,-0.024593719701158687,-0.018410637370765533,-0.007992752335273627,-0.014810545395233094,-0.03252900961098639,-0.008041005735377162,-0.04328133504801768,-0.02724107652285698
360,0.01966654323041439,-0.01844429224729538,0.0018742120591923594,0.011990159749984741,-0.0009429637575522065,0.013669416308403015,0.01077206525951624,0.014965211972594261,0.002141210250556469,0.03254329785704613
361,0.020433153957128525,0.00263367872685194,-0.0025700521655380726,-0.002598016057163477,-0.00805177353322506,0.001912022940814495,-0.02178540825843811,0.0020685605704784393,-0.018340986222028732,0.019778067246079445
362,-0.013239805586636066,-0.012646287679672241,-0.006838615983724594,-0.01083734817802906,-0.006831600796431303,-0.00828559696674347,0.012524109333753586,-0.006548379547894001,0.0026575070805847645,-0.009761650115251541
363,0.0039056941289969437,0.03230280097336127,-0.011175383573407112,0.004558195116690948,0.022541970003460282,0.005251715586174223,-0.004350868401892472,0.005447892246344736,0.008519700966287161,0.015881259838879894
364,-0.015522775240242481,0.01670227386057377,0.008607161231338978,-0.009045464918017387,-0.010921760462224483,-0.0068962350487709045,-0.04165675491094589,0.0032726344652473927,-0.015624209307134151,0.017645888030529022
365,-0.015522783622145653,0.016702277585864067,0.008607164956629276,-0.009045465849339962,-0.010921760462224483,-0.006896234583109617,-0.04165675863623619,0.0032726339995861053,-0.015624209307134151,0.017645884305238724
366,-0.012178145349025726,0.000973426504060626,-0.015222830697894096,-0.012255668640136719,-0.010026594623923302,-0.012418633326888084,-0.007825604639947414,-0.010901963338255882,-0.010562336072325706,-0.0025547409895807505
367,-0.027480071410536766,-0.010720919817686081,0.00493958592414856,0.006766635924577713,0.00770912878215313,0.010585960932075977,-0.011516177095472813,0.0073730600997805595,0.003752569667994976,0.01368742436170578
368,-0.0003513130941428244,-0.013070674613118172,-0.02816450037062168,-0.008454174734652042,-0.015268316492438316,-0.013456152752041817,-0.030432486906647682,-0.008443158119916916,-0.02940916270017624,0.0027030445635318756
369,0.002872884040698409,-0.01750742271542549,0.03846433386206627,-0.01222429983317852,-0.00431124959141016,-0.009078340604901314,-0.003187396563589573,-0.004078664816915989,-0.017887162044644356,0.001627837773412466
370,0.014522398822009563,-0.02931183949112892,-0.00536303361877799,0.005342153832316399,-0.00841225404292345,0.0070495521649718285,-0.048463985323905945,0.008364715613424778,-0.042159151285886765,0.026834439486265182
371,0.007745426148176193,0.031213542446494102,0.019617503508925438,0.0012492709793150425,0.0017942863050848246,0.006979701109230518,0.003711987752467394,0.011450869962573051,0.03228113800287247,0.006311332806944847
372,0.0036265598610043526,-0.0028769944328814745,-0.012056881561875343,0.0027411223854869604,-0.004119632299989462,0.0019507526885718107,-0.011811996810138226,0.0021423413418233395,-0.009548497386276722,0.011955401860177517
373,-0.002536483108997345,-0.025481577962636948,0.007537693716585636,0.000819407869130373,-0.004185058176517487,0.002366394968703389,0.0221351757645607,0.0044796159490942955,0.002564832800999284,0.010795814916491508
374,-0.015522783622145653,0.016702277585864067,0.008607164956629276,-0.009045465849339962,-0.010921760462224483,-0.006896234583109617,-0.04165675863623619,0.0032726339995861053,-0.015624209307134151,0.017645884305238724
375,-0.008259085938334465,-0.033179908990859985,0.006508516613394022,-0.004333386197686195,-0.008833829313516617,0.0006005719769746065,0.014179987832903862,0.0027493429370224476,-0.010629089549183846,0.015487012453377247
376,-0.02146325632929802,0.0012361528351902962,-0.025307634845376015,-0.010506827384233475,-0.008708374574780464,-0.014692215248942375,-0.009647958911955357,-0.009920310229063034,-0.021440185606479645,-0.014274172484874725
377,0.006561592686921358,-0.01380142942070961,-0.02587052993476391,-0.002795321634039283,-0.01055482029914856,0.0020024848636239767,0.008722609840333462,-0.003963214810937643,-0.03478194773197174,0.02937723882496357
378,0.0024738896172493696,0.02338598109781742,0.0009113486739806831,0.003854495007544756,-0.0034221746027469635,0.0011345534585416317,-0.013648129999637604,0.009152454324066639,0.004846550989896059,0.0028109021950513124
379,0.007348586339503527,-0.00803764071315527,0.008127780631184578,-0.00031132251024246216,-0.003951973747462034,0.00785305816680193,0.014157804660499096,0.008300671353936195,0.02182733081281185,0.008222398348152637
380,-0.009528867900371552,0.022229483351111412,-0.01580021344125271,-0.021318422630429268,-0.012131791561841965,-0.01592998020350933,0.004046666901558638,-0.021308116614818573,0.026931604370474815,-0.022444233298301697
381,-0.004715637303888798,-0.0005107787437736988,-0.007814345881342888,-0.016817647963762283,-0.013367798179388046,-0.01008111797273159,-0.010981298983097076,-0.01195717602968216,-0.022494740784168243,-0.003738168627023697
382,0.026834657415747643,-0.0450018085539341,0.002075138734653592,0.005713572725653648,-0.01022324152290821,0.00982336513698101,-0.03482275456190109,0.006219819653779268,-0.012971289455890656,0.04607049375772476
383,0.024591362103819847,-0.00050720339640975,-0.017027059569954872,-3.919820301234722e-05,-0.0022858590818941593,0.00426601292565465,-0.02390887215733528,0.0027828721795231104,-0.051346711814403534,0.029996171593666077
384,0.00809125229716301,-0.010118752717971802,0.0006925576599314809,0.0018138174200430512,-0.005316588096320629,0.00044274632818996906,-0.017281919717788696,0.0027988210786134005,-0.011054969392716885,0.007991929538547993
385,-0.003520985133945942,-0.06380170583724976,0.006035557948052883,-0.004712920635938644,-0.00879781786352396,0.0032879081554710865,0.054784730076789856,0.0014157266123220325,-0.0012201210483908653,0.013566645793616772
386,-0.00563793582841754,-0.0054223681800067425,0.006723667029291391,0.006088713649660349,-0.0021371201146394014,0.0035136628430336714,-0.012534539215266705,0.006896613165736198,-0.011843972839415073,0.012609696947038174
387,0.022559303790330887,-0.07081937044858932,0.00912145059555769,0.003300138982012868,-0.0046271393075585365,0.006266205571591854,-0.041301384568214417,0.01254911907017231,-0.10085044801235199,0.04838543012738228
388,-0.0009404188022017479,-0.004820466041564941,-0.028900716453790665,-9.21306200325489e-05,-0.01588340476155281,-0.0004787198267877102,-0.031683262437582016,0.007740547880530357,-0.03439193218946457,0.0070561617612838745
389,0.030955452471971512,-0.02755614183843136,0.025293754413723946,0.015555660240352154,0.008152292110025883,0.017483234405517578,0.025870194658637047,0.014052711427211761,0.005584598518908024,0.04199417680501938
390,-0.00665817316621542,0.01856400817632675,0.01498598512262106,-0.008817979134619236,-0.00542695727199316,-0.0011618795106187463,-0.0012597683817148209,0.005058920942246914,0.012269871309399605,0.010145734064280987
391,0.025681912899017334,-0.04941989853978157,-0.0011247837683185935,0.010109525173902512,-0.00692751444876194,0.010308103635907173,-0.02120489813387394,0.0036547589115798473,-0.013015089556574821,0.03783553093671799
392,0.007785078138113022,-0.04868604242801666,0.004042583517730236,0.0008644645567983389,-0.012735513970255852,0.003569971537217498,-0.00575634790584445,0.001585853984579444,-0.022401196882128716,0.04145215451717377
393,-0.0026957762893289328,-0.025177832692861557,0.005401074420660734,-0.0005720379995182157,-0.010544300079345703,-0.001090887002646923,-0.018426690250635147,0.0013344786129891872,-0.005949544720351696,0.0030227331444621086
394,-0.005412485916167498,-0.011370416730642319,-0.009391920641064644,-0.002186404075473547,-0.006887990515679121,-0.0034620605874806643,-0.014077374711632729,0.005325664766132832,-0.023679979145526886,0.005523062311112881
395,0.005703953094780445,-0.03241332247853279,0.006935462821274996,-0.004417788702994585,-0.01055600680410862,0.002672248287126422,0.021805737167596817,0.0009533199481666088,0.002163135912269354,0.017006220296025276
396,-0.024961549788713455,0.007278966251760721,-0.05689738318324089,-0.03848655894398689,-0.024508832022547722,-0.01713583618402481,0.026536080986261368,-0.019023790955543518,-0.004757393151521683,-0.012180626392364502
397,-0.007079523988068104,-0.009209070354700089,0.004418077878654003,-0.0016414308920502663,-0.005131090991199017,-0.0003882312448695302,0.0004954504547640681,0.0032320809550583363,-0.0023777754977345467,0.010369731113314629
398,0.007745426148176193,0.031213542446494102,0.019617503508925438,0.0012492709793150425,0.0017942863050848246,0.006979701109230518,0.003711987752467394,0.011450869962573051,0.03228113800287247,0.006311332806944847
399,0.0009064080659300089,-0.032897721976041794,0.014717195183038712,0.0073912255465984344,-0.004366899840533733,0.010983400978147984,-0.011477889493107796,0.013369137421250343,-0.027490805834531784,0.028125431388616562
400,-0.007191899232566357,-0.023037130013108253,-0.02136283554136753,0.006829978432506323,-0.0022720731794834137,0.006551016587764025,-0.03698158636689186,0.004420589655637741,-0.03240485489368439,0.009011991322040558
401,-0.01198038924485445,-0.007058845832943916,0.007848145440220833,-0.007766695227473974,-0.010294871404767036,-0.0038903383538126945,-0.013191601261496544,0.0027245597448199987,-0.011372777633368969,0.01644188165664673
402,-0.00580544862896204,-0.05177397280931473,0.0049841455183923244,0.0004011924029327929,-0.006921757012605667,0.005137805826961994,0.029234807938337326,0.0034756683744490147,-0.014539633877575397,0.015223866328597069
403,0.017871417105197906,-0.032554905861616135,0.0003545936197042465,0.006883210502564907,-0.012134015560150146,-0.0004843732458539307,-0.03651317581534386,0.0013404840137809515,-0.03824292868375778,0.020177531987428665
404,0.02354602888226509,-0.02326791360974312,-0.0016251670895144343,0.012361137196421623,-0.005527709145098925,0.009047305211424828,-0.03283357247710228,0.012475313618779182,-0.034795068204402924,0.03045162558555603
405,-0.018214723095297813,0.0014481067191809416,-0.011805994436144829,-0.008812070824205875,-0.009902196936309338,-0.009206412360072136,-0.016483532264828682,-0.011686165817081928,-0.005842573009431362,-0.024250522255897522
406,-0.011980388313531876,-0.007058846764266491,0.007848145440220833,-0.007766695227473974,-0.010294871404767036,-0.003890338120982051,-0.013191601261496544,0.0027245599776506424,-0.011372777633368969,0.01644188165664673
407,-0.0015428047627210617,-0.03234827145934105,-0.026331553235650063,-0.016065888106822968,-0.02348647639155388,-0.013412384316325188,-0.02301950380206108,-0.017374876886606216,-0.04031624644994736,-0.008868897333741188
408,0.0019854065030813217,-0.001960903871804476,-0.0023969500325620174,0.0028878420125693083,-0.0057521783746778965,0.002190337283536792,-0.008156957104802132,0.004010612145066261,0.011176111176609993,0.002672188449651003
409,0.00706638116389513,-0.0018220472848042846,0.002037721686065197,0.013590380549430847,-0.00044850894482806325,0.007850178517401218,-0.011001499369740486,0.00644962303340435,-0.029135139659047127,0.014915203675627708
410,-0.003930454142391682,-0.018171947449445724,0.007377203553915024,0.001783695537596941,-0.003931144252419472,0.0022494650911539793,0.010036170482635498,0.005072619765996933,-0.0020253409165889025,0.011569450609385967
411,-0.0007935454486869276,-0.042429305613040924,0.002569868927821517,0.0007173165213316679,-0.01391399186104536,-0.004258806351572275,-0.0002644320484250784,0.0032855914905667305,-0.024284953251481056,0.014110391959547997
412,0.021441970020532608,-0.03109266608953476,-0.00585593469440937,0.016310904175043106,-0.004592736717313528,0.014253315515816212,-0.03004644438624382,0.01389063335955143,-0.020328819751739502,0.04870288446545601
413,-0.007967217825353146,0.03537099435925484,0.009632733650505543,0.0016736447578296065,-0.002732908818870783,-0.0031971035059541464,-0.04355673864483833,0.007068505510687828,-0.0025374835822731256,0.011317071504890919
414,0.050891295075416565,-0.03388987109065056,0.03855299949645996,0.025792255997657776,0.019309619441628456,0.032859448343515396,-0.00019219983369112015,0.03539778292179108,-0.013556776568293571,0.07402170449495316
415,-0.015522775240242481,0.01670227386057377,0.008607161231338978,-0.009045464918017387,-0.010921760462224483,-0.0068962350487709045,-0.04165675491094589,0.0032726344652473927,-0.015624209307134151,0.017645888030529022
416,0.013116875663399696,-0.068509042263031,-0.018851004540920258,0.019203372299671173,-0.01710839942097664,0.007031260058283806,-0.05763138830661774,0.011213894002139568,-0.07530573755502701,0.028085846453905106
417,-0.015522775240242481,0.01670227386057377,0.008607161231338978,-0.009045464918017387,-0.010921760462224483,-0.0068962350487709045,-0.04165675491094589,0.0032726344652473927,-0.015624209307134151,0.017645888030529022
418,-0.015522775240242481,0.01670227386057377,0.008607161231338978,-0.009045464918017387,-0.010921760462224483,-0.0068962350487709045,-0.04165675491094589,0.0032726344652473927,-0.015624209307134151,0.017645888030529022
419,-0.0013836624566465616,0.019390003755688667,0.00929664820432663,0.0072975801303982735,0.001216330099850893,0.001287331571802497,-0.016096338629722595,0.008067327551543713,0.006996873766183853,0.007551255170255899
420,-0.00838862732052803,-0.03115120902657509,0.007078544236719608,-0.006470097228884697,-0.009659240022301674,-0.0008425377309322357,0.015670357272028923,0.0021688451524823904,-0.0070620751939713955,0.01522108819335699
421,-0.015522775240242481,0.01670227386057377,0.008607161231338978,-0.009045464918017387,-0.010921760462224483,-0.0068962350487709045,-0.04165675491094589,0.0032726344652473927,-0.015624209307134151,0.017645888030529022
422,-0.004331005271524191,-0.059536926448345184,0.005662749521434307,-0.002899566665291786,-0.008132610470056534,0.003943843301385641,0.04572527855634689,0.002146135549992323,-0.00594293000176549,0.014154262840747833
423,-0.01180720143020153,-0.012763752602040768,0.005686849355697632,0.0004826323129236698,-0.007120700553059578,0.0014790345449000597,-0.021715573966503143,0.0050502195954322815,-0.025746751576662064,0.017597168684005737
424,0.011373447254300117,0.013723494485020638,-0.003258937504142523,0.009605024009943008,0.001726015703752637,0.0077726393938064575,-0.0299651138484478,0.013538236729800701,-0.0063410596922039986,0.010925494134426117
425,0.01863875240087509,-0.009741369634866714,-0.0042166681960225105,0.010558320209383965,-0.0033842807170003653,0.0064590685069561005,-0.0131758414208889,0.0062482841312885284,-0.012091492302715778,0.025537414476275444
426,-0.009854363277554512,0.0008807789999991655,-0.01488969661295414,-0.007055450230836868,-0.006294609047472477,-0.008214944042265415,-0.008347120136022568,-0.011114395223557949,-0.00827550794929266,-0.00742805190384388
427,0.0060729277320206165,0.0019213592167943716,0.010323060676455498,0.008012540638446808,-5.387933924794197e-05,0.00362832797691226,-0.03234807029366493,0.00869678519666195,-0.008638211525976658,0.0185439120978117
428,0.016396168619394302,-0.04335293173789978,-0.0015516453422605991,0.015794795006513596,-0.001679775770753622,0.012666217982769012,0.0007037663017399609,0.014536301605403423,-0.02136041596531868,0.041725121438503265
429,-0.007400344125926495,-0.03778025880455971,0.006866783834993839,-0.00611333642154932,-0.00948434416204691,-3.930879756808281e-06,0.0236117672175169,0.0020159396808594465,-0.005875981412827969,0.014885189943015575
430,0.02066977135837078,-0.01309026125818491,-0.02731987275183201,0.0022127958945930004,-0.005170256830751896,0.0031412215903401375,-0.018274329602718353,0.007890848442912102,-0.028132278472185135,0.03134441748261452
431,0.018434517085552216,-0.020928671583533287,0.008727692067623138,0.021098507568240166,0.0018068490317091346,0.0144979078322649,-0.022952526807785034,0.01396804116666317,-0.025204768404364586,0.02997952699661255
432,-0.012303901836276054,0.0058958991430699825,-0.0029197982512414455,-0.005482910200953484,-0.004017111845314503,-0.006881342269480228,0.0014795088209211826,-0.003933177329599857,0.007099269889295101,-0.005739971064031124
433,0.008138822391629219,-0.03308168426156044,0.006156448274850845,0.010042833164334297,-0.005637256894260645,0.004005097784101963,-0.01733100414276123,0.008896317332983017,-0.046979889273643494,0.03891271352767944
434,-0.0035209835041314363,-0.06380170583724976,0.006035555154085159,-0.004712922032922506,-0.008797816932201385,0.0032879074569791555,0.054784730076789856,0.001415724866092205,-0.0012201154604554176,0.013566646724939346
435,0.03376973792910576,-0.034253984689712524,-0.0029834795277565718,0.01433156430721283,-0.003599290270358324,0.010637521743774414,-0.03923235833644867,0.011092139407992363,-0.03278554975986481,0.03894183412194252
436,0.015420995652675629,-0.036403588950634,0.004047003109008074,0.004714134149253368,-0.01030592992901802,0.003709094598889351,-0.07691642642021179,0.004522719886153936,-0.051145460456609726,0.04045534133911133
437,0.008057248778641224,0.08073827624320984,0.033550962805747986,-0.011304382234811783,0.0074772401712834835,0.006634804420173168,0.03609039634466171,0.01106671616435051,0.07519975304603577,-0.006628028117120266
438,0.019110189750790596,-0.008922949433326721,0.005835964810103178,0.01346573606133461,0.00786431785672903,0.01528706680983305,-0.008933602832257748,0.021599072962999344,0.01347302459180355,0.04246828332543373
439,2.3775501176714897e-05,-0.04398825019598007,-0.014055287465453148,-0.011060930788516998,-0.017568837851285934,-0.006565267685800791,0.021722273901104927,-0.009808341041207314,-0.01666061021387577,0.0008466184954158962
440,-0.0022564793471246958,0.050852298736572266,0.01557094231247902,0.0012954405974596739,0.0017569102346897125,7.052649743855e-05,-0.02512318082153797,0.008975282311439514,0.019222421571612358,0.00545966811478138
441,-0.023901954293251038,0.017385073006153107,-0.01604810729622841,-0.013605133630335331,-0.007734446786344051,-0.009403085336089134,-0.000663653714582324,-0.004581444896757603,0.0007249515037983656,-0.015127911232411861
442,0.014560449868440628,0.004131867550313473,-0.0013367797946557403,0.004155673086643219,-0.0029499297961592674,0.007677849382162094,-0.0377337671816349,0.005025413818657398,-0.0509081706404686,0.04457875341176987
443,0.00011945469304919243,0.055352047085762024,0.010730394162237644,0.013146258890628815,0.0060315849259495735,0.0007620613323524594,-0.045590270310640335,0.011131207458674908,0.011469175107777119,0.00454337615519762
444,0.0058809989131987095,0.01092719566076994,0.013826519250869751,0.005357483867555857,0.0029826383106410503,0.004559067077934742,-0.018507584929466248,0.002489257836714387,-0.003345767967402935,0.016799654811620712
445,-0.003944448195397854,0.012114865705370903,-0.015492221340537071,-0.008251020684838295,-0.0056115263141691685,0.0023438334465026855,-0.018061531707644463,0.0006138476310297847,-0.01005871407687664,0.013695796951651573
446,0.03140741214156151,-0.03378619998693466,-0.012564224191009998,-0.003492468735203147,-0.014621388167142868,0.0028114544693380594,-0.04822690039873123,0.00289440480992198,-0.04516197368502617,0.0019861734472215176
447,0.006083570886403322,0.029173877090215683,-0.0032413112930953503,-0.004890063777565956,-0.0002583745517767966,0.0033603725023567677,0.005777870304882526,0.0052541871555149555,0.031010137870907784,-0.008354991674423218
448,0.012150256894528866,0.004108201712369919,-0.034374576061964035,0.0008550103520974517,0.0023073297925293446,-0.002737082075327635,0.008225912228226662,-0.0018077925778925419,-0.0028046376537531614,-0.010738708078861237
449,-0.02371465414762497,-0.012602732516825199,-0.026712127029895782,-0.005395069252699614,-0.01571270450949669,-0.012086937204003334,-0.0340299978852272,-0.009389534592628479,-0.03046887367963791,-0.016931630671024323
450,-0.010493578389286995,-0.010778272524476051,-0.03521273657679558,0.004626444075256586,-0.003319968469440937,0.007260777987539768,-0.008633808232843876,0.0009008325869217515,-0.01337530929595232,0.02009367197751999
451,0.03623774275183678,-0.053006306290626526,-0.007101122289896011,0.0021578853484243155,-0.015473926439881325,0.0031860144808888435,-0.0524204820394516,0.006560759153217077,-0.04228051379323006,0.050423912703990936
452,0.01662776991724968,0.014912406913936138,-0.037322625517845154,0.01290128007531166,-0.0028398879803717136,0.002965677762404084,-0.02491430938243866,0.0016021732008084655,-0.04350123926997185,0.041426870971918106
453,0.0028753867574472848,0.03703365100681451,-0.026601365072398773,0.010515017269175994,0.004557515072864871,0.014504772021086226,-0.011515387935422255,0.01324966435713485,0.015249309603683637,-0.015823855929076217
454,-0.00710543105378747,-0.01215357519686222,0.003351655788719654,-0.0069653126411139965,-0.0038994168862700462,-0.003689683973789215,0.005944648291915655,0.00038542808033525944,-0.06687605381011963,-0.001993119716644287
455,0.0239755529910326,-0.06377885490655899,0.013684835284948349,0.0006048008799552917,-0.013262657448649406,-0.0009631268912926316,-0.04973801597952843,0.00011935096699744463,-0.006619551219046116,0.030433716252446175
456,0.0403902493417263,-0.0762849897146225,-0.007675504311919212,0.013203516602516174,-0.01656419038772583,0.011990873143076897,-0.05351001396775246,0.004203198943287134,-0.032179392874240875,0.0542798712849617
