,security,conformity,tradition,benevolence,universalism,self-direction,stimulation,hedonism,achievement,power
0,0.010591413825750351,-0.019505931064486504,-0.01738797500729561,0.0015498088905587792,-0.0053024375811219215,0.005732445046305656,-0.014998343773186207,-0.0035912590101361275,-0.002135050017386675,0.01912902295589447
1,-0.003714275313541293,-0.037335243076086044,-0.016027173027396202,0.0003068597870878875,-0.003936772234737873,0.004674650263041258,0.012745000422000885,-0.004054681397974491,0.016383934766054153,0.010697418823838234
2,0.000495716230943799,-0.0416189581155777,-0.004524542018771172,-0.00015333876945078373,-0.007275463547557592,0.006183477118611336,0.013807072304189205,0.0011866906424984336,0.010377975180745125,-0.0014232746325433254
3,0.011224639602005482,-0.052948080003261566,-0.012483766302466393,-0.002117057563737035,-0.012434925884008408,-0.002453050808981061,-0.01449363213032484,-0.009069561958312988,-0.01188703067600727,0.007761514279991388
4,0.006560850117677125,0.005967420249882736,-0.00861724472737058,0.0003912682649741203,-0.008561104951667274,0.0034702926353004384,0.031712815442941626,-0.00264133415836495,0.010040617400098453,-0.04280672081989593
5,-0.01160741038620472,-0.0007663554279133677,-0.008929598145186901,-0.01212781760841608,-0.010916369035840034,-0.009333591908216476,-0.005481413099914789,-0.012619880959391594,-0.0011635477421805263,-0.0076423510909080505
6,0.003180699422955513,-0.0045028734020888805,-0.005810815840959549,-0.009515108540654182,-0.0073021226562559605,-0.007232057861983776,-0.0047031124122440815,-0.011495174840092659,-0.00029006946715526283,-0.01019302848726511
7,-0.0011721011251211166,-0.02441990002989769,-0.02681255340576172,0.00885589886456728,0.0017217197455465794,0.0083619374781847,-0.00875201728194952,-0.003586084581911564,0.00640955101698637,0.031528446823358536
8,0.034035664051771164,0.013006901368498802,0.0654398500919342,-0.0002753506414592266,0.004672010894864798,0.005202610976994038,0.01373230293393135,0.008587515912950039,-0.025071319192647934,0.04282033070921898
9,0.018419064581394196,0.0010945909889414907,-0.006905585993081331,0.0026229226496070623,-0.0023627823684364557,0.006142973899841309,-0.0036049261689186096,0.008266467601060867,0.0019143240060657263,0.020133912563323975
10,-0.0006358379032462835,-0.0036955224350094795,-0.0059640491381287575,-0.007695971988141537,-0.01119154691696167,-0.002490229206159711,-0.009260627441108227,-0.007254225201904774,-0.0003290896420367062,-0.0015914447139948606
11,0.042903092197333514,-0.0165781484322729,0.018034223465301303,0.024526429396027474,0.0094877586557005,0.005159733521802656,0.016718602456976896,0.016246436746815588,0.03615987126637736,0.028097655861850347
12,-0.0011721011251211166,-0.02441990002989769,-0.02681255340576172,0.00885589886456728,0.0017217197455465794,0.0083619374781847,-0.00875201728194952,-0.003586084581911564,0.00640955101698637,0.031528446823358536
13,0.04272837191820145,-0.05357364937663078,-0.028793180361390114,0.021773137152194977,0.002159288851544261,0.019422560930252075,-0.023828115314245224,0.015120700933039188,-0.027531923726201057,0.043081991374492645
14,-0.002137733157724142,-0.029325729236006737,-0.022715779021382332,0.0056085893884301186,-0.0004276328254491091,0.006961340084671974,-0.0005864759441465139,-0.0037640812806785107,0.010198275558650494,0.02361588180065155
15,-0.015537859871983528,-0.012604882009327412,0.000584139721468091,-0.012111841700971127,-0.005197348538786173,-0.005412984639406204,0.028836511075496674,-0.00726685393601656,0.027665594592690468,-0.01042156107723713
16,-0.0017969663022086024,0.016740141436457634,0.004120843950659037,-0.006493968889117241,-0.0012355390936136246,-0.0056134737096726894,-0.004613801371306181,-0.003077069064602256,0.012318769469857216,-0.008802949450910091
17,0.00988876260817051,-0.00861884281039238,-0.0026986696757376194,0.004163752775639296,-0.003610275685787201,0.001578786876052618,-0.026673540472984314,-0.0017213891260325909,-0.013653240166604519,0.0019320949213579297
18,0.006702909711748362,-0.030846156179904938,-0.02141113579273224,-0.0001631269697099924,-0.005893845576792955,0.004453328438103199,-0.022338859736919403,0.003599014366045594,-0.01490092370659113,0.03355824947357178
19,0.012875804677605629,-0.006980353035032749,-0.02211187593638897,-0.0017044430132955313,-0.006730988156050444,-0.0010435979347676039,-0.01709553599357605,0.004001566208899021,-0.030776016414165497,0.022938156500458717
20,-0.0011721011251211166,-0.02441990002989769,-0.02681255340576172,0.00885589886456728,0.0017217197455465794,0.0083619374781847,-0.00875201728194952,-0.003586084581911564,0.00640955101698637,0.031528446823358536
21,0.017445653676986694,-0.017042068764567375,-0.013179874047636986,0.0027641523629426956,-0.00238559627905488,0.0028542065992951393,-0.01447107270359993,-0.00023219786817207932,-0.02115236409008503,0.024378184229135513
22,-0.009494631551206112,-0.026085764169692993,-0.02268393337726593,-0.0027631670236587524,-0.009943519718945026,0.0007190054748207331,-0.01877390220761299,-0.002066939603537321,0.02246258221566677,0.013713374733924866
23,-0.0011721011251211166,-0.02441990002989769,-0.02681255340576172,0.00885589886456728,0.0017217197455465794,0.0083619374781847,-0.00875201728194952,-0.003586084581911564,0.00640955101698637,0.031528446823358536
24,-0.0016069652047008276,0.004886582959443331,0.011518746614456177,-0.011124787852168083,-0.0021710738074034452,-0.00831967405974865,-0.003431237768381834,-0.012723821215331554,0.003679085522890091,-0.010169382207095623
25,0.00838195625692606,-0.05106848478317261,-0.008615841157734394,0.003390922211110592,-0.01567816361784935,-0.000658098142594099,-0.04903704673051834,-0.006396937184035778,-0.03279298171401024,0.0315791554749012
26,-0.009567996487021446,-0.021723242476582527,-0.0004875296726822853,-0.0018575903959572315,-0.009756004437804222,0.00011473166523501277,-0.014660444110631943,-0.009541061706840992,-0.022008141502738,0.010175414383411407
27,0.0017176616238430142,-0.043047986924648285,-0.015893444418907166,8.727563545107841e-05,-0.008712630718946457,-0.00044278940185904503,-0.007058081217110157,-0.006377008743584156,-0.010956097394227982,0.018096864223480225
28,-0.0011721011251211166,-0.02441990002989769,-0.02681255340576172,0.00885589886456728,0.0017217197455465794,0.0083619374781847,-0.00875201728194952,-0.003586084581911564,0.00640955101698637,0.031528446823358536
29,0.006657855119556189,-0.023547513410449028,-0.00940368790179491,0.0027271530125290155,-0.006954376585781574,-0.0003376379609107971,-0.01907038502395153,-0.00129216187633574,-0.019775621592998505,0.01382673904299736
30,0.0014248191146180034,0.007555714342743158,0.008128205314278603,-0.002782809780910611,0.0006743539124727249,-0.001246676198206842,-0.001500435872003436,-0.0010619144886732101,0.003367843572050333,0.0063357483595609665
31,0.013738766312599182,-0.03890923783183098,-0.011780643835663795,0.009471159428358078,-0.003036491572856903,0.009625853970646858,-0.015101023018360138,0.0030234649311751127,0.007213338278234005,0.01757894642651081
32,0.0009428409393876791,-0.006119405385106802,-0.003856503404676914,-0.007419337518513203,-0.006257988512516022,-0.005040150135755539,0.00022078125039115548,-0.006218570750206709,0.008721315301954746,0.0015565233770757914
33,-0.009383205324411392,-0.005491484887897968,-0.009591944515705109,-0.009612321853637695,-0.006534379906952381,-0.007556171156466007,-0.008146530017256737,-0.00027871178463101387,-0.002126620151102543,-0.004959104582667351
34,-0.0024735056795179844,-0.036009542644023895,0.00010657194070518017,0.009614905342459679,-0.0011378549970686436,0.0011589981149882078,-0.00025962479412555695,0.009145968593657017,-0.031619176268577576,0.03621803969144821
35,0.015094335272374356,0.009602032512843767,0.04467900532404019,0.0016986442101411627,-0.0035851903991677607,-0.005553270971157339,-0.029386719833875866,-0.012024195978752598,-0.024377192548507093,-0.023184615794720618
36,0.00720285065472126,-0.021349504590034485,-0.007518609520047903,-0.0065787057392299175,-0.010986967012286186,-0.0007532306481152773,-0.014936983585357666,-0.001338464324362576,-0.014164023101329803,0.0185523871332407
37,0.022838260978460312,-0.052632175385951996,0.0007393122650682926,0.011608735658228397,-0.005421892274171114,0.009760331362485886,-0.03244749829173088,0.004326598718762398,-0.029374875128269196,0.03713032230734825
38,-0.004277635831385851,-0.04019736498594284,-0.013637068681418896,-0.001587661332450807,-0.005190731026232243,0.0038575250655412674,0.017508884891867638,-0.004158525727689266,0.018594319000840187,0.006081129424273968
39,0.004885992966592312,-0.02602834813296795,-0.010870935395359993,-0.00449913926422596,-0.006929965689778328,-0.005407177843153477,-0.008123533800244331,-0.004628230817615986,0.004430320579558611,-0.012247051112353802
40,-0.01261121965944767,-0.03280704841017723,-0.0011869443114846945,-0.003348489059135318,-0.008050044998526573,0.001759685343131423,0.012009126134216785,-0.0012136318255215883,-0.005327797494828701,0.008692068047821522
41,-0.004163939505815506,0.0069417804479599,-0.0042730942368507385,0.0014800867065787315,-0.0029564066790044308,0.006124039180576801,-0.03318941965699196,-0.0037699458189308643,-0.020474137738347054,0.004571123048663139
42,-0.006749700289219618,-0.052756525576114655,-0.0031491394620388746,-0.009900925680994987,-0.010693167336285114,0.0002719305921345949,0.03841303661465645,-0.004614198114722967,0.02829361893236637,-0.014175398275256157
43,0.025875378400087357,-0.07086236774921417,0.011358828283846378,0.007488301955163479,-0.005816231481730938,0.00720632029697299,-0.04229087382555008,0.004096610937267542,-0.024457762017846107,0.03508827090263367
44,-0.007771325763314962,0.003597523085772991,-0.006948052905499935,-0.004920218139886856,-0.0018076470587402582,-0.005134652368724346,-0.00406813807785511,-0.006407386157661676,-0.0005273764254525304,-0.005160821136087179
45,-0.04892476860383079,0.010946338202242077,-0.000666719512064991,-0.015733965926637148,-0.006073356754834316,-0.008889336846289165,0.02523546754045208,-0.000487320076889474,0.0009588873658714118,-0.037825406577474976
46,0.005060598719865084,-0.024142935872077942,-0.019305076450109482,-0.0007906177779659629,-0.010193745605647564,0.004278562963008881,0.004316226579248905,0.003973498474806547,-0.03802405670285225,0.007810014765709639
47,0.05172118917107582,-0.03660552576184273,0.0059904796071350574,0.03520872816443443,0.002601145999506116,0.030366992577910423,-0.06384493410587311,0.030924314633011818,-0.06512907892465591,0.06047281622886658
48,0.008725299499928951,-0.010914656333625317,-0.01958659291267395,0.0037680352106690407,-0.0037360629066824913,0.005338452756404877,-0.003185235196724534,0.0009833939839154482,0.006535455584526062,0.0009872023947536945
49,-0.0282005425542593,0.007852669805288315,0.06764987856149673,0.00574712036177516,0.002505537122488022,-0.005003015510737896,0.03910394385457039,-0.008435367606580257,-0.006036120466887951,-0.026690665632486343
50,-0.002137733157724142,-0.029325729236006737,-0.022715779021382332,0.0056085893884301186,-0.0004276328254491091,0.006961340084671974,-0.0005864759441465139,-0.0037640812806785107,0.010198275558650494,0.02361588180065155
51,0.009710595943033695,0.04297053441405296,0.016914159059524536,0.0041324542835354805,0.0046679191291332245,-0.004291236866265535,-0.0509541817009449,0.0012912797974422574,0.01482335850596428,-0.019511239603161812
52,0.02980806492269039,-0.011249348521232605,0.003000533441081643,0.015759265050292015,0.0006911340169608593,0.013669483363628387,-0.029102057218551636,0.011512568220496178,-0.026812026277184486,0.03890281915664673
53,0.017084922641515732,-0.049145180732011795,-0.01842879131436348,0.007496529258787632,-0.0029570043552666903,0.010332759469747543,0.0027741340454667807,0.004723947495222092,-0.0007951208390295506,0.018936019390821457
54,-0.0028183525428175926,-0.03278357535600662,-0.0198281928896904,0.003319734940305352,-0.0019425926730036736,0.0059741344302892685,0.0051689655520021915,-0.003889538114890456,0.012868735939264297,0.01803874969482422
55,0.01246076449751854,-0.024284912273287773,-0.006526518613100052,0.005354085937142372,-0.0018486471381038427,0.005636119283735752,-0.009953178465366364,0.003711756318807602,0.0013234612997621298,0.007501952815800905
56,0.00976473093032837,0.009059019386768341,-0.004114718176424503,0.0023259196896106005,0.007903429679572582,0.001945476047694683,0.007150124292820692,0.0036748992279171944,0.009178711101412773,0.007634218316525221
57,-0.012842785567045212,0.01977824792265892,-0.02310996688902378,-0.012321020476520061,-0.001540332566946745,-0.00837414339184761,0.046495936810970306,-0.0063022430986166,0.015264940448105335,-0.030047880485653877
58,-0.005502084270119667,-0.03408703953027725,-0.0016176170902326703,0.0005489429458975792,-0.012726621702313423,-0.001919304602779448,-0.019399691373109818,0.0006601230707019567,-0.013276026584208012,0.020020240917801857
59,-0.0011721011251211166,-0.02441990002989769,-0.02681255340576172,0.00885589886456728,0.0017217197455465794,0.0083619374781847,-0.00875201728194952,-0.003586084581911564,0.00640955101698637,0.031528446823358536
60,-0.01674134097993374,0.024034036323428154,0.01466481201350689,-0.017782066017389297,-0.00047968083526939154,-0.01647123321890831,0.015989575535058975,-0.008820335380733013,0.03415820747613907,-0.011766565032303333
61,0.0057162269949913025,-0.023722108453512192,-0.00735725462436676,0.0013540302170440555,-0.0075209904462099075,-0.00010048516560345888,-0.014945303089916706,-0.0022405097261071205,-0.025715650990605354,0.012840824201703072
62,0.02821234054863453,-0.06680326908826828,0.0042772977612912655,0.011302068829536438,-0.006601437460631132,0.006996782962232828,-0.06306804716587067,0.0021554259583353996,-0.03583935275673866,0.046832166612148285
63,0.0063468581065535545,-0.04365340247750282,-0.011815337464213371,0.006571953184902668,-0.009605270810425282,0.006812113802880049,-0.04573109745979309,0.0016432383563369513,-0.023349279537796974,0.028973162174224854
64,0.015280844643712044,-0.0395565927028656,-0.020206812769174576,0.0008328980766236782,-0.013273324817419052,0.004015105310827494,-0.02116132341325283,-1.1381227523088455e-05,-0.03907310590147972,0.024752845987677574
65,-0.006080068647861481,-0.020637549459934235,-0.0192175954580307,0.007517780177295208,-0.00014211679808795452,0.0070119150914251804,-0.011120091192424297,-0.001903098076581955,-0.007030007429420948,0.03225332871079445
66,-0.0030885101296007633,-0.03415607288479805,-0.01868204027414322,0.0024112374521791935,-0.002543914131820202,0.005582290235906839,0.007453432306647301,-0.003939335234463215,0.013928703032433987,0.015825055539608
67,-0.006749699357897043,-0.052756525576114655,-0.0031491385307163,-0.009900925680994987,-0.010693169198930264,0.00027193035930395126,0.03841303288936615,-0.00461419764906168,0.02829361893236637,-0.014175397343933582
68,-0.009338452480733395,0.010384254157543182,-0.006320623680949211,-0.012855840846896172,-0.007620626594871283,-0.011575757525861263,0.003559133969247341,-0.009280892089009285,0.0011923783458769321,0.005393030121922493
69,0.00436979066580534,-0.03529436141252518,-0.0004702078877016902,-0.0003526307409629226,-0.004800782538950443,0.0024167115334421396,-0.003278471529483795,-0.0014615741092711687,0.010395285673439503,0.003755170851945877
70,0.010014422237873077,-0.013943212106823921,0.003998307511210442,-0.002320558298379183,-0.005108762998133898,-0.001011569402180612,-0.019239144399762154,-0.0013850680552423,-0.021899303421378136,0.003828419139608741
71,-0.0022177030332386494,-0.002272942801937461,0.007165413349866867,0.009295946918427944,0.00482431473210454,-0.002504594624042511,-0.001555166905745864,-0.003945586271584034,0.027560874819755554,-0.00526094064116478
72,-0.00337665225379169,-0.07270677387714386,-0.016983637586236,0.012709766626358032,-0.005245096515864134,0.002256622537970543,-0.003654749132692814,0.010088722221553326,-0.04606696963310242,0.0383492112159729
73,0.008357692509889603,-0.0159793458878994,-0.02156589925289154,0.002942653838545084,-0.00854569673538208,0.005836554802954197,-0.007335746195167303,0.005982282105833292,-0.05268944427371025,0.01812032051384449
74,0.004147308878600597,-0.021462323144078255,-0.0023899367079138756,-0.0013877059100195765,-0.010408319532871246,-0.002601878484711051,-0.01939217373728752,-0.005678187590092421,-0.020941266790032387,0.014686206355690956
75,-0.00947966892272234,-0.009431424550712109,-0.008984759449958801,-0.007135337684303522,-0.0060461172834038734,-0.001675035571679473,0.015271740034222603,-0.00436521926894784,0.010369032621383667,0.0027673104777932167
76,-0.0059343865141272545,-0.028144415467977524,-0.010540382005274296,0.006214328110218048,-0.0037205303087830544,0.004956584423780441,0.001478524529375136,0.004881241358816624,-0.024103816598653793,0.029291681945323944
77,-0.019145209342241287,-0.010568885132670403,0.0010003484785556793,0.003955674823373556,-0.005103692412376404,0.003418121486902237,-0.017423970624804497,0.002577065723016858,-0.042806413024663925,0.03418299928307533
78,-0.002986225998029113,-0.04334757849574089,0.004161512479186058,-0.008685602806508541,-0.010702737607061863,0.0003611419815570116,0.0300273597240448,-0.0029754959978163242,0.018937695771455765,-0.009339580312371254
79,-0.0006959994789212942,-0.010801246389746666,-0.012015881948173046,-0.0011547664180397987,-0.004132402129471302,0.002747842576354742,0.01068605575710535,0.006906001828610897,-0.023161008954048157,0.003268447006121278
80,0.016156047582626343,-0.022509999573230743,-0.001819647615775466,0.018088746815919876,-0.002345866756513715,0.01807180978357792,-0.032287634909152985,0.014588208869099617,-0.02631252259016037,0.017125379294157028
81,-0.02196183395765599,-0.028897152824489476,-0.016344129337804353,-0.0038467981328669625,0.008439582448182702,0.006842773726677584,-0.008533568039956514,0.0030824467739886895,-0.005763459293854438,0.004042485058076467
82,0.005726724397391081,-0.029186245054006577,-0.008139487355947495,-0.002589088398963213,-0.00971273798495531,-0.0015188613906502724,-0.03748100996017456,-0.0035479695070534945,-0.016839494928717613,0.011892212554812431
83,-0.03274871036410332,0.025376828387379646,-0.016402913257479668,-0.0164327435195446,-0.0048676589503884315,-0.013552967458963394,-0.04230241850018501,-0.01884401962161064,-0.025569476187229156,-0.025650855153799057
84,-0.002137733157724142,-0.029325729236006737,-0.022715779021382332,0.005608589854091406,-0.0004276328254491091,0.006961340084671974,-0.0005864759441465139,-0.0037640812806785107,0.010198276489973068,0.02361588552594185
85,0.0037472820840775967,-0.03302619978785515,0.0016956019680947065,-0.002823582384735346,-0.001472944626584649,0.00265238038264215,0.007407070603221655,-0.006010403856635094,0.003833296475932002,0.006021890789270401
86,0.000937559874728322,0.006419597193598747,-0.0014147309120744467,-0.0010247366735711694,-0.00425334507599473,0.0034352936781942844,-0.010574298910796642,0.0002267614472657442,-0.007464035879820585,-0.0014635147526860237
87,0.008644983172416687,-0.020715665072202682,0.003209478687494993,0.00523295858874917,-0.0016534851165488362,0.0035552724730223417,-0.022605368867516518,0.0018250916618853807,0.0005105114541947842,0.010131800547242165
88,0.005039540119469166,0.01535261981189251,0.007880788296461105,-0.006603863090276718,-0.005380365997552872,-0.00436056824401021,0.009738458320498466,-0.014184555038809776,0.05333078280091286,0.010970011353492737
89,-0.006749698892235756,-0.052756521850824356,-0.003149136435240507,-0.009900924749672413,-0.010693168267607689,0.0002719312906265259,0.03841303661465645,-0.0046141971834003925,0.02829362265765667,-0.014175397343933582
90,0.002476496621966362,0.0034423405304551125,-0.01126396469771862,-0.004511529114097357,-0.009738522581756115,0.0015099039301276207,-0.020959116518497467,-0.0047627598978579044,-0.031183965504169464,0.022005625069141388
91,0.008516926318407059,0.035578761249780655,0.012117954902350903,0.0046505494974553585,0.004344764165580273,-0.0029033622704446316,-0.0463251993060112,0.0007563016260974109,0.013900489546358585,-0.013912901282310486
92,-0.03969255089759827,0.07457520067691803,0.022784827277064323,-0.03443014621734619,0.0022056016605347395,-0.02798108570277691,0.04839333891868591,-0.018635261803865433,0.0664176344871521,-0.04349806159734726
93,0.009710595943033695,0.04297053441405296,0.016914159059524536,0.0041324542835354805,0.0046679191291332245,-0.004291236866265535,-0.0509541817009449,0.0012912797974422574,0.01482335850596428,-0.019511239603161812
94,-0.0011721011251211166,-0.02441990002989769,-0.02681255340576172,0.00885589886456728,0.0017217197455465794,0.0083619374781847,-0.00875201728194952,-0.003586084581911564,0.00640955101698637,0.031528446823358536
95,-0.0011721011251211166,-0.02441990002989769,-0.02681255340576172,0.00885589886456728,0.0017217197455465794,0.0083619374781847,-0.00875201728194952,-0.003586084581911564,0.00640955101698637,0.031528446823358536
96,-0.0028183525428175926,-0.03278357908129692,-0.0198281928896904,0.003319734940305352,-0.0019425931386649609,0.0059741344302892685,0.0051689655520021915,-0.003889538114890456,0.012868736870586872,0.01803874969482422
97,0.018045548349618912,-0.030639953911304474,-0.003172357799485326,0.0045675430446863174,-0.004334619734436274,0.003779974300414324,-0.022074859589338303,0.0017676637507975101,-0.004852678161114454,0.00672532431781292
98,0.0031138919293880463,-0.017117122188210487,-0.02207227423787117,0.0032165662851184607,-0.009450585581362247,-0.0010874624131247401,-0.03657625988125801,-0.002490219660103321,-0.03985464200377464,0.01953103393316269
99,-0.0032863151282072067,-0.03399430215358734,-0.0047419313341379166,-0.0023606421891599894,-0.003761249827221036,-0.0019477453315630555,0.02886958420276642,-0.0030367858707904816,-0.020415470004081726,0.032263509929180145
100,0.03391978517174721,-0.05786332115530968,-0.012917717918753624,0.008708559907972813,-0.010785740800201893,0.00699466560035944,-0.06011303514242172,0.0028494750149548054,-0.02185441553592682,0.02964816801249981
101,0.010971805080771446,0.005252193659543991,-0.004497511778026819,0.0013685880694538355,-0.00538871344178915,0.004797595553100109,-0.007393292151391506,0.007432515267282724,-0.00556208286434412,0.01847117580473423
102,0.02089885249733925,-0.008093737065792084,0.018457885831594467,0.011207574978470802,0.006035348400473595,0.01180410198867321,-0.012784840539097786,0.009176215156912804,-0.007968159392476082,0.024994967505335808
103,0.0071311211213469505,-0.030413135886192322,4.093465395271778e-05,0.005626530386507511,-0.007666951045393944,0.004187886603176594,-0.022921597585082054,-0.001326054334640503,-0.038347918540239334,0.030878987163305283
104,-0.006771404296159744,-0.009866448119282722,-0.008982256054878235,-0.005894436500966549,-0.008099996484816074,-0.00078442576341331,0.00967929232865572,-0.0023365553934127092,-0.004353798925876617,-0.0037580225616693497
105,-0.005402622278779745,-0.05063869059085846,-0.03549722582101822,-0.015817278996109962,-0.021849503740668297,-0.02076343260705471,0.00986956525593996,-0.02958688884973526,0.000929006957449019,-0.023064332082867622
106,-0.0023893313482403755,-0.02446185052394867,-0.005902598146349192,-0.0012764143757522106,-0.003932255320250988,0.0018244050443172455,0.005448409356176853,-0.0029105031862854958,0.016817424446344376,-0.0003258003853261471
107,-0.009635739028453827,0.011030448600649834,-0.011142418719828129,-0.008884887211024761,-0.0028465536888688803,-0.00740535045042634,0.0048093730583786964,-0.008404780179262161,0.010230809450149536,-0.008113882504403591
108,0.018356025218963623,-0.01953035593032837,0.002910907845944166,-0.00283311540260911,-0.004687302280217409,0.0021883295848965645,-0.0035882326774299145,0.0028305137529969215,-0.007830245420336723,0.023694483563303947
109,-0.0028142628725618124,-0.011064226739108562,-0.007843910716474056,-0.00418865866959095,-0.002581689041107893,-0.002693071961402893,0.010265800170600414,-0.00798969715833664,-0.0002863866393454373,-0.013156458735466003
110,-0.002137733157724142,-0.029325729236006737,-0.022715779021382332,0.0056085893884301186,-0.0004276328254491091,0.006961340084671974,-0.0005864759441465139,-0.0037640812806785107,0.010198275558650494,0.02361588180065155
111,-0.003714275313541293,-0.037335243076086044,-0.016027173027396202,0.0003068597870878875,-0.003936772234737873,0.004674650263041258,0.012745000422000885,-0.004054681397974491,0.016383934766054153,0.010697418823838234
112,-0.004979634657502174,0.014169182628393173,-0.010477444157004356,-0.017435582354664803,-0.004193359054625034,-0.001761929364874959,0.021850889548659325,-0.008969055488705635,-0.02869368903338909,0.011702203191816807
113,-0.004419265780597925,0.024669021368026733,-0.00857767928391695,-0.002569595817476511,0.000920201709959656,-0.0007128588040359318,0.01401829719543457,0.005940516944974661,-0.007153651677072048,-0.010534572415053844
114,-0.004861656576395035,-0.0431644432246685,-0.011159306392073631,-0.003551656613126397,-0.006490672007203102,0.0030104336328804493,0.022447453811764717,-0.004266176372766495,0.020885761827230453,0.0012955573620274663
115,-0.029126038774847984,0.06001654267311096,0.012474718503654003,-0.028809556737542152,0.000334832351654768,-0.022903665900230408,0.037904683500528336,-0.015943152830004692,0.05142893269658089,-0.03385886177420616
116,-0.006676151417195797,-0.030712725594639778,-0.006201665848493576,0.0024272713344544172,-0.008182489313185215,0.0023958063684403896,-0.017657609656453133,-0.0019859392195940018,-0.022907234728336334,0.026023631915450096
117,-0.006749699357897043,-0.052756525576114655,-0.0031491385307163,-0.009900925680994987,-0.010693169198930264,0.00027193035930395126,0.03841303288936615,-0.00461419764906168,0.02829361893236637,-0.014175397343933582
118,0.016570040956139565,-0.018805380910634995,-0.010126184672117233,-0.006715971045196056,-0.006891860160976648,-0.0033353648614138365,-0.025865234434604645,-0.004992594011127949,-0.0118136340752244,0.003761396510526538
119,-0.006749699357897043,-0.052756525576114655,-0.0031491385307163,-0.009900925680994987,-0.010693169198930264,0.00027193035930395126,0.03841303288936615,-0.00461419764906168,0.02829361893236637,-0.014175397343933582
120,-0.026194211095571518,0.03988531231880188,0.005404893308877945,-0.019261840730905533,0.002036039251834154,-0.01524575799703598,0.028368448838591576,-0.013361725956201553,0.045389607548713684,-0.017207259312272072
121,0.005960497539490461,-0.041127659380435944,-0.010092080570757389,0.012571602128446102,-0.007238730788230896,0.008118223398923874,-0.02472112700343132,0.005357591435313225,-0.02690591663122177,0.03308112174272537
122,-0.0026378598995506763,-0.019254351034760475,-0.004942632280290127,-0.0018634977750480175,-0.002038339152932167,-0.0001180602703243494,0.010663483291864395,-0.0019617504440248013,-0.007425327785313129,0.021144188940525055
123,-0.033848147839307785,0.053500209003686905,0.017505483701825142,-0.029339829459786415,0.0003892304375767708,-0.022699568420648575,0.044469431042671204,-0.016041873022913933,0.058145973831415176,-0.036295294761657715
124,-0.0017021484673023224,-0.024775486439466476,-0.003171652788296342,-0.0010189791209995747,-0.0024094944819808006,-0.0019901408813893795,0.01893017068505287,-0.0025274408981204033,-0.01803363673388958,0.028801025822758675
125,0.00040351017378270626,-0.01878446713089943,-0.0005134889506734908,-0.002202444477006793,-0.0010031984420493245,0.002302506472915411,-0.01340172067284584,-0.0037530860863626003,0.0032130139879882336,-0.008893007412552834
126,-0.015648923814296722,-0.02517799660563469,0.00562646146863699,0.0066914004273712635,0.00011474813800305128,0.004745772574096918,-0.015566650778055191,0.004773193039000034,-9.581679478287697e-06,0.008323201909661293
127,0.014181533828377724,0.010455534793436527,-0.04526933655142784,-0.00228403159417212,-0.013840695843100548,0.0017901980318129063,-0.02080800198018551,-0.013512663543224335,-0.02697526104748249,0.033236995339393616
128,0.01876886747777462,-0.016513235867023468,-0.01089882105588913,0.012037626467645168,-0.005502230022102594,0.013054177165031433,-0.00831839069724083,0.008193254470825195,-0.041669812053442,0.021438883617520332
129,-0.006749699357897043,-0.052756525576114655,-0.0031491385307163,-0.009900925680994987,-0.010693169198930264,0.00027193035930395126,0.03841303288936615,-0.00461419764906168,0.02829361893236637,-0.014175397343933582
130,-0.00678327027708292,0.004402632359415293,-0.007726140320301056,-0.009430804289877415,-0.005009336397051811,-0.00856115110218525,-0.0054106805473566055,-0.010108054615557194,-0.002870139665901661,-0.010100694373250008
131,-0.004277635831385851,-0.04019736498594284,-0.013637068681418896,-0.001587661332450807,-0.005190731026232243,0.0038575250655412674,0.017508884891867638,-0.004158525727689266,0.018594319000840187,0.006081129424273968
132,0.05977712307925388,0.03037052194418876,0.058960840998431734,0.013911974073933568,0.012636635289495272,0.009157278965140831,-0.011397927519486603,0.014960728996177343,0.0011181857513027412,-0.0042062591379840655
133,-0.0007931558477084887,0.028254294706546418,0.02727854069712152,0.0003617442316690058,-0.008475294047563486,-0.014501228878940065,0.01914230217318277,-0.01715871580986131,-0.021711936074302978,-0.007179181306009441
134,0.009502850472927094,-0.037872396409511566,-0.008240190334618092,0.006729055196046829,-0.0005111137870699167,0.009093966335058212,-0.026634277775883675,0.000264408765360713,-0.012947792187333107,0.03839880973100662
135,0.015976538881659508,-0.01535190548747778,-0.008645117282867432,-0.005155326798558235,-0.015132077038288116,0.008434562012553215,0.0017741881310939789,0.007120505906641483,-0.024372436106204987,0.01618334650993347
136,0.006081640720367432,0.012006228789687157,0.0001295367255806923,-0.012788204476237297,-0.009085940197110176,-0.009742379188537598,-0.03479532152414322,-0.010084412060678005,-0.020419741049408913,-0.0006526965298689902
137,-0.0016064154915511608,-0.03553491830825806,-0.01982833258807659,-0.005992726422846317,-0.010550489649176598,0.00034818099811673164,0.0032108137384057045,-0.008863074705004692,0.0016513066366314888,0.011040819808840752
138,-0.005674499087035656,-0.047294050455093384,-0.007710752543061972,-0.006285157985985279,-0.008299940265715122,0.0018314464250579476,0.029320992529392242,-0.004416007548570633,0.024075008928775787,-0.005365034099668264
139,0.019943809136748314,-0.020831922069191933,-0.008772210218012333,0.010837160050868988,0.0006275158375501633,0.008852405473589897,-0.009409350343048573,0.0037342840805649757,-0.018454894423484802,0.028136935085058212
140,0.006073196310550763,0.04932214105402455,-0.037053614989761056,-0.01492653520647506,0.004132302698836386,-0.004966075830945089,0.026513814380914397,-0.007488594038217549,0.031834331473161,-0.0016579530287134411
141,-0.0048852525651454926,-0.032047200947999954,-0.010490749031305313,-0.00023819284979254007,-0.004073086194694042,0.004512113053351641,0.011821286752820015,-0.0030112925451248884,0.009376227855682373,0.013453744351863861
142,0.024739930406212807,-0.011182271875441074,0.00494808703660965,0.013088985346257687,-0.0004811272374354303,0.009632822126150131,-0.011882789433002472,0.0058799549005925655,-0.012871330603957176,0.01919114962220192
143,-0.0023296414874494076,-0.014870221726596355,-0.0001443849178031087,-0.0013124028919264674,-0.0035735315177589655,0.0004498300259001553,-0.001883608172647655,-0.0018705871189013124,0.013001685030758381,-0.00356598780490458
144,-0.0011721011251211166,-0.02441990002989769,-0.02681255340576172,0.00885589886456728,0.0017217197455465794,0.0083619374781847,-0.00875201728194952,-0.003586084581911564,0.00640955101698637,0.031528446823358536
145,0.0038553145714104176,-0.0642814040184021,-0.014848008751869202,0.006028817035257816,-0.009514665231108665,0.0028125641401857138,-0.00501785334199667,0.004974035546183586,-0.02816707268357277,0.018595002591609955
146,0.012238597497344017,-0.04725058749318123,-0.01903068646788597,0.00791271310299635,-0.011253206059336662,0.0021922974847257137,-0.05347873643040657,-0.0072281756438314915,-0.02518291398882866,0.03910484164953232
147,0.014466537162661552,0.010090349242091179,-0.01884479634463787,-0.0026932561304420233,-0.004624400287866592,-0.00043286720756441355,-0.02128465101122856,-0.005451549310237169,0.0011979351984336972,0.006363186053931713
148,0.009012841619551182,-0.01594892516732216,-0.00010501616634428501,0.0023613886442035437,-0.00802876241505146,-0.000526710762642324,-0.032807495445013046,-0.0033758836798369884,-0.030147790908813477,0.015730105340480804
149,-0.015949219465255737,-0.004958151839673519,-0.002211899496614933,-0.00817415677011013,-0.0030235566664487123,-0.003951585851609707,0.016972877085208893,-0.0063764783553779125,0.017564481124281883,0.0005513894138857722
150,-0.0025051578413695097,-0.031192397698760033,-0.02115696482360363,0.004372988361865282,-0.001245460007339716,0.006428413093090057,0.0025205076672136784,-0.0038318070583045483,0.011639880947768688,0.02060515806078911
151,0.005021259188652039,0.0069080526009202,0.006531230639666319,-0.000981778372079134,-0.008398491889238358,0.0004518660716712475,-0.05435023456811905,-0.007203408516943455,-0.05159791186451912,0.0380498468875885
152,0.006128932349383831,-0.03333727642893791,-0.010435482487082481,0.01218668557703495,0.0037743947468698025,0.013128635473549366,-0.03056754730641842,0.006677565630525351,0.002034993376582861,0.020919961854815483
153,0.010822542011737823,-0.019935965538024902,-0.002345480490475893,0.005589132197201252,-0.007210134528577328,0.0019772949162870646,-0.020100606605410576,0.0033962915185838938,-0.02328537590801716,0.008645991794764996
154,0.044484221648812,0.012647554607623216,-0.027290032978374443,-0.0028537961849962575,-0.00348927732093928,-0.0018653404137813079,0.031956432588054556,0.0032568941782756453,0.040326297560896084,-0.011134867000059355
155,0.012853004969656467,-0.04312429949641228,-0.003440164728090167,0.0026339536998420954,-0.012606382369995117,0.0011061946861445904,-0.033317193388938904,-0.0032637626864016056,-0.03278396651148796,0.015497177839279175
156,0.02573476918041706,-0.02474210038781166,-0.011040262877941132,0.002872270764783025,-0.009777204133570194,0.0006770550971850753,-0.03290403261780739,0.0007902359357103705,-0.035037122666835785,0.02114654704928398
157,0.03012114018201828,0.019154395908117294,-0.007021468598395586,0.013204917311668396,0.008594202809035778,0.010915047489106655,-0.04041755199432373,0.003986505791544914,0.0014401638181880116,0.022399308159947395
158,0.026975393295288086,-0.05078869313001633,-0.022697588428854942,0.013357050716876984,-0.0019290531054139137,0.013019019737839699,-0.015074493363499641,0.007484355941414833,-0.01476180087774992,0.0312562994658947
159,0.0011329578701406717,-0.022047992795705795,-0.019980791956186295,-0.0022800960578024387,-0.009349719621241093,-0.0003538543824106455,-0.02544737234711647,-0.0030070911161601543,-0.020788833498954773,0.0049058436416089535
160,-0.004207827616482973,-0.023331234231591225,-0.013429492712020874,0.0006712989415973425,-0.0070278579369187355,0.0036164242774248123,-0.004080570302903652,-0.0015234174206852913,-0.02227335423231125,0.01575683057308197
161,-0.006749699357897043,-0.052756525576114655,-0.0031491385307163,-0.009900925680994987,-0.010693169198930264,0.00027193035930395126,0.03841303288936615,-0.00461419764906168,0.02829361893236637,-0.014175397343933582
162,0.0288041103631258,-0.0030214516445994377,-0.004218646790832281,0.00942921545356512,-9.78820025920868e-06,0.016166407614946365,-0.01797805167734623,0.010042693465948105,-0.06736182421445847,0.040655285120010376
163,-0.031196560710668564,0.011653712019324303,-0.0007898581097833812,-0.005799044854938984,-0.004654774907976389,0.006051190197467804,0.022557487711310387,-0.003564115846529603,0.030235392972826958,0.006600941997021437
164,-0.024652184918522835,0.023874562233686447,0.0031864806078374386,-0.020408032462000847,-0.005215778946876526,-0.013054228387773037,0.03386134281754494,-0.01216214895248413,0.02281409129500389,-0.01995823346078396
165,0.032534871250391006,-0.0468042716383934,-0.028333289548754692,0.01877381093800068,0.0020576869137585163,0.016854334622621536,-0.020327508449554443,0.010777069255709648,-0.019650857895612717,0.040399305522441864
166,0.02457200549542904,-0.04258859157562256,0.0012540617026388645,0.01407888624817133,-0.00629178574308753,0.011774180456995964,-0.041475266218185425,0.011185131967067719,-0.026760488748550415,0.0336618646979332
167,0.00018027995247393847,-0.007743092719465494,0.006936213467270136,-0.0041618673130869865,-0.002550183329731226,-0.0007077785558067262,-0.0029479176737368107,-0.0027439971454441547,0.020702309906482697,0.007382964249700308
168,0.004545935895293951,-0.021221021190285683,-0.025125723332166672,0.004100237973034382,-0.008928664028644562,0.0012081046588718891,-0.025966593995690346,-0.005809585098177195,-0.040476009249687195,0.025137366726994514
169,-0.01176005881279707,0.0152327511459589,-0.013230756856501102,-0.01078699715435505,-0.003590842941775918,-0.008201214484870434,0.0027648289687931538,-0.007285304367542267,-0.0001492127776145935,-0.008087867870926857
170,-0.0011721011251211166,-0.02441990002989769,-0.02681255340576172,0.00885589886456728,0.0017217197455465794,0.0083619374781847,-0.00875201728194952,-0.003586084581911564,0.00640955101698637,0.031528446823358536
171,-0.0024191210977733135,-0.014622598886489868,0.0063166189938783646,-0.002453613094985485,-0.006173367146402597,0.00191426498349756,-0.009656291455030441,-0.0013002019841223955,-0.0019476977176964283,0.009728864766657352
172,-0.0028183525428175926,-0.03278357908129692,-0.0198281928896904,0.003319734940305352,-0.0019425931386649609,0.0059741344302892685,0.0051689655520021915,-0.003889538114890456,0.012868736870586872,0.01803874969482422
173,0.007904657162725925,-0.044736240059137344,-0.0019561026711016893,0.0022626128047704697,-0.011673098430037498,0.00344013050198555,-0.02946677803993225,-5.622662138193846e-05,-0.020391499623656273,0.019409235566854477
174,-0.006749699357897043,-0.052756525576114655,-0.0031491385307163,-0.009900925680994987,-0.010693169198930264,0.00027193035930395126,0.03841303288936615,-0.00461419764906168,0.02829361893236637,-0.014175397343933582
175,0.021969133988022804,-0.03692786023020744,0.0014375078026205301,-0.0003812678623944521,-0.015932349488139153,0.0020892061293125153,-0.03915366157889366,-0.001889391103759408,-0.040549084544181824,0.020192114636301994
176,0.004752780310809612,-0.03679511696100235,-0.006179224234074354,0.004259568639099598,-0.006720873061567545,0.0021957510616630316,-0.007733263541013002,0.002960449317470193,-0.03449222072958946,0.0292323287576437
177,0.00841081328690052,-0.029491884633898735,0.008696196600794792,0.0017581067513674498,-0.003733159974217415,0.007529089227318764,0.02058533951640129,0.007868004962801933,0.007428914774209261,7.818685844540596e-05
178,0.01163836196064949,0.01002985704690218,-0.040373023599386215,-0.0033550444059073925,-0.012541202828288078,0.004913749173283577,-0.009314708411693573,-0.012679710984230042,-0.018129728734493256,0.027711600065231323
179,-0.03969255089759827,0.07457518577575684,0.022784823551774025,-0.03443014249205589,0.0022056002635508776,-0.02798108570277691,0.048393335193395615,-0.018635259941220284,0.0664176419377327,-0.04349805414676666
180,-0.02883097156882286,-0.007599071599543095,-0.04417777061462402,-0.025521758943796158,-0.02425127662718296,-0.02432245761156082,0.0019823750481009483,-0.02479168400168419,-0.023511826992034912,-0.01764059066772461
181,-0.0031330189667642117,-0.024574249982833862,-0.011223293840885162,-0.011171693913638592,-0.013024033978581429,0.0023940037935972214,-0.007195454090833664,0.0013324886094778776,-0.025484414771199226,0.01795685477554798
182,0.00234598177485168,-0.0008162543526850641,0.0008293475839309394,0.001120889326557517,-0.0005225278437137604,-1.0223593562841415e-06,-0.014909293502569199,-0.0015779701061546803,0.01680872030556202,-0.006037197541445494
183,-0.0076118940487504005,-0.04982208088040352,-0.002860510256141424,-0.008937101811170578,-0.010304381139576435,0.0004907697439193726,0.034529175609350204,-0.004113993141800165,0.023348117247223854,-0.010811733081936836
184,0.009606612846255302,-0.028191257268190384,-0.011130964383482933,-0.0016849011881276965,-0.00863439217209816,0.0008816135814413428,-0.004916816018521786,0.000804477371275425,-0.016900071874260902,0.015605398453772068
185,-0.002621146384626627,-0.005302867386490107,0.013470795005559921,0.008352218195796013,0.004993292037397623,0.005528125911951065,-0.0010170710738748312,0.0009459394495934248,0.0037536295130848885,0.021001655608415604
186,0.016426529735326767,-0.041459523141384125,-0.00817938707768917,0.006387442350387573,-0.004919099621474743,0.006609960924834013,-0.007148471660912037,0.005778438411653042,-0.013440434820950031,0.030672913417220116
187,0.022436492145061493,-0.04112551733851433,-0.003162872977554798,0.01717897318303585,0.004133562557399273,0.017433583736419678,-0.021844852715730667,0.005764116998761892,-0.0037711388431489468,0.01389065757393837
188,-0.0023655779659748077,-0.010274678468704224,-0.0015078200958669186,-0.00220841309055686,-0.0006823774892836809,-0.0004453138681128621,-0.005132080055773258,-0.0004525266122072935,-0.010520897805690765,0.016414761543273926
189,0.006657211109995842,-0.0017998241819441319,-0.008816516026854515,0.002929885173216462,0.0004924188833683729,0.0013404125347733498,-0.01857130415737629,-0.0008956835372373462,0.002491994062438607,0.016674082726240158
190,0.02252655103802681,-0.043744269758462906,-0.009886382147669792,0.014839904382824898,0.0018850034102797508,0.02258325181901455,-0.04449078440666199,0.011341976933181286,-0.018170703202486038,0.0527748242020607
191,0.002122275996953249,-0.0023172395303845406,-0.014220747165381908,-0.004960033111274242,-0.009481451474130154,-0.0025678749661892653,-0.010539091192185879,-0.007470014505088329,-0.011884716339409351,0.009700946509838104
192,-0.013569595292210579,-0.037705037742853165,-0.008279519155621529,-0.00010013813152909279,-0.004227365367114544,-0.006554043851792812,0.005328552331775427,0.0019522930961102247,-0.01945549249649048,0.01718837395310402
193,-0.029611945152282715,0.045316584408283234,0.011691775172948837,-0.021310720592737198,-0.004729771055281162,-0.012404762208461761,0.03410172462463379,-0.008317963220179081,0.013228880241513252,-0.019944215193390846
194,-0.019830085337162018,0.006211381871253252,-0.012364601716399193,-0.017465215176343918,-0.010147259570658207,-0.010122613050043583,-0.009678954258561134,-0.015577564015984535,0.00021875579841434956,-0.01589818298816681
195,-0.006749698892235756,-0.052756521850824356,-0.003149136435240507,-0.009900924749672413,-0.010693168267607689,0.0002719312906265259,0.03841303661465645,-0.0046141971834003925,0.02829362265765667,-0.014175397343933582
196,-0.011842463165521622,0.01111641712486744,0.008138672448694706,-0.012309141457080841,-0.0021592588163912296,-0.008695106953382492,0.015348287299275398,-0.0071504018269479275,0.034644871950149536,-0.021269837394356728
197,-0.008682677522301674,-0.029058704152703285,0.007283176761120558,-0.0030876367818564177,-0.005255571566522121,-0.00011154240928590298,0.01648913323879242,-0.003277198877185583,0.01977871172130108,-0.0070984563790261745
198,0.0017675007693469524,-0.0010467576794326305,0.012069212272763252,0.007488071918487549,-9.095342829823494e-05,0.008870435878634453,-0.001519551151432097,0.00986114889383316,-0.03359541296958923,0.01429454330354929
199,-0.010312828235328197,0.014395727775990963,-0.002856707200407982,-0.010874641127884388,-0.003784911008551717,-0.009601002559065819,-0.006601119879633188,-0.011173621751368046,-0.00024091333034448326,-0.006866629235446453
200,-0.003369737882167101,-0.023138713091611862,0.009000163525342941,0.012526122853159904,-0.0022918598260730505,0.010002771392464638,-0.012172510847449303,0.007252966053783894,-0.0072898282669484615,0.030394550412893295
201,-0.013650541193783283,-0.02926977537572384,-0.000839030253700912,-0.0021866646129637957,-0.007581387646496296,0.0020234810654073954,0.007327404338866472,-0.0006106718792580068,-0.011289265006780624,0.012746736407279968
202,-0.007940417155623436,-0.015068593434989452,-0.006140184588730335,-0.011614827439188957,-0.008299270644783974,-0.0043457867577672005,-0.01514500007033348,-0.0013220715336501598,-0.021020419895648956,0.013816874474287033
203,-0.004277635831385851,-0.04019736498594284,-0.013637068681418896,-0.001587661332450807,-0.005190731026232243,0.0038575250655412674,0.017508884891867638,-0.004158525727689266,0.018594319000840187,0.006081129424273968
204,-0.002069339621812105,-0.0382995568215847,-0.009802952408790588,-0.0052030617371201515,-0.009091987274587154,-0.0005106779281049967,0.016095787286758423,-0.0048883529379963875,0.009600465185940266,0.005062074400484562
205,0.024160342290997505,-0.040311433374881744,-0.011828511022031307,0.00045132427476346493,-0.011475034058094025,0.0002788540441542864,-0.006734971888363361,0.0012726789573207498,-0.021553847938776016,0.023656241595745087
206,-0.00842740572988987,-0.033953554928302765,-0.008618347346782684,-0.0011104363948106766,-0.0058056507259607315,0.003327901242300868,0.010853619314730167,-0.002461076248437166,0.0037631175946444273,0.01103639043867588
207,-0.01578194834291935,0.008045826107263565,-0.012240921147167683,-0.0076508903875947,0.0006334937643259764,-0.007965005934238434,0.0074441805481910706,-0.008511697873473167,0.007350599393248558,-0.01827366091310978
208,0.023483326520507528,-0.004875769744523267,-0.03263541437223662,0.003401206585291288,0.0032858574536454945,-0.002921448626178557,0.0040073417355863065,-0.003912366341627649,-0.05043074145147365,0.0344846366729037
209,-0.03688350319862366,0.026913782581686974,0.008029954507946968,-0.03564940765500069,-0.009481179527938366,-0.03246351331472397,0.02626589871942997,-0.02192557603120804,0.037012774497270584,-0.04671882838010788
210,0.009762946516275406,0.03864464908838272,0.018236661329865456,0.009193731471896172,0.00719099584966898,-0.000996230635792017,-0.03875814005732536,0.003828763961791992,0.021422969177365303,-0.016340332105755806
211,0.014081296510994434,-0.04759734496474266,-0.00034156307810917497,0.010607419535517693,-0.0045893872156739235,0.0017483661649748683,-0.0491112619638443,-0.0005737097235396504,-0.03948541358113289,0.028629688546061516
212,-0.006749698892235756,-0.052756521850824356,-0.003149136435240507,-0.009900924749672413,-0.010693168267607689,0.0002719312906265259,0.03841303661465645,-0.0046141971834003925,0.02829362265765667,-0.014175397343933582
213,0.0343504399061203,-0.03522248938679695,0.0060760024935007095,0.009600343182682991,-0.0056012473069131374,0.011167563498020172,-0.060441650450229645,0.012728286907076836,-0.03881799057126045,0.02566959150135517
214,0.01448437012732029,-0.053620338439941406,-0.0013841917971149087,0.007149563170969486,-0.007735556922852993,0.004811682738363743,-0.042952269315719604,-0.00032325193751603365,-0.027305306866765022,0.03645293414592743
215,-0.004370382055640221,-0.06961926072835922,-0.01873033307492733,0.014283507131040096,-0.004564063623547554,0.0015098941512405872,-0.007663216441869736,0.010548582300543785,-0.04647155851125717,0.03724411502480507
216,-0.0029285158962011337,-0.0023748602252453566,0.006393183954060078,-0.003350775921717286,-0.004525114316493273,0.002663067076355219,-0.0030591541435569525,0.005397331435233355,-0.011408085003495216,-0.0024483560118824244
217,-0.0009148863609880209,-0.0271565280854702,0.022210802882909775,0.005776234436780214,0.0010896525345742702,0.0022717835381627083,-0.009882306680083275,0.001137253362685442,-0.012238522060215473,0.008178629912436008
218,-0.0004437449388206005,-0.06757616251707077,-0.02195683866739273,0.009660042822360992,-0.008784981444478035,0.00037444988265633583,-0.01719655841588974,0.005540772806853056,-0.03517008572816849,0.029968079179525375
219,-0.033768847584724426,0.06273137032985687,0.017193853855133057,-0.02743709646165371,0.0024224279914051294,-0.02202819287776947,0.04205629974603653,-0.012150496244430542,0.05507491156458855,-0.03581426665186882
220,0.015821948647499084,-0.032714102417230606,0.01007739920169115,0.004817141219973564,-0.004958931356668472,0.0027959211729466915,-0.04404869303107262,0.0014896014472469687,-0.020825203508138657,0.020994964987039566
221,-0.004659535363316536,0.0012937434948980808,-0.014276394620537758,-0.0047705089673399925,-0.006001378875225782,-0.0016474726144224405,-0.0003984435461461544,-0.0016636527143418789,-0.022928567603230476,0.005220676772296429
222,-0.03446861356496811,-0.029296930879354477,-0.028478052467107773,-0.019158266484737396,-0.018910104408860207,-0.014733504503965378,0.025560153648257256,-0.02135869674384594,-0.028357751667499542,-0.007345950696617365
223,0.031271882355213165,-0.03752230107784271,-0.011345859616994858,-0.0009726913413032889,-0.016004454344511032,-0.003773218486458063,-0.018672332167625427,-6.121140904724598e-05,-0.03911306709051132,0.03260491043329239
224,-0.005422498099505901,-0.015828832983970642,-0.009158516302704811,-0.002065696520730853,-0.0033125439658761024,-0.000782958697527647,-0.00574602372944355,-0.004063124768435955,0.012165876105427742,-0.0005788161652162671
225,-0.004277635831385851,-0.04019736498594284,-0.013637068681418896,-0.001587661332450807,-0.005190731026232243,0.0038575250655412674,0.017508884891867638,-0.004158525727689266,0.018594319000840187,0.006081129424273968
226,0.015925219282507896,-0.004768148064613342,0.014489740133285522,0.005060469266027212,-0.0039650024846196175,0.00615333765745163,-0.02662748657166958,0.003232909133657813,0.020694803446531296,0.008439731784164906
227,-0.004716247320175171,-0.016494890674948692,-0.010628164745867252,-0.009744987823069096,-0.005980083253234625,-0.006746798753738403,-0.003913929220288992,-0.0018895850516855717,-0.016320904716849327,0.01809230074286461
228,-0.003714275313541293,-0.037335243076086044,-0.016027173027396202,0.0003068597870878875,-0.003936772234737873,0.004674650263041258,0.012745000422000885,-0.004054681397974491,0.016383934766054153,0.010697418823838234
229,-0.005001409444957972,0.0005236372817307711,-0.011716095730662346,-0.008980140089988708,-0.008906886912882328,-0.006824878975749016,-0.012846841476857662,-0.008587993681430817,-0.007751737721264362,0.0017189320642501116
230,-0.0020406856201589108,-0.028639690950512886,0.0007729975623078644,-0.003283589379861951,-0.008078834973275661,-0.0006122995400801301,-0.0017994423396885395,-0.0029508317820727825,0.006360330618917942,-0.001933662104420364
231,-0.00402477290481329,-0.038912683725357056,-0.014709880575537682,-0.0007372950785793364,-0.004627886228263378,0.004224295727908611,0.015370594337582588,-0.004111913964152336,0.01760217733681202,0.008153175003826618
232,0.0215933695435524,-0.04379050061106682,-0.029380453750491142,0.009330358356237411,-0.006419110111892223,0.014131633564829826,-0.014187173917889595,0.020474489778280258,-0.010248998180031776,0.024813702329993248
233,0.007162935566157103,-0.002756112953647971,0.00017651545931585133,-0.00041138369124382734,-0.0032407494727522135,0.0016422352055087686,-0.009671461768448353,0.00011591019574552774,-0.006662894506007433,0.0025294411461800337
234,0.011675952933728695,-0.0380675382912159,9.244843386113644e-05,0.011270628310739994,-0.002340374980121851,0.014005055651068687,-0.01052195206284523,0.007727480959147215,-0.011603450402617455,0.021114228293299675
235,0.009710595943033695,0.04297053441405296,0.016914159059524536,0.0041324542835354805,0.0046679191291332245,-0.004291236866265535,-0.0509541817009449,0.0012912797974422574,0.01482335850596428,-0.019511239603161812
236,0.03508598729968071,-0.0380985401570797,0.015076243318617344,0.018800515681505203,-0.0017975206719711423,0.01856406033039093,-0.02161385491490364,0.016910672187805176,-0.030619826167821884,0.030625024810433388
237,0.0023562246933579445,0.0075031789019703865,-0.003209603251889348,0.0018562566256150603,-0.0015943391481414437,0.0007620558608323336,0.004549176432192326,-0.002388868248090148,0.006969083566218615,0.003176532220095396
238,-0.0011721011251211166,-0.02441990002989769,-0.02681255340576172,0.00885589886456728,0.0017217197455465794,0.0083619374781847,-0.00875201728194952,-0.003586084581911564,0.00640955101698637,0.031528446823358536
239,0.0050478833727538586,-0.010397490113973618,2.810661680996418e-05,-0.0025592055171728134,-0.0076619964092969894,0.0005223521729931235,-0.010339828208088875,-0.002447798615321517,-0.014956926926970482,0.020811498165130615
240,-0.005057463422417641,-0.009950256906449795,-0.01917947642505169,-0.00532916933298111,-0.004953380674123764,-0.009153816848993301,0.010771597735583782,-0.011395391076803207,-0.002406592248007655,-0.007362584583461285
241,-0.009447897784411907,-0.03394050896167755,-0.01146128959953785,-0.002361604478210211,-0.009068298153579235,0.0022837843280285597,0.026082027703523636,1.9017606973648071e-06,0.02109743468463421,-0.0073406388983130455
242,0.001466929800309864,-0.003351246179585744,-0.014383286196320086,0.008537630773664429,-0.0008833479482457432,0.005287808180929537,0.027641701251895242,0.004194730119723827,0.02639208386325346,0.006833399903848935
243,-0.017577098682522774,0.010198816657066345,-0.028670841827988625,-0.014347110874950886,-0.009756622835993767,-0.012769371271133423,-0.009094237349927425,-0.015727100893855095,-0.018324166536331177,-0.017051924020051956
244,-0.0011721011251211166,-0.02441990002989769,-0.02681255340576172,0.00885589886456728,0.0017217197455465794,0.0083619374781847,-0.00875201728194952,-0.003586084581911564,0.00640955101698637,0.031528446823358536
245,0.029455134645104408,-0.02964797243475914,0.0010923128575086594,0.00936178956180811,-0.010400541126728058,0.007612241432070732,-0.046992577612400055,0.004804437980055809,-0.027951085940003395,0.027520813047885895
246,-0.005704829469323158,-0.036322128027677536,-0.012706904672086239,-0.0005109675694257021,-0.004857055377215147,0.004022472072392702,0.01258036307990551,-0.0034190404694527388,0.011526265181601048,0.010248752310872078
247,0.008684643544256687,-0.017391512170433998,0.00012449105270206928,0.0036572208628058434,-0.003948637284338474,0.009958378970623016,0.004761972930282354,0.0054678162559866905,-0.0014759867917746305,0.023204967379570007
248,-0.006236339919269085,-0.02813299372792244,-0.015467779710888863,0.0034528665710240602,-0.0026043602265417576,0.0054390388540923595,0.0004391936818137765,-0.0025357711128890514,0.0012132853735238314,0.021418502554297447
249,-0.0012403191067278385,0.01202329806983471,-0.0008550250204280019,0.0014075112994760275,0.002164036501199007,-0.0015975733986124396,-0.021890511736273766,-0.0033511107321828604,0.013194766826927662,0.0014232841785997152
250,0.025210946798324585,-0.04695199057459831,-0.030515801161527634,0.012706357054412365,-0.001159396255388856,0.012385180220007896,-0.019669778645038605,0.008601078763604164,-0.021296467632055283,0.0362885445356369
251,0.002070252550765872,0.000308204791508615,-0.009425885044038296,-0.00600688299164176,-0.005242772866040468,-0.006757133640348911,-0.010558667592704296,-0.007156050764024258,-0.0050566536374390125,-0.011468258686363697
252,0.010871928185224533,-0.02439546398818493,-0.018687168136239052,0.013466920703649521,-0.008473035879433155,0.010079952888190746,-0.032659418880939484,0.008052057586610317,-0.03983204439282417,0.03265004977583885
253,0.013432950712740421,-0.037961725145578384,-0.018843190744519234,-0.010196296498179436,-0.011142627336084843,-0.009064652025699615,-0.045394524931907654,-0.011128708720207214,-0.0515805259346962,0.02990100160241127
254,-0.00998443178832531,0.013278873637318611,0.0042216177098453045,-0.0075952340848743916,-0.00017404870595782995,-0.005869532469660044,0.008841811679303646,-0.005157078616321087,0.026233240962028503,-0.0056667085736989975
255,0.018315590918064117,-0.0664883628487587,-0.0011846586130559444,0.003249363973736763,-0.014539049006998539,0.000999250914901495,-0.046722229570150375,-0.004051765892654657,-0.025640148669481277,0.02847377583384514
256,-0.0027740919031202793,0.013513859361410141,-0.014951086603105068,-0.0034086385276168585,-0.006092691328376532,0.005388621240854263,0.0028049752581864595,-0.007471203338354826,0.008357568643987179,0.0088668093085289
257,0.030189434066414833,0.023405874148011208,0.001958813052624464,0.009736506268382072,0.011854296550154686,0.012163601815700531,-0.021030675619840622,0.0038866824470460415,0.030195394530892372,0.009489736519753933
258,-0.015181767754256725,0.006034117192029953,-0.01142982579767704,-0.022210391238331795,-0.01007936429232359,-0.019021417945623398,-0.030120808631181717,-0.02117779478430748,-0.006777210161089897,-0.015359028242528439
259,0.01140725240111351,-0.018793830648064613,-0.004273241385817528,0.002723420038819313,-0.005047131329774857,0.0014553047949448228,-0.02523980289697647,0.00025700332480482757,-0.009048674255609512,0.01225257571786642
260,-0.0033239219337701797,-0.035352084785699844,-0.017683282494544983,0.0016195701900869608,-0.0030679069459438324,0.005240836646407843,0.009444121271371841,-0.0039827278815209866,0.01485236082226038,0.013896037824451923
261,0.02282658964395523,-0.03304246440529823,0.003724085632711649,0.011455614119768143,-0.004903747700154781,0.008035087026655674,-0.028738800436258316,0.00617936160415411,-0.03754235804080963,0.020764285698533058
262,-0.007318458519876003,-0.0325053408741951,-0.003069834550842643,-0.0032233435194939375,-0.00535265076905489,-0.0008957722457125783,-0.0047119976952672005,-0.005697357468307018,-0.0006584129296243191,0.0092942388728261
263,-0.01611381024122238,0.02242908626794815,0.007953318767249584,-0.014375370927155018,-0.000549566000699997,-0.010985159315168858,0.017804361879825592,-0.00901602953672409,0.03797281160950661,-0.02049824595451355
264,-0.00514388969168067,-0.07261539250612259,-0.022468602284789085,0.008589781820774078,-0.009243415668606758,-0.0013052402064204216,-0.009371282532811165,0.005091140978038311,-0.03331387788057327,0.02669094130396843
265,-0.003681950271129608,0.006230415776371956,0.0017060850514099002,0.0044164471328258514,-0.00012331228936091065,0.0011982107535004616,-0.02674172632396221,0.000568420859053731,-0.007424135692417622,0.010391578078269958
266,-0.008892989717423916,-0.050821252167224884,-0.007564002647995949,-0.002859788481146097,-0.0076840715482831,-0.004491475410759449,0.01329819019883871,-0.0003159854095429182,-0.01402913499623537,0.008440420031547546
267,-0.0022600842639803886,-0.026726633310317993,-0.028896508738398552,-0.006513161119073629,-0.009758644737303257,-0.0023544831201434135,-0.02428334951400757,0.00024845334701240063,-0.03294873982667923,0.035014234483242035
268,-0.017992112785577774,-0.000680507393553853,-0.014066822826862335,-0.014103028923273087,-0.008433138951659203,-0.011268855072557926,-0.009751935489475727,-0.011598052456974983,0.008758104406297207,-0.011867770925164223
269,-0.025238079950213432,-0.003004935570061207,0.01277093030512333,-0.014889322221279144,-0.004618007689714432,-0.010865269228816032,0.016439514234662056,-0.011910934001207352,0.026218339800834656,-0.018940478563308716
270,-0.0008921215776354074,0.017856620252132416,-0.018373219296336174,-0.014320649206638336,-0.00895253848284483,-0.006104674190282822,0.0041915676556527615,-0.007809807080775499,-0.02376692183315754,-0.011449108831584454
271,0.011451615951955318,-0.04336794465780258,-0.012110229581594467,0.00464966706931591,-0.007849152199923992,0.006073825992643833,-0.008635416626930237,0.006979913450777531,-0.010686200112104416,0.022408604621887207
272,-0.02388323806597366,-0.007179050011626708,-0.01838622181272239,0.02005909972728664,0.006695075337906278,0.015750814447034005,0.017133668249744494,0.020456230191246587,0.02317436525314408,0.006337904816010749
273,0.010897813364863396,-0.03433552011847496,-0.019572090357542038,0.01091066561639309,-3.715296043083072e-05,0.01068333350121975,-0.030491072684526443,0.009873053058981895,-0.00564114935696125,0.01855733059346676
274,-0.0025051578413695097,-0.031192395836114883,-0.02115696482360363,0.004372988361865282,-0.0012454597745090723,0.006428413093090057,0.0025205076672136784,-0.0038318070583045483,0.011639880947768688,0.02060515806078911
275,0.027356496080756187,0.016546595841646194,0.01726311258971691,0.01610543020069599,0.005537101067602634,0.008285813964903355,-0.05530998855829239,0.013258639723062515,-0.010452758520841599,0.005128941498696804
276,-0.004277635831385851,-0.04019736498594284,-0.013637068681418896,-0.001587661332450807,-0.005190731026232243,0.0038575250655412674,0.017508884891867638,-0.004158525727689266,0.018594319000840187,0.006081129424273968
277,0.01884767785668373,-0.048874497413635254,-0.01659506931900978,0.010133574716746807,-0.0028502526693046093,0.00985732302069664,-0.018810326233506203,0.0032425476238131523,-0.011137431487441063,0.03060104139149189
278,0.0021294672042131424,-0.04553011432290077,0.004623029381036758,0.003949054051190615,-0.009190523996949196,0.0068961093202233315,-0.029220696538686752,0.0027632415294647217,-0.027433214709162712,0.027684520930051804
279,-0.006713113747537136,-0.016163267195224762,-0.0031627360731363297,-0.007015329785645008,-0.005545300897210836,-0.0020844480022788048,0.01432206854224205,-0.01573006995022297,0.02880745381116867,-0.010700177401304245
280,-0.0010790920350700617,-0.01248160284012556,-0.0034338657278567553,-0.0010921250795945525,-0.005828654393553734,-0.0011506291339173913,-0.027600854635238647,-0.004182920791208744,-0.005819534882903099,0.0006612871075049043
281,0.018144171684980392,-0.0044152578338980675,0.003106192220002413,0.00873210746794939,-0.0016499119810760021,0.008732480928301811,-0.03407741338014603,0.006861728150397539,0.007845341227948666,0.017757752910256386
282,-0.0031192810274660587,0.009626264683902264,-0.020639432594180107,-0.00918657798320055,-0.004519566427916288,-0.002566389739513397,0.00970232393592596,-0.006016231141984463,-0.01318370271474123,-0.0064522200264036655
283,0.003908095881342888,0.008104121312499046,0.001512623974122107,0.0030138101428747177,0.001224206993356347,-4.790065577253699e-05,-0.024067025631666183,-0.0010565182892605662,0.014836270362138748,-0.004639515187591314
284,-0.0011721011251211166,-0.02441990002989769,-0.02681255340576172,0.00885589886456728,0.0017217197455465794,0.0083619374781847,-0.00875201728194952,-0.003586084581911564,0.00640955101698637,0.031528446823358536
285,-0.0028183525428175926,-0.03278357535600662,-0.0198281928896904,0.003319734940305352,-0.0019425926730036736,0.0059741344302892685,0.0051689655520021915,-0.003889538114890456,0.012868735939264297,0.01803874969482422
286,-0.006749699357897043,-0.052756525576114655,-0.0031491385307163,-0.009900925680994987,-0.010693169198930264,0.00027193035930395126,0.03841303288936615,-0.00461419764906168,0.02829361893236637,-0.014175397343933582
287,-0.021081402897834778,0.037941765040159225,0.0036870292387902737,-0.01925799623131752,-0.0017436048947274685,-0.014329787343740463,0.026227498427033424,-0.009323541074991226,0.021463913843035698,-0.01880674809217453
288,-0.006062697619199753,-0.0492662638425827,-0.006063796114176512,-0.007590620778501034,-0.009164008311927319,0.0012683877721428871,0.03260365128517151,-0.004487562924623489,0.025598129257559776,-0.008545992895960808
289,-0.020409679040312767,-0.007993629202246666,0.0037006800994277,-0.012118060141801834,-0.005398719571530819,-0.008801287971436977,0.006845313124358654,-0.011490747332572937,0.019866589456796646,-0.02080675959587097
290,-0.0014238744042813778,0.012228061445057392,0.006507436744868755,-0.008674465119838715,-0.008019656874239445,-0.009822274558246136,-0.014006001874804497,-0.01086634024977684,-0.020542174577713013,0.0002641887404024601
291,0.00641089491546154,0.032065361738204956,0.011271532624959946,0.004597645718604326,0.0036254161968827248,-0.0024220827035605907,-0.04412483796477318,0.0008949236362241209,0.009583169594407082,-0.010251171886920929
292,-0.00837620347738266,0.0005499585531651974,-0.0030267860274761915,-0.0014852629974484444,-0.003046821802854538,-0.0050656758248806,0.0022793756797909737,0.002560849767178297,-0.03074379451572895,0.0025985133834183216
293,0.006692308001220226,-0.009471273049712181,-0.0019246654119342566,0.0034754322841763496,-0.004756399430334568,0.003859040094539523,-0.013513496145606041,-0.0021049310453236103,-0.02064528502523899,0.01834109053015709
294,0.018778221681714058,-0.05025826394557953,-0.005658715032041073,0.01207423210144043,-0.0007367753423750401,0.009358633309602737,-0.042426589876413345,0.0019572130404412746,-0.019803820177912712,0.04413854703307152
295,-0.003796704113483429,-0.002612336538732052,-0.014554777182638645,-0.007571730762720108,-0.00630620401352644,-0.0063816579058766365,-0.010129760950803757,-0.005512346513569355,-0.007430112920701504,-0.005031548906117678
296,0.01267310045659542,-0.024868840351700783,-0.003745477646589279,0.0004583523841574788,-0.0067037115804851055,0.002565947361290455,-0.026615381240844727,-0.0030178199522197247,-0.02248414419591427,0.018953511491417885
297,0.009785816073417664,-0.026044921949505806,-0.005530762020498514,-0.00904977135360241,-0.008604392409324646,-0.006654025986790657,-0.034897398203611374,-0.008655430749058723,-0.044618234038352966,0.03187818452715874
298,0.06321492741902492,-0.017037109114071768,-0.02763157922993523,-0.004499960506721205,-0.008478756845431177,0.002684106788922706,0.010642646931381559,-0.003894241996738296,-0.019564534461255723,-0.0039909652560451364
299,-0.03688350319862366,0.026913782581686974,0.008029954507946968,-0.03564940765500069,-0.009481179527938366,-0.03246351331472397,0.02626589871942997,-0.02192557603120804,0.037012774497270584,-0.04671882838010788
300,-0.008192542940378189,-0.029567275196313858,-0.011085552163422108,0.001365796197205782,-0.004275428131222725,0.004309989511966705,0.003989554941654205,-0.002130058128386736,-0.0007939197821542621,0.017513256520032883
301,-0.001262512756511569,-0.029696738347411156,-0.021951433271169662,-0.003948147874325514,-0.005956368520855904,0.000556308776140213,-0.021322067826986313,0.0011504644062370062,-0.026688124984502792,0.0314040444791317
302,-0.0011721011251211166,-0.02441990002989769,-0.02681255340576172,0.00885589886456728,0.0017217197455465794,0.0083619374781847,-0.00875201728194952,-0.003586084581911564,0.00640955101698637,0.031528446823358536
303,0.002902786247432232,-0.008425013162195683,-0.006119444966316223,0.0010046279057860374,-0.0030460101552307606,0.0016064494848251343,-0.009335791692137718,-0.0001672043581493199,0.0012883298331871629,-0.00028485432267189026
304,-0.0011721011251211166,-0.02441990002989769,-0.02681255340576172,0.00885589886456728,0.0017217197455465794,0.0083619374781847,-0.00875201728194952,-0.003586084581911564,0.00640955101698637,0.031528446823358536
305,-0.002207808196544647,-0.027791671454906464,-0.006831635721027851,0.001619100570678711,-0.0040473658591508865,-0.002819353947415948,-0.000250714598223567,-0.0018723397515714169,-0.014970272779464722,0.02276475355029106
306,0.010958481580018997,0.01757507026195526,0.015659430995583534,0.008495327085256577,0.004792870953679085,0.004514709580689669,-0.041995011270046234,0.0064009325578808784,-0.0059695979580283165,0.002100459299981594
307,-0.00998443178832531,0.013278873637318611,0.0042216177098453045,-0.0075952340848743916,-0.00017404870595782995,-0.005869532469660044,0.008841811679303646,-0.005157078616321087,0.026233240962028503,-0.0056667085736989975
308,0.005452144891023636,-0.050403811037540436,-0.03788890317082405,-0.008691281080245972,-0.015158302150666714,-0.01216580905020237,0.017281971871852875,-0.019563255831599236,0.00020204295287840068,-0.01612851954996586
309,-0.01913396455347538,0.005017055198550224,-0.0238973256200552,-0.014592781662940979,-0.011146115139126778,-0.013473445549607277,-0.004141371697187424,-0.013438304886221886,-0.0018251317087560892,-0.020001500844955444
310,-0.002137733157724142,-0.029325729236006737,-0.022715779021382332,0.0056085893884301186,-0.0004276328254491091,0.006961340084671974,-0.0005864759441465139,-0.0037640812806785107,0.010198275558650494,0.02361588180065155
311,0.021618980914354324,-0.021544121205806732,-0.009285662323236465,0.012286142446100712,0.0022519887425005436,0.010387808084487915,-0.016074474900960922,0.004931211471557617,0.005203066859394312,0.02354750782251358
312,-0.0242423377931118,-0.003375992178916931,0.0012450705980882049,-0.011167650111019611,-0.0026271739043295383,-0.006355779245495796,0.027409665286540985,-0.0033287261612713337,0.029530895873904228,-0.010726284235715866
313,-0.013313980773091316,0.022382963448762894,-0.004470828454941511,-0.01099633239209652,-0.007940995506942272,-0.013517333194613457,0.00044518650975078344,-0.012226486578583717,0.00804188847541809,-0.028343146666884422
314,0.03684592619538307,-0.06443137675523758,-0.00543571962043643,0.012454457581043243,-0.010213111527264118,0.008549045771360397,-0.050070181488990784,0.00546142878010869,-0.04541720077395439,0.04266280680894852
315,-0.019351117312908173,0.00413031131029129,-0.012133505195379257,-0.016265107318758965,0.0011102537391707301,-0.00944610871374607,0.012443941086530685,-0.006303658243268728,-0.015808619558811188,-0.0018363967537879944
316,-0.0011721011251211166,-0.02441990002989769,-0.02681255340576172,0.00885589886456728,0.0017217197455465794,0.0083619374781847,-0.00875201728194952,-0.003586084581911564,0.00640955101698637,0.031528446823358536
317,-0.0013259223196655512,-0.004302341490983963,0.003308075712993741,-0.0001611296902410686,-0.0023029481526464224,-0.0003033799584954977,-0.011405974626541138,-0.0010019802721217275,0.009790231473743916,-0.004417378455400467
318,0.034035664051771164,0.013006901368498802,0.0654398500919342,-0.0002753506414592266,0.004672010894864798,0.005202610976994038,0.01373230293393135,0.008587515912950039,-0.025071319192647934,0.04282033070921898
319,0.014744707383215427,-0.047221407294273376,-0.018593331798911095,0.0070054251700639725,-0.002837731270119548,0.009820275940001011,0.0030557196587324142,0.003711179131641984,0.0008114667143672705,0.018830517306923866
320,-0.01179878693073988,0.01898336596786976,-0.012839257717132568,-0.007247082889080048,-0.0050293318927288055,-0.0036117667332291603,0.006384504027664661,-0.0057875001803040504,-0.02239248901605606,0.0016604820266366005
321,-0.024000056087970734,-0.013621432706713676,-0.01750909350812435,-0.015230954624712467,-0.011369634419679642,-0.01231108047068119,0.00252203899435699,-0.012494923546910286,-0.00570295937359333,-0.026698896661400795
322,-0.0011721011251211166,-0.02441990002989769,-0.02681255340576172,0.00885589886456728,0.0017217197455465794,0.0083619374781847,-0.00875201728194952,-0.003586084581911564,0.00640955101698637,0.031528446823358536
323,-0.00902863871306181,-0.014798533171415329,0.005802495405077934,-0.0026649220380932093,-0.005557853728532791,-0.00015312296454794705,-0.0042986697517335415,-0.0029491116292774677,-0.010726412758231163,-0.0009208739502355456
324,-0.031850183685502714,0.028411764731068625,0.011250466003475287,-0.003821624232258035,0.001011733400481674,-0.0057488279843758705,-0.011999365540112142,-0.014717841803829151,0.015123837413061026,0.02040089829634869
325,0.014033332467079163,-0.032791540026664734,-0.006293206475675106,0.0030263783410191536,-0.009971624240279198,0.0031880687456578016,-0.006923845503479242,0.002315952442586422,-0.021784214302897453,0.017421068623661995
326,-0.0016767126508057117,-0.011038275435566902,-0.006241723895072937,-0.006467161234468222,-0.003949053585529327,-0.0007742650341242552,0.00627512764185667,0.0009977143490687013,0.007805956061929464,-0.00420767767354846
327,-0.0011721011251211166,-0.02441990002989769,-0.02681255340576172,0.00885589886456728,0.0017217197455465794,0.0083619374781847,-0.00875201728194952,-0.003586084581911564,0.00640955101698637,0.031528446823358536
328,-0.001172100193798542,-0.02441989630460739,-0.02681255340576172,0.008855899795889854,0.001721719279885292,0.0083619374781847,-0.008752014487981796,-0.003586084581911564,0.006409552879631519,0.031528446823358536
329,-0.0011721011251211166,-0.02441990002989769,-0.02681255340576172,0.00885589886456728,0.0017217197455465794,0.0083619374781847,-0.00875201728194952,-0.003586084581911564,0.00640955101698637,0.031528446823358536
330,0.023200498893857002,-0.022502701729536057,-0.0008489412721246481,0.0069545782171189785,-0.005322324112057686,0.010459521785378456,-0.03443865478038788,0.005105400457978249,-0.027805902063846588,0.039676230400800705
331,-0.004709488712251186,-0.003918598871678114,-0.02319462224841118,0.00465777050703764,0.003252883907407522,0.0055962917394936085,0.00626106932759285,0.001308381324633956,0.0021255777683109045,0.01737481728196144
332,-0.006512779742479324,-0.04139263927936554,-0.008834254927933216,-0.0037380836438387632,-0.006960141938179731,0.00265657645650208,0.02088792249560356,-0.0036549936048686504,0.015795905143022537,0.002251366153359413
333,-0.002986811799928546,-0.02455798350274563,-0.015533552505075932,0.0021113818511366844,-0.005537434946745634,0.00760234147310257,0.00020637852139770985,0.006065628491342068,-0.02032858319580555,0.03700004890561104
334,-0.002295614220201969,0.015920374542474747,-0.030312109738588333,0.001166809699498117,-0.013692229054868221,0.008261250331997871,-0.049037665128707886,-0.0035414700396358967,-0.033098265528678894,0.03391534835100174
335,-0.004207736812531948,-0.030013782903552055,-0.018460769206285477,0.003838289761915803,-0.0019341448787599802,0.005933270789682865,0.001902950694784522,-0.0032600034028291702,0.007129666395485401,0.020666303113102913
336,-0.005585824139416218,0.010619129054248333,-0.017177598550915718,-0.007440770044922829,-0.0020867285784333944,-0.009209762327373028,-0.038193777203559875,-0.009278174489736557,0.012864477932453156,0.00879970844835043
337,0.01624186709523201,-0.041844528168439865,-0.008602524176239967,8.568493649363518e-05,-0.013718919828534126,-0.0009903224417939782,-0.024583429098129272,-0.002023050794377923,-0.020886538550257683,0.02865108661353588
338,-0.018905574455857277,0.011675365269184113,0.007738933898508549,-0.017234984785318375,-0.0034896214492619038,-0.011739831417798996,0.026934174820780754,-0.01014690101146698,0.036930233240127563,-0.020350955426692963
339,-0.008635345846414566,-0.04633880406618118,-0.0025179043877869844,-0.007793015334755182,-0.009842880070209503,0.0007505381945520639,0.029918931424617767,-0.003520240541547537,0.01747766323387623,-0.006818966008722782
340,0.0054591624066233635,-0.0181944090873003,-0.0252399742603302,0.004375667776912451,-0.0060828980058431625,0.006497176364064217,-0.007276060990989208,0.0032455865293741226,-0.03709032014012337,0.020425109192728996
341,0.00742321414873004,0.008101481013000011,0.014327136799693108,-0.0002608979120850563,0.0014879133086651564,-0.00039289926644414663,-0.016162820160388947,-0.0010054116137325764,0.02524886094033718,-0.008409732952713966
342,-0.00872053299099207,0.006730112247169018,-0.002477981150150299,-0.01694444566965103,-0.0071459682658314705,-0.01152290403842926,-0.003795933211222291,-0.011710367165505886,-0.018684402108192444,0.009067229926586151
343,-0.00998443178832531,0.013278873637318611,0.0042216177098453045,-0.0075952340848743916,-0.00017404870595782995,-0.005869532469660044,0.008841811679303646,-0.005157078616321087,0.026233240962028503,-0.0056667085736989975
344,-0.009259341284632683,-0.008447578176856041,-0.01085736509412527,-0.004257666878402233,-0.007482531014829874,-0.004658275283873081,-0.006687114015221596,-0.010883798822760582,-0.013697030954062939,0.008116159588098526
345,0.0028949729166924953,-0.016426000744104385,-0.0013949613785371184,0.005227189045399427,-0.0005470653413794935,0.00620829313993454,0.0005315406597219408,0.001630835933610797,0.0018426362657919526,0.023922748863697052
346,-0.011429546400904655,-0.017493346706032753,-0.010014986619353294,0.0003000835422426462,-0.008318924345076084,0.0014648850774392486,-0.01940571516752243,-0.006154581904411316,0.013260050676763058,0.011662788689136505
347,-0.014934866689145565,-0.022479459643363953,-0.007549959234893322,-0.006741855293512344,-0.0066566476598382,-0.0032318613957613707,-0.015711115673184395,-0.004382843151688576,-0.015664374455809593,0.011808803305029869
348,-0.005063436925411224,-0.007184004411101341,0.004933670628815889,-0.0008189207874238491,-0.00374965718947351,-0.00028634327463805676,-0.009280967526137829,-0.00036663387436419725,0.0014860068913549185,-0.0008444571867585182
349,0.01383929792791605,-0.06114191934466362,-0.00425233319401741,0.007981162518262863,-0.0038003516383469105,0.010605422779917717,0.0029206199105829,0.004655242897570133,0.000778992660343647,0.01763555221259594
350,-0.015760544687509537,-0.04353884607553482,0.001131277997046709,-0.003018608782440424,-0.017279475927352905,-0.005644310265779495,-0.041523527354002,-0.0049911257810890675,-0.030417123809456825,0.023947082459926605
351,-0.0022211773321032524,0.0026963925920426846,0.00988764502108097,-0.00520081352442503,-8.279737085103989e-05,-0.002373629016801715,-0.004525631666183472,-0.0009504469344392419,-0.002617759397253394,0.014338691718876362
352,-0.0038894126191735268,-0.010335894301533699,-0.0062723178416490555,-0.0032615684904158115,-0.004188922233879566,-0.0021892241202294827,-0.028878940269351006,-0.008931289426982403,-0.009566370397806168,0.016978323459625244
353,0.024299025535583496,-0.02291901223361492,0.025600329041481018,0.009529444389045238,0.009487058967351913,0.01265470590442419,-0.011131078004837036,0.013469170778989792,-0.023851076140999794,0.0381980799138546
354,0.0032189353369176388,0.002771337516605854,-0.009169352240860462,0.006950045935809612,0.0029104752466082573,0.003256535157561302,-0.025780079886317253,-0.001618127804249525,0.009804417379200459,0.010934550315141678
355,0.010038601234555244,-0.011157497763633728,-0.012420566752552986,0.001796568976715207,-0.0057054683566093445,0.007193100638687611,-0.003912501037120819,0.0061822934076189995,-0.026923151686787605,0.019683266058564186
356,-0.0018285808619111776,-0.025042887777090073,-0.0038795857690274715,-0.0026125567965209484,-0.0045081088319420815,0.0010362425819039345,0.00796574167907238,-0.003063562558963895,0.020440680906176567,-0.00527570303529501
357,0.0030793258920311928,-0.013129765167832375,-0.005753010511398315,-0.0011658237781375647,-0.005144365131855011,-0.0005554634844884276,-0.01877051405608654,0.0018220271449536085,-0.01717653125524521,0.01585853472352028
358,0.00023248876095749438,-0.029151655733585358,0.04689363017678261,0.012662528082728386,-0.004944613203406334,4.7002220526337624e-05,-0.013059251941740513,0.0019202495459467173,-0.030978046357631683,0.01671675406396389
359,-0.0029760654519003457,0.01862936956398813,0.011315220445526467,0.008366034628533098,0.010761614680543605,0.009850752363434332,0.02498680332558343,-0.0054974053045369585,-0.0009487453694030056,0.02275660875357182
360,0.008828245103359222,-0.028416115790605545,-0.010843868367373943,0.0016122672241181135,-0.0021022153086960316,0.004566599614918232,0.0072479089722037315,0.0022024111822247505,0.004589286632835865,0.011126932688057423
361,0.006710841320455074,-0.010956994257867336,-0.0011462564580142498,-0.010197268798947334,-0.0070862360298633575,-0.009319836273789406,-0.019545767456293106,-0.007393826264888048,-0.028901629149913788,0.015921860933303833
362,-0.01515887025743723,-0.00852269772440195,-0.006898009218275547,-0.010627678595483303,-0.0057006035931408405,-0.008873271755874157,0.013232101686298847,-0.008191544562578201,0.010226155631244183,-0.014460762962698936
363,-0.04252963300892817,0.008796894376947396,0.03880359892275352,0.002128179521664569,0.009080545962535214,-0.0027030501527297215,-0.0392348745909634,0.0047772997169560506,0.0032563737932504028,-0.022298447903465163
364,-0.0011721011251211166,-0.02441990002989769,-0.02681255340576172,0.00885589886456728,0.0017217197455465794,0.0083619374781847,-0.00875201728194952,-0.003586084581911564,0.00640955101698637,0.031528446823358536
365,-0.001172100193798542,-0.02441989630460739,-0.02681255340576172,0.008855899795889854,0.001721719279885292,0.0083619374781847,-0.008752014487981796,-0.003586084581911564,0.006409552879631519,0.031528446823358536
366,-0.012501095421612263,-0.0011361103970557451,-0.014800570905208588,-0.01289031095802784,-0.009593771770596504,-0.012126813642680645,-0.004414122086018324,-0.011201061308383942,-0.010489954613149166,-0.0067654866725206375
367,-0.011817924678325653,-0.025365374982357025,-0.004067571368068457,0.005342320539057255,0.0010784496553242207,0.012061048299074173,0.005666617304086685,0.005832056049257517,0.006755388341844082,0.014405675232410431
368,0.0013890196569263935,-0.016748055815696716,-0.01933027245104313,-0.005858904682099819,-0.011153645813465118,-0.006953821051865816,-0.01605289801955223,-0.006292260251939297,-0.009362613782286644,0.0005315104499459267
369,-0.022197643294930458,-0.030817531049251556,0.0013114989269524813,-0.013614257797598839,-0.0063596367835998535,-0.008052268996834755,0.004739532712846994,-0.007204975001513958,-0.03284990414977074,-0.0026214683894068003
370,0.016918599605560303,-0.03739049285650253,-0.0040426673367619514,0.004596044309437275,-0.00702465558424592,0.006353406701236963,-0.029610592871904373,0.00515039823949337,-0.041226278990507126,0.028275463730096817
371,-0.00998443178832531,0.013278873637318611,0.0042216177098453045,-0.0075952340848743916,-0.00017404870595782995,-0.005869532469660044,0.008841811679303646,-0.005157078616321087,0.026233240962028503,-0.0056667085736989975
372,0.002736334688961506,-0.009917245246469975,-0.012452983297407627,-1.0219941032119095e-05,-0.005671058781445026,0.0006429343484342098,-0.005335608962923288,-0.0008356739999726415,-0.008993389084935188,0.004634106997400522
373,-0.002088133944198489,-0.02591066062450409,0.0005709623219445348,-0.005024921149015427,-0.005878570955246687,-0.00039975775871425867,0.012016882188618183,-0.0030044247396290302,0.023363400250673294,-0.012626603245735168
374,-0.001172100193798542,-0.02441989630460739,-0.02681255340576172,0.008855899795889854,0.001721719279885292,0.0083619374781847,-0.008752014487981796,-0.003586084581911564,0.006409552879631519,0.031528446823358536
375,-0.006447736173868179,-0.03827289864420891,-0.010394999757409096,-0.0020461874082684517,-0.005935309454798698,0.003311238484457135,0.016076717525720596,-0.0033916605170816183,0.012364892289042473,0.006761027034372091
376,-0.018263760954141617,0.0037367064505815506,-0.028561795130372047,-0.00867585651576519,-0.007456323131918907,-0.01164446771144867,-0.0032393853180110455,-0.014373771846294403,0.01478792168200016,-0.015755293890833855
377,0.004797607660293579,-0.013328027911484241,-0.02652493491768837,-0.0057902527041733265,-0.011853694915771484,0.003186891321092844,0.008441033773124218,-0.009679164737462997,-0.0008592422818765044,0.012128738686442375
378,-0.001031343126669526,0.009179993532598019,-0.0014626063639298081,-0.004213082604110241,-0.0029022458475083113,-0.004692901857197285,-0.003658902831375599,-0.0013142424868419766,-0.00489587988704443,-0.005380808375775814
379,-0.006488438695669174,-0.009575185365974903,-0.0024625007063150406,-0.007384477183222771,-0.007383179850876331,-0.0031292084604501724,0.015356767922639847,-0.0021139713935554028,0.008892809972167015,0.003189027076587081
380,-0.009248269721865654,0.011699425056576729,-0.012109143659472466,-0.020608456805348396,-0.010784276761114597,-0.01366838626563549,0.012471284717321396,-0.01828065514564514,0.023768236860632896,-0.021244963631033897
381,0.0014949426986277103,-0.00452843215316534,-0.017547568306326866,-0.014696125872433186,-0.01254474651068449,-0.009138419292867184,-0.01730278879404068,-0.014005709439516068,-0.0123590724542737,-0.0070792692713439465
382,0.026365209370851517,-0.05957064777612686,-0.024592647328972816,0.013429572805762291,-0.003922608681023121,0.01196146011352539,-0.02845948375761509,0.002786078490316868,-0.02691751718521118,0.041963618248701096
383,0.00605164747685194,-0.0008233995176851749,-0.005970528349280357,-0.0018578411545604467,-0.006384310312569141,0.0014932164922356606,-0.011179021559655666,-0.0015458515845239162,-0.03328001871705055,0.027470653876662254
384,0.0014635010156780481,-0.014913295395672321,-0.008340477012097836,0.0009565160726197064,-0.00560398492962122,0.0006414437666535378,-0.014092188328504562,-0.0005418519722297788,-0.012257415801286697,0.007956895977258682
385,-0.006749698892235756,-0.052756521850824356,-0.003149136435240507,-0.009900924749672413,-0.010693168267607689,0.0002719312906265259,0.03841303661465645,-0.0046141971834003925,0.02829362265765667,-0.014175397343933582
386,-0.005879150237888098,-0.007278829347342253,0.0006634960882365704,0.0015079858712852001,-0.002745857462286949,0.001240515150129795,-0.012766310945153236,-0.0002615259145386517,-0.003910825587809086,0.007919282652437687
387,0.02967052534222603,-0.06665431708097458,-0.009614183567464352,0.0012358017265796661,-0.006018456071615219,0.007085780613124371,-0.03050658106803894,0.010358110070228577,-0.05941910669207573,0.046831753104925156
388,0.0058459029532969,-0.014566734433174133,-0.021740132942795753,0.0023034559562802315,-0.009510934352874756,0.005326089449226856,-0.00768635980784893,0.006266317795962095,-0.057384129613637924,0.016861988231539726
389,0.01341300643980503,-0.031024841591715813,0.007129640318453312,0.008143885992467403,0.0036086291074752808,0.012678626924753189,0.018832460045814514,0.01014036312699318,0.015331260859966278,0.0266454815864563
390,-0.010639935731887817,-0.008468503132462502,-0.011385176330804825,-0.004236077889800072,-0.0006113387644290924,-0.0011260600294917822,0.012931536883115768,-0.00705894036218524,0.023750241845846176,0.006245401222258806
391,0.0280033890157938,-0.04949457198381424,-0.009988165460526943,0.010458817705512047,-0.007250083610415459,0.011042098514735699,-0.02612421102821827,0.001367014367133379,-0.026270143687725067,0.02726597711443901
392,0.007686934899538755,-0.04800722748041153,-0.004233020357787609,-0.0013230062322691083,-0.011852482333779335,0.0035515986382961273,-0.009217366576194763,-0.0040626125410199165,-0.004885378293693066,0.025073571130633354
393,-0.003356423694640398,-0.026277679949998856,-0.003840916557237506,-0.0037719886749982834,-0.00890076719224453,-0.0016871376428753138,-0.01551850326359272,-0.0004996187053620815,-0.0036238902248442173,0.010068617761135101
394,0.0007858492899686098,-0.017515400424599648,-0.015347089618444443,-0.005241975653916597,-0.0037827666383236647,-0.003993398509919643,0.002724000485613942,-0.005093270447105169,-0.005749233067035675,0.007843277417123318
395,-0.006575452163815498,-0.030485142022371292,-0.0024654166772961617,-0.011244501918554306,-0.011556878685951233,-0.0039617689326405525,0.018471552059054375,-0.008881724439561367,0.01677894778549671,-0.008716589771211147
396,-0.05746401473879814,0.012603556737303734,-0.043473269790410995,-0.047442369163036346,-0.02447856031358242,-0.025055859237909317,0.0017479867674410343,-0.030532192438840866,0.010378699749708176,-0.0158841609954834
397,-0.0010238150134682655,-0.012572668492794037,-0.006751882843673229,-0.0021009151823818684,-0.0032865486573427916,-0.0007711872458457947,0.0021474682725965977,-0.0033440582919865847,0.004399762023240328,-0.005061600357294083
398,-0.00998443178832531,0.013278873637318611,0.0042216177098453045,-0.0075952340848743916,-0.00017404870595782995,-0.005869532469660044,0.008841811679303646,-0.005157078616321087,0.026233240962028503,-0.0056667085736989975
399,0.004529395140707493,-0.04242223501205444,0.0039365459233522415,0.004741385579109192,-0.0029187574982643127,0.01071230135858059,-0.008279970847070217,0.0062276143580675125,-0.015451556071639061,0.01881292276084423
400,0.011292225681245327,-0.029933299869298935,-0.0012430709321051836,0.003775860881432891,-0.0011242164764553308,0.0030982824973762035,-0.024921132251620293,0.0006068753427825868,-0.017707837745547295,0.0015246010152623057
401,-0.0028183525428175926,-0.03278357535600662,-0.0198281928896904,0.003319734940305352,-0.0019425926730036736,0.0059741344302892685,0.0051689655520021915,-0.003889538114890456,0.012868735939264297,0.01803874969482422
402,-0.011087019927799702,-0.0379946269094944,-0.001697189174592495,-0.005052356980741024,-0.008737350814044476,0.001372814062051475,0.018875088542699814,-0.002097899094223976,0.003414975944906473,0.002745706122368574
403,0.01195844542235136,-0.04354998469352722,-0.009693589992821217,0.005941710434854031,-0.009397814981639385,0.0009716696222312748,-0.035065654665231705,0.0009508802322670817,-0.02175549976527691,0.017007026821374893
404,0.021548140794038773,-0.037390999495983124,-0.007038900163024664,0.005790636874735355,-0.0071064261719584465,0.007404868490993977,-0.013744354248046875,0.006452479399740696,-0.025338780134916306,0.024171214550733566
405,-0.016599508002400398,-0.006202982738614082,-0.014303561300039291,-0.007377671077847481,-0.008146854117512703,-0.006542459595948458,-0.009971993044018745,-0.009709862992167473,-0.0044022914953529835,-0.019370567053556442
406,-0.0028183525428175926,-0.03278357908129692,-0.0198281928896904,0.003319734940305352,-0.0019425931386649609,0.0059741344302892685,0.0051689655520021915,-0.003889538114890456,0.012868736870586872,0.01803874969482422
407,-0.004552770406007767,-0.028397569432854652,-0.020929759368300438,-0.010622910223901272,-0.015515156090259552,-0.011486648581922054,-0.010134409181773663,-0.016342200338840485,-0.01575244776904583,-0.011145360767841339
408,-0.01316667441278696,-0.0032913433387875557,-0.005679616704583168,-0.0037760455161333084,-0.006136130541563034,-0.001915722736157477,-0.002368538873270154,-0.005016698502004147,0.0032491153106093407,-0.003453697543591261
409,0.0030719260685145855,-0.014335828833281994,0.001824184088036418,0.009238865226507187,-0.002329961396753788,0.008122889325022697,-0.010823382064700127,0.0027822470292448997,-0.021580232307314873,0.014350688084959984
410,-0.0030265110544860363,-0.020843416452407837,-0.0006181193748489022,-0.002666480839252472,-0.004696020390838385,0.00042178307194262743,0.004469610750675201,-0.002303146757185459,0.015412627719342709,-0.005238679237663746
411,-0.0004953050520271063,-0.04953046515583992,-0.014211166650056839,-0.003311125561594963,-0.007259021513164043,-0.002756195142865181,0.023541519418358803,-0.0049998341128230095,-0.011990576982498169,0.020296785980463028
412,0.02248304896056652,-0.050026506185531616,-0.02110927365720272,0.012709305621683598,-0.0010452084243297577,0.013566633686423302,-0.018688026815652847,0.004877655766904354,-0.008545128628611565,0.03447158634662628
413,0.0032189353369176388,0.002771337516605854,-0.009169353172183037,0.006950045470148325,0.0029104752466082573,0.003256535157561302,-0.025780079886317253,-0.001618127804249525,0.009804417379200459,0.010934552177786827
414,0.04002448543906212,-0.04538898169994354,0.018118705600500107,0.017989933490753174,0.0120567437261343,0.02605893835425377,-0.0066733211278915405,0.024129750207066536,-0.009885293431580067,0.058444008231163025
415,-0.0011721011251211166,-0.02441990002989769,-0.02681255340576172,0.00885589886456728,0.0017217197455465794,0.0083619374781847,-0.00875201728194952,-0.003586084581911564,0.00640955101698637,0.031528446823358536
416,0.007153322920203209,-0.059892021119594574,-0.030776165425777435,0.01434345543384552,-0.013386907055974007,0.006176160182803869,-0.04474775120615959,0.007685973308980465,-0.0648769959807396,0.026901433244347572
417,-0.0011721011251211166,-0.02441990002989769,-0.02681255340576172,0.00885589886456728,0.0017217197455465794,0.0083619374781847,-0.00875201728194952,-0.003586084581911564,0.00640955101698637,0.031528446823358536
418,-0.0011721011251211166,-0.02441990002989769,-0.02681255340576172,0.00885589886456728,0.0017217197455465794,0.0083619374781847,-0.00875201728194952,-0.003586084581911564,0.00640955101698637,0.031528446823358536
419,0.003370397724211216,0.005524942185729742,0.004927076864987612,0.0006847148761153221,-0.0002408372238278389,-0.0011862844694405794,-0.018892114982008934,-0.0011194346006959677,0.017590275034308434,-0.010813017375767231
420,-0.004487561993300915,-0.04126386344432831,-0.01274645421653986,-0.0022936025634407997,-0.005657984875142574,0.003553043119609356,0.019284013658761978,-0.004197218921035528,0.019417965784668922,0.004360993392765522
421,-0.0011721011251211166,-0.02441990002989769,-0.02681255340576172,0.00885589886456728,0.0017217197455465794,0.0083619374781847,-0.00875201728194952,-0.003586084581911564,0.00640955101698637,0.031528446823358536
422,-0.008287620730698109,-0.047522276639938354,-0.0026343062054365873,-0.008181728422641754,-0.009999677538871765,0.0006622790824621916,0.03148530051112175,-0.0037219724617898464,0.019472187384963036,-0.00817553885281086
423,-0.010341503657400608,-0.02027812786400318,-0.0112760029733181,0.004811285529285669,-0.002683189930394292,0.0052522229962050915,-0.008708253502845764,-0.000705349026247859,-0.015369228087365627,0.028713060542941093
424,0.006369478534907103,0.007438609376549721,-0.003185523673892021,0.004752900917083025,9.461457375437021e-05,0.004011897835880518,-0.019327210262417793,0.006132631562650204,-0.011501703411340714,0.0024159473832696676
425,0.012509885244071484,-0.012214148417115211,-0.009152289479970932,0.005076038651168346,-0.002270763274282217,0.0031954292207956314,-0.011187507770955563,-0.0016073697479441762,-0.012649517506361008,0.022573526948690414
426,-0.01327328011393547,0.00390921626240015,-0.017421429976820946,-0.009352865628898144,-0.007998820394277573,-0.01018589735031128,-0.01099269650876522,-0.013381116092205048,-0.0035010597202926874,-0.008968894369900227
427,0.009684438817203045,-0.012660272419452667,0.004101702012121677,0.004190386738628149,-0.0006270905723795295,0.0018596117151901126,-0.02885902300477028,0.00029850692953914404,0.004503829404711723,0.005806988570839167
428,0.014285227283835411,-0.04309212416410446,0.0009523886255919933,0.01008351519703865,1.769175287336111e-05,0.010213993489742279,-0.00795779749751091,0.007500695995986462,-0.005896801128983498,0.02250959724187851
429,-0.004946842789649963,-0.04359721392393112,-0.01079790759831667,-0.003838122123852372,-0.006680279038846493,0.0028868771623820066,0.023167787119746208,-0.004281878471374512,0.021219993010163307,0.0005975445965304971
430,0.005502200219780207,-0.02713404968380928,-0.024450944736599922,-0.0032023016829043627,-0.006469941698014736,0.0011775122256949544,-0.027277901768684387,0.0014308642130345106,-0.016100171953439713,0.030512258410453796
431,0.008311928249895573,-0.026029761880636215,0.005246596876531839,0.01116002257913351,-0.00038784253410995007,0.009639088064432144,-0.020152393728494644,0.006947134621441364,-0.026549221947789192,0.01961090974509716
432,-0.01389596238732338,0.0010292388033121824,-0.014365073293447495,-0.010764334350824356,-0.007254316471517086,-0.010118022561073303,0.0077224490232765675,-0.008757336065173149,0.009717626497149467,-0.01736266165971756
433,0.004752780310809612,-0.03679511696100235,-0.006179224234074354,0.004259568639099598,-0.006720873061567545,0.0021957510616630316,-0.007733263541013002,0.002960449317470193,-0.03449222072958946,0.0292323287576437
434,-0.006749699357897043,-0.052756525576114655,-0.0031491385307163,-0.009900925680994987,-0.010693169198930264,0.00027193035930395126,0.03841303288936615,-0.00461419764906168,0.02829361893236637,-0.014175397343933582
435,0.028274400159716606,-0.03863709792494774,-0.008187659084796906,0.010938757099211216,-0.005700008012354374,0.008215345442295074,-0.029288411140441895,0.00772078474983573,-0.02794564701616764,0.025833701714873314
436,0.020241517573595047,-0.05443324148654938,-0.00679424125701189,0.011013632640242577,-0.005642942618578672,0.006576933898031712,-0.05411693826317787,-0.0007116798078641295,-0.027558185160160065,0.04468773677945137
437,-0.031509652733802795,0.053545668721199036,0.012248847633600235,-0.0252348892390728,0.002102811587974429,-0.02026074007153511,0.03625394403934479,-0.015438362956047058,0.053670138120651245,-0.02756018564105034
438,0.018054787069559097,-0.027042806148529053,-0.010463841259479523,0.014238354749977589,0.007494835648685694,0.015028618276119232,-0.006713215261697769,0.012637611478567123,0.020551951602101326,0.03210902214050293
439,-0.0030491561628878117,-0.05295814573764801,-0.014485349878668785,-0.009386086836457253,-0.015175562351942062,-0.009305589832365513,0.016723332926630974,-0.014122741296887398,0.0036930472124367952,-0.012552290223538876
440,-0.00392012158408761,0.021686073392629623,0.0003664185060188174,-0.001173171098344028,0.0030185114592313766,-0.003615460591390729,-0.015344403684139252,-0.004403489641845226,0.021076874807476997,-0.0034003700129687786
441,-0.02308138832449913,0.012462255544960499,-0.01193089596927166,-0.013664104975759983,-0.007245994172990322,-0.010285815224051476,0.009975308552384377,-0.01020076498389244,0.0037096438463777304,-0.022794321179389954
442,0.010807251557707787,-0.0006588539108633995,-0.0009617968462407589,0.0011716240551322699,-0.005621595773845911,0.0066600823774933815,-0.02608516812324524,0.0029165877494961023,-0.030093783512711525,0.03351977467536926
443,0.0079186437651515,0.031873978674411774,0.009714084677398205,0.0049102213233709335,0.004182795993983746,-0.0022077541798353195,-0.0440051332116127,0.0004881683271378279,0.013437937013804913,-0.011106997728347778
444,-0.0005327338585630059,-0.0029212271329015493,0.007625794969499111,0.0032821225468069315,0.001072002574801445,-3.6471174098551273e-06,-0.01007337961345911,-0.0038280016742646694,-0.0031892498955130577,0.00920258741825819
445,-0.004430065862834454,-0.01482747495174408,-0.016516277566552162,0.0013047661632299423,-0.0032604967709630728,0.0038232626393437386,-0.0062089539133012295,-0.003477320075035095,-0.010298503562808037,0.012227363884449005
446,0.01994890160858631,-0.03828437253832817,-0.008206421509385109,-0.005666032433509827,-0.01432858221232891,-0.0011641178280115128,-0.04035528376698494,5.193508695811033e-05,-0.040009599179029465,0.004618327599018812
447,-0.010115651413798332,0.020248735323548317,-0.00702707702293992,-0.012411270290613174,-0.0029123323038220406,-0.007501519285142422,0.014568187296390533,-0.007612268440425396,0.008466854691505432,-0.013839565217494965
448,-0.006878927815705538,8.076184894889593e-05,-0.008314251899719238,-0.0048482781276106834,-0.005379476584494114,-0.0054100132547318935,0.006757636088877916,-0.01206599548459053,0.011628697626292706,-0.0011581010185182095
449,-0.013119694776833057,-0.0026239287108182907,-0.0026543154381215572,-0.0019599057268351316,-0.007145141717046499,-0.007732792757451534,-0.02192365750670433,-0.005895409733057022,-0.00678088515996933,-0.009983008727431297
450,0.0017951010959222913,-0.019167844206094742,-0.02028435468673706,-0.00018525286577641964,-0.004986226093024015,0.005551550537347794,-0.008711797185242176,0.0009467427153140306,-0.01234392449259758,0.01452464796602726
451,0.034279171377420425,-0.05662785843014717,-0.01905219629406929,0.004279154818505049,-0.013366620987653732,0.0015739360824227333,-0.004547402262687683,0.0031550638377666473,-0.04697868973016739,0.05034859478473663
452,0.024075042456388474,0.005280513782054186,-0.03300606459379196,0.011931397020816803,-0.003165265778079629,0.005863007158041,-0.026863228529691696,-0.007433299440890551,-0.02124848961830139,0.01992836594581604
453,0.017682793748464244,0.018673251175271962,-0.011132354491424867,0.009045781412521322,0.010551751123380424,0.005005980606114498,0.041808320780182553,0.007350716391389561,-0.006033243056499006,0.0189636966483151
454,-0.020834729075431824,0.004813763312995434,0.011638136580586433,-0.004393444862216711,-0.002887440612539649,-0.001736842910759151,0.007416764739900827,-0.001251049805432558,-0.046615906059741974,0.002701858524233103
