,security,conformity,tradition,benevolence,universalism,self-direction,stimulation,hedonism,achievement,power
0,0.004242994822561741,-0.001748572220094502,-0.039376016706228256,-0.007741284556686878,-0.008221354335546494,0.0020740104373544455,0.016336893662810326,0.004164671525359154,-0.015067841857671738,0.0142448665574193
1,-0.0005437489598989487,-0.004778622183948755,-0.04455665498971939,-0.010603183880448341,-0.007445851806551218,0.0004063076339662075,0.02969319000840187,0.0046486621722579,-0.0008067782036960125,0.007571149617433548
2,-0.0053000240586698055,-0.00688563659787178,-0.06283833086490631,-0.018648704513907433,-0.0179852657020092,-0.003520122729241848,0.04462823644280434,-0.0013499199412763119,-0.002459443174302578,-0.004736769013106823
3,0.015196720138192177,-0.035110488533973694,-0.033286046236753464,-0.0012379135005176067,-0.011280985549092293,0.00503828190267086,-0.014801481738686562,0.005878026597201824,-0.01803160458803177,0.02906402200460434
4,-0.09544525909121215,0.007950595706778868,-0.0071710846034747245,-0.031158825409374747,-0.018544392076809982,-0.017931940704933917,0.059556926301788306,-0.022221218126350615,-0.028059113232316683,-0.04452830356480893
5,-0.007748504169285297,-0.0021422109566628933,-0.03940116614103317,-0.013600961305201054,-0.016972240060567856,-0.006847172975540161,0.007213824428617954,-0.006559701636433601,-0.013066315092146397,-0.00021063326857984066
6,0.000417040369939059,0.004044441506266594,-0.011260002851486206,-0.007224809844046831,-0.001724791363812983,-0.0005469077732414007,0.008121454156935215,0.0018624670337885618,-0.010848348960280418,0.009561860002577305
7,0.022340215742588043,-0.0029186690226197243,0.010376700200140476,0.019496334716677666,0.023871827870607376,0.01585882157087326,-0.02324257232248783,0.025231076404452324,-0.0065232934430241585,0.04649847000837326
8,0.042404673993587494,0.016042398288846016,0.024023965001106262,0.004555207677185535,0.006856654770672321,0.011422259733080864,0.0201222226023674,0.01422840729355812,-0.020095445215702057,0.06579971313476562
9,0.021883931010961533,0.01188587211072445,-0.0005841251695528626,-0.0010263402946293354,-0.0021057119593024254,0.008322312496602535,-0.010830462910234928,0.010230880230665207,0.003514958545565605,0.01919310912489891
10,-0.006841324269771576,0.0032625417225062847,-0.035840995609760284,-0.015608055517077446,-0.018537325784564018,-0.005725055001676083,0.017564082518219948,-0.005159068387001753,0.0009044503094628453,-0.0041455975733697414
11,-0.03306876811757074,-0.012672939103404501,-0.04352876452172434,0.02331542117303663,0.008255254088474459,0.021009183886477937,-0.023002714842402135,0.021837899514177837,-0.011985031412169646,-0.004552910622116383
12,0.022340215742588043,-0.0029186690226197243,0.010376700200140476,0.019496334716677666,0.023871827870607376,0.01585882157087326,-0.02324257232248783,0.025231076404452324,-0.0065232934430241585,0.04649847000837326
13,0.033738873898983,-0.020991921424865723,-0.026962995529174805,0.018945826217532158,0.002075056079775095,0.022285377606749535,0.00842224434018135,0.0255863219499588,-0.018050212413072586,0.044251780956983566
14,0.010898233391344547,-0.003848644671961665,-0.017089975997805595,0.004446574952453375,0.008212986402213573,0.008132564835250378,0.0032253041863441467,0.01493986789137125,-0.0036650358233600855,0.027034804224967957
15,-0.011670740321278572,-0.010649084113538265,-0.04551070183515549,-0.016498230397701263,-0.012889418751001358,-0.0025994342286139727,0.03194049000740051,-0.00043200154323130846,0.005109231919050217,-0.0009734248742461205
16,-0.002281003165990114,-0.006137417629361153,-0.02390965446829796,-0.007029972039163113,-0.0031917933374643326,0.0002651319373399019,0.004415550734847784,0.002523035742342472,0.009979700669646263,0.005153662525117397
17,0.015200769528746605,-0.012303324416279793,-0.01078624278306961,0.010308671742677689,-0.003586042672395706,0.006847710814327002,-0.04357416555285454,0.004687448963522911,-0.020618975162506104,0.00993967242538929
18,0.01711134985089302,-0.0012739920057356358,-0.0013295740354806185,0.0037959525361657143,0.0004771454259753227,0.006072772666811943,-0.019886640831828117,0.009644214063882828,-0.024793526157736778,0.02777010388672352
19,0.029735097661614418,0.01005854643881321,-0.016163142397999763,-0.0020737983286380768,-0.003341587260365486,-0.0017604576423764229,-0.015122177079319954,0.002367808483541012,-0.034576207399368286,0.04720684140920639
20,0.022340215742588043,-0.0029186690226197243,0.010376700200140476,0.019496334716677666,0.023871827870607376,0.01585882157087326,-0.02324257232248783,0.025231076404452324,-0.0065232934430241585,0.04649847000837326
21,0.027984241023659706,-0.001244453713297844,0.006123981438577175,0.007605787832289934,0.003617816837504506,0.008971551433205605,-0.028274808079004288,0.00900967512279749,-0.025016246363520622,0.05760995298624039
22,0.0005256781587377191,-0.03465093672275543,-0.025866741314530373,-0.002273011952638626,-0.014199648052453995,0.0006525502540171146,-0.03590601682662964,0.002528108423575759,-0.0028030991088598967,0.032313328236341476
23,0.022340215742588043,-0.0029186690226197243,0.010376700200140476,0.019496334716677666,0.023871827870607376,0.01585882157087326,-0.02324257232248783,0.025231076404452324,-0.0065232934430241585,0.04649847000837326
24,0.014832082204520702,0.03240349516272545,0.018661562353372574,0.0017888094298541546,0.007796908263117075,0.0010802014730870724,0.029521875083446503,0.002159518888220191,-0.009913740679621696,0.04073900356888771
25,-0.006931945215910673,-0.04099896550178528,-0.01707591861486435,0.00247006444260478,-0.014305214397609234,0.00613337941467762,-0.054170481860637665,0.006545517593622208,-0.023685399442911148,0.03479569032788277
26,-0.010590782389044762,-0.012794132344424725,-0.03312283754348755,-0.005902343429625034,-0.01122066006064415,0.0027096085250377655,0.0035594389773905277,0.0030659614130854607,-0.01802591234445572,0.01243164949119091
27,0.0012573273852467537,-0.023786447942256927,-0.032909560948610306,-0.005795342847704887,-0.012447116896510124,-0.0013959452044218779,-0.004387599416077137,0.0016182203544303775,-0.01334882341325283,0.019294830039143562
28,0.022340215742588043,-0.0029186690226197243,0.010376700200140476,0.019496334716677666,0.023871827870607376,0.01585882157087326,-0.02324257232248783,0.025231076404452324,-0.0065232934430241585,0.04649847000837326
29,0.009772653691470623,-0.017069825902581215,-0.0084902448579669,0.004765148740261793,-0.0077697113156318665,0.002626364817842841,-0.0487615168094635,0.00587046891450882,-0.024362705647945404,0.03693055361509323
30,0.02004372328519821,0.0008324212394654751,0.007617446128278971,0.004189604427665472,0.006372301839292049,0.007303781807422638,0.0012565541546791792,0.010397322475910187,-0.001065689604729414,0.037884671241045
31,0.006742994766682386,-0.018277425318956375,-0.032906368374824524,-0.0016131612937897444,-0.0057212114334106445,0.0063225203193724155,0.004298618528991938,0.008494987152516842,-0.005731229670345783,0.019554302096366882
32,-0.003250450361520052,-0.016409430652856827,-0.026467982679605484,-0.012268083170056343,-0.01134882029145956,-0.0027726178523153067,0.009755746461451054,-0.002532028825953603,0.007942361757159233,0.01074928231537342
33,-0.006900711450725794,-0.009705453179776669,-0.038926467299461365,-0.011728540994226933,-0.010489171370863914,-0.006160857621580362,0.015826037153601646,0.0019063832005485892,-0.0028663433622568846,-0.002033911645412445
34,0.02165571227669716,-0.011236002668738365,0.014586829580366611,0.012756813317537308,0.009383061900734901,0.007819188758730888,-0.0019469729159027338,0.01831435039639473,-0.027705427259206772,0.07785941660404205
35,0.0001147492060439249,-0.0638189133525367,-0.045328382927867596,0.002066651257841217,-0.0069886981587305805,-0.0017951819839534793,-0.007410924369813775,0.0037859568780902837,-0.025107899442401875,0.007226651607190675
36,0.01565694995224476,-0.0020608650520443916,-0.026131967082619667,-0.009625018574297428,-0.011620539240539074,-0.002952805021777749,-0.00812915712594986,0.002006652532145381,-0.014372916892170906,0.01894386112689972
37,0.021377936005592346,-0.0350860096514225,-0.009550374932587147,0.009958304464817047,-0.0027237553149461746,0.011974403634667397,-0.032138027250766754,0.014085941016674042,-0.02907257154583931,0.04337380826473236
38,-0.003404242219403386,-0.0050111147575080395,-0.0514233261346817,-0.014365623705089092,-0.011360559612512589,-0.0015252565499395132,0.036310166120529175,0.0020758621394634247,-9.22088511288166e-05,0.0027052396908402443
39,0.0006458566058427095,-0.01310533657670021,-0.050479013472795486,-0.014677483588457108,-0.01647852174937725,-0.004293426405638456,0.029104340821504593,-0.002281901193782687,-0.006453714799135923,-0.005423808470368385
40,-0.016873154789209366,-0.02578231319785118,-0.0332062654197216,-0.005942280404269695,-0.012212079018354416,0.006028076633810997,-0.0014343841467052698,0.006013477221131325,-0.010797969996929169,0.011700771749019623
41,-0.017089450731873512,0.017872704192996025,-0.02181881293654442,0.0007295004324987531,0.0009970981627702713,0.002468565246090293,0.012047577649354935,0.0023550735786557198,0.004250247962772846,0.01458212360739708
42,-0.011985731311142445,-0.0057085854932665825,-0.07202331721782684,-0.025652941316366196,-0.02310468629002571,-0.007319947704672813,0.05616108328104019,-0.00564254354685545,0.002051481744274497,-0.011892503127455711
43,0.017978373914957047,-0.04394909366965294,-0.019114026799798012,0.0016376576386392117,-0.007060517091304064,0.009489404037594795,-0.027323471382260323,0.010850489139556885,-0.020369399338960648,0.03957288712263107
44,-0.007023431360721588,-0.0025924458168447018,-0.024726182222366333,-0.005219716578722,-0.010304585099220276,-0.005169360898435116,-0.009703132323920727,-0.0017708793748170137,-0.01779768615961075,0.0009185341186821461
45,0.002401661909184313,0.023939908350295615,0.0678623545056639,-0.009524665174009458,0.015246426417310142,0.012635752637237667,-0.01433315409243658,0.0024343050391214837,0.017120463602061667,0.005167641283110362
46,-0.010435626842081547,-0.008105995133519173,-0.06575769931077957,-0.01798456907272339,-0.019624143838882446,-0.0031830184161663055,0.024025753140449524,2.8709007892757654e-05,-0.014847813174128532,-0.0027193515561521053
47,0.05118637904524803,-0.0060224467888474464,0.003469278337433934,0.028466543182730675,0.010793146677315235,0.027617547661066055,-0.026912447065114975,0.030970176681876183,-0.04190300032496452,0.08619603514671326
48,0.00369976251386106,0.005011241417378187,-0.04006347805261612,-0.009644908830523491,-0.01138070598244667,-0.0022507035173475742,0.0189727284014225,0.0015929797664284706,-0.007411896251142025,0.0018773688934743404
49,-0.005370398052036762,0.013587516732513905,0.06111575663089752,-0.0015755800995975733,-0.0007910567801445723,-0.021800264716148376,0.046368557959795,-0.010334178805351257,-0.033969759941101074,-0.00019487785175442696
50,0.010898233391344547,-0.003848644671961665,-0.017089975997805595,0.004446574952453375,0.008212986402213573,0.008132564835250378,0.0032253041863441467,0.01493986789137125,-0.0036650358233600855,0.027034804224967957
51,-0.006736185401678085,0.05319059640169144,0.014452943578362465,0.015734566375613213,0.01923464424908161,0.015878096222877502,-0.028095325455069542,0.013286766596138477,0.01077407319098711,-0.00648597814142704
52,0.03109760209918022,0.010433215647935867,0.0035324664786458015,0.008118374273180962,-0.00048740184865891933,0.007000075187534094,-0.031953442841768265,0.011209787800908089,-0.019416378811001778,0.0393742136657238
53,-0.00014284043572843075,-0.008138834498822689,-0.05514826625585556,-0.012851453386247158,-0.013575105927884579,0.0004501575604081154,0.039128758013248444,0.003241927595809102,-0.0024568322114646435,0.00438943225890398
54,0.005177243147045374,-0.004313628189265728,-0.03082331456243992,-0.0030783028341829777,0.00038356782170012593,0.004269437398761511,0.016459256410598755,0.009794266894459724,-0.0022359052672982216,0.0173029787838459
55,-0.006353279110044241,-0.007681461051106453,-0.044038042426109314,-0.008897416293621063,-0.01128108985722065,0.0032843989320099354,0.022504348307847977,0.004422641824930906,-0.003658175002783537,0.004203938413411379
56,0.011812923476099968,-0.01040375605225563,-0.03532138839364052,0.0017442789394408464,0.002570833545178175,0.0032187688630074263,0.011375930160284042,0.0038685156032443047,-0.011720470152795315,0.015349242836236954
57,-0.034886039793491364,0.038506194949150085,0.018248222768306732,-0.018697572872042656,-0.005769498646259308,-0.021771572530269623,0.048084698617458344,-0.016596699133515358,0.003908070735633373,-0.044938087463378906
58,0.02047349140048027,-0.005546024069190025,0.001095616607926786,0.0014312076382339,-0.0033667907118797302,0.0011552951764315367,-0.02589012123644352,0.009714433923363686,-0.023146748542785645,0.036533791571855545
59,0.022340215742588043,-0.0029186690226197243,0.010376700200140476,0.019496334716677666,0.023871827870607376,0.01585882157087326,-0.02324257232248783,0.025231076404452324,-0.0065232934430241585,0.04649847000837326
60,0.002049436327069998,-0.014471450820565224,0.009799107909202576,-0.011291198432445526,0.008231895044445992,-0.010010730475187302,0.020410986617207527,-0.003120435168966651,0.04445112124085426,0.009135397151112556
61,0.0076894620433449745,-0.018799230456352234,-0.01876717247068882,0.000475526787340641,-0.007610797416418791,0.006165384780615568,-0.0084067452698946,0.004892038181424141,-0.020728178322315216,0.023813074454665184
62,0.029907692223787308,-0.058468982577323914,0.010712267830967903,0.017332326620817184,0.0014829784631729126,0.016602106392383575,-0.07953175157308578,0.018775228410959244,-0.031952012330293655,0.06714468449354172
63,0.00034755258820950985,-0.027946799993515015,-0.02955317124724388,-0.0003204643726348877,-0.011941789649426937,0.0062841870822012424,-0.027142124250531197,0.00783589668571949,-0.020157715305685997,0.028358401730656624
64,0.017419856041669846,-0.009852923452854156,-0.021956726908683777,0.001204023603349924,-0.002918144455179572,0.007268101908266544,-0.017386576160788536,0.009918107651174068,-0.02529493346810341,0.039378583431243896
65,0.0002898192033171654,-0.024387357756495476,0.007993746548891068,0.016632355749607086,0.011276178061962128,0.01761746034026146,-0.04113621637225151,0.021450286731123924,-0.015085357241332531,0.04089626297354698
66,0.003270248183980584,-0.004468624480068684,-0.03540109470486641,-0.005586598999798298,-0.002226237440481782,0.0029817274771630764,0.02087056078016758,0.00807906687259674,-0.0017595263198018074,0.014059037901461124
67,-0.011985733173787594,-0.005708584561944008,-0.07202332466840744,-0.025652941316366196,-0.023104684427380562,-0.007319947704672813,0.05616108328104019,-0.005642544478178024,0.0020514826755970716,-0.01189250685274601
68,0.0048097167164087296,-0.0031798728741705418,-0.01144792977720499,-0.00589066231623292,-0.0035094080958515406,-0.00547662191092968,-0.010287589393556118,0.0012537380680441856,-0.010789485648274422,0.04299452155828476
69,-0.0017879486549645662,-0.010365596041083336,-0.04765946418046951,-0.012976706959307194,-0.012553686276078224,-0.00012031779624521732,0.0257925633341074,0.002075808821246028,-0.003112228587269783,0.005373289808630943
70,0.014985606074333191,-0.010736936703324318,0.009084468707442284,0.00044665776658803225,-0.006306711584329605,0.004921106621623039,-0.009840243496000767,0.007758541498333216,-0.009167466312646866,0.011370345950126648
71,-0.016171641647815704,-0.013793825171887875,-0.03780316561460495,-0.004120399709790945,-0.01075172983109951,0.0010743641760200262,0.010959122329950333,0.0007582353428006172,-0.005623890087008476,-0.0024284017272293568
72,0.014440289698541164,-0.025242431089282036,-0.015687711536884308,0.007344651967287064,0.0001990890596061945,0.006285804323852062,0.00850776955485344,0.01671639084815979,-0.03169519454240799,0.06243419274687767
73,0.006905305199325085,-0.0095601137727499,-0.022176796570420265,0.010112417861819267,0.0012511599343270063,0.010707177221775055,-0.05633513256907463,0.019185449928045273,-0.05145750194787979,0.03959563001990318
74,0.008693919517099857,-0.009602243080735207,-0.00999488402158022,-0.0029293920379132032,-0.012619967572391033,-0.001303497003391385,-0.02988296188414097,-0.0005297401221469045,-0.012700149789452553,0.018610874190926552
75,-0.0051161679439246655,-0.014294649474322796,-0.015039224177598953,-0.006345637142658234,-0.008301288820803165,-3.749676398001611e-05,0.011665035039186478,0.0029037061613053083,-0.004226367920637131,0.014737503603100777
76,-0.007771870121359825,-0.011650821194052696,-0.02751528099179268,-0.0034365400206297636,-0.006337464787065983,0.005390916485339403,0.004123663995414972,0.00842890702188015,-0.01618235372006893,0.02811070904135704
77,-0.02176057919859886,-0.0458560436964035,0.005610794294625521,0.013768378645181656,-0.0013194684870541096,0.019376099109649658,-0.05902985483407974,0.017669497057795525,-0.02364741824567318,0.035294048488140106
78,-0.011454036459326744,-0.0059281643480062485,-0.06650958955287933,-0.024071257561445236,-0.02234933152794838,-0.006281066220253706,0.05106039345264435,-0.004821645095944405,0.00047424109652638435,-0.009538559243083
79,-0.010522166267037392,0.018609613180160522,-0.035294171422719955,-0.014445818960666656,-0.010757573880255222,0.0007953227031975985,0.03093659318983555,0.005427798256278038,0.0005511302733793855,0.0020051016472280025
80,0.03005792573094368,-0.01605493202805519,-0.026009924709796906,0.015331201255321503,0.002191837877035141,0.015352396294474602,-0.009633805602788925,0.01840723492205143,-0.03117765672504902,0.02588975615799427
81,0.01879672639241723,-0.012861868898116073,0.00243593961699685,-0.015373472624472227,-0.010341690648747692,-0.0059494343519307805,-0.02628925443104203,-0.00961985740031311,0.02820685798189416,0.0036330964510492905
82,0.024455849081277847,-0.0306836124509573,0.011378370225429535,0.010500475764274597,-0.0024322925601154566,0.008762494660913944,-0.0642169862985611,0.00980011373758316,-0.026038948446512222,0.04359370842576027
83,-0.0008465510327368975,0.009299054741859436,0.028472598642110825,-0.014773858711123466,-0.0023574798833578825,-0.008000335656106472,-0.025981035083532333,-0.02226709946990013,-0.010375991463661194,-0.048355937004089355
84,0.010898233391344547,-0.003848644671961665,-0.017089975997805595,0.004446574952453375,0.008212986402213573,0.008132564835250378,0.0032253041863441467,0.01493986789137125,-0.0036650358233600855,0.027034806087613106
85,-0.00023233797401189804,-0.005149094853550196,-0.04561474546790123,-0.014240346848964691,-0.012284090742468834,-0.002039397368207574,0.031065847724676132,0.0005222117761150002,-0.005594584625214338,0.007458169013261795
86,0.012956921942532063,0.007064055185765028,-0.00025803816970437765,-0.00014825351536273956,-0.0015735032502561808,0.008565296418964863,-0.014924432151019573,0.006844851188361645,-0.00861319899559021,0.005428842734545469
87,0.002053279895335436,-0.01716926135122776,-0.023385660722851753,0.0009870543144643307,-0.0037381018046289682,0.00874185748398304,-0.005541531834751368,0.01044982299208641,-0.008865428157150745,0.01960320770740509
88,-0.00660130986943841,0.000365989631973207,-0.052178557962179184,-0.013274342752993107,-0.017319800332188606,-0.009031091816723347,0.04509098455309868,-0.010595051571726799,0.020748013630509377,-0.0018108966760337353
89,-0.011985729448497295,-0.005708587355911732,-0.07202332466840744,-0.025652941316366196,-0.023104684427380562,-0.007319947704672813,0.05616109073162079,-0.005642544943839312,0.002051481045782566,-0.011892508715391159
90,0.028250008821487427,0.01873953454196453,-0.004835811443626881,0.0041629173792898655,-0.0010398640297353268,0.007809740025550127,-0.012602443806827068,0.00559266097843647,-0.03578254207968712,0.06881434470415115
91,-0.0009209010750055313,0.04196874797344208,0.013637695461511612,0.016486920416355133,0.020162079483270645,0.015874242410063744,-0.02712477743625641,0.015675626695156097,0.007314599584788084,0.004110903944820166
92,-0.02266714908182621,0.007570008747279644,0.03497261554002762,-0.03063357248902321,0.019146844744682312,-0.022524137049913406,0.051078956574201584,-0.015403223223984241,0.10177481919527054,-0.02270861715078354
93,-0.006736185401678085,0.05319059640169144,0.014452943578362465,0.015734566375613213,0.01923464424908161,0.015878096222877502,-0.028095325455069542,0.013286766596138477,0.01077407319098711,-0.00648597814142704
94,0.022340215742588043,-0.0029186690226197243,0.010376700200140476,0.019496334716677666,0.023871827870607376,0.01585882157087326,-0.02324257232248783,0.025231076404452324,-0.0065232934430241585,0.04649847000837326
95,0.022340215742588043,-0.0029186690226197243,0.010376700200140476,0.019496334716677666,0.023871827870607376,0.01585882157087326,-0.02324257232248783,0.025231076404452324,-0.0065232934430241585,0.04649847000837326
96,0.005177243147045374,-0.004313628189265728,-0.03082331456243992,-0.003078303299844265,0.00038356782170012593,0.0042694369331002235,0.016459256410598755,0.009794266894459724,-0.0022359052672982216,0.01730298064649105
97,-0.0034698047675192356,-0.0024538321886211634,-0.05206220597028732,-0.013530304655432701,-0.013770471327006817,0.0007677015382796526,0.03136366605758667,6.892369128763676e-05,0.002031362149864435,-0.0030903981532901525
98,-0.009213056415319443,-0.035684823989868164,-0.001568351872265339,0.01150087546557188,-0.004765354096889496,0.012639116495847702,-0.0694345235824585,0.011487306095659733,-0.02789069525897503,0.036787014454603195
99,0.015635240823030472,-0.003531472757458687,-0.0019164762925356627,0.0007173779886215925,-0.0011904349084943533,0.0011273962445557117,0.016160879284143448,0.005619382485747337,-0.022038783878087997,0.059054382145404816
100,0.021063577383756638,-0.011433400213718414,-0.008305429480969906,0.000973154092207551,-0.016449090093374252,-0.0018053678795695305,-0.060332875698804855,0.000879357336089015,-0.027114739641547203,0.02540028840303421
101,0.020230017602443695,0.01587637886404991,0.003775320015847683,-0.001415469916537404,-0.0016039808979257941,0.008457588963210583,-0.0190819650888443,0.013246845453977585,0.0022438839077949524,0.02364671230316162
102,0.0308578722178936,-0.016820313408970833,0.021059444174170494,0.02083798497915268,0.014528126455843449,0.020290082320570946,-0.008799654431641102,0.016775639727711678,-0.003954778891056776,0.04574960097670555
103,0.017600752413272858,-0.009155227802693844,0.011996684595942497,0.011761792004108429,0.0003852918744087219,0.008708009496331215,-0.034035950899124146,0.0100297462195158,-0.02913597971200943,0.0701819509267807
104,-0.003621406387537718,-0.019771568477153778,-0.025701725855469704,-0.005880194716155529,-0.010378450155258179,0.0012235380709171295,-0.0020420062355697155,0.004149074666202068,-0.00579753378406167,0.006852893158793449
105,-0.0037329918704926968,-0.03844832256436348,-0.02422379143536091,-0.0021338697988539934,-0.012043077498674393,-0.005227704532444477,-0.029439587146043777,-0.0028841046150773764,-0.014649182558059692,0.021672019734978676
106,-0.006194406189024448,-0.0041132159531116486,-0.04782860353589058,-0.012931962497532368,-0.011042682453989983,-0.000294629717245698,0.03041647933423519,0.0022905278019607067,-0.0004603210836648941,0.0015054945833981037
107,-0.0037228032015264034,0.006311556324362755,-0.007608070969581604,-0.007853448390960693,-0.00011865617125295103,-0.006804558914154768,-0.003552451729774475,-0.007176170591264963,0.0059542227536439896,-2.308341208845377e-05
108,0.012490260414779186,0.005231636576354504,-0.014248361811041832,-0.01102407742291689,-0.01185433380305767,-0.0024842640850692987,-0.0030383141711354256,-0.0009445779724046588,-0.0026707008946686983,0.01233434583991766
109,-0.0075243813917040825,-0.004140441305935383,-0.048431504517793655,-0.017244774848222733,-0.012862149626016617,-0.0048698256723582745,0.03850182518362999,-0.003059911075979471,0.0025560122448951006,-0.007552613969892263
110,0.010898233391344547,-0.003848644671961665,-0.017089975997805595,0.004446574952453375,0.008212986402213573,0.008132564835250378,0.0032253041863441467,0.01493986789137125,-0.0036650358233600855,0.027034804224967957
111,-0.0005437489598989487,-0.004778622183948755,-0.04455665498971939,-0.010603183880448341,-0.007445851806551218,0.0004063076339662075,0.02969319000840187,0.0046486621722579,-0.0008067782036960125,0.007571149617433548
112,0.014756694436073303,0.002604900859296322,-0.018460581079125404,-0.007873842492699623,-0.0011434713378548622,0.0023047884460538626,0.03283579275012016,0.0037854216061532497,-0.024812277406454086,0.052485059946775436
113,-0.013764402829110622,0.03901546820998192,-0.02463717758655548,-0.01282501220703125,-0.006397821940481663,0.0019194581545889378,0.03189152106642723,0.005174938589334488,0.010939352214336395,-0.001234336756169796
114,-0.005928207654505968,-0.005216258578002453,-0.057482149451971054,-0.01768542267382145,-0.014814715832471848,-0.0032295784913003445,0.04214867204427719,-0.0001942565431818366,0.0005382844246923923,-0.001588219776749611
115,-0.012065374292433262,0.010855366475880146,0.018753407523036003,-0.02324671670794487,0.013428343459963799,-0.015247251838445663,0.03359661623835564,-0.009518345817923546,0.06486921012401581,-0.013065227307379246
116,-0.01388246938586235,-0.03529154509305954,-0.012258117087185383,0.004958032630383968,-0.00633222283795476,0.01164527889341116,-0.036415912210941315,0.011701801791787148,-0.018275339156389236,0.028032854199409485
117,-0.011985733173787594,-0.005708584561944008,-0.07202332466840744,-0.025652941316366196,-0.023104684427380562,-0.007319947704672813,0.05616108328104019,-0.005642544478178024,0.0020514826755970716,-0.01189250685274601
118,0.023211289197206497,-0.013737000524997711,-0.006790800951421261,-0.004601532593369484,-0.013513940386474133,-0.003141782246530056,-0.049480587244033813,-0.003325712401419878,-0.02627680078148842,0.016797969117760658
119,-0.011985733173787594,-0.005708584561944008,-0.07202332466840744,-0.025652941316366196,-0.023104684427380562,-0.007319947704672813,0.05616108328104019,-0.005642544478178024,0.0020514826755970716,-0.01189250685274601
120,-0.0001634644577279687,0.0023256666027009487,0.02267465926706791,-0.005568615160882473,0.021509334444999695,-0.003332659136503935,0.013918192125856876,0.0049139270558953285,0.047625768929719925,0.011894922703504562
121,0.012291830033063889,-0.030828295275568962,-0.020432723686099052,0.015505271963775158,0.003003125311806798,0.013304457068443298,-0.04152887687087059,0.017704784870147705,-0.015042256563901901,0.04304687678813934
122,0.011334801092743874,0.003845199942588806,-0.012220896780490875,-0.0027159450110048056,-0.0012507080100476742,0.0013811183162033558,0.01372019574046135,0.006185556296259165,-0.01622696779668331,0.04102550819516182
123,-0.016792986541986465,4.59328293800354e-06,-0.008254969492554665,-0.025082102045416832,0.002290819538757205,-0.013588557951152325,0.04594014957547188,-0.008814227767288685,0.054430458694696426,-0.013655896298587322
124,0.01772907003760338,-2.1704472601413727e-05,0.007426268421113491,0.005192861892282963,0.0032867714762687683,0.003409215249121189,0.007793949916958809,0.007974973879754543,-0.022418227046728134,0.06301385164260864
125,-0.00850176252424717,-0.0005690004909411073,-0.052672382444143295,-0.014710435643792152,-0.009815586730837822,-0.003389249090105295,0.018759405240416527,-0.0058882953599095345,0.001390209887176752,-0.005230563692748547
126,-0.007840003818273544,-0.010640503838658333,-0.04451229050755501,-0.0074692051857709885,-0.011533848941326141,0.0010822794865816832,0.0036510275676846504,0.005132635124027729,-0.00633588433265686,0.008619054220616817
127,0.00882453192025423,0.010042820125818253,-0.044300392270088196,-0.006482325494289398,-0.01648695021867752,-0.0029191102366894484,-0.02135879173874855,-0.005691732279956341,-0.08605018258094788,0.04194251075387001
128,0.023103179410099983,0.0011339751072227955,-0.025909682735800743,0.009216222912073135,-0.004986929707229137,0.014156890101730824,0.004564320202916861,0.014038782566785812,-0.029675185680389404,0.028952524065971375
129,-0.011985733173787594,-0.005708584561944008,-0.07202332466840744,-0.025652941316366196,-0.023104684427380562,-0.007319947704672813,0.05616108328104019,-0.005642544478178024,0.0020514826755970716,-0.01189250685274601
130,-0.002338775433599949,-0.0021909771021455526,-0.0033383648842573166,-0.009306227788329124,-0.006763898767530918,-0.009027186781167984,-0.01627739891409874,-0.011718420311808586,-0.0031357910484075546,-0.0035009742714464664
131,-0.003404242219403386,-0.0050111147575080395,-0.0514233261346817,-0.014365623705089092,-0.011360559612512589,-0.0015252565499395132,0.036310166120529175,0.0020758621394634247,-9.22088511288166e-05,0.0027052396908402443
132,-0.020973026132937993,0.029619740477926416,-0.015101811365115623,-0.0029410914812062444,0.002686566829920327,-0.004074757394291956,-8.967338639429695e-05,0.015964110054886533,-0.0024622614331211265,0.004843942774309642
133,-0.013808226212859154,-0.0009036087431013584,-0.022750191390514374,-0.007199352607131004,-0.007044865749776363,-0.008605297654867172,0.0006869316566735506,-0.00770503468811512,-0.0017182299634441733,-0.008030852302908897
134,0.00019971514120697975,-0.026351220905780792,-0.011875413358211517,0.006453324109315872,-0.003152889898046851,0.009425738826394081,-0.022898197174072266,0.009018268436193466,-0.0068809837102890015,0.03212188556790352
135,0.038719452917575836,0.0076857758685946465,0.015498343855142593,-0.00189019157551229,-0.004967149347066879,0.0018070557853206992,-0.022604739293456078,0.009339213371276855,-0.029423896223306656,0.04464000463485718
136,0.027772875502705574,0.015415110625326633,0.002639732789248228,-0.003582356031984091,-0.004126410931348801,-0.003651526290923357,-0.04927913099527359,0.002936368342489004,0.00020264647901058197,0.01973072439432144
137,-0.006858944892883301,-0.014464333653450012,-0.043868228793144226,-0.012956884689629078,-0.015819692984223366,-0.001597684109583497,0.009282786399126053,0.0009215320460498333,-0.0030381684191524982,0.009851661510765553
138,-0.008865187875926495,-0.0054549528285861015,-0.06453241407871246,-0.02154846303164959,-0.018834097310900688,-0.005212786141782999,0.04894256591796875,-0.0028358495328575373,0.0012719598598778248,-0.006584234535694122
139,0.024880249053239822,-0.004061066545546055,0.010948235169053078,0.012829212471842766,0.008442406542599201,0.014308024197816849,-0.013223652727901936,0.019144207239151,-0.015414386987686157,0.048479463905096054
140,0.040298640577197516,-0.0002542091932630089,0.021199282606189,0.008816639638048563,-0.0014490285034359464,0.0017385406501408385,0.02653968119438571,0.0042968520752273,-0.0029796686112683875,-0.018825622882656802
141,-0.0021296797785907984,-0.006633291020989418,-0.03752082958817482,-0.008329723961651325,-0.0072054085321724415,0.0024440684355795383,0.020927052944898605,0.005684541072696447,-0.005197546444833279,0.015062300488352776
142,0.021238408982753754,-0.0011375099420547485,0.010430337861180305,0.008773703128099442,-0.002975026611238718,0.005493737757205963,-0.019359201192855835,0.008649643510580063,-0.011952304281294346,0.02560940943658352
143,-0.010165201500058174,-0.007400026544928551,-0.04255564510822296,-0.010618450120091438,-0.011024115607142448,0.0017499526729807258,0.020339082926511765,0.0031235497444868088,-0.0026076086796820164,0.0024866387248039246
144,0.022340215742588043,-0.0029186690226197243,0.010376700200140476,0.019496334716677666,0.023871827870607376,0.01585882157087326,-0.02324257232248783,0.025231076404452324,-0.0065232934430241585,0.04649847000837326
145,0.00046548573300242424,-0.005470358766615391,-0.05037626251578331,-0.01700625754892826,-0.020071091130375862,-0.007454962469637394,0.022088652476668358,-0.0025943766813725233,-0.008703087456524372,-0.0015010866336524487
146,0.01478484831750393,-0.03740795701742172,0.005914068780839443,0.015633106231689453,-0.0012245378457009792,0.009169839322566986,-0.08482566475868225,0.013847535476088524,-0.027277212589979172,0.05887609347701073
147,-0.0008533220971003175,0.006734986323863268,-0.03408554196357727,-0.006117959972470999,-0.007897179573774338,0.002626097062602639,0.007166856899857521,-0.001955196261405945,-0.016472065821290016,0.010097229853272438
148,0.004841746762394905,-0.008097851648926735,-0.01773826964199543,0.000781587790697813,-0.007229454815387726,0.005507145542651415,-0.019517015665769577,0.005479713436216116,-0.024588672444224358,0.030574344098567963
149,-0.010413139127194881,-0.017519541084766388,-0.023495621979236603,-0.0054026758298277855,-0.004492568783462048,0.004174846224486828,0.004106647334992886,0.006460350006818771,0.00036633037962019444,0.012666834518313408
150,0.007629097905009985,-0.004114352632313967,-0.024937603622674942,0.00014664558693766594,0.0037390352226793766,0.005925063043832779,0.010787567123770714,0.011999526061117649,-0.002848389558494091,0.021473759785294533
151,0.031756188720464706,0.029349125921726227,0.005392646417021751,0.008451927453279495,-0.0002604869659990072,0.004848480690270662,-0.029718874022364616,0.0046332115307450294,-0.052009955048561096,0.08632698655128479
152,-0.002136832568794489,-0.028487553820014,-0.014761474914848804,0.01140529289841652,0.003667524317279458,0.012714890763163567,-0.013652611523866653,0.016841862350702286,-0.005927384831011295,0.026439448818564415
153,0.010099038481712341,-0.022062983363866806,-0.028180845081806183,-0.00041277240961790085,-0.009144566021859646,0.00040017958963289857,-0.009424355812370777,0.0030196961015462875,-0.02648831717669964,0.01335193496197462
154,0.055678860559499,0.03563287894661629,0.017395931307968147,0.014993943756320498,0.006001011674810112,0.020834899648893748,-0.0351794624182595,0.00742385292151225,0.0030091184192305768,0.03420577764711358
155,0.016021477058529854,-0.020515570417046547,-0.013563068583607674,-0.0030173046980053186,-0.014820342883467674,8.906121365725994e-06,-0.03648737445473671,0.0010992704192176461,-0.024509645998477936,0.026450227946043015
156,0.012173033319413662,-0.018141619861125946,-0.0286625437438488,-0.0015634908340871334,-0.016358770430088043,0.0016590430168434978,-0.031290698796510696,0.0032932020258158445,-0.028499159961938858,0.026104198768734932
157,0.04797246307134628,0.010892879217863083,-0.0008676471188664436,0.023676741868257523,0.017290785908699036,0.01767074689269066,-0.024282580241560936,0.017512325197458267,-0.019114531576633453,0.05130566656589508
158,0.009113606996834278,-0.014843625016510487,-0.04111822694540024,-0.0022719288244843483,-0.008662317879498005,0.006292383652180433,0.01615632325410843,0.009423995390534401,-0.009131226688623428,0.02015080116689205
159,-0.011284565553069115,-0.017255475744605064,-0.022003622725605965,-0.0019673912320286036,-0.009117755107581615,0.00837167352437973,-0.01610388420522213,0.006334157660603523,-0.010952883400022984,0.013680682517588139
160,-0.010242633521556854,-0.022405946627259254,-0.02776879444718361,-0.0009915949776768684,-0.007280274294316769,0.0076818629167973995,-0.01253162045031786,0.008609066717326641,-0.014365743845701218,0.01769392564892769
161,-0.011985733173787594,-0.005708584561944008,-0.07202332466840744,-0.025652941316366196,-0.023104684427380562,-0.007319947704672813,0.05616108328104019,-0.005642544478178024,0.0020514826755970716,-0.01189250685274601
162,0.03618593141436577,0.011206256225705147,0.0005981705617159605,0.016362741589546204,0.012663105502724648,0.02237573266029358,-0.00625626789405942,0.02110886760056019,-0.03163225203752518,0.08204247057437897
163,-0.012527811340987682,0.005193160381168127,-0.03655076026916504,-0.009951161220669746,-0.005757012404501438,0.0014546883758157492,0.03559621050953865,0.005171332508325577,0.0070960670709609985,0.008498968556523323
164,-0.00977509468793869,-0.001822005258873105,-0.018114035949110985,-0.019183875992894173,-0.005057090427726507,-0.008687837049365044,0.03355156630277634,-0.005394709762185812,0.014298674650490284,0.001559005817398429
165,0.029464375227689743,-0.014214450493454933,-0.012960609048604965,0.019152265042066574,0.010248844511806965,0.019875418394804,-0.0034520598128437996,0.025453105568885803,-0.013727614656090736,0.04509429261088371
166,0.02486022561788559,-0.012937944382429123,-0.005099337548017502,0.00641490425914526,-0.009921752847731113,0.005326460115611553,-0.046714697033166885,0.00923132337629795,-0.020769646391272545,0.033875685185194016
167,0.007429738529026508,-0.005279175937175751,-0.016247879713773727,-0.008661918342113495,-0.0030001874547451735,-0.0020068997982889414,0.008838879875838757,0.0021197195164859295,0.012001394294202328,0.014049389399588108
168,0.008920326828956604,-0.008084718137979507,-0.03251158073544502,0.0038363169878721237,-0.011209703981876373,0.0016546228434890509,-0.02874981053173542,-0.0009858752600848675,-0.057067956775426865,0.02616160362958908
169,0.002168797655031085,0.017379436641931534,-0.010584519244730473,-0.006520112976431847,-0.0003743520355783403,-0.005600842647254467,-0.0014640337321907282,-0.0026871885638684034,-0.0198989138007164,0.00849812664091587
170,0.022340215742588043,-0.0029186690226197243,0.010376700200140476,0.019496334716677666,0.023871827870607376,0.01585882157087326,-0.02324257232248783,0.025231076404452324,-0.0065232934430241585,0.04649847000837326
171,0.001891317660920322,-0.006376795005053282,-0.01434045284986496,-0.0041796620935201645,-0.009937459602952003,0.002001452259719372,-0.01122921984642744,0.0033416743390262127,-0.010155903175473213,0.023356355726718903
172,0.005177243147045374,-0.004313628189265728,-0.03082331456243992,-0.003078303299844265,0.00038356782170012593,0.0042694369331002235,0.016459256410598755,0.009794266894459724,-0.0022359052672982216,0.01730298064649105
173,0.0010241982527077198,-0.02960832789540291,-0.02656571753323078,-0.0010054120793938637,-0.01242351159453392,0.006000079680234194,-0.0183732733130455,0.007915796712040901,-0.01788650080561638,0.026253778487443924
174,-0.011985733173787594,-0.005708584561944008,-0.07202332466840744,-0.025652941316366196,-0.023104684427380562,-0.007319947704672813,0.05616108328104019,-0.005642544478178024,0.0020514826755970716,-0.01189250685274601
175,0.03299333527684212,0.0009026993066072464,0.011346112005412579,-0.010161723010241985,-0.02236446738243103,-0.0067911455407738686,-0.053614795207977295,-0.005069355014711618,-0.03581118583679199,0.01615503989160061
176,0.02262035943567753,-0.006599136162549257,-0.004391970578581095,0.005001918412744999,-0.0018711555749177933,0.006221385672688484,-0.008811978623270988,0.0112359169870615,-0.028807498514652252,0.05539632961153984
177,-0.0009913875255733728,-0.0014425102854147553,-0.0471377857029438,-0.015385995618999004,-0.017089277505874634,-0.0023450073786079884,0.03262386843562126,0.00015798269305378199,-0.0015843519940972328,-0.002098741475492716
178,-0.00223439559340477,0.011463068425655365,-0.06108734384179115,-0.017176903784275055,-0.019604118540883064,-0.002383406274020672,0.025440197438001633,-0.006585969589650631,-0.04935331270098686,0.012820298783481121
179,-0.02266715280711651,0.007570010609924793,0.034972622990608215,-0.03063356876373291,0.019146842882037163,-0.022524137049913406,0.051078952848911285,-0.015403221361339092,0.10177482664585114,-0.022708622738718987
180,-0.014766138046979904,0.0027793932240456343,-0.027902517467737198,-0.0005117495311424136,-0.005937532521784306,0.00011910451576113701,0.022981366142630577,0.00147176010068506,-0.007919831201434135,-0.004251121077686548
181,0.02429162710905075,0.007682880386710167,-0.005221230909228325,-0.0008932417258620262,-0.003060478251427412,0.004126203246414661,-0.00822667870670557,0.006915581412613392,-0.020741045475006104,0.0367424450814724
182,-0.0040706307627260685,0.0066292304545640945,-0.03824806958436966,-0.008345584385097027,-0.005241519305855036,0.0019554155878722668,0.02342906966805458,0.00431804358959198,0.0020810451824218035,0.000866991700604558
183,-0.012737639248371124,-0.00879685953259468,-0.06605148315429688,-0.022620534524321556,-0.021428901702165604,-0.00526640797033906,0.047300245612859726,-0.003849309403449297,7.464457303285599e-05,-0.008262771181762218
184,7.255515083670616e-05,-0.015818823128938675,-0.009826288558542728,-0.0017687010113149881,-0.006399862468242645,0.00453609973192215,-0.009299660101532936,0.006391903851181269,-0.012499658390879631,0.020696384832262993
185,0.013112684711813927,0.005480210296809673,-0.02077432908117771,0.0020195136312395334,-0.00246690702624619,0.00547619117423892,0.02558957040309906,0.008746110834181309,-0.00880992691963911,0.03804025799036026
186,0.017287977039813995,-0.006935478188097477,-0.023251861333847046,-0.003814424155279994,-0.0066462187096476555,0.0031674103811383247,0.007786754984408617,0.0068101948127150536,-0.005424166098237038,0.0246795155107975
187,-0.0025117730256170034,-0.013384109362959862,-0.060947369784116745,-0.012304501608014107,-0.013978194445371628,0.0021533528342843056,0.03655685484409332,-0.0013422220945358276,-0.007973714731633663,-0.0009431510698050261
188,0.013670958578586578,-0.0015815962105989456,0.014837324619293213,0.005718833301216364,0.007481342647224665,0.004232015926390886,-0.005597356241196394,0.008282041177153587,-0.009828509762883186,0.0525476448237896
189,0.01758795604109764,0.013302345760166645,-0.003470349358394742,0.0012291984166949987,-0.007480691187083721,-0.0030549210496246815,-0.04578913003206253,-0.003644670592620969,-0.012720802798867226,0.01465919241309166
190,0.0337383858859539,-0.012669923715293407,0.0064818598330020905,0.011763658374547958,0.00040186778642237186,0.017041949555277824,-0.06253300607204437,0.014182066544890404,-0.017647070810198784,0.052312273532152176
191,0.010983383283019066,-0.011869639158248901,-0.022498445585370064,-0.002715995069593191,-0.009642867371439934,0.0030393931083381176,-0.0006249852012842894,0.002499051857739687,-0.032215848565101624,0.015708712860941887
192,0.006139741279184818,-0.02268586866557598,0.0007499546045437455,0.00022069504484534264,0.005660861264914274,1.9837170839309692e-06,0.010590488091111183,0.00978764332830906,-0.0029704843182116747,0.04674992337822914
193,-0.027554800733923912,0.03336106240749359,0.007947389967739582,-0.018276821821928024,0.0007594693452119827,-0.00881083495914936,0.027261367067694664,-0.0036867328453809023,0.031629644334316254,-0.004390971269458532
194,-0.007692350540310144,0.0020015561021864414,-0.020543968304991722,-0.014341285452246666,-0.013640128076076508,-0.012377985753118992,-0.01705201528966427,-0.009753437712788582,-0.0007622040575370193,-0.011480594053864479
195,-0.011985729448497295,-0.005708587355911732,-0.07202332466840744,-0.025652941316366196,-0.023104684427380562,-0.007319947704672813,0.05616109073162079,-0.005642544943839312,0.002051481045782566,-0.011892508715391159
196,-0.01107965037226677,0.00198064255528152,-0.045881208032369614,-0.019879307597875595,-0.011240486055612564,-0.0057417284697294235,0.043129999190568924,-0.0034260135143995285,0.014960420317947865,-0.009784317575395107
197,-0.012763731181621552,0.00415380485355854,-0.054344333708286285,-0.012860574759542942,-0.010797098278999329,0.00015839817933738232,0.039549097418785095,0.004004036542028189,0.0010994914919137955,0.006705419160425663
198,0.012887249700725079,0.027139797806739807,0.01811312884092331,0.008380633778870106,0.010905072093009949,0.01179315522313118,-0.019729746505618095,0.017573151737451553,-0.040830500423908234,0.04905593395233154
199,-0.012504720129072666,0.014386718161404133,0.006789017468690872,-0.007880492135882378,0.0006417069816961884,-0.0034940969198942184,0.008497387170791626,-0.004496445879340172,0.021130328997969627,0.0024758647195994854
200,-0.0040105483494699,-0.012899667024612427,-0.01507248729467392,0.00462921429425478,-0.0023102802224457264,0.01225216593593359,-0.01119354646652937,0.013456115499138832,-0.010385721921920776,0.032476410269737244
201,-0.0176877249032259,-0.02912794053554535,-0.026736754924058914,-0.002657171804457903,-0.010396643541753292,0.008252747356891632,-0.011033633723855019,0.007956147193908691,-0.012939542531967163,0.015632985159754753
202,-0.0027706651017069817,-0.0031772241927683353,-0.0038700541481375694,-0.006456353235989809,-0.007117327768355608,0.0006039976142346859,-0.008055096492171288,0.0010898747714236379,-0.01792629435658455,0.035662174224853516
203,-0.003404242219403386,-0.0050111147575080395,-0.0514233261346817,-0.014365623705089092,-0.011360559612512589,-0.0015252565499395132,0.036310166120529175,0.0020758621394634247,-9.22088511288166e-05,0.0027052396908402443
204,-0.0036120605655014515,-0.00446391012519598,-0.05438101664185524,-0.017496753484010696,-0.016085045412182808,-0.004931950941681862,0.03645802661776543,-0.0011210552183911204,-0.004878457635641098,0.007780488580465317
205,0.00358505523763597,0.0015214674640446901,-0.038384005427360535,-0.015060663223266602,-0.01665862277150154,-0.004011612385511398,0.012165738269686699,-0.002057804726064205,-0.0015225638635456562,0.005780356470495462
206,-0.010667217895388603,-0.018719088286161423,-0.03515862300992012,-0.006492597982287407,-0.009579414501786232,0.004669237416237593,0.007176951505243778,0.0062446193769574165,-0.007658123970031738,0.01162180956453085
207,0.0001485820976085961,0.0011885324493050575,-0.011365186423063278,0.004606964066624641,0.0017394560854882002,-0.00026990004698745906,0.003527191234752536,-0.004069631453603506,0.0004497733316384256,-0.008252765983343124
208,-0.0731908663664013,-0.01074432779116067,0.017986355498988964,-0.018870285598444028,-0.008118321515136,-0.011061711298527569,-0.06882284050068468,-0.006980472294469864,-0.01219991391721301,-0.03792371880283543
209,-0.012417108751833439,-0.022429320961236954,0.02388136275112629,-0.03189932927489281,-0.006993541028350592,-0.02625814639031887,0.052621617913246155,-0.023848123848438263,0.04143822193145752,-0.057675331830978394
210,0.002192049752920866,0.05020957812666893,0.005930115468800068,0.01494878251105547,0.015460887923836708,0.014233182184398174,-0.005946052260696888,0.012137718498706818,0.0127002764493227,-0.008317790925502777
211,0.019298139959573746,0.0118311932310462,-0.0001307736965827644,0.0012733968906104565,-0.010595006868243217,-0.004892325960099697,-0.040648870170116425,-0.0039641959592700005,-0.019855642691254616,0.019740836694836617
212,-0.011985729448497295,-0.005708587355911732,-0.07202332466840744,-0.025652941316366196,-0.023104684427380562,-0.007319947704672813,0.05616109073162079,-0.005642544943839312,0.002051481045782566,-0.011892508715391159
213,0.029748819768428802,0.001730646938085556,-0.0061927372589707375,-0.008561230264604092,-0.01659136451780796,-0.0050423541106283665,-0.04605457931756973,-0.00190693698823452,-0.026022039353847504,0.00523330457508564
214,0.00724525423720479,-0.04279054328799248,-0.006675797048956156,0.008169199340045452,-0.0041662584990262985,0.011881187558174133,-0.049625612795352936,0.013304503634572029,-0.022915860638022423,0.04332898184657097
215,0.021946772933006287,-0.025002384558320045,0.003872682573273778,0.019261103123426437,0.008991474285721779,0.011070553213357925,-0.007312809117138386,0.023518593981862068,-0.042921870946884155,0.0863223597407341
216,0.010366110131144524,0.002158062532544136,0.006258588284254074,0.0023130031768232584,0.004373624455183744,0.006550793536007404,0.015321764163672924,0.013768685981631279,-0.01712832599878311,0.03927895799279213
217,0.016270767897367477,-0.02104182168841362,0.011768754571676254,0.009669413790106773,-0.001845265389420092,0.006462334655225277,-0.008420836180448532,0.008915450423955917,-0.0318935364484787,0.034812550991773605
218,0.01059586089104414,-0.006759686395525932,-0.018537349998950958,-0.004367811139672995,-0.012667087838053703,-0.007827844470739365,-0.01843765564262867,0.002699854550883174,-0.01788034662604332,0.015617595985531807
219,-0.022977609187364578,0.011449712328612804,0.029068617150187492,-0.024131901562213898,0.01657423935830593,-0.014368836767971516,0.04909909516572952,-0.00777654442936182,0.07912447303533554,-0.013806125149130821
220,0.007766210474073887,-0.03595859929919243,-0.008252399042248726,0.005751027725636959,-0.004647485911846161,0.010655956342816353,-0.04059428721666336,0.011201810091733932,-0.019447127357125282,0.03677934780716896
221,-0.001604884397238493,-0.018290257081389427,-0.004787657409906387,0.0024477525148540735,0.003022784134373069,0.005958824418485165,-0.02995000034570694,0.010320422239601612,-0.010159898549318314,0.02195492573082447
222,-0.04063718020915985,-0.04238244518637657,-0.034023772925138474,-0.02784091606736183,-0.027288582175970078,-0.020153723657131195,-0.02425195463001728,-0.015666164457798004,-0.012664921581745148,-0.012645464390516281
223,0.01867559738457203,0.009346643462777138,-0.0013547639828175306,-0.00957068707793951,-0.016418080776929855,-0.005956470500677824,-0.046059854328632355,-0.00463975640013814,-0.00641885120421648,0.022438494488596916
224,-0.0072690993547439575,0.0012340493267402053,-0.04138831049203873,-0.010187688283622265,-0.004990334156900644,-0.0001311744563281536,0.027041159570217133,0.001966967713087797,0.0029316572472453117,0.003109508892521262
225,-0.003404242219403386,-0.0050111147575080395,-0.0514233261346817,-0.014365623705089092,-0.011360559612512589,-0.0015252565499395132,0.036310166120529175,0.0020758621394634247,-9.22088511288166e-05,0.0027052396908402443
226,0.03587331622838974,-0.014556299895048141,-0.005024957470595837,0.007316123228520155,-0.0003308551385998726,0.014690553769469261,-0.024389272555708885,0.003234715200960636,0.006414702162146568,0.01976866088807583
227,0.006321759894490242,-0.01409333385527134,0.014738497324287891,0.00280678179115057,0.0006469632498919964,0.002189973369240761,-0.023934686556458473,0.004756830632686615,-0.0185414869338274,0.047237150371074677
228,-0.0005437489598989487,-0.004778622183948755,-0.04455665498971939,-0.010603183880448341,-0.007445851806551218,0.0004063076339662075,0.02969319000840187,0.0046486621722579,-0.0008067782036960125,0.007571149617433548
229,-0.0031337866093963385,-0.01625669002532959,-0.01883074641227722,-0.005823550280183554,-0.01187338400632143,-0.0038230703212320805,-0.037780389189720154,-0.004549835342913866,-0.015226807445287704,0.01552610658109188
230,-0.012755969539284706,-0.014544345438480377,-0.047260832041502,-0.01320580206811428,-0.016459215432405472,3.705394919961691e-05,0.01681423746049404,0.000688191328663379,-0.005535656586289406,0.0027021742425858974
231,-0.0021783183328807354,-0.004911470226943493,-0.04848046600818634,-0.012753147631883621,-0.009682826697826385,-0.0006974425632506609,0.03347431868314743,0.003178492421284318,-0.0003984491340816021,0.004790628794580698
232,0.03918203338980675,-0.03807411715388298,-0.006908475421369076,0.0207070205360651,0.011292568407952785,0.02027677372097969,-0.023547539487481117,0.030800288543105125,-0.02756328694522381,0.04977673292160034
233,0.01309695653617382,0.00102530256845057,0.0011746090603992343,-0.002643632236868143,-0.0019204251002520323,0.004599797539412975,-0.019331105053424835,0.003732028417289257,-0.007677911780774593,0.006209987215697765
234,0.027108382433652878,-0.027909889817237854,0.014600738883018494,0.020924318581819534,0.006139260716736317,0.024472462013363838,-0.04698481783270836,0.023385077714920044,-0.002344319596886635,0.04819951206445694
235,-0.006736185401678085,0.05319059640169144,0.014452943578362465,0.015734566375613213,0.01923464424908161,0.015878096222877502,-0.028095325455069542,0.013286766596138477,0.01077407319098711,-0.00648597814142704
236,0.02323438972234726,-0.024005990475416183,-0.022195762023329735,0.009803574532270432,-0.005617950111627579,0.01786922663450241,0.0030365700367838144,0.018278706818819046,-0.022782770916819572,0.033871110528707504
237,0.008831869810819626,0.0073153311386704445,-0.03037978708744049,-0.007227779366075993,-0.009241645224392414,-0.0019551212899386883,0.015747254714369774,-0.0002540876448620111,0.0040678284130990505,0.007556047290563583
238,0.022340215742588043,-0.0029186690226197243,0.010376700200140476,0.019496334716677666,0.023871827870607376,0.01585882157087326,-0.02324257232248783,0.025231076404452324,-0.0065232934430241585,0.04649847000837326
239,0.020228493958711624,0.014685288071632385,-0.004652662668377161,-0.001809092704206705,-0.002966204658150673,0.0014307639794424176,-0.0030983220785856247,0.004926236812025309,-0.020623430609703064,0.0540807843208313
240,-0.011227240785956383,-0.011738990433514118,-0.03559614717960358,-0.010213172063231468,-0.011824868619441986,-0.001937880297191441,0.00841921754181385,-0.0006033782847225666,-0.0033488606568425894,0.0051182350143790245
241,-0.011983508244156837,-0.0061736986972391605,-0.06555043905973434,-0.02332654595375061,-0.022465255111455917,-0.006768492981791496,0.05287003144621849,-0.0060372017323970795,0.005174157675355673,-0.012925907969474792
242,-0.02767185042819759,0.08320145895356218,-0.03539886684479337,-0.004953394224136408,-0.012012506939014235,-0.0019695973228788842,0.059871975338066,0.01060414726277666,-0.07588198598488513,-0.0009518838489092751
243,0.010498046875,0.006647232919931412,-0.027093324810266495,-0.0038083307445049286,-0.006809237413108349,-0.005681407172232866,-0.01605408452451229,-0.006110033020377159,-0.02561897784471512,-0.00579029181972146
244,0.022340215742588043,-0.0029186690226197243,0.010376700200140476,0.019496334716677666,0.023871827870607376,0.01585882157087326,-0.02324257232248783,0.025231076404452324,-0.0065232934430241585,0.04649847000837326
245,0.036259010434150696,0.01135287806391716,-0.007177974563091993,-0.0031095664016902447,-0.01759287901222706,-0.005755175836384296,-0.05635461583733559,0.0010066560935229063,-0.026885248720645905,0.026316877454519272
246,-0.00556817976757884,-0.011241298168897629,-0.04106422886252403,-0.009169059805572033,-0.008912382647395134,0.002136081922799349,0.020115476101636887,0.005068606231361628,-0.00388099392876029,0.00884180422872305
247,0.011357532814145088,-0.004457277711480856,-0.016392773017287254,-0.007163623813539743,-0.007532756309956312,0.002812555991113186,0.012756428681313992,0.005606948398053646,-0.0006423525046557188,0.011284464970231056
248,-0.003802030812948942,-0.018161103129386902,-0.018678609281778336,0.002537257270887494,-0.00018411176279187202,0.009304989129304886,-0.008703787811100483,0.012419342994689941,-0.009373078122735023,0.02330000326037407
249,0.009247936308383942,0.011335063725709915,0.009561946615576744,0.013317231088876724,0.02031087502837181,0.011799742467701435,-0.02014668472111225,0.016438748687505722,0.003907124046236277,0.02429971471428871
250,0.0181687381118536,-0.015487341210246086,-0.026431525126099586,0.008371745236217976,0.000665393890812993,0.012763182632625103,0.006868263706564903,0.016641246154904366,-0.01856686919927597,0.03150271624326706
251,-0.0005927862948738039,-0.008934678509831429,-0.010790492407977581,-0.00419630715623498,-0.0038842419162392616,-0.004487102851271629,0.0003445865004323423,-0.00275622820481658,0.00293014757335186,-0.006952050141990185
252,0.018801458179950714,0.0426931194961071,0.018186695873737335,-0.002715985756367445,-0.02014150284230709,-0.009763749316334724,-0.04503986984491348,0.0007400696631520987,-0.023345451802015305,0.0065660360269248486
253,-0.009749190881848335,-0.04233875125646591,0.0131099047139287,0.002320715691894293,-0.010956492274999619,-0.00423843041062355,-0.03645648807287216,-0.008230417966842651,-0.03418556600809097,0.024871625006198883
254,-8.293232531286776e-05,-0.0033811735920608044,-0.006268927361816168,-0.004619676154106855,0.006115865893661976,0.0009625698439776897,0.015022271312773228,0.005062308628112078,0.023216862231492996,0.008902602829039097
255,0.004150811117142439,-0.03766568377614021,-0.03274501860141754,-0.005522864870727062,-0.01814759336411953,0.0014654905535280704,-0.029443254694342613,0.002565796719864011,-0.019760459661483765,0.029498424381017685
256,-0.014326771721243858,0.008634006604552269,-0.020750656723976135,-0.007944110780954361,-0.007297569885849953,0.004935640841722488,0.024930406361818314,0.0028365389443933964,-0.029580164700746536,0.021300937980413437
257,0.021617481485009193,-0.003416764549911022,-0.013098565861582756,0.010695294477045536,0.006774049252271652,0.013084987178444862,-0.001576123759150505,0.006667282432317734,0.012101145461201668,0.028519440442323685
258,-0.005461020395159721,0.009293034672737122,0.0010510331485420465,-0.009182263165712357,-0.004721495322883129,-0.00978789571672678,-0.011323720216751099,-0.004343693144619465,-0.007433036342263222,0.01221736054867506
259,0.002761732554063201,-0.007314671296626329,-0.026428984478116035,-0.0047072661109268665,-0.01167518924921751,0.0010565351694822311,-0.011602643877267838,0.0017793443985283375,-0.010399574413895607,0.015628814697265625
260,0.00174465193413198,-0.004592623561620712,-0.039063312113285065,-0.007593232672661543,-0.004314081743359566,0.001951559679582715,0.024399615824222565,0.006706904619932175,-0.001378428190946579,0.011463881470263004
261,0.018302273005247116,-0.02005106955766678,-0.013954320922493935,0.00561485905200243,-0.009887668304145336,0.007121571339666843,-0.015846874564886093,0.006201142445206642,-0.0335044339299202,0.033921584486961365
262,-0.00031749490881338716,-0.013157010078430176,-0.04390016198158264,-0.008410927839577198,-0.0062613291665911674,-0.0003608791157603264,0.013567243702709675,0.0011240046005696058,-0.01010134443640709,0.009893566370010376
263,-0.008943377994000912,0.002938934601843357,-0.03008684143424034,-0.016545500606298447,-0.0037679392844438553,-0.005110017489641905,0.03618000075221062,-0.0016166636487469077,0.02253873646259308,-0.005505832843482494
264,0.005611462518572807,-0.007054987363517284,-0.027986854314804077,-0.009194992482662201,-0.014880198054015636,-0.009260738268494606,-0.0050616092048585415,0.000713986111804843,-0.015139006078243256,0.009738320484757423
265,-0.013225559145212173,-0.02424834668636322,0.002249596407637,0.012166175991296768,0.0033275694586336613,0.016660993918776512,-0.042454224079847336,0.016539206728339195,-0.015061413869261742,0.028071532025933266
266,0.004995942115783691,-0.013489287346601486,-0.03850599750876427,-0.00858562532812357,-0.010530423372983932,-0.00012020429130643606,0.03141836076974869,0.004408430308103561,-0.011291343718767166,0.02113618142902851
267,0.016627170145511627,0.0011339494958519936,0.005751165561378002,0.004252260085195303,0.0012524479534476995,0.005226661451160908,-0.02222573384642601,0.00792219489812851,-0.04783486947417259,0.059774402529001236
268,-0.005399425979703665,-0.0005523152649402618,-0.014630689285695553,-0.006812768056988716,-0.008664353750646114,-0.005794540047645569,-0.014387179166078568,-0.001976329367607832,-0.009103666059672832,-0.0012149232206866145
269,-0.017868028953671455,-0.010407441295683384,-0.04695938155055046,-0.01880800910294056,-0.014121762476861477,-0.007646809332072735,0.023900555446743965,-0.008265097625553608,0.007614633999764919,-0.00867778342217207
270,-0.0029910060111433268,0.008907604962587357,-0.050922516733407974,-0.0193326435983181,-0.015812398865818977,-0.006164041347801685,0.02449357695877552,-0.0043947515077888966,-0.015218645334243774,-0.009055245667696
271,0.0072860997170209885,0.0012309150770306587,-0.036209944635629654,-0.012072966434061527,-0.014122836291790009,-0.0034824281465262175,0.005020043812692165,0.001073940540663898,-0.002122685546055436,0.004196786321699619
272,-0.012336820798959328,0.0028471592466988837,-0.011071569794528852,0.0015035405826769924,-0.005499430922450938,0.0025231000968101392,0.04280107145955002,-0.005348783123276173,-0.06388378005666383,-0.0035527637269289394
273,0.01106785424053669,-0.040154144167900085,-0.011251921765506268,0.018992241472005844,-0.0011164196766912937,0.013801449909806252,-0.019014274701476097,0.016024149954319,-0.0008051175391301513,0.030594320967793465
274,0.007629097905009985,-0.004114352632313967,-0.024937601760029793,0.00014664558693766594,0.0037390352226793766,0.005925063509494066,0.010787567123770714,0.011999526061117649,-0.002848389558494091,0.021473761647939682
275,0.025914575904607773,0.017408866435289383,0.022005608305335045,0.03250869736075401,0.022773921489715576,0.03128717839717865,-0.03761032968759537,0.029902536422014236,-0.013902615755796432,0.02996116504073143
276,-0.003404242219403386,-0.0050111147575080395,-0.0514233261346817,-0.014365623705089092,-0.011360559612512589,-0.0015252565499395132,0.036310166120529175,0.0020758621394634247,-9.22088511288166e-05,0.0027052396908402443
277,0.012005442753434181,-0.020108848810195923,-0.026813741773366928,0.0014796382747590542,-0.003380914218723774,0.007700992748141289,-0.0034372468944638968,0.011479934677481651,-0.011395981535315514,0.02882090024650097
278,0.012684503570199013,-0.01969296857714653,0.0005998784326948225,0.002452984917908907,0.0023646627087146044,0.007821273058652878,-0.01864759251475334,0.013500127010047436,-0.021851355209946632,0.033940911293029785
279,-0.012196414172649384,-0.0073084584437310696,-0.05964093655347824,-0.021744122728705406,-0.018700525164604187,-0.006328888237476349,0.047814879566431046,-0.006815996021032333,0.004303780384361744,-0.00962830986827612
280,0.005344284698367119,-0.013134229928255081,-0.013827512040734291,-0.0006841239519417286,-0.007001190446317196,0.0025445392820984125,-0.026903126388788223,0.00301175145432353,-0.009349513798952103,0.012465916574001312
281,0.014695703983306885,-0.0016519392374902964,-0.008929625153541565,0.008302670903503895,0.00019276654347777367,0.010844336822628975,-0.020673081278800964,0.013491332530975342,-0.00945363286882639,0.025199351832270622
282,-0.011955434456467628,0.022176595404744148,-0.023413652554154396,-0.016526296734809875,-0.007551462855190039,-0.009940962307155132,0.02576407417654991,-0.011151681654155254,-0.015529055148363113,-0.005004559177905321
283,-0.0006784435827285051,0.011916867457330227,-0.023772960528731346,-0.000928147230297327,0.002414125483483076,0.005930570885539055,0.009401068091392517,0.008586867712438107,0.002093716524541378,0.006335350684821606
284,0.022340215742588043,-0.0029186690226197243,0.010376700200140476,0.019496334716677666,0.023871827870607376,0.01585882157087326,-0.02324257232248783,0.025231076404452324,-0.0065232934430241585,0.04649847000837326
285,0.005177243147045374,-0.004313628189265728,-0.03082331456243992,-0.0030783028341829777,0.00038356782170012593,0.004269437398761511,0.016459256410598755,0.009794266894459724,-0.0022359052672982216,0.0173029787838459
286,-0.011985733173787594,-0.005708584561944008,-0.07202332466840744,-0.025652941316366196,-0.023104684427380562,-0.007319947704672813,0.05616108328104019,-0.005642544478178024,0.0020514826755970716,-0.01189250685274601
287,-0.012352284044027328,0.0020105266012251377,0.017217732965946198,-0.01633623242378235,0.015212781727313995,-0.010834994725883007,0.01811550185084343,-0.003223223378881812,0.05583838000893593,-0.003255987074226141
288,-0.010078728199005127,-0.005553595721721649,-0.0674455538392067,-0.02314465120434761,-0.020494885742664337,-0.006032239645719528,0.051749758422374725,-0.003927342593669891,0.0015751034952700138,-0.008648566901683807
289,-0.00476603489369154,0.01664752885699272,-0.028913307934999466,-0.017619002610445023,-0.011715703643858433,-0.011186311952769756,0.020371923223137856,-0.00763816200196743,0.0030756392516195774,-0.010242393240332603
290,0.003441429231315851,-0.0013254804071038961,0.0017911934992298484,-0.0029734065756201744,-0.003517674980685115,-0.0043894946575164795,-0.03234506770968437,-0.000947119842749089,-0.01833747699856758,0.015931032598018646
291,-0.006875095423310995,0.016875946894288063,0.011344296857714653,0.015710193663835526,0.014024494215846062,0.016874773427844048,-0.036240510642528534,0.01624530740082264,-0.0015316864009946585,0.013020377606153488
292,0.026342853903770447,-0.002688908949494362,0.012499899603426456,0.012401514686644077,0.006582873407751322,0.01058679074048996,0.00024511292576789856,0.0167683158069849,-0.02302824892103672,0.060818061232566833
293,0.01415267214179039,0.010376046411693096,-0.02069811150431633,0.0004862684290856123,-0.0035779813770204782,0.004408084321767092,0.002399415709078312,0.006290024146437645,-0.01925572194159031,0.03264012187719345
294,0.03514134883880615,-0.04255414009094238,0.02208598516881466,0.024212297052145004,0.016427740454673767,0.021078787744045258,-0.06702530384063721,0.026287298649549484,-0.024656785652041435,0.06876836717128754
295,-0.0026931732427328825,-0.013762261718511581,-0.013669464737176895,-0.002833619015291333,-0.005057709291577339,-0.0019643036648631096,-0.021576974540948868,-0.0016754280077293515,-0.013362609781324863,0.01417431328445673
296,0.011034848168492317,-0.014307348057627678,-0.011682292446494102,-0.0035916888155043125,-0.0096945371478796,0.0027542959433048964,-0.03295323997735977,0.0033736126497387886,-0.015614187344908714,0.03367636352777481
297,0.010179749689996243,0.005297795869410038,0.010993992909789085,0.00039528263732790947,-0.0014774566516280174,0.001197395846247673,-0.006348022725433111,0.0010730408830568194,-0.028290700167417526,0.05566191300749779
298,0.002826262386117712,0.06568622274245903,0.06355765778682575,0.01425350927563126,0.027133431189729402,0.028840632598502468,-0.015467325356177711,0.01002709009254759,0.03430222156516749,0.03589544297498515
299,-0.012417108751833439,-0.022429320961236954,0.02388136275112629,-0.03189932927489281,-0.006993541028350592,-0.02625814639031887,0.052621617913246155,-0.023848123848438263,0.04143822193145752,-0.057675331830978394
300,-0.009030474349856377,-0.021209586411714554,-0.024489672854542732,-0.0008545578457415104,-0.0049952976405620575,0.00799422524869442,-0.005796028766781092,0.009856997057795525,-0.009943031705915928,0.01866031065583229
301,0.016203273087739944,-0.007501362822949886,-0.00419841893017292,0.0024244326632469893,0.0024682306684553623,0.0074605937115848064,-0.00297843967564404,0.009323903359472752,-0.03863674774765968,0.05169017240405083
302,0.022340215742588043,-0.0029186690226197243,0.010376700200140476,0.019496334716677666,0.023871827870607376,0.01585882157087326,-0.02324257232248783,0.025231076404452324,-0.0065232934430241585,0.04649847000837326
303,-0.004023089539259672,0.003204789012670517,-0.041318755596876144,-0.008881286717951298,-0.006662375293672085,0.0016228980384767056,0.021214816719293594,0.004505825228989124,-0.0017349449917674065,0.002431298838928342
304,0.022340215742588043,-0.0029186690226197243,0.010376700200140476,0.019496334716677666,0.023871827870607376,0.01585882157087326,-0.02324257232248783,0.025231076404452324,-0.0065232934430241585,0.04649847000837326
305,0.014404280111193657,0.0016680890694260597,0.00322063360363245,0.002788862446323037,-0.0014932050835341215,-0.0010858982568606734,-0.0064459736458957195,0.004182612989097834,-0.02051541395485401,0.04641483724117279
306,0.007447785697877407,0.026192868128418922,-0.004355880431830883,0.009188348427414894,0.009517796337604523,0.015217168256640434,-0.0059229303151369095,0.011003805324435234,-0.011328959837555885,0.007021232973784208
307,-8.293232531286776e-05,-0.0033811735920608044,-0.006268927361816168,-0.004619676154106855,0.006115865893661976,0.0009625698439776897,0.015022271312773228,0.005062308628112078,0.023216862231492996,0.008902602829039097
308,0.0023461640812456608,-0.02590034157037735,-0.03987749665975571,-0.002458651550114155,-0.007248941343277693,-0.0010282902512699366,0.02594560943543911,0.0013758598361164331,-0.005263704806566238,0.008364439010620117
309,-0.022061869502067566,-0.007896658964455128,-0.026065407320857048,-0.013945535756647587,-0.014494172297418118,-0.01563587598502636,-0.021174771711230278,-0.016185926273465157,-0.0053877877071499825,-0.014637957327067852
310,0.010898233391344547,-0.003848644671961665,-0.017089975997805595,0.004446574952453375,0.008212986402213573,0.008132564835250378,0.0032253041863441467,0.01493986789137125,-0.0036650358233600855,0.027034804224967957
311,0.028140012174844742,0.013668637722730637,-0.001655517378821969,0.009223777800798416,0.0030938235577195883,0.009371329098939896,-0.022059572860598564,0.010697565041482449,-0.0025736794341355562,0.018446432426571846
312,-0.008788349106907845,-0.006142331287264824,-0.03947171941399574,-0.01676074229180813,-0.009347900748252869,-0.004361859522759914,0.0365932360291481,-0.00014843547251075506,0.013911476358771324,-0.0025021631736308336
313,-0.012681604363024235,0.031214460730552673,-0.005859173368662596,-0.012176621705293655,-0.0039067342877388,-0.010124439373612404,0.010447422973811626,-0.00960283912718296,0.015393775887787342,-0.022838031873106956
314,0.034660015255212784,-0.02459830604493618,0.002211432671174407,0.008811564184725285,-0.00958049576729536,0.007691573351621628,-0.059568122029304504,0.006340252235531807,-0.02848578430712223,0.05595150589942932
315,-0.004472317174077034,0.010686853900551796,-0.016354255378246307,-0.004002775065600872,0.005288527347147465,-0.004048893228173256,0.0014883368276059628,0.00984437856823206,-0.00020528933964669704,0.031116178259253502
316,0.022340215742588043,-0.0029186690226197243,0.010376700200140476,0.019496334716677666,0.023871827870607376,0.01585882157087326,-0.02324257232248783,0.025231076404452324,-0.0065232934430241585,0.04649847000837326
317,-0.01160401850938797,-0.008375363424420357,-0.0342973954975605,-0.006612303666770458,-0.008518284186720848,0.004437321797013283,0.0089157335460186,0.005156149156391621,-0.004210198298096657,0.005304178688675165
318,0.042404673993587494,0.016042398288846016,0.024023965001106262,0.004555207677185535,0.006856654770672321,0.011422259733080864,0.0201222226023674,0.01422840729355812,-0.020095445215702057,0.06579971313476562
319,0.000522170215845108,-0.007660689298063517,-0.05210765078663826,-0.011629810556769371,-0.011830274015665054,0.000927566085010767,0.03629506751894951,0.0040609706193208694,-0.0024292138405144215,0.006003631744533777
320,-0.006123753264546394,0.018471043556928635,-0.021188870072364807,-0.00010789511725306511,-0.0042305332608520985,0.0009251664159819484,-0.0036527097690850496,0.0012408755719661713,-0.03133995458483696,0.012192897498607635
321,-0.01859225332736969,-0.003013237379491329,-0.029699159786105156,-0.01682894676923752,-0.01176671776920557,-0.0067893145605921745,0.004885813221335411,-0.004320542793720961,-0.005318041425198317,-0.007714414969086647
322,0.022340215742588043,-0.0029186690226197243,0.010376700200140476,0.019496334716677666,0.023871827870607376,0.01585882157087326,-0.02324257232248783,0.025231076404452324,-0.0065232934430241585,0.04649847000837326
323,-0.005163207650184631,-0.02153817005455494,-0.0027741550002247095,0.005040350835770369,0.00204039691016078,0.005904924590140581,0.0028738039545714855,0.010982315987348557,-0.0030868700705468655,0.012583138421177864
324,0.03561133358191875,0.02949779735195053,0.05728470873466868,0.029422373800173093,0.02953263841879826,0.01595042351423009,-0.011809097632623826,0.008212036373908932,0.055472775513097296,0.04804712496748141
325,0.017284421250224113,0.009799332357943058,-0.01583452895283699,-0.0069023920223116875,-0.015323267318308353,-0.004929005168378353,-0.005251837894320488,-0.0010576610220596194,-0.016144126653671265,0.007639947347342968
326,-0.004625673871487379,0.002348567359149456,-0.051961854100227356,-0.016793951392173767,-0.013469131663441658,-0.0021838233806192875,0.03225453943014145,0.0009531733812764287,0.0007640023250132799,-0.0027383838314563036
327,0.022340215742588043,-0.0029186690226197243,0.010376700200140476,0.019496334716677666,0.023871827870607376,0.01585882157087326,-0.02324257232248783,0.025231076404452324,-0.0065232934430241585,0.04649847000837326
328,0.022340215742588043,-0.0029186708852648735,0.010376702062785625,0.019496332854032516,0.023871826007962227,0.01585882157087326,-0.023242570459842682,0.025231076404452324,-0.006523296236991882,0.046498462557792664
329,0.022340215742588043,-0.0029186690226197243,0.010376700200140476,0.019496334716677666,0.023871827870607376,0.01585882157087326,-0.02324257232248783,0.025231076404452324,-0.0065232934430241585,0.04649847000837326
330,0.036127425730228424,-0.0011397069320082664,0.004889725241810083,0.012692947871983051,0.002697728341445327,0.013747435063123703,-0.019176308065652847,0.012657960876822472,-0.03546715900301933,0.072333425283432
331,0.006860834546387196,0.02084062620997429,0.0029045003466308117,0.008063418790698051,0.015973679721355438,0.012213421985507011,0.0024761196691542864,0.02079540118575096,0.0038330431561917067,0.029450852423906326
332,-0.008916841819882393,-0.010378286242485046,-0.052019067108631134,-0.015081618912518024,-0.014509471133351326,-0.0010855962755158544,0.03183675929903984,0.001130663906224072,-0.002232724567875266,0.0013046870008111
333,0.005152237135916948,-0.005033392459154129,-0.013786926865577698,0.0023774192668497562,-0.000999288517050445,0.006249505095183849,-0.01325175166130066,0.011774723418056965,-0.014479571022093296,0.040400080382823944
334,-0.006260772701352835,-0.0225578173995018,-0.030376063659787178,0.00641509797424078,-0.010501263663172722,0.011666031554341316,-0.06147328019142151,0.0055806939490139484,-0.0316527783870697,0.03695042431354523
335,0.0016411049291491508,-0.011159870773553848,-0.02246207371354103,0.0009836219251155853,0.0014046316500753164,0.007431068457663059,0.0016720748972147703,0.011964404955506325,-0.006042681634426117,0.02192346565425396
336,-0.00016233266796916723,-0.02301093190908432,-0.021603045985102654,0.004035593941807747,-0.01064510177820921,0.0023035085760056973,-0.0529777854681015,0.0007037753239274025,-0.010949155315756798,0.029566289857029915
337,0.005094393156468868,-0.025187481194734573,-0.02467832714319229,-0.00586695596575737,-0.01761971227824688,-0.0018963884795084596,-0.03306017071008682,0.0007210075273178518,-0.013219809159636497,0.027742674574255943
338,-0.012260176241397858,-0.006438637617975473,-0.039357710629701614,-0.019340232014656067,-0.010749873705208302,-0.005994568113237619,0.035491544753313065,-0.003382681170478463,0.016112904995679855,-0.005112968850880861
339,-0.013614870607852936,-0.012399833649396896,-0.05908431485295296,-0.019082721322774887,-0.019473817199468613,-0.002870605792850256,0.036962587386369705,-0.0017572019714862108,-0.0022316696122288704,-0.004028077237308025
340,0.012965033762156963,-0.007045174948871136,-0.008735783398151398,0.014671068638563156,0.01285371370613575,0.013648470863699913,-0.03962180018424988,0.022501539438962936,-0.02619743160903454,0.03926567733287811
341,-0.00937569048255682,0.009426791220903397,-0.041024595499038696,-0.01036506611853838,-0.006448328495025635,0.0006095981225371361,0.020288845524191856,0.0008041961118578911,0.002543190959841013,-0.0047481609508395195
342,0.026967812329530716,0.011931173503398895,0.005573615897446871,-0.004847699776291847,-0.00023563741706311703,-0.003324811113998294,0.00018202979117631912,0.0006747315637767315,-0.025007043033838272,0.050774071365594864
343,-8.293232531286776e-05,-0.0033811735920608044,-0.006268927361816168,-0.004619676154106855,0.006115865893661976,0.0009625698439776897,0.015022271312773228,0.005062308628112078,0.023216862231492996,0.008902602829039097
344,0.007859248667955399,0.013032669201493263,-0.009932047687470913,-0.0018063790630549192,-0.005681341979652643,-0.0028385519981384277,-0.015733834356069565,-0.003639369970187545,-0.005120736546814442,0.012728005647659302
345,0.006764608435332775,-0.0005114086670801044,-0.017440615221858025,-0.0015300570521503687,0.0015510646626353264,0.0037047220394015312,0.00986920390278101,0.00845889188349247,-0.0034496262669563293,0.022104518488049507
346,-0.00030962086748331785,-0.006661132909357548,-0.024323156103491783,-0.002832876518368721,-0.005495078861713409,0.0003272272879257798,-0.011513954028487206,0.002398144453763962,0.0028271847404539585,0.01277383603155613
347,0.005987608805298805,-0.002898340579122305,-0.008070945739746094,-0.002167494734749198,-0.006167799234390259,-0.00025143101811408997,-0.013936532661318779,0.0010604227427393198,-0.023389054462313652,0.0351080596446991
348,-0.0159516092389822,-0.01860295794904232,-0.028873607516288757,-0.003971659578382969,-0.00935328658670187,0.0069235339760780334,-0.0038581115659326315,0.0066746859811246395,-0.008836876600980759,0.010047433897852898
349,-0.00532936118543148,-0.01307093445211649,-0.05922374129295349,-0.01685524545609951,-0.018043991178274155,-0.0026256192941218615,0.039512500166893005,-0.0014751359121873975,-0.005561636295169592,-0.0009836368262767792
350,-0.00954007264226675,-0.018916571512818336,-0.03230002522468567,-0.010526043362915516,-0.01886461302638054,-0.010128693655133247,-0.014266740530729294,-0.005493826698511839,-0.010994900949299335,0.00953409168869257
351,0.010910265147686005,-0.003323817625641823,0.006529844366014004,0.004135232884436846,0.008165565319359303,0.007292476948350668,0.0008139661513268948,0.009739084169268608,-0.0007405774667859077,0.04590857774019241
352,-0.0005397265776991844,-0.016769833862781525,-0.011252707801759243,0.006864961236715317,0.0010756021365523338,0.009860420599579811,-0.031302351504564285,0.008756008930504322,-0.008042583242058754,0.025266867130994797
353,0.03325117006897926,-0.021069731563329697,0.02853265590965748,0.012863031588494778,0.009829079732298851,0.011806236580014229,-0.0219101719558239,0.01867092400789261,-0.029447006061673164,0.0575498528778553
354,0.01507111731916666,0.011108647100627422,0.011395759880542755,0.018555890768766403,0.022712530568242073,0.015863638371229172,-0.02445576898753643,0.022244997322559357,-0.0021989536471664906,0.033252350986003876
355,0.02322479337453842,-0.0033531233202666044,-0.004335773643106222,0.013508317992091179,0.0029947860166430473,0.018971484154462814,-0.02657432295382023,0.021783296018838882,-0.029330044984817505,0.04050062224268913
356,-0.007058966439217329,-0.0014099907130002975,-0.055271584540605545,-0.01687387190759182,-0.014018530957400799,-0.0026829089038074017,0.03995683789253235,-0.0002641070168465376,0.001489683985710144,-0.0037466108333319426
357,0.024555616080760956,0.005935457535088062,0.0039023272693157196,0.007895790040493011,0.005427489057183266,0.009020709432661533,-0.009441743604838848,0.013425435870885849,-0.025386938825249672,0.0578896589577198
358,0.0034600154031068087,-0.026790466159582138,0.006700933910906315,0.004992556758224964,-0.011875137686729431,-0.0009982590563595295,-0.010144498199224472,0.0032663841266185045,-0.03201187402009964,0.019270621240139008
359,-0.03997128367023387,-0.07424675464839156,-0.010751588724491185,-0.025546745106108822,-0.030316606595673916,-0.010272704880663532,-0.019469547643674347,-0.01353947968752772,-0.030317419530641897,-0.04394661542091041
360,-0.004754060413688421,-0.013124988414347172,-0.04230083152651787,-0.010800543241202831,-0.010800432413816452,0.0015222376678138971,0.027981584891676903,0.003669770434498787,0.001607478130608797,0.006187009159475565
361,0.009776326827704906,-0.008704868145287037,0.016331925988197327,0.0004456440219655633,0.0004960964433848858,-0.0001376718282699585,-0.012447802349925041,0.0018425764283165336,-0.021209973841905594,0.04810212180018425
362,-0.011345919221639633,-0.0066278972662985325,-0.04207400232553482,-0.015246384777128696,-0.01353171095252037,-0.004831491969525814,0.02690608613193035,-0.0027995463460683823,-8.3213672041893e-05,-0.005701164714992046
363,-0.028290039322210383,0.016597877445793968,0.04607286884713923,-0.01622908191659589,-0.007481198792682768,-0.016877055807834475,0.025051590754563934,-0.010457354719578042,-0.04936621301901652,-0.004347297142213231
364,0.022340215742588043,-0.0029186690226197243,0.010376700200140476,0.019496334716677666,0.023871827870607376,0.01585882157087326,-0.02324257232248783,0.025231076404452324,-0.0065232934430241585,0.04649847000837326
365,0.022340215742588043,-0.0029186708852648735,0.010376702062785625,0.019496332854032516,0.023871826007962227,0.01585882157087326,-0.023242570459842682,0.025231076404452324,-0.006523296236991882,0.046498462557792664
366,-0.0056562721729278564,0.0008003667462617159,-0.019742749631404877,-0.014721525833010674,-0.013928823173046112,-0.014310881495475769,-0.01050682831555605,-0.010673106648027897,-0.005723202601075172,-0.009805602952837944
367,-0.010416618548333645,-0.0077776056714355946,-0.004339993465691805,0.003406066680327058,0.005369930528104305,0.010661646723747253,0.002074591815471649,0.01091417483985424,-0.0010108987335115671,0.034804847091436386
368,0.007326952181756496,0.004560734145343304,-0.029616715386509895,-0.013376226648688316,-0.020308945327997208,-0.012422324158251286,-0.037194594740867615,-0.00892171822488308,-0.03271748125553131,0.00547723937779665
369,0.00968259759247303,0.001217714510858059,0.02075972408056259,-0.006674119271337986,-0.0019860616885125637,-0.0027128211222589016,0.012937456369400024,0.004888845141977072,-0.019490621984004974,0.046709198504686356
370,0.015744606032967567,-0.04256950318813324,-0.0021302304230630398,0.012532873079180717,-0.001195293851196766,0.016464320942759514,-0.05290543660521507,0.017863791435956955,-0.028554197400808334,0.04686817526817322
371,-8.293232531286776e-05,-0.0033811735920608044,-0.006268927361816168,-0.004619676154106855,0.006115865893661976,0.0009625698439776897,0.015022271312773228,0.005062308628112078,0.023216862231492996,0.008902602829039097
372,0.003560969838872552,0.008991161361336708,-0.0183416660875082,-0.004927669186145067,-0.011291537433862686,-0.0033764024265110493,-0.012132258154451847,-0.0028366053011268377,-0.010928850620985031,0.004929087124764919
373,-0.010384826920926571,-0.0014018609654158354,-0.06290359795093536,-0.021084217354655266,-0.018402721732854843,-0.004835133440792561,0.04730691388249397,-0.0031878205481916666,0.002368283923715353,-0.009420931339263916
374,0.022340215742588043,-0.0029186708852648735,0.010376702062785625,0.019496332854032516,0.023871826007962227,0.01585882157087326,-0.023242570459842682,0.025231076404452324,-0.006523296236991882,0.046498462557792664
375,-0.00789388082921505,-0.011934852227568626,-0.04535096511244774,-0.011557841673493385,-0.011644400656223297,0.0009925200138241053,0.023728646337985992,0.0033883992582559586,-0.003660799004137516,0.005703747272491455
376,-0.004453978501260281,0.0030374079942703247,-0.02897113747894764,-0.008506961166858673,-0.005044047720730305,-0.006739861331880093,-0.0014309174148365855,-0.0004144448321312666,-0.0019007688388228416,-0.008025448769330978
377,-0.008085193112492561,0.0011600726284086704,-0.06764894723892212,-0.02226252667605877,-0.021704459562897682,-0.005345330573618412,0.04387271776795387,-0.006019912660121918,-0.01851043663918972,-0.002007384318858385
378,-0.008435336872935295,0.0047880662605166435,-0.018046827986836433,-0.005915083922445774,-0.0009246397530660033,-0.00045478460378944874,0.00634791050106287,0.002253190614283085,0.005753284320235252,0.00018560141324996948
379,-0.006826929748058319,-0.004766089841723442,-0.04242250323295593,-0.01754976250231266,-0.015006027184426785,-0.0038189892657101154,0.027354812249541283,-0.0009152687271125615,0.007424414157867432,0.001664631301537156
380,-0.01489219255745411,-0.013056055642664433,-0.026109136641025543,-0.02159375138580799,-0.015066292136907578,-0.015485664829611778,0.019724123179912567,-0.018551502376794815,0.01639391854405403,-0.018839135766029358
381,0.005218783393502235,-0.008516939356923103,-0.030086809769272804,-0.010835796594619751,-0.014251267537474632,-0.0024884759914129972,-0.02610895223915577,-0.0032581868581473827,-0.017369255423545837,0.011253977194428444
382,0.034552738070487976,-0.024115165695548058,0.0014316486194729805,0.02085251361131668,0.016627131029963493,0.020706143230199814,-0.029456350952386856,0.023754552006721497,-0.008796227164566517,0.05340326204895973
383,0.02956467494368553,0.020799260586500168,-0.0048542385920882225,0.00623454200103879,0.0015085020568221807,0.008953781798481941,-0.015405982732772827,0.006632443517446518,-0.042929716408252716,0.07252626121044159
384,0.012111151590943336,-0.006986667867749929,0.001018831506371498,0.0007480406202375889,-0.0036388556472957134,0.0015371589688584208,-0.024047479033470154,0.002200298011302948,-0.005319039337337017,0.018743395805358887
385,-0.011985729448497295,-0.005708587355911732,-0.07202332466840744,-0.025652941316366196,-0.023104684427380562,-0.007319947704672813,0.05616109073162079,-0.005642544943839312,0.002051481045782566,-0.011892508715391159
386,-0.014204838313162327,-0.022581132128834724,-0.017229856923222542,0.0022305992897599936,-0.004503735341131687,0.0106222964823246,-0.018454046919941902,0.010741090402007103,-0.011775018647313118,0.018423140048980713
387,0.02964305318892002,-0.01686719059944153,0.021185753867030144,0.006562005262821913,0.006947822868824005,0.009439682587981224,-0.023547464981675148,0.01906786859035492,-0.042421407997608185,0.0932784155011177
388,-0.014660468325018883,-0.03227477893233299,-0.017754338681697845,0.009880449622869492,-0.004814154002815485,0.014865731820464134,-0.06496335566043854,0.017390813678503036,-0.04226888343691826,0.03063007816672325
389,-0.002109262626618147,-0.008287040516734123,-0.04355781525373459,-0.010510413907468319,-0.011684194207191467,0.0033113276585936546,0.02950957603752613,0.0038757643196731806,-0.004012917168438435,0.01553102396428585
390,0.004109101835638285,-0.002985771745443344,-0.020123722031712532,-0.0035763655323535204,0.0046087224036455154,0.002749017905443907,0.015951039269566536,0.00881819985806942,0.00773643096908927,0.016221368685364723
391,0.009527846239507198,-0.022015070542693138,-0.039640121161937714,-0.003501362632960081,-0.010720252990722656,0.0062792799435555935,0.009140166454017162,0.003386920318007469,-0.0008191153174266219,0.022064562886953354
392,-0.0021595112048089504,-0.013809596188366413,-0.05503440275788307,-0.01620861515402794,-0.018520979210734367,-0.0030420117545872927,0.03007012978196144,-0.0016096878098323941,-0.005860927049070597,0.00840686447918415
393,-0.007036473602056503,-0.00808964017778635,-0.021878154948353767,-0.011177286505699158,-0.012445403262972832,-0.0027361265383660793,0.005638905800879002,0.0005162336165085435,-0.0028535146266222,0.00522629776969552
394,0.0013569262810051441,-0.01076161302626133,-0.029662737622857094,-0.008084481582045555,-0.00938381627202034,-0.004551577381789684,0.004043543711304665,-0.003449720796197653,-0.012919501401484013,0.010699392296373844
395,-0.0059308744966983795,-0.010141080245375633,-0.06106828153133392,-0.022645197808742523,-0.020762965083122253,-0.006860510911792517,0.04385295882821083,-0.005354420281946659,0.0013101890217512846,-0.004635228775441647
396,-0.011826758272945881,0.019318098202347755,-0.031488385051488876,-0.010845918208360672,-0.0030555250123143196,-0.000544488662853837,0.02303342893719673,0.0030818842351436615,0.003976804204285145,0.039390355348587036
397,-0.0072180284187197685,0.0017867949791252613,-0.04298234358429909,-0.013764032162725925,-0.011136209592223167,-0.0015584060456603765,0.028839971870183945,0.001119108754210174,0.0015757958171889186,2.226303331553936e-05
398,-8.293232531286776e-05,-0.0033811735920608044,-0.006268927361816168,-0.004619676154106855,0.006115865893661976,0.0009625698439776897,0.015022271312773228,0.005062308628112078,0.023216862231492996,0.008902602829039097
399,-0.0014498877571895719,-0.011457179673016071,-0.04591425880789757,-0.010369198396801949,-0.011330313980579376,0.002587174531072378,0.025789955630898476,0.004517836030572653,-0.004788764752447605,0.007435669656842947
400,0.0042522018775343895,-0.04449538514018059,-0.054342906922101974,0.0028614355251193047,-0.003778427839279175,0.0071534570306539536,-0.011934300884604454,0.0009238297352567315,-0.006566221825778484,0.01058327779173851
401,0.005177243147045374,-0.004313628189265728,-0.03082331456243992,-0.0030783028341829777,0.00038356782170012593,0.004269437398761511,0.016459256410598755,0.009794266894459724,-0.0022359052672982216,0.0173029787838459
402,-0.015651298686861992,-0.020763885229825974,-0.042910538613796234,-0.0108699481934309,-0.014935231767594814,0.00269106961786747,0.012964474968612194,0.003099472261965275,-0.007585607469081879,0.005802452098578215
403,0.012390682473778725,-0.010056760162115097,-0.010378492064774036,-0.002337671583518386,-0.013611149042844772,-0.00427790405228734,-0.04104892536997795,0.0014372318983078003,-0.015396333299577236,0.01986411027610302
404,0.027423808351159096,0.0005260929465293884,-0.00024870922788977623,0.0022017545998096466,-0.004154232330620289,0.0013219529064372182,-0.01182272657752037,0.006266968324780464,-0.02543674223124981,0.04290318489074707
405,-0.007505436427891254,-0.005217204801738262,-0.017170105129480362,-0.005771791562438011,-0.007170835975557566,-0.0018441269639879465,-0.008196084760129452,-0.0009305939311161637,-0.00251847505569458,-0.00958726741373539
406,0.005177243147045374,-0.004313628189265728,-0.03082331456243992,-0.003078303299844265,0.00038356782170012593,0.0042694369331002235,0.016459256410598755,0.009794266894459724,-0.0022359052672982216,0.01730298064649105
407,-0.004457598552107811,-0.017954271286725998,-0.039065685123205185,-0.012704329565167427,-0.016659528017044067,-0.003748395713046193,0.0010162470862269402,-0.0029925238341093063,-0.01602250523865223,0.010034422390162945
408,-0.005752038210630417,-0.010950170457363129,-0.035104889422655106,-0.00470782769843936,-0.009750168770551682,-0.0022024696227163076,0.006734256632626057,-0.000909745111130178,0.01551275234669447,-0.00173613999504596
409,0.008423305116593838,-0.022267375141382217,0.0058055780827999115,0.014424895867705345,-0.008413837291300297,0.004888137802481651,-0.03463168814778328,0.002163751982152462,-0.060642343014478683,0.0249424297362566
410,-0.010555319488048553,-0.007037575822323561,-0.04887015372514725,-0.013840127736330032,-0.013612810522317886,-0.0001935973996296525,0.02801523357629776,0.0012450999347493052,-0.001609225757420063,-0.0005946068558841944
411,0.001508684130385518,-0.02256871573626995,-0.02584800310432911,-0.006617019884288311,-0.010654846206307411,-0.004026692360639572,0.019396357238292694,0.00010693335207179189,-0.01028446201235056,0.01613723859190941
412,0.01481594517827034,-0.015163211151957512,-0.029765048995614052,0.004582403227686882,-0.00041062699165195227,0.012353193014860153,0.004803622141480446,0.013188483193516731,-0.008826304227113724,0.03041626513004303
413,0.015071116387844086,0.011108646169304848,0.011395759880542755,0.018555890768766403,0.022712530568242073,0.015863638371229172,-0.02445576898753643,0.022244997322559357,-0.0021989536471664906,0.033252354711294174
414,0.012069111689925194,-0.019942551851272583,-0.022525586187839508,0.0020891453605145216,2.7742236852645874e-05,0.013303283601999283,0.012576139532029629,0.0163281187415123,-0.006698502227663994,0.03130664676427841
415,0.022340215742588043,-0.0029186690226197243,0.010376700200140476,0.019496334716677666,0.023871827870607376,0.01585882157087326,-0.02324257232248783,0.025231076404452324,-0.0065232934430241585,0.04649847000837326
416,0.023681238293647766,-0.022702299058437347,-0.018971577286720276,0.01120054256170988,-0.011298282071948051,0.003320870688185096,-0.061294764280319214,0.010641584172844887,-0.04737222194671631,0.02876151353120804
417,0.022340215742588043,-0.0029186690226197243,0.010376700200140476,0.019496334716677666,0.023871827870607376,0.01585882157087326,-0.02324257232248783,0.025231076404452324,-0.0065232934430241585,0.04649847000837326
418,0.022340215742588043,-0.0029186690226197243,0.010376700200140476,0.019496334716677666,0.023871827870607376,0.01585882157087326,-0.02324257232248783,0.025231076404452324,-0.0065232934430241585,0.04649847000837326
419,-0.006382599472999573,0.009364946745336056,-0.04010426625609398,-0.009662403725087643,-0.006647791247814894,0.0013769078068435192,0.025171518325805664,0.0029489859007298946,0.003160279942676425,-0.0032420018687844276
420,-0.004357738886028528,-0.00508861243724823,-0.05371221527457237,-0.015619771555066109,-0.012665461748838425,-0.002169111045077443,0.03851582482457161,0.00121826131362468,0.00014597363770008087,0.0010832669213414192
421,0.022340215742588043,-0.0029186690226197243,0.010376700200140476,0.019496334716677666,0.023871827870607376,0.01585882157087326,-0.02324257232248783,0.025231076404452324,-0.0065232934430241585,0.04649847000837326
422,-0.013318661600351334,-0.011183244176208973,-0.06143686920404434,-0.02027731016278267,-0.02013397589325905,-0.003679577261209488,0.040453217923641205,-0.0024636276066303253,-0.001452912576496601,-0.005457978695631027
423,-0.010874307714402676,-0.031853578984737396,-0.001956123858690262,0.010661112144589424,0.0018580155447125435,0.015628254041075706,-0.038278136402368546,0.01675962284207344,-0.016986628994345665,0.03254097327589989
424,-0.007634755223989487,0.02703077904880047,-0.007019027601927519,0.0001603987766429782,-0.0004128071013838053,0.008309590630233288,-0.00752305518835783,0.008702849969267845,-0.002950339112430811,0.00420575775206089
425,0.009295562282204628,-0.0058298129588365555,-0.02631460875272751,-0.0012565171346068382,-0.0068209473975002766,0.001905242563225329,0.007130898535251617,0.002495415508747101,-0.008001611568033695,0.01798374019563198
426,-0.0038073158357292414,0.0016164258122444153,-0.016018470749258995,-0.008156169205904007,-0.006198222748935223,-0.004556600470095873,0.004655756056308746,-0.003941476345062256,-0.0005340958596207201,0.006025554612278938
427,0.0061058527790009975,-0.008398033678531647,-0.022078797221183777,4.871748387813568e-06,-0.0010311994701623917,0.007224692031741142,-0.003953312989324331,0.009410001337528229,-0.00607468793168664,0.018421726301312447
428,-0.0006564877694472671,-0.015280899591743946,-0.04950245842337608,-0.008365999907255173,-0.013309651054441929,0.002319173188880086,0.035323210060596466,0.0038436404429376125,-0.005655347835272551,0.014053371734917164
429,-0.006264738272875547,-0.005243605002760887,-0.05828999727964401,-0.018128061667084694,-0.015275269746780396,-0.0034568191040307283,0.042927131056785583,-0.0004969387082383037,0.0006223525851964951,-0.0021606767550110817
430,0.013378050178289413,0.016996098682284355,-0.00034393882378935814,-0.0068308101035654545,-0.006905600894242525,-0.006785520352423191,-0.032028522342443466,-0.0013361915480345488,-0.022174756973981857,0.01143898069858551
431,0.0012688892893493176,-0.018112555146217346,-0.004414679948240519,0.009946217760443687,-0.0001828293316066265,0.014267411082983017,-0.013518150895833969,0.01491822674870491,-0.020006902515888214,0.035851623862981796
432,-0.00560667784884572,0.0020092553459107876,-0.04111449047923088,-0.015346014872193336,-0.009991658851504326,-0.008276112377643585,0.017343683168292046,-0.006299360655248165,0.0009319044766016304,0.0016881965566426516
433,0.02262035943567753,-0.006599136162549257,-0.004391970578581095,0.005001918412744999,-0.0018711555749177933,0.006221385672688484,-0.008811978623270988,0.0112359169870615,-0.028807498514652252,0.05539632961153984
434,-0.011985733173787594,-0.005708584561944008,-0.07202332466840744,-0.025652941316366196,-0.023104684427380562,-0.007319947704672813,0.05616108328104019,-0.005642544478178024,0.0020514826755970716,-0.01189250685274601
435,0.029110398143529892,-0.021065915003418922,0.0023136604577302933,0.011601119302213192,-0.0021545751951634884,0.011276209726929665,-0.04218777269124985,0.012289116159081459,-0.02101854979991913,0.04714813455939293
436,0.029558975249528885,-0.04842275753617287,0.01795908249914646,0.021723810583353043,0.007878012955188751,0.017359204590320587,-0.08290199190378189,0.021522637456655502,-0.02933165617287159,0.0692654401063919
437,-0.007664693519473076,0.004073780961334705,0.026773976162075996,-0.013923600316047668,0.020721837878227234,-0.009729818440973759,0.02630511112511158,-0.001858455827459693,0.06567545235157013,0.00036040646955370903
438,0.019532881677150726,-0.0035728742368519306,-0.021474849432706833,0.006714521907269955,0.008858360350131989,0.012188775464892387,0.0060996185056865215,0.018200205639004707,0.0022956435568630695,0.03909546136856079
439,-0.004389279056340456,-0.015061790123581886,-0.04989025369286537,-0.01569179631769657,-0.013969997875392437,-0.003563086036592722,0.03479909151792526,-0.0007252541836351156,-0.0032551949843764305,0.001024711411446333
440,0.007603049278259277,0.014610933139920235,0.015055043622851372,0.011260130442678928,0.02187192067503929,0.010381050407886505,-0.01401171088218689,0.01601351797580719,0.013889974914491177,0.02147332951426506
441,-0.011514319106936455,0.004077431745827198,-0.018306000158190727,-0.010443296283483505,-0.005806094966828823,-0.007766340859234333,-0.01037954818457365,-0.005381731316447258,-0.001930679427459836,-0.005122789181768894
442,0.026726368814706802,0.019601354375481606,-0.0039365580305457115,0.005143411457538605,5.703931674361229e-05,0.007835406810045242,-0.015249652788043022,0.009500553831458092,-0.03357532620429993,0.06930653750896454
443,0.0015713642351329327,0.037159379571676254,0.013288307934999466,0.016809359192848206,0.020559553056955338,0.015872590243816376,-0.026708824560046196,0.016699425876140594,0.0058319661766290665,0.00865243747830391
444,0.015157943591475487,0.002052991185337305,0.009714314714074135,0.010291126556694508,0.006701263599097729,0.009563667699694633,-0.014065411873161793,0.009701196104288101,-0.02163277193903923,0.042486317455768585
445,0.0020498717203736305,-0.0168939046561718,-0.0052709090523421764,0.00449950248003006,0.001514658099040389,0.0082679009065032,-0.011825992725789547,0.010024172253906727,-0.0035887910053133965,0.032218221575021744
446,0.036361418664455414,0.02611803449690342,0.010550223290920258,-0.01604507490992546,-0.026873042806982994,-0.016542896628379822,-0.06149893254041672,-0.010585536248981953,-0.023645594716072083,-0.01106389332562685
447,-0.007968218065798283,-0.008228056132793427,-0.005333676468580961,-0.006362243089824915,0.006101483479142189,-0.0005168304778635502,0.007546411827206612,-8.084403816610575e-05,0.03394192084670067,0.001180731225758791
448,0.01463830191642046,-0.0063757686875760555,-0.015755008906126022,0.0031605358235538006,-0.003436447586864233,-0.0013742628507316113,-0.01760476641356945,-0.0021377336233854294,0.010271037928760052,0.014437523670494556
449,-0.014346279203891754,-0.009215245023369789,-0.02831181138753891,0.005486540496349335,-0.008196399547159672,5.684699863195419e-05,-0.0263921357691288,0.003771823598071933,-0.027123907580971718,0.0017092972993850708
450,-0.004421435762196779,-0.020322255790233612,-0.042973604053258896,-0.004571537021547556,-0.011540165171027184,0.003543128725141287,-0.0063675567507743835,0.004308689851313829,-0.0174099188297987,0.012114591896533966
451,0.030436139553785324,-0.037459325045347214,0.007652653381228447,0.01576860435307026,0.008795103058218956,0.019043436273932457,-0.036747757345438004,0.02167685516178608,-0.012436110526323318,0.07301656156778336
452,0.03056480549275875,0.014687074348330498,-0.030816998332738876,0.013215973973274231,-0.005059444345533848,0.004488394595682621,-0.016937442123889923,-0.0005816491320729256,-0.05950907990336418,0.04462188482284546
453,0.008150494852761102,-0.014002931987691666,0.005647698308187821,-0.006021186324950985,-0.011963562118211679,0.0008465385619540597,0.05182383767242214,-0.006166264407402755,0.02993422689898435,-0.012445482888868625
454,0.012103520333766937,0.020505651831626892,0.00926077738404274,0.00421938207000494,0.007340601179748774,0.007070918567478657,0.001681468216702342,0.007095813285559416,-0.02392590045928955,0.04994916170835495
455,0.011981147341430187,-0.029612643644213676,-0.02719215676188469,-0.0011027122382074594,-0.009073899127542973,0.004464542493224144,-0.01610364019870758,0.006434035021811724,-0.013158777728676796,0.02560422755777836
456,0.033628497272729874,-0.044372569769620895,-0.0077143446542322636,0.00657649664208293,-0.019053345546126366,0.005448419600725174,-0.081520676612854,0.0015301634557545185,-0.02672225423157215,0.04210513085126877
